,0,1,2,3,4,5,6,7,8,9,10,11,12,13,14,15,16,17,18,19,20,21,22,23,24,25,26,27,28,29,30,31,32,33,34,35,36,37,38,39,40,41,42,43,44,45,46,47,48,49,50,51,52,53,54,55,56,57,58,59,60,61,62,63,64,65,66,67,68,69,70,71,72,73,74,75,76,77,78,79,80,81,82,83,84,85,86,87,88,89,90,91,92,93,94,95,96,97,98,99,100,101,102,103,104,105,106,107,108,109,110,111,112,113,114,115,116,117,118,119,120,121,122,123,124,125,126,127,128,129,130,131,132,133,134,135,136,137,138,139,140,141,142,143,144,145,146,147,148,149,150,151,152,153,154,155,156,157,158,159,160,161,162,163,164,165,166,167,168,169,170,171,172,173,174,175,176,177,178,179,180,181,182,183,184,185,186,187,188,189,190,191,192,193,194,195,196,197,198,199,200,201,202,203,204,205,206,207,208,209,210,211,212,213,214,215,216,217,218,219,220,221,222,223,224,225,226,227,228,229,230,231,232,233,234,235,236,237,238,239,240,241,242,243,244,245,246,247,248,249,250,251,252,253,254,255,256,257,258,259,260,261,262,263,264,265,266,267,268,269,270,271,272,273,274,275,276,277,278,279,280,281,282,283,284,285,286,287,288,289,290,291,292,293,294,295,296,297,298,299,300,301,302,303,304,305,306,307,308,309,310,311,312,313,314,315,316,317,318,319,320,321,322,323,324,325,326,327,328,329,330,331,332,333,334,335,336,337,338,339,340,341,342,343,344,345,346,347,348,349,350,351,352,353,354,355,356,357,358,359,360,361,362,363,364,365,366,367,368,369,370,371,372,373,374,375,376,377,378,379,380,381,382,383,384,385,386,387,388,389,390,391,392,393,394,395,396,397,398,399,400,401,402,403,404,405,406,407,408,409,410,411,412,413,414,415,416,417,418,419,420,421,422,423,424,425,426,427,428,429,430,431,432,433,434,435,436,437,438,439,440,441,442,443,444,445,446,447,448,449,450,451,452,453,454,455,456,457,458,459,460,461,462,463,464,465,466,467,468,469,470,471,472,473,474,475,476,477,478,479,480,481,482,483,484,485,486,487,488,489,490,491,492,493,494,495,496,497,498,499,500,501,502,503,504,505,506,507,508,509,510,511,512,513,514,515,516,517,518,519,520,521,522,523,524,525,526,527,528,529,530,531,532,533,534,535,536,537,538,539,540,541,542,543,544,545,546,547,548,549,550,551,552,553,554,555,556,557,558,559,560,561,562,563,564,565,566,567,568,569,570,571,572,573,574,575,576,577,578,579,580,581,582,583,584,585,586,587,588,589,590,591,592,593,594,595,596,597,598,599,600,601,602,603,604,605,606,607,608,609,610,611,612,613,614,615,616,617,618,619,620,621,622,623,624,625,626,627,628,629,630,631,632,633,634,635,636,637,638,639,640,641,642,643,644,645,646,647,648,649,650,651,652,653,654,655,656,657,658,659,660,661,662,663,664,665,666,667,668,669,670,671,672,673,674,675,676,677,678,679,680,681,682,683,684,685,686,687,688,689,690,691,692,693,694,695,696,697,698,699,700,701,702,703,704,705,706,707,708,709,710,711,712,713,714,715,716,717,718,719,720,721,722,723,724,725,726,727,728,729,730,731,732,733,734,735,736,737,738,739,740,741,742,743,744,745,746,747,748,749,750,751,752,753,754,755,756,757,758,759,760,761,762,763,764,765,766,767,768,769,770,771,772,773,774,775,776,777,778,779,780,781,782,783,784,785,786,787,788,789,790,791,792,793,794,795,796,797,798,799,800,801,802,803,804,805,806,807,808,809,810,811,812,813,814,815,816,817,818,819,820,821,822,823,824,825,826,827,828,829,830,831,832,833,834,835,836,837,838,839,840,841,842,843,844,845,846,847,848,849,850,851,852,853,854,855,856,857,858,859,860,861,862,863,864,865,866,867,868,869,870,871,872,873,874,875,876,877,878,879,880,881,882,883,884,885,886,887,888,889,890,891,892,893,894,895,896,897,898,899,900,901,902,903,904,905,906,907,908,909,910,911,912,913,914,915,916,917,918,919,920,921,922,923,924,925,926,927,928,929,930,931,932,933,934,935,936,937,938,939,940,941,942,943,944,945,946,947,948,949,950,951,952,953,954,955,956,957,958,959,960,961,962,963,964,965,966,967,968,969,970,971,972,973,974,975,976,977,978,979,980,981,982,983,984,985,986,987,988,989,990,991,992,993,994,995,996,997,998,999,1000,1001,1002,1003,1004,1005,1006,1007,1008,1009,1010,1011,1012,1013,1014,1015,1016,1017,1018,1019,1020,1021,1022,1023,1024,1025,1026,1027,1028,1029,1030,1031,1032,1033,1034,1035,1036,1037,1038,1039,1040,1041,1042,1043,1044,1045,1046,1047,1048,1049,1050,1051,1052,1053,1054,1055,1056,1057,1058,1059,1060,1061,1062,1063,1064,1065,1066,1067,1068,1069,1070,1071,1072,1073,1074,1075,1076,1077,1078,1079,1080,1081,1082,1083,1084,1085,1086,1087,1088,1089,1090,1091,1092,1093,1094,1095,1096,1097,1098,1099,1100,1101,1102,1103,1104,1105,1106,1107,1108,1109,1110,1111,1112,1113,1114,1115,1116,1117,1118,1119,1120,1121,1122,1123,1124,1125,1126,1127,1128,1129,1130,1131,1132,1133,1134,1135,1136,1137,1138,1139,1140,1141,1142,1143,1144,1145,1146,1147,1148,1149,1150,1151,1152,1153,1154,1155,1156,1157,1158,1159,1160,1161,1162,1163,1164,1165,1166,1167,1168,1169,1170,1171,1172,1173,1174,1175,1176,1177,1178,1179,1180,1181,1182,1183,1184,1185,1186,1187,1188,1189,1190,1191,1192,1193,1194,1195,1196,1197,1198,1199,1200,1201,1202,1203,1204,1205,1206,1207,1208,1209,1210,1211,1212,1213,1214,1215,1216,1217,1218,1219,1220,1221,1222,1223,1224,1225,1226,1227,1228,1229,1230,1231,1232,1233,1234,1235,1236,1237,1238,1239,1240,1241,1242,1243,1244,1245,1246,1247,1248,1249,1250,1251,1252,1253,1254,1255,1256,1257,1258,1259,1260,1261,1262,1263,1264,1265,1266,1267,1268,1269,1270,1271,1272,1273,1274,1275,1276,1277,1278,1279,1280,1281,1282,1283,1284,1285,1286,1287,1288,1289,1290,1291,1292,1293,1294,1295,1296,1297,1298,1299,1300,1301,1302,1303,1304,1305,1306,1307,1308,1309,1310,1311,1312,1313,1314,1315,1316,1317,1318,1319,1320,1321,1322,1323,1324,1325,1326,1327,1328,1329,1330,1331,1332,1333,1334,1335,1336,1337,1338,1339,1340,1341,1342,1343,1344,1345,1346,1347,1348,1349,1350,1351,1352,1353,1354,1355,1356,1357,1358,1359,1360,1361,1362,1363,1364,1365,1366,1367,1368,1369,1370,1371,1372,1373,1374,1375,1376,1377,1378,1379,1380,1381,1382,1383,1384,1385,1386,1387,1388,1389,1390,1391,1392,1393,1394,1395,1396,1397,1398,1399,1400,1401,1402,1403,1404,1405,1406,1407,1408,1409,1410,1411,1412,1413,1414,1415,1416,1417,1418,1419,1420,1421,1422,1423,1424,1425,1426,1427,1428,1429,1430,1431,1432,1433,1434,1435,1436,1437,1438,1439,1440,1441,1442,1443,1444,1445,1446,1447,1448,1449,1450,1451,1452,1453,1454,1455,1456,1457,1458,1459,1460,1461,1462,1463,1464,1465,1466,1467,1468,1469,1470,1471,1472,1473,1474,1475,1476,1477,1478,1479,1480,1481,1482,1483,1484,1485,1486,1487,1488,1489,1490,1491,1492,1493,1494,1495,1496,1497,1498,1499,1500,1501,1502,1503,1504,1505,1506,1507,1508,1509,1510,1511,1512,1513,1514,1515,1516,1517,1518,1519,1520,1521,1522,1523,1524,1525,1526,1527,1528,1529,1530,1531,1532,1533,1534,1535,1536,1537,1538,1539,1540,1541,1542,1543,1544,1545,1546,1547,1548,1549,1550,1551,1552,1553,1554,1555,1556,1557,1558,1559,1560,1561,1562,1563,1564,1565,1566,1567,1568,1569,1570,1571,1572,1573,1574,1575,1576,1577,1578,1579,1580,1581,1582,1583,1584,1585,1586,1587,1588,1589,1590,1591,1592,1593,1594,1595,1596,1597,1598,1599,1600,1601,1602,1603,1604,1605,1606,1607,1608,1609,1610,1611,1612,1613,1614,1615,1616,1617,1618,1619,1620,1621,1622,1623,1624,1625,1626,1627,1628,1629,1630,1631,1632,1633,1634,1635,1636,1637,1638,1639,1640,1641,1642,1643,1644,1645,1646,1647,1648,1649,1650,1651,1652,1653,1654,1655,1656,1657,1658,1659,1660,1661,1662,1663,1664,1665,1666,1667,1668,1669,1670,1671,1672,1673,1674,1675,1676,1677,1678,1679,1680,1681,1682,1683,1684,1685,1686,1687,1688,1689,1690,1691,1692,1693,1694,1695,1696,1697,1698,1699,1700,1701,1702,1703,1704,1705,1706,1707,1708,1709,1710,1711,1712,1713,1714,1715,1716,1717,1718,1719,1720,1721,1722,1723,1724,1725,1726,1727,1728,1729,1730,1731,1732,1733,1734,1735,1736,1737,1738,1739,1740,1741,1742,1743,1744,1745,1746,1747,1748,1749,1750,1751,1752,1753,1754,1755,1756,1757,1758,1759,1760,1761,1762,1763,1764,1765,1766,1767,1768,1769,1770,1771,1772,1773,1774,1775,1776,1777,1778,1779,1780,1781,1782,1783,1784,1785,1786,1787,1788,1789,1790,1791,1792,1793,1794,1795,1796,1797,1798,1799,1800,1801,1802,1803,1804,1805,1806,1807,1808,1809,1810,1811,1812,1813,1814,1815,1816,1817,1818,1819,1820,1821,1822,1823,1824,1825,1826,1827,1828,1829,1830,1831,1832,1833,1834,1835,1836,1837,1838,1839,1840,1841,1842,1843,1844,1845,1846,1847,1848,1849,1850,1851,1852,1853,1854,1855,1856,1857,1858,1859,1860,1861,1862,1863,1864,1865,1866,1867,1868,1869,1870,1871,1872,1873,1874,1875,1876,1877,1878,1879,1880,1881,1882,1883,1884,1885,1886,1887,1888,1889,1890,1891,1892,1893,1894,1895,1896,1897,1898,1899,1900,1901,1902,1903,1904,1905,1906,1907,1908,1909,1910,1911,1912,1913,1914,1915,1916,1917,1918,1919,1920,1921,1922,1923,1924,1925,1926,1927,1928,1929,1930,1931,1932,1933,1934,1935,1936,1937,1938,1939,1940,1941,1942,1943,1944,1945,1946,1947,1948,1949,1950,1951,1952,1953,1954,1955,1956,1957,1958,1959,1960,1961,1962,1963,1964,1965,1966,1967,1968,1969,1970,1971,1972,1973,1974,1975,1976,1977,1978,1979,1980,1981,1982,1983,1984,1985,1986,1987,1988,1989,1990,1991,1992,1993,1994,1995,1996,1997,1998,1999,2000,2001,2002,2003,2004,2005,2006,2007,2008,2009,2010,2011,2012,2013,2014,2015,2016,2017,2018,2019,2020,2021,2022,2023,2024,2025,2026,2027,2028,2029,2030,2031,2032,2033,2034,2035,2036,2037,2038,2039,2040,2041,2042,2043,2044,2045,2046,2047,2048,2049,2050,2051,2052,2053,2054,2055,2056,2057,2058,2059,2060,2061,2062,2063,2064,2065,2066,2067,2068,2069,2070,2071,2072,2073,2074,2075,2076,2077,2078,2079,2080,2081,2082,2083,2084,2085,2086,2087,2088,2089,2090,2091,2092,2093,2094,2095,2096,2097,2098,2099,2100,2101,2102,2103,2104,2105,2106,2107,2108,2109,2110,2111,2112,2113,2114,2115,2116,2117,2118,2119,2120,2121,2122,2123,2124,2125,2126,2127,2128,2129,2130,2131,2132,2133,2134,2135,2136,2137,2138,2139,2140,2141,2142,2143,2144,2145,2146,2147,2148,2149,2150,2151,2152,2153,2154,2155,2156,2157,2158,2159,2160,2161,2162,2163,2164,2165,2166,2167,2168,2169,2170,2171,2172,2173,2174,2175,2176,2177,2178,2179,2180,2181,2182,2183,2184,2185,2186,2187,2188,2189,2190,2191,2192,2193,2194,2195,2196,2197,2198,2199,2200,2201,2202,2203,2204,2205,2206,2207,2208,2209,2210,2211,2212,2213,2214,2215,2216,2217,2218,2219,2220,2221,2222,2223,2224,2225,2226,2227,2228,2229,2230,2231,2232,2233,2234,2235,2236,2237,2238,2239,2240,2241,2242,2243,2244,2245,2246,2247,2248,2249,2250,2251,2252,2253,2254,2255,2256,2257,2258,2259,2260,2261,2262,2263,2264,2265,2266,2267,2268,2269,2270,2271,2272,2273,2274,2275,2276,2277,2278,2279,2280,2281,2282,2283,2284,2285,2286,2287,2288,2289,2290,2291,2292,2293,2294,2295,2296,2297,2298,2299,2300,2301,2302,2303,2304,2305,2306,2307,2308,2309,2310,2311,2312,2313,2314,2315,2316,2317,2318,2319,2320,2321,2322,2323,2324,2325,2326,2327,2328,2329,2330,2331,2332,2333,2334,2335,2336,2337,2338,2339,2340,2341,2342,2343,2344,2345,2346,2347,2348,2349,2350,2351,2352,2353,2354,2355,2356,2357,2358,2359,2360,2361,2362,2363,2364,2365,2366,2367,2368,2369,2370,2371,2372,2373,2374,2375,2376,2377,2378,2379,2380,2381,2382,2383,2384,2385,2386,2387,2388,2389,2390,2391,2392,2393,2394,2395,2396,2397,2398,2399,2400,2401,2402,2403,2404,2405,2406,2407,2408,2409,2410,2411,2412,2413,2414,2415,2416,2417,2418,2419,2420,2421,2422,2423,2424,2425,2426,2427,2428,2429,2430,2431,2432,2433,2434,2435,2436,2437,2438,2439,2440,2441,2442,2443,2444,2445,2446,2447,2448,2449,2450,2451,2452,2453,2454,2455,2456,2457,2458,2459,2460,2461,2462,2463,2464,2465,2466,2467,2468,2469,2470,2471,2472,2473,2474,2475,2476,2477,2478,2479,2480,2481,2482,2483,2484,2485,2486,2487,2488,2489,2490,2491,2492,2493,2494,2495,2496,2497,2498,2499,2500,2501,2502,2503,2504,2505,2506,2507,2508,2509,2510,2511,2512,2513,2514,2515,2516,2517,2518,2519,2520,2521,2522,2523,2524,2525,2526,2527,2528,2529,2530,2531,2532,2533,2534,2535,2536,2537,2538,2539,2540,2541,2542,2543,2544,2545,2546,2547,2548,2549,2550,2551,2552,2553,2554,2555,2556,2557,2558,2559,2560,2561,2562,2563,2564,2565,2566,2567,2568,2569,2570,2571,2572,2573,2574,2575,2576,2577,2578,2579,2580,2581,2582,2583,2584,2585,2586,2587,2588,2589,2590,2591,2592,2593,2594,2595,2596,2597,2598,2599,2600,2601,2602,2603,2604,2605,2606,2607,2608,2609,2610,2611,2612,2613,2614,2615
0,0.004313524,0.0033013497,-0.010779674,-0.025471937,0.011900721,0.02597222,-0.022877406,-0.00395981,-0.015487473,-0.009092503,-0.015374048,0.008642169,-0.015392183,-0.013237845,0.020861734,0.0256373,-0.0013853693,-0.049051266,-0.040130075,-0.0065563987,-0.04981901,-0.017774152,0.0018588332,-0.0015832153,0.17504026,-0.0066221324,0.11242212,0.000745662,0.032825142,-0.005483518,-0.02322832,-0.0035408463,0.024562756,-0.037695188,-0.018080877,0.011154959,-0.018635077,-0.02442368,-0.009103459,-0.04037574,0.011701415,-0.021576999,-0.010997764,-0.02130723,-0.05458024,-0.020048859,-0.021025991,-0.04253236,-0.018225266,-0.0277252,-0.10516448,0.07803225,0.006774498,-0.0022977847,-0.0053271363,-0.011892874,-0.004147154,-0.02141096,-0.009881532,-0.046212498,0.016093386,0.0053815804,-0.029287685,0.005449065,0.035881355,0.04574977,-0.019657956,0.039659984,-0.00014302456,0.041289758,0.0041703526,-0.03745081,0.011487243,0.03586141,-0.00022180831,-0.0026465238,-0.015746694,0.017366383,0.05479715,-0.011539052,-0.00094484567,-0.0106746815,-0.019657155,-0.008623741,-0.00436932,-0.029245174,-0.02394595,0.040826406,0.038503878,0.02488948,-0.028108371,0.07053853,-0.028089477,0.006930992,-0.013242167,-0.013086267,0.037560374,0.034435984,-0.0141155,0.01287498,0.028382251,-0.027183298,0.0040852996,-0.009083405,-0.025164854,-0.0010229049,-0.038289275,-0.019242523,-0.024088662,-0.002511426,0.017037814,0.001794076,-0.0012468055,0.0027332457,-0.031352624,0.02450192,-0.016500402,0.034077216,0.0029774026,0.040334523,-0.03889053,-0.0012653782,-0.0043886537,0.009395022,-0.01903886,-0.019701133,0.06019357,-0.008954482,0.013465509,0.008291874,-0.0060526053,0.007906999,0.016862303,-0.030073842,-0.035344962,-0.0168064,0.0069961287,-0.0008933887,-0.03878503,-0.0086475955,-0.006899476,-0.026757877,-0.046036307,-0.010948014,0.04171856,-0.015344808,0.004953817,-0.004714715,-0.014792711,0.073762745,-0.037398122,-0.0025985334,-0.005446186,0.064478815,0.059131086,-0.009442357,-0.02267092,-0.063768394,-0.05804894,-0.011065434,-0.0139155295,0.013112067,0.009941834,0.016165005,-0.021046987,0.029835613,0.010324951,0.030803014,-0.0067998385,-0.07260757,0.01312877,0.008852143,0.018163886,-0.04069723,-0.0028376717,-0.0036207093,0.006998975,-0.009412381,-0.04205784,0.010330329,0.008701822,-0.032602932,0.0753154,0.04503288,0.009715223,0.019489791,-0.008769192,-0.0064357575,0.08088758,0.022420704,-0.0017760341,-0.009714663,-0.017510045,-0.0046521113,-0.011824806,-0.09644903,-0.021076927,-0.011487576,-0.01773957,0.062160008,0.01715622,-0.006619919,0.028014585,0.006434083,0.01210475,-0.017822836,0.026811711,0.03025245,-0.005198336,-0.041127697,0.050510608,0.012434512,-0.015973069,0.02710566,0.0057034786,-0.003758991,0.03775496,-0.016645744,0.02833787,0.021897744,0.020546857,-0.020529795,-0.0005165937,0.0045900126,-0.024886467,-0.047514804,0.018020187,-0.015800089,-0.0051509165,-0.065306544,-0.03590451,-0.08872233,0.004065657,0.054382645,-0.031085405,-0.012857558,0.019787094,0.08864584,-0.02451492,0.011789588,-0.0062613785,0.035968255,0.02600399,-0.03585284,0.0007049881,-0.011019311,0.0047861324,-0.04580891,-0.03561812,-0.0074727293,-0.030298006,-0.0052908026,-0.0035154463,-0.011556502,-0.012565767,0.0033672422,-0.001958728,0.009457786,-0.014252084,-0.0054538394,-0.030851342,0.12204571,-0.007978297,-0.009448141,-0.032004382,-0.012293861,-0.011020989,0.03235049,0.00042860964,0.03243716,-0.05474024,0.042733952,-0.01083159,-0.004822397,-0.00642906,0.006411396,-0.018724946,-0.0124190105,-0.0030327546,-0.0006617085,-0.0381799,-0.027171826,-0.027398981,-0.008314848,-0.021176908,-0.0042490223,-0.01019812,0.06516005,0.057461962,-0.013245258,0.01808732,0.0011257778,-0.04218423,-0.0027059044,0.017010786,0.0061332486,-0.00840275,-0.013061208,-0.05883454,-0.035310898,-0.0057871644,0.0068223192,0.005016593,-0.020339197,-0.017604562,0.0025450166,-0.012999105,-0.016207946,0.025496187,-0.012171155,-0.03592535,0.034529496,-0.0032198885,-0.07613457,-0.0032750745,-2.7978194e-05,-0.037473638,-0.0052695023,-0.021224944,-0.013985192,0.053624667,-0.01970232,-0.017023392,-0.017568765,-0.061996784,-0.023968145,0.029571468,-0.006313998,0.020969285,-0.03410467,-0.011987455,0.015410014,-0.061010167,-0.018115316,0.023351386,-0.025252588,0.039070733,0.02119788,0.028672727,-0.002219525,0.043332804,0.023065543,-0.015780872,0.028944355,-0.0035985934,-0.014754611,0.073602416,0.010054309,0.018144375,0.0065604923,-0.031734284,-0.0073215086,0.081463605,-0.0023129026,-0.010075072,0.009900386,-0.022463301,0.020402195,0.00924093,0.047721017,-0.015511822,0.062168304,-0.007882318,0.010274107,-0.009859068,-0.024850173,0.043687087,0.007140706,0.04957017,-0.018215554,0.11968376,-0.039097533,0.024093457,-0.027931418,0.006579175,0.033085812,-0.010269833,0.09789597,-0.03275898,-0.0033501517,-0.043049414,-0.0527428,-0.0046559446,-0.044078648,-0.021866845,-0.019191792,-0.012020959,0.017291337,-0.0021526555,-0.05566622,0.026383681,-0.010261955,-0.0013071812,-0.008200093,-0.013529327,-0.013919997,-0.00882781,-0.002187364,-0.030599464,-0.0024181071,-0.024572767,-0.017554693,-0.012104932,0.0014545167,0.006154953,0.012068391,-0.026012748,0.03221295,0.0031199532,0.048052352,-0.032984916,0.03653813,-0.0055167745,-0.0049433163,-0.060469348,0.005561274,-0.034984875,-0.027004885,0.04402135,0.024468383,-0.029357158,0.09618105,-0.07656022,0.019731045,-0.010652519,0.025593307,0.038760107,0.004278973,-0.02125931,0.047115877,-0.011176738,0.01802542,-0.006066998,-0.009770172,0.0005072293,0.01064559,0.0055032116,0.014329558,-0.02319671,0.030182403,-0.015632046,-0.01517666,-0.011350532,-0.028940216,-0.055637665,0.0046877014,-0.013254245,-0.03952886,0.023754083,0.030782586,-0.01880329,-0.050579052,-0.030223219,-0.008460471,0.0009973801,-0.027203849,-0.064886115,-0.040741134,-0.0064436323,-0.028185021,-0.018202033,-0.023093933,-0.016418982,-0.041933674,-0.03386507,-0.0073037916,0.032610722,0.021780256,0.022356763,-0.025343267,-0.025346337,0.021671178,-0.055470634,-0.05456412,-0.019702302,0.0072537046,0.07895169,0.037683707,0.010198981,0.008788849,-0.011122885,-0.07036923,0.01897074,-0.03803629,-0.034993567,0.064472295,-0.0034643544,-0.020524872,0.0069170617,0.03276278,0.008554287,0.0010618512,0.03461652,0.013607585,0.020747978,-0.012885795,0.008179686,-0.048118517,0.0022572735,-0.0001118937,-0.019482164,-0.048343416,0.04443608,-0.0009975662,-0.05735095,0.03621854,0.035955288,-0.0057446025,-0.02909912,0.011882878,-0.018001946,-0.010986131,0.014291024,-0.010087532,-0.0003336273,0.03386099,-0.045891475,-0.045268305,0.094178975,-0.01053307,-0.00088207447,-0.013093227,-0.028018253,0.03140315,-0.020995984,-0.007675492,0.016439794,0.015175922,-0.03230886,-0.07477861,0.0007940565,0.045149844,-0.022442088,-0.04852143,0.0027451713,0.20076074,-0.022543939,0.005422906,0.017702209,0.07783247,-0.03444437,-0.025651896,-0.011016062,0.034530506,0.035611372,-0.046144214,-0.023838792,0.08591913,-0.030936979,-0.03354425,0.021815872,0.037506633,0.040627487,0.0074520484,-0.007149645,-0.033903044,-0.014245629,-0.007458248,0.008170555,-0.0025150403,-0.0161527,0.053087413,0.012291194,0.052377354,0.03979398,-0.004654643,0.005260197,-0.016869409,-0.025720125,-0.014912439,-0.019972257,0.051465504,0.0009796767,-0.012829886,-0.020773634,-0.017240388,0.0030687924,0.003060206,0.046788607,0.011435496,0.0117849745,-0.0006121588,-0.02809645,0.005904235,0.05874118,-0.017712045,-0.0183747,-0.018376073,-0.02279784,0.01190812,-0.012567389,0.0012777337,-0.005015193,-0.0065471404,0.016835082,-0.009695091,-0.028124947,0.023474552,0.010539089,-0.018761305,0.023841102,-0.0009767954,-0.0067600315,0.073554836,0.055144046,-0.0121614225,0.017695691,0.009591182,-0.0019044859,0.0017793751,0.004924457,-0.02066399,-0.007153656,0.039809015,-0.028294517,-0.020398224,0.029133294,-0.023778211,0.0004143307,0.0078911595,0.071456544,-0.003699909,-0.04344861,0.03428428,0.017961292,-0.010090606,-0.03574313,-0.013712742,-0.01916019,-0.009414427,0.066320255,-0.022723183,0.030862248,-0.03420807,-0.014953865,-0.0017665456,-0.015447547,0.030102676,-0.010189024,-0.024840405,-0.020020122,0.027511783,0.021193007,0.037625223,-0.037714366,0.041479193,-0.016079785,-0.03777334,-0.041165125,-0.01878005,0.02716977,-0.017676746,-0.023496317,-0.011731384,0.0054549975,0.0030066837,0.006019047,-0.023009924,-0.00434642,0.060473267,-0.03513786,-0.0034351158,0.03971898,-0.033574868,-0.008619953,-0.02745317,0.03572329,-0.0027952495,0.005347881,0.03226217,0.025489556,0.02490484,-0.009024923,0.0077854795,-0.039058868,-0.005076018,-0.07017296,-0.008134468,0.0049273446,-0.011693234,0.033713408,-0.025114063,-0.018140795,-0.010015041,-0.009617019,-0.032699574,-6.4651365e-05,0.0011356203,0.0044421135,-0.052164074,-0.0151753845,0.014347711,0.046249155,-0.027849447,-0.03847029,-0.065721266,-0.017362593,0.047425043,0.029156808,-0.016758662,-0.06983606,-0.025882445,-0.0042726556,-0.07574897,0.0054043294,0.01626367,0.0009395627,-0.048568137,0.07161916,-0.06501818,0.007977162,0.05918093,-0.010493178,-0.010460138,0.045750927,-0.018920124,0.02332396,0.119795695,-0.024169603,-0.0155449305,-0.04172715,0.034631804,0.015357392,0.0034388355,-0.01545277,-0.008017671,-0.006475295,-0.007580141,0.0048836856,0.029953029,0.0068271942,-0.016470015,-0.0059863445,-0.0017601633,0.07132268,-0.007887613,-0.006298722,0.026275527,-0.007986011,-0.017699394,-0.002988933,-0.025689501,-0.000493481,-0.034745026,0.008106941,-0.05192952,0.0033436846,-0.004426752,-0.12048439,0.010969807,0.029689943,-0.031471573,-0.0015612266,-0.018943002,0.0010146602,0.0015892569,-0.018628426,0.011387638,0.088622764,0.046261042,-0.0030601379,-0.027256863,-0.012802754,0.0007783925,0.027685517,-0.0021574164,0.014832443,-0.025323939,-0.017840909,-0.043917477,0.0056312787,0.03383407,-0.00425078,-0.026990907,0.06561594,-0.027088817,0.012025302,0.005120056,-0.010460795,0.008520552,-0.0045612934,-0.014231436,0.006107215,0.018734995,-0.03706544,-0.011070011,0.06425009,0.023298195,0.01813481,0.008898303,-0.005812718,-0.007290511,-0.1131951,0.0023762302,0.043552373,-0.013970172,-0.04778082,-0.009579127,0.019885188,-0.0074749747,-0.0025057276,-0.0033168003,-0.013297944,-0.0080559,-0.029435692,-0.09564116,-0.022211486,-0.016710548,0.010951247,0.032789532,-0.031513363,-0.030338436,-0.0034657663,0.032027613,-0.009786608,-0.028981617,-0.0010732549,-0.025642874,-0.084764056,-0.017346427,-0.08076855,0.014625712,-0.02544161,-0.00578445,-0.007907074,-0.026837006,0.0034480637,-0.0008619102,0.067479596,-0.008376653,0.005863091,-0.022647334,-0.004585464,-0.009457121,-0.0011862864,-0.042901885,-0.0042015957,0.021046653,0.025674354,-0.07415215,0.0072243004,-0.013960171,-0.048721157,-0.014613991,0.03140127,-0.0053299423,-0.044703007,-0.039749913,-0.019591725,-0.04665939,-0.023755347,-0.0065345145,0.006638989,-0.023801517,-0.014281228,-0.005926729,-0.007159671,0.002698332,-0.03339965,0.00658158,-0.004972763,0.0014178714,-0.022481177,-0.016128877,-0.032121595,0.044684976,0.0011979579,0.042405177,-0.031538647,-0.029145988,0.015640533,-0.007104899,0.016944833,-0.011856056,-0.015704844,-0.019857427,-0.032264866,0.00045450783,-0.0099995285,0.014652463,-0.048614703,0.03277653,-0.009987574,0.011977253,0.108174875,0.015851282,-0.006712099,-0.061969776,0.050157536,-0.004004885,-0.026021134,-0.057566565,-0.011866324,-0.02200464,-0.057698153,0.028173598,-0.004481365,0.00018967019,0.008485054,-0.013526476,0.028905839,-0.042868692,0.105079785,-0.018368606,-0.010366613,-0.01550893,0.0036424764,-0.0051791687,-0.014118155,-0.041031938,-0.00942804,0.024621846,-0.033081964,0.0015264392,0.0019363674,0.024658248,-0.005222908,0.00065243716,-0.024769545,0.031843062,-0.004078738,0.003333478,-0.016206304,-0.04733428,-0.010702905,-0.016993249,-0.0190772,-0.00976985,-0.11585627,-0.015596453,-0.034106374,-0.028069299,-0.015399257,-0.004968315,-0.018949887,0.0037302019,-0.02667511,0.027638847,-0.0048194793,0.021566033,0.024824591,-0.037218153,0.04689043,0.025393292,0.010168943,0.004756379,-0.03554582,-0.0012494522,-0.06109403,-0.041646432,0.0406654,-0.051883936,-0.019788742,-0.029146863,0.0029996466,-0.02389302,-0.124254875,-0.018840617,0.00030751192,-0.016495125,-0.014471959,-0.014193652,-0.026872149,-0.021476349,-0.013357737,0.015277168,0.014849198,0.047839127,0.019233003,-0.013273372,-0.040234264,-0.010060612,0.022923559,-0.00846685,0.040610395,0.018618282,0.0025508022,-0.09777195,-0.012161307,0.015554572,-0.015186012,-0.027580421,0.02757921,-0.003181098,0.0011142496,-0.020515632,-0.030312464,-0.00013017176,-0.023201797,0.017033141,-0.0070730303,-0.0403966,-0.045363955,-0.010209278,-0.013439744,-0.0036632812,0.004320192,-0.03595543,-0.01150602,-0.004101281,0.022076547,-0.014131395,-0.039045338,-0.0015577474,-0.07023022,0.014066389,0.004914283,-0.034230422,0.016565248,-0.02118707,-0.005603361,0.025477951,-0.016729085,-0.02267155,0.00087985286,0.019809255,-0.013961651,-0.034337077,2.21266e-05,-0.025331032,-0.014265996,0.010331112,-0.03591843,-0.011846645,0.043248765,0.0061107725,-0.040049326,-0.0070931185,-0.021894291,0.024494307,-0.01202189,0.018494131,0.01644446,-0.030892402,-0.019242264,0.023118882,-0.0018647545,-0.023523884,0.02207745,-0.046942692,-0.045545146,-0.05904611,-0.020154007,0.0020424076,-0.026771484,-0.012036976,-0.037234314,-0.011075688,-0.02494227,0.029071743,-0.04711472,-0.0650348,0.0891498,-0.0051449514,-0.0020369114,-0.031219501,0.024175195,-0.027465753,-0.04541185,0.049328554,-0.04438565,0.022724546,0.07440741,0.005280492,0.016147124,-0.036151532,-0.0037829038,-0.011901888,0.05616019,-0.013211886,-0.015807115,0.014483785,-0.07210877,-0.04141021,0.015005235,-0.022444036,0.010630114,0.0028148936,-0.0008929264,0.016778518,-0.06935309,0.054737024,-0.017695127,-0.018695954,-0.036692664,-0.022446172,0.02617821,0.013564193,0.01970915,-0.013924671,1.5424615e-05,-0.0069964635,6.020566e-05,-0.0041776854,-0.0149557,-0.013533915,-0.037566677,-0.021672998,0.00076574774,0.010636565,-0.0021056738,-0.02524614,-0.078772604,0.005140925,0.0036534304,-0.009684559,-0.011606624,0.008900331,-0.0182763,-0.022686608,-0.028822241,-0.023507735,0.035652865,-0.0019627193,-0.0139826955,-0.009341458,-0.017292527,0.0048067747,-0.031115381,0.0005518545,-0.005281743,0.07588056,-0.028207164,-0.0073324074,0.028912155,-0.070129484,0.019587373,0.0055062333,-0.030448766,-0.054085292,-0.032967146,0.014344509,-0.037228245,-0.043932166,-0.00014926343,0.021212805,-0.01625801,-0.0042085834,-0.030948043,0.024430858,-0.0066410573,-0.060701538,-0.007954376,0.0155765135,0.008729409,-0.03188563,-0.0014689718,0.014492581,0.004919173,0.061247844,-0.03955259,-0.02382475,0.001320974,0.005714862,0.056863487,0.0017742087,0.016443698,-0.027942779,0.0044550193,0.015753055,0.026969515,0.0035672733,-0.008907115,-0.019862022,-0.0016238419,0.0017235575,0.0058590127,0.0045496994,0.021774376,-0.007849756,-0.0070709107,0.0062250993,0.04689353,-0.017777463,-0.008039706,0.034053702,-0.022395171,-0.070666485,-0.0025055404,0.0026420201,-0.012665894,-0.009715685,-0.0010771737,0.009703357,0.010383562,-0.050452426,-0.094700694,-0.02510213,-0.022609955,0.07762065,0.022867372,-0.033060174,0.002215683,-0.0055648796,-0.012556399,-0.08677176,-0.01028123,-0.030911576,-0.03341912,-0.025569191,-0.017708201,-0.035780933,-0.021022191,0.032605816,-0.026865441,0.030590914,-0.008350077,-0.0340439,-0.023354864,-0.023137009,-0.019235052,0.059184786,0.039281987,0.006000275,0.0011603347,-0.006419733,-0.0052056722,0.015020344,-0.005077429,0.0026829024,0.010813631,-0.025059067,0.039118342,-0.004486147,0.009908331,-0.025849968,0.0031531213,0.0056052264,0.012980563,-0.01981806,-0.03422749,-0.04158676,-0.029944813,-0.020005114,0.019943912,-0.044156544,0.049048834,0.025671279,-0.0078081028,0.01908307,0.12369433,-0.0044087553,0.015909618,0.015679337,-0.030475771,-0.018887145,-0.027133387,0.0013551736,-0.04993627,-0.02964449,0.0048357532,-0.014242072,0.002769109,0.003621227,-0.025677755,0.07226978,-0.0017402081,-0.008173263,0.03851254,0.019628247,-0.011764676,-0.02332863,0.062454414,-0.0043352926,-0.009835532,-0.005651187,0.0061759776,-0.031017208,0.035924852,-0.039456747,-0.0054973005,-0.018226448,-0.009212954,-0.029202344,0.0152830975,0.006089451,-0.026375059,0.0060775625,0.011833082,-0.0298862,-0.013954623,0.020236956,0.05210177,-0.0052046906,0.01203996,0.021254377,-0.025540095,-0.023411352,0.011102578,-0.041370634,0.043354306,-0.011965511,-0.0098968195,-0.006278434,-0.009440849,-0.022478137,-0.053327404,-0.025445832,-0.011329469,0.08476804,-0.014759769,0.035778705,0.05151021,0.010788531,-0.0076095853,-0.007416339,0.033528674,0.022107419,0.0030845485,-0.0012952405,-0.0139119625,-0.0366274,0.0038836452,-0.017793292,-0.015955774,-0.027176866,0.00019385107,0.04489894,0.026988318,0.009472668,-0.014283637,-0.024954667,0.022653261,-0.0042158496,-0.015033175,-0.07642882,0.033096462,0.03567723,-0.03304672,-0.03719363,0.056422897,-0.006303259,0.008993505,0.018012019,-0.03910178,-0.07774095,0.04239465,0.023078553,-0.04600211,0.0035694414,0.021340443,-0.012939045,0.018202685,-0.026122397,-0.033563502,-0.028397845,0.0316566,-0.006357734,0.10378803,0.024538133,-0.026938321,-0.048374414,0.020347571,-0.038937893,0.0447572,0.0105844345,0.03624962,-0.009793487,-0.018996516,-0.00032266573,-0.0541332,0.033227514,0.08214687,0.017366653,-0.010855255,-0.042251956,-0.020696033,-0.015809095,0.08688234,-0.011239063,-0.035734586,-0.002721782,-0.020037616,-0.015428793,-0.016162759,0.028988816,-0.005611438,0.021291675,-0.024012376,-0.025640916,-0.020098805,-0.016672608,0.023734858,-0.0019094129,-0.03654759,-0.020535221,-0.011891123,0.0009829693,0.030118497,0.011150141,-0.018066883,0.0019066781,0.02163633,-0.017597122,0.011021938,0.04475283,-0.014370208,-0.012165039,-0.05249397,0.03202977,-0.009743421,0.007676178,-0.015494382,-0.0063406792,-0.09007437,-0.026612047,0.026248517,0.0031295735,-0.019728692,-0.04329624,0.010567222,0.02004899,-0.08762665,-0.02508109,-0.017072478,0.026773207,-0.011859009,0.010887404,-0.02202311,-0.07206792,-0.00530701,-0.0068552233,0.028799968,0.015517507,-0.0114845205,0.04479572,-0.011942124,-0.017501827,0.010204151,-0.030067738,0.004079281,0.035122897,0.0042990595,0.030323785,-0.0064864215,-0.025453432,-0.04432617,0.023348967,0.012101144,-0.014659804,-0.007793623,-0.029706964,-0.02921918,-0.076030746,0.008229064,-0.018413926,-0.012149643,-0.06069813,-0.007928457,0.03225802,0.0039799325,-0.0124583375,-0.008930614,0.018587865,0.033171695,0.0040551093,0.004467005,0.039863426,0.0051883594,0.077433065,-0.009706058,0.008761203,-0.040963225,-0.022221278,0.042165462,0.002419145,-0.014659878,0.008109734,-0.023522053,-0.008109782,0.08617387,-0.027446527,-0.041304167,-0.0068950993,-0.023405878,-0.0015456701,-0.008327689,-0.013460537,0.016075639,-0.031487405,-0.0019534458,-0.018695705,0.0056803734,-0.025064234,-0.004833146,-0.009523394,0.007260315,0.0027818014,-0.0039388766,-0.005324226,-0.016721886,0.015368422,-0.01969488,-0.010272205,0.01589342,-0.018836074,0.009078327,-0.022256447,0.05984123,-0.029161543,-0.040880837,-0.037777573,0.0105719445,-0.0073046247,0.010564835,-0.038693957,-0.0038370602,-0.026131334,-0.0009141693,-0.011008496,0.029072361,-0.016317254,0.004591305,0.021112349,-0.014856508,-0.033932198,0.00053137593,-0.021165758,0.0022742394,-0.012873213,-0.00054736034,-5.3039694e-05,0.013314814,0.020905621,0.02596057,-0.015129225,-0.004902481,-0.012441579,-0.013399825,-0.0073927753,0.033855785,-0.041605085,-0.0073145516,-0.0050489884,0.026467225,-0.020249529,0.0010860747,-0.033108164,0.031464197,0.0027534969,-0.0106137125,-0.0097971605,0.007288148,0.016555142,0.0025480336,0.0027714355,0.01678336,-0.015475177,-0.056695577,-0.02650138,0.007079339,0.026535338,-0.02969757,-0.038175818,-0.0011608921,-0.05692151,0.012225031,0.010466775,-0.06880227,-0.0021153125,0.029194271,-0.022021415,0.07606894,-0.0082492875,-0.02863662,0.01573637,-0.021699063,-0.021658229,0.0045536146,-0.018224189,-0.0130091375,-0.0031372535,-0.010979386,0.05787126,0.006065068,-0.006715343,-0.008302747,-0.00018736113,0.037125025,0.06797773,-0.0044212495,0.012044661,-0.026257887,-0.06997396,-0.011177096,-0.02967447,-0.025974594,-0.011344366,0.029277757,-0.0045366306,0.005746842,-0.0076815966,-0.012274527,0.016186059,-0.005026134,-0.04621621,0.0017021964,0.027413884,0.02893439,-0.00031380734,0.009291163,0.0010632097,-0.06140338,-0.035964258,0.043742828,-0.01145737,0.00022036329,-0.017223317,-0.012819119,-0.0059625045,-0.023836099,-0.036227483,-0.0049150344,-0.03022314,-0.007889786,-0.020496996,0.027761618,0.0028835968,-0.021607103,-0.031588826,-0.013034596,0.00056636514,0.007679942,-0.020713309,0.018848583,-0.011593692,-0.035319384,-0.003387228,-0.012711948,-0.033011198,-0.007230064,0.043717336,0.012856363,-0.019127645,0.054229178,-0.024819093,-0.013223469,-0.0818068,-0.02197353,-0.04408646,-0.014925768,-0.011026721,0.016767468,-0.020688528,-0.011299891,0.01662867,-0.022546813,0.0059517506,-0.01221592,-0.02437072,-0.036187246,-0.06853382,0.0006188428,0.015688317,-0.026119908,-0.018110728,-0.061774414,-0.049800992,-0.0111944005,0.026706059,-0.040415194,0.027307719,-0.008936502,0.061585955,-0.0041268286,-0.009242381,-0.014749457,0.051330928,-0.04299414,-0.02143279,-0.04360166,-0.051544968,-0.021105858,-0.005031796,0.0024083136,0.030659763,-0.013210196,-0.006608759,-0.0057823085,0.010752288,-0.025884097,-0.0071064853,-0.00772709,-0.0018432719,-0.00087358896,0.010791186,-0.015553175,0.10089045,-0.012285932,-0.0030884023,-0.031216994,0.0058700577,0.018512981,-0.051789317,0.0071267737,0.0029030866,-0.0014643936,0.004545257,-0.022167735,0.005822462,0.011699683,0.03272835,0.02134221,-0.0014632886,0.028082933,0.00048167867,0.012414917,-0.0035400395,0.005362561,-0.0026126618,-0.039278593,0.011941658,0.038123135,-0.0034353891,-0.02194779,-0.0137267,-0.0042039435,0.051683288,-0.020899823,-0.015126949,-0.012044491,-0.008205517,-0.017043138,-0.03311192,0.040359702,-0.007834625,-0.0066180346,-0.012862248,-0.0136307,0.023077771,-0.0056312694,-0.003744793,0.024993924,-0.007682704,-0.019341294,0.03391732,-0.010027579,-0.12248336,-0.0502906,-0.015919153,0.04459604,0.016954243,-0.097410746,-0.030640634,0.07097973,0.07005609,-0.021560455,0.039617334,-0.014070255,-0.03368851,0.033179354,-0.0038906669,-0.008342116,-0.022645196,0.055240028,-0.01754501,-0.023749564,-0.01068138,-0.0043851594,-0.024136275,-0.014896051,0.03628569,-0.008741003,-0.036856987,-0.021721277,-0.0075259097,-0.0023367158,0.053394213,0.027437838,0.038295545,-0.031109355,-0.028043682,-0.025263868,-0.012957309,-0.012532585,-0.018895857,-0.0037152015,-0.011264553,-0.02900234,-0.02411672,0.025359904,-0.010980614,0.007354064,-0.016507447,0.0073944284,0.023149494,0.026836054,0.005169184,-0.028818047,-0.015303354,-0.033560432,-0.0008615328,-0.05641527,-0.03151091,0.024530781,-0.027426245,-0.008841129,-0.006634173,-0.0051000533,0.010015837,-0.005151555,-0.039032962,0.046213984,0.04052385,-0.023870017,0.022477474,-0.023917792,-0.06584307,0.044696275,-0.012024058,0.016285572,7.2808725e-06,0.051671695,0.017251695,0.01768533,-0.10217481,-0.01635814,-0.020715889,0.03308029,-0.027879283,0.010629977,-0.019148834,0.0013815195,0.020741532,0.015139181,0.02322243,-0.01117555,-0.10207891,-0.0039991857,-0.00067495654,-0.003892073,-0.014658741,0.03065457,0.03447027,-0.013325031,-0.038767416,0.016994797,-0.032026324,-0.005264775,-0.017191263,-0.032095026,-0.0471572,-0.0017747775,-0.007694303,-0.031909864,-0.03782714,0.029645825,0.022988928,0.0129188495,-0.0142662395,-0.022673484,-0.006536787,0.006046431,-0.054539375,-0.035129417,-0.03744515,-0.00081054226,-0.029117648,-0.014832669,0.024794325,-0.034081597,0.14809121,0.011975594,0.042920753,-0.011679684,-0.0066289986,-0.009614497,0.0033762092,0.034994997,-0.017439451,-0.013262039,-0.006060472,-0.005386633,-0.015169397,-0.0019476631,-0.0018500859,-0.011838637,-0.001486975,-0.0440998,-0.048754293,-0.021631058,-0.058481764,-0.08757908,0.0109901335,-0.0014569921,0.064317815,0.007970019,-0.014552691,-0.03862915,-0.025511047,0.026064565,0.013593277,-0.025748929,-0.044029504,-0.013924601,-0.037790377,0.017570293,0.01449665,-0.0006198477,-0.02336694,-0.021611486,0.04215008,-0.0060493257,-0.016896605,-0.008759811,-0.036617517,0.01513275,0.092050835,0.014171911,-0.029134395,-0.010568933,-0.012003112,-0.016789736,0.046649992,0.010100427,0.020710692,-0.044104528,-0.013529181,0.041474916,-0.031328026,-0.043774072,0.015566041,-0.011756685,-0.019932682,-0.03097142,-0.019412704,-0.015413438,0.03829412,-0.022869445,-0.014370488,-0.027123094,-0.026094407,0.003472926,0.016185045,0.0075876,-0.059453715,-0.0044894926,-0.020383934,0.009427886,0.011813303,-0.02884339,-0.021134596,0.0029661413,-0.051342346,0.004719893,-0.00082358596,-0.0018046126,-0.016235527,-0.020464443,-0.03320534,0.06375704,0.01594757,-0.0732169,-0.014462833,-0.011257876,-0.023278415,-0.039878085,0.05406172,-0.012846791,0.024244664,0.02138826,-0.022126615,-0.020806754,0.003933793,-0.049784083,-0.0035188321,-0.013943783,0.005312743,-0.0042050984,0.0027103578,-3.5766556e-05,0.014310741,-0.013027671,-0.0072067543,0.026530685,0.01744687,-0.023822134,-0.030296447,-0.0062734694,0.010624164,-0.014087863,-0.009104561,0.012023698,-0.03286017,-0.06576865,-0.04177752,-0.01143069,-0.013039678,-0.012580304,0.022691304,-0.002740916,-0.021459658,0.066360526,0.01374224,0.00530155,-0.006254517,-0.012606985,0.05681234,0.0008000171,-0.042765986,0.03524604,-0.0018165825,-0.004556928,-0.05597278,0.0036279752,0.043104824,0.022177225,0.0037471151,-0.045906346,-0.020226747,0.014665178,0.047068425,-0.0071223397,-0.050118662,0.04671305,-0.0158553,0.0023135121,-0.033494398,0.006413547,-0.047399905,0.01982977,-0.011583153,0.035235643,0.047623273,-0.0059857666,0.015258314,-0.012535829,-0.025004711,0.037313487,0.10009227,-0.03641582,-0.0026671537,0.024927163,-0.049690284,0.04241527,-0.024070809,0.036369625,-0.043196484,-0.0071054995,0.011818754,0.00037749423,0.017875375,0.025239922,-0.01419834,-0.02954052,-0.00634456,-0.0077778515,0.023586683,-0.058738366,-0.0074769678,0.0032457528,0.024900667,-0.01762351,-0.030110633,-0.008560944,-0.022168586,-0.0431069,0.01564578,0.0237384,-0.010276783,-0.024004625,0.006126532,-0.0330667,-0.070553094,-0.007880684,-0.05101741,0.009465948,0.020473624,-0.011687061,-0.0060344734,0.03267057,-0.0005773948,0.003360189,-0.017161323,-0.023317428,0.025213499,-0.010358694,-0.025663191,0.013079982,0.022517474,0.018807672,-0.008896973,-0.0036683392,-0.026908148,0.04098616,-0.056964938,0.017854366,-0.0015124549,-0.0089966245,0.009482797,-0.033528034,-0.038674686,-0.047320157,-0.04635371,-0.005771673,-0.050959095,0.016699929,-0.015874356,0.028841158,-0.022734052,-0.027169222,-0.022056496,0.0004486917,-0.003579351,-0.008776288,-0.036878068,-0.010227932,-0.038991526,0.047892194,-0.02211728,-0.0065945582,-0.004548374,0.027191965,-0.0069797905,-0.03109482,-0.0039104973,-0.019031689,-0.02951841,-0.01537944,-0.009797391,-0.039693587,0.104991585,0.022694176,-0.003292094,-0.0075966585,-0.042517185,0.011429924,-0.044601034,-0.018801436,0.0009353914,0.026929578,0.052436918,-0.014698743,0.023725655,-0.006613902,0.017399007,0.0064807055,0.023490176,-0.06104575,0.05972844,-0.0714313,-0.0095612435,0.019332252,0.0033879287,-0.020442557,0.0073527913,0.029889286,0.019012637,0.04423529,-0.0052196365,-0.004535135,-0.0017642956,0.0072284234,0.022611309,-0.010725484,0.04110642,-0.017776469,-0.0038752262,0.028080234,-0.01446598,-0.013984679,-0.01505367,-0.00801854,0.03751927,-0.01512441,-0.0098546045,-0.017899906,-0.025302611,-0.01845333,-0.08322503,-0.017322203,0.12827823,-0.018643426,-0.016528174,0.033929195,-0.01754564,0.031792868,-0.008869328,0.022094343,-0.02016283,0.003779559,0.010565196,-0.05549956,0.017120907,-0.057843782,0.11305948,0.04140746,0.00130603,-0.0054996447,-0.0073003746,-0.004110437,0.033088878,0.06428598,-0.0067642895,-0.011955751,-0.022494406,-0.0111182025,0.00130146,-0.014216416,0.0011985986,-0.00016064152,-0.06523867,-0.037064247,0.039228693,-0.032020845,0.0017133496,0.0008122682,0.013383914,-0.010366999,-0.017845891,0.022741748,0.06876065,0.016931893,0.014583695,0.014404283,-0.07176981,-0.0067784647,-0.055944577,-0.030428503,0.015738044,-0.03143778,-0.0035937754,-0.0138648655,-0.014848974,-0.007558851,-0.02916804,-0.048506998,-0.002333636,-0.021414889,0.051954556,-0.009612733,-0.009612633,0.032212276,-0.022553377,-0.005262564,0.02876175,0.027908674,-0.009161335,-0.03876461,-0.0044950647,-0.0070902454,-0.024182929,0.01338583,-0.055211216,-0.030409785,-0.008849725,0.0005999316,-0.01290691,-0.031821765,0.015187575,-0.009231166,0.018396784,-0.011441024,0.035314567,0.039581325,-0.05686376,-0.0068048653,-0.07386546,-0.026264407,-0.010982673,-0.019673003,0.0040950472,-0.009212755,0.018775975,-0.012419723,-0.015599366,0.09427836,0.032691926,-0.018291846,0.043923117,-0.024371356,-0.024410915,-0.017392334,-0.0041092644,0.027756207,-0.008188145,0.004654005,-0.007648605,-0.03528848,0.0058388896,-0.009811417,0.04846335,0.009811258,-0.017463809,-0.028394546,0.0822248,-0.007425427,0.011740581,-0.030786768,0.0013741537,-0.0065894504,-0.061627474,-0.0055349763,-0.021785771,0.011558333,0.043684375,-0.013838822,-0.057499234,0.007896492,-0.0016309351,-0.02831494,0.030220937,0.016302507,0.14592448,-0.0031819027,0.010181168,-0.042388808,0.005685464,-0.009674307,-0.014240143,-0.0067163496,-0.0030298608,0.003687881,0.0019255046,0.016729321,-0.085952856,0.06901254,0.015752763,-0.008499309,0.015095407,-0.0027068343,-0.005273069,-0.028674686,-0.059715096,-0.0071781846,0.014372406,-0.034235373,-0.0077738874,0.040644605,0.024258092,-0.03719942,0.009166939,-0.010864025,0.02930386,-0.040795993,-0.01845467,-0.01563008,-0.0012153321,-0.07630065,-0.048547864,-0.022283489,-0.035318628,0.029075544,-0.038190022,-0.039775256,0.0010538653,-0.004920795,0.0036370857,-0.028064206,0.004231949,-0.017462818,-0.04023014,-0.0059492183,-0.013761848,-0.056891292,-0.00429559,-0.07100662,0.028656734,0.015888114,-0.025149455,0.0531003,0.024719048,-0.06418542,-0.011916336,0.012272736,0.0013669803,-0.033295207,0.03913877,-0.0021669492,0.011796045,-0.025334014,0.04153146,-0.0082045235,-0.034055244,-0.0135705955,-0.012689219,4.3716555e-05,0.012432289,0.020673119,0.041390087,0.030911753,0.03575187,-0.0055630915,0.001122771,-0.00049585867,-0.03179823,-0.021270154,0.0606809,-0.0473411,-0.057341706,-0.059254292,-0.010196711,-0.00949004,-0.0025577338,-0.009412785,-0.019023243,-0.0071002254,-0.014929993,-0.07091834,0.0093632145,-0.028246941,0.040971614,0.05490534,-0.005815056,-0.024776937,-0.0031302262,-0.021591326,0.0020454177,-0.03888876,-0.020384064,0.0023554605,0.0051087043,-0.0015598434,0.051245067,-0.012127284,-0.008011116,0.019467488,-0.0130670145,0.0077205608,-0.06079936,0.031020736,-0.03077249,-0.00221302,0.06914834,-0.016131684,0.05121627,-0.025425976,0.017214743,-0.0047457516,0.009689155,0.007443392,1.9161564e-05,-0.024842076,0.01846805,-0.006371423,-0.019112175,0.007532422,-0.01336074,0.011785065,-0.048745774,-0.07369727,-0.011331829,0.041004837,-0.0122574195,-0.017956937,-0.015888195,0.024793379,-0.018883819,0.0063812714,0.0030347132,-0.008404197,0.010665475,0.034569364,-0.027096538,-0.05855804,0.029276619,-0.023467734,0.0510765,0.008546419,-0.037471313,0.031355377,-0.01813988,-0.025438447,-0.04854558,-0.0074100927,-0.029822752,0.02982532,-0.034058325,-0.034703467,-0.012419652,-0.027886732,0.024708712,0.0006006806,0.0076232315,-0.04771504,0.020989114,-0.018662073,-0.026778758,0.032523442,0.027500708,-0.0076068616,0.025512967,-0.00899572,-0.030217983,-0.0023839143,0.008771212,-0.04671211,-0.03968071,-0.03642518,-0.06138295,-0.04058612,-0.0017011506,-0.0035367191,0.08457016,-0.02982798,-0.007438092,-0.0118611315,0.01786474,-0.0047130077,-0.012256629,0.022311948,-0.008076604,0.010374739,-0.008472307,-0.04438177,-0.004391076,0.029977169,0.06648317,0.0020899596,-0.012511172,-0.013069305,-0.00028115808,-0.02220265,0.019231796,-0.032287702,-0.0043658093,-0.036375806,0.0029442976,-0.009478087,-0.020956632,-0.0025323944,-0.031558454,0.0066411374,-0.02332902,-0.041240394,-0.008328576,0.023098543,-0.0031178582,0.031178033,0.003075175,-0.016777689,-0.0070852274,-0.024149304,-0.027450146,-0.015868796,-0.030730067,-0.020122878,-0.025143808,0.07968338,-0.036953483,0.039921217,-0.016865363,0.033960912,-0.0029346396,-0.00852944,0.049414705,-0.011447161,-0.032948505,0.06650682,-0.012285081,0.031531453,-0.0059576184,-0.01668444,-0.024512425,-0.011871397,0.021968741,0.010180294,-0.019832816,0.014991538,-6.0257367e-05,0.0050321436,-0.0151798725,0.09188712,0.011979497,-0.0009750355,-0.029977717,0.01453534,-0.035398368,0.034879796,0.007348145,-0.0056148665,-0.10511335,-0.012691944,0.020968586,0.038174648,0.0461387,0.00016737153,-0.0038027999,0.0500344,-0.018939497,0.018318255,-0.033495545,-0.028011471,0.004074214,-0.034971528,0.017426202,0.009642433,-0.01330318,-0.0059717842,-0.002496702,-0.042874463,-0.006737778,-0.020094106,0.029161753,-0.01918394,-0.009727646,-0.01754396,0.0030261488,-0.009483051,-0.038986508,0.01612891,-0.008264575,-0.0032711704,-0.048824202,-0.00833052,-0.007902396,0.005775102,-0.021579884,0.03037413,-0.02971319,0.03762542,0.0061599785,0.0353687,0.0027684423,0.01814154,0.021791108
1,-0.028564535,0.019025112,0.075482264,0.06896574,-0.0040949276,0.076414466,0.007931487,0.012904659,0.033306703,-0.00953058,-0.010283884,0.0066860323,0.009334028,0.016373107,0.0031938343,0.021531135,0.053368375,-0.0031646793,0.0006474114,-0.027601989,-0.022592455,-0.009532194,0.05259071,0.009017798,-0.02200007,0.029196406,0.008793985,-0.020612737,0.018818744,-0.018016098,0.030020753,0.08879182,0.015291417,-0.028330958,-0.0054799393,-0.02567519,-0.0050245915,0.04872669,0.051897198,0.024806108,0.023861181,-0.007371777,0.004542665,0.017391477,0.0113594625,0.008242597,-0.0024283226,0.051734634,0.0053437646,0.004888593,-0.00435186,-0.031643078,-0.0061780205,-0.008705718,0.040456213,-0.017281033,-0.020147145,-0.008110057,-0.03520984,0.0026855953,0.0011598096,0.0015463968,0.006584346,0.0136104785,-0.005494027,-0.03652529,-0.014121892,0.0017298765,0.012692541,0.015857782,-0.010696269,-0.0032376896,-0.037387334,0.0039729294,-0.015178021,0.03630354,-0.0066130394,-0.0015434399,-0.0018192884,0.029457891,-0.023305401,0.022381565,0.065558285,0.046325333,0.027939696,-0.016017951,0.024220465,0.013711915,-0.003838021,-0.023435632,0.012137928,0.014498002,-0.014624131,-0.019427318,0.031587996,-0.012646041,0.017598677,-0.0056766793,-0.0061619426,0.032813463,0.005464891,-0.03722547,-0.0027357314,0.006584589,-0.018824581,0.016839962,0.016560111,-0.009638651,-0.012118018,0.009521276,0.0050581465,0.009042362,-0.0038426225,0.02687132,-0.0017756453,0.007035997,0.034170754,-0.032442063,-0.01608877,0.024260096,0.032771893,0.08791455,-0.009099182,-0.008285768,-0.014195109,0.0016551531,0.015839312,0.017938089,-0.023902612,0.0038722476,-0.0018112018,0.0070822015,-0.01809125,-0.016124556,0.02239453,-0.005133505,-0.03835389,0.0016702992,0.09327445,0.0011643977,-0.023766352,0.013935019,0.046553146,0.0111471135,0.009026584,-0.008642619,-0.032614876,0.01406795,0.027697539,-0.00502765,-0.062915154,0.018915543,0.04214955,-0.034344353,0.052546367,-0.03245531,-0.00073432707,0.00067364174,-0.01214597,0.0020861633,-0.014540251,-0.038545873,0.038993318,0.012483925,-0.061727405,-0.010653975,-0.021345094,-0.03934444,-0.02337431,-0.011598246,0.07308508,0.013052381,0.03923067,0.017507033,0.053257313,0.006594586,-0.008344419,-0.007673046,0.0054741316,0.007386582,0.019159371,-0.016932987,-0.019589385,-0.017615408,0.009226161,0.0109307915,-0.010343473,0.009144764,0.0025849056,0.0131876785,0.005437037,0.013959406,0.0042557903,-0.027612833,-0.0023140134,-0.038856387,-0.062405594,-0.011151441,0.052154265,0.022891274,0.03012965,-0.01505248,0.020469032,0.019075263,-0.04313819,-0.008685428,0.006662616,0.033416633,0.023202522,-0.00063222286,-0.009681577,-0.034695372,0.011744566,0.014650673,0.051173735,0.014855375,-0.0116070155,-0.0065448685,-0.04077602,0.029275065,0.012655817,-0.039043628,-0.040418822,-0.01086125,-0.02264455,0.0036991413,0.02989846,-0.030824458,0.03224505,-0.0318832,0.013428153,-0.012302956,-0.0038494344,-0.055805314,-0.014883034,0.029401379,-0.0114888735,-0.0050018844,0.050679106,-0.020044906,0.0035863353,-0.00898632,-0.03562475,0.037861455,0.015204783,-0.0006736188,0.0007979283,0.0018219484,-0.013942158,0.016970733,-0.00870534,-0.0013440453,-0.007384458,-0.021424156,-0.06291684,-0.006487857,0.021571351,-0.11341096,0.011250385,0.019203959,0.05898204,-0.02277765,0.006097539,-0.0024402542,-0.021192139,0.01844313,-0.033917688,0.03742276,0.027001547,0.01399795,0.023322847,-0.00904549,-0.00073225313,0.010601399,0.008020066,-0.01742991,0.009934492,0.038052086,-0.04490634,-0.008076538,-0.015736016,-0.016500195,0.0106279375,0.020216076,0.016138993,-0.010260532,-0.00413013,0.042233568,-0.013189024,0.022390142,-0.04749651,0.014120371,0.017608583,0.008055663,0.023085961,-0.0008410315,-0.015547811,0.0007028753,0.039170567,0.03602699,0.007338131,-0.008559292,-0.01937627,0.014608753,0.0059080394,0.042299546,-0.011268746,0.0005501712,0.04407893,0.0016301773,-0.0323766,-0.050905176,0.007438156,-0.005402198,0.004254416,-0.020699445,0.032635707,0.002481978,-0.0266036,0.0013978262,-0.001779537,0.029047033,0.001932171,0.001133728,-0.001563035,0.007680444,-0.05020708,0.026931819,0.02270425,0.01764445,-0.011200945,0.018638173,0.056425687,0.018414063,0.010208004,-0.020340651,-0.012233151,-0.020483237,-0.010808593,-0.0015027254,-0.021166874,0.019755226,0.0004951051,-0.033077665,0.0016713813,0.0074405335,0.004226386,0.02773478,0.0011499843,-0.010051794,0.082552664,0.02918912,0.0010650301,-0.0071465867,-0.013011267,-0.020866094,-0.02962398,-0.062033784,-0.0015638745,0.0074719917,0.020013832,-0.033248834,-0.02538316,0.00875581,0.0048160073,0.012236802,0.020489333,-0.027877446,-0.018028826,0.014763086,-0.019064149,0.027541121,0.00090879574,-0.0064105648,0.0063583925,-0.011969368,-0.0042432905,0.04468447,0.00087326183,0.017805213,0.031618524,-0.01973914,0.04714292,-0.009605021,-0.00218806,-0.02778923,-0.0039380877,0.01644483,0.00040425386,-0.005229509,-0.034393106,0.0015792847,0.0149452295,0.034504976,0.0054364307,0.030296998,-0.037895948,0.013439409,-0.05044647,-0.061441366,-0.00091266556,-0.051855214,-0.0099715125,-0.0004979875,0.01355392,0.003121738,0.022646379,-0.013267594,-0.027388278,-0.05212036,0.052209277,0.0015033565,-0.019604119,-0.013521374,-0.016076975,0.029410798,0.023458084,0.04122407,-0.0016751471,-0.05761499,0.07201445,0.02515047,-0.052963715,-0.022262754,-0.033677597,-0.029980777,0.013159706,0.03253518,0.031983428,0.008067732,0.011977261,-0.011554419,-0.00011151398,0.012077828,0.0013298236,-0.0077554644,0.014248513,2.8569104e-05,0.0062676207,0.015350517,0.04407525,-0.040770218,-0.0036763283,-0.020762786,-0.0032245226,0.02830538,0.011995649,-0.0108378595,0.013624916,0.015706718,0.00095814944,0.014063269,-0.023287248,0.0259333,0.00422418,-0.021264065,0.06899042,0.020864582,0.0058918823,-0.0062568844,-0.0057427133,-0.023647593,-0.04029303,0.08909327,-0.01394986,0.0039157527,0.01047075,0.010311269,-0.008051018,0.031779032,0.03593645,-0.06363952,-0.041499887,-0.028223243,-0.021348659,0.024987828,0.036252297,-0.016404787,0.054479748,0.029915037,0.0001645472,0.034761373,0.028125035,0.0041620233,0.00056019553,-0.013970689,0.024226656,-0.0058040274,-0.012624519,0.026256405,2.7489297e-05,0.030091142,0.008510642,0.005196337,-0.00532738,-0.05998112,0.032988757,-0.0017041555,0.0056335866,0.018509118,-0.009260859,-0.0053022485,-0.011328652,0.0029700464,0.02189516,-0.0012332831,0.018030018,-0.008289099,0.06881379,0.015708495,-0.093043216,0.016179143,0.0006525398,0.013937051,0.020888932,-0.0061558783,0.017287249,-0.0017879105,-0.019190397,0.0025656035,0.0028144056,0.0064920955,-0.016917463,-0.005386017,0.028896969,0.06218314,-0.020059247,-0.058883335,0.017979763,-0.034401424,0.018725008,-0.026647273,0.026275994,-0.00017429196,0.004616886,-0.017580083,0.01724847,-0.014014058,-0.041184343,0.0044969684,0.011221703,0.011563735,0.033151906,-0.008681173,-0.013937664,-0.009247298,-0.0100259455,0.050526332,0.0045811394,0.021322915,0.0059403875,-0.023484385,0.015705507,0.009171788,0.022895286,0.0064975503,0.034848556,-0.007265679,0.062206138,0.034262534,-0.0010385668,-0.0712241,-0.008302206,-0.03322278,0.011262896,0.004519867,-0.015346491,-0.0030443028,0.016630609,-0.0055681793,0.015311625,-0.005592929,0.018216437,-0.0076929997,0.026417417,-0.040618047,0.023449425,-0.0136488825,-0.034574207,-0.03173013,-0.06584781,-0.0014777132,-0.06585225,0.023125334,0.020819139,-0.04573539,-0.030233258,-0.005835264,-0.014005828,-0.07201955,0.05826845,-0.02591787,0.01875121,-0.023219949,0.066437066,-0.000628093,-0.0128011275,-0.04710189,-0.01789087,-0.011717116,0.0007896842,-0.021175308,-0.0059964643,-0.06286796,-0.016317042,-0.05133952,0.023645343,-0.02703883,0.0016561586,0.010870292,-0.015486054,-0.0075961826,-0.011903347,-0.0126798395,-0.004225238,0.03608916,0.02483316,0.061395332,0.0147683425,0.046622716,0.009647079,-0.0078964,0.022371763,0.025864193,0.03001746,-0.051333558,0.0005008909,0.013899557,0.011969485,0.0142685175,-0.0036916754,-0.004835046,0.0045882137,0.035007376,0.01194133,0.007206721,-0.026386976,0.13506095,-0.0033978226,0.0039537046,0.015857032,0.039248392,-0.009898106,0.041973203,0.008614701,-0.03453728,-0.0066213924,0.016314266,0.014975245,0.0051515596,0.051498614,-0.015319588,-0.00859626,0.0047602556,-0.00017318378,-0.015486813,-0.0349219,-0.0006131695,-0.003709598,-0.09835349,0.008114217,0.02415101,-0.014409549,-0.0014861915,0.0076447427,-0.004997139,0.04880327,0.06974666,-0.00029721207,-0.03781139,0.0074977074,0.008514144,0.022480516,-0.029450318,0.0071747983,-0.04798776,-0.017879441,0.05095917,0.0075809476,-0.0030158956,-0.0071806833,-0.021171156,0.00044011927,0.0032252911,0.0048488732,-0.0052545266,0.0070254933,0.049240895,0.012005687,-0.011901432,0.0037242302,0.025927452,0.0054014716,-1.574998e-05,-0.0046554366,0.007070617,0.00044530604,-0.011077112,-0.010555305,-0.01262683,0.017883914,0.019046586,-0.033187333,-0.047098618,-0.053594198,-0.006099634,0.029953377,0.011463548,-0.0022935893,-0.04297196,0.005301386,-0.099356875,-0.0068979147,-0.0038754602,-0.0020715564,0.041069657,0.014196611,-0.04417612,-0.0013397572,0.013925076,0.01538962,0.028954083,0.034381032,-0.021882394,-0.018379193,0.015904311,-0.005060778,0.0088466,-0.011640757,0.011034467,-0.04462395,0.02105906,0.010545464,0.00028619793,-0.012922181,-0.004546566,-0.035905402,0.063224025,0.011917783,-0.020129198,0.007140882,-0.014101702,-0.0022680596,-0.014032142,0.008133744,0.028542563,-0.004301594,0.008208904,0.026116403,-0.00850879,0.011154116,-0.0039248783,-0.006590302,0.015232067,0.012300109,-0.0041523036,-0.0046611987,0.009933912,-0.025670134,-0.023182131,0.016109675,0.006029249,0.010856966,0.07312675,-0.038607,-0.011081028,-0.0040354184,0.057971988,0.027388949,0.04161034,-0.0026960883,-0.006324287,0.025969617,-0.02466559,-0.04613691,0.048456073,-0.0011605398,0.009305479,-0.04046137,-0.0820686,-0.0016507844,-0.005835468,-0.01116596,-0.022097941,0.004622284,0.0040335883,-0.029314455,0.05022947,0.017334782,-0.0043105935,0.013231656,0.0298854,0.046508975,0.013666772,0.009263694,-0.032718368,-0.01361825,-0.0007897233,0.010741491,-0.0051544714,0.021780062,0.040433645,0.016146606,-0.008731977,0.0007804893,-0.006999228,0.001598995,0.021970334,-0.032851886,-0.019992707,-0.004099244,0.041800417,0.017934795,0.02081886,0.028278919,-0.0064346925,-0.007916387,0.007868145,0.03773733,-0.00791983,-0.0077135707,0.027211776,0.02171728,-0.036245123,0.001085886,-0.026728742,0.015101221,-0.02873301,-0.0030615274,0.018236086,-0.032762706,0.0050912043,-0.04933345,0.019619713,-0.006643639,0.036014598,-0.0026390655,-0.04684221,-0.013891994,0.010539098,0.029917598,0.0013536485,0.0041074976,-0.010114239,0.024345329,-0.052975282,-0.03635821,0.08100799,0.006831183,0.012414592,-0.03280228,0.02214488,0.013458642,0.03190049,0.020497091,-0.02644425,-0.032259114,-0.027979111,-0.017480008,0.0021381474,0.0019098289,0.015134253,0.036318928,-0.003265845,0.032282572,0.01568539,0.011965355,0.03536958,0.0024755148,-0.042075697,-0.005349519,0.02014985,0.027037384,0.007003875,-3.579702e-05,0.02509095,-0.028132124,0.01233719,-0.022528304,-0.004761503,0.0037882999,0.06181951,0.0283359,0.003467391,-0.02906238,-0.0066872956,0.0036018519,0.022216609,-0.04433171,0.014802803,0.005646556,-0.0031725804,-0.027639102,0.0259409,-0.016441442,0.021220682,0.045604587,0.010980915,-0.013299125,-0.0009528296,0.019174986,0.03551342,-0.015410898,0.03362188,0.0032049313,0.008122046,0.0014627107,0.017737258,0.008043246,-0.009300945,-0.016616594,-0.02881609,-0.024057696,0.016541552,-0.015860109,0.0037921863,0.032042295,0.016861537,0.00047357223,-0.05230814,-0.029993057,-0.015943946,0.057987865,-0.002190983,0.026610583,0.0071492246,-0.02904723,0.03172166,-0.02563309,-0.040943146,0.033834513,0.03271852,0.015174622,-0.035541173,0.08628008,-0.021725556,-0.0036505393,0.01675182,0.019119184,-0.034462027,0.016360445,0.02877252,-0.026793886,-0.0013286497,0.08624521,0.024335805,0.0044502625,-0.0045600855,0.004420945,0.010767006,0.027344374,-0.00081569253,-0.05094172,0.0047857566,-0.0001086297,-0.0042148023,-0.012978814,-0.008512651,0.010793844,0.022374421,0.0068596657,0.010695578,0.005792019,0.015321338,-0.025339518,-0.035729617,-0.015936231,0.014178155,-0.015489849,-0.0075950245,-0.0027433517,0.030605048,0.019724304,-0.016572542,0.0710277,-0.0047396705,-0.0034554696,-0.02488045,0.011091313,0.018606862,-0.035910334,0.014604034,0.007721365,0.0071959817,0.06213681,-0.0280921,-0.01769345,0.01047624,-0.007880629,-0.0045686057,-0.0041307216,-0.015792707,-0.009626122,0.0012746223,-0.012259639,-0.026385244,-0.009417092,0.002014362,0.003909913,-0.008982244,0.0049873935,0.0009028042,0.016215231,-0.013930221,-0.00024413234,-0.02287083,0.026914338,0.0015180268,-0.025022807,-0.0044704042,-0.009704142,0.050852057,0.028534167,0.007670779,-0.016461583,0.0141129745,-0.0064187264,0.008700753,0.027453583,0.01998103,-0.009813592,0.015872173,-0.008464866,0.010000526,0.011137506,-0.013479519,0.032706436,0.0021735362,0.00447459,-0.0051311636,-0.00028980142,-0.036686208,-0.00435491,-0.016033188,0.011010011,0.0008636885,-0.027057715,-0.018452521,0.01503773,-0.020797605,-0.009027345,-0.007080943,0.017476458,0.03418074,-0.006965571,-0.025507689,-0.01458555,-0.009351515,0.00636097,0.0052345856,0.049271584,-0.057873596,0.009727733,-0.01804891,-0.0009637098,-0.0044244323,-0.019126207,-0.04448262,-0.027582683,-0.042217344,-0.020824166,-0.023639759,-0.081472486,0.0023671754,0.00901005,0.017447004,0.042044282,-0.003585026,0.004192392,0.008573102,0.0025671718,0.003604857,0.003769561,-0.04061057,0.05622237,0.01878951,-0.048507806,0.006903072,-0.017683394,-0.00023427178,-0.03848881,-0.005996476,-0.024486793,0.031719517,0.018934278,-0.016876265,-0.007860351,-0.009789703,0.013431314,-0.071201496,0.002175828,-0.004204752,0.024282666,0.0020953836,0.0015032939,0.059239212,0.054928154,0.029809648,-0.0757222,-0.0029124892,0.010128725,0.014102932,-0.0039802454,-0.05551202,-0.0135560725,-0.006198571,-0.0030527536,0.009500038,-0.025524106,0.030224722,0.03670522,-0.02225273,-0.013425084,0.012878593,-0.0069099837,-0.00220441,0.0036236455,0.022669572,0.02264087,-0.013508377,0.049861576,0.04993991,0.019301185,-0.013534823,-0.016415412,0.0029127742,0.008835294,-0.0020230834,-0.04138442,0.0359319,0.062944874,-0.008620279,-0.06677906,0.035830986,-0.014757422,0.020251788,0.011721655,0.01730413,0.01777989,0.050641067,-0.0150694195,0.04757731,0.0012349258,0.014689623,-0.03179623,0.026144605,-0.0022866516,0.007992916,0.024441104,-0.020859655,-1.5051418e-05,-0.0061280453,-0.003321596,-0.008911393,0.018691098,-0.0039160294,0.04298008,0.043038942,-0.012000906,0.00041310603,0.009694312,0.0212385,-0.019815821,-0.0044900123,0.022469189,-0.004438617,0.03909146,0.011884499,0.0051474897,0.05599729,-0.016482225,-0.015827877,0.037075043,0.0063112783,-0.03067842,-0.030194988,-0.009439095,-0.005247673,-0.0033665062,-0.011069807,-0.019736975,0.052624963,0.008593049,0.0063029993,-0.010536396,0.009691365,-0.054372378,-0.0005192394,-0.010530954,-0.023438348,-0.027671114,0.015572215,-0.0039647166,-0.0027355307,-0.00726914,0.041372824,-0.023026505,-0.0076581007,-0.008697478,-0.01468085,-0.014658028,0.05092153,-0.008567177,0.007341139,-0.020094654,0.02722318,0.025858674,-0.008017684,-0.017389013,0.038605567,0.039250337,0.01621249,0.00444271,-0.005029805,-0.0017773113,-0.021677513,0.0045595355,0.0013614737,0.00736026,0.022450281,-0.0066692275,0.03978947,-0.003834701,0.07868868,0.024513507,0.04588315,-0.024323523,0.0071946015,0.029153114,-0.009568941,0.027015457,-0.0370396,0.024952449,-0.061545476,-0.029619101,0.0090297125,-0.06239521,-0.012386298,-0.0048916023,0.02325343,-0.02167927,0.035122678,0.020903476,0.042269673,0.011285595,0.013320873,-0.0005742515,0.008659181,0.04030743,-0.036453813,-0.0041375267,0.018976778,0.00090484024,0.0025823063,0.012175843,0.008229483,0.0170939,-0.004344324,-0.003705028,-0.009614847,0.012591736,0.0079093315,0.0017554752,0.029934624,-0.014472353,-0.009339935,0.0111433165,-0.0069221,0.011663736,0.0011138223,-0.0024677126,-0.0029389823,0.010529331,-0.026726741,-0.004744596,0.012071719,0.023208193,0.023537744,-0.0037143095,0.005957707,0.034833867,0.010645652,0.007037595,0.019901887,-0.013900556,0.025918357,-0.0297911,-0.008653404,-0.0037550332,-0.0055093123,0.012072886,0.0017824387,0.01632554,0.011772424,0.046336643,0.0005250146,0.024428451,0.019959077,-0.01385438,0.04347283,-0.019131582,0.0030403016,-0.063177906,-0.05930497,-0.00900102,0.0041819885,-0.0138743725,-0.011628539,0.013935408,0.013363845,0.0048166458,0.03264022,-0.019236943,0.026901724,0.01408818,-0.0049682325,-0.012347836,0.0069366773,0.033198956,-0.013895206,0.014895145,0.012151935,0.031175703,0.049655166,-0.018430043,0.0071963915,0.0034074858,0.019805714,-0.005397582,-0.003389428,-0.035673413,-0.013414685,0.005663978,-0.0848198,0.034210138,-0.0034325686,-0.012888357,0.0382641,0.008019194,-0.023770822,-0.011455535,0.014381159,0.019396665,0.0049416106,0.0485169,-0.0005340241,-0.061990853,-0.020423349,-0.001342647,0.0040867203,0.00228804,0.017526424,0.006795122,-0.009061087,-0.02055967,-0.012988761,0.05114656,0.011760331,0.020659424,0.022560522,0.04730265,-0.0013173596,0.06663472,0.0074406248,-0.0059101568,0.059171364,-0.0028519528,-0.0011368152,0.028735809,0.04608349,-0.014086032,0.0013326788,0.025012875,0.020969743,0.013585314,0.016142614,0.033570897,-0.012153987,0.009320386,0.005359189,-0.03718456,-0.012715367,0.019284502,0.023361653,-0.01825011,0.025215305,0.008615657,0.0467407,-0.052279223,-0.023299394,-0.0009515007,0.0031025596,0.009737958,0.019199243,-0.019794747,-0.049185075,-0.0381397,-0.09379078,-0.020188978,-0.024551295,-0.06463438,0.027050998,-0.0679774,-0.00017971527,0.0004977171,-0.020219022,0.027159542,0.01656962,-0.0060031074,0.017335128,-0.0123084355,-0.0067686886,0.046175975,0.005893528,0.005477938,0.018058015,0.02518694,0.045492336,-0.014412282,0.011269715,0.0016642283,-0.0067458064,-0.008726856,-0.02817814,0.0039193104,0.029974442,0.008383921,-0.013651651,0.010607316,0.012615683,-0.01771133,0.021304395,0.013747361,-0.0013236915,-0.0064614615,-0.014538242,-0.0119120125,0.009976592,-0.019020017,0.055116735,-0.069429606,-0.01263367,0.016203629,0.055240676,-0.030262673,-0.0039028348,0.00086367695,0.015905354,-0.037025563,0.02061223,-0.026396066,0.0039322786,-0.03771577,0.0036909606,0.08640548,0.011509023,-0.01632369,0.02027124,0.029200198,-0.010173204,0.004949315,-0.0094456095,-0.0029287348,-0.0039646714,-0.008191482,0.018443698,0.01230233,0.009239253,0.0124554625,0.04279586,0.011328101,-0.04652397,0.025511723,0.0044733174,0.020911047,-0.00058909954,0.009719613,0.0121439,0.06513505,0.021882657,0.039804578,0.021123582,-0.018333137,0.0056805466,-0.025552137,0.008802937,0.0046431674,0.008822502,-0.0035911363,0.010915,-0.01582783,0.024391733,0.007122712,-0.023925299,0.008197502,0.014856134,0.011650351,0.04584707,-0.029965261,0.036467023,0.011112703,0.029011648,-0.047507457,0.0050077047,0.0042992993,0.056543104,0.0052784136,0.018063132,-0.035913143,0.006258621,-0.008076688,-0.00037260406,-0.026567519,-0.008643893,-0.00254247,0.00080368615,0.0051353304,-0.07359664,-0.015154648,-0.0050699967,0.013283268,0.012758263,-0.034916673,0.00014485861,-0.029929383,0.002208336,0.0010561817,0.012706981,-0.018929677,0.009689158,0.034949962,0.03239637,-0.0064589246,0.05362848,0.030668547,-0.031583767,-0.028271394,0.015121185,-0.0040148823,-0.007941227,0.0078278715,-0.003871627,0.0032406445,0.00299526,-0.03287027,0.030818302,0.0078675635,0.025054293,-0.006876118,0.049823083,0.007382953,0.0131611815,0.027944244,-0.03294611,0.00860566,-0.026577145,-0.019098615,0.019025212,0.022023946,0.020104593,0.0153365005,-0.013257787,0.0011949458,0.022083394,-0.030597912,0.0054281214,-0.0044660596,0.07386507,0.003074149,0.005305704,0.0025056312,0.011359228,-0.057910733,-0.0056419135,-0.032142702,-0.00149509,-0.01219239,-0.013597565,-0.030094154,0.0023285653,0.023631439,-0.015426173,0.0022444106,-0.014044989,-0.043247975,0.044616472,0.020024424,-0.0061925575,-0.03826138,0.008300824,-0.029252177,0.0072308946,0.05601031,0.0044728755,0.010732282,0.031964693,-0.023129126,-0.023119554,0.02265381,-0.009980074,0.0071159136,0.011940282,0.03441366,-0.01300101,-0.00748212,-0.0043751285,0.047969654,0.0017708217,0.0021417534,0.027349267,-0.008060076,-0.082385585,0.011518298,0.00382491,-0.027616682,-0.02526809,-0.026126517,-0.006660436,0.018817952,0.013828264,0.025784241,-0.021462938,-0.030659914,-0.0041266223,0.03596409,-0.08936306,-0.01289531,-0.004738972,0.020739352,-0.07850869,0.027555106,-0.017791538,0.009937976,-0.024462087,0.01128143,0.010753324,-0.020289049,0.025219707,0.019118553,-0.08046512,0.026221886,0.039340127,-0.019455314,0.033682905,0.0081522,-0.025480712,0.0020585607,0.06319402,-0.010255893,-0.0008154846,-0.08074001,0.041094292,-0.017919771,-0.009549975,-0.018816411,0.013370457,-0.010296378,-0.008417078,-0.049201895,0.011417525,-0.06392229,-0.05547939,-0.016942257,0.029765459,-0.003557419,0.02551867,0.029194226,-0.03493219,0.0064070355,-0.0040731938,0.041116163,-0.00010251254,0.045989204,0.003594665,0.018779607,0.04484218,0.0128522115,0.021842586,-0.008450698,-0.0022275709,-0.003286924,0.0063898466,-0.023635255,0.009848597,-0.07646785,-0.029994888,-0.030337043,-0.014459582,-0.0059768707,0.019441202,0.024283081,0.001927464,0.03499191,-0.018290844,0.006411083,0.02415978,-0.00025250955,0.003875838,-0.0081525855,0.06514443,0.0015240728,-0.028903315,-0.053790607,0.06927773,0.013535712,-0.020450229,0.009729195,0.00948918,-0.047115922,-0.049436145,0.074359365,-1.9534757e-05,-0.024236038,-0.002201025,-0.0044640647,-0.0004996191,-0.0011332566,0.034006942,-0.004653231,0.007780273,0.03381312,-0.0030540612,0.018631529,-0.007772101,-0.012942558,0.005909499,0.035502426,0.007854681,0.010455046,-0.034024663,-0.022828521,0.0024760705,-0.006058473,0.009913225,0.010890534,0.027434375,0.002154442,0.009564081,0.11056847,-0.014666559,-0.030933438,0.04111771,0.019224456,-0.011560195,-0.0037667665,-0.019899825,0.0055195275,0.012610602,-0.016679516,0.009058872,0.02211226,-0.014087225,-0.004132388,0.019997336,-0.0038217313,0.027341519,0.016247116,0.0008210549,0.017359702,-0.016991006,-0.0065995646,-0.013733863,-0.013026428,-0.003324402,0.014752364,0.009014118,0.0043952204,0.034752853,-0.00113301,0.020171132,0.04881364,0.040602133,-0.0062555247,-0.07588151,-0.055416066,-0.024410002,-0.0054271184,0.0045814402,-0.022933053,-0.024179012,0.03491371,0.02084914,0.023888862,0.026165044,-0.034660824,-0.017933868,-0.010593378,-0.014264846,-0.00028576836,0.01571853,-0.0059206053,0.016949523,0.0014630007,-0.0010072746,0.0061423336,-0.014379558,-0.02331225,0.0027412162,0.021476783,0.005408497,0.0034833816,-0.001652052,0.005354722,0.0011231808,0.0043881307,0.022030381,-0.00080625765,0.001847173,0.048935723,0.009813296,0.013419745,-0.009049111,-0.008008222,0.029542984,0.012083693,0.0094114095,0.01192198,0.01973958,0.03527582,-0.0074490784,0.018339746,0.018902754,0.055271704,-0.024255361,0.008814877,0.002793461,0.0066845403,-0.0154581,0.028568422,0.006751715,-0.020333968,-0.002284536,0.005415901,0.02273758,0.0023249425,-0.024695817,-0.018201873,0.053848498,0.023882989,0.013647244,0.0054368437,0.014870983,-0.023111979,0.0066243866,0.009772044,-0.026452778,0.010448559,-0.044031784,-0.04479986,0.00081767584,-0.0031904383,-0.009543692,-0.011484128,0.035339255,-0.020055598,-0.011812681,-0.016540391,-0.007037849,0.004334402,0.027320847,-0.029386278,-0.019275248,0.007892979,0.014443305,-0.00015402204,-0.052248698,-0.0014118535,-0.003882873,-0.06553376,-0.02554345,-0.017024966,-0.008260706,-0.00681073,0.0073562865,-0.0021560637,0.016961612,-0.02243877,-0.036730327,0.047825195,-0.089381106,0.03740608,-0.02470917,0.013655739,-0.015123885,-0.02466354,0.036109496,0.04674204,-0.022966618,-0.0060852803,-0.0025625485,0.011122344,0.037180416,-0.025026627,0.057040103,0.04989473,-0.0037455915,-0.018446408,0.022976046,-0.0022950713,-0.014279915,0.02172252,-0.0026751622,-0.06290779,0.0040355334,0.01318483,0.015844734,-0.040608883,0.0021833556,0.026246196,0.068927124,0.023033049,0.0064035044,0.0006814924,-0.03474944,0.023573445,-0.08339952,-0.028403906,-0.0045758695,-0.07136015,0.05915746,0.03464199,0.027309176,-0.008095063,0.0034229096,-0.031651374,0.018570505,0.04993611,0.033998396,-0.003779716,0.042138577,-0.02100142,0.0027445604,-0.006997407,0.028977597,0.008926485,-0.009535677,0.013344405,0.00723124,0.013223656,-0.0040587466,0.028690446,0.05167219,-0.005905012,-0.023841763,0.040154982,0.013347729,0.00851173,-0.096578315,-0.009343487,-0.0140122995,-0.022795781,0.0058019226,-0.021439094,-0.019550469,0.013760105,0.008990158,-0.010171581,0.013720163,-0.018598774,0.015321307,-0.005539157,0.009296233,-0.032976527,0.011520253,-0.009649014,0.0052673016,0.0044798553,0.020204773,0.02048136,0.007118175,-0.019538665,-0.0026749151,0.00768268,0.009959366,0.06677098,-0.013921711,-0.042482864,0.11585116,-0.034451313,0.031903896,-0.00172088,-0.0004826418,0.029723922,-0.009153802,0.013631563,-0.02683074,0.009979056,0.004232784,0.028819872,0.023850935,0.0075516235,-0.029997867,-0.023093963,-0.05085959,0.009022492,0.08808183,-0.017697636,-0.015805647,-0.008857183,0.023403112,0.0052067596,-0.0002173029,0.027693292,0.026343146,-0.000589031,0.012037759,0.007026336,0.03433185,0.025458038,0.05766788,-0.026587037,0.028491667,0.03633831,0.032446623,-0.0018130221,0.025203647,-0.019445356,-0.0065765576,0.037988268,0.008661917,-0.005482849,0.017603625,0.033440866,0.02137794,0.031611186,-0.015966576,-0.018018978,0.0022506115,-0.021207474,-0.022523852,0.022273974,0.03562518,-0.03384698,0.012518099,0.008628127,-0.015535432,-0.017985044,0.018146064,-0.0024736945,0.021553092,-0.025068121,-0.00036804855,0.023643546,-0.002443684,0.0074291974,0.02177727,0.020686083,-0.005675704,0.02690698,0.02541265,0.012274255,0.032957945,0.039057467,0.0054411422,0.014796198,0.062489066,0.0057997387,0.020610465,-0.022493068,0.027613664,-0.04415853,0.024696559,0.04227779,-0.0038647885,-0.008935173,-0.0073811747,-0.036589123,0.05083338,0.00031827542,-0.03160726,0.01533914,0.009653942,0.013689415,0.0442166,-0.028024511,0.0032359657,0.012843296,-0.10416437,0.02553244,-0.029417096,0.056256793,-0.026500229,-0.013329,0.0550201,-0.005083638,0.016389994,-0.004704141,0.0053417636,-0.040508047,0.00476168,0.007338047,-0.020811656,-0.023317054,0.021167645,-0.012847167,-0.031043012,0.014763892,0.044120986,0.014086805,-0.0020491336,0.060125858,-0.0021919652,0.019271929,-0.030187355,-0.0002533949,-0.0028232555,0.010447213,-0.04402523,-0.03776887,-0.007869971,0.002856829,-0.008340727,-0.007289523,0.047024492,-0.013083257,0.008730831,-0.012336538,0.0031275267,0.019126656,0.0026652026,-0.0041419645,-0.056030314,0.041094992,-0.01741007,0.0023724684,0.029310666,-0.0110785365,0.008803473,0.0018285787,0.020951198,0.009513096,0.0009820957,-0.019132793,0.027756084,0.01573807,-0.03423919,0.058486376,0.012315488,-0.0824607,-0.0041153585,-0.020650672,0.009574234,0.025607511,0.0034653654,0.020469643,-0.007292103,0.011911426,-0.048069265,-1.2720373e-05,-0.019659398,-0.005610804,0.025172254,0.02493848,0.01660874,-0.00018156985,-0.015337168,-0.0052195415,-0.014582162,0.0003805227,0.012551728,0.019785248,-0.020024186,0.014343407,0.024611719,0.0026892675,-0.005564486,0.029848576,-0.033865217,0.0021398682,-0.021505471,-0.0042586448,0.015093187,-0.005616068,-0.011535103,0.014191838,0.02619301,0.009912314,0.029674524,-0.062711746,0.010002837,-0.035934266,-0.00886286,-0.021917636,-0.02825612,0.0010187838,-0.025447419,0.00076653267,0.049085606,-0.021304712,-0.013978995,-0.026700722,0.0032538963,-0.010317502,-0.014497889,0.014417051,-0.0001894499,0.0036283887,0.021814441,0.007419329,-0.032692187,0.011260998,-0.013504702,0.004678559,-0.018737655,0.041147005,0.04522366,-0.024777906,-0.048329566,-0.039735794,0.07080484,0.016424151,0.075764,-0.00703985,-0.0062770373,-0.02168863,0.05561896,0.02786611,-0.026730636,-0.012861184,0.005929319,0.0023363784,-0.037784662,-0.005185524,-0.023067294,0.0073890104,0.022337096,0.033781417,0.0014213155,-0.016480407,-0.047133144,0.0215928,0.02199718,0.0054381485,0.0051462976,-0.020721143,-0.003402338,0.0016780491,-0.031571224,-0.017983092,-0.06458769,0.0062156282,-0.06397898,0.026420042,-0.019261546,-0.015642002,-0.01445032,-0.020547824,-0.025676383,0.0141576445,-0.0708459,-0.04888884,0.017745126,0.011042844,0.09318361,0.0010158027,0.0029953464,-0.028301336,0.012347503,0.0058598923,0.018976586,-0.0011343326,-0.013482209,0.0029311625,0.0025213338,0.021046774,0.0128884865,-0.011059069,-0.016702596,-9.958946e-05,0.059666082,0.021627506,0.01644107,-0.009084488,-0.036282428,0.01301965,-0.019026265,-0.022258831,-0.011541772,0.016604759,0.012330185,0.009910745,0.012560173,0.008336365,0.014021213,-0.0037842027,-0.021664126,0.012612661,-0.0004398562,0.028761264,-0.0015189165,-0.00743529,-0.05558183,-0.014396434,0.0078377575,-0.024371706,-0.050057653,-0.045939893,-0.0052135303,0.062637255,0.005067012,0.0098865805,-0.0037838046,-0.0024074782,-0.011186442,-0.00652629,0.006842423,0.01291848,0.024861908,-0.02523096,0.022145525,0.0036292672,-0.00081233896,0.013394582,0.008628738,0.0017640857,-0.005341334,0.010108233,-0.0045082276,-0.014286437,0.030333789,0.0034923628,-0.032272346,0.0049281684,0.005229102,0.0017084248,-0.016490301,0.017609108,-0.0010617258,-0.041935235,0.009303421,-0.032151144,-0.01744105,0.0034699321,0.0036996612,-0.027359923,-0.0024384027,0.02292693,0.029462554,-0.015469605,0.0060069878,0.020141898,0.011022562,-0.022339297,-0.02766143,0.038363263,-0.0053218957,0.025950933,0.00199033,0.0047174194,-0.0040352563,-0.001577216,-0.000100107754,0.016753176,-0.0063417167,-0.027730595,-0.027536785,0.0049058693,-0.0037663593,0.0416649,0.009406828,-0.033029743,0.01346682,-0.034597617,-0.0068056476,-0.00814482,0.007301505,-0.052618086,0.006447495,0.0029872234,0.01632038,0.011049666,0.017949212,-0.047836885,-0.0005399872,-0.011867661,0.011398366,0.009145038,-0.0007706544,0.010691727,-0.0034121433,0.0059279655,0.016333083,0.026201922,0.0245384,-0.0015744902,0.019371828,-0.005117337,-0.0019403013,-0.013575771,-0.00067773304,0.0017792319,0.050636806,-0.04256819,0.008846115,0.0017710355,-0.0006702583,-0.043381456,-0.02283049,0.015824592,0.010734868,0.02221497,0.029305767,0.06019786,0.019413892,0.02262765,-0.0096773645,-0.0069099283,0.010743755,-0.010709363,-0.01498162,0.008898492,-0.010524726,0.024554344,-0.009313959,0.0118639525,-0.00015351642,0.033224694,0.021751076,0.011861263,0.0065671653,0.0026828402,-0.04261417,-0.003367495,0.026229642,0.009403295,0.06544692,-0.019665886,-0.0022469256,0.011173469,0.022679161,-0.028595516,-0.026657168,0.030719703,0.03739591,0.002365166,0.021723716,0.018204303,-0.04890928,-0.010573235,0.037743192,0.0017819583,0.019552657,-0.042283174,0.03674868,-0.0040701334,0.00020736607,-0.0060341805,-0.000109977605,-0.012394521,-0.018499378,-0.0016509393,-0.02675266,-0.0040758583,-0.04553832,0.012651255,0.03671613,-0.034859423,-0.0020345477,0.00014824342,0.013725153,0.018431205,-0.030201716,0.032501422,0.0018362154,-0.005087531,-0.02346913,0.022149537,-0.004755557,0.034738105,-0.008882425,-0.0075826,-0.004821759,-0.0011088613,-0.06852861,0.053712938,0.00030550995,-0.021916457,-0.035249665,0.035503995,-0.0075803637,-0.012596525,-0.022010023,-0.011084947,0.017431129,-0.025573362,0.016433997,0.029984346,-0.14144482,-0.0115031395,0.04160515,0.0324187,-0.017974155,0.034725815,-0.031845916,-0.009616531,-0.001062519,-0.012271465,0.021091422,-0.0039957585,-0.013261565,-0.10527031,-0.005174347,-0.049417365,0.0026577627,-0.004981246,0.00098696,0.0046400214,-0.01822567,-0.03625804,0.020505132,0.021467522,-0.012675792,-0.0042205197,0.025750328,0.017552078,-0.011911825,0.030626565,0.03137212,0.009298982,0.004431233,-0.009058556,-0.0015347111,0.027518252,-0.0026473221,0.008303262,0.012820733,0.0065383688,0.033096712,-0.022010395,-0.0297528,0.025126131,-0.015316383,-0.007683149,-0.011288639,0.013515914,0.0072522056,0.014576247,0.013157173,-0.027016409,0.011626432,2.2363973e-05,-0.020444639,-0.032209747,-0.03913397,0.00012902735,0.01669361,-0.0394188,-0.03900906,0.02929816,0.024121907,0.0005812967,0.008916237,0.011163594,-0.0038955754,0.0017811583,0.0182657,-0.010275573,-0.04286038,-0.035701692,-0.04279441,-0.0076953345,-0.0010508138,-0.01482182,-0.058169838,-0.00043760834,-0.0076197525,-0.031928554,-0.040467948,-0.010414969,0.021379218,0.006479999,-0.0063216137,0.0021945706,0.005166771,0.001672362,-0.032160223,0.016364504,-0.023341041,0.0073384317,0.0014548998,0.0078031337,-0.012978929,0.0037798407,0.023944872,-0.008022357,-0.011367738,-0.009484255,-0.015609135,-0.0037901856,0.007663378,-0.10358902,0.019535022,0.033758156,-0.00416154,-0.001959917,-0.028740823,0.014368541,0.0029320668,0.016836884,-0.0030169487,0.020740233,0.009103844,-0.037657127,0.024875717,0.00079750665,0.0014160183,0.0011945027,-0.018551541,-0.0467752,4.7462858e-05,0.11001669,-0.0010512412,-0.023438742,0.082945906,0.029471546,0.030494474
2,-0.018605586,-0.024403501,-0.030119272,-0.007780327,-0.02767055,0.041909184,-0.047003184,-0.025293183,-0.030990249,0.0028727916,-0.018254504,-0.050794844,-0.03588222,-0.011915399,-0.052316718,-0.02937356,-0.008947591,-0.022393845,-0.026258497,-0.028045313,-0.022250308,-0.015920654,-0.007041049,-0.010836372,-0.061992522,-0.038277596,-0.099098876,0.025002614,0.0012301803,-0.024045117,-0.04174442,-0.047498416,-0.017871056,-0.0077995067,-0.030048395,-0.00587746,-0.017807662,-0.039509434,-0.019007556,-0.07662551,-0.07420864,0.007903663,-0.018579584,-0.010086203,0.006756572,-0.017846895,0.0028365839,-0.06527274,-0.02825109,-0.013692205,-0.11974297,-0.05659505,-0.039189916,-0.035193037,-0.09372426,-0.10291203,-0.032236665,-0.020295493,-0.044314742,0.012363214,-0.05110812,-0.035126828,-0.019303765,-0.102016315,-0.05435358,-0.026166266,-0.056402862,-0.024819637,-0.007274897,0.021916738,-0.059319418,0.0026957162,0.012551913,0.04641462,-0.010149596,-0.023161406,-0.02803431,-0.05505425,-0.007564217,-0.02461599,-0.030051457,-0.036377754,-0.009112279,-0.019576207,0.007453235,-0.02690599,-0.00092986325,-0.022332931,-0.038039517,-0.040205788,-0.008182234,0.016538514,-0.017649898,-0.040273484,-0.02402527,-0.01719301,-0.01724009,-0.032728646,-0.024517305,-0.034465283,-0.014598435,-0.03521984,0.00591062,-0.01934519,-0.018869538,-0.07981346,-0.030266603,-0.06433566,0.023384435,-0.08790051,-0.017544724,-0.017667834,-0.026785882,-0.032418273,-0.028793748,-0.018337743,0.016760733,0.023808423,-0.023998775,-0.028482037,-0.030810881,-0.03108164,-0.032545082,-0.036959857,-0.005620086,-0.015174131,-0.024243742,-0.019469516,-0.02874804,-0.019569809,-0.02334257,-0.011736584,0.036375917,0.057163626,-0.055238612,-0.017770186,-0.020557394,-0.03302401,-0.0034146542,-0.024532858,-0.035756316,-0.06623525,0.0064926106,-0.02126323,-0.035652444,-0.03539784,-0.035870254,-0.036649995,-0.021630542,0.0010443127,-0.012648176,-0.020439241,-0.043357976,-0.03390898,-0.02640405,0.0033305448,-0.01659367,-0.038345754,-0.047286496,-0.03298861,-0.0070859683,-0.04184485,-0.06639981,-0.0020200652,0.0092277955,-0.013929487,-0.025813732,0.016710574,-0.024631597,-0.030749917,-0.026898269,-0.031922206,0.031656686,-0.025943868,0.0018543456,-0.028034141,-0.032113116,-0.04481918,-0.048901055,-0.034481246,0.01262019,-0.044913683,-0.019405333,-0.009861577,-0.01927821,-0.041923184,-0.025913212,-0.026393924,-0.023218684,0.0027354145,-0.020032644,-0.06338438,-0.044327088,-0.023387685,-0.030324327,0.050564386,-0.042418364,-0.028599389,-0.014530709,-0.054583248,-0.037829693,-0.046387974,-0.011520618,-0.025489142,-0.029774046,-0.010821684,0.030733448,-0.01254276,0.0032174485,-0.06693967,-0.04279904,-0.017565759,-0.016537426,0.0013422228,-0.13965283,-0.045341,-0.030218635,-0.017360903,-0.006898242,0.011116103,-0.0057043834,-0.015621951,-0.06417659,0.0015967205,-0.013088993,0.00703214,-0.010171698,-0.009623077,-0.073945574,0.035578452,-0.03155135,-0.030102387,-0.024390439,-0.039420832,-0.03630448,-0.028373009,-0.042618316,-0.012665822,-0.004918479,-0.024291124,-0.033941038,-0.00977179,-0.026744444,-0.0809407,-0.025109394,-0.042691074,-0.049217023,-0.018346483,-0.003937558,-0.024401158,-0.017866101,-0.020609416,-0.0459566,-0.05533552,0.03665044,-0.027819704,-0.029494647,0.055150323,-0.035853583,-0.01654395,-0.06885413,-0.017159432,-0.028500823,-0.033661008,0.023586297,-0.035523396,-0.02705335,-0.054131284,-0.036623895,0.06129205,-0.04370224,-0.045153234,-0.04362778,-0.07414004,-0.03456271,-0.024735147,-0.018457418,-0.030968562,0.003807195,0.013137851,-0.006197062,-0.024711315,-0.004135655,0.021210933,-0.016649976,-0.018277856,-0.020784928,-0.041856106,-0.0041973754,-0.010742491,-0.02887588,-0.025696075,-0.012260339,-0.04889478,-0.06616917,-0.008451536,-0.058037605,-0.027670888,0.047219485,-0.051279943,-0.04361311,0.024102587,-0.023522701,-0.026010936,-0.02282946,-0.016861962,-0.027086033,-0.023177454,-0.02321329,-0.013208316,-0.024396233,-0.03982545,-0.004476285,-0.050421543,-0.05472771,-0.020185601,-0.014988788,-0.035287406,-0.034796137,0.0014052131,-0.014454591,0.005125839,-0.030360542,-0.017870272,-0.02823493,-0.010248639,-0.0915194,-0.025891831,-0.019183394,-0.0059872824,-0.03430815,-0.05958375,-0.02113534,-0.060685094,-0.0043449374,-0.02737319,-0.032204423,-0.03630472,-0.0077914842,-0.033448275,-0.020888196,0.031783406,-0.03189739,0.009452513,-0.043559596,-0.011535018,0.00677983,-0.035755314,-0.011788723,-0.027475104,-0.07739265,-0.019020094,-0.04146392,-0.017665878,-0.021054085,-0.026548786,0.063056394,-0.071830764,0.04467201,0.0016612842,-0.045685936,-0.035387415,-0.0119264955,-0.038611732,-0.017394625,-0.015395606,0.0118526695,0.015704108,-0.023833921,-0.018185299,-0.03735542,0.01604787,-0.01891192,-0.054291427,-0.021295844,-0.029199071,-0.042213555,-0.04345694,-0.02044511,-0.03383578,-0.02498674,-0.023016062,0.009380293,-0.0538892,-0.049437977,-0.043244172,0.003635164,-0.011805494,-0.027057583,-0.002744404,0.029266968,-0.01870362,-0.020871032,-0.026313346,-0.018268827,-0.050615024,-0.043966744,-0.017507704,0.015370921,-0.049377244,-0.021410277,-0.013979149,-0.05178832,-0.012415066,0.0054123322,-0.058754377,0.0012366337,-0.042860873,-0.039971694,-0.04215629,-0.05418476,-0.060236212,-0.02196671,-0.026495734,-0.009959299,-0.009459937,-0.060356762,-0.053872142,-0.052088954,-0.030505456,0.02256292,-0.022412248,0.027519764,-0.059499674,-0.01210958,-0.04509758,-0.042835083,-0.054612547,-0.007676636,0.056822166,-0.033050317,-0.022064852,-0.01597064,-0.025283422,-0.027589848,-0.027597236,-0.0462729,0.01715012,0.017749105,-0.058478564,-0.025546964,-0.032433584,-0.033735543,-0.05243998,0.012633292,-0.06442768,-0.04648855,-0.017535916,-0.058479637,-0.04009583,-0.059295107,0.004110109,-0.042107664,-0.04374015,-0.023174772,-0.027028745,0.030498771,-0.015919734,0.00045415122,-0.011733343,-0.04575878,-0.03256469,-0.041656055,-0.015233386,-0.029640215,-0.025569903,-0.021478338,-0.03048465,0.001879392,-0.021620974,-0.051476054,-0.064428926,-0.035123296,-0.019753864,-0.0073218006,-0.057323337,-0.054476153,-0.048986338,-0.06290103,-0.052638546,-0.041063882,-0.061306424,-0.046690762,-0.09235608,-0.032775242,-0.017731536,-0.03190532,-0.011518474,-0.02978894,-0.0066130287,-0.027257904,-0.051082827,-0.020561442,-0.040274687,-0.014916228,-0.03809665,-0.0047688535,-0.00011204128,-0.023713551,-0.031927414,-0.027197668,-0.03185435,-0.053186882,-0.03190806,-0.055851933,-0.04188527,-0.042248465,-0.04255926,0.00084722356,-0.016021099,0.029214015,-0.009962771,-0.021728916,-0.026538718,-0.021845931,-0.01876643,-0.01513701,-0.043078545,-0.04368037,-0.03396139,-0.03656785,-0.027225036,-0.01700818,-0.037408873,-0.04933761,-0.00087529817,-0.019858554,-0.037960656,-0.022588853,-0.009669544,-0.021923464,-0.032183353,-0.025024403,-0.04391797,-0.02533426,0.025139034,-0.021161193,-0.04261812,-0.02966848,-0.03915299,-0.06276959,-0.028466906,-0.028459914,0.0026056853,-0.035051994,-0.009498214,-0.008505804,-0.052760337,-0.0073816823,-0.054622393,0.0053987945,0.01986133,-0.020838508,-0.03098459,-0.05765698,-0.009685539,-0.020962412,-0.035431303,-0.06127427,-0.017630773,-0.025514979,0.0036901531,-0.02408649,-0.033408538,-0.04789894,-0.01804171,-0.020405417,-0.015295373,-0.021399278,-0.020244092,-0.007687169,-0.024672542,-0.087501526,-0.008798856,-0.040086858,0.032638453,-0.016269542,-0.03506142,-0.004939653,-0.023099441,-0.018064782,-0.048716366,0.050329935,-0.02775125,-0.036543448,-0.026639739,0.011284954,-0.027177101,-0.098723866,-0.02186798,-0.04794281,0.015932506,-0.030332703,0.024282308,-0.072796464,-0.020191094,0.026105778,0.0031225567,-0.017186387,0.0021961927,-0.03698909,-0.03447966,-0.0055258055,0.030211233,-0.02138712,-0.021143371,-0.02794547,-0.022728516,-0.031215407,-0.012860088,-0.028716663,-0.036383152,-0.044046007,-0.0768291,-0.013166808,-0.008762542,-0.042087894,-0.07429765,-0.0019493185,-0.01699416,-0.05311727,-0.014298245,-0.07642574,-0.021826124,-0.0030035472,-0.00046601394,-0.025631785,0.0020035545,-0.0051943865,-0.055512514,-0.084710725,-0.025756503,0.004932884,-0.009317089,-0.019037409,-0.042408884,-0.048218705,-0.021865034,-0.042606883,-0.052795805,-0.018473469,-0.086687185,-0.048860233,0.01624994,-0.017005103,-0.024693312,-0.06328412,-0.0348155,-0.059239425,-0.034818146,-0.009312921,-0.037164744,-0.03354155,-0.05185881,-0.024877956,-0.011760815,-0.056618035,-0.0849066,-0.08053515,-0.036768094,-0.036103908,-0.03940202,-0.050676778,-0.027368942,-0.016778924,-0.0071116295,-0.0576972,-0.0076322365,-0.044610053,-0.015700672,-0.04859606,0.011942918,-0.020043718,0.0029170467,-0.008660868,0.0017340613,-0.06361029,-0.044331796,0.0019695587,-0.035249338,-0.04996929,-0.043463506,-0.032717727,-0.0025994522,-0.029975703,-0.06292568,-0.052600972,-0.015109577,-0.014826302,-0.03958563,-0.047394775,-0.030889291,-0.014552195,-0.007263616,-0.00052014465,-0.049835213,-0.035877336,-0.02357996,-0.053867728,0.007241497,-0.026066557,-0.01865573,-0.028538542,-0.01264017,-0.051206406,-0.029491192,-0.008038703,-0.061859336,-0.06416148,0.015848162,-0.017129043,-0.027002778,-0.036020618,-0.015381995,-0.017311351,-0.02850723,-0.013796635,0.037417755,-0.025034027,-0.046459362,-0.030884238,-0.049529452,0.034738008,-0.05491716,-0.015490522,-0.02992934,-0.01666743,0.015574416,-0.014652591,-0.026020223,-0.029344192,-0.03479636,-0.01907228,-0.02065981,-0.023667382,-0.022478674,-0.059198637,0.022286152,-0.053732358,-0.018911665,0.060562477,-0.050754484,-0.033987477,-0.062083263,-0.044129893,-0.03597991,-0.040215377,-0.056956287,-0.07454301,-0.0302217,-0.028412512,-0.019578658,-0.031263273,-0.02242542,-0.022761308,-0.052590974,-0.009631372,-0.056690607,-0.05425896,-0.0028936306,-0.033329856,-0.037244216,-0.01823384,-0.039230317,-0.025130603,-0.017431233,-0.041875053,-0.017795468,-0.015746173,-0.038748406,-0.057738002,-0.011397989,-0.03448807,-0.01752961,-0.020558324,-0.016450746,-0.030412989,-0.037153654,-0.042599604,-0.0440071,-0.026667936,-0.019662874,-0.04185782,-0.098262675,-0.023849422,-0.016777078,-0.01020641,-0.06777234,0.0037988187,-0.06159882,-0.022345472,0.019566042,-0.004639386,-0.049565464,-0.013700682,-0.023823516,-0.056294013,-0.029115299,-0.027174477,-0.02027494,-0.08649659,-0.042445395,-0.02375922,-0.021473162,-0.05288305,-0.040060427,0.0006417504,-0.049456194,-0.014371598,-0.028792368,-0.0178033,-0.022971503,-0.058923557,-0.0090637375,-0.015395621,-0.006371549,-0.027068058,-0.02620458,-0.07655903,-0.056027398,-0.008452888,-0.019042099,-0.008180239,-0.034186404,-0.040551115,0.0011715944,-0.04018977,-0.028570173,-0.002089647,0.013422772,-0.03152844,-0.029104717,-0.015692443,-0.015268431,-0.020086236,-0.019860983,-0.02134542,0.00970504,-0.029682295,-0.043713532,0.0023493427,-0.018146267,-0.05373858,-0.019307062,-0.06273522,-0.05259556,-0.009403101,-0.008710228,-0.02056907,-0.043192368,-0.010886906,-0.018662,-0.028320553,-0.023140188,-0.020123383,-0.054035805,-0.015131996,-0.01376391,-0.036345817,-0.034309864,-0.014467817,-0.043364756,-0.024850303,-0.0073983683,-0.06830484,-0.023581328,0.036191285,-0.02400739,-0.020445948,-0.0047285375,-0.06495084,-0.017951034,-0.03272607,-0.059195448,-0.02004475,-0.015955273,-0.04465896,-0.013640828,-0.01999716,-0.03722586,-0.025133831,-0.03880873,-0.05810598,0.027801061,0.021497965,-0.03444034,-0.028860917,-0.026032208,-0.016319508,-0.049959406,-0.05179057,-0.005053297,-0.037949223,0.0012172677,-0.00805105,-0.005659537,-0.0059682373,-0.026420848,-0.0090553155,-0.041115794,-0.01531149,-0.054746848,0.006038324,-0.03484167,-0.046711493,-0.018204063,-0.02603608,-0.0331273,-0.0214958,-0.0044897995,0.023338675,0.033340648,-0.042211767,-0.021084443,-0.017426463,0.018055245,-0.031060968,-0.022546155,-0.034218527,-0.0576484,-0.031006292,0.0032922195,-0.008556962,-0.005047347,-0.045425054,-0.007344154,-0.010141242,0.00016680693,-0.029286565,0.002877764,-0.06085515,0.015292804,-0.008112221,0.03687098,-0.014484278,-0.015198198,-0.018263152,0.014146686,-0.022235356,-0.018408941,0.0077111037,-0.038891353,-0.018958263,-0.022845259,-0.02410083,-0.003947974,-0.0013382556,-0.050489407,-0.04168981,0.019590871,0.023087196,-0.022661064,-0.015392622,-0.0042931354,-0.05670106,0.015484757,-0.031713843,-0.020263629,-0.021213114,-0.046984155,-0.02346808,-0.058927126,-0.024058426,-0.007779638,-0.025701206,0.005325804,-0.020060895,0.000365982,-0.012106348,0.017647311,0.006729436,-0.022021681,-0.03449515,-0.03381346,-0.0015862198,-0.070269495,-0.02053066,0.078849904,-0.028521527,-0.010872218,-0.015478433,-0.011907776,-0.023059942,-0.015274732,-0.06927589,-0.019098554,-0.016297966,-0.014280106,-0.03192864,-0.030111657,-0.025924621,-0.0170603,-0.023260418,-0.020590017,-0.05198487,-0.03888902,-0.024770139,-0.007100005,-0.02515118,-0.038149506,-0.04303034,-0.033240456,-0.054703012,-0.016286058,-0.017659748,-0.053968463,-0.033161744,-0.02755439,-0.0127142845,-0.016026717,-0.0010122526,-0.07218134,-0.020423966,-0.005010686,-0.06176411,0.025425293,-0.028211202,-0.05725402,-0.0048199883,-0.009623416,-0.023301627,-0.032875564,-0.054169808,-0.032443807,0.010977128,-0.05923184,-0.03401007,-0.014334901,-0.02826457,-0.016518686,-0.04226443,0.017197635,-0.05227567,-0.0021489575,-0.010963125,-0.020927241,-0.007952565,-0.017482473,-0.036520846,-0.086839035,-0.0060420395,-0.054330885,-0.04164695,-0.012416037,-0.01356835,-0.024473364,0.01204071,-0.038215604,-0.02636081,-0.023895947,-0.016041448,0.010789956,-0.049813464,-0.019903079,-0.035609193,-0.04261624,-0.03430548,0.0003606687,-0.049237635,0.013138467,-0.034275733,0.005289014,-0.05601559,-0.023685368,-0.028700026,-0.02176601,-0.022683045,-0.0037021257,-0.014989804,-0.05029376,-0.027497185,-0.0053383275,-0.007279383,-0.014664958,-0.040357646,-0.1075664,-0.08452602,-0.057570536,-0.035756577,-0.009709802,-0.018573083,0.020873379,-0.0153737245,-0.051437527,-0.03114738,-0.025952097,-0.03143052,-0.041708324,-0.049678065,-0.06043141,-0.025102876,-0.025503147,-0.03767209,-0.036478516,-0.023614338,0.0038557686,-0.093412794,-0.0023620774,-0.07516175,-0.019738631,-0.005141731,-0.013936651,-0.020228649,-0.0019463674,-0.0104781175,-0.03185954,-0.03407203,-0.012216567,-0.091623195,-0.035180498,-0.03296298,-0.02283048,-0.074546464,-0.035088267,-0.037368253,-0.036530867,-0.027064312,-0.033575892,-0.03180148,-0.037221324,-0.024081782,0.0005663713,-0.032019146,-0.029639922,-0.07498203,-0.0034990828,-0.037527442,-0.040456716,0.014667927,-0.001989021,-0.038437646,-0.027822027,-0.0073599373,0.00029937347,-0.00811296,-0.021152943,-0.030566065,-0.032277957,-0.04086256,-0.020170992,-0.024770223,-0.026003242,-0.0073158927,-0.022031754,-0.040949307,-0.020800551,-0.05898061,-0.04681389,-0.0030358455,-0.060112942,-0.039396375,-0.014762683,-0.018386252,-0.0030891069,-0.043074924,-0.02237791,-0.07002119,0.017512605,-0.037252344,-0.0020058514,-0.0045345253,-0.0009821297,-0.0074164434,-0.015577974,-0.018615285,-0.023842705,0.023075053,-0.00988103,-9.318631e-05,-0.051490247,-0.06084802,-0.017123701,-0.06289735,0.0018280336,-0.014873682,-0.06540835,-0.013897559,-0.024575949,-0.034692463,-0.09443231,0.0048529045,-0.042249512,-0.043408964,-0.06049502,-0.010461278,-0.041134436,0.019748623,-0.010576797,0.017353553,-0.04414521,-0.008983701,-0.015257065,-0.021032404,0.0013569637,-0.03179068,0.020899918,-0.013941826,-0.03155414,-0.02957232,-0.06220754,-0.083443806,0.02243619,-0.027960556,-0.07327516,-0.04355536,-0.007183638,-0.04944644,-0.06094501,-0.029969139,-0.03230849,-0.008736051,-0.07155415,-0.027358092,-0.06058656,-0.005670067,-0.09900577,-0.034725808,-0.026902704,-0.044196803,-0.018247094,-0.07357743,-0.027453678,-0.036364663,-0.066094205,-0.012365998,-0.025187286,-0.0527374,-0.026259396,-0.04465975,-0.06836852,-0.017419262,-0.008422149,-0.008694752,0.051023435,-0.046245676,-0.02491364,-0.026149807,-0.01850831,-0.025223074,-0.058932506,-0.027887663,-0.018732235,-0.030357746,-0.008951267,-0.053804167,-0.050439913,-0.042904895,-0.044447027,-0.037466053,0.004777602,-0.015444066,-0.0062970724,-0.013306758,-0.034016047,-0.047973935,-0.02781808,-0.041671004,-0.104996264,-0.03573351,-0.043411575,-0.022883056,0.034837,-0.024837028,-0.028170612,-0.026145807,0.00833753,-0.030885125,0.0040546064,-0.047126293,-0.12058051,-0.029490303,-0.038495563,-0.024522407,-0.04867746,-0.06358568,0.035253063,-0.0003305022,0.00031748725,-0.031255867,-0.05931657,-0.043043848,-0.057150576,-0.027805405,-0.014215265,-0.04299286,-0.002829289,-0.07868267,-0.019681176,-0.02598818,-0.011098995,0.02092331,-0.023535859,-0.03168953,-0.011297656,0.027243327,-0.010102698,-0.028474346,-0.015415604,0.020699557,0.02024199,-0.020381352,-0.014220203,-0.028258804,-0.05651989,-0.021043621,-0.012753715,-0.041613415,0.00096677925,-0.033797298,-0.03190826,-0.012886669,-0.058851004,0.02343882,-0.054750353,-0.0066524833,-0.017839931,-0.06876628,-0.020988718,-0.015876263,-0.015694298,-0.05551755,-0.02771705,-0.054863308,-0.044927448,-0.028358726,-0.019260487,-0.027218701,-0.016003579,-0.018409278,-0.026860913,-0.035232,-0.0125496285,-0.036464363,-0.044292193,-0.027749108,-0.12221943,-0.033737317,-0.044356883,-0.02631601,-0.01360168,-0.025745573,-0.0203789,0.0067459876,-0.09222011,-0.037855506,-0.04804454,-0.043120112,-0.037760735,-0.02841488,-0.041791603,-0.040322673,0.013750471,-0.02313822,0.011586129,-0.016316667,-0.078025185,-0.020915488,-0.0016205239,0.0021094335,-0.06012671,-0.0078526465,-0.031772047,-0.04882917,-0.017236596,-0.10430506,-0.060367215,-0.02543766,-0.015446991,-0.0019332048,-0.041463207,-0.020894835,-0.024086358,-0.031695597,-0.0128822215,-0.011631775,-0.011199541,-0.03906269,-0.0033804697,-0.049403884,-0.037930034,-0.021258768,-0.013692967,-0.0065200017,-0.008441731,-0.017810274,0.0201638,-0.008270579,0.0036607815,-0.04492544,-0.021753274,-0.021534953,-0.042694055,-0.00054705434,-0.045718938,-0.020330008,-0.03908663,-0.07369585,-0.025250565,0.014442637,0.008952345,-0.06576746,-0.020106634,-0.02939026,-0.012670195,-0.071521066,-0.050939456,-0.029844401,-0.036511276,-0.024151105,-0.025626719,-0.044316716,-0.011568348,0.025532577,-0.038798388,-0.022210263,-0.018083138,-0.02105395,-0.06400721,-0.020641167,-0.0293317,-0.0077160443,-0.020979047,-0.022076357,-0.015904875,-0.03633329,-0.019443916,-0.07118259,-0.037085373,-0.0205624,-0.042920172,-0.041999064,-0.016004127,-0.041649606,-0.031328898,-0.04334515,-0.004682433,-0.036237646,-0.031012582,-0.021142922,-0.045300003,-0.03730861,-0.021512102,-0.037674613,-0.048184816,-0.010245266,-0.01158031,-0.039567485,-0.026768474,0.0038162211,-0.0092517845,0.0008221812,-0.0023015225,-0.0344341,-0.049031466,-0.055756416,0.0109396735,-0.0074610068,-0.018836621,0.010258183,0.0123662185,-0.027289692,-0.0018500821,-0.03904968,-0.035917796,-0.05069733,-0.04162901,-0.009966015,-0.05323337,-0.020160785,-0.011961589,-0.01336382,-0.06950779,-0.008736791,-0.02858642,0.006670101,-0.019519242,-0.036858123,-0.010636182,-0.0500162,-0.0074614603,-0.04710534,-0.0033660315,-0.036140546,-0.015288936,-0.020036599,-0.0026652326,-0.020775275,-0.027942067,-0.024224924,-0.028751057,-0.044033084,-0.034479447,-0.030965626,-0.008940864,-0.047421623,-0.016527494,-0.013932954,-0.024995068,-0.0059968526,-0.008698175,-0.019809868,-0.00039588148,-0.06657684,-0.049559407,-0.047118574,-0.0413562,-0.0020136968,-0.027058233,-0.038831472,-0.024905117,-0.038800407,-0.0470818,-0.016099082,-0.029899545,-0.015573673,-0.005206693,-0.036042765,-0.0092387125,-0.018504484,-0.032802682,-0.023192871,-0.050014433,-0.04383263,-0.026037661,-0.05263773,-0.009439469,-0.035260096,-0.022713574,-0.04874265,-0.037058156,0.029022528,-0.045594636,-0.032637887,-0.031610083,-0.012288077,-0.019756323,-0.019001167,-0.054866817,-0.03441732,-0.023900583,-0.035752382,-0.028313806,-0.027583627,-0.0039532594,-0.05832626,-0.045003716,-0.0316248,-0.028074818,-0.048231877,0.015445406,-0.031409446,-0.04229368,-0.044650443,-0.052735597,-0.0025296544,-0.12633355,-0.060316995,-0.012775954,-0.00062340935,-0.028555257,-0.033286426,-0.00413819,1.4047597e-05,-0.031300735,0.012910123,-0.010166032,-0.041292176,-0.039897572,-0.018246336,-0.027125636,-0.05239956,-0.039767012,-0.009741719,-0.0706575,-0.019452576,-0.02244471,-0.03461128,-0.027815104,-0.03592672,-0.020426266,-0.0006714458,-0.031303186,0.0042514508,-0.05400758,-0.038181845,-0.055503465,-0.03359164,-0.01695577,-0.05506194,-0.028936168,-0.042237107,-0.027080715,-0.03038509,0.0008559319,-0.025647074,-0.011367153,-0.059843652,0.02726664,-0.014090252,0.006191119,-0.06217951,-0.04134218,-0.04752147,-0.0044236574,-0.025592811,-0.038365584,-0.04887567,-0.019140452,-0.021911524,-0.02045341,-0.009630528,-0.05122112,-0.014409331,-0.035541818,-0.03332926,-0.019575905,-0.007878516,-0.022442913,-0.02580621,-0.016988,-0.028882954,-0.055382382,-0.035780508,-0.015141707,-0.036705982,0.04777354,-0.023675276,-0.024739277,-0.041530926,-0.020032436,-0.044385847,-0.02623671,-0.051632855,-0.021804785,-0.018751318,-0.020052975,-0.026327968,-0.024473546,-0.067348495,0.016565919,-0.030983618,-0.034893867,-0.04382369,-0.012802195,-0.015950222,-0.034214202,-0.013394168,-0.062679574,-0.06705606,0.020812742,-0.05663886,-0.0482543,-0.0136042265,-0.009233091,-0.04504956,-0.04610033,-0.019162243,-0.010117425,-0.034045454,0.01217001,-0.046575002,0.020617153,-0.013002092,-0.01959348,-0.042601753,-0.0075038765,-0.059435748,-0.01447939,-0.01690101,-0.03686445,-0.054220993,-0.055049304,-0.08924419,-0.022775752,-0.006420497,-0.021134185,-0.0069700885,-0.023110034,-0.020528818,-0.030955283,-0.047994364,-0.024597207,0.0016733544,-0.03585194,-0.043027293,-0.021664334,-0.033348747,-0.030480338,-0.004565756,-0.022185076,-0.003761453,-0.025000669,-0.036677863,0.0001029573,-0.04258245,-0.018673956,-0.033195715,-0.021510376,0.026666744,-0.031359304,-0.0145877665,-0.039796185,0.020026851,-0.024740053,0.011211404,-0.041417405,-0.03194681,-0.023247845,-0.05333974,-0.0786926,-0.018920785,-0.031991255,0.004772402,-0.019586068,-0.02120292,-0.025413075,-0.040376205,-0.07090542,0.0015937724,-0.056998506,-0.033698365,-0.02063161,-0.021674186,-0.022910919,-0.0026400841,-0.032315828,-0.010866592,-0.021500276,-0.018500566,-0.03827115,-0.030542945,-0.038356714,-0.03270456,-0.029029835,0.00655677,-0.006749202,-0.08295307,-0.08039761,-0.05689251,-0.018525138,-0.037239876,-0.0009624741,-0.018990485,-0.03406347,-0.02614487,-0.043483652,-0.070369914,-0.038544584,-0.027805354,-0.03771127,-0.018203124,-0.031038174,-0.018908998,-0.028076397,-0.049940698,-0.015990162,-0.024101557,