,0,1,2,3,4,5,6,7,8,9,10,11,12,13,14,15,16,17,18,19,20,21,22,23,24,25,26,27,28,29,30,31,32,33,34,35,36,37,38,39,40,41,42,43,44,45,46,47,48,49,50,51,52,53,54,55,56,57,58,59,60,61,62,63,64,65,66,67,68,69,70,71,72,73,74,75,76,77,78,79,80,81,82,83,84,85,86,87,88,89,90,91,92,93,94,95,96,97,98,99,100,101,102,103,104,105,106,107,108,109,110,111,112,113,114,115,116,117,118,119,120,121,122,123,124,125,126,127,128,129,130,131,132,133,134,135,136,137,138,139,140,141,142,143,144,145,146,147,148,149,150,151,152,153,154,155,156,157,158,159,160,161,162,163,164,165,166,167,168,169,170,171,172,173,174,175,176,177,178,179,180,181,182,183,184,185,186,187,188,189,190,191,192,193,194,195,196,197,198,199,200,201,202,203,204,205,206,207,208,209,210,211,212,213,214,215,216,217,218,219,220,221,222,223,224,225,226,227,228,229,230,231,232,233,234,235,236,237,238,239,240,241,242,243,244,245,246,247,248,249,250,251,252,253,254,255,256,257,258,259,260,261,262,263,264,265,266,267,268,269,270,271,272,273,274,275,276,277,278,279,280,281,282,283,284,285,286,287,288,289,290,291,292,293,294,295,296,297,298,299,300,301,302,303,304,305,306,307,308,309,310,311,312,313,314,315,316,317,318,319,320,321,322,323,324,325,326,327,328,329,330,331,332,333,334,335,336,337,338,339,340,341,342,343,344,345,346,347,348,349,350,351,352,353,354,355,356,357,358,359,360,361,362,363,364,365,366,367,368,369,370,371,372,373,374,375,376,377,378,379,380,381,382,383,384,385,386,387,388,389,390,391,392,393,394,395,396,397,398,399,400,401,402,403,404,405,406,407,408,409,410,411,412,413,414,415,416,417,418,419,420,421,422,423,424,425,426,427,428,429,430,431,432,433,434,435,436,437,438,439,440,441,442,443,444,445,446,447,448,449,450,451,452,453,454,455,456,457,458,459,460,461,462,463,464,465,466,467,468,469,470,471,472,473,474,475,476,477,478,479,480,481,482,483,484,485,486,487,488,489,490,491,492,493,494,495,496,497,498,499,500,501,502,503,504,505,506,507,508,509,510,511
0,-0.4338461,0.5730709,-0.6161375,-0.5953476,0.061835393,0.48895404,0.08439975,-0.3363295,-0.11658637,-0.1592327,0.16297573,-1.0997013,0.70581114,0.280237,0.19241084,-0.60496086,0.026009616,-0.78834635,-0.48003638,-0.4279767,-0.41266084,0.07139596,-0.4872072,-0.19290832,0.6062051,-0.7251637,0.35040078,0.44852322,-0.38594973,0.12517115,-0.15972814,-0.19735561,0.11266786,0.39791992,-0.5157021,0.038153943,0.43517599,0.81971353,-0.75632846,0.26964027,0.019980846,0.33104905,0.16838822,0.23088057,0.046901852,-0.15272112,0.38546225,-0.13565083,-0.73090786,-0.32230318,-0.43911767,0.23392105,0.4511383,-0.17676434,0.3159912,0.032908086,0.51087564,-0.22130066,0.3967009,0.00067975995,0.11819762,0.34983513,0.22306672,-0.5299746,0.09549163,-0.37035266,-0.63352185,0.17232817,0.6128596,-0.19385135,-0.18317771,-0.4663509,-0.06709182,0.36651462,0.6344831,-0.05311109,0.505696,-0.16349992,0.28448117,-0.22609302,-0.07694233,0.042492807,0.68381524,0.4785521,0.23991622,-0.32528293,-0.26277742,-0.3961549,-0.35542956,-0.14505947,0.664409,0.28598648,0.060899325,0.4180046,0.66137314,0.36395997,-0.24444607,-0.48062882,0.0922701,-0.17793748,0.18421333,0.028380126,-0.8253029,-0.62872756,0.47896576,0.18729198,-0.067941666,-0.15079404,0.44367683,-0.13768902,0.037032984,0.212013,0.3034411,-1.2510924,0.19856343,0.26694816,0.66212153,-0.35085222,-0.5099216,0.23039475,0.42652267,-0.30389118,-0.36422354,0.6864962,0.45519298,-0.15137623,-0.20715858,0.15296018,0.2763086,0.6565723,0.58351755,0.57709783,-0.16286276,-0.52026093,0.37039298,0.075257875,0.34659576,0.10601385,-0.43604603,-0.5956786,-0.4714793,-0.07564661,-0.656196,-0.024812067,-0.037650734,0.4633959,-0.32780764,0.16198502,0.17117634,0.58685356,-0.18532425,-0.06829911,1.0342729,-0.23853014,-0.16362366,0.5633744,-0.1733386,-0.103299245,-0.24690676,-0.26138002,-0.15925059,-0.10585606,0.2421341,-0.53437,-0.5209738,-0.3418154,-0.17689233,-0.047555313,-0.32479963,-0.4081534,0.01822583,0.78971255,-0.46422005,0.29350373,0.21408473,-0.40858665,-0.1803851,0.4689617,-0.38952494,0.04189076,-0.5963669,-0.19965735,-0.28765342,-0.11159293,-1.0687863,0.097572155,-0.3991132,-0.076982886,-0.1625605,-0.12474785,0.657815,0.35453635,0.014472935,-0.038212128,-0.12278664,-0.33320487,-0.4766383,0.432861,-0.022923477,0.12831257,-0.34553832,0.13748287,-0.53971934,0.37226987,0.45198607,0.5252903,0.19113596,-0.360241,-0.08181991,0.030598566,0.47761214,-0.33370173,0.042931765,0.10301622,-0.27392894,0.035898652,0.41243368,0.62104774,-0.4985652,0.46534297,0.42404017,-0.33080977,0.34496668,0.26645255,-0.7592352,0.18169135,0.2889902,1.0062412,0.09455817,-0.48678154,-1.359497,1.1464515,-0.110969044,0.15528552,-0.4773447,0.8351913,-0.34355333,0.083401054,-0.117985375,0.092616506,0.04377445,0.54586643,-0.13404568,0.15899768,0.0016000898,0.31296265,-0.04781579,-0.32859966,-0.25299424,0.68666834,0.10353868,0.084167026,-0.43263155,-0.6018283,-0.02877563,0.31645718,0.26509774,0.16954263,-0.15638685,-0.3267319,0.16562848,0.4497526,0.31276357,-0.21656941,-0.39101243,0.05245928,-0.6177803,0.338041,1.3810319,-0.33503908,0.68513846,-0.106213614,-0.22766618,0.6187869,0.51344424,-0.38825098,0.10186366,0.2944543,0.48917907,0.50301147,-0.4089883,0.21409312,0.08847485,-0.18316291,0.570341,-0.10605285,-0.69172823,-0.27174842,0.62550604,0.37542972,0.19805989,-0.47366363,0.16891813,-0.025958143,0.22783563,-0.40086335,0.68050855,-1.078754,0.048793513,-0.16905752,0.7718664,0.21206272,-0.3307717,0.47572887,0.45110616,-0.24873415,-0.33893928,-0.379823,0.5645319,0.14812432,0.07118244,0.07208998,0.20186749,0.17811838,-0.30852652,-0.084417805,0.87577736,-0.56619066,-0.015446441,0.42314413,-0.92813087,0.00424568,-0.18931755,-0.57512444,0.44770804,0.030652225,0.22012563,-0.38236067,-0.299033,-0.16530365,0.7169854,-0.37604454,0.25780547,-0.39780074,-0.25785518,0.80527073,0.5404638,-0.18009402,0.29327947,0.08271933,-0.19286533,-0.31772158,1.0766456,-0.09909173,-0.22188932,0.1141028,-0.009537005,0.32629618,0.55279684,-0.36279762,-0.8740134,-0.026699498,0.3378131,0.16022548,0.24709345,0.4594009,-0.18419196,-0.30082706,0.13594687,0.31267372,0.46285132,0.39370707,-0.41781598,-0.3937414,-0.12638779,-0.27154872,1.040661,0.25596428,0.24020478,-0.24765258,0.3570683,0.08293925,-0.5601667,-0.056594215,0.2672191,0.4286686,0.031488433,0.19875818,0.6723164,0.45447895,0.38007736,-0.5412258,-0.32097185,-0.013438833,0.15306644,0.12548639,-0.4263319,-0.22183871,-0.6636598,-0.014665024,0.3241091,1.1448542,0.007566723,-0.12159013,0.2187908,-0.44758317,-0.26770264,0.1397345,0.26731056,-0.51501787,0.29948217,-0.7634985,0.21282426,-0.5118137,0.54681545,0.24030897,0.44140065,-0.029214567,0.3417261,-0.06190067,-0.3306232,0.54082906,0.39447302,0.32801667,0.31853718,-0.24602069,-0.38399974,0.67933065,-0.35804603,-0.28616807,-0.15538159,-0.01812386,0.499941,0.19328976,-0.115665466,0.74841154,-0.052280966,0.68756855,-0.5927287,-1.2148556,0.0365086,-0.11180411,-0.867323,0.29363433,-0.47650075,-0.18194589,-0.13318197,0.43101582,0.12224292,0.030649947,-0.22569452,-0.09533413,0.17131525,-0.18449011,0.37360182,-0.4964331,0.8185434,0.045539092,-0.27927008,-0.1410586,0.031784575,0.20374008,0.21848287,0.13459586,-0.3812104,-0.82462656,0.14042868,0.8473008,-0.17456122,-0.3851827,0.28920242,-0.8988903,-0.039412227,-0.33220404,0.022488544,0.45893207,0.7437544,0.038999327,0.39277366,-0.63597023,-0.34373134,-0.034349293,-0.3403181,0.09685046,0.022483569,0.31918165,0.021580845,0.18073289,-0.15253599,-0.110128604,0.065806925,-0.32894197,-0.568905,0.5872544,0.15697464,0.07862439,0.174072,-0.57240385,-0.79409564,-0.08020918,0.102363005,-0.262013,0.32166785,0.089205906,-0.1853124,1.0636377,0.672849,0.1591674,0.37385258,-0.9639407,0.501436,-0.4100723,-0.7188306,0.0066873096,-0.92263246,0.004879367,0.40846604,-0.21736926,0.09351773,-0.4121285,-0.13728225,0.04322684
1,0.46147856,-0.55436724,0.59618217,0.5900502,-0.055530604,-0.46358633,-0.1092467,0.33942574,0.11523899,0.17731929,-0.17913751,1.0715157,-0.75693786,-0.30232155,-0.2502449,0.60676664,-0.06794264,0.78135836,0.48471662,0.4110228,0.417367,-0.05546086,0.52180004,0.17600001,-0.5954105,0.77503383,-0.4219618,-0.39637375,0.37393284,-0.15692513,0.14136447,0.2404395,-0.08668626,-0.42333245,0.5369641,-0.047026552,-0.4196643,-0.83369464,0.7720118,-0.23963411,-0.042843137,-0.32494217,-0.15565161,-0.21198617,-0.08436019,0.14303178,-0.39837262,0.089017846,0.75010335,0.3695494,0.41645655,-0.19219759,-0.51553285,0.15346876,-0.33600307,-0.063469134,-0.4974653,0.20135953,-0.4216007,-0.003135411,-0.11218217,-0.35074565,-0.22528043,0.52871794,-0.11038043,0.33564413,0.66873616,-0.14517546,-0.63695854,0.20722978,0.12333939,0.4694279,0.034705974,-0.3676109,-0.6528658,0.0022615714,-0.47313386,0.18697792,-0.2796865,0.21431558,0.11939902,-0.05259443,-0.68727344,-0.4119897,-0.20219253,0.28068098,0.29771093,0.42977574,0.32895827,0.13624707,-0.67178005,-0.30717075,-0.077872396,-0.35907838,-0.7221284,-0.33165345,0.21830428,0.45606956,-0.09375281,0.20132877,-0.24625279,-0.030922538,0.83145964,0.5867711,-0.4321241,-0.20666446,0.035104726,0.12718959,-0.4969538,0.1855221,-0.030541433,-0.18958513,-0.29941574,1.2805296,-0.2421214,-0.25259924,-0.6818741,0.3502262,0.51217633,-0.22753605,-0.40391827,0.3571801,0.42217103,-0.7111734,-0.46347827,0.1761252,0.22404285,-0.15433973,-0.24291056,-0.64886975,-0.58749235,-0.52510643,0.21455626,0.50209856,-0.3341828,-0.022895861,-0.36507016,-0.1515885,0.47128263,0.55019504,0.47288707,0.111207195,0.68221796,-0.012032474,0.08372338,-0.48630196,0.3381901,-0.12261947,-0.21769734,-0.527993,0.24719785,0.06282693,-1.0403976,0.19961038,0.12826513,-0.5660232,0.16552259,0.04745893,0.23004721,0.27598876,0.114183724,0.14183332,-0.18517445,0.5329574,0.5782113,0.38274947,0.14289097,0.05504977,0.32477129,0.39860106,-0.027893355,-0.8132368,0.4204391,-0.25484872,-0.21461606,0.37687606,0.16961163,-0.48905504,0.3876027,-0.024414342,0.6113109,0.16837049,0.3199897,0.11710064,1.0957233,-0.103837304,0.4344113,0.072034754,0.20407833,0.12986861,-0.67588216,-0.35249442,-0.05198191,0.087554865,0.16471978,0.32670212,0.46729,-0.43209788,0.036160395,-0.11071888,0.32174683,-0.09449123,0.5427802,-0.35730204,-0.41826057,-0.5070831,-0.16982533,0.33859175,0.053109106,-0.025783034,-0.5200075,0.32767543,-0.031456836,-0.0791904,0.24897927,-0.014063206,-0.35786924,-0.6073021,0.47414652,-0.41509354,-0.4262487,0.3237818,-0.33631986,-0.22572817,0.78922504,-0.16987187,-0.3013238,-1.0082538,-0.14966978,0.47971734,1.3279707,-1.1397785,0.13433217,-0.12436754,0.5030804,-0.8638804,0.29265547,-0.04275776,0.11184381,-0.05362102,-0.083877556,-0.5265259,0.16878216,-0.21209104,0.0093390485,-0.31184703,0.0048620696,0.3264867,0.26556325,-0.7090517,-0.09347127,-0.08645874,0.40781695,0.57502896,0.024706436,-0.33360344,-0.25930196,-0.13370131,0.17609827,0.38813615,-0.14521885,-0.47112793,-0.24221665,0.22492045,0.4372878,-0.07165662,0.59070754,-0.2886289,-1.3815652,0.29296556,-0.63917357,0.11728749,0.23684558,-0.5944454,-0.48598048,0.3462072,-0.058795333,-0.34727868,-0.4618251,-0.4657905,0.4008419,-0.24564414,-0.13889226,0.16652687,-0.6088242,0.14605379,0.72482514,0.25561902,-0.6289489,-0.40816808,-0.2442295,0.48982307,-0.10474091,0.025108498,-0.24146715,0.4014358,-0.6278019,1.0660257,-0.055343017,0.11305457,-0.7549836,-0.16923033,0.2956191,-0.4553571,-0.46874502,0.27374935,0.34093133,0.3972127,-0.5379903,-0.14154136,-0.05151888,-0.09539414,-0.19860415,-0.18969789,0.3585887,0.12914976,-0.8608659,0.56386447,0.01812154,-0.42309767,0.9018191,-0.05735909,0.17214209,0.59020704,-0.42640543,-0.0031755727,-0.22642222,0.38267177,0.28077024,0.17839356,-0.7161663,0.35425562,-0.2269081,0.45597994,0.252709,-0.7750207,-0.5452496,0.23621775,-0.31065193,-0.036158036,0.22104974,0.27344444,-1.0520082,0.11591975,0.28449064,-0.08624188,0.008873619,-0.30825654,-0.52734655,0.41682923,0.84215075,0.09988447,-0.32594734,-0.16659616,-0.22248892,-0.44213015,0.18177582,0.23520379,-0.18430275,-0.2880305,-0.46930885,-0.37813002,0.44347185,0.39234537,0.104212634,0.31041017,-1.0335264,-0.28805602,-0.2612974,0.28745854,-0.3787196,-0.13356866,0.5291842,0.03891061,-0.2574537,-0.48189357,-0.08199257,-0.2587106,-0.6584092,-0.45095304,-0.41365576,0.53514296,0.31320557,-0.056850016,-0.09474335,-0.11167736,0.44454557,0.22505648,0.6355256,0.04559741,-0.34282738,-1.0818604,-0.04713429,0.1496489,-0.20623618,0.39255303,0.26027772,-0.17307603,-0.24780665,0.5186322,-0.30406848,0.8155574,-0.17691597,0.54045695,-0.56164163,-0.2455304,-0.37152934,0.02454847,-0.34506473,0.02256315,0.3645353,-0.50864196,-0.40061393,-0.36420473,-0.33507645,0.2477464,0.35241994,-0.6186697,0.31295088,0.2959892,0.12598717,0.035199918,-0.52569526,-0.18356937,0.18278638,-0.7392883,0.070273094,-0.6666333,0.57212245,1.1856854,-0.06382552,0.10460116,0.9146791,-0.31204215,0.48503554,0.13913858,0.12821037,-0.41966853,-0.17595805,-0.039891507,0.19266762,0.12829839,-0.22364768,0.13232458,-0.31943884,0.44595852,-0.8018501,-0.08568238,0.2884583,0.18332344,-0.072035044,-0.19251682,-0.21072747,-0.15781213,0.4047308,0.8249913,-0.14717925,-0.8048464,0.18451048,0.376855,-0.28940725,0.90675896,0.021803787,0.3383588,-0.040531654,-0.45222935,-0.78271997,-0.033856943,-0.32663763,0.667605,0.34480083,0.027770149,0.32201734,-0.14441134,0.01658625,-0.31458643,0.023627197,-0.19423835,0.119957864,0.103684284,-0.05418477,0.34969372,0.5257987,-0.62707067,-0.10414312,-0.0644616,-0.17842951,0.5811642,0.7657333,0.043343857,-0.09130689,0.25936258,-0.29333362,-0.05017337,0.18033504,-1.0890539,-0.63480544,-0.10310005,-0.34296292,1.0005003,-0.50829166,0.39413074,0.7256054,-0.044896718,0.96578175,-0.012067803,-0.42291674,0.18255034,-0.09158563,0.37195158,0.17055604,-0.034898806
