,0
0,-0.016289996
1,-0.016738202
2,-0.03067603
3,-0.047984093
4,-0.040616702
5,-0.04665933
6,-0.052155606
7,-0.036740925
8,-0.04369053
9,-0.046749003
10,-0.038139448
11,-0.029772623
12,-0.028342389
13,-0.03337277
14,-0.038011264
15,-0.02238351
16,-0.042583734
17,-0.030003373
18,-0.044114776
19,-0.045866832
20,-0.039508928
21,-0.03965226
22,-0.036406748
23,-0.057840977
24,-0.022016346
25,-0.044827994
26,-0.051414773
27,-0.053560637
28,-0.040440384
29,-0.04277173
30,-0.03571964
31,-0.033544406
32,-0.040877882
33,-0.015710084
34,-0.03478731
35,-0.03974774
36,-0.039902125
37,-0.051697142
38,-0.048802372
39,-0.06276624
40,-0.05730105
41,-0.041658115
42,-0.063977376
43,-0.03735465
44,-0.020254308
45,-0.028727714
46,-0.055436727
47,-0.054390453
48,-0.03127926
49,-0.033742964
50,-0.028168334
51,-0.035475068
52,-0.046080496
53,-0.026614072
54,-0.03635524
55,-0.04913277
56,-0.036995035
57,-0.042893294
58,-0.026553757
59,-0.06747166
60,-0.07676558
61,-0.043461874
62,-0.043301616
63,-0.050219897
64,-0.026758505
65,-0.025475815
66,-0.04928342
67,-0.04210556
68,-0.065050445
69,-0.02780246
70,-0.0417497
71,-0.03234078
72,-0.05138945
73,-0.030330764
74,-0.05250578
75,-0.04952295
76,-0.023631347
77,-0.039919134
78,-0.034050643
79,-0.036785834
80,-0.047708135
81,-0.031385433
82,-0.02855536
83,-0.04355072
84,-0.040640786
85,-0.045794595
86,-0.025500989
87,-0.041213058
88,-0.037669983
89,-0.024091057
90,-0.06930597
91,-0.04507276
92,-0.04890195
93,-0.019926876
94,-0.03614259
95,-0.04492833
96,-0.06462303
97,-0.02835645
98,-0.039125994
99,-0.0387428
100,-0.055040102
101,-0.046323296
102,-0.030816833
103,-0.0368219
104,-0.032894947
105,-0.029471269
106,-0.05548217
107,-0.048114818
108,-0.043178253
109,-0.025048366
110,-0.01614401
111,-0.04117887
112,-0.050228752
113,-0.045938045
114,-0.05655055
115,-0.036418833
116,-0.04155943
117,-0.025458258
118,-0.04251446
119,-0.049305227
120,-0.051903132
121,-0.043993138
122,-0.036407452
123,-0.049592506
124,-0.0351279
125,-0.0559676
126,-0.040148713
127,-0.063168965
128,-0.04866265
129,-0.05250199
130,-0.031902708
131,-0.03508385
132,-0.03557849
133,-0.04693373
134,-0.049299557
135,-0.043282185
136,-0.02501477
137,-0.033547416
138,-0.03088973
139,-0.025513452
140,-0.024006546
141,-0.026756063
142,-0.062897846
143,-0.04234573
144,-0.029898165
145,-0.023569858
146,-0.024020275
147,-0.026843641
148,-0.03668248
149,-0.017029062
150,-0.028615726
151,-0.03478374
152,-0.032758072
153,-0.054875065
154,-0.042072378
155,-0.050910793
156,-0.029715545
157,-0.05525332
158,-0.028356306
159,-0.050578196
160,-0.024416907
161,-0.031117473
162,-0.029712744
163,-0.05370216
164,-0.03403015
165,-0.02600563
166,-0.044403713
167,-0.040484622
168,-0.050766725
169,-0.038662188
170,-0.024857132
171,-0.020990308
172,-0.0440163
173,-0.035129525
174,-0.020619223
175,-0.050901197
176,-0.05455256
177,-0.03665914
178,-0.017226323
179,-0.045935318
180,-0.032223787
181,-0.031779725
182,-0.020497682
183,-0.04329032
184,-0.043854073
185,-0.024324505
186,-0.045246046
187,-0.03420177
188,-0.021365339
189,-0.026589759
190,-0.045265656
191,-0.039834324
192,-0.04855431
193,-0.03287126
194,-0.061174095
195,-0.024912577
196,-0.07083077
197,-0.04149952
198,-0.05137086
199,-0.03572039
200,-0.049156148
201,-0.030649077
202,-0.07774039
203,-0.04264711
204,-0.042060006
205,-0.047307353
206,-0.059984818
207,-0.053325117
208,-0.04128033
209,-0.050748322
210,-0.040202748
211,-0.030090693
212,-0.04062869
213,-0.048543274
214,-0.04099142
215,-0.06360749
216,-0.046128854
217,-0.047907766
218,-0.029244887
219,-0.031222213
220,-0.04420709
221,-0.05424541
222,-0.056571137
223,-0.05274079
224,-0.051600136
225,-0.025396543
226,-0.05106602
227,-0.026278157
228,-0.048956536
229,-0.037756953
230,-0.034029953
231,-0.050766103
232,-0.032069754
233,-0.026848363
234,-0.013031214
235,-0.057024546
236,-0.06571716
237,-0.03397612
238,-0.048812125
239,-0.086366184
240,-0.033722475
241,-0.04967426
242,-0.028348396
243,-0.052861694
244,-0.0789936
245,-0.033830732
246,-0.034653377
247,-0.051293448
248,-0.03532518
249,-0.05505737
250,-0.036397174
251,-0.056194156
252,-0.036844134
253,-0.08948647
254,-0.023228059
255,-0.055047702
256,-0.026003769
257,-0.042188764
258,-0.04436983
259,-0.050254878
260,-0.06128252
261,-0.029592438
262,-0.030672984
263,-0.03233926
264,-0.07017461
265,-0.054335926
266,-0.028517239
267,-0.03980506
268,-0.034806456
269,-0.044858225
270,-0.041809473
271,-0.034747455
272,-0.030677736
273,-0.041760087
274,-0.03417534
275,-0.021114605
276,-0.064266466
277,-0.04126814
278,-0.039472837
279,-0.05103706
280,-0.055577386
281,-0.04363316
282,-0.058452167
283,-0.048587453
284,-0.027390255
285,-0.047899254
286,-0.046954535
287,-0.011363923
288,-0.05968109
289,-0.035661187
290,-0.038180467
291,-0.049459506
292,-0.042569675
293,-0.037973154
294,-0.032785583
295,-0.07195871
296,-0.041374344
297,-0.02937958
298,-0.04455671
299,-0.04110735
300,-0.042642295
301,-0.029934186
302,-0.03813022
303,-0.03660153
304,-0.017396271
305,-0.038926
306,-0.05625715
307,-0.06352187
308,-0.038517047
309,-0.06301621
310,-0.051972713
311,-0.02721662
312,-0.029165149
313,-0.030186208
314,-0.055730283
315,-0.044758923
316,-0.028271854
317,-0.036676496
318,-0.07701081
319,-0.035486266
320,-0.048735797
321,-0.05282882
322,-0.08099629
323,-0.033254977
324,-0.06010079
325,-0.030163344
326,-0.028895596
327,-0.03609693
328,-0.044151366
329,-0.047080547
330,-0.035012417
331,-0.051804084
332,-0.055345222
333,-0.039881382
334,-0.031917196
335,-0.04062291
336,-0.033083454
337,-0.03035346
338,-0.021546585
339,-0.03327422
340,-0.018282127
341,-0.012705922
342,-0.05030492
343,-0.06668281
344,-0.03339146
345,-0.05237624
346,-0.049629834
347,-0.05155797
348,-0.042575072
349,-0.043114934
350,-0.042820726
351,-0.064102665
352,-0.03842907
353,-0.027148139
354,-0.04672252
355,-0.042845555
356,-0.06853764
357,-0.03207178
358,-0.05103231
359,-0.01864847
360,-0.04074193
361,-0.052425783
362,-0.01647034
363,-0.02344443
364,-0.027125634
365,-0.028517706
366,-0.025582204
367,-0.03814765
368,-0.04080532
369,-0.054346524
370,-0.053541634
371,-0.04233714
372,-0.046636913
373,-0.04188764
374,-0.04731024
375,-0.022018772
376,-0.05038137
377,-0.049002316
378,-0.07476358
379,-0.06500616
380,-0.05754606
381,-0.019598788
382,-0.032019373
383,-0.033744592
384,-0.02896189
385,-0.06697612
386,-0.057706635
387,-0.04278464
388,-0.03959518
389,-0.029217398
390,-0.06317893
391,-0.035657614
392,-0.036209326
393,-0.022653807
394,-0.019609535
395,-0.044890054
396,-0.044772033
397,-0.044180278
398,-0.07695655
399,-0.05458564
400,-0.029261716
401,-0.027688162
402,-0.03240218
403,-0.03583445
404,-0.032354943
405,-0.020232549
406,-0.027368477
407,-0.024122363
408,-0.03188744
409,-0.03620052
410,-0.026556581
411,-0.040595315
412,-0.054497577
413,-0.027579268
414,-0.049334276
415,-0.033703264
416,-0.04301381
417,-0.032838363
418,-0.027999816
419,-0.03647499
420,-0.032619674
421,-0.052410316
422,-0.037749354
423,-0.029059093
424,-0.03505483
425,-0.05139311
426,-0.05499599
427,-0.04542468
428,-0.055167004
429,-0.036507368
430,-0.046958134
431,-0.060819265
432,-0.009973904
433,-0.038196065
434,-0.05090097
435,-0.042747736
436,-0.02802464
437,-0.050198052
438,-0.03370847
439,-0.012830256
440,-0.039614484
441,-0.034287088
442,-0.033557735
443,-0.052353453
444,-0.04171675
445,-0.063964896
446,-0.031387452
447,-0.04114962
448,-0.051286858
449,-0.033803936
450,-0.02628932
451,-0.055538215
452,-0.036104318
453,-0.037779436
454,-0.03166126
455,-0.038205944
456,-0.04417315
457,-0.044861052
458,-0.04410406
459,-0.059861302
460,-0.030679863
461,-0.039449096
462,-0.04771016
463,-0.05110209
464,-0.04170151
465,-0.052128892
466,-0.045642987
467,-0.03939776
468,-0.044259913
469,-0.035254672
470,-0.058493268
471,-0.03449249
472,-0.020207725
473,-0.029345175
474,-0.031574834
475,-0.042771686
476,-0.06288496
477,-0.035965666
478,-0.063474655
479,-0.019973105
480,-0.03102269
481,-0.053315554
482,-0.021113858
483,-0.02368258
484,-0.033646133
485,-0.035653498
486,-0.05206154
487,-0.025234181
488,-0.063629754
489,-0.036359802
490,-0.02875105
491,-0.04486183
492,-0.023241496
493,-0.039764673
494,-0.04193265
495,-0.021920256
496,-0.047590952
497,-0.028682934
498,-0.050349355
499,-0.028940314
500,-0.04987272
501,-0.026497345
502,-0.06035365
503,-0.027946223
504,-0.05053395
505,-0.06904416
506,-0.028799767
507,-0.05942749
508,-0.05842226
509,-0.011796791
510,-0.039612524
511,-0.059091914
