,0,1,2,3,4,5,6,7,8,9,10,11,12,13,14,15,16,17,18,19,20,21,22,23,24,25,26,27,28,29,30,31,32,33,34,35,36,37,38,39,40,41,42,43,44,45,46,47,48,49,50,51,52,53,54,55,56,57,58,59,60,61,62,63,64,65,66,67,68,69,70,71,72,73,74,75,76,77,78,79,80,81,82,83,84,85,86,87,88,89,90,91,92,93,94,95,96,97,98,99,100,101,102,103,104,105,106,107,108,109,110,111,112,113,114,115,116,117,118,119,120,121,122,123,124,125,126,127
0,0.024970734,-0.017537598,-0.008647889,-0.020923898,0.0031767231,-0.039910074,-0.0005749992,-0.018333899,-0.025464268,-0.010876463,-0.0009888011,-0.007319682,0.00825212,0.025814496,-0.014686228,-0.0075846747,-0.0005559397,0.005823211,0.015549242,-0.017567353,0.014315838,0.021984404,0.026752042,-0.034790814,0.056454156,-0.0059599965,-0.002739955,-0.025408955,0.00875181,0.028606843,0.024990736,-0.011782907,-0.025475847,0.007975774,0.008303538,0.015297611,0.077907085,-0.013472958,-0.0043353913,0.033646468,0.076407515,0.0010948032,0.0009294495,-0.033014648,0.012006986,-0.004049485,-0.017239878,0.038811777,0.006059404,0.0025173544,0.027589193,0.031071166,0.043834437,-0.0034337773,-0.01845744,-0.036970746,-0.02061296,0.037880626,-0.036695786,0.03464069,0.021869881,0.022486944,-0.003757003,-0.024001356,-0.004157307,-0.0136032,-0.009716404,0.03654987,0.014570922,0.024536122,0.043639354,0.003285807,0.00088337733,0.015503061,0.034586057,-0.006450446,0.011524894,0.0102968,-0.03451961,0.02514833,0.043455914,-0.011644663,-0.03161058,0.0068921563,0.0065649883,0.020885646,0.043141335,-0.044319045,0.06779175,0.029166406,-0.034266766,-0.0029412895,-0.03169414,-0.036997683,-0.010274406,-0.0057247058,0.026477952,0.0033718606,-0.02552727,-0.005251603,0.028034294,0.01897959,-0.027260724,-0.0025775735,-0.006183432,0.024887217,-0.009851657,0.016671106,0.026950885,0.031278256,0.024437211,0.0030160735,-0.024523864,-0.027291918,0.041967027,-0.011548261,0.0038317803,-0.005038889,0.0070140683,-0.004367058,-0.018354567,0.025946585,0.02982225,0.026042877,0.0068161706,-0.005080179,-0.03210093,-0.011969559
1,0.020806318,0.041835338,0.0021115346,-0.010794144,-0.01425087,-0.030657537,-0.08210323,-0.0075763157,-0.02048438,0.01667675,0.019530656,0.016566752,-0.018572915,0.00017800412,-0.007659621,-0.0065305647,-0.023760285,0.005255068,0.009307545,-0.016678993,-0.010788351,0.0142696835,-0.015632132,-0.030891182,-0.0006431491,-0.02263404,0.042447276,0.010520993,-0.014600798,0.002303183,-0.042671323,-0.003092179,-0.023272485,0.017600141,0.008945861,0.050768476,0.013903098,0.0037398492,-0.07878762,0.022671172,-0.0526162,-0.025985047,0.0072562643,-0.06586737,-0.033777338,0.022248242,-0.046867326,-0.0023325428,0.0011832194,0.013732767,0.02479581,0.10235459,0.025577188,0.031019334,-0.0043872497,0.015153561,0.037137493,0.013402157,0.03373886,-0.015925987,-0.03156662,0.006105447,-0.008488387,-0.0070667095,0.004712884,0.025415039,-0.008424864,-0.009534721,-0.017911253,-0.018220305,-0.014545682,-0.0074342317,0.018959276,-0.010564592,-0.024993433,0.00080963527,-0.0069353045,0.015732462,-0.011168435,0.0070130485,0.0032666593,0.055068966,-0.032503232,-0.018188687,0.020631006,0.0036168776,0.0001619209,-0.034785625,-0.028178975,-0.007951176,0.0092251655,-0.01589324,0.029186986,0.0043028314,0.011052101,-0.034396075,0.0023944743,0.014009599,0.02918564,0.011863059,0.024150146,0.040098194,0.005630535,-0.010255081,-0.02047552,-0.04844449,-0.030355405,-0.00215348,0.045615524,-0.0334444,0.0057485914,-0.013536634,0.0044622472,0.025197776,0.040925026,-0.004299248,-0.009115767,0.036708217,-0.039789367,0.021827396,-0.017861633,-0.011712712,-2.0089774e-05,-0.003580488,-0.022313325,-0.034481917,-0.031623557,0.027567701
2,-0.036184996,0.024191739,0.028204102,-0.026823498,-0.0003218267,0.028850665,0.0009976943,-0.02614289,0.021845719,-0.017403925,-0.01180481,0.098803915,0.03144583,-0.0152441915,0.0013513445,0.011743701,0.0020071797,-0.013092974,0.052426495,-0.020021357,0.02114884,0.029813232,0.01894852,-0.01992714,-0.004763416,-0.012123385,-0.00011891106,-0.016048318,0.024423284,0.0007826984,-0.0073841414,0.0026851695,-0.017971326,0.026317509,0.0048948596,0.042905062,-0.034339778,0.0049909786,-0.020085325,-0.03005798,0.0078073125,-0.008367804,-0.08848248,-0.10748361,-0.042738363,0.027341979,-0.0060184216,-0.00888601,-0.0140531445,0.0015255351,-0.006446855,0.07482358,-0.010070281,0.06969622,-0.02925378,-0.016560787,0.028098673,-0.0056122877,-0.035497963,-0.0018749218,0.01596128,0.052150287,0.040597994,-0.0011367192,-0.025622267,0.041425835,-0.007828403,0.012911736,0.0044598323,0.018439637,-0.042429917,-0.0005961264,0.02600479,-0.011478032,-0.02818094,0.039547827,0.027013544,0.06499751,-0.024438668,0.0036464953,0.031052545,-0.018260302,0.02775691,0.0020235728,0.030103667,-0.0021642037,0.020093122,-0.016748872,-0.0136212325,0.04287251,-0.0043803365,-0.006922774,0.012297531,-0.022123272,-0.009403246,0.038474098,-0.000440523,0.0058307243,0.006511804,0.0177829,-0.025177712,-0.035130974,0.036455918,0.02654589,-0.032568038,-0.046208277,-0.0117477905,-0.04208133,0.011186883,-0.03477329,0.01312155,-0.014334328,-0.010627579,0.0034731117,0.0110666575,0.020214159,0.006934574,0.062974006,-0.0016017909,0.005665018,0.0025281184,0.033691555,-0.0022337283,-0.009883594,-0.016552823,0.008042782,0.007378271,0.01941304
3,0.014058628,-0.015113026,0.032326262,-0.058020994,-0.031366594,0.0019687035,-0.008178199,-0.010927227,-0.04738831,-0.0048360745,-0.02840088,-0.0038074567,0.036382403,-0.024465265,0.0014637073,-0.014661587,0.026352067,-0.0101575265,0.025087656,0.03570212,-0.03760109,-0.005088696,-0.005679087,0.052383244,-0.031792074,0.022391548,-0.011237991,-0.0069127656,0.020543298,-0.053427596,-0.027404156,-0.015315982,0.006572514,-0.030515965,-0.012535216,0.012716696,0.03132642,-0.014285079,-0.0361966,0.114036635,0.0055360324,-0.070257775,-0.004165211,-0.03341208,-0.027993824,0.012234012,-0.017638564,0.022451662,-0.0009774873,0.041921444,0.020560093,0.007841595,0.026226934,-0.004176897,-0.04376747,0.00913063,0.013555338,0.06563314,-0.008133459,0.0073345923,-0.024814956,-0.055897545,0.003138559,-0.00025779853,-0.014800654,-0.07847593,0.011063402,0.012589618,-0.02530768,-0.05511254,-0.012642962,0.03717607,0.0070151575,0.012910853,-0.045564283,-0.00781551,-0.017950226,0.00072465686,0.006372999,0.004765095,0.00041146786,0.04089101,-0.019678563,-0.02965331,0.019334517,0.0103895,0.045874413,0.028057301,0.012510757,0.00091198104,-0.0009220824,0.016927533,0.0068786866,0.012402358,0.021814799,-0.055314846,0.028324895,0.024839267,-0.01447645,-0.041540824,-0.013910349,9.9960256e-05,0.013768472,0.049440466,-0.026522145,-0.013038836,0.010260714,0.05163834,0.018751184,0.04107141,0.022839384,0.030503493,0.03623501,-0.012809839,-0.02543579,0.047966573,-0.018554555,0.01645143,-0.039600395,0.01934502,-0.037860535,0.0020151185,-0.0067374418,0.029749747,-0.018324384,-0.018109147,-0.00094788556,0.014310231
4,0.0598026,-0.01717576,0.014255145,0.0050633354,0.008478066,-0.0110905515,0.019883327,0.019814242,-0.03648505,0.021489043,-0.010509447,-0.04128509,-0.004718295,0.02492187,0.01584072,-0.0037109803,-0.0136427125,0.031585168,0.024189455,0.039330497,0.023323545,-0.01580414,0.039562557,-0.021159556,0.004480149,-0.032821544,-0.010788746,0.004723706,-0.005172914,-0.042533144,-0.0031008993,-0.018058736,0.027373252,-0.0010813317,-0.019702325,0.10891192,-0.011527282,-0.0044661798,0.029573156,-0.024562063,-0.036290385,-0.025784517,0.0388481,0.054186776,-0.0078002163,0.022450961,0.004095224,-0.036581177,0.023075173,-0.026573185,0.008613718,-0.0054075755,-0.08375155,-0.03206866,-0.02296632,0.010223593,-0.024475362,-0.028181246,-0.024275944,-0.020482074,-0.02794479,-0.032091327,-0.041389894,0.0059848446,-0.005148341,0.012302118,0.006436946,-0.008404405,-0.014125845,0.025574993,0.038033646,0.008281345,-0.05558711,-0.0135372775,-0.023074396,0.023270957,-0.060791884,-0.00037395544,0.041047476,0.01786908,0.0332205,0.0014602777,-0.028570786,-0.020229515,0.013294843,-0.015488014,0.01507718,-0.0019926499,-0.020068096,0.0043277373,-0.022813275,0.026469184,0.023163026,0.009808532,-0.021104967,-0.003267844,0.019366873,-0.031407204,-0.008152862,-0.026345953,-0.006366646,-0.033934813,0.030470602,0.019760285,-0.02013822,0.003596431,0.0562895,-0.05148644,0.023152646,0.033427056,-0.01367846,0.006347576,-0.034584552,0.032814536,0.008268107,-0.019636782,-0.019135552,-0.0162629,-0.03303597,0.02258859,-0.022724254,0.03968443,-0.0071890703,-0.0009518755,-0.0044427826,0.012083077,-0.012262475,0.001155665
5,0.03507225,0.03048066,-0.007827563,0.014490018,0.028676199,0.010099119,-0.04561649,-0.05358259,0.025682414,0.010731826,0.0067811273,0.04075733,0.033146787,0.036691044,-0.020840554,0.037117556,0.047492173,0.020767812,0.034021482,-0.0030143359,-0.024058577,-0.012120353,0.024525965,0.009785253,-0.061886404,-0.016657744,-0.058086067,0.014233116,0.025264738,-0.032429107,-0.041825,0.002223589,-0.021133842,-0.012030641,-0.0065614637,0.044028547,-0.024413055,0.08956634,-0.023522066,0.07675823,0.032589782,-0.012409184,-0.021774733,0.005950607,-0.008543992,0.013181152,-0.013303465,-0.022544542,0.04566227,-0.013961433,-0.02456912,0.020712463,-0.03801761,-0.01571132,-0.009773631,0.047459427,-0.008383447,-0.0022046554,0.01343639,-0.009914077,-0.036766957,-0.012258917,-0.010610922,0.009796853,-0.0022567546,-0.04301009,-0.0040416527,-0.008948382,-0.017848996,-0.0128975455,0.0011911645,0.024723437,-0.0008078941,-0.051312063,-0.046692383,0.057931457,0.00841343,0.01159107,0.039578184,0.0203855,0.017430915,0.004349564,-0.040014062,-0.025521876,-0.03202662,-0.024185557,0.030528681,0.04745014,0.030877104,0.03848459,-0.017505331,-0.011060124,0.023435347,0.00045476644,0.0013325388,-0.0023825774,0.020463055,-0.007862226,-0.046493053,-0.051400326,0.018629568,0.02151594,-0.040884435,0.04875015,-0.04249129,-0.037455868,-0.0037600454,0.010582088,0.06944588,0.031754535,-0.039495926,-0.022069816,0.06104742,-0.0027825048,-0.005846484,0.014286609,-0.026572926,-0.0048652263,-0.011259503,0.007448543,0.018405536,-0.010698448,5.9624326e-05,0.0096347,0.0014314617,0.035784837,-0.02401494,0.04812707
6,-0.02905954,-0.015189385,0.0017421019,0.011588955,-0.008664207,0.0471246,0.001763299,0.037284,0.00713036,0.022023175,-0.0061635873,0.05498854,-0.032599024,0.01764412,-0.048725422,0.026315171,0.016220016,-0.014063757,-0.05039433,0.026873603,-0.011680653,0.039815724,-0.054840144,-0.04451494,-0.024496522,-0.009021271,0.02466617,0.009833597,-0.0024187176,-0.010557974,-0.0137633085,0.0013687607,-0.021702874,0.021933924,0.0018733392,-0.0060508647,-0.025078204,0.026828175,0.0016385848,-0.053714473,0.037969965,-0.03540246,-0.03484849,-0.01771627,0.012244785,-0.009960224,-0.019728454,-0.018599374,-0.006153621,0.019910088,-0.019091086,-0.0046523903,0.011672002,-0.017831018,-0.008266155,0.0463595,0.0014933745,0.03691372,0.040067364,0.045373317,0.022420676,-0.026699215,-0.09348855,-0.010383561,-0.04193933,0.0065689664,0.020209594,-0.023470057,0.010850935,0.04218328,-0.019285643,-0.017092528,0.030473474,0.029126028,-0.071952544,0.0038571921,-0.011511606,0.02566194,0.048134007,-0.0026833403,0.021878581,-0.010746527,0.025714293,0.030556232,-0.02497433,-0.020219982,-0.005799039,0.012944133,0.0068920646,0.05164818,0.041600324,-0.0036784417,-0.08429613,-0.012444416,0.009105489,-0.006511955,-0.02797515,-0.044777874,-0.02881185,-0.0009943736,-0.0043964195,-0.015331366,0.0048979195,0.0015090838,0.0092657525,0.010277959,-0.009715537,0.016732607,-0.029075695,-0.004958323,0.013886158,0.01881719,-0.020740636,-0.020872518,-0.031332072,0.022550588,-0.0060787154,0.041741937,-0.009151721,0.0054560606,-0.048923764,0.0012539836,-0.04208096,0.021540161,0.022251073,0.00042350116,0.011973256,0.026243988
7,-0.0060089407,0.05364167,-0.0059309145,-0.020018183,0.045094203,-0.054875992,-0.049955193,0.006063537,0.020098148,0.024882866,-0.004345794,0.027868548,0.038366243,-0.005255261,0.0005420756,0.015538507,-0.016419541,-0.023468344,-0.009522751,-0.003377139,0.02490705,0.014878729,0.025201088,-0.029882897,0.029590396,-0.0015234445,-0.0017353581,0.059084017,0.0054415762,-0.0070138206,0.011892071,-0.03655241,-0.017635508,0.008603775,0.012988415,-0.034482557,-0.06480657,-0.013096491,-0.03923334,-0.009945598,-0.013940562,-0.01032955,5.6630426e-05,-0.050160665,-0.017425653,0.022726119,0.009902918,0.0031094216,0.0014803892,-0.018170314,-0.010979277,0.03325307,-0.0079981955,0.04216053,-0.009546855,0.017732486,-0.037699956,-0.024329048,0.012728152,0.037053555,-0.015519672,0.014046847,0.011248157,-0.02259076,-0.05109432,0.026444506,0.006054173,0.00893547,-0.00090664194,-0.037301023,-0.023727864,0.006491699,0.013569983,-0.01735357,-0.07608744,0.012255408,0.015761191,-0.007008347,-0.0292221,0.005286852,0.008717819,-0.011919698,0.0057952325,-0.00609574,-0.025898559,0.037091915,0.02060839,0.0057640527,-0.025234804,0.0020935726,0.012051751,0.017665934,-0.08043925,-0.028411957,0.008009607,0.011487202,0.020443564,-0.014066239,-0.03247141,-0.015119094,0.028451107,-0.011206071,0.014898968,0.028134322,0.028730419,-0.029591555,-0.0053413515,0.0022333828,0.006976774,-0.067424074,0.035843972,0.025368718,0.017083904,0.012553562,0.019394794,0.010090583,0.011098894,0.019335562,-0.031836733,0.001856762,-0.00034933747,0.052106466,-0.0028087753,-0.0036616384,-0.042314496,-0.01608056,0.049053904,0.0056831744
8,0.006366804,0.0021109756,-0.011692365,-0.036520574,0.02634922,0.0065097017,0.03289331,-0.050162066,-0.010059479,3.192553e-05,0.023598773,0.024681844,0.0020307265,0.032627895,0.01568911,0.049743697,-0.011042539,0.0062867757,-0.0010670458,0.00064527954,-0.029607972,-0.017696865,0.04696044,0.007909433,-0.059770152,0.023061167,-0.04278021,0.016549405,0.05162874,-0.00083194237,0.017410174,0.035917003,-0.023968395,0.0046820426,-0.0047041746,0.022911586,-0.01692516,0.06602262,-0.044375055,-0.037765704,-0.034968752,-0.08578894,-0.0020712945,-0.03296356,-0.021450872,-0.037167452,-0.011305225,-0.0009866605,0.0322355,0.06377385,0.05707608,-0.023216797,-0.042658634,0.061229948,-0.0054602856,-0.020493615,-0.0074147526,-0.052450635,0.01043574,-0.0046482775,0.007544872,0.039460763,0.010185893,-0.01037812,-0.00032783742,-0.026020836,-0.027869325,0.00025013607,-0.008325196,0.075889416,-0.008414989,-0.053314906,-0.008025758,0.004228168,-0.035266098,0.010283863,0.019595016,-0.023211755,-0.00047683585,0.032956466,0.019304138,-0.01650325,0.004270912,0.0010106795,-0.0187197,0.010671634,0.026883638,-0.0041126367,-0.0183865,0.023681976,0.048994422,-0.037767902,0.054868978,-0.014267537,1.959081e-05,-0.015988216,0.0050499057,0.008530642,-0.04782563,-0.038161594,-0.017284136,-0.0044650305,-0.008441152,0.018886065,0.033066828,0.005415551,-0.046241015,0.017717075,0.05484177,0.0013361466,0.009710597,-0.018306563,0.0073273527,-0.0042810543,0.03151531,0.021168662,0.015858578,0.016989933,-0.05606641,-0.03347228,0.0010441035,0.07244382,0.036196794,0.022432268,-0.007875136,-3.5114754e-05,-0.04226877,-0.014974787
9,0.0040016607,0.060032513,-0.025210533,-0.0068327608,-0.010173801,-0.020203907,-0.03334614,0.018952612,-0.011896705,0.011152915,0.008598665,0.029609466,0.01570578,-0.004820344,0.06793988,0.020612733,0.024750309,-0.036153696,0.020208957,-0.017703075,-0.0029594938,-0.019814203,-0.006508969,-0.031840816,-0.0032505998,0.0137060825,-0.02721369,0.030802088,-0.020412268,0.017710209,-0.00064274936,-0.0010114188,-0.011299669,0.014584282,0.031264953,-0.015526959,-0.005841521,0.007463802,-0.043453734,0.0359608,0.08726568,0.052555066,0.014844887,-0.024359796,-0.0032944127,-0.047249056,-0.008288626,-0.0062491694,-0.021047235,-0.038380284,0.0020576706,0.031948786,-0.003492888,0.013668269,0.0060492037,0.01707776,-0.0242155,0.009046835,0.05000953,0.023758799,-0.004480772,0.082250915,0.02899592,-0.020707546,-0.02900298,0.0050472883,0.0058565014,-0.021147776,-0.009014325,-0.04993527,0.036410697,0.0041404907,0.071948744,-0.039739076,0.0111623155,-0.0076866182,0.06942723,0.0011604645,0.005928066,0.021689417,0.011025857,0.005963729,-0.023576621,0.015849594,0.009167391,-0.0059518414,-0.0028755157,-0.019770544,-0.028392594,0.0022359388,-0.039428324,0.018143725,-0.026635407,-0.023784742,-0.0041952995,-0.019348832,0.0051500835,0.01703503,-0.007906894,0.020186855,0.03283711,-0.049679015,-0.008002051,0.0076428493,0.02333523,-0.04620179,-0.00934445,0.018753443,-0.043024946,0.009125994,0.020865003,0.008425827,-0.020231646,0.016791768,0.0068472503,0.032552447,0.0010104573,0.0017894611,0.054944783,0.009776764,-0.011723758,-0.008692888,-0.029577304,-0.021409279,0.028541224,-0.00047319426,0.019626554,0.0086756665
10,-0.01197379,0.02594806,-0.011071946,-0.046169516,0.008654778,0.043800574,-0.026737887,-0.03149661,-0.015116634,0.021409132,0.021977127,0.055365093,0.029757515,0.02066997,-0.059973665,0.017140234,-0.004008864,-0.022834001,-0.004267349,0.00037635176,0.0027405997,-0.0349363,0.020421008,-0.022089433,-0.035360545,0.01917491,-0.03645747,0.025807362,-0.016872885,-0.006717748,-0.027531033,-0.026945578,0.0067275623,0.043838073,0.028690474,0.006316315,-0.056078695,-0.049776826,-0.04924828,0.048015796,0.021635747,-0.008224015,-0.018383576,-0.10758136,-0.027434984,-0.026321823,-0.025796685,0.030223487,0.009805437,0.013794083,0.023940602,-0.011339537,0.016762672,-0.003145744,-0.02718344,-0.028475963,0.03641581,0.052143645,0.03385243,0.01888204,-0.017908731,0.091930844,-0.05159058,-0.024679566,0.02046016,-0.021683577,-0.01315444,0.019831924,-0.00026253372,-0.051219955,0.015900353,-0.0047214166,0.05567,-0.02525657,0.031491928,-0.029120076,0.03236739,0.041785322,-0.015542381,0.0048240377,0.016747508,0.02831771,0.00073552,0.031995982,-0.004426046,-0.0016369988,-0.0022161445,-0.024839759,-0.03357723,0.032207172,-0.003807135,0.008489227,-0.04669382,-0.032942213,-0.023940424,-0.0059072995,0.018413393,0.0063440795,-0.03637581,-0.014298197,-0.03252253,-0.057666816,0.011634935,-0.018104069,-0.016406704,-0.07899482,-0.022851331,-0.018307785,-0.019340279,-0.017205687,-0.018533994,0.013973591,-0.03570003,0.007487418,0.01780401,0.03705986,0.005936365,0.03037899,0.00082601374,-0.0048336815,-0.046176407,-0.010080293,0.011464808,-0.006333369,0.005056451,-0.03218823,-0.0030662068,-0.006231118
11,-0.021638332,-0.0083292285,0.07259051,-0.0021337215,0.0072441427,-0.005954836,0.027177164,0.014440287,-0.030610587,0.010384708,0.005746466,0.006670646,-0.03439842,0.026048966,-0.052744176,-0.028794331,0.007316395,0.041989047,0.02840832,-0.013501704,0.055697888,0.0018205623,0.046569422,-0.048581842,-0.009313276,-0.033691924,0.05169211,-0.033424813,0.0014495909,0.03606119,0.0012655869,0.019368913,-0.008471549,-0.027676458,-0.015444737,0.010722549,0.025845926,0.029857488,-0.034055635,0.006723716,-0.010667221,0.02607156,-0.011448035,0.06807147,0.022973405,0.030271413,0.026024364,-0.014789944,0.008045716,0.0005702167,-0.032298468,-0.017741505,0.014744932,0.0099485675,0.015685337,-2.445142e-05,-0.04156558,-0.0058743316,0.021135708,0.028243614,0.009956452,-0.01756717,-0.011001752,0.06657561,-0.016131895,-0.022520935,0.017961226,-0.053019945,-0.0076119658,0.031591214,0.031713497,0.059884943,-0.027482938,-0.021637721,-0.0037391095,-0.018427067,-0.0028855503,0.01396489,-0.013120252,0.0019799091,0.025308177,-0.046616003,0.021927962,-0.027471207,-0.018822402,-0.03879896,-0.025139896,0.007442831,-0.0354056,-0.010860933,-0.054255027,0.04474548,-0.053384528,0.033693396,-0.009469796,-0.0018754115,0.05200377,-0.021871699,-0.0130882645,-0.018206518,-0.026130587,0.010946223,-0.0018252701,-0.019507233,0.053196482,-0.022144977,-0.017916052,-0.005068772,0.0044364906,-0.010639846,0.027248526,0.009261243,0.019667419,0.047572315,0.04405084,-0.017448498,0.0075759864,0.027508639,0.007507854,-0.017807899,0.015931638,-0.007815899,-0.0051910044,0.040805176,0.009312161,0.0794747,0.05388976,0.018558908
12,0.00096831715,-0.01867441,-0.012445882,0.0006571456,0.013824348,0.019251548,-0.0025469295,0.016758611,0.016383711,0.012319801,0.024338594,-0.016806787,0.001512106,-0.053243343,0.050292958,-0.00532259,0.017608413,0.020125331,0.03504379,0.0017112899,0.0033731072,-0.009619873,0.05597521,0.0053583463,-0.024586566,0.021369247,0.0074073747,0.02734631,-0.018976493,0.008879186,0.012054543,0.034452327,0.018212682,0.0041347705,0.00079891464,0.024891393,0.012629971,-0.02859432,-0.005476161,0.036944427,0.035861716,-0.0029180106,-0.0011874246,0.008626117,-0.008707793,0.021857556,-0.00082209444,-0.020170074,-0.009686542,0.011939863,0.014196024,0.052045565,0.024468398,-0.013170853,-0.02795608,0.0027062455,-0.027619997,-0.014134389,0.012952762,0.017264467,0.004185792,-0.0137362145,0.01783075,0.003787049,-0.013992289,0.0015593467,-0.018884055,0.01364451,0.023019679,-0.008691581,0.008476464,-0.013777909,-0.012755096,-0.01063199,0.025142377,0.020616926,0.0015217003,0.009916105,0.046898916,0.034564786,-0.019125147,0.014444736,-0.010321447,0.07826664,-0.0021158168,-0.005836087,-0.021035671,-0.016210234,0.030484177,0.014930105,0.033773135,0.039124496,-0.026971491,-0.0079792915,-0.016689297,-0.013555013,0.01051126,0.016004913,-0.015347432,-0.0030018096,0.011237639,-0.032813776,-0.015587333,0.00640586,0.02196294,0.001436466,0.022050995,0.001572355,-0.0014398418,0.02935641,-0.013820297,-0.010174487,-0.06128431,0.009546038,-0.006083178,-0.0076696514,-0.0050060027,0.009311809,0.016158883,0.022873424,0.026762035,-0.01215611,0.0012867816,0.03256599,0.047699347,-0.045491084,-0.031096436,-0.016870972
13,-0.03952069,-0.017882744,-0.027911704,-0.0033213415,-0.022964135,0.006068061,0.033564787,0.039559968,-0.0014230667,0.023530262,-0.02864248,0.0030700853,0.011743517,-0.04800464,-0.030006342,0.056635447,-0.004671091,0.00495677,0.034875225,0.054756485,-0.032353424,0.022299098,-0.005945123,0.015573765,0.034598976,0.026952952,-0.03603714,0.0014310415,0.030899255,6.38161e-05,0.030501574,0.015070103,-0.02104267,-0.034690674,-0.009712358,-0.012057457,-0.007530714,0.02445851,0.039351854,0.019319342,-0.016018469,-0.016479302,0.031480804,0.0049548866,-0.010779457,0.006058239,0.003585258,0.025187109,-0.0058343657,0.08514372,0.0037513871,0.012175429,0.03495447,-0.010604035,-0.012380096,-0.0048807617,-0.08574595,0.10129581,-0.007134018,0.053146712,0.012722646,0.02440582,-0.026057389,0.02103235,-0.07277985,-0.00966225,-0.014388608,0.027269965,-0.012390917,0.009292632,0.021879395,-0.010822169,0.03037862,0.025647514,-0.008085876,-0.044908248,-0.0009913002,0.07588502,0.0024954905,-0.059661247,-0.012427786,0.01998069,0.002372479,0.013473973,0.02334693,0.026415776,-0.019399272,-0.038329255,-0.021025008,0.005366535,-0.05111924,0.009771239,0.00025459134,-0.005543483,-0.007819799,-0.020864198,0.044344112,0.0025972158,0.028414458,0.005769124,-0.014267052,0.01952216,0.041006505,-0.056687586,-0.0133621385,-0.07592459,0.020436447,-0.027420828,-0.033075,0.043845814,0.016382933,0.031448532,-0.020363495,0.025259092,-0.0074525666,-0.0025202157,-0.0037154262,-0.0059607774,-0.013138522,-0.089860015,-0.057241093,-0.0206067,-0.0107269725,-0.059086587,-0.0004568181,0.061854083,-0.029570807,0.0051736166
14,-0.02907431,0.032376394,-0.008777395,0.0322069,0.04197713,0.013626999,0.019243078,-0.011002908,0.039028216,-0.002235171,0.02181016,0.030885093,-0.013542701,-0.00827232,0.01949209,0.036771517,-0.010034688,0.013710294,-0.04661365,-0.036219295,0.067628175,-0.025284449,0.013142012,-0.05641506,-0.0266786,0.025926258,0.056796588,0.042401887,-0.014222651,-0.030425157,-0.06320933,-0.01682496,-0.023356695,-0.0050014476,0.026214954,-0.03061219,-0.01839875,-0.03872502,-0.005805169,-0.04473137,-0.0056458837,-0.013790442,-0.004915132,0.0037721065,-0.056738682,0.045090735,0.021787977,-0.007589527,0.0008076081,-0.023374364,-0.028716287,0.0445866,-0.00012151251,0.026387589,-0.031450555,-0.03959274,-0.030555062,-0.050938245,0.00833805,-0.019487292,0.042267073,0.0138077345,0.03285374,-0.013888252,-0.009327053,0.014124933,-0.010470566,0.06445131,-0.019735444,0.05643675,0.02440209,-0.009881846,0.016624827,0.010997695,-0.017895114,0.00058324944,0.040704582,0.03824763,-0.035267398,0.01169366,-0.048706032,-0.020371346,0.015187013,0.04849844,-0.001815329,0.026717031,-0.018449722,-0.046571877,-0.025737064,0.036345944,-0.035604045,0.0073568877,0.026146006,-0.021759428,0.0082471175,0.022773819,0.0094802985,-0.008499962,-0.017034244,-0.010988775,-0.019228391,-0.03010877,-0.0038261078,0.025084319,0.07875458,0.020792808,-0.0017508925,-0.026031315,0.033721887,-0.03557177,-0.022602519,0.027770769,0.0009720609,-0.018624766,0.043486096,0.005775189,-0.0104823075,-0.0020200121,-0.0003905903,-0.019292938,0.028950924,0.033629395,-0.013589726,0.0059733987,-0.06420154,-0.02568719,0.00202016,-0.052401926
15,0.0072385645,-0.010596861,0.0063340324,0.018833565,-0.004674211,0.032926675,-0.0018037158,-0.0026739945,0.032157645,-0.008113473,-0.019577006,0.04642523,0.021374995,-0.016056431,0.020593662,0.0054278686,0.01952509,-0.014193076,-0.009154881,0.022212656,0.048142727,-0.00621741,0.0014835481,0.013329403,0.018310416,-0.09947413,0.014769876,-0.032068677,0.016307052,-0.012666154,0.012234129,0.045830015,-0.052171968,-0.02692606,-0.0005482981,0.031673618,0.074669324,-0.017725138,-0.0009759553,-0.0016228821,0.026375964,0.016376114,-0.056798838,0.00042376926,0.030312225,-0.022900691,-0.016146796,0.007006163,-0.0043142135,-0.02594445,0.026375083,0.064982295,0.008058548,0.0214774,0.012631389,-0.00010914884,0.019246794,-0.010904491,0.03139448,0.0133536495,-0.005041554,-0.03460984,-0.001153603,-0.010206758,-0.0010125465,0.01038956,0.00010439293,-0.021279296,0.027042996,0.0019540486,-0.037056137,0.021721035,-0.0065310746,-0.00994118,-0.002399648,0.056890476,0.025568169,0.040405218,0.010369218,0.028189268,0.00024185315,-0.032471307,0.023813326,0.030551404,-0.034989975,0.020709984,0.04063418,-0.04385623,0.05471779,0.008700429,0.011768884,0.041308183,-0.01076561,-0.006696796,0.022978116,0.016674351,-0.022818843,-0.020914415,-0.013729362,0.0018604153,-0.016949335,-0.010992603,-0.015837904,-0.0051874407,-0.03573448,-0.024329577,-0.016534256,0.015609961,0.026743265,0.0025229037,-0.024968082,-0.04290086,-0.0032961287,-0.009703789,0.0002904597,-0.020285403,0.0046353093,-0.03196531,0.014624973,0.0071385466,0.015696581,0.01832627,-0.0026185967,0.025935154,0.065638125,0.0045590485,0.0112934355,0.010381128
16,-0.0053936015,0.011971495,0.070092805,-0.046813387,0.025536265,-0.039389748,-0.021622278,0.019464346,0.01738474,0.023566412,-0.039811995,0.022310447,-0.0068252627,0.010721379,-0.0030607968,-0.017525708,0.0039885393,-0.05647097,-0.0043879882,-0.019456442,-0.026869595,-0.08060859,0.038958356,0.037275817,0.029286051,-0.04147161,0.059419144,-0.048454296,0.007980894,-0.010180568,-0.032387692,-0.024256567,0.023389252,-0.019418092,-0.076655835,0.03983544,0.008644419,-0.076888464,0.004968091,-0.01590291,-0.006030482,-0.026866164,-0.019678026,-0.055558063,-0.029445102,0.028620811,-0.033986613,0.047592923,-0.007857626,0.029371003,-0.011405147,0.029078674,0.012706021,0.003405963,-0.023429954,-0.05162557,0.08630711,0.008720853,-0.060831748,0.10244328,-0.035245553,-0.0045874263,0.03643842,-0.0026259061,-0.017744869,-0.021380367,0.030317117,-0.052225076,-0.015881406,0.04619669,0.027194727,0.049286343,-0.024468083,0.043953437,-0.03809067,0.009049783,0.002103113,-0.010031886,0.016304068,-0.014851905,0.008827677,0.0065624206,-0.02555548,-0.01118796,0.020017453,0.0074808476,0.032732286,-0.00042444025,0.015641056,-0.013939953,-0.048196446,-0.016361699,0.07607599,0.016692447,0.032906752,-0.011363765,0.005483739,0.009957607,-0.009142536,-2.5172389e-05,0.028250372,0.063017726,0.04226803,0.05561399,-0.026277991,-0.030137872,-0.034177307,0.084439926,0.0150943,0.01743994,-0.022363137,0.053024456,0.05181459,0.05642131,-0.0112511,0.007801289,0.021227462,0.0024851628,0.025868751,-0.014507251,0.0011341057,0.02477936,-0.0036334842,0.023303604,-0.049448635,0.013905235,0.009248558,0.017223567
17,0.08996612,0.0048854463,0.028585462,-0.021849398,0.018271707,-0.014619171,-0.010888721,0.014136506,0.034234755,-0.03651747,0.046425063,-0.008592573,0.012957376,-0.01145804,-0.017239906,0.028335303,0.0007262879,-0.04306918,-0.0035652479,-0.028163282,-0.030054852,-0.029338554,-0.01179377,-0.017319307,-0.0098130535,-0.001127557,0.05154651,-0.0042799474,-0.010731062,0.02702789,-0.021821016,0.027422374,0.0041805157,-0.028427554,-0.004757222,0.004988598,-0.021880772,0.010141112,-0.020198964,-0.033864032,0.01647024,0.013563993,0.08962807,0.03133759,-0.017961822,0.032737773,-0.0036052729,-0.039962202,0.031418756,-0.00080997817,-0.0010827524,-0.06792534,-0.006399516,-0.01954576,0.06113673,0.023906324,0.026759792,0.047815178,0.028643822,-0.060317934,-0.030645162,0.021738365,-0.06425049,0.051366102,0.0070355316,-0.037201785,0.014307448,-0.009501758,0.007094206,-0.020832941,0.01743465,-0.015109041,-0.018187298,0.0019651959,-0.052312806,0.010264316,-0.0232294,-0.00852718,0.029652156,-0.013574731,0.1187733,0.04692924,-0.023894401,-0.02279018,-0.048451092,-0.108316705,0.015440921,0.0013312201,-0.009752972,-0.0006410039,-0.025446055,-0.016484695,0.00858227,0.0016592459,-0.002803421,0.009503618,-0.013309351,-0.059601836,-0.024979532,-0.0167143,0.022804894,-0.021304691,-0.0018498478,0.012807962,0.002713611,-0.013097348,0.0018928241,-0.004212075,-0.010878008,-0.0007796388,0.010339214,0.06964136,0.06158604,0.021623101,0.011134586,-0.017977815,0.020886365,-0.021585317,0.0050137746,0.014427265,-0.030096533,0.017438548,0.03565276,-0.009941985,0.036721162,0.023256466,-0.02179741,0.09306405
18,-0.032775823,0.03313059,0.007888079,0.13814136,0.00384493,-0.023659984,-0.004434998,0.01455437,0.009110673,0.04547038,-0.029101906,-0.028000144,-0.02186345,-0.062142383,0.0028127453,0.03495538,0.048931457,0.036385268,0.0044819238,0.0060008247,-0.026895862,-0.018865047,0.019934705,0.028788773,0.018150777,0.02393224,0.018579753,-0.0008999547,-0.014884215,-0.028426787,0.021068165,0.0006781744,0.015937995,0.015828598,0.026535712,-0.025788467,0.003887282,0.05607862,0.030797314,0.0013089144,0.0025033425,-0.0060363007,0.019917563,0.09394528,0.036274623,-0.0106499335,0.008906527,0.03083673,-0.0017159005,0.033503093,0.032591723,-0.031153424,-0.0051154,0.022279343,0.042311456,0.01862696,0.031399474,0.012321243,-0.002702538,-0.00060055417,0.060039658,-0.013603093,0.010479183,0.005039827,-0.0065380563,-0.025694404,-0.0012042469,0.03994784,-0.019821849,0.006878799,-0.009870504,0.013117749,-0.015645063,-0.015909502,-0.0011167398,0.025642784,0.018803548,-0.012962214,-0.036086228,0.02899124,-0.009055157,-0.025610413,-0.017782688,-0.04263508,-0.019775169,0.0055605522,0.019511176,-0.030284919,0.005916203,-0.0038817357,-0.037498612,-0.03239248,0.0046975096,0.034442417,0.050162178,0.007961679,0.020223293,0.032595146,-0.008225958,0.028508192,-0.017008303,0.04037568,-0.0090054665,0.038760558,0.084497266,-0.014278532,-0.023850001,0.009001959,0.0340248,-0.015411316,0.00997674,-0.01105856,0.067510046,0.030549906,0.047250878,-0.006136419,0.016611697,0.014415753,-0.026075473,0.017799936,0.010300579,-0.038926873,0.029953385,0.025928803,-0.009886703,-0.018947925,-0.01598741,0.0060479944
19,0.07125491,-0.058093544,-0.09114536,0.041923925,0.048954118,0.046868593,0.011276403,0.011592714,-0.026518373,0.024882793,0.023065364,-0.019830698,-0.0459837,0.012742104,0.014669185,0.05530302,0.0020156684,0.08715052,0.027762247,0.020484501,0.0058404524,0.020813392,-0.008123193,0.030361746,-0.0443554,0.020736592,0.008049957,0.004636447,-0.0013973719,-0.010466528,-0.0012453932,0.032935843,-0.058199845,0.027919766,0.034547284,0.024458496,-0.019664554,0.15159334,0.045073427,0.022383384,0.041005775,-0.0005900105,0.043427814,-0.010114022,-0.019051671,-0.052601054,0.045480732,0.0055952435,-0.033021376,0.050758786,0.054341074,0.01231652,-0.013026522,-0.00038151498,0.00961352,-0.037934046,-0.029710202,-0.03576736,-0.028011348,-0.024173325,0.041715726,-0.02660994,-0.037746105,-0.047578346,-0.015377837,-0.037826594,-0.040102586,0.08627981,-0.012996431,-0.0070318696,-0.031029698,0.02001311,-0.009244906,-0.03315141,0.009562598,-0.014252938,-0.05453282,-0.023546152,0.023727225,0.028464874,0.031765305,0.0013111635,-0.004930176,0.029014364,0.0064832233,0.0065129884,-0.03913468,0.011045675,0.0040650647,-0.0034637759,0.044569734,-0.005392298,-0.016706694,-0.039621152,0.014133763,-0.018008681,-0.022649359,0.06391515,-0.0772933,0.043212958,0.06216141,0.021259684,-0.0865576,-0.020639563,0.014631984,0.025175767,-0.06523916,-0.022364767,0.10299312,0.055819795,-0.0140097225,-0.027812188,-0.05042023,-0.035747424,0.05398407,0.054994177,-0.03321885,0.030903507,-0.049500957,0.052965935,-0.008034191,-0.042203024,-0.006011287,0.0028844255,-0.003090545,0.018186878,0.00718135,0.03675063
20,-0.0043803286,-0.0015361544,-0.0033905162,0.061516393,0.01780455,0.042344056,-0.005798669,0.019761175,-0.032479458,0.00028904327,0.031776533,-0.022028608,0.014456136,-0.01281837,-0.016690757,0.0110854935,-0.057784826,-0.006968901,0.0026582577,-0.022822902,0.07368976,0.0890029,0.024820555,-0.04991084,-0.014755497,0.015922593,-0.008832758,-0.01668284,-0.0092892675,-0.050615862,0.012745865,-0.023810903,-0.04398168,0.008233665,0.00036757853,-0.015415566,0.009253408,0.017171161,0.034341924,-0.02930051,0.013083461,-0.0064608264,0.013614471,0.055725265,0.055975713,-0.01853772,-0.012473796,0.01321013,-0.008549447,0.008421858,-0.029781505,-0.002640129,0.0071059116,0.0065512233,0.014779356,-0.05420204,-0.038072746,-0.025328437,-0.032008898,-0.051418215,0.033570074,0.005798289,-0.021514496,0.0060298494,-0.018081404,-0.02403282,0.0012159871,0.008673917,-0.0051598195,0.030371763,0.03180533,0.0021702591,-0.0038270287,0.029837629,-0.044703238,-0.0016684582,-0.021381624,0.012155179,-0.029573329,0.002155474,-0.02543158,-0.038907524,-0.056063823,-0.033952486,-0.012938775,0.00072945433,0.05929801,-0.0028327974,0.015258903,0.00809685,-0.02326597,-0.01809061,0.02204988,-0.035083964,0.007008353,0.034722425,0.008805992,0.011315116,-0.0051285187,0.055794314,-0.03554745,0.051068567,0.008206896,0.017056094,-0.019581223,0.08625106,-0.05296997,0.0034867828,0.028330298,0.02339911,0.010598924,0.027732095,0.027465047,-0.03598969,0.0016211919,0.04016066,0.008839752,0.02861301,0.03643955,0.016102027,-0.004968009,0.06579548,0.001672886,-0.030224845,0.035456862,-0.014049363,0.052488096,-0.031284064
21,-0.004438987,0.010515329,0.041231267,0.030296681,-0.005817789,0.004343784,-0.02686099,0.033863507,0.0069850767,0.06571943,-0.022760032,-0.024045492,0.02529898,-0.020832062,-0.0028555058,0.00041700972,0.011772225,0.07110586,-0.008543136,-0.019058371,0.017991368,-0.028293867,-0.0045071854,0.00756785,-0.029809855,-0.002798767,0.012131881,-0.031252667,-0.0086182775,-0.030601462,0.020713983,0.023384847,0.022161374,0.014762047,0.003658423,0.07347715,-0.0015730627,0.016435346,-0.015840353,0.049265455,-0.03963759,-0.046411335,0.00010293484,-0.009486702,-0.0035050344,0.015459013,0.0008929922,-0.010873007,0.0074270363,0.023168478,0.02876335,-0.003672035,-0.016281065,-0.009851642,0.007443185,0.02055065,0.026267204,0.012185299,0.016969258,-0.069051966,0.021183297,-0.070381224,-0.022339297,0.022319626,0.030232968,-0.007224007,0.042678844,0.012542172,-0.014481431,0.027926296,0.018582229,0.0023126262,-0.020560073,0.017065184,-0.0009956387,0.016693994,0.000956768,-0.0019608615,0.01788141,0.008869478,-0.0015691889,0.021735359,0.020998573,0.04434721,-0.0098955305,-0.0049577546,0.0328584,0.007641699,-0.013170607,-0.022970682,0.036963925,0.05495184,-0.035629738,0.006996663,0.021008827,-0.053202827,0.030622551,0.006136821,-0.00013636248,-0.015054705,-0.012384313,-0.019011188,-0.027083084,0.018861612,0.029723868,0.009331004,0.0031231917,-0.004751435,0.021515036,0.01010128,-0.004589641,0.006044987,0.0016494901,0.026802933,0.048194673,0.01569527,0.014815784,0.032027688,-0.07819014,0.023833517,-0.023503942,-0.0053654476,0.0042100567,-0.0029384114,0.03393981,-0.02005067,0.0042946045,0.010619167
22,-0.022592105,0.011603803,-0.012399345,0.04292317,0.0045449967,0.020544905,0.029953852,0.0034425573,-0.0123070385,0.017498253,-0.017783556,0.012978114,-0.020760186,0.043366756,0.07145517,0.0008471654,-0.008755762,0.03341954,-0.021866316,-0.03304807,-0.02491702,-0.044872273,-0.009344929,0.014505048,0.008857455,-0.0084855,0.01518825,-0.0366203,-0.0148287,-0.042384587,-0.018591482,0.0030947842,0.02454064,0.029745277,0.04420893,0.036006738,0.03209382,0.0012757147,0.08518647,0.0008778613,-0.068626426,0.0116177695,-0.025243195,-0.020016145,-0.013023864,-0.034491386,0.03247813,0.014315027,0.030675272,-0.0054376256,0.011874162,0.049398463,0.04775671,0.033611357,-0.014833605,-0.009477538,-0.10409764,-0.0043545105,0.02533414,-0.032885537,0.0009967651,-0.043225683,0.12431272,-0.05640705,-0.037472833,0.09354572,0.0064953915,0.013234078,0.01990841,0.04049827,0.024143463,0.02688372,-0.017664978,-0.11249949,-0.02017867,0.021759503,-0.015051797,-0.0069969976,0.024208318,0.0057583256,-0.039785467,-0.004462554,0.018744078,-0.036316857,0.016310522,0.03534492,-0.002194094,-0.032322787,-0.0056364117,-0.011571114,0.043049723,-0.014116989,0.05185058,0.03836476,-0.0067153457,-0.0068401583,-0.013642366,0.022579262,0.05533573,0.011531113,-0.033605263,-0.06525882,-0.012367784,-0.011298653,0.06488425,0.011508598,-0.026551126,0.063722394,0.0655466,-0.014843678,0.05726524,-0.028227447,0.012197787,-0.01963016,0.005516075,0.12315158,0.030058788,0.015618739,-0.030285085,-0.038561426,-0.012033966,0.021945665,0.0070767333,0.01950377,0.0077625006,0.008705436,0.048707336,-0.051821418
23,0.019127263,0.008918322,0.0379142,-0.01930865,0.062420283,0.027621167,-0.003964384,-0.0036412736,0.024007082,-0.0467464,0.050592467,0.045277357,0.014398241,0.01640069,-0.011470961,0.022918852,-0.007051847,-0.02208469,0.04601436,-0.0029263103,0.0023293905,0.015790937,0.011169104,-0.04075756,-0.008927285,0.019648083,0.036301844,-0.016401712,0.019154953,0.06356495,0.0037855145,-0.008247116,-0.016539205,-0.023949483,-0.010074619,-0.059455175,-0.022200046,0.019673727,-0.030724108,0.016764654,0.038629368,0.020397611,0.04427028,-0.03139784,0.00024607164,-0.002293414,0.005921455,0.0040188488,-0.019208645,0.042077545,0.01910546,-0.029646404,-0.009585587,-0.024097458,0.010870074,0.0005889491,0.0107032545,-0.007914377,0.024407363,0.017248245,0.016052194,0.028256938,-0.015857602,0.024153022,0.020928623,0.009989998,-0.007274529,0.03193718,-0.030454617,0.0014041109,0.017190909,-0.009284645,0.05730052,0.044051964,-0.09194442,0.013008393,-0.043014828,-0.014511558,0.0044939364,0.0029339558,0.034052182,-0.003410939,-0.027955934,-0.0020455888,0.034988265,0.059239417,0.0022900654,0.031005848,0.0030024687,-0.021085303,-0.017173806,-0.0095023345,0.0403939,-0.04863274,0.0046196417,0.0109515665,0.009096341,-0.013399526,-0.018292103,-0.0045771706,-0.030562181,0.005422735,0.002300091,0.016596507,-0.035846833,-0.00614638,-0.04778658,-0.04755915,0.007911312,0.024869448,0.015867606,0.060150094,0.010701058,-0.05275073,0.05019718,-0.006059616,0.009730722,0.014085371,-0.021765705,0.016153147,0.04197351,0.017865907,0.037226263,0.035837524,-0.004294805,0.045206122,-0.03168798,0.05557421
24,0.009857763,0.048847016,0.0040548258,0.06343127,-0.00027267335,-0.019244634,-0.023369733,0.019662652,0.021717213,0.035885587,-0.04748744,0.009888485,0.0320527,-0.0043517533,-0.005129313,0.02767258,-0.03007245,-0.043150365,-0.047239102,0.0027107236,-0.0046617566,-0.06582131,-0.009161377,-0.01678365,0.05440008,-0.039529644,-0.0018124859,0.046182916,0.0032364551,0.00029937312,0.0017728622,-0.0156170605,-0.05179767,0.009040512,-0.029870685,-0.012603995,-0.026001777,-0.098596476,-0.010130444,-0.034500528,-0.05008583,0.01644554,0.052313473,0.008120989,-0.018687729,0.0035020153,-0.026843533,0.008613557,0.004445614,-0.0024969764,0.015098524,-0.031517778,-0.10129861,0.04338174,0.022137817,-0.011455844,-0.0017296653,0.035687897,0.023347268,-0.04436852,-0.035242762,-0.019357651,0.024868526,-0.05842148,-0.05216144,-0.011505625,-0.0026208197,0.018688256,0.023621075,-0.006368878,0.07830177,-0.010470232,0.034184985,0.05269135,0.04810443,-0.030593166,0.025618255,0.06307433,0.039223257,0.00892625,-0.0041485718,0.0038120088,-0.019999737,0.0052781757,-0.021362958,-0.021676622,0.033156425,-0.027923344,-0.05372012,-0.029554075,0.023393955,-0.028994141,0.012930648,0.01593874,-0.0066236947,-0.011068949,0.010693293,0.0015119956,-0.03414253,0.03091869,-0.01831656,-0.012222071,-0.022329502,0.044667266,0.0148515375,-0.033003148,-0.0015442137,-0.006828935,-0.011032714,-0.10989255,0.030665198,0.017310768,0.037300326,0.0021381807,0.00085507624,0.011411831,0.0020875658,-0.0053214,-0.02230897,-0.022498539,-0.0019999694,-0.029522013,0.0067122453,0.012633642,-0.053069245,0.018409291,0.022696262,0.00765109
25,0.036645524,0.005977248,-0.010201407,0.0058205877,0.023831911,-0.043350324,-0.00841937,-0.029890435,0.025678704,0.02796732,-0.025962992,-0.019068053,0.013061509,0.016884506,0.0021430552,-0.047539145,0.012086073,-0.05021662,0.03243607,0.0053740162,-0.053314302,0.03459725,-0.011632468,0.04385661,-0.012067728,0.002112121,-0.09781904,0.06297272,0.046762343,-0.009247198,-0.029431973,-0.044457756,-0.0006896985,0.043918755,-0.060388863,0.060176425,0.018934779,0.005659157,-0.01638827,0.017266553,0.04512745,0.02214719,0.00573397,0.0069498243,-0.01681272,-0.00891157,-0.008149957,0.027538152,-0.019797288,0.01894553,0.001918088,0.0153930625,0.08216915,-0.02833311,-0.0028826275,0.0875808,-0.14621015,-0.013021896,0.008493909,0.065302685,-0.0039576767,0.0047489787,-0.034024194,-0.0071897614,0.01849971,0.05674129,0.007717269,-0.040698655,0.04285057,-0.032644752,0.030333173,-0.030546123,0.011304768,-0.021881297,-0.028753962,0.043404613,0.019256625,0.00080939464,-0.005230461,-0.019738967,-0.042778045,0.04719196,-0.030343818,-0.022221437,-0.04793008,0.023825625,0.047025632,0.06270844,-0.027746193,0.00024863915,0.018500058,-0.1352156,-0.0689695,-0.005897553,0.013181573,0.014867307,-0.021135138,-0.022723345,-0.016047014,-0.011950664,0.011731703,0.04900678,0.0010331355,0.014806991,-0.010615099,0.0011040908,0.032722045,0.044829857,-0.017880756,0.0060443818,0.02319718,-0.009951129,-0.015740631,0.02245332,-0.05243431,-0.0148292985,0.022544844,-0.031344067,0.057483707,0.0058676577,0.03195023,-0.016369235,0.040991083,0.009733575,-0.02271972,0.04958862,-0.006004226,-0.05017886
26,-0.019669605,0.016684815,0.014870956,-0.028544646,0.012552575,0.037566487,0.009418741,-0.02014073,0.003479425,-0.038022373,0.005429503,0.0003019167,0.009917913,-0.035313368,0.014933866,0.02500625,0.08329483,-0.0024953566,-0.03990022,-0.0138768265,-0.0032633427,-0.013726851,0.004834448,0.010026793,0.03337582,0.0068065277,0.010304702,-0.029069418,0.010105059,0.061461587,0.004780985,0.034572072,0.0033706778,0.042200934,0.006296201,-0.025980953,-0.00075902656,-0.011766402,-0.035982084,0.0014001073,0.0052819652,0.04795389,-0.04004258,-0.0036537705,0.009802913,-0.008596069,-0.028487172,0.023776613,-0.004048303,0.06077687,0.06454512,-0.0075109373,0.019820413,0.022246689,0.00490196,-0.02375883,0.027542777,-0.013849849,0.037984293,0.008462189,0.0018955662,0.07816504,0.032570403,-0.016047992,0.021622883,0.008113216,0.010524571,0.028782083,0.008150525,0.0062236194,-0.0041411584,0.05294311,0.02727229,-0.011860521,0.022821028,0.004324166,0.02435489,-0.023894746,-0.027846176,0.014592468,-0.0231512,-0.01590118,0.012375361,0.015763117,0.012638918,0.03902352,0.008631255,-0.05296903,0.012819617,0.006866482,-0.0047345,-0.029707862,0.0024195635,-0.015810642,0.020184144,0.010726968,-0.038088124,0.013069849,-0.01178481,0.02971517,-0.006683357,0.0026855099,-0.031802163,0.013308402,0.015890438,-0.0047998,-0.026929911,0.013392021,-0.01088457,0.0029770997,-0.02395277,-0.010641332,-0.014928121,-0.0068133734,0.01175272,-0.04061818,0.011377052,0.023593683,0.08656757,0.004690924,0.03662154,-0.028931092,0.0060954452,0.01423363,0.036887314,-0.0010162157,0.014534264,-0.029161615
27,0.012256852,-0.035320554,-0.019344239,0.018737512,0.008305848,-0.02809701,0.03918771,0.025573563,-0.08087881,-0.014866191,-0.030657826,0.011281545,-0.014657695,-0.03137725,0.0009735633,-0.017647093,0.00335993,0.017879644,-0.023290189,-0.038337395,0.017171498,-0.0114498455,0.0037201329,0.042130865,-0.0054346425,0.015144077,0.039434545,-0.006107421,-0.008443324,-0.026093692,-0.010454038,-0.027184842,0.017580241,-0.0052323174,-0.029217694,-0.017443126,-0.040748134,0.023377145,0.01400918,-0.016192004,0.057466827,0.040993717,0.08338259,0.028836668,-0.03016186,-0.067393206,0.009803178,-0.006913371,-0.0030689659,0.037545346,-0.017534023,0.02625035,-0.00062663225,-0.041672405,0.01392041,0.002650967,-0.019689387,0.043088987,-0.028091803,0.033629615,0.050679225,0.0725002,0.019781094,-0.013550328,0.047618937,-0.03913207,0.05303422,-0.04388656,0.01328899,-0.0041528703,-0.030194798,0.007232761,0.02979942,0.020532863,0.091507226,-0.01942905,-0.0077554323,0.026797602,0.03154579,-0.012588529,0.016111093,0.008913533,0.073260054,0.027918424,-0.022695731,-0.014365821,-0.028668942,-0.010498604,0.012588132,0.04522168,-0.029031735,0.008849186,0.0041657556,0.008832089,0.030121066,-0.025419056,0.024010893,0.01181602,0.033751924,-0.0071158693,0.050494447,-0.0074866777,0.025884517,-0.034448072,-0.005222339,0.05249353,-0.030782381,0.044170205,-0.045740977,0.02024633,-0.044846486,0.053961094,-0.028748685,-0.021292599,-0.037739787,-0.030380847,0.0012533017,0.013579276,0.019870821,0.022178525,-0.00080586463,-0.011220141,-0.04842282,-0.023223942,-0.022962406,-0.01225947,-0.004498331,0.016661914
28,0.028275738,-0.014712878,0.057353247,0.026650518,-0.005669457,-0.01685124,0.024453806,-0.015312438,0.017272634,-0.03540784,-0.036097277,-0.0031100705,-0.0019650888,-0.0004162229,0.0065999622,-0.0043860194,-0.017888088,-0.049676016,-0.04501461,0.025404505,0.0012787888,-0.030648801,0.06350153,0.0077060224,0.025349373,-0.0993882,0.022844799,-0.04463035,-0.004767864,0.014149642,0.02524481,0.017063806,-0.04106102,0.010938467,-0.03709143,0.005321734,0.023089532,-0.015640363,0.026602263,-0.0031783786,-0.0040256428,0.004443906,0.0025972,0.03421223,-0.010294977,0.01693667,0.020526888,0.036892515,0.063982934,-0.0071795457,0.026162786,-0.010528128,0.07579938,0.01484501,0.019385159,-0.0073156306,0.02849802,0.014422046,0.018995687,0.00755307,0.016590558,-0.010793922,-0.025549563,0.024831327,-0.016417172,-0.0065782866,0.004503738,-0.036863506,0.035906088,-0.07373304,0.021375587,0.015215318,0.01682406,0.013566828,-0.015270754,0.027471757,-0.016716482,-0.02433315,-0.016969813,-0.0055191605,0.029132525,0.00017554485,0.02388302,-0.040358435,0.04462669,-0.012290392,0.00177197,0.0049475404,0.021097573,0.005735136,0.014655864,0.007957812,0.057293586,-0.037566613,0.02218516,-0.0012829448,0.0019862824,-0.0054045534,0.009047132,0.0068241186,0.0016818708,0.0026643528,0.037724443,0.010733459,-0.003952363,-0.030232495,-0.0088156685,-0.02802869,0.024268022,-0.020559955,0.0037387914,0.013449878,0.018619053,-0.01777598,0.010428237,0.026202803,0.005423185,-0.01800869,0.016623499,0.0031391818,0.03336113,-0.0056101247,-0.0010638968,0.030074148,-0.010153738,-0.016544867,-0.0040230863,-0.03648694
29,-0.0027943356,0.009420978,-0.008198493,0.011750243,0.042054486,-0.025989776,0.04014397,0.027074551,8.1901235e-05,0.009388434,0.010380057,-0.016076643,-0.008144058,0.01070746,0.016592119,0.007866717,0.015662985,0.006213406,-0.0026916557,0.0053540394,-0.010159656,0.020963656,-0.007130347,-0.0033649034,0.054523148,0.016708724,0.025760349,0.023882791,0.0037979956,-0.024222074,0.008413793,-0.01760193,0.013176156,-0.008729321,0.009836927,0.009446221,-0.0022568451,-0.007965666,-0.0371745,-0.059860375,0.067630164,0.09925561,0.010949691,-0.008008684,-0.024054062,-0.0007974934,0.007572937,-0.0041261776,-0.0040946007,0.052728187,0.012256643,0.08151615,-0.04913734,0.035427265,0.032702133,0.0318771,0.0039910944,0.012554614,0.03542986,0.020755308,0.052443866,0.10359338,-0.017212268,-0.02534704,0.013147655,0.009483614,0.002027006,0.0034008066,0.0034622916,-0.027207175,-0.076160446,0.017976834,0.03801072,0.015031488,0.01828254,-0.01959236,0.056522902,0.013480574,-0.024599234,0.036757965,0.007707893,-0.0059500863,0.06047901,-0.0017065074,-0.010911786,0.038808133,-0.02650057,0.019456444,-0.0062010842,0.02043219,-0.009240962,-0.011914172,0.008508044,-0.008675601,-0.007918483,-0.0065707914,0.0029146413,-0.016663577,0.043032844,0.05440025,0.018104522,-0.0036708373,0.021330807,0.030385494,0.039469004,0.01290429,0.0072370493,0.020001711,-0.0062694354,0.0002903755,0.0027282631,0.04529579,0.0077757468,0.019162016,0.06273887,-0.02020996,-0.0002988945,0.023388986,0.038911887,-0.012209091,0.03706414,0.013457416,0.012450285,-0.0253594,-0.043436635,0.0052809482,-0.013664921,0.02443625
30,-0.005713905,-0.038808,-0.0071792174,-0.048082232,0.0029875967,0.0064564217,0.010996715,-0.011742393,0.02638391,0.013504592,0.011955265,-0.011816493,0.037797812,0.030977083,0.030719148,0.0032762443,-0.0202832,0.007962803,0.03620168,0.031503096,-0.008189034,0.07896776,0.021462426,-0.010580158,0.031584952,0.012166163,-0.04292439,0.031910863,-0.0105489,0.041647714,0.049970366,-0.00060366327,-0.076704994,0.018433187,-0.022056902,0.013477814,0.018357944,0.015971372,-0.07630479,0.006507958,-0.03972908,0.0023500158,0.014982268,-0.047921557,0.009159164,-0.011745413,0.016711947,-0.008731237,0.016719824,0.08625065,0.04316513,-0.0053708665,0.03127517,0.025950952,-0.013596852,-0.024327915,0.024693405,0.027120037,0.03337753,-0.012835458,0.015431451,0.033730038,-0.018305134,-0.0035689152,0.040006053,0.006520482,-0.030950736,0.014467455,0.008804235,0.01950579,0.015544569,-0.007073421,0.011654878,0.024056178,0.042951323,-0.009689142,0.0026483384,-0.020995311,0.038384587,0.041528847,0.018766318,0.030741435,0.030477045,0.069409534,-0.016613973,0.0059692855,-0.002578884,0.004161972,-0.02091015,0.006075294,0.042368464,-0.0018020852,-0.016446967,0.016177163,-0.009413906,-0.024067428,0.0029216988,-0.019862067,-0.01566777,0.008496903,0.040185627,-0.010361843,-0.0077181994,0.032413114,-0.023076333,0.03333938,0.04042195,-0.007756326,-0.015181103,-0.0036225775,-0.0016048151,0.0085558565,-0.02182938,0.016407834,0.0021519344,0.025557376,0.015250816,0.033736974,0.014140744,0.031764504,-0.033659533,0.042203583,0.02291104,0.016665764,-0.010832323,-0.019711643,0.0022112571,0.034837075
31,0.009334678,-0.009543221,-0.0067704143,0.021966007,0.018779343,-0.008751881,0.0058733327,0.07664605,-0.018943163,-0.02980321,-0.019262556,-0.04226335,0.011723402,0.055581044,0.012497255,0.027243346,0.030169774,-0.037854537,-0.025467684,0.009298811,0.028262967,0.032797854,0.024522595,0.045507804,0.0012638724,0.010833053,0.029173587,-0.019676508,0.037008364,-0.046654016,0.01814129,0.0024790524,-0.08425369,0.021096285,-0.013349011,0.054979146,0.002848453,0.035888597,0.0022121721,0.024230884,-0.0076099196,-0.0008619909,0.015008046,-0.008970075,0.007868269,-0.006624773,0.012386626,-0.029264912,-0.01630701,0.027530245,0.027347615,-0.010492216,-0.01338344,-0.015905822,-0.010993659,-0.012648651,-0.0026043379,0.011706553,-0.013286252,0.044734243,0.041752774,-0.019805,0.008737157,0.0037393703,0.006683055,0.016330913,-0.03321259,-0.063335046,-0.04242302,-0.016381115,0.03696032,0.0015613114,-0.0120164445,0.040575374,0.011559661,0.037793647,-0.024559742,-0.03379576,0.028508058,0.0071871206,-0.03775789,0.0023290832,0.032875538,0.02375409,-0.0071174037,0.04690468,0.002154991,0.02085418,-0.0009086454,-0.02997577,-0.009440705,-0.0131473765,-0.04214755,-0.019869858,0.006286053,-0.023804922,-0.03855478,-0.015407803,-0.00021250467,0.088857986,-0.0363648,0.01599356,-0.031708628,0.0013553802,0.0004910904,0.02258675,0.03089366,0.020250443,-0.0154975075,-0.008182552,-0.03846296,-0.0046962583,-0.0054414803,-0.050468456,-0.010387746,0.032654915,0.053004857,-0.040782608,-0.024773134,-0.00034604705,0.015860017,0.017193018,-0.010834475,-0.010767253,0.014044991,-0.030037142,0.06602382,-0.0335915
32,-0.02554691,0.007609893,-0.020037912,0.021900471,-0.043740198,-0.040548615,-0.05373878,0.020484217,-0.022270136,0.085863896,-0.03140221,-0.029346429,0.05299358,-0.004313756,-0.011354831,0.025433369,0.06808784,-0.022016153,0.047454637,0.04709633,-0.00040450896,0.05724581,-0.0035355678,-0.03633558,0.034218498,9.4159936e-05,-0.032981157,0.051923145,0.0066868737,-0.024406515,0.0002307359,-0.0044536553,-0.024576224,0.020464202,-0.034218006,0.04593139,-0.02728837,0.034672845,-0.12388913,0.038542956,-0.037162576,-0.045451034,0.036502473,0.009704737,0.031381413,0.01287982,0.022299763,-0.0083246315,0.027616985,0.065932564,0.011868479,-0.012966437,-0.037185226,0.00031436412,-0.0076371664,-0.0037553876,-0.0020456028,-0.017594613,0.0035907784,0.0040201657,-0.0028347087,-0.033766102,0.014760859,0.020343935,-0.006697832,-0.025996389,-0.025007205,-0.021606546,-0.048852406,0.017110465,0.04000796,-0.00094748556,-0.0028800268,-0.021034122,0.012713093,-0.00272098,-0.020628486,0.009588326,0.062721126,-0.011986904,0.00056341925,0.018594766,0.03196109,-0.0006120232,-0.014947894,0.031185044,-0.008768498,0.020771518,-0.04839428,-0.012015011,-0.009570573,0.005205518,0.047641955,0.06699709,-0.0036016994,-0.029816374,-0.008172903,0.020795064,-0.015414118,-0.002341153,0.049381655,-0.00832619,-0.001432086,0.07323727,0.052276656,-0.032834154,0.034967642,0.030345427,0.00053554896,-0.044839002,0.060113765,-0.016432613,0.040783595,-0.008379175,0.016796982,0.020043354,0.017535575,0.04022342,-0.07625295,-0.0070535913,0.00182471,0.032624867,0.022714414,0.0002367121,-0.028919263,0.014114264,0.008358983,0.061768226
33,0.017951248,-0.044817206,0.0028037562,-0.002267427,0.035522766,0.006328061,0.009172124,0.05189015,-0.024675488,-0.010398313,0.049170386,0.0046038064,0.015284167,0.014717302,0.039720006,0.032710712,-0.027900893,0.052789964,-0.008091543,-0.009187378,0.013222752,0.0034577295,0.041309837,0.008311747,0.02583649,0.00020469673,-0.03730344,0.0076365215,0.017804865,0.009221013,0.020868622,0.006784576,-0.0028653808,-0.01708887,-0.0001607979,0.003397274,-0.033405215,-0.003266116,-0.026327102,0.011784608,-0.023050316,-0.01874186,0.04124449,-0.010064603,0.022592247,0.0034778654,0.013467695,0.031617686,0.0015991766,0.024599088,0.02831929,-0.0031042297,0.006044159,0.00029360125,0.016237004,-0.007865178,-0.038482983,-0.0039037296,0.00079181057,0.005936517,-0.0069552828,-0.0032232942,-0.016803818,-0.014736623,-0.021708062,0.021153579,-0.062006056,0.015749795,-0.025388371,0.0040402305,0.008554252,0.02535684,0.014034102,0.040060308,-0.014784365,0.0108102495,-0.030883977,-0.039967246,0.00841373,0.033645798,-0.07548281,-0.040317178,-0.04084988,-0.0040646316,-0.012681206,0.10792759,-0.025994685,-0.008405538,-0.014734366,-0.036667254,-0.0061353683,-0.029115146,-0.031135146,-0.0018271293,-0.018622424,-0.0052976506,0.016111603,0.010027837,-0.028776482,0.06826663,-0.038613547,-0.024055945,0.0030281753,-0.0022068894,-0.042805824,-0.022370325,0.0022008715,-0.0016833042,0.02178924,0.016579434,0.01281787,-0.011644339,0.024074115,-0.028017681,-0.0028699308,-0.013721125,-0.0030515366,0.0044334196,-0.05308049,0.009453645,0.03042969,0.033440273,-0.04290531,0.020119302,-0.04531772,0.03490114,-0.0037918827,-0.044192106
34,0.023628356,0.008238818,-0.009754971,0.055645168,0.008292169,-0.0071121524,-0.029819192,-0.051298935,-0.0319255,0.0047597275,0.0053818068,0.019047422,-0.004455378,-0.050772313,-0.026578812,-0.0064862766,0.046605103,0.0036077928,-0.019142821,-0.008299637,0.00043245498,-0.008899455,0.020066092,-0.057670914,-0.044166006,0.022490565,0.0013846379,0.030948387,0.023140391,-0.013274994,-0.06193956,-0.0012807379,0.04995301,0.05459954,-0.009182037,-0.03644192,-0.067624524,0.023077864,0.04295478,-0.003137209,-0.014926689,-0.024004878,-0.03839229,-0.019129034,-0.038383964,0.016456032,-0.010870929,0.03615408,0.007255712,0.029497296,-0.014893217,-0.024276659,-0.026290035,-0.024134636,-0.0449587,-0.0020415853,0.05539595,-0.032913316,0.012668115,-0.024763977,-0.029461933,-0.025144199,0.030824905,-0.02186853,0.005524899,-0.059008226,-0.003494534,0.026766116,0.031903468,-0.09398241,0.10447512,0.010994612,0.024412274,-0.005591337,-0.008581127,-0.036309537,-0.007958377,0.027834391,0.0018927145,0.001299645,0.017445747,0.017845018,-0.065994404,0.013015478,0.036663566,-0.025762707,-0.010065659,-0.0074069663,-0.08084893,0.012580242,-0.029041134,0.025193416,-0.041204117,-0.003586199,0.00654293,-0.05421011,0.0222204,0.064426176,-0.040356994,-0.044061515,0.004680306,0.020828528,-0.015236547,0.009902729,-0.007112683,-0.07773182,-0.031699177,-0.018374056,0.05541327,-0.058694147,0.0040189805,0.016269052,-0.00395987,-0.02059234,0.006495925,0.038767677,-0.045918647,0.025176669,-0.011902844,0.037102662,-0.01897337,-0.005608652,-0.003379424,-0.013607725,-0.04247171,-0.014383012,-0.049417872,0.018671358
35,-0.04200329,0.036290307,0.028612183,0.02421446,0.052356794,-0.018051622,0.019155845,-0.00086372485,-0.06022935,0.0041431882,0.059409484,-0.038968354,-0.07310648,-0.023928523,-0.0061382935,-0.110801436,0.050923903,0.0048831855,0.00926919,0.016540354,-0.0037559778,0.05949809,0.033359013,-0.030223617,0.010643449,0.00458762,0.019666273,-0.021687575,0.0064044306,-0.009579388,0.035498325,-0.022112528,0.040998578,-0.028817268,0.044485163,0.0096875075,-0.022080617,0.023059694,-0.007976019,0.033296216,-0.012291386,-0.011186478,0.0062286193,0.0098024765,-0.010118292,0.05853619,-0.0074544707,-0.08891703,-0.013156291,0.020889606,0.03020482,0.004480093,-0.07515804,0.030003104,0.03020133,0.059138007,-0.02734683,-0.059081394,0.0697384,0.054615017,0.035414785,0.025568118,-0.040467378,-0.008334175,0.029299704,-0.02932614,-0.03339638,-0.0460908,0.013554837,0.041717395,0.04467599,-0.037354454,0.0012332293,0.019015456,0.011885859,0.032189246,0.03956015,0.037219137,-0.032631095,-0.07195849,-0.005969934,-0.0019609868,-0.013489322,0.0018881334,-0.025596404,-0.0073663346,0.061351713,-0.038062893,-0.004506158,0.0122315185,-0.038362302,-0.05025798,-0.044142127,0.016185205,-0.012125622,0.012576176,-0.037792537,-0.013672675,-0.01365911,-0.033531047,-0.011824336,0.024048878,-0.04194019,0.0061509158,0.015801586,0.036596473,0.025695615,0.0012565398,0.020560676,-0.041712042,-0.00026522673,0.017204968,0.056471862,-0.008319143,0.04009938,0.0053494917,0.0033702133,0.009622847,-0.027668905,-0.03497491,0.004885735,0.037183493,-0.0062986733,-0.044811364,-0.007692551,0.002544551,0.015799703,0.027856417
36,-0.05483463,-0.025949428,0.0058065145,0.0078216605,0.08244158,-0.005244334,-0.036104433,-0.07422579,-0.042545695,0.015034098,0.017186088,0.02196593,-0.02883171,-0.028645413,-3.262357e-05,0.000893197,0.02717687,0.049180366,0.026924627,-0.0125784045,-0.044738304,0.08433294,-0.02769315,-0.027750125,-0.015742805,0.019626142,-0.045995172,-0.03184643,-0.047458768,-0.0058819493,0.04719534,-0.061827023,-0.053497408,0.027295012,-0.037184972,-0.005467126,-0.01597834,0.044645913,0.0067683556,-0.042109806,-0.0038468165,0.020786425,-0.087646894,0.035862524,-0.005180548,0.05088612,-0.04535835,-0.029140955,-0.018302107,0.043242387,0.018662449,-0.0060843555,-0.017708888,0.011334297,0.007933125,0.039230898,0.022536313,-0.022746675,0.03560029,0.0021240911,-0.031097725,-0.0034483173,-0.003955591,0.047513947,-0.0117865475,-0.011070533,-0.045203842,-0.02305601,-0.029790182,-0.040792637,0.024553843,0.016989004,0.0031585668,-0.058147557,-0.032975033,0.017337352,0.012604083,0.015097442,-0.027264934,0.06240701,-0.025601858,0.016203107,-0.05220359,-0.017317167,-0.04946532,0.03290355,0.020804465,-0.009568458,-0.0362013,0.011619972,-0.0018419474,-0.046525132,0.037927918,0.091432184,0.03958243,0.008320842,-0.024410965,0.019575184,-0.01734217,-0.014431568,0.00811501,0.00241153,-0.056777,0.06607032,0.015378678,-0.0073668323,-0.0048841713,-0.025948089,-0.0057932534,-0.020567274,0.037781168,-0.014362352,0.04492157,0.012162056,-0.03126522,-0.008236929,0.00027014504,-0.0006989247,-0.033629075,0.037771612,0.0061165662,0.07972188,-0.023434252,-0.006077158,-0.030861363,0.03775532,0.07047285,-0.03134729
37,-0.031162223,-0.0063453848,0.00317978,0.025171038,-0.009533872,-0.028743573,-0.009355008,0.004588004,-0.0020761914,0.0012542683,0.023430228,0.026226005,0.01831732,-0.023487458,0.00050605723,0.0012824566,-0.0064862384,-0.039906964,-0.02608856,-0.0100677805,-0.020304697,0.024361953,-0.033326738,-0.009027555,0.05258751,-0.03023933,-0.015165231,0.022035655,-0.022213647,-0.012293595,-0.009018931,-0.03320523,-0.022689248,0.031142697,0.0025469048,0.013491187,0.00015042783,0.0047152094,0.006326763,0.007912294,0.028181542,0.007477862,-0.016021965,-0.019531094,0.02204489,-0.01720638,0.019096978,0.039711386,-0.014909157,0.031072393,0.0028308977,-0.0011372822,-0.008793753,-0.004173955,0.033506066,0.02201955,-0.008414251,0.0013847873,-0.015965125,0.014340794,0.0487869,0.030462416,0.03868178,0.0032873196,-0.010984267,0.00577578,0.0669658,0.0838941,-0.012117367,0.043654356,0.018465284,-0.021684775,0.053000096,0.022568945,0.023883358,0.010238158,0.0557941,0.030453527,0.035157505,-0.010139827,-0.027671618,-0.004860914,-0.03186175,0.005509706,-0.038038213,0.020484915,0.05788923,-0.01807739,0.013825018,0.07221964,0.026603045,-0.0066603976,0.011954759,-0.049640175,0.009064639,0.0088176215,0.021284727,-0.013251286,0.04693884,0.03103555,-0.00042827407,-0.024935933,0.0014815329,0.019221358,-0.010005363,0.010608166,-0.030267037,-0.033389363,-0.03297502,0.022033645,0.0020398267,-0.023823252,-0.013305947,0.03679815,0.020317845,-0.06859853,0.014477546,0.011760641,0.013976785,0.02280938,-0.030197946,-0.033134464,-0.023084175,-0.008636842,0.015242255,0.028890228,-1.341516e-05,-0.0012943749
38,-0.033166427,0.0023597649,0.061196957,-0.023495246,0.036794145,0.0621697,0.007831651,-0.04494584,0.005437103,-0.021678567,-0.014302426,0.029097825,0.014494697,0.005222581,-0.001646304,-0.020742455,-0.008223848,0.022953475,0.022694008,0.0049997345,0.04997162,-0.06779001,0.010413738,-0.00091096706,-0.012166784,0.0007216466,0.018514507,-0.035782255,0.03366302,0.029957574,-0.015040931,-0.025061272,-0.007286726,0.054985374,-0.006487931,-0.015477463,-0.020164391,-0.028471023,0.012374343,-0.018807834,0.06263772,0.004251449,-0.03270263,-0.016848186,0.020405207,0.04276444,-0.022912072,-0.030524263,-0.024178153,0.06283939,-0.016519224,-0.044209134,0.015353922,0.018646441,-0.0020933233,-0.03780845,-0.014577641,-0.015226621,0.050280485,0.02348131,0.029768381,-0.019264836,-0.015089142,0.022623619,-0.008070945,0.003673071,-0.032474138,0.01821112,0.018153183,0.042546023,-0.016676424,-0.00091557886,0.055082876,0.04622207,-0.061579283,0.018551033,0.015207759,0.005802789,-0.009148827,0.0080588,-0.005272335,-0.048015766,-0.015232397,-0.01300984,0.0061303372,-0.014658448,0.035148114,0.0039857696,0.0026181703,0.054588877,-0.05570132,0.032028805,0.064653546,-0.012704373,0.03181659,0.017655723,-0.008131577,0.050349403,-0.021388615,0.0040931986,-0.018207405,-0.0038069072,0.016828017,0.045955393,-0.015069788,-0.023989456,-0.0026315951,-0.013287606,0.0069932765,0.0073784525,0.03062013,0.019637039,0.0039371466,-0.030488294,0.010159528,-0.016417637,-0.019557739,0.011365859,0.054430794,0.02647478,-0.0017674802,-0.0053272676,0.005108185,-0.021761077,0.033761475,0.04396298,0.0332772,-0.032496747
39,-0.008300795,0.041287176,-0.0018817452,0.034442015,0.03655828,-0.043361034,0.02488031,0.0012671138,-0.012402048,-0.007932774,-0.0012151968,0.021782583,0.0004061811,-0.029100152,0.036134236,0.012780457,-0.0053507485,-0.033265673,0.007016724,0.012308041,-0.005774474,-0.013624669,0.00222008,-0.03457822,0.039191604,-0.007423769,-0.049299132,-0.0014644768,-0.018062465,0.05069638,-0.016481321,-0.011529579,-0.05663184,-0.05153926,-0.00865046,0.021580122,0.009639171,0.055282824,-0.052821826,0.03539758,-0.014060776,-0.027435323,-0.01849361,-0.006911162,0.048952088,0.028757934,-0.023424208,0.049459092,0.01667497,0.022702714,-0.011284922,-0.015654474,-0.0008312376,0.009664176,0.013682574,-0.02030041,-0.0075590345,0.011051481,0.029347852,0.008234991,-0.017376387,-0.025892511,0.029901227,-0.0031563856,-0.023922177,-0.044553615,-0.051080395,0.012853166,-0.044214133,-0.040095,0.00032407156,0.0020365042,0.035832226,0.010613894,-0.041146226,0.01754935,0.022787463,-0.00997475,0.025800567,0.037583057,-0.008311306,0.031661365,-0.035123166,0.03533814,0.0026543348,0.0074558924,0.008375168,-0.022261811,-0.005263485,0.009198766,-0.03487466,0.009586114,0.0028673639,-0.007999547,-0.025872676,-0.018266467,0.01137712,-0.021238834,-0.040112834,0.035242453,0.027553473,-0.04075781,0.0030221506,0.023291476,-0.016737795,-0.02126739,-0.002219646,-0.004187047,-0.001520158,-0.013042354,0.06506664,-0.0048478097,0.040227465,-0.029924281,-0.02803442,0.0019392859,0.024229938,0.017959232,-0.0514019,0.019537423,0.018504072,-0.0043978496,-0.021878535,0.01666402,0.0024478764,0.01563507,0.04000586,0.0030500016
40,-0.019650286,0.0012826131,0.03846927,-0.039231222,-0.0075550014,-0.039005376,0.03504464,-0.028856775,-0.02728747,0.06169605,-0.022551183,-0.030024529,0.0383628,0.0043985886,-0.015582168,-0.00022938891,0.030163558,-0.10334917,0.009788074,0.017831799,-0.015888171,-0.024197087,0.0031404898,0.013213261,0.019524653,0.01428951,0.0015256593,-0.030529555,0.0031025282,-0.021094797,0.029063383,-0.02054365,0.023154054,0.026823465,-0.0019988546,0.10282066,-0.037375398,0.001301896,-0.03876421,0.03871452,-0.10839402,-0.0073349257,-0.052502096,-0.01607089,-0.026197664,0.062387016,0.01895093,0.010597849,0.009341727,-0.0048331777,-0.015430723,-0.06097002,0.0040387763,0.002211187,0.0068109767,-0.022955338,0.030402558,-0.005247414,-0.025921414,-0.047706015,-0.042020075,-0.014473288,0.05232345,0.010943526,-0.019767992,0.037450474,-0.012218982,-0.02336664,0.060352657,0.0161998,0.028792677,0.017818833,-0.06945658,-0.050497584,-0.0040884544,0.032327052,-0.026264243,0.015616493,0.01765704,0.022520473,-0.026236635,0.024698973,-0.030175103,0.016399156,5.5395954e-05,-0.028413478,-0.0044664317,-0.0006411853,-0.032238904,0.0020873784,-0.008266327,-0.008700894,-0.004567024,0.05624787,0.054242868,-0.018789858,0.030598884,-0.029250065,0.018861147,0.021528706,-0.017193837,-0.023784665,0.010656939,0.037681006,0.05660936,-0.0066089695,0.117880486,-0.006038205,-0.04718067,0.005816311,0.013112517,-0.001345474,-0.012211242,0.07984435,0.020247053,0.030344931,0.021250779,0.0013998956,-0.054669492,-0.02750952,-0.041227832,0.016124412,-0.03028566,-0.012344431,-0.018680977,0.06334703,0.0020563188,-0.0073297853
41,-0.0025901804,0.026321327,0.014723911,-0.012184227,-0.026215853,0.012707453,-0.004496199,0.027239708,0.014826377,0.0002538147,-0.0032046353,-0.011420794,0.0121781705,-0.0020836724,0.028084755,-0.0247,-0.019404426,0.00614868,-0.034474444,-0.0058959904,-0.020638706,-0.0037075835,0.028459199,0.0007779385,2.04891e-05,-0.004498272,0.006071698,0.001396124,-0.02934376,-0.009135821,-0.022516511,-0.020228619,0.0059183803,0.012254339,-0.012286582,-0.006291158,-0.009762254,-0.012700103,-0.019271292,0.03104721,-0.01978797,0.0031373345,0.021955429,0.02123566,-0.00796383,0.005200476,0.017731303,-0.028794065,0.039983597,-0.0045217443,0.03187054,0.0016468636,0.0064436137,-0.011414608,-0.017161762,-0.0037882067,0.018809294,-0.005569342,-0.032701243,-0.01246366,0.0047319415,-0.006532208,-0.042744566,0.009307335,0.02624779,0.027167203,-0.00567338,0.10733513,0.009879732,0.042480998,0.012613866,0.019449107,-0.0042965887,-0.007108033,-0.010057141,-0.016808888,-0.010954314,0.014537423,0.010746716,0.023957808,0.0071389074,0.006493355,-0.06929169,-0.06347873,0.02809275,-0.0073675597,-0.0046156733,-0.051572744,0.005539405,-0.0030549292,0.011222805,0.024697699,0.0068620536,0.002429934,0.00676668,0.019445363,0.010016731,0.037557296,0.011631832,-0.004306762,-0.005477103,-0.013553609,0.011692583,-0.020585267,0.006050756,0.041938648,-0.009554125,-0.017220004,0.004717502,-0.017192086,-0.02697912,-0.010537812,-0.009518069,0.009872544,0.03884644,-0.05060342,0.03428604,-0.019322453,-0.023216605,0.016078945,0.010983848,-0.031796075,-0.02110008,0.0073567634,-0.0023140798,-0.0045469194,0.04024312,-0.007956721
42,-0.034548674,0.023057051,0.01101559,0.07480064,0.05844884,0.03370498,0.00019611683,0.014576516,-0.019146957,-0.016006239,-0.01582109,0.0061518084,0.017519388,0.0006987662,0.013378857,0.02480046,0.025508089,0.040381078,0.00087480096,0.06506332,0.033162143,0.037045076,-0.029278766,0.035383694,0.0016151994,-0.010824918,-0.04543049,0.006302163,-0.013798756,-0.02545019,0.0016735478,0.01619127,0.012978917,-0.04201338,0.036187157,-0.025494505,0.060089543,-0.0008677698,0.013869986,0.044360798,0.027695203,0.0057596248,-0.006631479,0.04639742,0.013781824,-0.02002537,-0.023278413,-0.0029653623,-0.037471563,0.031057991,0.016750704,-0.024518594,0.0440367,0.013905299,0.033185326,-0.011961437,-0.012636265,-0.028104251,0.006979489,-0.012447405,0.032932222,0.014518293,-0.0020524021,0.003878877,-0.018429156,-0.017311309,0.0046628774,0.035858057,0.00067049504,-0.027229197,0.018290494,-0.02299674,0.011820536,0.009280736,-0.023978887,-0.020323059,0.00035479924,-0.024234042,0.023293244,0.010059685,-0.02814722,0.020300414,0.027819987,0.02677534,-0.019390214,-0.002734664,-0.015686324,0.030622162,0.012322952,-0.056122486,0.05071766,0.028668677,0.019708259,-0.026430283,0.014797248,-0.022062773,-0.035929702,0.0013731339,0.012553448,-0.019027434,-0.007129431,0.015397011,-0.031973492,-0.027087359,-0.019191356,0.08045896,-0.034796417,0.0116953915,-0.0015472855,-0.010878385,-0.045809582,0.009582121,-0.019249814,-0.012050565,-0.012846474,0.036957245,0.03017742,0.0048477,0.04374854,0.013793245,-0.021501543,-0.041779686,-0.028144635,0.0006824521,0.09640326,-0.044442065,0.0034193024,0.02465249
43,-0.0054510175,0.017368741,0.0049669067,-0.012253431,0.039166134,-0.013116142,-0.016109178,-0.019527022,0.011366552,-0.016681435,0.032666054,0.007818832,-0.007887659,0.008539846,-0.013429214,0.039777696,-0.0027785797,-0.0069885096,0.008219086,0.007843079,-0.0031321098,0.039505903,-0.010530053,0.012928138,0.043483853,0.012828764,0.0007863366,0.026115809,0.048949182,0.040437043,0.022211881,-0.0007044641,-0.013606254,0.008871055,0.013494144,-0.008543602,-0.029614743,0.057514682,-0.008252175,-0.05395814,0.010788699,0.06621248,-0.0013694809,-0.024818553,0.004975832,-0.0007429962,0.020717464,0.018202858,-0.006907805,0.0067981062,-0.03301871,0.014569031,-0.010936673,0.027664252,0.008255817,0.021831065,0.003490267,-0.024558648,0.0026597884,0.01030242,0.029608378,0.07954058,0.0064600585,0.0069593117,-0.027320826,0.01822109,-0.020254293,0.0003303378,-0.02348074,0.03221476,-0.043966096,-0.033672027,0.031573452,-0.014160921,-0.021463756,0.036864538,0.016657608,0.02076003,-0.018206764,0.005938926,0.007529205,-0.013065471,-0.007623785,0.0006361394,-0.017656349,0.013155293,-0.0052344287,0.00084886205,0.0032000707,0.03932924,-0.017989703,-0.04461808,0.030749243,-0.020543804,0.004938402,0.049470242,0.0011544945,-0.0011616593,-0.012831411,0.0031839553,0.0031613053,0.020615337,-0.005330279,0.00513058,0.027934086,0.015692834,-0.021893948,0.0020031496,-0.015561531,-0.0022059204,-0.007048328,0.01354242,0.023619793,0.010456823,0.019289663,-0.017850744,0.009176547,0.029540665,0.05611267,0.012386569,0.036070995,0.013717855,0.025651615,-0.00733753,-0.023112305,0.047204968,-0.012116181,0.003952084
44,0.009069618,0.06539179,0.023664441,0.0074212705,0.051094092,-0.033648826,0.041804586,0.041286528,0.012354133,-0.007696463,-0.025927428,0.086324476,0.00789367,0.043993957,-0.027813245,0.031733077,-0.023106392,-0.033468723,-0.012537782,-0.07000324,0.033205964,-0.06089129,0.017224658,0.0059262486,-0.03284387,-0.040388405,0.03628516,0.00624102,0.010907572,0.053783946,-0.068770654,-0.01481073,-0.031202579,-0.013250207,-0.014915019,0.012467956,-0.0059514525,0.038753968,0.0052202395,0.009586023,0.009280324,-0.002858848,0.03058853,-0.06645907,-0.04837322,-0.0054181237,0.011190705,0.00025202645,0.01560895,-0.021612119,0.03684241,0.05820281,0.04457151,0.01325913,0.00998553,0.03466156,0.035187393,-0.03555719,0.019831138,0.024946606,0.009093499,-0.00010522592,0.016756222,-0.01834381,0.0037092771,0.0092273,-0.050668333,-0.0048558405,0.021359233,0.023570044,-0.04592433,0.024726095,0.086065285,0.034627102,-0.07154888,0.02807255,0.030748568,-0.005980075,0.013510753,0.01432123,-0.02804054,0.038641565,-0.036396563,-0.0072281957,0.039043438,0.049592067,-0.038075924,-0.037860677,-0.018254284,0.042809393,-0.00809507,0.09527611,0.028148286,-0.101001434,-0.017381128,-0.0012511666,0.007297222,-0.010989988,-0.010274827,0.01835701,-0.006381528,0.01886695,0.038223583,-0.032842897,-0.021213332,0.026414761,-0.0739632,0.0010930703,0.013785519,-0.01146065,-0.0036276635,-0.0035862795,0.0013078128,-0.0024287158,0.0403615,0.0077915974,0.048655268,-0.012113566,-0.064853296,-0.0044220868,0.02533299,-0.067393206,0.008726947,0.034732003,-0.028919848,-0.02340202,0.0017466899,-0.029549265
45,0.032886434,0.029531257,-0.012879394,0.019123387,0.009430561,-0.011747207,0.037117038,0.010318004,-0.023401279,0.0049036783,-0.03620063,-0.052054785,0.011736394,-0.023845643,-0.08213239,-0.006221037,-0.016229453,-0.061913073,-0.07497985,0.025034908,-0.029660786,-0.0009616783,0.08744007,0.015276745,0.013052715,-0.06348744,0.027968412,0.05041532,-0.01122736,0.0028371639,0.019983146,-0.008465995,0.014687877,0.028900748,0.009000245,-0.029414957,-0.00104163,-0.0055870977,0.005836772,0.013835919,-0.026876664,-0.0009406737,0.09425278,0.02089642,-0.002098403,-0.0077396985,0.008600643,0.028819144,0.009598867,0.017559024,0.016368818,-0.04300042,-0.007227939,0.022707097,-0.024512738,-0.0038894098,0.043220066,0.027231997,0.00920845,0.037539653,0.013727546,-0.0003479765,-0.03491047,0.026597101,0.015882336,0.0023235516,-0.012723372,0.019946078,0.0042054476,0.015053188,-0.015106841,0.011983968,0.008120295,-0.019497389,-0.04191699,0.0063678026,0.02231208,-0.054124493,0.008904185,-0.015983177,0.051407836,0.00764859,0.002084812,0.036261454,0.00069892866,-0.01699723,0.0036041462,0.020824686,-0.00545935,-0.047934815,0.030386865,-0.018661592,0.043047905,-0.03024344,0.031335257,0.0037704618,0.015019307,-0.056516476,0.011644305,-0.00043235734,0.04060303,-0.008795016,0.024164211,0.021498144,-0.04254229,0.03064059,0.010679049,-0.030597897,-0.01613346,-0.018061312,-0.02104045,0.009712983,0.013296119,0.03065801,-0.0600347,0.010110188,0.013078311,-0.022664836,-0.0010651824,-0.058048908,0.044356503,0.0041208006,-0.008265298,-0.0060797785,-0.025019601,-0.058376066,0.007706052,0.016779443
46,0.047421064,0.06830078,-0.04598034,0.0323345,0.05117575,-0.030068845,0.0032216038,-0.05137398,0.014506817,-0.050475847,0.005214781,0.046599414,0.032688722,-0.026275592,-0.006074556,0.053446252,-0.006341358,0.052764557,-0.0057266066,-0.026326684,-0.024072655,0.010496111,-0.0053848936,0.0056471997,0.0037192858,-0.008675814,-0.07737997,0.027296381,-0.0263198,-0.013367571,-0.073203385,0.032536756,0.025169006,0.077997684,-0.008103837,0.017575929,-0.01094542,0.022097325,0.062571906,-0.0019315588,-0.0011172235,0.024517125,-0.006385509,-0.053028386,-0.022621587,-0.021959502,0.023737412,0.032726537,0.012661145,-0.011200399,-0.00954649,0.023950538,-0.05880609,-0.0075869765,-0.024829404,0.0697813,-0.022851164,-0.03941287,0.010047935,0.009958897,0.01010845,0.0044662394,0.0026804022,-0.010215636,-0.011210011,-0.015055045,0.0008263737,0.024566306,0.028648935,-0.047829982,-0.021972416,-0.0026929132,0.026520833,-0.0008219571,-0.0113964565,0.053499356,0.010814681,-0.003251086,-0.014411685,0.024331775,0.030215377,0.015462149,-0.02336274,-0.013073947,-0.013097501,0.077557534,0.026964132,-0.053318568,-0.015090469,0.044138655,-0.018454647,-0.045179896,-0.062475983,-0.028536059,-0.004245222,0.022238875,-0.0123150125,-0.0015325495,-0.027335685,0.020487718,0.021825401,-0.008843377,-0.024908619,0.055541422,-0.044128764,-0.019954534,-0.023731185,-0.016712239,0.05495782,-0.026974855,-0.011116488,0.00037625813,0.050918717,-0.02116768,-0.0025132971,-0.015774844,0.047455803,-0.06327968,-0.016689435,-0.027788678,0.015019641,0.021777702,0.050847236,-0.042787045,-0.0045555886,0.073589,-0.014378626,0.01953407
47,-0.032710068,-0.029777322,0.007401122,0.04713124,0.009270495,0.023426024,0.02941492,0.012431369,-0.029494788,-0.031844396,-0.03458224,-0.007579008,-0.0071204402,0.01083613,0.05798466,-0.020433614,-0.012453622,-0.023571126,-0.01072001,0.0807049,-0.02566739,0.03750873,0.011671286,0.08608428,0.026577791,0.0035013314,4.1229152e-05,0.009187435,-0.0035473024,0.0051838984,0.04768122,0.024122376,-0.018208476,-0.02115413,-0.0026646692,-0.06074374,0.058851626,0.015644057,0.04194503,-0.036039326,0.04361126,0.030183857,-0.026623989,0.08353366,0.00032685007,-0.014636088,-0.00077225245,-0.029981516,0.005978854,0.0061625447,0.020473503,0.01668575,0.014284969,-0.017702637,0.037066743,-0.03459667,0.0017613417,0.007338736,0.014164053,-0.0413468,0.02177352,0.020745538,-0.027540753,-0.010563386,0.022740858,0.03207691,0.021227483,-0.017742738,-0.009037533,0.0043218303,-0.006279043,0.006056721,-0.03360218,-0.064305246,0.089668095,-0.023619656,-0.019531991,-0.016800229,0.030126797,-0.01685933,-0.030029215,0.006507991,0.018512761,-0.027380396,-0.01655633,-0.018604262,-0.048773292,0.010071869,0.0145587325,-0.06612723,0.03953729,-0.025296185,-0.001931897,0.01216531,0.015331367,-0.011375924,-0.050407793,-0.00084879994,0.016703911,0.0010558577,-0.014810351,0.02502202,-0.025094125,-0.012402474,-0.008113225,0.07132354,-0.019617425,0.034612216,-0.0029605045,0.0034687018,-0.017760625,0.02638322,0.012736095,-0.033460844,0.006446146,0.02587339,0.014074136,-0.016387409,0.017585248,0.003946493,0.026934251,0.037451804,0.03486186,-0.0011010529,0.026439333,-0.004798798,0.009909396,0.014356702
48,-0.015579916,0.016553309,0.013732354,-0.01889702,0.01425766,0.010630288,0.031849734,-0.024391485,0.0010575914,4.5830333e-05,0.011233074,-0.02923988,0.011078873,-0.0011232528,0.020215753,0.0063189026,0.03361811,-0.015458489,-0.009830941,-0.014010406,-0.016981926,-0.05404024,0.0064848103,-0.0006788994,0.03474343,0.03553767,0.009008131,-0.020458402,-0.01062599,-0.0030449629,-0.014617732,-0.003791059,-0.0057292157,0.017746681,0.022193648,0.015232274,-0.0074826153,-0.019235278,0.0012053819,-0.027774949,0.06854327,0.020732291,-0.015638683,-0.0019164389,-0.018152624,-0.01966189,-0.010610738,0.0038855434,-0.009754694,0.022817474,-0.007929219,-0.019567015,0.008511565,0.041934613,-0.00039364674,-0.0040112226,0.0063773845,0.019011322,0.0033638487,0.013425528,-0.0011679464,0.11682217,0.025940208,0.0009625918,-0.01108417,-0.015122078,-0.01827322,0.007831006,0.019737476,-0.0020845803,0.034300733,0.0050385646,0.0095200855,0.035416774,-0.019825775,-0.026150847,0.0839525,0.014304733,-0.013416036,-0.0032976314,-0.014526403,0.007418784,-0.007113914,0.020865524,0.023086725,-0.007063093,0.004365974,-0.0014479525,0.023449821,0.03818896,-0.014534704,0.0063482327,-0.024523865,-0.033658575,0.035742696,0.051631972,0.0031764985,-0.017734906,0.0071679098,-0.0149601335,0.009894893,-0.03127781,0.0018825436,-0.0028046158,0.03313658,-0.008504114,0.00088275544,0.037107486,-0.023575647,-0.016778141,-0.017943697,0.028403014,-0.01387612,0.02795547,0.0042141424,-0.0085502565,0.0154954465,0.027859455,0.08956692,5.998569e-06,-0.005016373,-0.0052982997,-0.04599172,0.014202282,0.012332234,0.021313077,0.003927245,0.0062902793
49,0.0042487993,0.004698281,0.040586457,-0.013083255,0.010824739,0.03318953,0.011437945,-0.036704708,-0.013113571,-0.040752012,-0.018097524,0.106722645,0.0052617216,-0.03307632,-0.0037221329,0.023174118,-0.016110104,0.016350225,0.017841548,-0.0018825092,0.049645703,0.013951572,-0.0028726715,-0.01630071,-0.0109220585,0.02833727,0.014659856,-0.021796785,0.024722176,0.062990956,0.02739164,-0.013906731,0.009028587,0.008323991,0.031686325,-0.013683249,0.01463381,0.019530408,-0.04051785,0.035438552,0.080437884,0.03241944,-0.00622923,0.030811278,-0.029267361,0.051211517,-0.0018555913,0.024547936,-0.0005618575,-0.010381312,-0.003161048,0.017481107,-0.0110108005,0.013188798,-0.011252101,-0.010412568,-0.03232303,0.017174965,0.017144287,-0.007247212,-0.022907786,0.03296732,-0.050483152,0.035236586,-0.03351787,-0.057337467,-0.010049968,0.022211961,0.00091697363,-0.009679056,0.017690675,-0.0014424853,0.026249483,0.023254044,-0.0005241702,-0.03717919,0.038103573,-0.027845385,-0.031928863,0.011352229,-0.006557212,-0.012539093,0.01352726,-0.012214244,-0.043987174,-0.04858108,0.009438289,0.0014887928,-0.0031431648,-0.009517442,-0.026926517,0.021032326,0.0074070673,-0.026690612,0.003403918,0.011543098,0.023219254,0.008644069,-0.03294701,0.019557718,0.02021651,0.006900889,0.006892423,0.016072111,-0.0094650565,-0.024300791,-0.0007764894,-0.015407184,-0.0038768812,0.0002125487,0.021399574,-0.010719078,-0.018310688,0.038347058,0.015023492,0.017658046,-0.02976623,0.02376627,0.04306515,0.03693322,-0.017926734,0.013111813,0.0023497988,-0.023284495,0.0019536763,-0.03194547,0.04436534,-0.0044396836
50,-0.0073313597,-0.025196208,-0.04230683,0.04044247,0.0050248373,0.016013794,0.0076355264,-0.016714226,0.049712356,0.0010598552,-0.004469754,-0.012437683,-0.0029011683,0.017980687,0.018515816,-0.015904257,-0.02187366,-0.0069719325,-0.053844657,0.011502631,-0.023182265,0.039451208,0.0027987435,0.06311612,0.016605472,0.022148753,0.027370585,-0.021482635,-0.008681394,-0.037667546,0.06482895,0.014183906,-0.00059597613,-0.0068441313,-0.0013757958,-0.0030491038,0.041353412,-0.001341041,-0.012100362,-0.00024533816,-0.010910034,0.006652858,-0.006565273,0.033600036,0.015784482,0.030396394,0.05726301,-0.0007959749,0.031441804,0.044721525,-0.00016041486,-0.040989984,0.03037287,0.01428929,0.027368836,-0.027320275,0.041201018,0.032005586,-0.06127356,-0.003230608,0.024184836,-0.035126902,-0.0033186697,-0.00085283763,-0.012585953,0.0021956302,-0.0083440235,0.024331195,-0.015748927,0.0060638385,-0.041803885,0.04088883,-0.010643198,-0.004695862,0.0042455415,-0.003962341,-0.04567222,-0.0030534219,-0.040941972,0.013447554,-0.0015139828,-0.03818491,-0.025702283,-0.0011674047,0.009789957,0.012301776,-0.006664532,0.04341837,-0.011401144,-0.009938098,0.01658417,0.0090603065,-0.03009717,-0.0041664843,-0.00040092392,0.022048026,0.06301966,-0.0042093983,-0.01462179,0.05457567,-0.025464762,-0.02012285,0.003456718,-0.0037530167,0.030407635,-0.005259526,0.013728179,0.0120326625,-0.020108325,0.03451209,-0.0361818,-0.05977346,-0.011017943,0.018667566,0.045749996,0.03621384,-0.0008710286,0.036713824,0.042398497,0.0040822523,0.02716909,-0.030950027,0.020964528,0.009917043,-0.007146021,-0.01776449,0.04483074,-0.044213187
51,0.042902164,-0.08728861,0.030797008,-0.024885377,-0.019529471,0.009867129,-0.060647186,-0.03404038,0.01298737,-0.040716603,0.0674734,0.11862175,0.009830748,-0.041673798,0.019174758,-0.012824377,0.023282945,0.035647962,0.02172972,-0.026597694,-0.041314635,0.0323344,0.030033477,-0.024193106,-0.03240778,-0.006775565,0.005914854,-0.025876034,0.011396945,0.0055374596,-0.009872524,0.0026656245,0.054038458,-0.07142172,0.02778676,-0.0019098885,-0.07470994,-0.009279383,0.019510169,0.04274424,0.025747314,0.0034166677,-0.0385145,-0.05268912,-0.03572735,-0.006380465,0.006002972,0.0030591288,-0.015485713,-0.1095707,0.0018593249,-0.004188152,0.022680253,-0.044418618,-0.021688586,-0.020614251,0.012742392,0.074019186,-0.0025646908,0.055071626,0.0027976234,-0.022952404,0.0203871,0.026354792,0.011694068,-0.045303714,0.047860116,0.011442901,-0.039938834,-0.080474325,-0.049425445,0.015301634,0.085393436,-0.011148167,0.046111405,-0.0011148676,-0.0016242684,0.009621979,0.026086686,-0.0017833941,-0.0217464,0.040359695,-0.0035622858,0.054021012,0.011227268,0.00089966564,-0.0031943207,-0.092550896,-0.010740199,0.056992855,0.03568915,-0.017288309,-0.014541967,-0.0047718557,0.008233883,-0.018406797,-0.010016172,0.032347232,0.013050956,-0.031957883,-0.06374722,-0.0002048934,0.04390737,0.028670568,-0.046868864,-0.040013876,-0.035856113,-0.017980605,0.043896273,0.07067308,-0.0039145574,-0.0063235667,0.008032583,0.0024294574,-0.0019556638,0.008434337,-0.038877565,-0.03618067,-0.0056890375,0.044772536,-0.0058608316,-0.027682485,-0.022056708,-0.0063077663,-0.03054374,0.02913427,-0.0011165416,-0.0034775778
52,0.08827131,0.016892292,0.023890791,-0.005271661,0.024143932,-0.03568314,-0.014185738,-0.024831226,0.022687707,0.009912682,-0.004555159,-0.017423417,0.005707549,0.022887448,-0.03715628,0.02084733,-0.014767709,-0.0014101851,0.025337968,-0.025283316,0.023955889,-0.01638889,0.015534304,-0.009834706,-0.022674423,0.008278601,0.008704381,0.022059167,-0.0014231028,-0.03193113,-0.024642609,0.008193047,0.043771837,-0.0046509677,-0.00896024,0.097048186,-0.00774144,0.018252064,0.03836221,0.009771929,-0.038949385,-0.008749037,0.040247276,-0.03020536,-0.017386246,-0.0008657505,0.020812137,-0.0042050155,0.014476328,-0.009018488,0.013224786,-0.019834643,0.015189975,0.014424919,-0.025572516,0.006082977,0.010994291,0.019865703,0.007266116,0.038400214,-0.010758804,-0.040927783,-0.034544624,-0.003325057,-0.027189082,-0.028519277,-0.035485197,0.030975355,0.023788169,-0.026726,0.017020375,0.017555833,0.01602376,0.017560568,-0.051389623,0.034538615,-0.041369755,-0.046948563,-0.0064556594,0.021027545,0.06250173,0.026148496,-0.0047518536,0.020350596,0.019483637,-0.013200223,0.0019404961,-0.0039401804,-0.0028231954,0.0091540795,-0.022239948,0.010707039,-0.015240565,-0.017088585,0.0012890601,0.008295824,-0.0057162996,-0.026757352,-0.018851768,0.02618999,0.041977473,0.0129025215,0.012642769,0.018643145,-0.012678334,-0.011132795,1.7241568e-05,0.023463156,0.053186238,-0.028883386,0.016048465,-0.0019571993,-0.0014249317,0.030870901,-0.0107866125,0.026169527,0.018986756,-0.008564424,-0.03385166,-0.0013471168,-0.013555834,0.008856911,-0.0035925952,0.033490885,-0.023627523,0.0043564113,0.0015745095,0.05731267
53,-0.033208463,0.021390745,0.01292295,-0.11156752,-0.0020142044,0.046266563,-0.018617943,-0.01532337,0.0001789267,-0.009958917,-0.03620686,-0.0011592596,0.0319043,0.011990035,0.03800075,0.026072351,0.005260334,-0.01435227,0.03587622,-0.01619508,-0.00017299804,0.033653203,0.030559693,0.019889884,0.01562159,-0.03659512,-0.05823785,0.014967688,0.0035161453,-0.0034702457,0.001565891,0.011966785,-0.018811954,0.024406563,-0.02770313,0.07982966,-0.00067396206,0.11358513,-0.114485405,0.018367715,0.042497423,-0.053001422,-0.007816421,-0.08916799,-0.0007334064,0.0439483,-0.046694588,-0.018497052,-0.048022307,-0.03516116,0.058822323,0.11784543,0.0019667782,-0.0039382023,-0.010419714,-0.022132281,-0.029474497,0.028792467,-0.011373033,0.05495421,0.020483367,0.08007005,0.026403101,0.020702053,-0.0025166925,0.021095816,-0.019986236,0.03898179,-0.032858733,0.01794792,0.006377673,-0.03702345,-0.0005803543,-0.016312862,0.008701445,0.074371435,0.021650959,0.005302416,-0.021907544,0.019617885,-0.03219462,0.039499667,0.015269006,-0.004649724,0.020185364,-0.024685742,-0.00552546,-0.0010353912,0.03215539,0.0064857076,-0.04767944,0.013222288,-0.0404783,0.0050131925,0.010323321,0.04335468,0.0047480892,-0.06041169,0.009163779,0.025319409,0.044074368,-0.009341892,-0.0041070366,0.028355446,-0.0019320728,-0.0024784745,0.027503435,0.014236026,0.020576518,-0.025440177,0.05251561,-0.030163638,0.04505945,0.0009993011,-0.02759059,-0.025229614,0.033349153,-0.01562581,-0.03917616,0.047197737,0.004198727,0.04185733,-0.020085882,-0.0032277217,0.025694247,0.004432024,0.01673795,0.043049417
54,-0.056556515,-0.027533993,0.025160281,-0.016859839,0.034203492,0.011507462,0.004716537,0.04066057,0.023697842,0.006719759,0.04098643,0.01727496,-0.010843548,-0.022438355,0.028645126,0.025484962,-0.018683277,0.030255144,0.022889918,0.024216473,0.004285733,-0.063018546,-0.023464808,-0.003035373,-0.010318067,0.024856815,0.023556124,0.006898411,-0.0009788539,0.013251349,0.033936836,0.013086239,-0.012388623,-0.06891094,0.015833529,0.03201173,0.006060899,-0.050022412,-0.02357781,-0.037285052,0.029728603,0.026427232,-0.014644973,-0.005347857,0.018562315,0.0015262646,0.005908473,-0.03693257,-0.03791519,-0.02623881,-0.031141628,-0.027261624,-0.0027609083,0.04638984,0.01330873,-0.0670312,0.010532788,0.014916891,0.021841764,0.059679337,-0.05347737,0.015140568,-0.040407415,0.00929068,0.01748635,-0.032240517,-0.008629067,0.01417104,-0.06321385,-0.041568782,-0.025150543,-0.032629084,0.02338564,0.0009017511,-0.004687945,0.046881896,0.039157253,-0.0015233018,-0.028230876,0.031276904,0.028723776,0.029690534,-0.013818335,-0.007306028,0.04391383,0.008243474,0.05224444,-0.037764464,0.06369098,-0.01678918,-0.0643371,-0.01726565,0.1042165,0.0007931664,0.029362537,0.04641045,-0.0039905733,-0.021429205,-0.0010381617,-0.0092936475,-0.007739531,-0.051623438,-0.003922434,-0.017072137,-0.017613586,-0.049464375,0.00040343407,-0.024383087,-0.0076187765,0.019662768,0.027042136,0.0070672217,-0.009597993,0.041687995,0.016774625,0.05430261,-0.0017312085,-0.045836132,0.02647921,-0.0074205943,0.0373456,0.061450496,-0.008416538,0.013719869,0.04865687,-0.031228192,0.005717407,-0.00948965
55,-0.036185678,0.038041905,-0.0062136776,-0.055175386,0.029536666,0.032922845,-0.01573487,-0.02387294,-0.009411658,-0.045560054,-0.0015955986,0.1001213,0.029506804,0.034955487,0.0232339,0.0123330075,0.036754187,0.03893091,-0.00639278,-0.0045477957,-0.013847704,-0.02928634,0.009144667,-0.015362417,-0.033170886,0.02825775,0.025138132,0.01420457,0.027501103,0.045062013,-0.014664569,-0.018175794,-0.027360464,0.04225033,0.026308065,-0.04469111,0.06686058,-0.0012546921,-0.02911797,0.09547557,0.09923577,-0.0137005625,-0.0069018668,-0.015932862,-0.015788801,-0.012392975,-0.0010789359,0.014798642,-0.018894648,0.03219848,0.036866777,-0.0029790157,-0.0012915775,0.031258695,-0.028907252,0.021228958,0.0016834082,-0.013355792,0.048177227,0.005227178,-0.018112605,0.018673977,0.036278374,-0.021472065,-0.016407363,-0.012759402,-0.024792276,0.018153679,-0.020880492,-0.021543665,0.060750134,0.01355374,0.02742955,-0.002001842,-0.056052227,-0.004096563,0.024671307,0.014421584,-0.018104935,0.0065836045,0.010770799,-0.0030707228,-0.033551026,0.015093545,-0.0039997553,-0.001523308,0.022486044,0.023380583,0.01966312,0.007911072,-0.010687399,-0.04196513,0.016175767,-0.05953611,0.00045589532,-0.006455289,-0.004328094,0.08442662,-0.039768234,0.007809535,-0.006005999,-0.0046781525,-0.058418196,0.007059126,-0.015955623,-0.01492545,-0.008987534,0.04315031,-0.013521737,0.008950556,0.0017571603,0.009938504,0.00095114944,-0.0031817984,0.003579744,0.02589992,0.018184341,0.0032506473,0.053037815,0.0027609256,-0.0016025691,-0.018185912,-0.0075866724,0.010079585,0.06602036,0.026063008,-0.021754196,-0.0047512027
56,-0.07480256,0.055400938,-0.0053009586,0.0023141962,0.06018138,-0.017302748,-0.014698471,0.013589,-0.017145546,0.011485069,-0.0064118486,-0.029319802,-0.037619237,0.037841137,-0.04741028,0.009395531,0.037704825,0.036413386,0.0027751469,-0.0073824525,-0.0048084636,-0.05339297,-0.027353648,0.023858048,-0.03857936,-0.029210094,0.030483518,0.0022714552,-0.030250547,0.032698255,-0.003634418,0.004596517,-0.036826402,0.03274591,-0.005079905,-0.044391494,-0.019707508,-0.032023545,-0.031780757,0.025518283,0.0066855666,-0.012031361,-0.00070862594,-0.018089568,-0.026931746,0.043395318,-0.019370196,0.013371769,-0.0068510217,-0.05965872,-0.0035692982,0.039761495,0.01765916,0.027799288,-0.06210518,-0.038409863,-0.0043495633,0.0014301459,0.0018300068,-0.007866109,-0.012905971,0.016560705,0.026192535,0.01388581,0.028753286,-0.011158367,-0.022239199,0.016946232,-0.033950496,0.019623753,0.04290203,-0.021195902,0.0027435038,0.030013999,0.037153788,-0.05832662,0.062140655,0.017166674,-0.019990262,-0.006316526,-0.010473889,0.05148108,-0.0020138114,-0.024838852,-0.022058316,-0.021129398,-0.022317505,0.00094804185,-0.009126092,-0.0264486,-0.08017914,0.0061420435,0.03951745,-0.030811097,0.0037681593,0.022255497,0.026161559,0.0016635595,0.0060251993,-0.007174689,0.025202114,-0.032695707,-0.0408808,-0.006781216,0.0010213502,0.0022631655,0.01748125,0.032731958,-0.025603414,-0.03410534,0.036790546,0.045765065,0.017301017,0.024532491,0.036544744,-0.01972082,0.016606644,0.02714881,-0.017347537,-0.008658618,0.008050093,0.009708403,-0.07600835,-0.03087428,-0.02216492,-0.035244487,-0.034830056,-0.0037907118
57,-0.037892226,-0.0056751543,-0.02500935,0.0038678467,-0.01469748,0.012205501,-0.028572531,-0.050684504,0.010728149,-0.0064648245,-0.013750144,0.011849431,0.02842877,0.014036747,0.005245455,-0.026526531,0.023459135,-0.012045016,0.027918711,-0.039287325,-0.014903205,0.003657607,0.0039442834,-0.044650238,0.009728586,0.0025892027,0.020455178,-0.009438333,0.020311859,0.06573402,0.016414564,-0.013690088,-0.022567721,-0.045868322,0.006779197,0.01083721,-0.0041878866,0.015263799,0.008766169,-0.031018164,-0.0020862361,0.0034262799,-0.011775045,0.029709253,0.027631894,-0.0013273363,-0.0062929797,-0.03004548,-0.044573557,-0.1321129,-0.006045886,-0.01739214,-0.002400855,-0.019394852,0.04519543,0.039748948,0.04453345,0.028573869,-0.016190792,-0.026740706,0.04621317,-0.01037675,-0.028601626,0.018987648,0.00366453,0.0046589244,0.044427343,0.0007107515,-0.00080474466,-0.03381218,0.020001061,-0.008265534,0.025246967,0.026300898,-0.02439001,-0.01039594,0.027143458,-0.041815702,0.0054889205,0.019319572,-0.028797245,0.026234265,-0.025619108,-0.06344331,-0.005334427,0.02920868,-0.004900382,0.024785373,-0.0034144584,-0.032159485,0.06785345,0.04491858,-0.008839287,-0.012450664,0.06033612,0.02295071,-0.006982328,-0.05324543,0.008879411,-0.01023561,-0.008417631,0.0019638129,0.0052306694,0.013919892,0.020987965,0.05293059,0.014648655,0.010144045,-0.007433025,0.013079136,0.01800821,-0.0061918595,-0.006979168,-0.031027712,-0.0078859795,-0.025949065,-0.018249126,-0.026591215,-0.031918738,0.0039896653,-0.011657742,-0.009450904,0.0016286433,0.004861108,0.020079985,0.0038168952,-0.026901672,-0.01957024
58,-0.054189764,0.0039068502,0.010885676,-0.03908156,-0.012312707,-0.0010590916,-0.016315399,0.0016843517,0.019422261,-0.012802027,-0.02290159,-0.014910403,-0.007989429,0.027750513,-0.013031683,-0.022163888,0.041606665,-0.026974821,0.006628946,-0.010534377,0.021081673,-0.015747063,-0.01270309,-0.0033792898,0.04146004,0.034966905,0.025770308,-0.0065603647,0.013485374,0.0051512006,-0.022610294,-0.011225613,-0.013498509,0.022136576,-0.019554542,-0.02731148,0.021267962,0.0215194,-0.076354176,0.004484382,0.06742663,0.033279866,-0.034795,0.0034364003,-0.003818185,-0.03008338,-0.010803179,-0.01811609,-0.019630762,0.006568654,0.008544855,0.056196157,0.0073089474,0.044307526,-0.061397646,0.010086248,0.024456082,0.018850788,-0.022949506,0.037441976,0.024017313,0.10898657,0.059731036,-0.020810204,0.016614964,0.020999864,-0.045943078,0.009385529,-0.01547343,0.013807678,0.025694774,0.046552002,0.006436327,0.03102517,0.032469388,-0.01020907,0.093529806,0.0025974691,-0.034228254,0.02974033,0.0038007887,0.001885061,-0.058631327,0.034261335,0.04047109,0.018687418,-0.015376877,0.0127078565,0.047858067,0.043162346,-0.020537434,0.012957382,0.010171659,-0.04992042,0.02058976,0.012256935,-0.014515265,0.024072709,0.028051034,0.01820666,0.025681144,-0.044024754,0.0009847628,0.038001474,-0.0027984953,0.032629736,-0.038103815,0.026394391,0.014451347,0.010831603,0.055877727,0.0267511,0.035655856,-0.034508396,-0.011613106,-0.0148600135,0.009594886,0.03365174,0.07229359,0.020661559,0.03425206,0.0076463674,-0.039772622,0.035379708,-0.019642357,-0.0032135958,-0.00065873365,0.009400724
59,-0.022383552,-0.007568295,0.008299561,0.20045392,-0.028444733,0.010259415,-0.020887395,0.023057649,0.018225221,0.027094325,0.015947338,-0.059621274,0.015931563,-0.018005842,-0.01642765,0.001919927,-0.026759943,-0.031497594,0.0005613689,0.0051831324,-0.0076947315,0.023463154,0.038700666,-0.03397254,-0.004861101,0.009929627,0.019965135,-0.038436025,-0.021424115,0.012296045,0.011018669,-0.027179278,-0.034145612,-0.012044918,-0.012506386,-0.08851852,-0.010631324,-0.007863287,0.09437296,0.0032274819,0.04958241,0.0219268,0.010391661,0.20746274,0.10633884,-0.014422695,0.048064288,0.0072485176,-0.011816792,0.0038938986,-0.06500358,-0.085137434,0.024679827,0.006278421,0.028042935,-0.01920012,0.012107499,0.0041102944,0.0024483043,0.028396104,0.04377075,-0.005792552,-0.031730413,0.006224934,0.0065789307,-0.007987712,0.0019153107,-0.004548966,-0.021140758,-0.0023558475,0.025039583,0.028828133,-0.028538572,0.013627205,-0.0007964205,0.0028000271,-0.01932319,-0.020822112,0.017238287,0.038463805,0.0050113006,0.012589726,-0.032418907,0.039092597,0.035985567,0.014283986,-0.0017701081,-0.041057788,0.011386837,0.013582409,-0.03628815,-0.010010415,0.0031476172,-0.036513228,0.100079246,0.010114963,0.03332132,0.05084979,-0.002901058,-0.0024699422,-0.013850006,0.0016125451,-0.061867975,0.016904727,0.015955891,0.06358775,-0.047088087,-0.018719565,-0.008390791,0.03136653,0.0072202664,0.055148084,0.06104966,-0.022129355,-0.025779013,-0.037713155,0.013626774,-0.042352863,0.02439675,-0.010912553,-0.030744014,-0.02387325,-0.017837362,0.012260675,0.029175505,0.046572644,-0.005628178,-0.0114993565
60,-0.017471077,-0.0013473998,0.0113289645,0.0222326,0.015910408,-0.0074769454,-0.0027566634,0.011096484,-0.005381585,0.030383654,0.020251434,0.009346885,0.06891866,-0.001163339,0.0023027512,0.004175911,0.019671246,0.023229305,-0.018271288,-0.009641492,0.07295337,-0.0044024726,0.03373639,-0.0036739388,-0.033559334,0.019482927,0.025598714,-0.02732613,-0.004184092,-0.051985152,-0.007478232,-0.016435018,0.005693417,-0.017731039,0.030810526,-0.006238733,0.030177865,0.0017397163,-0.013171982,0.027947977,0.010334093,-0.018306658,-0.016826743,0.029467212,0.010863188,0.026773307,0.021286795,0.012018426,-0.06372095,-0.05491943,-0.008979753,0.028832035,0.026935818,0.0019375515,-0.031393602,0.023555014,-0.024001878,0.020484308,-0.0020233993,-0.029954026,0.012981029,-0.02078912,-0.0048595928,0.0051923366,0.003682813,-0.0090427715,-0.012212482,-0.00064813456,0.029513584,-0.0050521246,0.028191196,0.0051677716,-0.05307061,-0.0019057674,-0.030821746,-0.022584438,0.007558443,-0.010603312,-0.0046588057,0.026526278,0.0088177435,0.0073712706,0.017507022,-0.04499475,-0.010936458,-0.005493182,-0.044922993,0.056374904,0.01621723,-0.050099436,0.010976917,0.0012265887,-0.02487067,-0.034041956,0.042510524,0.013261531,0.012870211,0.02022404,-0.01280814,-0.003574828,-0.00055335765,0.026772726,-0.03210489,0.022283802,0.027220553,0.06367184,0.0076753865,0.030370915,-0.0043788212,0.0022191787,0.025973048,-0.021124454,-0.044463422,0.018072467,0.017805267,0.02988023,-0.0013667603,-0.043340992,-0.016029276,0.004584052,-0.0001818787,0.013508139,-0.025989586,0.0040291506,-0.0019219242,-0.042617444,-0.001737083,-0.02599556
61,0.041985564,-0.015315162,0.017126145,0.020227678,0.032971106,0.0007134751,-0.0751519,0.056123853,0.015305993,-0.048013765,0.031052012,0.03912112,-0.025335195,0.03244143,-0.024843358,-0.022846963,0.02266473,-0.0033897308,-0.021628855,-0.03643741,-0.024509102,-0.00074557087,0.017233467,-0.039089814,-0.046972457,0.07528829,-0.020986984,0.011194501,0.022452155,-0.015598396,-0.01633816,-0.028510036,-0.027846927,0.0351092,-0.026109809,-0.05236508,-0.030430516,0.026100872,0.047308583,0.00012658823,0.0017747886,0.021716895,0.042861503,-0.04590791,0.023139011,-0.04912465,-0.023482855,0.005883467,0.015550205,0.015071241,0.02917862,-0.02624769,-0.022777976,-0.049490396,0.007910614,0.11724893,0.007153832,-0.0070139137,-0.0043590427,0.02637958,0.019895311,-0.0068208147,0.026263,0.017905388,0.010071303,0.011895268,-0.05840515,-0.033618197,-0.026727203,0.013501295,-0.011637143,0.01410617,0.04362279,-0.025513478,-0.017393611,-0.0138658,-0.06232178,0.011213667,0.024940709,-0.019656042,0.022134548,0.008039466,-0.029687366,0.002825749,-0.03300631,0.01409091,-0.009540536,-0.030510724,-0.018817773,0.03123653,0.02728079,0.015396366,-0.061144847,-0.08503563,0.051821657,-0.00859028,0.010202999,0.03320165,-0.0075165727,-0.010965859,0.010391742,-0.056662917,-0.017640814,-0.00014621462,-0.016069865,0.03666836,0.0094441185,-0.03847656,0.0029673122,0.025844704,-0.04990684,0.025123185,-0.0322655,-0.047870833,0.0025930614,0.07471623,0.0050844825,-0.022340164,0.009812149,0.0031989398,-0.02695709,-0.013875363,0.00806855,0.008413482,0.0052671395,0.012963957,0.012444109,-0.004268074
