,0
0,-0.036082525
1,-0.035680745
2,-0.044709288
3,-0.02793889
4,-0.032302562
5,-0.035537884
6,-0.026121406
7,-0.03364609
8,-0.036391143
9,-0.024480129
10,-0.029564235
11,-0.040437937
12,-0.022716044
13,-0.029455319
14,-0.028243091
15,-0.037877377
16,-0.020714616
17,-0.031258896
18,-0.027168054
19,-0.040717352
20,-0.03585128
21,-0.04653338
22,-0.0348194
23,-0.028656313
24,-0.033140454
25,-0.04318487
26,-0.042438135
27,-0.024749812
28,-0.03945057
29,-0.025107387
30,-0.025649112
31,-0.03329326
32,-0.03612743
33,-0.025572915
34,-0.04015497
35,-0.027410306
36,-0.039374784
37,-0.03312401
38,-0.030942513
39,-0.051751975
40,-0.03615526
41,-0.038884643
42,-0.036229216
43,-0.0282719
44,-0.035485737
45,-0.035545867
46,-0.038551584
47,-0.04584356
48,-0.046798445
49,-0.019225728
50,-0.038830098
51,-0.024255045
52,-0.02867507
53,-0.030096745
54,-0.033995327
55,-0.048818927
56,-0.01996375
57,-0.03358759
58,-0.037265535
59,-0.038199045
60,-0.04285872
61,-0.0326648
62,-0.021268971
63,-0.052362997
64,-0.022525499
65,-0.037926532
66,-0.025355795
67,-0.015131379
68,-0.03344204
69,-0.022170026
70,-0.016896205
71,-0.03260767
72,-0.039903406
73,-0.025617898
74,-0.023950858
75,-0.024129545
76,-0.030402368
77,-0.040058684
78,-0.02847868
79,-0.0442793
80,-0.020694898
81,-0.02428105
82,-0.016578533
83,-0.020926744
84,-0.017396653
85,-0.029196324
86,-0.036699113
87,-0.04231025
88,-0.024744064
89,-0.035025537
90,-0.029018603
91,-0.020328518
92,-0.03173301
93,-0.016116844
94,-0.02646074
95,-0.032936424
96,-0.055954397
97,-0.033431537
98,-0.035809442
99,-0.038800158
100,-0.02904511
101,-0.036648784
102,-0.05152627
103,-0.021054534
104,-0.021104421
105,-0.039861728
106,-0.047724534
107,-0.026623135
108,-0.026421998
109,-0.022989327
110,-0.040386297
111,-0.039014336
112,-0.039152175
113,-0.052838165
114,-0.031942725
115,-0.020113403
116,-0.027011944
117,-0.023042621
118,-0.038804475
119,-0.025724541
120,-0.019784596
121,-0.021050585
122,-0.020406932
123,-0.030673552
124,-0.0321177
125,-0.024369584
126,-0.029171845
127,-0.045099873
128,-0.03427563
129,-0.028333366
130,-0.03512899
131,-0.027147483
132,-0.041711442
133,-0.04301735
134,-0.030977763
135,-0.043674048
136,-0.045951013
137,-0.032120813
138,-0.038090523
139,-0.028640417
140,-0.049161274
141,-0.031235239
142,-0.037921652
143,-0.036142766
144,-0.029228073
145,-0.040223274
146,-0.036855586
147,-0.016842883
148,-0.039307255
149,-0.045658898
150,-0.04884758
151,-0.031532463
152,-0.03393959
153,-0.030213725
154,-0.030668424
155,-0.032832082
156,-0.026101995
157,-0.029798942
158,-0.047516756
159,-0.04035439
160,-0.033434417
161,-0.023146626
162,-0.03489231
163,-0.04092754
164,-0.028910413
165,-0.03673631
166,-0.036876913
167,-0.024573063
168,-0.047106776
169,-0.039663274
170,-0.03180681
171,-0.019161902
172,-0.04039963
173,-0.032242786
174,-0.031108987
175,-0.017071975
176,-0.021613864
177,-0.034721695
178,-0.04157746
179,-0.02777724
180,-0.033015884
181,-0.026843077
182,-0.02678844
183,-0.04556906
184,-0.045593653
185,-0.0325474
186,-0.03073897
187,-0.026202636
188,-0.04442445
189,-0.0368643
190,-0.03686952
191,-0.03234506
192,-0.028887486
193,-0.034607124
194,-0.03040758
195,-0.022703525
196,-0.023816016
197,-0.033298276
198,-0.018551808
199,-0.038566004
200,-0.031299
201,-0.044672146
202,-0.037879948
203,-0.03781934
204,-0.027409056
205,-0.037864383
206,-0.051302835
207,-0.030740282
208,-0.04013331
209,-0.015335938
210,-0.040129256
211,-0.028089166
212,-0.02622559
213,-0.023438232
214,-0.02118239
215,-0.032831572
216,-0.035240095
217,-0.033891615
218,-0.036904324
219,-0.024211578
220,-0.032469627
221,-0.026109993
222,-0.028368216
223,-0.039157063
224,-0.036644835
225,-0.037449103
226,-0.051297355
227,-0.041393556
228,-0.017402243
229,-0.019243043
230,-0.03945565
231,-0.031209562
232,-0.030395405
233,-0.025555992
234,-0.038501985
235,-0.025927419
236,-0.03763852
237,-0.030593509
238,-0.036926266
239,-0.036431924
240,-0.039543793
241,-0.024828201
242,-0.022196354
243,-0.03863128
244,-0.04292827
245,-0.026193552
246,-0.035455447
247,-0.030131921
248,-0.03642388
249,-0.03216039
250,-0.040761217
251,-0.027755158
252,-0.028730731
253,-0.035405386
254,-0.03390918
255,-0.030403474
256,-0.03307705
257,-0.03509852
258,-0.04670423
259,-0.038521565
260,-0.023661634
261,-0.047008883
262,-0.025209045
263,-0.037907332
264,-0.032348853
265,-0.032163013
266,-0.041412104
267,-0.03578691
268,-0.03661142
269,-0.036364205
270,-0.04161081
271,-0.0391053
272,-0.037059784
273,-0.035885718
274,-0.024738608
275,-0.042909324
276,-0.020802854
277,-0.027825233
278,-0.025017517
279,-0.018450167
280,-0.024548402
281,-0.03650507
282,-0.037347555
283,-0.03135762
284,-0.033304438
285,-0.024238294
286,-0.028946225
287,-0.040209763
288,-0.024781782
289,-0.043478917
290,-0.028753594
291,-0.027274933
292,-0.024222218
293,-0.039605718
294,-0.030506575
295,-0.031994127
296,-0.04513348
297,-0.021440456
298,-0.03719727
299,-0.03586042
300,-0.03213312
301,-0.021022657
302,-0.030026708
303,-0.038148087
304,-0.041547235
305,-0.029183315
306,-0.017787205
307,-0.03205348
308,-0.021611888
309,-0.024561454
310,-0.024969246
311,-0.01981219
312,-0.021494137
313,-0.030759465
314,-0.050673846
315,-0.022809137
316,-0.028669981
317,-0.041172434
318,-0.0390029
319,-0.042137623
320,-0.031713292
321,-0.032258954
322,-0.038585916
323,-0.043843545
324,-0.032655705
325,-0.025286144
326,-0.04301759
327,-0.030233877
328,-0.025966195
329,-0.023092525
330,-0.024249088
331,-0.04521186
332,-0.03160946
333,-0.038115583
334,-0.021200303
335,-0.024714308
336,-0.031250548
337,-0.03501791
338,-0.021559332
339,-0.025187619
340,-0.032041393
341,-0.019978916
342,-0.034260906
343,-0.035377968
344,-0.036925416
345,-0.022164565
346,-0.030856628
347,-0.033161372
348,-0.016508171
349,-0.02827474
350,-0.03609381
351,-0.06021339
352,-0.034226786
353,-0.045829162
354,-0.033461824
355,-0.03551052
356,-0.030338591
357,-0.026033627
358,-0.049602203
359,-0.038149416
360,-0.037978016
361,-0.019598512
362,-0.026093703
363,-0.036317572
364,-0.029681195
365,-0.020558141
366,-0.031006696
367,-0.037107334
368,-0.018327456
369,-0.025767347
370,-0.035533905
371,-0.024601627
372,-0.016074369
373,-0.046189062
374,-0.033863038
375,-0.017442642
376,-0.022204487
377,-0.031044831
378,-0.025176907
379,-0.020279083
380,-0.023702154
381,-0.03350409
382,-0.030511899
383,-0.040715776
384,-0.018512607
385,-0.024307588
386,-0.02802426
387,-0.021329086
388,-0.029103836
389,-0.024352457
390,-0.030862844
391,-0.03873651
392,-0.045331337
393,-0.01924791
394,-0.03721017
395,-0.04194013
396,-0.025584018
397,-0.026767025
398,-0.028824376
399,-0.033104803
400,-0.022205407
401,-0.023847386
402,-0.043316215
403,-0.029837647
404,-0.025371617
405,-0.04250554
406,-0.052945588
407,-0.01645598
408,-0.033673838
409,-0.047190923
410,-0.028774561
411,-0.02649869
412,-0.040176302
413,-0.037974242
414,-0.019013446
415,-0.027774015
416,-0.020727783
417,-0.032008037
418,-0.030756062
419,-0.0480761
420,-0.02774065
421,-0.025865147
422,-0.03853746
423,-0.027044838
424,-0.044485163
425,-0.03370637
426,-0.030199543
427,-0.02294624
428,-0.036897894
429,-0.047038626
430,-0.034414537
431,-0.03178467
432,-0.04208288
433,-0.03852883
434,-0.04231302
435,-0.025136692
436,-0.03391977
437,-0.029697862
438,-0.024887796
439,-0.043235663
440,-0.04263019
441,-0.030097568
442,-0.031846263
443,-0.037492365
444,-0.038987923
445,-0.035495535
446,-0.02594314
447,-0.029601298
448,-0.038401853
449,-0.03240154
450,-0.044440653
451,-0.032239936
452,-0.02776548
453,-0.037542444
454,-0.04116859
455,-0.026293
456,-0.045160417
457,-0.036439642
458,-0.02862954
459,-0.017592205
460,-0.045621358
461,-0.02196186
462,-0.022985905
463,-0.041477595
464,-0.042067766
465,-0.023026718
466,-0.0351052
467,-0.02602185
468,-0.044203434
469,-0.02065523
470,-0.027394677
471,-0.025870623
472,-0.04449535
473,-0.023701934
474,-0.032920636
475,-0.034802612
476,-0.03534076
477,-0.037891056
478,-0.024031067
479,-0.025954101
480,-0.030680908
481,-0.027537087
482,-0.033146404
483,-0.032640204
484,-0.03477911
485,-0.031893782
486,-0.045565635
487,-0.028361904
488,-0.04171551
489,-0.037131544
490,-0.025011139
491,-0.025258562
492,-0.04124059
493,-0.03475758
494,-0.029190343
495,-0.016647393
496,-0.03288037
497,-0.0359517
498,-0.031994253
499,-0.030630456
500,-0.025624262
501,-0.03774569
502,-0.03391047
503,-0.025402483
504,-0.042278245
505,-0.02892276
506,-0.029457185
507,-0.043218218
508,-0.03143242
509,-0.0344886
510,-0.027503373
511,-0.043477874
