,0,1,2,3,4,5,6,7,8,9,10,11,12,13,14,15,16,17,18,19,20,21,22,23,24,25,26,27,28,29,30,31,32,33,34,35,36,37,38,39,40,41,42,43,44,45,46,47,48,49,50,51,52,53,54,55,56,57,58,59,60,61,62,63,64,65,66,67,68,69,70,71,72,73,74,75,76,77,78,79,80,81,82,83,84,85,86,87,88,89,90,91,92,93,94,95,96,97,98,99,100,101,102,103,104,105,106,107,108,109,110,111,112,113,114,115,116,117,118,119,120,121,122,123,124,125,126,127
0,-0.005868364,0.0047163614,-0.0191464,-0.02238906,0.009792941,0.015810046,-0.043626916,-0.018976368,-0.006833208,0.00844457,-0.0021756117,-0.029451396,-0.0060169064,0.026680749,-0.009255228,-0.007976611,-0.0051672067,0.02426964,0.023627162,-0.026491864,0.034683254,0.035366353,-0.0068821,0.019552646,0.011870419,0.014335938,0.00029287653,0.0031273763,0.024593802,0.014203047,-0.019309951,-0.006322077,0.024778428,0.022385355,-0.0059477803,-0.012906381,-0.0370378,0.018019516,-0.011451771,0.029140303,0.062259976,-0.017005028,-0.02470969,-0.00439503,-0.011293849,0.007756589,0.009739334,-0.007449821,0.05025142,-0.0057129557,0.016663838,0.042130537,0.013439894,0.019771287,-0.019034004,0.0017135837,0.0084563615,-0.00048643354,0.020625832,0.011744682,-0.015132939,0.0045277197,-0.0019695747,0.0045638927,-0.026543431,0.016869163,0.04162377,-0.0032950144,0.05187277,0.007028532,-0.0025807756,0.0054969396,0.022474278,0.01668909,0.016364759,-0.00029561413,-0.015481232,0.010483395,0.002381293,0.013815325,0.00921045,0.018651636,-0.023367936,-0.014491952,0.008811563,-0.031062879,0.00094215624,0.0035770743,-0.013754251,0.021992644,0.008144499,0.03180078,0.024231594,0.017013453,-0.0061982065,-0.0013819863,-0.008738247,-0.0062003504,0.0072532394,0.009516163,0.0018875529,-0.0077356864,-0.015914284,-0.024407655,-0.00035396643,0.015603004,-0.034801453,0.009411381,-0.01767786,0.011442422,-0.015841486,-5.9758437e-05,-0.047447264,-0.0011107426,-0.0044685486,-0.00088426354,-0.030657206,-0.0026076601,-0.0026582584,0.02967073,-0.0023234554,-0.010942521,-0.007846237,-0.0038688153,-0.008403883,0.010271786,-0.004421527,-0.04609594
1,0.015018591,0.033576198,-0.01291218,-0.013677031,-0.014567759,0.005341945,0.021998465,-0.014450189,-0.0040649185,-0.011443163,-0.010871929,4.7454023e-06,0.0066718645,-0.03541846,-0.0035440328,-0.0032282236,0.00094468787,0.020309491,0.001918288,-0.013355979,0.020315653,-0.009338314,0.0039705303,-0.009232814,-0.0019841488,-0.013747418,-0.008036787,0.002294652,-0.02930562,0.0026869238,0.0035502985,-0.0144886365,0.027875755,-0.0005414935,-0.008302366,-0.028689131,0.010736296,-0.0068699955,-0.0028065208,-0.02268349,-0.017653422,-0.022837874,0.00030317414,0.029868893,0.0028494836,-0.027527167,0.017841084,-0.007877248,0.0040532392,-0.007064087,0.017145652,0.0059032347,-0.0045117214,0.005447761,-0.01555536,-0.017079638,-0.0074112536,0.020656299,0.009144934,-0.02442163,-0.0064165024,0.01857079,0.005605209,0.008625098,-0.022752147,0.011447102,-0.013776299,-0.009102248,0.013180457,-0.012800324,-0.010538494,0.011910332,-0.0012254823,-0.0027144023,0.0024833942,-0.012157136,-0.004268141,0.0023808333,-0.0245498,0.00010472039,-0.020094795,-0.009033324,0.012154534,-0.0038009256,-0.014310224,-0.009254321,-0.012495076,0.0014546016,0.015840903,0.0102899335,0.01039818,-0.019641105,0.0012847453,0.025483979,-0.016825814,0.027614873,0.002764975,0.018844223,-0.0033867059,-0.004146406,-0.021181187,0.0053356937,-0.015398134,-0.007894335,-0.007979639,-0.0021988025,-0.008970859,-0.018700413,0.0050858827,0.010596893,0.013387848,-0.014398195,0.006855524,0.004638984,-0.024578406,-0.013303787,0.013215904,0.009943663,0.026413769,-0.01878835,-0.0006022338,-0.0135197835,-0.012148327,-0.0050228476,0.005216079,-0.02165124,-0.016590936,-0.009957067
2,0.028815176,-0.01698862,0.0011007077,-0.0012440562,0.02138467,-0.006360099,-0.028275385,-0.003449687,0.007969692,0.022719666,-0.020170406,0.014866025,0.02614799,0.007848556,-0.008104045,0.0046758396,0.014728186,-0.0022047414,-0.019953609,0.013329757,-0.009696316,0.014759286,0.015657332,0.0027010324,0.02348858,0.0059890198,0.0063888016,-0.004331905,0.0019166146,-0.0018214909,0.010685866,0.009399737,0.012211936,0.021575477,0.015167345,0.02842756,0.037154034,0.011593465,-0.006675824,-0.016218496,-0.014859694,-0.00069368817,0.0033341344,-0.02121295,0.011851872,0.016325276,-0.0008561905,0.026156873,-0.025444312,0.0074769696,-0.010596763,-0.015397784,-0.025844919,-0.0038157983,0.0004604601,-0.011185051,0.0076122475,-0.001720698,0.029806748,0.0006811303,0.023980374,-0.007403754,0.035560805,0.040263295,0.013418028,0.0020953354,-0.018192125,-0.0093297325,0.00015795427,-0.0075680795,0.0068050204,0.0012961947,0.0038518978,0.000243895,-0.00089889485,0.00416185,0.04000803,0.010383898,0.010438498,0.026392398,-0.00863857,0.025802247,-0.011789272,0.030875426,0.0077101956,0.037851468,0.005372169,-0.008849638,0.036365088,-0.010042006,-0.01736395,-0.0055964706,0.008967021,-0.011766175,-0.0020497446,-0.0076359655,-0.019941185,0.003246484,-0.0049056504,-0.0035050607,-0.0058981325,0.017314678,0.029419832,0.007390805,0.020758094,0.012242361,0.013753381,-0.006831838,-0.024732392,0.002616148,-0.019871037,-0.0018033853,0.010546898,-2.1600038e-06,0.0017209814,0.00033222078,-0.0011651282,-0.005494869,-0.005133409,-0.015988333,0.035820093,0.0041708383,0.006273536,-0.004143138,0.006599191,0.039563626,0.009569257,0.008609476
3,-0.016781395,-0.028422149,-0.048625585,-0.04255474,-0.018390067,0.013345799,0.0064513646,-0.050423134,0.053172488,0.014069106,0.0042724493,0.0028536334,-0.0017458119,0.02164151,-0.014217398,0.029288849,0.020370588,0.015659789,0.0065083443,-0.028685639,-0.018073056,-0.011415256,0.031869367,-0.025106112,-0.01028347,-0.05784602,0.007873658,0.02051657,0.010905435,0.0180005,-0.0031353675,-0.023024619,0.05771898,0.00029886203,-0.033854615,-0.030902667,0.0024298425,0.010974348,0.0060222857,-0.04479771,-0.051246002,-0.046011835,-0.04770384,-0.0007557273,0.020021865,0.0077873524,-0.017145062,0.019590331,-0.0005881736,0.013628422,0.00067796995,-0.03798007,-0.010132877,-0.0048482283,-0.042460773,-0.028176576,0.02728871,-0.007659726,-0.008789631,-0.025245266,0.010862481,-0.06720749,0.00643871,0.011958345,0.006219297,0.0019279373,0.009319605,0.00675266,0.09746956,-0.016912479,0.005812318,-0.003540967,-0.024504622,-0.023343423,-0.013307461,-0.001980951,-0.0027597067,0.0047441227,-0.016808491,0.029201401,-0.023986988,0.0022079563,-0.042270534,-0.011686915,0.011988157,-0.0031149075,0.018390523,-0.002425818,0.009771411,0.0041959924,0.011146546,-0.01824577,-0.012108271,-0.06109773,0.0076186787,-0.008493893,0.016457764,-0.008505497,0.013708467,-0.05419568,-0.009317469,-0.0108152935,0.007973375,0.015795417,-0.019878779,-0.02728771,-0.008370568,0.0035799302,0.0069356184,0.026291955,-0.0020703776,-0.0008738406,0.0034888305,-0.0301081,-0.061089415,0.0009642656,-0.021803144,0.0069761663,-0.011808038,-0.004293692,-0.023604428,-0.040494792,-0.012290725,0.07801477,-0.003415667,0.020984566,-0.040949665,0.009810269
4,0.0066729877,-0.006897716,0.020308739,0.011463711,0.014226979,0.0072125453,0.008054366,-0.0029768972,0.010007881,0.016946161,0.0019529854,0.021718336,0.017934445,0.036303673,0.0060624927,-0.005738101,0.003665774,0.009739502,-0.010660386,-0.013979318,-0.01329411,0.02724623,0.0017445107,0.017077338,0.0018044192,-0.00042088918,0.014823554,-0.0006143176,0.03946858,0.0002406826,0.01007344,0.025252093,-0.0015677817,0.036463633,0.014442482,-0.0039661066,0.028604552,0.00022856184,0.005303682,-0.021138325,-0.013057493,7.3556366e-05,0.003305878,0.009040098,0.031086609,-0.003909813,-0.0005211597,0.015604815,0.035517603,-0.0033606205,-0.0027265684,-0.01864391,0.015609026,0.0063241515,0.00043927174,-0.0016449761,-0.011080849,0.013509897,0.0053869276,0.010319184,0.03546602,-0.012609176,0.043717686,0.06685237,-0.0033638563,0.0021002707,-0.00638612,0.015256706,0.0050993706,0.0067847953,-0.013162781,0.014445514,0.009485816,0.025641302,0.00773721,0.016283493,0.019138644,0.019141477,0.0063461205,0.038391124,0.030310616,0.038677372,0.0069160275,-0.007069378,0.015608962,0.018584646,0.00014310627,-0.0004192669,0.046498396,-0.005803559,0.016207913,0.004055415,0.014701732,-0.00078309467,0.012109344,0.030051209,0.0005814152,0.018785417,0.009172715,0.00031406808,-0.007917716,0.016706824,0.0066595604,0.0031369936,0.00474435,0.0190257,0.0048583904,-0.014050892,0.023833321,-0.0075546787,0.013995903,-0.013263281,0.019565456,0.0024683422,-0.017757334,-0.014346561,0.00444496,-0.00031516378,0.0063256375,0.043777116,0.0235614,0.010310819,0.023237936,-0.016166406,-0.003665011,0.04451031,0.009867241,0.0031374285
5,-0.008739732,0.019728005,-0.02460306,-0.00038813855,-0.011391862,-0.0054525766,-0.02279128,-0.01245407,0.008182128,-0.037344832,-0.02575123,-0.009721343,-0.015595661,-0.016929647,-0.0064494787,0.0049299765,-0.0031817951,0.014228321,0.014542225,-0.009250889,0.026189532,-0.0031799807,-0.016917013,0.0025786639,-0.015011919,-0.013348011,-0.012293183,-0.002839972,-0.0038386406,-0.0059951385,-0.0018388346,-0.012423808,-0.004055035,-0.005659613,-0.003918742,0.0062876143,-0.020160163,-0.005322051,0.010254694,-0.001703134,-0.0018893381,-0.014220545,-0.012474023,0.029907526,-0.02535236,-0.010371935,0.015679646,-0.010200034,-0.005500072,-0.00744043,-0.011474199,0.012400156,0.0084048,0.011671807,-0.027208028,-0.015706636,0.0054685664,0.016664764,-0.0015562898,-0.0099792555,-0.005556144,0.020030063,-0.005480043,-0.0035908693,-0.007844014,-0.005962125,-0.016063847,0.0046165017,-0.011912054,-0.00023189849,-0.0040151007,0.012402615,-0.013294301,-0.014893314,-0.01441927,0.0022488895,-0.013812497,-0.018840842,-0.011335824,-0.001784621,-0.008639447,-0.009839812,-0.026522415,0.0030919285,0.0111210095,-0.009458694,0.0005469787,-0.004758939,-0.005523927,-0.0064504496,0.023663038,-0.008350561,-0.010046647,0.012576939,0.017927982,0.017598355,-0.011300399,-0.0055015776,0.010489763,-0.014266641,-0.00308104,-0.012593874,-0.0144541925,-0.023347791,-0.0071280203,-0.020257466,-0.0028009138,-0.009277734,-0.019237394,-0.033291534,-0.0116457045,-0.019025648,0.0011387605,0.006065053,-0.021091057,0.015875472,0.01144945,-0.033798363,0.016116623,0.00958644,-0.017314723,-0.014194295,-0.0038531572,-0.035947174,0.0034761121,0.005488587,-0.0044047814,-0.00518297
6,0.0073726354,0.005732827,0.046684828,-0.0018240279,-0.020827562,-0.006748258,0.039910767,0.017654372,0.010603375,-0.055065375,-0.03055944,0.03934766,-0.027019959,0.0040557263,0.042830586,0.0019821818,-0.013232955,-0.019957034,-0.016786419,0.0036889687,0.022707293,0.020451482,-0.019843802,-0.0147942575,0.004651781,0.024317805,0.004249656,0.0006281471,-0.009412064,-0.0053379843,-0.012253816,-0.011288687,0.023166068,0.011741544,0.0005594353,-0.010121927,-0.009335397,-0.010940944,0.002709486,0.021500302,0.04363274,0.016215593,-0.009694151,-0.009058958,0.017932452,-0.008566957,-0.00020980541,-0.017692171,0.01850789,-0.012846359,0.014259623,0.017428417,0.0120307375,-0.0044719237,0.019807424,0.04301919,-0.008714685,0.005820363,0.005784581,-0.010310258,-0.017322447,-0.03834268,-0.00015827556,-0.017182421,-0.004948263,-0.0052991803,0.007976929,-0.0022281979,0.035934016,0.024691168,0.00928996,0.0067665963,0.032682285,0.010497985,0.010011292,-0.0065036444,0.015944505,-0.008117233,-0.017431589,0.018864965,0.009365893,0.04114422,0.030246142,-0.019526498,-0.007229485,0.008723462,-0.013745414,-0.015382581,0.0031127597,-0.011727985,-0.008864353,0.012792348,0.043590926,0.005436038,-0.0011655088,0.0068088574,0.027181627,-0.0070420518,-0.011356172,0.0305213,0.022920927,0.029142208,-0.027752167,-0.0061410223,-0.009242614,0.014158177,0.0017970537,0.0003244776,0.031017665,-0.012777474,0.017795462,0.0131493565,-0.02414823,0.02378743,0.0144004505,-0.0132655045,0.03239447,-0.017102899,0.003740117,-0.013791379,0.027341079,0.013641728,0.012234754,-0.009181765,-0.00950572,-0.017961591,0.042098578,-0.0028574234
7,-0.010434016,-0.016934829,-0.0022358675,0.0069641173,0.0070821256,0.0164577,0.061056204,-0.031872015,0.040403172,0.023057442,0.020531433,0.007871703,0.001559614,0.0273701,-0.007187107,0.027413232,0.01797096,0.0020365734,-0.012135397,-0.01636904,-0.00030388578,0.023831453,0.017085114,0.021426493,0.015600177,-0.02510432,0.010348856,0.031002738,0.0089653125,0.023807349,0.0057493933,0.0029570432,0.052098375,0.035684112,0.004397406,-0.0331127,-0.0028000416,0.022385046,-0.0002664439,-0.036884885,-0.049799945,0.013374618,-0.031795166,-0.0006157853,0.029076427,0.011926127,-0.015466873,0.008759982,0.01962483,0.025517376,0.01688502,-0.037463382,-0.0050419522,-0.005169442,-0.015870908,0.029335568,0.005354674,0.006178215,0.06419598,0.0017129834,-0.008406947,-0.07320184,0.028426446,-0.008335795,0.0024861512,0.007393689,0.026521351,0.016998637,0.060567066,0.0004693859,0.0092632,0.0050755534,-0.021290988,-0.001302706,0.0028098498,0.020837659,0.019169498,0.029418588,0.0019023885,0.04050341,-0.015317943,0.045150295,0.010060586,-0.010078613,0.026558906,0.030061016,0.0200806,-0.0021941639,0.015975628,0.0012956003,0.016301254,-0.030725969,-0.010279933,-0.0277323,0.0114315925,-0.016300851,0.030925784,-0.033046193,0.0070839827,0.00948529,0.01824297,0.012263849,0.03896363,0.004382208,-0.0043563033,0.020985913,-0.013780999,0.041347146,0.03262006,0.010884663,0.016487382,0.0131394835,0.021373427,-0.012863939,-0.014881018,-0.040620737,-0.035027284,0.024964815,0.001155735,-0.010420287,0.04366373,0.0009659315,0.01060239,0.0037210106,-0.009942893,-0.028346095,0.013988247,0.019923745
8,0.008051107,-0.0031198997,-0.023361623,-0.030441342,0.031005133,0.037172485,-0.009353423,0.00988124,0.022144709,0.04188933,0.037448447,-0.011788031,-0.044732835,0.011684902,0.0055155507,0.00864735,0.026867397,0.03104598,0.02877522,-0.024585554,-0.023571745,0.038358577,0.032348022,0.0032161332,-0.033843968,0.012120131,0.01960201,0.007309674,-0.008910184,0.02290797,0.045647867,0.0055624433,0.0010992344,-0.023546588,-0.006260619,-0.014893983,-0.03781901,0.037528835,-0.018641671,0.01078196,-0.011904536,-0.01646013,0.008982694,0.0030753226,0.0030710632,-0.014661945,0.003620499,-0.011008997,0.03735202,0.022438485,0.054515418,-0.012520686,0.003290849,0.013741409,-0.0007041896,-0.021472115,0.013857719,0.019352725,-0.036405873,0.019998943,-0.012509818,-0.034525767,0.00083179085,-0.0006728423,0.0038292948,0.035677228,0.008860559,0.009692823,-0.013529075,0.008540081,0.015057332,-0.0002909741,-0.025307471,-0.013534146,0.02210829,0.030308606,0.027495816,0.019896796,0.006507172,0.0067909863,0.01986767,0.0068680365,-0.022637023,-0.020140007,0.029559687,-0.017933298,0.022548113,0.01956634,0.0075818994,-0.017518371,0.0144745745,-0.03258391,-0.032386906,0.022622582,0.013317079,-0.006754176,-0.006660057,-0.026763903,0.011214148,-0.018935598,0.012259352,-0.027857851,0.027558552,-0.03926574,-0.032952193,0.017630206,-0.0018853502,-0.01385162,-0.022338292,0.03268209,-0.010405727,0.0033121225,0.025149098,-0.043683175,-0.04135464,-0.004610533,-0.0024025235,0.018001433,0.021938592,-0.0030043146,-0.002770071,0.025618171,0.011203818,0.010097032,-0.049648393,0.0013150724,-0.0021331958,0.02567777
9,-0.018397015,-0.037217207,-0.017578965,0.046762805,-0.023435125,-0.017348649,0.012074602,-0.017146414,0.048802223,-0.03491269,-0.0003186636,0.022382151,-0.0031674376,0.03285367,0.017780818,0.041508276,0.021933101,0.0021371045,-0.014994337,-0.0119044455,0.016317472,-0.02210748,0.0025435642,-0.02943116,-0.015188742,-0.03719921,0.01701214,0.009413452,0.02742341,0.015568737,0.013631511,0.022340018,0.04040841,0.014204636,-0.024488324,0.008749826,-0.028161552,-0.025360283,0.00034356973,-0.043832462,0.023660708,-0.015100273,-0.0013459813,-0.018501343,-0.007382136,-0.0073012463,-0.030038206,-0.04804356,-0.013011825,0.029829726,-0.025488963,-0.10694359,0.045662098,-0.00095588906,0.010306254,-0.010885989,0.027951421,-0.016431667,-0.011679361,-0.033828694,0.0074991575,0.031844374,0.019966075,-0.045934107,-0.015028933,-0.007113756,0.014146105,0.016958842,0.033121716,0.009744106,0.001688702,0.0074321274,0.01955496,0.00092160614,-0.010389443,0.032474898,-0.020584006,-0.048861947,-0.010996602,0.0017372014,-0.0064904364,0.00094008533,0.00849083,-0.05513639,0.033307455,0.004651094,0.043162983,0.0007093005,0.019129299,-0.022000797,-0.004705278,-0.011208558,0.024528751,-0.030317806,0.030838856,-0.018885853,0.014535871,0.029349651,0.013543762,-0.01197972,-0.03323686,0.013201296,-0.040874902,0.02648076,-0.010473415,-0.029425995,0.018879963,-0.005039214,0.0368209,-0.017188642,0.022052864,-0.021244774,0.039607946,0.013950725,0.008124531,-0.08621197,0.005347882,-0.001887912,-0.02320057,0.033036355,-0.016386662,-0.055083573,-0.007150483,0.0277283,-0.033803284,-0.038178843,-0.007994454,0.034990087
10,0.005222609,0.013963449,0.027877636,0.02590577,-0.036024474,-0.0013905262,0.006129621,-0.0072113364,-0.010213445,-0.044650584,-0.021535227,0.0057786196,-0.0040013567,-0.03035866,0.004453905,0.008996044,0.002206897,0.016278572,-0.008824775,0.016819265,0.039939154,-0.0324965,0.009422583,-0.042490225,-0.013250007,0.004886158,-0.020770654,0.0070262863,-0.03154289,0.013881174,-0.0146265915,-0.009958968,-0.0009582026,-0.057128772,-0.011822366,0.023183208,0.015455053,-0.0111365635,0.00203795,-0.02584873,-0.017345196,-0.00951306,-0.018103397,0.016781583,-0.0022995411,0.0064522787,0.013088336,-0.02398999,-0.025001409,0.009666833,-0.016520098,0.0071964995,0.02953523,0.010944565,0.006195266,-0.01747598,-0.0053465473,0.005615353,0.017189566,-0.037428543,0.030411666,-0.0039511872,-0.023530295,-0.0022698238,0.010156739,0.014908497,-0.04512556,0.005135526,0.0012465084,-0.011185597,-0.0006913732,-0.0034936203,0.02186282,-0.0007814942,-0.0021832248,-0.026045432,-0.027830275,-0.04132312,0.0021507475,-0.06191069,-0.017221963,-0.0377729,-0.004289514,0.020319737,-0.0012072573,-0.028129933,0.0087377755,0.023195358,-0.037740573,-0.002768234,0.007676789,-0.004481673,0.009705024,0.0113730235,0.009429852,0.01432619,-0.020139953,0.004998305,0.018518396,0.0012806642,-0.0070762043,-0.017167661,-0.021905648,0.0069568017,0.024925392,-0.024095463,0.009467809,-0.02366929,0.029262818,0.009565641,0.021856783,0.012103953,0.0012072973,-0.011861407,0.016846906,-0.0022224886,0.012143401,0.0012670838,0.0017246549,-0.014112422,0.0019325288,-0.0071314764,-0.012658386,0.0045960336,0.022628663,-0.010348707,-0.025977453,0.008889235
11,0.04630844,0.084308624,0.030498447,0.010324145,-0.02776989,-0.0026576573,-0.016407311,-0.014122889,0.020649442,-0.08700606,-0.06988064,-0.040727586,0.006367473,0.034492485,0.016757982,0.04136831,0.022376161,-0.01064205,0.0016054467,0.03904288,0.03675262,0.00481866,-0.04188079,0.0094599025,0.0126456935,-0.0015997349,0.009760455,0.022711832,0.0036336943,0.0190699,0.021859258,-0.004162868,0.028007336,0.03770677,-0.009533898,0.009791461,-0.0075666737,0.00034729173,0.0071170744,0.0042706667,0.03006887,-0.005145572,0.00020285549,0.056578834,0.010308303,-0.019252868,0.014673414,0.023499385,0.02281954,0.002896145,0.030004535,0.118706785,-0.032546867,0.009939742,-0.02600616,0.022815144,0.015512074,0.03912291,0.03957486,-0.0070382142,-0.03874476,-0.02803659,0.015193093,-0.01564286,-0.04197724,0.0030612773,0.018546248,0.019236384,0.002059505,-0.010274028,-0.022563484,0.024740677,0.014951185,0.006153731,-0.025300033,-0.028407803,0.01542576,0.016867355,-0.013826714,-0.0027376453,-0.06380704,0.020170037,-0.0028134896,0.034927223,0.015792565,-0.004037648,0.032601025,0.0018999233,-0.011819121,-0.02223688,0.05447116,0.025021859,0.028763738,0.015873978,-0.007041082,0.075873815,-0.028841121,0.010736094,0.012194051,-0.0037312263,-0.020092145,0.011213936,-0.03983332,-0.040875565,-0.010894788,-1.993351e-05,-0.001561133,0.017282877,-0.044740275,0.002531758,-0.03561703,-0.021131406,-0.0069370135,0.01272945,-0.00487995,0.029514024,0.05150224,0.007832866,0.05868415,-0.032680757,0.0074452977,-0.020638552,-0.030642983,-0.06441435,0.015527458,-0.034913152,-0.0040058605,-0.015020872
12,-0.0044772513,0.0020544387,0.014094465,0.0074543306,-0.0013554125,0.00043580984,-0.010453974,-0.0014906563,0.010535691,0.009045234,0.012269402,0.012247009,-0.002077018,0.015896853,-0.0061399816,0.003702757,-0.004947534,-0.027277753,0.0054235803,-0.010459906,-0.018101333,0.014305526,0.011374929,0.0041710706,-0.005273774,0.0014395766,0.0011691309,-0.01004055,0.019457998,-0.007774745,0.018222684,-0.0025630244,-0.0073582223,-0.010189889,0.014537999,-0.017661609,-0.0024670844,-0.011261233,-0.009324437,-0.007868675,0.001143858,0.030055838,-0.0005029282,-0.0073547056,0.011396003,-0.015599044,-0.013309124,0.009320143,0.011314831,-0.0098058395,0.003438147,-0.0009473219,0.0070704226,-0.008101214,0.00086432457,0.011277384,-0.011675691,0.0019302998,0.00020630489,0.014763265,-0.009534568,-0.0057121757,-0.014975198,0.002256958,-0.0031872357,-0.011484818,0.012136002,-0.008644134,0.0009845402,-0.02259408,0.01611069,-0.0032599848,-0.011702236,0.011788307,-0.002710203,0.010384483,0.018909074,0.010855853,-0.005633807,0.004921368,0.01994074,0.020952264,-0.005497995,0.011706882,-0.01304858,0.009326121,0.0026922133,0.003784893,0.019205978,-0.0043863165,0.0009127154,0.016334297,-0.010285353,-0.012496894,0.007439772,0.0019036346,0.001779204,0.016383085,-0.0012714358,0.0028177374,0.016146094,-0.00929802,0.004336022,-0.004427861,-0.013243319,0.013981988,-0.013770313,0.015637314,0.005870293,-0.0048599485,-0.021076294,0.0074847927,0.019956669,-0.0061485814,0.019310307,0.004068176,-0.005172742,-0.004894067,0.0009054332,-0.00033685545,0.009534497,0.0030532673,0.020486863,-0.014905443,-0.0032267605,0.01839705,0.014748013,0.015721502
13,0.0072438754,0.011495547,-0.013105573,0.0021654218,-0.01955003,-0.004287863,0.010647399,-0.013396489,0.0057686632,-0.010817811,0.011657811,0.0021005091,-0.002781845,-0.026056547,0.004958204,0.0059923,0.01168445,-0.0024573402,0.021381373,0.0031919964,0.014784593,-0.03740639,0.012617297,-0.021057244,-0.020327194,-0.015173838,-0.008075728,0.007684609,0.008782532,6.998897e-05,-0.025076102,-0.024067549,0.008726502,-0.03389342,-0.00502586,-0.0008741239,-0.0051075947,0.007517292,0.018057153,-0.018233469,-0.009471632,0.01467667,-0.0053581954,0.0011133226,0.010757938,-0.0527993,0.0013951517,-0.013525143,-0.020089423,0.023220403,0.017231556,0.006847173,0.0017018971,0.012411751,0.0046858513,0.0048535177,0.005595336,0.012833661,0.007362382,-0.01486842,0.019443775,-0.007916606,-0.015287935,-0.030207777,-0.010502234,0.0102637345,-0.025903847,-0.0032667124,-0.005116606,0.006513435,0.011648094,-0.0026327586,-0.0064568752,-0.013884038,-0.022044787,-0.015997441,-0.0016643396,-0.018114166,0.0033731435,0.0014861315,0.0101330355,0.01090684,0.0018976846,0.02297474,0.0141919805,0.0022139314,0.016107816,0.020778188,-0.025746172,0.01005807,0.013164319,0.00011907616,0.022729125,-0.0037680175,0.005016148,-0.0061375266,-0.012866003,-0.005718007,0.0051939846,0.0036827617,0.017249223,-0.02089995,-0.022987528,-0.019231262,-0.0006030785,-0.0146577535,-0.019429713,-0.0024558178,-0.013763235,0.024097487,0.0035683173,0.010517065,0.0114233885,-0.021285027,0.00045469732,-0.016428787,0.0071131135,-0.024011191,0.0033627534,-0.02977373,-0.0059187617,-0.006469137,-0.017399034,0.024278147,0.01435162,-0.010315207,0.028717274,0.013718813
14,0.002755878,-0.0029033588,-0.052688166,-0.009099285,-0.041843012,0.0004855116,-0.0055046706,0.0059823794,0.01444976,-0.0014958783,0.006982547,-0.0048223473,-0.019354705,0.013511801,-0.014500925,0.0117965555,-0.0020287556,-0.03944691,0.010977966,-0.019625112,-0.020560896,0.036135413,0.00073836505,0.019706186,-0.0094776675,-0.005862448,-0.009476448,-0.007085737,0.0076682097,-0.008548533,0.03721394,-0.06355653,0.00632048,-0.023457017,0.0017969985,-0.012714255,-0.0035540657,-0.010485886,0.0014008136,0.008715629,0.016993955,0.013756573,0.009359405,-0.016656078,-0.02438907,0.009035899,-0.0039049855,-0.0293389,-0.007152734,0.016509773,0.01569943,-0.02637739,-0.05657291,-0.005642137,-0.05038913,-0.015582675,-0.005370845,0.0068517653,-0.032865625,0.02927233,-0.016790545,-0.00559374,0.011166419,-0.040939946,-0.018017324,-0.015052166,0.0046093157,0.0035730205,-0.013313175,0.029126246,-0.00075676764,-0.014990752,0.0030378401,-0.014622555,-0.012021403,-0.037196472,-0.011182876,-0.010734309,-0.011689494,0.0009510439,-0.011308661,0.0039381622,0.00048877375,-0.011283748,-0.025922637,-0.00668678,0.0027867835,0.01046742,-0.006254458,-0.0035196145,0.0016548745,0.025218576,-0.003622837,0.0012947293,-0.0037907558,-0.02634989,0.014201768,0.031790834,-0.008107237,-0.008132159,-0.014987885,-0.031184897,-0.026116865,0.00347386,-0.021094155,0.027858866,0.0011587888,-0.014615157,0.0018145697,-0.008897657,-0.0010494773,-0.006738189,-0.009433536,0.014116232,-0.0094474,0.014969386,0.021601435,0.007029218,0.0068267165,-0.006414891,-0.039289378,0.0053780717,-0.030823758,0.017804023,-0.0022354177,-0.036954246,-0.037114847,-0.0010919524
15,0.005398766,-0.007818988,-0.006795244,-0.031095896,-0.026331237,0.006740868,0.0032980852,-0.023258436,0.026630126,-0.008744077,-0.017407933,0.010927396,0.0060511064,0.010625774,-0.015870495,0.013809859,0.0229704,0.008513764,-0.01702297,-0.0112908995,0.0133393295,-0.0136501,-0.004979755,0.003204372,0.002181296,-0.018240426,-0.0055314037,0.012068813,0.00023647738,0.0028250525,0.040323526,-0.033633742,0.049190905,0.012403013,-0.009063322,-0.048215155,-0.022570612,0.0038331887,0.006271649,-0.007271286,-0.026407372,0.0074312584,-0.009392057,0.014437,0.02604081,-0.011196253,-0.018308299,-0.009340609,-0.041779954,0.009271987,-0.013335788,-0.03599576,0.0066813957,-0.0010848237,0.02141107,0.020398911,0.011053647,0.012148636,0.0342828,0.01118194,-0.044345472,-0.073078975,-0.027469598,-0.012964174,0.00031219513,0.006115431,-0.0069589377,-0.013868426,0.05310158,0.004883405,0.005880949,0.0025019054,-0.025198104,0.016538931,-0.008146422,-0.024617078,-0.012264632,0.017814621,-0.013490577,-0.02301651,-0.008713512,-0.007073061,-0.010226293,-0.018960899,0.003878373,-0.011787985,0.016846795,-0.014544215,-0.012445685,-0.005146547,0.0043395977,-0.026621288,0.010195823,-0.018840434,-0.008048325,0.0069371657,0.026930064,-0.022365272,0.01292942,-0.013048933,0.0069893133,0.005086413,-0.031862047,0.023102662,-0.016842032,0.006838565,-0.026867008,0.02330553,0.034942202,-0.027368939,-0.002812197,-0.008066937,0.0122552095,-0.023046644,-0.018921588,-0.036854967,-0.0047728005,-0.0191929,-0.0045079812,0.0030974995,0.008575141,-0.006749086,-0.02476514,0.026468433,0.016714258,0.0109584,-0.019168666,0.011413707
16,0.020981343,0.021186044,0.006404511,0.0015551394,-0.008271265,-0.0048481002,0.005649778,-0.001165951,0.013505039,0.02855801,0.017297313,0.016742252,0.01583615,-0.0031436796,0.008749486,0.011431099,0.0113223335,-0.008219009,-0.022744793,0.01292875,-0.037388813,-0.018511936,0.0051299636,0.0068321615,-0.016655238,-0.016821822,-0.015234891,0.006925857,0.015477941,-0.0062605,-0.015508844,-0.008501636,-0.011977775,-0.011639479,-0.0056000436,-0.004107767,0.005770701,0.003448949,-0.011198774,-0.024532668,-0.026436947,0.0120551735,0.005261853,0.012262156,-0.001032205,-0.002018215,0.0077981553,-0.0033029814,-0.011257719,-0.0060333153,-0.013901484,0.01135802,0.01197341,-0.010347681,0.016173748,-0.004837372,-0.0096094,0.007875549,-0.012520966,-0.015083464,-0.0034291286,-0.0006361674,-0.032192443,0.030893547,0.017717432,-0.019831885,-0.02673536,-0.0045723603,-0.0020524617,0.00707258,-0.0016386264,-0.014846409,-0.021517618,-0.007848407,-0.015745636,-0.0026708848,-0.00035965064,0.007855072,-0.013521054,-0.0071121543,0.020630334,0.006505609,0.0031137336,0.014505734,0.005698569,0.0050833514,-0.013561926,-0.020136721,0.00011938621,0.0012860743,0.0036642496,-0.0064887498,0.0015201776,-0.01608641,-0.0028391874,0.04765598,0.016118983,-0.00026354525,-0.003988421,-0.017199686,0.010247857,0.007787858,0.0059332727,0.01248854,0.011388373,-0.011808813,0.009530034,-0.0178104,0.008781066,-0.010887625,-0.00802229,0.015614577,0.020824129,-0.017997127,0.009924324,0.0027002746,-0.026971534,-0.011344337,-0.002196868,-0.004458922,-0.014703366,0.0005158153,-0.005938672,0.003071062,-0.0020143052,0.029419689,-0.0019749636,-0.0065434165
17,0.003225158,0.009187855,0.010478782,0.020202346,0.0016938087,0.0032538525,0.008166037,0.0077324826,0.012665004,-0.004286634,-0.006012874,0.027226683,0.0026066748,0.02149901,0.018798256,-0.013303274,-0.018720971,-0.00839943,-0.00039905013,0.033862296,-0.011413753,-0.0051735267,0.0049240584,-0.004130639,-0.022147803,0.0049078283,0.020417085,-0.011666083,0.016758159,-0.008819432,0.017507387,0.013464605,-0.0106754955,-0.0044130823,0.0062324675,0.028634394,0.03092785,0.0035719166,-0.0109072635,-0.011240055,0.010351922,-0.0023667694,-0.0065120207,0.0066856532,-0.010612714,0.008111859,-0.0050534424,-0.00039316365,0.020982442,0.0015063086,-0.01615504,0.0375402,0.02024007,-0.01513612,0.012807149,-0.001199037,-0.0071239998,0.0008307887,-0.004697633,-0.012456096,0.007976281,-0.03542517,0.012884346,0.025740126,0.018950531,-0.01277012,-0.014297642,-0.005545671,-0.0022216642,0.021683997,0.009390221,0.0020138489,0.018290665,0.0048014857,0.008845083,0.015312367,0.018507067,0.011089686,0.009496376,0.0318333,0.0051928163,0.024548385,-0.002155183,-0.019661233,0.030872755,0.020376917,-0.022330292,-0.019686066,0.027506921,0.0153340325,-0.013901339,-0.01899615,-0.0061052307,-0.007909798,0.012665332,0.02641641,0.017057894,0.018880475,-0.013127763,0.005868809,0.0049671945,-0.010748541,0.0074603846,-0.00023238645,0.019986566,-0.0029822032,0.027006973,-0.0153462915,0.008814195,-0.014305559,0.008845449,0.001690178,0.0150028365,0.017535724,0.00024156024,0.0028234245,0.02630356,-0.011385788,-0.015189515,0.013612769,0.013447014,0.0017831455,-0.0027769844,0.008265627,-0.0056352457,0.03417891,-0.0071192747,0.018846052
18,0.021310007,0.0037252514,-0.0031823006,-0.0040571783,-0.018718287,0.013043085,-0.013673699,-0.003573588,0.01700139,-0.018157255,0.0005073326,-0.022637825,0.023077693,-0.000790319,0.0016755773,0.0024212254,0.004776524,0.003784598,-0.005145059,0.004489732,-0.00020640739,0.0012647049,0.008428814,0.007817819,-0.015016808,-0.0014949184,-0.0098104,-0.009971678,-0.010114058,0.004306767,0.029194515,-0.0037225212,0.02202479,-0.02203042,-0.0183545,0.01682493,0.045289762,0.009890861,0.009574285,-0.009259182,-0.015214942,-0.011656896,0.010629436,0.009152797,-0.024476545,0.023357358,-0.0020797001,0.0033085973,-0.01594316,-0.011972181,0.0038152405,0.10191702,0.022633018,0.002837607,0.002138126,-0.0043965867,0.0077102147,-0.006822938,-0.0062348144,-0.0014144779,0.020012824,0.013433205,0.0065148016,0.031487193,0.009053102,0.0007410691,-0.012982297,-0.0009859297,0.00045010986,0.0058337823,-0.006534011,0.00061200716,-0.016288243,-0.013006527,0.0010097844,-0.03043008,0.0012514925,0.027329575,0.04984687,-0.012652754,0.0069150296,-0.008164071,-0.020685103,0.011509954,0.0009047404,-0.019274283,-0.007069786,-0.008938792,-0.017692998,0.04227306,-0.0036653434,-0.027836658,-0.021429999,-0.008764204,0.015426058,0.0043109735,0.010285912,-6.5460904e-06,-0.0023832473,-0.003513213,-0.008362437,0.0054107495,0.002840178,-0.013168512,0.025443349,0.017550817,-0.0041057086,-0.018534921,-0.014243509,0.0011459352,-0.009654673,0.0053270496,-0.0009919491,0.022113232,-0.014573667,0.07263787,-0.0017085661,-0.027845457,-0.000127085,0.008639963,-0.008741435,0.0032737942,-0.0010668801,-0.018560525,-0.029493755,-0.0033055332,-0.024182905,0.012604668
19,-0.020292087,-0.013688299,0.033130344,-0.023688942,-0.008846631,-0.0036648898,0.049397778,-0.014069109,0.019377282,0.0015838156,0.013010263,0.015117308,-0.0058105127,0.026036257,-0.010852598,0.006007288,0.025066247,0.0002548964,-0.026112292,-0.0224183,0.0014155547,0.028164404,-0.0070522083,0.045339346,0.025938636,-0.016006278,-0.018476294,0.025739523,0.0010910262,0.014672706,0.011462377,-0.029340021,0.06562182,0.05695323,0.0012585461,-0.02906474,-0.042147428,0.014223767,-0.010433506,-0.023885526,-0.012947845,0.009793735,0.009595898,0.010222178,0.04055746,-0.0040570158,-0.019782884,0.00033672823,0.010650387,-0.0046045887,-0.0069881817,-0.019489456,-0.0064219907,-0.022893414,0.0052987766,0.062486887,0.023453305,-0.012903605,0.010833964,0.013836554,-0.03934145,-0.028871922,-0.012827503,-0.017527403,0.0024183844,-0.0060363635,0.039612122,0.006142512,0.06510968,0.008730937,0.008406191,0.029257918,-0.031055097,-0.00080612104,-0.019207463,-0.021106863,0.019394085,0.047055315,0.00057587714,-0.015863221,0.0046854354,0.02747216,0.016007777,-0.014273296,0.00031031622,0.0039887703,0.010103543,-0.020383794,0.0025439542,-0.032476272,-0.009766476,-0.017000148,0.004968135,-0.043060023,0.008201197,0.014566048,0.010265864,-0.012609996,-0.016999291,-0.0030016429,0.024858253,0.032493137,0.01567551,0.024327183,-0.037386794,0.015876258,0.008051136,0.04247789,0.051123902,-0.00075656275,0.027340278,0.007792846,0.018374473,-0.0020894515,-0.012116774,-0.0081384,-0.030935176,0.011917219,-0.0031220838,0.003831315,0.014233131,-0.006483757,0.0012969733,-0.013593962,-0.0018993194,-0.008853322,0.00040809592,-0.001378189
20,-0.03182699,-0.014289279,-0.011449805,0.0029446213,0.004605675,0.020278864,-0.021772537,-0.012886249,0.019834857,-0.01241054,-0.01881385,-0.009928704,0.0026954168,-0.004053709,-0.0034028492,0.021128224,0.02115007,0.0064470456,-0.0027262368,-0.00024187246,-0.015683904,0.003153027,-0.015047716,0.003155399,-0.013509959,0.0020714747,-9.6715085e-05,0.009789711,0.00033294747,0.020259654,0.0042671403,0.0014395444,0.022335647,-0.016429156,-0.007155948,0.0068185497,-0.010938089,0.017186796,0.0007869755,0.0046009505,0.014086638,0.007878379,-0.01576215,-0.0052281464,-0.018348927,-0.011759423,0.011894889,0.0028509714,0.00018254296,0.017022535,-0.008815754,0.011533776,-0.0078146905,0.014547873,-0.017721508,-0.0127758095,0.014087234,0.0028660651,-0.017017918,0.006119673,-0.020743094,-0.002822455,0.0031611926,0.0010027,-0.0132933445,0.0049651614,-0.014409101,0.013160099,0.0102103595,0.010218684,-0.009181484,0.003314849,0.010538307,-0.024201035,-0.008767693,0.011268593,-0.010690147,0.003310418,0.022102006,-0.00322396,-0.012956159,-0.0019756975,0.0137517415,9.158579e-05,0.006977724,-0.0022628612,0.021176703,0.003743922,-0.010830752,-0.0038934583,0.0028450894,0.0035125483,-0.008629996,-0.02077454,-0.014907211,-0.0155853,0.0046111913,0.0049489955,0.017882677,0.0071022883,0.0002317687,0.0045569525,-0.007875917,-0.010595429,-0.009464514,0.012896887,-0.015623345,-0.0128166685,-0.019250399,0.011326062,-0.024038987,-0.004208246,-0.017421264,0.008547622,0.010891829,0.004877832,-0.011162256,-0.0012107214,0.00055567373,-0.009028964,-0.010065661,0.005580693,-0.012375287,0.013599712,-0.009400812,-0.007406867,-0.010480013,-0.015615965
21,-0.024353087,0.021446606,0.005451626,-0.005464053,0.017411731,-0.011834669,0.010942905,0.007679095,0.024380818,-0.0054032556,-0.001953287,0.009248216,-0.0090638995,0.038596176,-0.0061728857,0.011675125,0.012039996,0.0022545257,0.0054308996,-0.0076713357,0.006004903,0.009536146,0.0035865807,0.018710893,0.0073906146,0.02157787,0.023922123,0.012799559,0.011603861,0.009288696,-0.005029863,-0.0009390013,0.02123124,0.020367874,0.013953427,-0.023977706,-0.022204699,0.0022174763,-0.0064870683,0.0044743107,0.018590847,-0.0038344364,-0.009338771,0.018304717,0.016528195,-0.0044162082,0.00057002885,-0.0049156654,0.017668363,0.008126554,0.009332638,-0.024771892,0.008918083,0.011778633,-0.00034089445,0.036783047,0.006471714,0.0067353775,0.013401191,0.016864663,-0.009058773,0.009999646,0.007543501,-0.008628453,0.0029871408,0.0055817817,0.014822121,-0.007763628,0.027336014,0.012195128,0.012630018,0.007085001,-0.0026795594,0.011158105,0.022144862,0.00983174,0.025396097,0.02319053,-0.0170804,0.0028350346,-0.017262256,0.020280693,0.0078716865,-0.004611631,0.0005557547,-0.01495139,-0.006204367,-0.0055757747,0.013572747,-0.00948463,0.007154926,0.015466794,-0.010386437,-0.0024596895,-0.00021394204,0.017697914,-0.009711582,-0.014945594,0.005598849,0.02060814,0.00540761,-0.007504978,0.017188847,0.009225221,-0.0054635783,0.0131205255,-0.007497668,0.020921137,0.005198401,0.006512135,-0.017147228,0.0025114277,-0.008058253,-0.011480891,0.0053126095,-0.016906526,-0.01081517,0.015290959,0.01456214,0.01470159,0.030937891,0.009103512,0.009913803,-0.0077217733,0.0028844168,-0.0016900636,0.0014936671,-0.004939706
22,-0.022980578,0.0066084475,0.017190974,0.01954398,-0.02373539,-0.00861969,-0.009659716,-0.0029822849,0.015854457,-0.026236948,-0.01650132,0.030390954,-0.012293265,0.00057840795,0.0033498139,-0.0024712742,-0.0032224446,-0.009068141,-0.0098667685,0.021342667,-0.0049407193,-0.010783926,0.010524707,-0.018770773,-0.02996712,-0.003382121,0.0065040933,-0.0062212325,-0.009810513,-0.0056051025,0.008723644,0.0033959998,-0.008316511,-0.031720575,-0.0084656635,0.03177848,-0.0073569864,-0.023364801,-0.0019138246,-0.01312123,-0.016401771,0.013879482,-0.00626506,0.0066028847,0.01691125,-0.010600705,0.002594929,-0.018941069,-0.017646182,0.0015630435,-0.0076174005,-0.04512414,-0.0033692834,-0.017834622,-0.010538063,0.018617978,-0.0074883476,-0.003145984,0.029699553,-0.023633847,0.017821107,-0.02128532,-0.024092598,-0.014100059,-0.0031298285,-0.009101708,-0.013634553,-0.0016792982,0.017565412,0.011224757,0.006864483,-0.007874546,-0.00016819323,0.0016691665,-0.005759704,0.010457422,-0.0042985175,0.013745308,-0.0072996393,0.028123936,-0.010641292,0.012457945,-0.009477066,0.03173026,-0.00703035,0.01422116,-0.0038596394,-0.0067655393,0.039971724,-0.041129585,-0.004983253,-0.011566178,-0.013724212,-0.02138765,-0.013611438,0.041919574,-0.013977866,-0.017272051,-0.006122525,-0.0022654026,-0.030618034,-0.020743959,-0.009589948,0.0027757047,-0.004064824,-0.019501425,0.011554803,0.002349106,0.02411217,-0.009336861,0.010980805,-0.009051453,0.012807279,0.025804065,-0.00011347499,-0.010347428,0.0344498,-0.0019261308,-0.01234905,-0.031857505,0.009515111,-0.0050119013,0.0006688663,-0.007850616,0.011759575,0.030190546,-0.005815098,0.042693675
23,-0.020189553,0.0077960202,0.00091252406,-0.027232286,-0.033278544,0.008330716,-0.0012871836,-0.030255534,0.022282181,-0.0099084275,-0.005431566,0.0030697254,-0.015899654,-0.021333609,-0.005537525,0.02470575,0.024567863,0.028813478,-0.029656941,-0.03183337,0.02382474,-0.020584513,-0.041349426,-0.007755291,-0.016909884,-0.01685185,-0.0045482554,0.008608538,-0.009828252,0.016919171,-0.01500208,-0.03512112,-0.01289141,-0.018191855,-0.01424279,-0.026872281,-4.735609e-05,0.0043744748,-0.0028951906,-0.03361725,-0.022881031,-0.044475917,-0.07521356,0.010608785,-0.008041491,-0.011899762,0.016203607,-0.026838217,-0.022721093,0.020276185,0.03471992,-0.03675086,-0.014610541,0.030992536,-0.0044515203,-0.026000092,-0.0034747967,0.032242816,-0.032398917,-0.0019850126,-0.01570975,0.005899203,-0.004002486,-0.00886308,-0.009677021,0.042053513,-0.036782004,0.0057884525,-0.011442227,0.004836831,-0.012701082,0.010350325,-0.02287803,-0.020123538,-0.013687199,-0.024355488,-0.00938022,-0.027376786,-0.01758077,-0.0051728864,-0.010554255,-0.014632605,-0.018952243,-0.0114708,0.0025913483,0.0144716585,0.0043151467,0.010231284,-0.0029675905,-0.012374624,0.014653069,-0.019362332,-0.020492489,0.036602058,-0.031841394,-0.013675973,-0.0028103713,-0.009393582,0.032520466,-0.029477566,-0.00440766,0.00035990257,-0.012104967,0.009330103,-0.018592877,-0.002678836,-0.0157858,-0.022966601,0.020660505,0.01084703,-0.005835344,-0.013566885,-0.035170697,-0.020002807,-0.037364762,-0.0023692762,0.0042832186,-0.013209842,0.027744811,-0.0019783378,-0.012483487,-0.022226421,-0.02102018,-0.02075971,-0.00999961,-0.026173618,-0.01928179,-0.014480122
24,-0.017548388,0.012340966,-0.034092866,-0.004438274,-0.01165151,-0.008740862,-0.0065670777,-0.02151648,0.0048759067,0.00046677765,-0.02112971,-0.014196673,-0.0079986695,0.020033108,-0.0100166155,0.011152947,-0.0024647021,0.008522649,0.009262759,-0.020698996,0.006553655,-0.0040007625,-0.02036749,-0.0058829444,-0.0071822875,-0.015543071,-0.007183706,0.01027656,-0.00728831,-0.0023700919,-0.004162145,-0.0057871207,0.0044018347,0.0024165905,-0.016283207,-0.013052334,-0.03093871,-0.012293549,-0.00363661,-0.023596648,0.0051174136,-0.02110886,-0.02596641,0.017915862,-0.002690851,-0.00946489,0.0020487406,-0.011313278,-0.006513857,0.008088592,0.00079724466,-0.026837045,-0.023832522,0.0069578723,-0.022237722,-0.014075196,0.0017609947,0.017304853,-0.020691875,-0.011609556,-0.018177276,0.0041631847,0.00051498733,-0.029092573,-0.022699742,0.0024993874,-0.003179205,0.002215933,-0.0013837531,0.002285735,-0.0097079165,0.012539215,-0.017592395,-0.00847595,-0.013276834,0.0051626,-0.020131888,-0.010529929,-0.0054478953,0.018149205,-0.020205824,0.0011706344,-0.030617112,-0.0138008455,-0.019399732,-0.007833353,0.0068700905,0.008654942,-0.0044992855,0.002596779,0.018656472,-0.009851236,0.0007244459,0.021973066,-0.030078163,0.003015535,-0.00350204,-0.02405495,0.0034506076,-0.024277488,-0.007767778,-0.026199007,-0.022115767,0.00077044603,-0.026319241,-0.0041098474,-0.014769676,0.008274468,-0.0057260757,-0.0011400625,-0.022446927,-0.011180053,-0.029598536,-0.0063965446,-0.008337477,0.0022266454,0.00015576252,-0.0018605018,0.012058514,0.00701901,-0.027728105,-0.022779746,-0.012895114,-0.011015085,-0.0035347792,-0.023510043,-0.017532168,-0.017001817
25,0.005265341,0.001235997,0.0037934345,-0.023124002,-0.015861848,0.008228959,-0.0063465624,0.005169112,0.02532587,-0.00384498,-0.00820624,0.0012640762,-0.0154478345,0.023485368,-0.029779293,0.011381861,0.0073045082,-0.014616554,0.0050123148,-0.0013403505,-0.09498943,-0.0036688892,0.0048209485,0.019518329,0.016970765,0.00093735894,-0.036965113,0.018563366,-0.04056799,0.0038962213,0.005970029,-0.027084598,-0.015953744,0.012111081,-0.00032343017,-0.043419905,-0.040236484,-0.011512392,0.028253583,0.013280046,0.022901932,0.0016259166,-0.0034007279,-0.01360521,0.0065376456,-0.039201472,-0.0069338325,-0.027933173,0.018449854,0.0016717718,0.015737956,0.0029360608,-0.029357757,-0.004501161,-0.003949403,0.0028752412,-0.0027569556,-0.008269468,0.0022675486,0.00979868,-0.03992584,-0.0064360425,-0.014933385,-0.0166657,-0.03387973,0.0025069562,0.0035379834,0.0007505389,-0.012703349,0.009414293,-0.010886863,-0.034999475,-0.020836173,-0.020212015,-0.021730492,0.008380066,-0.0031921847,0.010569062,-0.0010212465,0.018187659,-0.004525415,-0.035106227,0.009370381,0.024401762,-0.009307071,-0.008660798,-0.039473545,0.0043357615,0.0052567376,-0.02234533,-0.011170234,-0.04767178,-0.014569686,0.0054777074,-0.026408715,0.009828988,0.023701621,-0.06979734,0.010900408,0.0048733624,0.019746093,0.023621174,-0.037836656,-0.01285827,-0.023126313,0.003172946,-0.02656011,0.027353382,-0.013717772,-0.009440194,0.015270218,-0.04102973,-0.0075388867,-0.004736529,0.003576663,-0.00710759,0.019715782,-0.011555431,0.0014988437,-0.014805499,-0.022548923,-0.01485939,-0.02993409,0.017240185,0.029010357,-0.024178317,0.0031293673,-0.011223789
26,0.008626875,-0.005323247,0.004707007,-0.0008907894,-0.0038310688,-0.0065095075,0.0010233155,-0.016702719,-0.010565095,-0.00978688,-0.015440331,-0.011337634,0.009854836,-2.7376798e-05,0.007841567,-0.0024506194,-0.012255188,-0.0023624606,0.013989974,0.0066053695,-0.0012593475,-0.002910811,-0.01603298,0.004909753,-0.00021282527,-0.0006516577,-0.021126678,0.0027468747,-0.0042934925,-0.0066033024,-0.02737413,-0.0065219016,-0.0021271775,-0.012675664,-0.0071570314,0.0022982256,0.0022797484,0.0058706515,0.00017704292,0.0052461354,0.016955102,-0.0001735807,-0.005656173,-0.005303903,0.0051389984,-0.011777164,0.0010896749,-0.005213661,0.005588902,-0.0027035233,-0.004549374,0.018172894,-0.0076637063,-0.007705698,0.0068832603,0.0030875062,-0.0005715153,-0.00022328102,-0.005709406,0.00855141,-0.022728255,-0.011680948,0.005924797,0.008390613,-0.018122628,-0.00043337466,0.015021882,0.013053742,0.0052391156,-0.008232951,-0.003437098,0.003357063,0.003410548,-0.0022078797,-0.0010979779,-0.0012742884,-0.00093219464,0.012015636,0.005916625,-0.0115255965,0.009817617,0.005756735,-0.011986879,0.01653331,-0.010586191,-0.009085216,0.009195416,-0.003197694,-0.012829254,-0.0037261143,0.00458004,0.003816749,0.0070450567,-0.0039564925,-0.0068819555,0.0025822914,0.006172398,-0.020386862,-0.00043434722,-0.021631194,0.016148925,0.0010669618,-0.014806774,-0.0065346723,-0.0034816533,0.004257646,-0.012233765,0.002884459,-0.005480952,0.007200635,-0.0024732174,-0.0032164014,-0.019252893,-0.013457796,-0.008062757,0.012447018,-0.014963565,-0.023480684,-0.0049680267,-0.011120255,-0.011898314,-0.0074483594,-0.00040690132,0.020427547,-0.0022035383,-0.005512656,0.004377115,-0.023470068
27,0.01697311,0.021155123,0.026879638,0.0021477267,-0.013135702,0.0100767175,0.040571738,-0.01892824,-0.005960338,-0.017008182,-0.015715074,0.0024237682,0.01398935,0.008396777,0.025344744,-0.015298613,0.0051522306,-0.005347745,-0.0033028703,0.010040637,0.0071940706,0.0015457665,0.016806876,-0.024748186,-0.006498427,-0.012958741,0.00094814284,0.00048883265,0.007237715,0.00546068,0.0010146926,-0.0057842704,0.016980395,0.02295555,-0.019063529,-0.010461963,0.0080031175,0.0049526673,0.012262418,-0.019162353,0.009364293,-0.0047847433,-0.001334717,0.014363542,0.015544667,0.023349285,-0.014572436,0.018651769,0.013369442,0.008451842,-0.0140812695,0.018781895,0.012893246,-0.0022607408,0.022143794,0.010454396,-0.0014585321,-0.0056850244,0.022693003,-0.01520284,-0.008964812,-0.0072972113,-0.014095559,0.016623186,-0.0021483428,0.008128676,0.008800261,-0.007912938,0.020966485,-0.000976793,0.0017343546,-0.0038808885,0.030318601,0.04496864,-0.0059031774,-0.03008724,-0.008266714,-0.018456638,0.0073686447,-0.020417366,-0.0062841345,0.0068322243,0.029270498,-0.001701115,-0.0057999636,0.007567985,-0.0077761794,0.0044039646,-0.020069418,-0.006752053,-0.02023682,0.004474981,0.035809334,-0.008402274,-0.0053051542,0.022067863,-0.015570163,0.01240901,-0.017347598,-0.0035998588,-0.008347663,0.031541057,-0.0068138847,0.01188328,0.008689097,-0.0072087143,-0.010917055,0.013861588,0.059817865,0.0136227505,0.015482324,0.0025641255,-0.0020504235,0.0039711487,-0.019651156,-0.0063152276,0.0011338441,0.0011486217,-0.013882929,0.0042691273,0.023532143,-0.020508055,-0.0010074362,0.011276807,0.0192575,0.014060234,0.00043019903,-0.0037784574
28,-0.0065903743,-0.0049874503,0.0046408474,-0.029486153,0.0049820016,0.008571551,0.0029336761,-0.00540225,0.015999544,0.0032471297,0.00032956738,0.016902503,-0.008400305,0.036822002,-0.011004056,0.010061843,0.009472227,-0.004120073,0.016829142,-0.01423062,-0.03311255,0.0090821,0.013058624,0.031151706,-0.009237732,-0.011385271,0.019858327,0.008961964,0.012989571,-0.00025102362,-0.012318543,0.0015552617,-0.0037317767,-0.017911447,0.010008513,-0.013904787,0.0012956331,-0.005119211,-0.0026874626,-0.022394031,-0.028749073,-0.005508678,-0.0015890582,0.0057631256,0.007244112,-0.014095409,-0.008413439,0.005834923,0.014060014,0.0041220966,-0.010035944,-0.022605779,0.0020245335,-0.012857022,-0.0052503175,0.008274911,0.00912258,0.0023024331,-0.020144446,-0.009206995,-0.0029498043,-0.072913185,0.005457268,-0.0014397313,-0.0068865754,0.011078638,-0.015330537,-0.001447219,0.014575678,0.0009783363,0.0028596092,-0.0022831925,-0.014318308,-0.0045925677,0.003270597,-0.0037143594,0.023200337,0.008393404,-0.011052154,0.0553715,-0.006212934,0.021013731,-0.023482166,-0.0010164067,0.01266087,0.010559981,-0.005509088,-0.0037425538,0.030980943,0.00093903055,0.00020133845,-0.035683807,-0.02557763,-0.020282784,0.01310239,0.022223504,0.0056122374,-0.042577103,0.0064403466,-0.019911943,0.009770235,-0.013823398,0.017831841,-0.008899008,-0.013754585,0.011301267,0.0005116492,0.0007522923,-0.007376746,0.0013006971,-0.008177808,0.014295668,0.021749092,-0.02058809,-0.01940502,-0.01815096,-0.035061587,-0.014831689,0.0018868088,-0.022178356,0.003944921,0.005804923,0.016761055,0.0024536438,-0.019188702,0.006074813,-0.011142403,0.035916798
29,-0.025631502,0.043031644,-0.02001786,-0.01852901,-0.016328447,-0.0050013736,-0.009259457,-0.0024035436,-0.016766498,-0.02213712,-0.010565584,0.004187415,-0.019016506,-0.016275605,-0.0038929442,0.004504502,-0.0006218671,0.011166037,0.0063621094,-0.018219408,0.025153182,-0.00081515627,0.012997684,-0.006643569,-0.010453367,-0.010785366,-0.008443376,-0.0042525483,4.9868493e-05,-0.00067944475,0.0046654465,-0.0025231738,-0.019501096,-0.012457067,3.710671e-05,-0.025629925,-0.037075352,-0.009449339,0.0130289495,-0.022747308,-0.0131668765,-0.028751582,0.0039133304,0.034398045,-0.011087594,-0.005035512,0.017488504,-0.04265111,-0.0032769598,-0.0071754334,0.012066757,0.012076324,0.008321899,0.010788555,0.00012823855,-0.01890073,-0.008027553,0.030828543,-0.0117253475,-0.018230686,-0.001962404,0.0061768917,0.0038375994,-0.012414984,-0.0011254342,0.0065654023,-0.016869089,0.0028436866,-0.02193915,-0.003135966,-0.006822652,0.026151277,-0.012997699,-0.0089934645,0.008462447,0.0027044388,-0.012566174,-0.016720235,-0.011899656,0.009077145,0.01674467,-0.019065347,-0.01723465,0.0050387452,-0.01283158,-0.019016976,0.012696159,0.0041580372,0.005197008,-0.0035135427,0.02951634,-0.020161388,-0.013603359,0.022243816,0.007959263,0.028305462,-0.0064358246,-0.039191753,0.020154929,-0.01446523,-0.009806662,0.0095698135,-0.023687383,-0.021373894,-0.02433764,-0.0029449628,0.008059682,-0.009554316,-0.0044325558,0.0026556493,-0.003822379,0.006107715,0.011186305,-0.02256219,-0.021224786,0.02595313,-0.010800597,-0.015012567,0.032621693,0.033323254,-0.02178052,-0.013499609,-0.012203058,-0.021426268,-0.0014312579,-0.012386027,-0.024990337,0.013880418
30,0.013702244,-0.035477526,0.019829148,0.021781333,0.0021185456,0.009756951,0.01311224,0.012401293,0.011007528,0.010236619,0.010834241,0.0053870194,0.007450678,0.01920993,-0.006484737,0.032089084,0.025827471,0.019245425,0.013260457,0.003515527,-0.027467376,-0.024156015,-0.007035355,-0.025440466,-0.019083211,-0.018701183,-0.0007043541,0.024605462,-0.02733892,0.0108706,0.00093456893,-0.011643534,0.018671567,0.004522707,-0.0179897,0.0071909307,0.008151371,0.018552504,-0.0117288185,-0.025127783,-0.015820865,0.01203982,0.003604368,-0.006931566,0.0058091427,0.004684685,-0.0051878355,0.0059101316,-0.0058066673,0.030434458,0.015700469,-0.042479116,-0.02613721,-0.0031617903,-0.011048605,0.013399404,0.03126162,-0.0035244524,-0.042455714,-0.0280159,0.007125364,0.012951508,0.005678888,0.011084514,0.001732382,0.0030501976,0.003676598,0.016166233,0.015056097,-0.027389977,0.0066222255,-0.005093233,-0.016630625,-0.02449092,-0.010925273,-0.03914339,-0.004304204,-0.016250186,0.014593314,-0.008150177,-0.043647878,-0.016289165,0.004864662,0.0052392264,-0.003434527,0.014769294,0.031131918,0.025637843,0.0010559951,0.0016947531,-0.00012576616,-0.019435868,-0.0085077565,-0.009628886,0.015324583,-0.0063674445,0.003908617,0.0064664157,0.0046564415,-0.0013157724,-0.031239772,-0.006010612,0.0039964244,0.012822061,0.01621833,-0.02550367,0.017278602,0.0052068788,0.026075657,0.03358885,-0.0018521809,-0.011884578,0.0038972234,0.00062016206,0.007988582,-0.0042414092,-0.004739235,0.0015364616,-0.0069752866,-0.046093214,-0.006502109,-0.016859878,0.0014406904,0.06184219,0.0044519077,0.013452393,0.00986892,-0.009610454
31,0.0007022749,0.0030132718,0.0023805178,-0.00443549,-0.011787315,0.013828714,-0.00463679,-0.0015436069,-0.0073352642,-0.016333258,-0.017920509,-0.020194879,-1.2533686e-05,-0.024641415,0.01665244,0.010793937,0.017352805,0.0043061394,-0.0070524854,0.009953389,0.0026722134,0.0025203316,-0.0074202083,-0.025133863,-0.034187857,-0.006163662,0.0058984687,-0.014371869,-0.025328321,0.004004353,0.01902803,0.0051239193,-0.010322191,-0.03874843,-0.017328328,0.0097016,0.024004484,0.0052846367,-0.00017316364,0.00030855212,0.002284894,-0.022695558,-0.02805219,0.0067718523,-0.010883239,0.020144757,0.02226716,-0.012046514,-0.012126916,0.009072691,0.015165918,0.033744834,-0.011054885,0.023298543,0.0007169729,-0.020205637,0.0064467266,0.016036035,-0.028755136,-0.01024179,0.021224959,-0.010275571,0.016776316,0.0021354242,0.012851145,0.007566203,-0.020810697,0.00025926612,-0.032874964,0.0068152975,-0.013986089,0.009920432,0.010442067,-0.012099877,-0.01220921,-0.0073722135,-0.025914282,-0.02562159,0.01033804,-0.007275046,-0.044286877,-0.020783484,-0.008624706,0.012064495,0.014944038,-0.013237102,0.016493784,0.011239141,0.011415237,0.015102967,0.021666322,-0.008343499,-0.014130086,0.022053624,0.020729631,-0.002428649,0.0054635545,-0.002153023,0.015310948,0.006703127,-0.037274558,0.016570523,-0.00032808696,-0.016573617,0.030355701,-0.022169681,0.024104808,-0.058274847,-0.017205663,0.024783926,0.022656752,-0.0032437765,-0.008077633,0.020104306,-0.0096810805,0.019211872,0.007406295,-0.0039057492,0.016146615,-0.020848066,-0.006589129,0.0025167146,0.002126172,0.010134167,-0.0013428134,0.029716428,-0.0028851968,0.0025214313
32,0.00899257,0.01194133,0.027570253,0.008094312,0.013008829,-0.007987692,-0.019244852,0.026230417,0.023341166,0.0022362175,-0.0064331517,0.00857178,-0.0005800745,0.0049420036,-0.002688372,0.010170594,-0.0027362017,0.001874389,-0.009471035,0.01828449,-0.043941963,0.0016169968,0.0005908222,-0.000121821606,-0.0038558154,0.025117576,0.01569955,-0.004343125,-0.018801898,-0.0024154831,0.009525678,0.013696967,0.006512288,-0.026095977,0.0145366555,0.01272317,0.005382404,0.0015391042,-0.008731291,0.030647874,0.012362359,0.0123880375,0.012474502,0.0016661693,-0.008942142,0.016697155,0.0017453962,-0.015548847,-0.008420657,-0.0004513078,-0.0045862813,-0.0066670314,0.011369867,-0.011898177,0.021030016,0.014976008,-0.009807376,-0.00026713224,-0.01726041,0.0007650894,0.00035590646,-0.006013076,-0.00885385,-0.013441135,-0.007768191,-0.00752806,0.0048909597,-0.0065326835,-0.005357283,0.015984952,0.01369496,-0.033276994,0.010935516,0.011652518,0.0152187655,-6.822387e-05,0.007955172,0.0064486032,-0.009617667,0.00080289366,0.00064738095,0.0034843145,0.019308785,-0.020493584,0.009473691,-0.0007551198,0.0026840474,-0.011365873,0.009664138,-0.0018111629,0.0054608863,-0.0035313356,-0.009994677,-0.008414963,0.0057068896,-0.00095581304,0.0031267798,0.0057883523,-0.0025005054,0.02448301,0.0030868412,0.011157514,-0.0044391095,0.010093303,0.013638727,-0.00040820337,0.015762798,-0.00024225129,0.015356027,-0.00912237,-0.0070072417,0.005002714,0.013705347,0.01523545,0.023557551,0.004785801,0.017438415,0.0007426561,-0.010316385,-0.019609606,0.009288541,0.018628417,-0.0031654772,-0.012794276,-0.008474094,0.0054922407,0.0052866708,0.0076388605
33,-0.025869098,0.045473304,0.0061855586,-0.024386443,-0.019368337,-0.0033265804,-0.02258492,-0.00010911717,-0.010360698,-0.007507115,-0.011897509,-0.005046066,-0.015868727,0.026382292,-0.030712252,0.0061435397,0.014019588,0.011348912,-0.011893974,-0.0035920383,0.03142869,-0.006869766,-0.009198826,-0.012194676,0.0064258263,-0.039064307,-0.016107604,0.011608736,-0.0051398613,0.017186051,0.0023281723,-0.008142457,-0.0057606087,-0.023005001,0.0057803467,-0.017484395,-0.04075815,-0.010927791,-0.00352543,-0.009259132,-0.0055333516,0.01997072,0.017445333,0.044418473,-0.006026833,-0.017693186,0.013623751,0.011352851,0.014631747,-0.0068637277,-0.011648557,0.01410146,0.0350798,0.010648783,-0.037018634,-0.022264645,-0.035250336,0.007440033,-0.01127442,-0.0072510643,-0.0049016736,0.038640663,-0.01779668,0.0081857545,-0.009140637,-0.0027684418,0.00015209772,-0.020198405,-0.006545352,0.0012171593,-0.00624806,0.01411163,-0.011046341,-0.028753692,-0.025201555,-0.001471192,0.0114482315,0.029705705,-0.022474442,-0.03464702,-0.0019337767,-0.017563777,-0.021627057,0.019604353,0.011231094,0.004545082,-0.027492022,-0.0089727305,-0.004375453,-0.028067216,0.010958343,-0.022242991,-0.010538542,0.00257583,0.01086405,0.06319956,-0.017643865,-0.021061925,0.012767884,-0.01810167,-0.013967873,-0.036371812,-0.023532094,-0.004397861,-0.02393424,-0.00871023,-0.014471291,-0.008322372,-0.049486864,-0.005103332,-0.032168683,-0.0015684209,-0.0074679707,-0.032270446,0.02062536,-0.0059570563,-0.019197403,0.0041291676,0.019521672,-0.024229186,-0.0042024665,-0.01339693,-0.01677152,-0.007027576,0.020349028,0.000549314,-0.015501985,-0.03173254
34,0.008278488,0.0041983547,0.007332971,0.00965311,-2.603427e-05,-0.015608842,0.018024968,-0.002741647,0.010391806,-0.013369292,-0.008096841,0.02144945,-0.0074530747,0.0102856625,0.01644321,0.0096686585,-0.0056786733,0.0050870855,-0.0024338614,0.014295791,0.0184228,-0.017021213,-0.00033828433,0.0014361523,0.007819998,-0.0015796043,0.0009986094,0.0098515535,-0.016457466,6.595128e-05,-0.0037874293,-0.007852638,0.0030150078,0.009493988,0.0022160695,-0.008357376,0.009920623,-0.014573425,-0.01547962,-0.010387537,-0.0013606986,0.0035944215,-0.0031827255,0.011423649,0.012202604,0.007172799,-0.0021240648,-0.010340053,0.0051729362,0.0020491276,-0.008914178,-0.0011393471,0.008250168,-0.011696163,0.0043226387,-0.0013625795,-0.007689306,0.0024733196,0.0054676766,-0.016962964,0.0077282228,0.015291256,-0.003363493,-0.00032720863,0.01288351,-0.0017624199,-0.011586957,-0.00659852,0.012370198,0.013544504,0.013471589,-0.0033836688,0.009506511,0.0017307654,-0.00052334764,0.0010717488,-0.010225804,0.0076301587,-0.013325653,-0.0058462406,0.0023780274,-0.006669119,0.007817521,-0.0051151034,0.015862424,0.0024737986,-0.008398837,-0.0056316894,0.0027237479,0.025493594,0.0032090072,-0.00864536,-4.059325e-05,-0.004176708,-0.0012019395,0.022500377,-0.008247748,0.012318202,0.0017108357,0.0011076364,0.017020984,0.004505091,0.0018988695,0.013123928,0.0123456735,-0.0019369285,0.0055083553,0.003372714,-0.005171026,-0.027846867,0.017469827,-0.006578573,0.022497624,0.0022795238,0.0027101967,-0.00011542289,-0.0076751695,-0.01007763,-0.004324699,-0.005640899,0.0032120827,0.0013615133,-0.00083877385,0.003416069,-0.018624505,-0.0010799766,-0.0068807043,0.0036444305
35,0.04086107,0.041816786,-0.00765488,0.00529064,-0.03621116,0.009502879,0.009375318,0.00017763974,-0.0062791696,-0.028522639,-0.030910842,-0.016907658,-0.007225081,0.024860563,0.013412519,-0.00023056442,-0.0042431424,-0.0023151631,0.022503465,0.01902452,0.009531437,0.011616161,0.0012251026,0.0092574945,0.020736573,0.0036198117,0.002733954,-0.002857321,-0.031070214,-0.0074827094,-0.01803264,-0.03966685,-0.002403383,0.033246648,-0.0054591685,0.016209051,-0.009914261,0.00042725875,0.039888624,0.01850013,0.035936646,0.008294993,0.01083965,0.01587422,0.0086791115,-0.0021767328,0.014796494,0.028368216,0.007000407,0.01060344,0.0064025708,0.05487466,-0.03646426,0.0028513004,-0.025878286,-0.008231699,0.00553132,-0.008952117,0.010523598,0.037753835,-0.03366799,-0.039192192,0.017353425,-0.015407972,-0.02732409,0.016519023,0.03151731,0.003486948,-0.018383922,0.008178908,0.011537343,0.018693304,0.01858648,-0.0039129956,-0.03213152,-0.041970063,0.020261085,0.0394209,-0.001354925,0.016944287,-0.06310482,0.01707425,0.008695557,0.034079645,-0.005827824,0.01541496,-0.011833921,0.03446525,0.013377075,0.012592267,-0.019539095,-0.008167634,0.01755881,0.025205925,-0.00317162,0.07463573,0.015506561,-0.008085416,0.0022919737,0.016914431,0.0010941332,0.019939654,0.003183509,-0.015261768,-0.017941771,0.02161558,-0.00459733,0.009132323,-0.004702692,0.02428175,0.016414583,-0.03355001,-0.0059265713,0.0062860237,-0.004269859,0.0167111,0.017399566,0.024449304,0.00024096886,-0.06684311,0.01947347,-0.00041403668,-0.0082899835,0.017624464,0.011092783,-0.049399443,0.03547748,0.0015208232
36,-0.002544933,0.035742313,-0.03362841,-0.03571235,-0.03906598,0.0014579751,0.002350555,-0.008338332,0.0013623924,-0.025764327,-0.011495402,0.012487874,-0.005154753,-0.005808736,-0.0012730096,0.010810174,0.012959933,0.0009789458,-0.0045543206,-0.026730437,0.007674043,0.001627219,-0.010868303,-0.018211532,0.0030721214,-0.010917081,-0.02602875,0.0017313716,-0.011605007,0.008661252,-0.002814219,-0.024147425,-0.008956865,0.026552083,-0.009084089,-0.015538425,-0.005732519,0.00021204802,0.013921404,-0.007754746,0.001242169,-0.018136308,-0.012077135,0.02039026,-0.0030247408,-0.022040933,0.01609627,-0.021469694,-0.005433059,0.004306889,0.028026821,-0.013168771,-0.009376841,0.01323056,0.013245026,0.0018621947,-0.011474688,0.029944493,-0.0013958903,-0.006440876,-0.015275069,0.041791607,-0.0025512057,-0.017866803,0.0029077,0.012300783,-0.017479254,0.002694486,-0.03471534,0.017599123,-0.00214809,0.020124212,-0.009689423,-0.009351346,-0.01114914,-0.011010524,-0.014495432,-0.021760954,-0.007356934,0.015367954,0.019637365,0.00021404102,0.008889797,0.011648034,0.009158742,0.0059443144,0.0046096924,-0.010183924,-0.007046256,-0.0066885147,0.01852417,0.021510968,0.003833764,0.02954686,-0.00717789,0.015171654,-0.002590801,-0.011224063,0.008996095,-0.019770293,-0.0117056,0.01900498,-0.024483755,0.02053226,-0.019468259,0.01013063,-0.017234955,0.0072394763,-0.0068523716,-0.0114354305,0.013387239,-0.028157199,-0.028248604,-0.023135608,-0.01829894,0.008003481,-0.023657704,0.013475129,0.04060149,0.026276542,-0.018217085,-0.020339476,-0.012997005,-0.008418232,0.00695417,-0.017781472,-0.009588624,-0.0120103415
37,-0.0072350944,0.022360638,0.0030137291,0.015602448,0.0024819956,-0.010872405,0.010737811,-0.02589044,0.028410062,-0.0090924455,-0.017807825,0.016280863,-0.008780529,-0.017636456,0.010146862,0.012906405,0.014992942,0.0063924147,-0.0036413085,0.00384233,0.025563618,-0.019360503,0.022652045,-0.003976942,-0.016715895,-0.019066038,0.006956679,0.016170584,-0.020424189,0.007689275,0.011132723,0.0065330993,0.027782477,-0.01731578,-0.01175277,0.014677931,0.0062723295,-0.004262015,0.0062343604,-0.023479065,-0.008446077,-0.025952773,-0.01142271,0.027706373,0.02114699,0.008037999,-0.009844467,-0.007296082,-0.007826367,0.005042329,-0.01075495,-0.015136973,0.00013714243,0.014990463,-6.736609e-05,0.0053641796,0.005201176,0.0024287507,0.0106753735,-0.00854351,0.009912992,-0.028341398,-0.015013938,-0.008373254,0.00852729,0.008469695,-0.016698416,-0.004343065,0.038700476,-0.010474768,-0.008358631,0.004902147,0.0023817618,-0.009236939,0.0051274034,-0.021076841,-0.01325627,-0.011028357,-0.0128610255,0.014318132,-0.021084534,-0.009731492,-0.013799093,-0.012845861,-0.03486893,0.00010367238,-0.00063654693,-0.002619128,0.012494544,-0.008096951,-0.010348129,-0.037636638,-0.005263597,0.0063641537,-0.0033334065,0.021840079,0.0050090766,0.019747714,0.0031670248,-0.00494858,-0.013728324,-0.0139685,0.010892035,0.03023297,-0.0018225668,-0.01963322,0.0040162867,0.007248607,0.02973294,-0.009428244,-0.0010366177,-0.0077595846,0.010603791,0.0100863185,-0.024251116,-0.031499043,0.008547176,0.013037797,-0.0011757228,-0.014640096,0.02177043,-0.02893151,-0.005418872,-0.0083186,-0.007175416,0.0008618784,-0.027663937,0.020473234
38,-0.0011735437,-0.0077469987,-0.022459392,-0.022347571,-0.01908276,0.0068369894,-0.0025665683,-0.03758869,0.0055747144,0.0037802095,-0.011786782,-0.017995581,0.012381784,0.010003376,-0.018043961,-0.0039065806,-0.0037787126,0.007861098,0.009874676,0.0034967088,-0.00095617527,-0.01674376,0.003102954,-0.020485135,-0.0012312125,-0.03523298,-0.005625041,-0.010750358,0.0046100225,-0.00797703,-0.029641906,-0.016355904,0.015966937,0.009917363,-0.01890615,-0.013874254,0.018182676,-1.2231004e-05,-0.0020791835,-0.037799712,-0.01238027,-0.031137012,-0.037155904,-0.012439578,-0.0011247254,0.009478339,0.0012420963,0.030668912,-0.0031206282,0.0068064667,-0.010552349,0.0028135611,-0.0060353116,0.00044953232,-0.018565636,-0.020465177,0.0061740335,-0.0026565422,0.00039587595,-0.017990466,0.004453182,-0.020635549,0.0002568675,0.014233651,-9.5793715e-05,0.0029625676,0.0008720449,-0.0032404852,0.037212938,-0.019868929,-0.0031198363,-0.008999173,0.00063847384,0.0021903294,-0.022997621,-0.01736414,-0.0068739005,-0.016851801,-0.010054347,0.020215407,-0.021524744,-0.0051358384,-0.005688704,0.016857272,0.0028310588,-0.0006037882,-0.008283967,7.3991825e-05,-0.000590211,0.0035752356,0.0008543959,0.002578729,0.002556785,-0.006493986,-0.014823033,0.008306512,0.011475029,0.006312515,0.0091300635,-0.028823301,-0.0063454458,-0.008784797,0.007849757,0.0014654327,0.0026973702,-0.027440283,0.0055737137,-0.016763072,0.0059341113,0.0030745587,-0.0013133177,-0.012856299,-0.008470399,-0.012443151,-0.036270306,0.0019314802,0.009376225,0.0042811213,-0.012477633,-0.015280841,-0.013671658,-0.03233031,-0.016192757,0.032141823,0.008844564,0.021598825,-0.022122452,0.009956585
39,0.007858557,-0.014524375,0.0055829664,-0.00013873159,-0.0064328774,-0.0009512857,0.0079558985,0.010524711,0.014997471,-0.00271361,-0.0055887704,0.004239817,-7.858381e-06,-0.009465423,0.007850803,0.011401059,0.009749588,-0.0010568339,-0.01786945,0.007883485,-0.01048112,0.0025533987,0.007904726,-0.004155649,0.0066539,0.005504984,-0.0036065138,0.004835797,0.008359771,0.0052886996,-0.0016301944,-0.0053455727,0.013578109,-0.004273065,0.008286731,-0.0053221243,0.002519133,0.0051997616,-0.018311748,0.0014287954,-0.0049600797,0.0046722204,0.012248301,-0.010609947,0.001274816,-0.003976058,-0.0076732584,-0.00797924,-0.0061019757,-0.004130585,-0.004533725,0.01691236,0.009505146,-0.0061462023,0.011322438,0.001792263,0.011541803,-0.011584956,-0.00033994223,-0.002283197,0.0043185465,-0.0042589344,-0.011443958,0.005201021,0.0032333932,-0.006963891,0.006770705,-0.0030896284,0.02311864,0.010654957,0.0056076846,-0.012699536,0.0005199907,0.007433462,0.0011266535,0.0063115433,0.002817577,0.004314327,-0.0059672305,-0.00036251763,0.008098466,-0.0010858804,0.004999896,0.011169587,0.01783167,0.007498239,0.0014523568,-0.014928059,0.007670055,-0.0010484621,0.0008023264,-0.00066241814,0.01252804,-0.019279562,0.017892746,0.0041113426,-0.001238008,-0.0074719205,-0.007756493,0.0033724878,-0.0039159553,0.004719416,-0.003860758,0.002639257,0.007367909,-0.0080784755,0.007461436,-0.0067830556,-0.0013411546,-0.008546942,0.0050652944,0.00072360324,0.011811568,-0.0071315393,-0.0021258106,-0.003634223,0.0020315547,-0.00814459,-0.016054122,0.0070372033,0.0015299313,0.006881807,-0.002854657,0.0043537244,-0.012943662,0.006246992,-0.0007608826,0.0030290047
40,-0.0018757939,-8.9387926e-05,-0.0048199063,-0.0075269383,0.017443301,0.008529725,0.000107754124,-0.0089263255,-0.0015475309,0.011024084,0.008402749,0.002847773,0.004456347,0.0064471615,-0.008317976,-0.00713001,-0.008272398,0.00023152122,0.006222285,-0.006745279,-0.0026702248,0.0028472403,-0.0036191675,-0.0011166214,0.00021728444,-0.0009888242,-0.0018928297,-0.010517305,0.014163704,-0.0010416409,0.011596459,0.009469405,0.0036589482,-0.003556915,0.003086228,-0.017390048,-0.005465551,0.0055917795,0.0014769109,-0.0029230241,-0.011994509,-0.0074264356,0.0011365728,-0.0025206497,-0.0033523662,0.011054566,-0.0027540394,0.0024096493,0.0038114474,0.00083790725,-0.0031269344,0.024308039,0.009602797,-0.00789905,-0.0008696681,0.005220658,0.00076032686,-0.0015545273,0.0029090245,-0.0012211953,0.011654639,-0.019498393,0.0045114737,0.012013128,0.012216704,-0.0031594366,-0.009290269,0.00027066807,-0.0032167837,0.009224628,-0.0010361007,0.0022989523,-0.0048982683,-0.0013092924,0.0024771215,0.005438667,-0.0073183887,0.0050108903,0.0009895653,-0.0039336714,0.004938237,-0.0050291778,-0.0155278165,-0.016740568,0.014591512,-0.009802305,-0.002372619,-0.009174631,-0.011840006,0.013864859,0.0066598877,-0.0035164945,-0.0067432504,0.0006145541,0.011205353,-0.0049781096,0.0025508583,0.0013182798,-0.0037783918,-0.0007498757,-0.010090838,-0.0025654351,0.01294242,0.0018585899,0.0111199,-0.0034656501,0.0047389395,0.0050579538,-0.0026674247,0.009809323,-0.0017653736,0.011521603,0.008582503,-0.012692354,-0.010128614,0.012359256,-0.0057783006,-0.0053591533,-0.0042518335,0.004301725,0.0036918772,-0.0009087625,0.0020831113,-0.0008219788,0.0034340566,0.03927864,-0.0087810755,-0.0044654603
41,0.013546337,-0.016863964,0.013768354,0.016021231,-0.006560359,-0.0019980478,-0.0077482574,-0.0055133314,0.014154382,0.0075310003,0.0025164993,-0.015491321,0.02031043,-0.013123063,0.006940215,-1.3167246e-05,0.004881592,-0.0029126445,-0.022339825,0.0077954144,-0.013582949,0.0127202375,-0.0068051717,-0.0011330369,0.0025930565,0.0077315094,-0.003100452,-0.0035989075,-0.005452609,-0.005128668,-0.0021671944,0.0047004432,0.009896058,-0.0060407366,-0.004654779,0.017366627,0.005769083,0.0071072397,-0.0060945684,0.0061285933,0.003138889,-0.0027227548,0.0013251079,-0.013606246,-0.00075980386,0.016642466,-0.007824983,0.0036442792,-0.0050330875,-0.010000341,-0.0057006795,0.013090396,-0.0013139277,-0.012378243,0.002552951,-0.0046410086,-0.0031683873,-0.006204692,0.014091732,0.004521921,-0.004833705,-0.00164976,-0.006438377,0.0074959435,-0.011385177,-0.011691047,-0.0059584617,-0.007659781,0.021850469,0.00965611,0.001675543,-0.013479274,0.0100532845,0.02279303,-0.007502066,-0.007214892,-0.0060912035,0.0021050079,0.01331035,-0.013718799,-0.010371177,-0.011109711,0.01412585,0.010463106,-0.002089912,0.0010273413,-0.0036184262,-0.008770697,-0.025214836,0.0057963934,0.0063867103,0.0038844896,-0.0021879748,-0.019953107,0.0015323199,-0.0023248128,-0.0031638728,0.011816898,-0.008527551,0.009579117,0.0030995586,0.015293173,-0.008345279,0.003690432,0.011993979,0.004876048,-0.0032268604,0.006744386,0.015792746,-0.008055187,-0.0027257917,0.0017355679,-0.02513214,0.015568362,0.019531006,0.011049445,0.016530128,0.016636748,-0.013321472,-0.0009329702,-0.0045063943,0.010846995,0.006555442,0.008565764,-0.008614213,0.0048160832,-0.0019849502,-0.006232063
42,0.020392705,-0.00867716,0.008536786,-0.015357164,-0.014100269,0.0063689933,-0.01063391,-0.014499298,0.0017095531,0.008981171,-0.022434827,0.020348031,0.00998299,0.014794824,-0.007997753,-0.018212989,-0.0028294732,-0.024794158,-0.0009439189,-0.030825524,-0.011186063,-0.012979932,0.0010215744,-0.010976955,0.010012704,-0.005139629,-0.016350811,-0.005438493,-0.0013809967,-0.012349195,4.8097613e-06,-0.012349014,-0.015574516,0.03175665,-0.01380406,-0.027326046,-0.014796836,-0.009512413,0.018328039,-0.004008746,-0.0018876316,-0.00517125,-0.0058323983,0.002453855,0.056112193,-0.0069309934,-0.012436465,0.0066821566,0.022808494,0.016097154,-0.006042438,0.0097565,-0.005121714,-0.007794311,0.016483482,0.022001792,0.0039683185,-0.007474123,0.010230836,-0.0028621382,-0.015819984,-0.013695774,0.0110041285,0.019793784,-0.0007759219,-0.002190462,-0.007537584,0.0012078942,0.003722051,-0.0034917293,0.009362934,0.0013911925,-0.005333605,0.0135451285,-0.013714732,-0.012733954,-0.012748087,0.00483642,0.0046759816,-0.005964237,-0.008654898,0.009240437,-0.0041659167,-0.0034724188,0.007361287,0.009367154,0.0035286888,-0.006153313,-0.0060643987,0.000725316,-0.017749876,-0.006132193,0.028504426,-0.006986871,0.0017101697,0.008862376,-0.0035277214,-0.016925476,-0.024557916,-0.02195882,-0.0044475333,0.035920862,-0.0198335,0.029200733,-0.01860265,0.004673909,-0.0352911,0.01532629,0.018012851,-0.010384419,-0.0045466158,-0.019762075,-0.021575551,-0.01178859,-0.027776957,-0.013863102,-0.024025429,-0.010363323,-0.010573225,-0.011465759,0.003753901,-0.0037538437,-0.021262996,-0.0037867888,0.010698178,0.009089481,0.0028878695,-0.013377585
43,-0.007191272,-0.022716202,-0.023738954,-0.0159998,-0.011876707,-5.5341887e-05,0.0072162403,-0.034168225,0.038262647,0.021521982,0.026998015,0.024514064,0.0026266444,-0.007907645,-0.019807901,0.025747726,0.028340403,-0.00057883473,-0.0043120347,-0.020800853,0.003502043,-0.015591557,0.01605946,-0.031146873,0.0021000335,-0.04626489,0.0011314653,0.016825704,-0.009905103,0.011553206,-0.0036422075,-0.019302052,0.027378928,9.080904e-05,-0.037037384,-0.025808629,0.007577296,0.004637811,0.008222829,-0.044906735,-0.05773683,-0.0173218,-0.028550526,-0.0035566145,0.016654026,0.019892227,-0.010533791,0.01268081,-0.039226245,0.015547047,0.0068282075,-0.027497636,-0.018728187,-0.009032763,0.001295307,-0.0039001782,0.018648785,-0.009924639,-0.004763966,-0.029283484,-0.005156949,-0.02674062,0.00039587932,0.00744013,0.011764668,-0.0026152078,-0.002233628,0.005968093,0.059696894,-0.025291372,0.006610854,0.008357755,-0.02683021,-0.024631487,-0.019461371,-0.01962846,-0.0052412865,0.004470659,-0.0040076124,-0.0015294813,-0.023370843,-0.021071376,-0.014022566,0.020952003,0.0047211377,0.0057215434,0.014652857,0.0047162184,-0.0068243975,-0.015775345,-0.0064787376,-0.02639166,-0.022150148,-0.041243047,0.0038745587,0.012757265,0.016576637,-0.022805605,-0.0075959726,-0.027723743,0.0030499438,0.018978732,0.0134150805,0.033864547,-0.00071405456,-0.026077844,-0.006569493,0.023769507,0.023997009,0.0058194445,0.010181619,-0.0028227651,-0.016723467,-0.008485898,-0.032092333,0.0022859755,-0.019193675,0.0077326465,-0.0023511027,-0.035371266,-0.0043283366,-0.029459454,-0.020843491,0.0605564,0.0059059667,0.014747151,-0.0071665663,0.004116649
44,0.0004149131,0.012267343,-0.00947617,-0.00014441076,-0.014880947,0.007986928,-0.006584004,-0.019103287,0.0029037255,-0.01002359,0.008486496,0.009012736,0.012700871,0.002412729,0.0012015573,0.0130835725,0.01514251,0.014020208,0.0017920745,0.001981716,0.024484714,-0.017601585,0.014329449,-0.04789975,-0.015340021,-0.04189548,0.0042897393,0.0057543344,-0.012529085,0.00071021426,0.0007216914,0.02177617,-0.03977273,-0.0029104368,-0.037652984,0.02407775,0.013274202,-0.00014620446,0.022229316,-0.039119117,-0.05137238,-0.01705836,-0.0166279,0.03380318,0.002943795,0.002637973,0.014377468,-0.014357208,-0.020687785,0.004197648,-0.0034412637,-0.06581371,-0.023477575,0.013814136,-0.008875105,-0.006858536,0.0141830705,0.021548532,0.020855743,-0.05805719,0.018495087,0.015140524,0.019157955,-0.010538528,0.004823328,0.008438808,-0.036422465,-0.007629631,-0.032536693,-0.029885327,-0.027608523,0.009825287,0.018579856,0.0013593364,-0.033467025,-0.011161755,-0.0020992544,-0.030130574,0.007605872,0.028717995,-0.039898973,0.0026228118,0.00015636891,0.02922047,-0.014641964,0.006942574,0.014607665,-0.009135396,0.014894909,-0.03431927,0.009234492,-0.0101259155,0.01857379,0.012416465,-0.00045876857,0.03385825,-0.029301537,0.014262757,0.014328874,-0.016632318,-0.05120781,0.020364689,-0.0014987247,0.006538788,0.0074482486,-0.044632785,0.008921759,-0.0102644265,0.008489897,-0.008991419,0.0073637143,-0.01416395,0.004471944,0.0070300912,-0.013873256,0.014151459,0.024797358,-0.0131397145,0.024094457,-0.021268375,-0.0011638928,-0.04777042,0.0028512382,-0.0021147153,0.029712882,-0.016768815,-0.017840166,0.02152834
45,0.0064076968,-0.007971194,0.023021672,0.0029647758,-0.021216396,0.019799132,0.011332062,-0.012508326,0.02587778,-0.011298307,-0.015232351,-0.00010567505,0.023790244,0.012120911,0.004222332,0.011667832,0.0087414,0.011613752,-0.028598232,-0.010763881,-0.0006762573,0.0075773364,-0.0074326457,-0.017209915,0.005759883,-0.015515954,-0.013787797,0.0017410034,-0.029730326,0.0010936577,0.001833515,-0.005672567,0.016654076,-0.0023756213,-0.021065077,-0.008257539,0.017516078,0.0188051,-0.005114688,-0.017698748,-0.014446724,-0.0116832,-0.016942384,-0.021208769,-0.015240892,0.017399525,0.0010172136,0.0055063665,-0.01780719,0.0083772475,0.023437418,-0.02272454,-0.0071368506,-0.0044858707,-0.0019489522,-0.014067748,-0.01258214,-0.0036447577,-0.01987071,-0.007346173,0.00051098765,0.037956625,0.008703824,0.011734768,-0.016075343,0.0023294187,-0.0071685053,-0.007092519,0.026183484,0.012763755,0.0040016235,0.010924231,-0.013453274,0.0039960574,-0.023908172,-0.019596625,-0.00080076064,-0.002050089,0.018682797,0.019740084,-0.02831179,-0.0023450374,-0.0011048777,0.01297444,0.008659249,0.009989912,0.0076212916,-0.0033637455,0.0065400004,-0.0048943413,-0.0032597147,-0.006251133,-0.0010407964,0.012133917,0.005935188,-0.012158811,-0.016272267,-0.0068618543,-0.000851691,-0.0068572736,-0.013472866,0.008195658,-0.022628596,-0.011074422,0.013503157,-0.011971092,-0.00490098,-0.0055499664,0.009701742,0.020078076,-0.002366996,-0.014177717,0.00033944912,0.001247884,-0.010930093,-0.00571365,-0.007473715,0.0048297085,-0.002012394,-0.026828142,-0.010190143,-0.009299687,-0.026426539,0.027821213,0.005023619,0.01578384,-0.010804266,-0.0061613685
46,0.0031205039,0.0104410015,-0.0023220568,-0.019439708,0.014823754,-0.004210741,0.017642897,-0.0037172248,-0.008465698,-0.0027801138,0.006086338,-0.0072734025,-0.016613789,0.011186869,0.015380685,-0.0012858965,-0.0071976604,0.00856884,0.010720575,-0.001687472,0.024019178,0.012643448,-0.0018797194,0.008648239,0.014812028,0.0009425749,0.014832501,0.0046946695,0.013985549,-0.0028781556,0.0015345378,-0.007384015,0.0024197984,0.021856554,-0.00027167678,-0.012066087,-0.0019582068,-0.0055236565,0.0060388963,0.010548187,0.008162127,-0.004381591,-0.009121752,0.015798047,0.010176013,0.00023148008,0.0017201111,0.009402963,0.036817987,-0.0062141744,-0.0031813567,0.0021046454,-0.0037884358,0.00651881,-0.0053977435,0.010417472,0.010569947,0.00058197137,0.007339918,0.0034346485,-0.00739984,-0.025945647,0.0054636276,-0.0043126144,-0.0038439168,-0.0029873517,0.004654585,-0.006290673,0.010963803,0.0061881896,0.0024432838,0.003510626,0.010502474,0.009331976,0.021747198,0.012528414,0.02256884,0.02025956,-0.012541178,0.040051896,0.022614598,0.02092432,-0.008422954,-0.0022890756,0.0029722315,0.0022763852,-0.014628943,-0.0130622145,0.02013004,-0.006513361,-0.0030340932,0.013881355,0.019912636,-0.0029844095,0.017926393,0.029919127,-0.0062532625,-0.009241251,0.001768424,-0.0067928387,-0.00018515895,0.0004964974,0.009368339,-0.020930408,0.0012341802,0.010906109,-0.011381091,0.007298291,-0.0023448118,-0.012752842,0.00010780647,0.008829406,0.0033512043,-0.008094906,-0.02014072,-0.0073191016,-0.012108077,-0.014046587,-0.0067779752,0.016695272,0.0049888776,0.010090784,0.019640965,-0.011245643,0.003410384,0.0037851231,0.008070029,0.005117192
47,-0.0049884263,0.012016351,-0.009715448,-0.0022529557,-0.037922777,0.012465553,-0.02721874,0.00930749,0.017825471,-0.012910234,-0.053063594,-0.01860724,0.0017370402,0.023887476,-0.014849071,0.026878316,0.03164952,0.04390314,-0.0033443405,0.0058845477,0.01540918,0.028156007,0.0012729355,0.0054131467,-0.0038447247,0.0062637907,-0.012042277,0.026758078,-0.031115938,0.02361281,-0.0059536034,-0.008707222,0.017711964,0.009003826,0.007429156,-0.0324166,-0.01584925,0.0135717895,-0.0068694535,0.006629599,0.015806917,0.020228608,0.042339884,0.02431848,-0.018069005,-0.037652448,0.022002108,0.0063465554,0.0038702616,0.0029188765,-0.025751276,0.042888794,-0.01809253,0.008242074,-0.035963256,-0.02045056,-0.009332228,0.0032596153,0.010987821,0.022945534,-0.037918955,0.023750545,-0.00044048688,0.0052323984,-0.02315792,0.026247213,0.015189581,0.0094086295,0.024210956,-0.0043235025,-0.00740575,0.019748643,-0.010027526,0.0058139404,-0.04045898,-0.015836682,0.022828685,0.026107695,-0.0076980824,0.017996658,-0.052662097,-0.003076604,0.00086778705,0.029706715,-0.007831846,0.020082517,0.015545553,-0.00038715388,0.033140384,-0.0029461428,0.016052298,-0.03311416,0.0017436479,0.00072688115,0.006589954,0.046219736,0.012384652,-0.069345996,0.04233589,-0.01122346,0.0008683145,-0.0100977365,-0.016738242,-0.014568662,-0.0077862786,0.012869771,-0.005368119,0.0006210528,-0.03190684,0.022409683,-0.009875744,-0.017352847,0.032262426,-0.00091419707,-0.011647581,0.020084126,0.0038615891,-0.023882631,0.0023670231,-0.058310952,0.0073458906,0.0035582958,0.002848813,0.007869987,0.039413385,0.00068347313,0.028817914,-0.009669983
48,0.0059247897,-0.012900711,-0.004806972,-0.004979888,0.009160951,-0.003152083,0.016797375,0.008472694,0.018907858,0.0108975135,0.004428028,0.010622368,-0.0054794196,0.009178565,0.0035323785,0.0052031754,0.012677683,-0.0028069026,-0.011491355,-0.01298942,-0.017506968,0.004055731,-0.0011238701,0.0072798845,0.011940249,0.018068645,-4.5850735e-05,0.0006534066,0.00037451682,0.002980274,-0.010354194,-0.002623742,0.0102659995,0.016267963,0.0077209068,-0.016925132,-0.012077106,-0.004820246,0.0003609217,0.017507218,0.02316636,0.004469139,0.0044932496,0.0018501377,0.023545044,-0.0040019206,-0.0054220874,-0.00021006311,-0.0069639813,0.002268562,0.0013608191,-0.009714604,-0.010265188,-0.012091282,0.007786899,0.009892129,-0.0015887732,-0.0116184,-0.002758554,0.01488201,0.00044368586,-0.003962439,0.004151622,-0.0067909607,3.9391438e-05,-0.0019763608,0.014075873,-0.00205361,0.012848784,0.011144914,-0.0015054978,-0.007320334,-0.006115737,0.0016126747,0.009281435,0.012950629,0.0019777475,0.018162388,-0.013248939,0.01334932,0.0083884625,0.009593268,0.00765127,-0.006710596,0.0031494878,0.016623165,-0.00060932955,-0.0042722006,0.0018230423,0.0027715657,-0.0031173655,0.014079954,0.0068209763,-0.0121913515,-0.0011415805,0.0051585315,0.009021484,-0.009861059,-0.01201911,0.006890415,0.005021754,0.009958279,0.007431069,0.0030558167,-0.004406474,0.023651,-0.010566688,0.013980814,-0.009327092,0.0074612643,0.014937154,0.0017644959,-0.011693609,-0.008019696,-0.0035964241,-0.015575096,-0.009578104,-0.00032777552,-0.001915285,0.012933664,0.0012580573,0.012943381,0.005398344,0.008261578,-0.008366715,0.01590658,0.01675997,-0.006185523
49,-0.07257219,0.018415047,-0.0206822,-0.0050251535,0.026369547,0.018148854,-0.044183765,0.026856698,-0.011554165,0.010003035,0.0029179135,0.008431176,0.024876753,0.0047665597,-0.017533105,-0.0014460495,0.004750693,0.000349854,-0.019599961,-0.021461416,-0.010145434,-0.01157538,-0.018101212,-0.010495885,0.0073960805,0.019271066,0.009454771,-0.0047876704,0.017957114,-0.0042122374,-0.014841507,0.007859204,-0.00024942766,0.00534227,0.01595123,-0.045121055,0.021814033,-0.00018896122,0.026231147,0.009527279,-0.005287247,0.01961004,0.025320183,0.026701314,-0.021270026,0.025760053,0.008418874,-0.027946912,0.032420132,0.011019205,-0.027045945,0.025071671,-0.01211909,0.00027030442,-0.01091465,-0.011693167,-0.0097337095,0.006219107,-0.19802812,-0.007791345,0.023899643,-0.0025018884,-0.0076185516,0.034912243,0.024179203,0.005618414,-0.010637105,-0.0022589767,0.0016951342,-0.0037546058,-0.01240401,-0.002893431,-0.008897873,-0.0030339973,-0.0004059615,0.006018168,-0.011634255,0.028922273,0.018018968,-0.00917004,0.013204579,-0.037277512,-0.018129664,-0.014882044,-0.011156829,0.02547144,0.01139354,0.021007415,0.019345507,-0.0071541034,-0.0030652345,0.00993872,-0.012939617,0.02218709,0.0026705132,0.002456737,-0.04648874,-0.040420804,0.013939839,0.013167094,-0.043036293,-0.07099314,0.019065734,-0.0022821361,0.031853892,-0.00967124,-0.007465368,-0.017121721,-0.01956082,0.01023987,-0.03322438,0.00299972,-0.0026093104,-0.024889834,0.0033145607,0.02754514,-0.027991807,0.0020114174,0.0033291797,0.030398892,-0.019919714,0.0065207565,0.012266119,-0.0064068832,0.026835395,0.057491295,0.02436171,0.011360957
50,-0.033637907,0.0038903544,-0.025967034,-0.018401518,-0.010803452,0.024209797,-0.03314884,0.009126742,0.020993778,-0.013418893,-0.011571161,-0.007503967,0.00780374,-0.0010551852,-0.02272626,0.0030823376,0.014129389,0.006727895,-0.012775219,-0.026269326,0.0032688663,0.033632297,0.016826967,0.010670299,0.005944834,-0.011981996,-0.013392883,0.012210812,3.0981115e-05,0.016196296,-0.00882226,-0.019628862,-0.0052495445,-0.0302019,0.009701236,-0.012820018,-0.031593394,0.018871283,0.0016765203,-0.0003921389,-0.04887034,-0.0029110871,-0.0044446057,0.0067817904,-0.02367008,0.020820934,0.004031602,-0.011409832,-0.018363036,0.011065098,-0.0029411272,-0.045211423,-0.008815678,0.0062955944,-0.026462892,-0.008219827,-0.006408792,0.010444989,-0.027667476,0.03656959,-0.008301319,0.028361792,-0.042183954,-0.0088335965,-0.010307235,0.018847065,-2.4453957e-05,0.003262029,0.030555649,0.008348856,0.01368185,0.017793262,-0.0483071,-0.023114631,-0.026020378,-0.017923664,-0.0036542907,0.04171504,-0.0013587801,-0.0016315111,-0.041950397,-0.031394117,-0.022434775,-0.002099254,-0.013097517,-0.0020548827,0.0090302825,-0.004283934,0.012945214,-0.03050585,-0.0034838258,-0.016069323,-0.033729825,-0.008588817,0.012405437,0.03533942,-0.010932214,-0.054775294,0.0157605,-0.007657676,-0.017338239,-0.021038027,-0.012162268,-0.012735028,-0.023599777,0.003809485,-0.014710535,0.00034496817,-0.0013888907,0.010004885,-0.0009881859,0.0052570677,-0.008511294,-0.0042666816,-0.02431088,-0.02147404,-0.028062856,0.016048538,-0.0059128487,-0.030356703,-0.030448413,0.017989809,-0.033283617,0.028828891,0.0074521857,0.032386754,-0.03968905,-0.0110320095
51,0.0078063537,0.022211114,-0.012304252,0.009080249,-0.021076294,0.005590558,0.01768752,-0.011471585,0.0006527272,-0.012561279,-0.017107794,-0.0058694957,0.013543218,-0.02091089,0.023329552,0.008807058,0.021411767,-0.00027659594,-0.008968061,0.006002432,0.015827464,-0.007521702,-0.015713619,-0.022383012,-0.016644284,0.0032216867,0.008598311,0.007809241,-0.002412521,0.020302545,-0.023718463,-0.00057992316,0.0055810125,-0.011742756,-0.0038036935,0.039902,-0.0009578818,-0.003918476,0.0023878587,-0.0066442024,0.0152238,-0.032134484,-0.03622529,0.014752901,-0.01777003,0.012661508,0.012683451,0.0060889646,-0.0017698244,0.004494356,0.0085959975,0.033851072,0.0019915253,0.010487422,0.00040227402,-0.027119635,0.0060791536,0.008028077,-0.005433353,-0.016601,0.019548278,0.030287491,-0.00040341943,0.0144919,-0.007360369,0.0068895435,-0.013202134,0.009621018,0.005584488,-0.0074146683,-0.012801763,0.0034032187,0.020753508,0.015582619,-0.0077334256,-0.012594295,-0.0274961,-0.0044667576,0.021676712,-0.013967366,-0.0147350775,-0.0065704873,-0.0018355167,0.010245189,-0.0024616425,-0.01231888,-0.0008641942,0.0027484798,-0.025460212,0.010959615,0.007461374,0.00076947967,0.014007083,0.017936973,-0.0016766194,0.018353328,-0.00944598,0.008982059,-0.0030585234,0.0062019797,-0.02185892,-0.00027440948,-0.018159965,0.010102716,0.009241697,-0.014173169,0.020452268,-0.011606931,0.013529468,0.0053403215,-0.0020473152,0.00097594084,-0.032686416,0.018049544,-0.003422237,0.02215853,0.02197117,0.011647643,0.007093764,0.024515687,-0.014499487,-0.011009657,-0.0052256235,-0.014134158,-0.009185696,0.0044091176,-0.009194239,-0.019040346
52,-0.007157728,-0.0076194676,-0.0026753184,0.009894785,-0.0059955814,-0.0024709052,0.0020178985,-0.0014046165,-0.0039718947,-0.015282719,-0.018255197,0.0072609596,0.012006876,-0.0088635385,-0.0005201597,-0.007236067,0.0027175425,-0.0017925552,-0.0029683912,-0.000680357,-0.0005335425,-0.0058326437,0.0015376814,-0.00642771,0.0047098394,-0.0064208102,-0.0064426605,-0.008618331,-0.018515144,-0.0030857807,0.0004458096,-0.0059181177,-0.00021687787,-0.012224579,-0.002018312,0.010053927,0.0092611965,0.001067249,0.0014552241,-0.0028782876,-0.015806427,0.0019327836,0.003774395,-0.0039688726,0.0046402244,0.0058774613,-0.001527679,-0.0011539819,-0.01812728,0.0028755874,-0.0028688507,-0.0026278272,0.0075114453,0.0016909959,-0.0006475496,-0.014622501,-0.0077293552,-0.0091241365,0.00040825192,-0.003599951,0.00807962,0.0034190349,0.005964463,0.013887703,-0.0029859417,-0.0018982756,-0.018565414,-0.0022493124,0.0032100817,-0.0065896627,0.0055688745,-0.0013161725,-0.0067686415,-0.0038775788,0.0017621926,-0.010433881,-0.004602104,-0.0070788125,0.0016535464,0.012604608,-0.0075626937,-0.018421805,-0.0059167147,0.0052869916,-0.0016806851,0.018363526,-0.0027312478,-0.0031022034,0.0006525327,-0.00078802335,-0.00430647,-0.017756877,-0.0019011355,0.004386621,0.0043620183,0.0040994333,9.360679e-05,0.0025756273,-0.0016560518,-0.007588912,0.00036349377,-0.0017883892,-0.003287453,0.0048260777,0.006540297,-0.006642812,-0.0010086604,-0.0057137874,0.002091518,-0.0039659166,0.005432193,-0.0104042245,0.002124658,-0.0077807438,-0.018182052,-0.0049389238,0.012631816,0.002648294,0.0050152657,0.0028118626,-0.009919654,-0.008650552,-0.024030462,0.003713617,0.007994691,0.0060887896,-0.0018725605,0.009071915
53,-0.022262778,0.008411207,-0.013178982,0.004528151,-0.021556383,-0.0011732681,0.004737194,-0.004291178,-0.006881259,-0.0035890571,-0.011878924,-0.017458025,0.0054300185,0.011892825,-0.021326588,0.006843744,0.010770559,0.014588377,0.0014329806,-0.022661287,0.011971515,0.014796012,-0.008231076,-0.00624556,0.020040974,-0.0087462785,-0.015883904,0.007125579,-0.0057812226,0.0010329115,-0.0066554127,-0.007779666,0.012545256,0.017732129,-0.008588868,-0.010473669,-0.01213005,-0.008971146,0.00040534872,-0.0060832878,-0.00037901264,0.005801258,0.012617383,0.022416629,0.008523742,-0.008591103,0.0007961299,-0.01005179,-0.008067239,0.021028534,-0.010660431,-0.033020884,-0.001330025,-0.008227783,-0.033164486,0.014824224,0.007276079,0.007993376,-0.015746411,-0.0028785232,-0.012964047,0.0035919598,0.010734647,-0.015576339,-0.013811755,-0.005398271,0.0083069615,0.003183988,0.007721616,-0.03665263,-0.016760817,0.005297134,-0.007014366,-0.0022553527,-0.021407373,-0.015743705,-0.018407185,0.02336673,-0.024854762,-0.027142981,-0.043761734,-0.019139845,-0.010597908,-0.00473611,-0.03521792,-0.013166121,0.005300743,-0.00078287127,-0.021791842,5.5408087e-05,0.0038862005,0.0101736775,0.0056353835,0.00668922,-0.026534736,0.05387543,-0.003847472,-0.0058013685,0.0035769504,-0.021997206,-0.018484397,-0.0045784023,-0.020111807,-0.0009648662,-0.025948975,-0.0064467313,-0.026208585,0.013672362,-0.005390659,-0.01238063,-0.011094409,-0.0026359707,0.00067984493,-0.0048000417,0.0051547857,-0.003353183,-0.016663918,-0.008127346,0.014404425,-0.012388782,-0.03290582,-0.0208166,-0.007356027,0.014796161,0.0018327613,-0.018598018,-0.016322885,-0.023861902
54,-0.03535052,0.0062080645,0.015622498,-0.021759177,0.016080834,-0.027032617,-0.039535336,-0.008149711,0.030595366,0.0059981258,0.017077358,0.0019861786,4.976214e-06,-0.003705436,-0.046602435,0.013542626,0.016888672,0.011768337,-0.009412133,-0.022172987,0.010218402,-0.015774691,-0.0026387686,-0.0055564544,0.0055032996,-0.0051574935,-0.028844692,0.01669209,-0.008889335,0.0069270073,-0.0030295753,-0.01954878,-0.0036381101,-0.0009791346,0.006037196,-0.03974868,-0.032480385,-0.0018797673,-0.011749934,0.007714846,-0.0016523744,0.013188432,-0.001040928,0.00972045,0.0163015,-0.019667229,-0.0066565243,-0.012548243,-0.01973151,0.0023472672,-0.0015617874,-0.03346444,-0.015362677,0.009501742,0.009199115,0.018987523,-0.0075059696,0.00060607685,0.0021192832,-0.0014422006,-0.028548319,0.01497602,-0.03276485,-0.006309214,0.0013234691,0.0029336128,0.0032119425,-0.004514295,0.03742445,-0.027681248,0.021446727,-0.0033089484,-0.038145836,-0.0045657894,0.0072981576,-0.01255024,0.0040983455,0.008485415,-0.019896934,-0.03130894,0.018100455,-0.02126301,-0.00025546574,0.0048949174,-0.027694654,0.010252893,0.0006262882,-0.008702709,-0.02199104,-0.009077977,-0.008940741,0.011078415,-0.018897418,-0.005941345,-0.009104219,0.011198393,-0.01986506,-0.01842075,0.0015759483,-0.004812298,0.03598427,-0.015366902,0.013899068,0.03320856,-0.031048216,-0.0102190785,-0.040266693,0.030493747,0.0116718095,-0.019136732,-0.0106486585,0.0017719744,0.0059459233,-0.019683057,0.010659198,-0.008527855,-0.04397679,0.01625168,-0.0009549514,-0.010460198,-0.0019263135,0.0076194294,-0.01206375,0.0027662478,-0.0012347833,-0.022523075,0.0041516917,-0.018760698
55,0.00081298687,0.011074896,-0.0012264635,-0.01216874,0.00096905977,0.0007295314,-0.0033353507,-0.021873692,0.0055427393,0.00021294609,-0.010728056,0.009057139,0.012009421,0.015480508,-0.025999384,-0.0049680057,0.00750572,-0.0018306737,0.006743821,-0.016066348,0.014714536,-0.019711716,-0.008132198,-0.0047036503,0.013027905,-0.016574372,-0.023842907,0.0031090693,-0.0026599446,-0.0033083663,-0.012213226,-0.008663492,0.017385155,0.0068213134,-0.016219897,-0.012717308,0.01329313,0.0019984844,-0.0077382787,-0.011005649,-0.0037820241,-0.012113209,-0.010389906,0.01709516,0.0064079254,0.014347525,0.0002739109,-0.0031860906,-0.007047516,0.013475625,-0.004307782,0.0011006724,0.014892546,-0.0059705568,0.0032660249,-0.01673336,0.02075541,0.0016900144,-0.009878384,-0.0020745178,-0.006891055,-0.016423063,-0.025000405,0.009429641,0.013387506,-0.0034744,-0.004436553,-0.0018951995,0.014042236,-0.008223796,0.004564135,0.0052215164,-0.007329658,-0.001550964,-0.009872365,-0.018512687,-0.021708112,0.00021095622,0.006373033,-0.0035808068,0.00640249,-0.009900806,-0.017873475,-0.007828626,-0.004541649,0.0048554367,-0.0012334874,-0.0036315294,-0.014408467,0.005869073,-0.0035749017,0.0005975007,0.0061460994,-0.0054637436,-0.004171688,0.009765442,0.00027376376,0.0005616741,-0.014190122,-0.016666368,-0.0017923614,0.012064047,-0.005517593,0.010911165,0.007709038,-0.012371769,-0.01431666,0.012121563,-0.005166824,0.0007692304,-0.011303583,-0.0021034325,-0.010785819,-0.004646286,-0.009617311,-0.013598795,-0.01351172,-0.0052683637,0.00520318,-0.000626012,-0.0076478017,-0.014407439,-0.009410392,-0.002063074,0.009281821,0.0137754055,-0.016504148,-0.008482705
56,-0.013603314,0.009733898,-0.045077816,-0.009665184,-0.013975296,-0.0040641422,-0.015528205,0.00059116597,0.023480607,0.020751033,-0.0077467207,0.015181951,0.0044349376,0.020753479,-0.017592836,-0.0059944186,-0.008518378,-0.013317745,-0.010686307,-0.025177436,0.010837738,-0.03453627,0.015739646,0.017963616,0.0059987563,-0.0035323144,-0.02684499,0.0016191072,-0.011976789,0.002357612,-0.011903206,-0.039613757,-0.006332617,-0.03495404,-0.0075120414,0.012599457,-0.020013051,-0.0066194707,-0.0068374383,0.01626286,-0.0061348826,-0.0003114325,0.0005715214,0.0027865055,0.00026759994,-0.01025078,-0.0010410141,-0.036382638,-0.013018089,0.016466463,-0.011280874,-0.00580512,0.012291644,-0.010126778,0.0007474527,-0.04721547,-0.0077465363,-0.00013314279,-0.050605107,0.015479324,-0.026437296,-0.008257466,-0.020042973,0.0033172593,-0.0037246307,-0.01233506,-0.024537407,-0.0015932075,-0.0022075742,0.027104601,0.0071739405,0.003436357,-0.034948412,-0.056973312,-0.008286081,-0.005378991,-0.030518202,-0.010320914,-0.0063846475,0.01622458,0.006625766,-0.07117398,-0.016265428,0.00038064804,8.895269e-05,-0.008417192,0.0037842358,0.0024034656,-0.020491458,-0.003071,0.0058578993,-0.0053627137,-0.032442704,-7.2742885e-05,-0.0007392242,0.010385324,0.010695704,-0.038364477,-0.007850902,-0.01864359,0.0070152152,-0.025801074,-0.0017256963,0.00066445564,-0.010273316,0.0011720096,-0.0032416258,0.01875078,-0.028153734,-0.0315689,-0.005167588,-0.018887756,-0.00071187934,-0.017023545,-0.008122223,-4.489654e-05,-0.024498697,-0.000771809,6.223419e-05,-0.015996708,-0.030409805,0.0013278981,-0.051813226,-0.016099906,0.0037241182,-0.010054967,-0.017170439,-0.0036486345
57,0.015875455,0.04765447,-0.050308555,-0.014144432,0.01670987,-0.014923821,-0.04090246,-0.04628373,-0.03135656,0.050216284,0.014492223,-0.038535036,0.024576114,-0.022253117,0.025981165,0.0011007104,-0.0016353129,0.005782194,-0.024128161,-0.023217853,0.024254885,-0.0032782839,-0.020167582,0.0016476234,-0.02477633,-0.0168322,-0.012298329,-0.009630165,0.02622761,-0.010347777,-0.008293093,-0.0013279084,-0.013961294,-0.015074856,-0.0036200348,0.0061079133,-0.0042941156,-0.011881638,0.0036900572,-0.024061706,-0.008021418,-0.010484706,-0.043433424,0.022317296,-0.0242653,0.0020170757,0.020079363,0.0074365013,0.034158155,-0.0044310866,0.009309329,0.0015555968,0.032166734,0.009499507,-0.0031204436,-0.016446158,0.013419294,0.012131075,-0.011635016,-0.00625569,0.007727202,0.04041772,-0.037647318,0.027971637,0.0090761995,0.0031816072,-0.029631019,0.0038629626,-0.026626838,-0.008344236,-0.020811979,0.0074817142,-0.00016008534,0.012619093,0.003929277,0.013059833,-0.016031487,-0.014534863,0.007559271,0.018136092,0.05852374,-0.0039836187,-0.022263631,0.024545655,0.0049875528,-0.023762887,-0.012847866,-0.01431928,0.007481099,0.006559294,0.032880418,-0.012663675,-0.00831486,0.014181672,-0.008657623,0.00061371765,0.0035613917,-0.0005970528,0.013990635,-0.009468857,0.005184919,-0.021528391,-0.0070074038,0.005860491,0.0029102394,-0.017302727,-0.0003343622,-0.004813561,-0.0150821805,-0.03236478,-0.02782066,-0.0016560749,0.02013016,0.03679581,-0.0014283526,0.0186078,0.012799948,-0.018110016,0.014296296,0.043604843,-0.026945172,-0.018466217,0.014023639,-0.006536681,-0.0067731906,0.060169682,0.010227982,0.013585258
58,0.01165382,0.0017563923,0.015457717,-0.016416974,-0.03608591,-0.009758701,-0.0052756495,-0.0016678043,-0.0019822675,-0.050767925,-0.042138953,-0.030507745,0.0011612559,-0.006956622,-0.02376746,0.009891794,0.00030607896,0.002150907,-0.016706802,-0.017662624,-0.012104169,0.011636515,-0.0009369447,-0.0023082243,0.014931656,-0.010156713,-0.02145331,-0.0030378117,0.0021926623,-0.0027890247,-0.013501482,-0.026676882,0.000921121,-0.0033233028,-0.0023478642,-0.024595132,0.0005831145,-0.003822008,-0.0002364466,-0.008861955,-0.014411927,0.0026171596,0.013595759,0.018041952,-0.021062113,-0.021507157,0.012586018,0.0019973544,0.01072615,-0.01257121,-0.0059738196,-0.04873416,0.0023287563,6.0052414e-05,-0.041213088,-0.017551934,0.0022107614,0.0077982843,0.0028382996,-0.02402282,-0.010375327,0.011361684,0.013664601,0.0005142477,-0.034450904,-0.0063088387,0.00072158425,0.0009471766,0.0076995934,-0.019090604,-0.019332595,0.007937461,0.026717417,0.007493208,-0.016424226,-0.037924778,0.011065693,-0.0037361074,-0.017900335,0.02453574,-0.021698767,0.020549042,0.016027786,0.0309943,-0.027498184,0.009847846,0.00073229126,-0.0111071495,0.01736196,-0.03892908,0.010695822,-0.0065985816,0.012303102,-0.0068936334,-0.00094399834,0.008180675,-0.0030834104,-0.0031619186,0.0043140543,-0.008925414,-0.018190052,0.02070059,-0.01381064,-0.051953282,-0.01802506,0.005538737,-0.021087965,-0.0016149286,-0.022354122,-0.008198861,0.0001883889,-0.024831602,-0.008333462,0.002842566,-0.0046277195,0.008608674,0.0010983314,-0.00954143,0.0126003735,-0.019501079,0.0010358621,-0.011996064,-0.008416361,-0.010672117,-0.007859373,-0.016244387,-0.008308598,-3.9804136e-06
59,-0.014792231,0.0230789,-0.012524403,-0.012444982,0.019914264,0.013357082,-0.0070960396,-0.012889163,0.0018755025,0.01738744,0.01292285,-0.009985766,0.017041162,-0.021316249,0.006755894,0.0022386704,-0.0028227987,-0.009860199,-0.02550387,-0.00056019425,-0.011570486,-0.008660677,0.01305353,0.009698217,-0.011749735,-0.0032417201,-0.015784511,-0.004352779,0.012428635,-0.0025381912,0.00046759364,0.02082309,-0.015726082,-0.015764188,-0.002537539,0.020456418,-0.00012236914,0.00012470358,-0.002508766,0.002907078,-0.012707818,-0.008884952,-0.016330916,0.013975741,-0.024970023,0.017444633,-0.0015124441,2.8103026e-05,-0.000780456,-0.014926775,0.006931711,0.03554958,0.01902662,-0.005594977,0.021025246,-0.018826505,-0.010311772,0.0013738628,-0.022230662,0.00924467,0.020286486,-0.0071764034,-0.036615342,0.03948991,0.007812474,-0.014592186,-0.026851162,0.0029443242,0.006542738,-0.0034644546,-0.0055122105,-0.01549088,-0.012433391,0.006669959,0.012089305,0.030893303,-0.011815812,0.001553856,0.040368255,-0.041064695,0.03638351,-0.03825493,-0.014849711,-0.005423342,0.0031666681,0.0048122965,0.0005222542,0.00041187656,-0.01593128,-0.008182549,0.012864446,-0.03150546,-0.047694832,-0.0069096982,-0.0010905821,0.010972383,0.007892758,-0.027496612,-0.0028969867,-0.022407286,-0.01811371,0.007939246,-0.007394474,0.026044868,0.020561462,-0.002586694,-0.011977205,-0.0060180365,0.023235591,-0.0021243119,-0.013516112,0.027543515,-0.010485797,-0.039726824,-0.034481745,-0.0111038145,-0.0061477832,0.013744632,0.005771336,0.010125827,-0.019525195,-0.0036771933,-0.012122721,-0.009359113,-0.01302416,0.039649665,-0.014734019,0.00040564412
60,-0.020275388,-0.030651355,-0.011473137,-0.0023055929,0.012283089,0.019552773,0.0115433,-0.028472386,0.040478528,0.016566982,0.014168442,0.009968713,-0.005811826,0.027081951,-0.022476181,0.023413716,0.024017459,0.018555002,-0.00096872164,-0.026702097,-0.02944966,0.016060669,0.017437873,0.018518183,-0.0017231517,-0.03008544,0.013106907,0.018387245,0.008464441,0.0054971487,0.041156515,-0.00051391195,0.025884172,0.008537919,0.009430929,-0.028304737,-0.011621866,0.0026694501,0.00771224,-0.013678329,-0.03337727,-0.0056239297,-0.022818554,0.012587907,0.020594021,0.015165725,-0.019087719,-0.0016698433,-0.0028287019,0.0180914,0.0006966059,-0.054773312,0.00575898,-0.024800695,-0.013798843,0.009063154,0.010830009,0.0050951582,0.0040532025,0.008065992,0.017300775,-0.087107226,0.024370926,0.0068064528,0.014243525,0.0029555166,0.0043235323,0.0060104635,0.04435959,0.0059649395,0.004063425,-0.014947182,-0.017127538,-0.017185843,0.012409105,0.017503165,0.012235396,0.013530919,-0.024840113,0.00867933,0.014235576,0.012807684,-0.019567814,-0.032510445,0.014200297,0.001145825,0.015574757,0.006200025,0.0038574853,0.00022130719,3.892547e-05,-0.033768427,-0.021753276,-0.034508653,0.013949382,-0.002853642,0.011814421,-0.020575061,0.00041018578,-0.02029871,0.0109687755,-0.0029329062,0.020229548,0.019550322,-0.02358226,0.016670523,-0.008560101,0.01921677,-0.0011166849,0.014429889,0.013087055,0.0027653,0.014551857,-0.012437905,-0.031570293,-0.028516682,-0.025508951,0.0186931,0.013375187,0.005077363,0.010273492,-0.004266918,0.008695523,0.019149382,-0.022426955,0.018745176,-0.0069416724,0.011091821
