,0,1,2,3,4,5,6,7,8,9,10,11,12,13,14,15,16,17,18,19,20,21,22,23,24,25,26,27,28,29,30,31,32,33,34,35,36,37,38,39,40,41,42,43,44,45,46,47,48,49,50,51,52,53,54,55,56,57,58,59,60,61,62,63,64,65,66,67,68,69,70,71,72,73,74,75,76,77,78,79,80,81,82,83,84,85,86,87,88,89,90,91,92,93,94,95,96,97,98,99,100,101,102,103,104,105,106,107,108,109,110,111,112,113,114,115,116,117,118,119,120,121,122,123,124,125,126,127
0,-0.036284678,-0.027544009,0.011364596,-0.008733656,-0.004484969,0.022599367,-0.007539318,-0.023569068,0.031176245,-0.0049470924,0.027028143,-0.005899453,-0.0046539293,-0.01783392,-0.011064932,0.057464287,-0.019426523,0.03337187,-0.0014875893,0.029189758,-0.018831832,-0.013418431,-0.00044664432,-0.010123214,0.011017301,-0.03358194,-0.009756218,0.013668464,-0.006114878,-0.0050983997,0.010210215,-0.025572544,-0.020444164,-0.05211292,0.008640851,-0.01489012,0.034961216,-0.024727197,-0.034907807,-0.017000731,-0.0064870776,-0.038257096,-0.04730078,0.015831834,0.018698234,0.02529569,-0.014194617,-0.012712279,0.01535765,0.0031221905,0.03898516,0.025249422,0.016879257,0.0225194,-0.0270611,-0.014539994,0.02859015,0.02537276,0.022543741,0.0030514074,-0.01517159,-0.010134684,0.04996217,0.04622978,0.007832389,0.012469664,-0.0030391766,-0.022779651,-0.018033534,0.070455335,0.0060162186,-0.0014943404,-0.0015214866,0.01619454,0.036351267,0.02659381,-0.028544715,-0.001017087,-0.023604928,0.026865516,0.018664015,-0.0506115,-0.031113748,-0.0041494207,0.01881911,-0.026982456,-0.037608564,0.03286873,-0.0033498546,-0.05343648,0.003201043,0.025912756,-0.021855019,-0.016097108,-0.015760625,0.03288136,-0.0181812,0.0018162109,-0.0032114757,0.007099536,-0.026807545,-0.004163603,0.07616586,0.0069549102,0.0505863,0.0763614,-0.015518261,-0.0012709476,0.004791967,-0.006406588,0.03282562,0.00014469844,-0.018111687,0.005922003,-0.010444239,-0.040018987,0.017200703,0.047434587,-0.00903125,-0.03656498,-0.025178753,-0.061033655,0.00031716505,0.0032356833,-0.028589219,-0.031344116,0.0068634874,0.04509134
1,-0.0019764018,0.003486879,-0.0077020307,-0.015926857,-0.011189325,-0.0014302457,0.03669523,0.0060553746,0.024416324,0.00018189811,-0.002738166,0.024989529,0.03472719,-0.014748003,0.008758979,0.054016616,-0.040112633,-0.0076231565,-0.005146671,0.024226667,0.009442959,0.010176317,-0.0013599977,0.031774886,-0.015369676,0.017285181,-0.022035103,-0.005564221,-0.010588746,-0.020824887,-0.03499972,0.011087247,-0.02408545,0.02942602,-0.004394539,0.0009155947,0.031837948,0.018644916,-0.007132454,-0.015008754,0.009324468,-0.004983698,0.052355696,0.05736698,0.027198866,0.03027001,-0.007189578,0.00671517,-0.0015991497,0.008875346,0.060701765,0.042797383,0.029005969,-0.030631192,0.016319565,0.005635239,-0.04142604,-0.024613632,-0.017047625,-0.01603197,-0.0006167175,-0.005141512,0.005627649,0.03540718,0.0054098293,-0.0023833455,0.029849859,-0.008211238,0.00850745,0.027585268,-0.03489917,-0.02268732,0.0054883594,-0.010805997,-0.027329084,-0.03239321,0.00014925002,-0.012134551,-0.023859793,-0.041774176,-0.020438628,0.00047345794,-0.012435635,0.033081695,-0.047985394,0.0059983823,0.004297727,0.019658476,-0.032239825,0.047048654,0.064421244,-0.0032533326,0.011906936,-0.018124375,-0.011791609,-0.012794158,0.01660321,0.01821163,-0.012198432,0.002647902,-0.026978515,-0.01783283,0.00022818735,-0.020328265,0.089484595,0.008628976,-0.012514531,-0.021827675,-0.01212591,0.0014893919,0.0014546332,-0.035280067,-0.011132773,0.08663739,-0.0027071158,-0.0059702294,0.035838947,0.013868191,-0.021607244,0.028416965,0.009365688,0.017641367,-0.031132368,0.008767108,-0.02900457,-0.013373647,-0.02196596,0.014136095
2,-0.002505651,0.027667345,-0.033296905,0.016630594,-0.031984817,0.03446408,0.017521515,-0.0072258213,0.027346663,-0.0025247904,-0.052360605,0.010173456,-0.01843643,-0.051837504,0.006325066,-0.074093625,0.0076026125,-0.028053353,0.01725078,-0.0011972352,0.032818925,-0.0022585634,-0.008965075,0.00402971,-0.04822255,-0.015593343,-0.005016509,0.004622909,-0.013585652,0.033590753,0.010757926,0.00587607,0.0035913344,0.021339219,-0.07455319,-0.0015946223,0.0070035644,-0.007608381,-0.0021752557,-0.016531698,-0.02176334,0.024578765,-0.017191865,-0.055079617,-0.009235684,0.0021538844,-0.00822354,-0.016848207,0.02211849,0.048375346,-0.061500814,-0.06740979,-0.01636326,-0.08235153,-0.0062337536,0.015411733,0.045918588,0.0003424966,-0.04498851,-0.02612664,-0.020016061,-0.0010143905,0.00013218664,0.013968857,-0.04750304,0.051710524,0.008730761,-0.011492432,0.008121639,0.013098404,-0.02630601,0.025270974,-0.01251593,0.0053267214,0.018422473,0.04102159,-0.010442675,0.01810668,0.029446196,-0.0053934706,0.0028548893,0.034954593,-0.014054611,-0.038443096,-0.00034871078,0.033826068,0.012786794,-0.012278271,-0.04965474,0.026810052,-0.032799706,0.00013301092,0.008768423,0.012366776,-0.05275225,0.017285777,-0.035009515,-0.0044320454,-0.011095159,-0.0037111004,0.026644457,-0.010967696,-0.027421953,0.023311911,0.004473006,0.06353988,-0.0073763933,0.058074992,-0.010567208,0.005751504,0.0027739867,0.029951513,-0.028442157,0.047151957,-0.004461943,-0.0007371944,-0.024499787,0.02625231,0.0171355,0.01244256,0.006288498,0.010922497,-0.010026789,0.028944502,-0.0053911433,-0.021977833,0.023476375,-0.03819563
3,0.03579241,-0.033146687,0.0137609225,-0.024955293,-0.014900279,0.007967122,0.018652612,0.00976003,0.015075802,0.023602176,0.02945456,0.02050988,0.00982357,0.015154973,0.017945277,0.015421708,-0.011742978,0.011401007,0.012856647,0.0059847124,0.008662126,-0.0348074,0.0030100788,0.018658444,-0.007838432,-0.0033693928,0.029800572,0.013316534,-0.043983847,0.014820159,0.010002951,0.0036975774,-0.004939537,-0.011343876,-0.0013374826,0.0011400945,0.029923156,0.038348854,0.023066912,-0.0057037035,-0.013790902,-0.019799238,-0.010279526,0.0056742937,-0.015950216,-0.0006425223,-0.005067192,0.0042177336,0.0031354215,0.0051988144,0.026873235,0.002023835,-0.039806593,0.020074382,-0.0038488125,-0.030494753,0.007856105,0.024126008,-0.006376691,0.05676566,0.014140701,-0.0036193295,0.0071270685,0.032932222,-0.0008364166,0.0029048065,-0.04282483,0.035071634,-0.03228009,0.022550976,0.036851607,0.012165024,-0.009894268,-0.01851749,0.014119678,0.014127189,0.012864233,-0.008989448,0.0066095046,-0.02441882,0.021999912,-0.02105381,0.009287327,-0.037275266,0.01693534,0.0034054734,0.0029119481,-0.024878236,-0.008558486,0.0021656046,0.022558557,0.011186597,-6.4228702e-06,0.0149090635,0.0032276623,0.013231461,0.07503189,0.0038072707,-0.0039013403,0.009560825,-0.012766892,-0.039942093,-0.0014022028,-0.010804187,0.01673172,-0.013646006,-0.038463913,0.00097119156,-0.01047542,0.01040374,0.01536621,-0.004167893,-0.008517287,-0.0076811174,-0.022621125,-0.020411938,0.01582835,0.008460986,0.01270295,-0.022910157,-0.0037562503,0.0019426693,-0.0140997525,0.009328667,-0.0070769237,0.0193675,0.00021287384,0.018793399
4,-0.069073305,-0.04149503,0.017078293,-0.010563949,-0.05175967,0.070431426,-0.0024370237,-0.07664076,0.0056816526,-0.0001789979,0.016099637,-0.013511426,0.0391376,-0.046863064,0.027714593,-0.013819903,-0.008782497,0.012201831,0.03788969,0.021521622,0.018024353,-0.038182177,-0.0026367,-0.040411483,0.018616382,-0.03789828,0.018444195,-0.0012392541,0.0012410028,0.005269021,-8.225022e-05,-0.044128817,0.012199192,-0.014030466,-0.07587678,0.025353463,-0.021299483,-0.0059290472,-0.02761095,0.0014255182,0.01382175,-0.013758037,0.014914502,-0.10612956,0.007794708,-0.018318025,-0.06342029,-0.03034878,0.008809683,-0.0072074304,-0.030201184,-0.046232928,0.07213359,-0.03943933,-0.043359905,0.010198522,0.038044672,0.045043733,-0.022478815,0.019994775,0.007590558,-0.012064405,0.047930136,0.0579516,0.002631706,0.016561113,-0.011093451,-0.0055685807,-0.035221893,-0.047520366,-0.0015701004,-0.022163678,-0.015820177,0.04195364,0.01833392,0.025385212,-0.010662862,0.01066813,-0.020306915,-0.010413524,0.0026867592,0.014393181,-0.011047756,0.00070292625,0.018330486,0.079240106,-0.01050627,0.030996248,-0.03894338,-0.10635794,-0.08149267,-0.038942397,-0.0088140555,-0.045688078,-0.0029857957,-0.019140054,0.013546903,-0.036854394,0.013373672,-0.024805328,-0.013755488,-0.027512591,-0.010131795,0.008813773,-0.04553051,-0.016138019,0.00873606,0.006369437,-0.03483046,0.004093194,0.025629817,-0.023473976,-0.03949213,0.026625006,-0.018674253,-0.03772129,0.057856083,0.025273155,0.018734464,0.008061324,-0.0027196885,0.008236988,0.00081666344,-0.004333428,-0.052372962,-0.02765687,-0.0062051746,-0.06202476
5,-0.026505994,-0.030928869,0.0031884802,0.00420929,-0.04734508,0.02870859,-0.03672272,0.002943793,0.031822264,0.017317511,-0.015438662,0.028783709,-0.02828233,0.024857389,0.006516561,0.03782564,-0.029689448,0.017587,0.0035317468,-0.022105496,0.003119172,0.024431128,-0.035760544,0.020208672,0.007115899,0.008167334,-0.04106959,-0.009746019,0.009744074,-0.023290647,0.04646486,-0.019391017,0.0312657,-0.0072934465,-0.032175995,-0.0029196101,-0.01336145,-0.026711075,0.013184231,-0.019390441,-0.02331264,0.014300908,-0.018046612,-0.023644524,-0.0076017193,-0.016790027,0.01896129,-0.010212925,-0.024712453,0.022154842,-0.017026616,-0.007941971,-0.012167919,0.0043787872,0.0047327336,0.05367606,0.021794714,0.0008282223,-0.027098017,-0.031113932,-0.009350842,0.050159674,-0.009060532,0.013814519,-0.0052722273,-0.02507182,-0.007842358,-0.020848999,-0.00015260796,-0.016634054,-0.024484307,-0.02676978,0.032691877,-0.011943654,-0.018500278,0.016658247,-0.0018087238,0.0009555706,-0.015946344,-0.009197445,0.0041933362,0.012259124,-0.022079129,0.00825197,-0.023656916,-0.00201612,0.025314972,0.018340522,-0.014850097,-0.035335805,-0.015684092,0.023541212,-0.023054956,-0.0017860825,-0.010278099,-0.0047849664,-0.036285497,0.00012139022,-0.015674436,0.022466123,-0.04568924,0.018233128,0.0043380903,0.00015857934,-0.049568657,-0.0061466647,0.008742486,0.029063983,0.018157441,0.0011678339,-0.0015731233,0.012867211,0.017978968,0.013807313,0.0072745266,-0.0027961931,0.03186928,-0.04106424,0.006315131,0.0498583,0.046750464,0.005353906,0.00566397,0.027410401,-0.01291968,-0.0076019214,-0.027688866,-0.00195913
6,-0.03394038,0.055638682,0.04916751,0.009349088,-0.0022261448,-0.034147568,0.02005947,0.0059104525,-0.020656165,-0.03160827,0.002757574,-0.011923725,0.009056537,-0.0028405585,-0.009032646,-0.028158039,-0.026632719,0.023411019,0.017781567,-0.009672093,-0.015211655,0.016940901,0.030341651,-0.041189317,0.0013295154,0.0025213968,0.028241659,-0.00014474671,-0.0022734273,0.02809109,0.019259498,0.04782021,0.035193276,-0.008197609,0.018110458,-0.0063660275,-0.017762462,0.04174394,-0.017960623,-0.0039276723,0.007224316,0.013627337,0.009904835,-0.0035648555,0.025692547,0.055484623,-0.019324783,-0.027184997,0.005125323,0.01922106,-0.0009551411,-0.013730557,0.02176579,0.040350664,-0.039249703,0.016486483,-0.028957317,-0.041839983,0.0070258905,0.037386578,0.030167557,0.00095472485,0.009016732,0.023490084,0.027326683,0.013848192,0.0025143554,0.011750417,1.3153224e-05,-0.002632631,0.003390516,-0.028414542,0.029407693,-0.00040429522,0.019857183,0.014896824,0.02562555,0.009621362,-0.0485307,-0.035001103,0.0232152,0.010147414,0.025580445,-0.036370054,0.042585555,-0.009368356,-0.022922002,-0.009329079,0.037294347,-0.035289068,0.033477828,-0.003818155,0.006996463,-0.001956818,0.046177246,0.007762687,0.014991044,-0.014859315,-0.012217976,-0.004931569,-0.012459726,-0.004291695,0.08875544,0.026135439,0.0016689788,0.012477705,-0.016390929,0.025320718,0.010749179,-0.0026727037,-0.0031997655,-0.011412181,-0.07084815,0.17385371,-0.008538657,-0.0035862077,-0.0080539845,-0.043168154,0.069149606,-0.023130704,-0.032449096,0.004680498,-0.034883957,-0.035467524,0.035529956,-0.0041664685,0.008566877,-0.02551741
7,-0.01224546,0.0075537125,0.01989177,-0.011538507,-0.016957358,-0.02468273,-0.015593155,-0.025350817,-0.004297256,0.017502358,0.0047329366,0.029000629,0.02653018,-0.038123228,0.017947244,0.024857527,-0.013960983,0.017932653,-0.0036643858,0.041566804,-0.011409861,-0.03089851,-0.005774539,-0.029729325,0.014349998,-0.023674596,0.0020322422,-0.02211622,-0.017545663,-0.007141721,-0.047151487,0.015064123,0.0010519961,-0.008029992,-0.0054099457,-0.0053123026,0.014785757,0.03237121,-0.0010260255,0.021213422,0.048341066,0.0073882523,0.025908694,0.036939334,0.040859308,-0.013968756,-0.020808171,0.019026307,0.028670866,0.013123129,0.014755783,0.06789323,0.024732435,0.017780663,-0.009823832,0.014606867,-0.017468728,0.032108948,0.053536735,0.029717745,0.0042907554,-0.0039580115,0.015223263,-0.029601086,0.011036527,-0.015538591,-0.0036981502,-0.017223053,-0.020667503,-0.03897298,0.02464807,0.003802681,-0.037156325,0.0021044926,0.01283091,0.03508674,-0.01901433,0.015091602,0.024501702,0.023473844,0.023894515,0.016901435,-0.009889109,-0.05648365,-0.03625321,-0.010068319,0.003339,0.021490844,0.0009782049,-0.027548807,-0.012866515,0.0052934587,0.009115655,-0.004632088,-0.06375299,0.06174749,0.024381507,-0.020605225,0.015679054,0.0066618593,0.004949877,0.0060034534,0.079940215,0.038888883,0.06441695,0.013542301,-0.02568119,0.01755228,0.011710306,-0.054005645,-0.005103172,0.013616296,-0.019480212,-0.046708316,-0.02479392,-0.03789706,0.053735595,0.016540084,-0.009560586,0.005812995,-0.034802165,0.036378793,-0.027696539,-0.018686721,0.0055363444,-0.026471986,0.022566035,-0.017894035
8,0.03178183,0.001007284,0.036576748,0.014110802,0.03446993,-0.013574473,0.01892846,0.047126908,-0.012318887,-0.0077707814,-0.0080847675,-0.013249632,-0.008041558,0.02626373,0.009463875,-0.0056145256,-0.0046877293,0.029623702,-0.040627066,-0.0017576363,0.030757386,-0.0021437386,0.015562794,-0.03366241,0.030980093,0.011196915,0.0063824863,-0.0035978542,0.0101181585,-0.018641679,0.023097252,0.02239646,0.019857604,0.034734484,0.0022832805,-0.008586235,0.0055949884,0.018963061,0.0062518385,0.0105229765,-0.021664215,-0.0042792843,0.040361132,0.027508082,-0.021023666,-0.00065301266,-0.018009286,0.016539242,-0.021815164,-0.03403395,-0.005840934,0.034655157,-0.013617606,0.044068236,-0.009503195,-0.038582426,-0.022681061,0.011770185,0.0250194,0.029249832,0.014806374,0.005947927,0.0074709454,0.008849853,0.019343192,-0.005400117,-0.014454639,0.017839715,-0.023736943,0.0058016214,0.05718388,-0.044605564,-0.0036596167,0.023577588,-0.003504354,0.0066585783,-0.0016435052,0.015964735,0.030279046,7.279756e-05,0.026227934,0.010983217,0.019658282,0.018949019,0.011258331,-0.020762956,-0.0051079644,-0.040719766,-0.0059483536,-0.0020404912,0.00918728,0.024448816,-0.0068290154,0.0023049938,0.005951277,-0.0019122495,0.007559075,0.010960351,-0.01264489,0.019343719,-0.023648024,0.0017647027,-0.0021511635,-0.002659533,0.0019310104,-0.023007458,-0.004182669,0.007994053,-0.025939843,-0.012088645,-0.012503571,0.030618226,-0.011860479,-0.032269545,-0.010002359,-0.0017189593,0.0026076746,-0.03164012,0.02548286,-0.055290304,-0.021974875,-0.013516081,-0.012501896,-0.004935589,0.017111486,0.01581747,-0.025312087,0.017321879
9,0.035009354,-0.016164064,-0.01976257,-0.019158801,-0.05122354,0.039364073,-0.038104463,0.027480891,0.022596398,0.015161982,-0.024345273,-0.0032155327,0.035696898,-0.030346835,-0.031405095,0.03365932,0.0039722533,-0.0062166983,-0.045787953,0.026458172,-0.061105262,-0.02112875,-0.050030645,0.026654143,-0.029872144,0.025280895,-0.08537602,-0.009640681,-0.03496967,-0.041654337,-0.029351527,-0.039821077,-0.05077658,-0.03102582,-0.024367087,-0.030715222,0.023700431,-0.040496223,0.018079601,-0.003680479,-0.017466672,-0.0162129,-0.016700828,0.03721056,5.906342e-07,-0.014780328,0.022543142,-0.0017013112,-0.021700872,0.034154274,0.023960954,0.03805498,-0.0099264495,-0.0027104183,0.0017684072,0.013327646,-0.007988133,0.031179072,0.016431903,-0.10320663,-0.028115809,0.0100827385,0.0031229153,-0.002878658,0.015291814,0.015389868,-0.018236034,-0.12927991,-0.037733916,-0.009756175,-0.015622369,0.0038486405,-0.010167015,-0.07905215,-0.020292055,-0.10190555,-0.012985339,0.013673283,0.013659535,0.011192948,0.0055994224,0.01496573,-0.09661919,-0.019721085,-0.061576754,-0.02360329,0.034545153,0.032850817,0.0148013765,0.05760618,0.014557362,-0.026071599,0.04004984,-0.0030271925,-0.027722552,-0.0045978003,-0.1088099,-0.020945404,-0.01905362,-0.013922949,-0.012805898,0.0073442417,-0.06297008,0.01870085,0.04813112,0.025175234,-0.028359689,-0.01482605,0.016328359,0.0015544376,-0.024242654,0.016394531,-0.01927483,-0.00850757,-0.028648814,-0.018293163,0.032603394,-0.019533303,-0.06501434,0.0130907055,0.010606454,-0.011963876,-0.007806003,0.023943106,-0.08845295,0.024114873,-0.012131866,0.021051696
10,0.04450067,0.024404623,0.002093642,0.00925401,-0.014768292,0.0015787296,0.026631791,-0.038881134,0.02212798,0.007899583,-0.02469694,-0.0023780714,-0.028100433,-0.03299535,0.0022542786,-0.0063459445,0.012884574,-0.0010788732,0.0126133505,-0.0131997,0.03589603,0.021718046,-0.02692318,-0.009832122,-0.018732535,0.03446912,-0.07514201,-0.015029848,0.027723057,-0.013732507,0.023369947,-0.0077526616,-0.016496146,0.014913917,0.019259049,-0.005689726,-0.009114668,-0.03594902,-0.010228352,0.0008787327,0.051070943,0.0028186112,0.025075424,-0.038077038,-0.01991461,-0.048046265,0.0037722876,-0.019718748,-0.027131716,-0.011160944,-0.035381526,-0.0049538203,0.030918933,-0.010154182,0.023901684,-0.028153248,0.015416236,-0.04720799,0.030720677,-0.04375832,-0.021813998,-0.021760693,-0.009361525,-0.008156142,-0.002572535,-0.042798705,-0.0021952896,-0.033073302,0.021110512,0.005228157,0.0031853071,0.03344303,-0.018374858,0.015151575,0.049549084,0.0029013625,-0.026549725,-0.06502298,-0.007954867,-0.023233404,0.0034232044,0.06533223,-0.028071638,-0.0041237827,-0.01159953,0.01428468,-0.031022133,0.037738796,-0.019441325,-0.0011782421,-0.037768893,-0.037803728,0.007908557,-0.009446184,-0.0089620035,0.009283899,-0.050577186,0.009039046,0.0031011663,-0.011829244,-0.0060287155,-0.040186986,-0.032422684,-0.029260376,0.02980083,0.036913868,0.032948423,-0.025855985,0.019713422,0.022487521,-0.026215352,-0.014840586,-0.020334145,0.053156324,0.023744818,0.010156202,-0.023840435,-0.005498195,0.025051964,0.0005845557,-0.0022102944,0.040172767,0.033279613,0.021585211,-0.014365491,0.019049553,0.0001613038,-0.036562696
11,0.029938802,-0.028808232,0.011261204,0.0047537955,-0.015070822,-0.024816904,-0.011333713,0.041760303,-0.034133513,0.0010239563,-0.017661484,0.024282875,0.029232435,-0.0012995845,-0.04278613,-0.032705784,0.03906614,-0.067923985,-0.034707077,-0.0069700903,0.030791378,0.014380802,-0.029229753,0.039926544,-0.017637214,-0.034521103,-0.024938129,-0.032685492,0.024597319,-0.011751822,-0.009256583,-0.023613678,0.010552963,0.031878628,-0.020200614,0.005192828,-0.017371334,-0.022203837,-0.017588317,-0.061012987,-0.027953641,-0.022623425,0.060309455,-0.035640538,0.0033125407,-0.06401101,-0.010503028,-0.019400204,-0.011823595,0.0009919083,0.029921362,-0.010845994,-0.013781679,-0.033545468,-0.004489115,-0.03146576,0.04068798,-0.016326424,0.056057945,-0.022121139,-0.011528005,0.031517122,0.024099223,0.010021561,0.012144999,-0.017141322,0.00496559,-0.035394054,0.010430571,-0.019960884,-0.060479116,0.010182662,0.051618308,-0.018768841,-0.004584781,-0.024242073,0.00017500199,0.0018454292,-0.051431432,0.03465867,-0.004914261,-0.0385236,-0.03358225,0.027859496,-0.03813063,0.032032944,-0.014858463,0.013479732,0.0031519728,0.04373574,0.058758646,-0.0041065994,-0.007564476,-0.009826219,0.0026399305,0.0026811657,-0.03901745,0.016548336,-0.022366876,0.020178476,0.017176183,0.056865316,-0.047375146,-0.0049203127,0.031019162,0.01366187,0.029398005,-0.021200264,0.049904905,0.008703982,-0.054566987,0.031880733,0.038178895,0.040153507,0.03839316,0.006487141,0.0127694635,-0.010633897,-0.0046974854,0.032115627,0.0092053665,0.035276715,0.011448162,0.00040477997,-0.01964023,-0.0032604316,-0.017999124,0.026027665
12,-0.0415316,0.017604942,0.008564814,0.0117734,-0.022094525,-0.007190177,-0.018909503,0.054061297,-0.015673041,-0.01749225,-0.01783417,-0.017984001,-0.0022594407,-0.004060306,-0.045863826,-0.037304033,-0.0101457555,-0.029472766,-0.015813818,-0.01790462,-0.01227282,0.010182219,-0.031648144,-0.07503431,0.022218551,0.012146701,0.003591534,-0.012778553,0.008249587,-0.06580252,-0.0044609536,0.0031190563,0.014543498,0.03312411,0.039182723,-0.043209206,-0.014586118,-0.030597335,0.011385076,-0.011209679,0.003904357,-0.029212479,0.029864827,0.008837261,0.04326902,0.027472176,0.038550727,0.029714286,-0.05021427,-0.011793712,0.007834431,-0.012703393,0.019891761,-0.0017655704,0.0011737685,0.012854592,-0.0664741,-0.018559426,-0.0044435286,-0.0037698715,0.01280376,-0.03797381,-0.023631005,0.03107733,-0.009209242,-0.023308655,-0.0022171899,0.009418557,0.018742591,0.029656807,0.012184342,0.03104005,0.007956287,0.030363692,0.043117538,0.014651756,-0.005360725,-0.012823765,0.0059547336,-0.02066098,-0.05047528,0.051570676,0.018626459,0.07946447,0.03946002,-0.051350765,-0.0155013,-0.049852498,-0.046510365,0.14339839,-0.033732686,0.06944268,-0.004438313,-0.022097403,0.066210896,-0.06082567,0.007993008,0.024089526,-0.027126435,-0.0571799,0.013723283,0.04931674,0.07325653,-0.020683045,-0.007635609,-0.038812045,0.0075654187,0.007508854,0.0066307564,0.04640079,-0.02792432,-0.1444336,-0.009110336,0.02662958,0.0041651377,0.04414735,-0.017934853,0.031676967,0.022395838,0.0009981159,0.008670311,-0.08370815,0.018456724,-0.05498321,0.032510903,-0.022811392,-0.065270744,-0.016229367
13,0.0014244225,-0.0026495547,-0.00028552607,0.036561586,0.05096028,-0.04665195,-0.02478687,-0.007855156,0.0007373704,-0.016126439,-0.038278747,0.055300996,0.013685315,0.0024751318,-0.013744775,-0.050903693,-0.035335146,-0.018481007,0.1598343,-0.029896941,-0.0016579214,0.013382538,-0.035683595,-0.0049715056,0.046056762,0.008988715,0.03266525,0.03508364,0.01479814,-0.01661142,-0.1784842,0.027467363,0.045784313,0.015429013,0.009158951,0.0027827227,-0.038512062,0.020275665,-0.009078799,0.038567908,0.061701052,-0.023285296,-0.053389058,-0.0470655,-0.007950747,0.017224059,0.019332537,-0.004382128,0.02399935,0.0036731001,-0.0069779027,-0.012558851,0.032269947,0.01317877,0.024603661,0.04807505,0.0155567005,0.037471324,0.009916003,0.007334463,-0.035641156,0.010271092,-0.018403938,0.015812902,0.030198129,-0.0036022319,-0.008474807,-0.039902344,0.0014826775,-0.018659566,0.038659897,0.016247151,-0.032622885,0.038062967,0.026009675,-0.06359593,-0.086986445,0.026708525,-0.017028775,0.01762915,0.048195075,-0.0024334858,0.019207492,0.04720555,-0.015366634,0.07148098,0.019788923,-0.006120512,0.006073437,0.026906002,-0.0005205009,0.005754973,0.037824184,0.008899237,-0.054089636,0.020519165,-0.028081918,0.010489234,-0.037206456,-0.0010797663,0.015014007,-0.0044128764,-0.044233114,0.03852499,0.057701964,-0.021628179,0.0091626,0.0059686652,0.0010527872,-0.009247995,0.0025727283,0.023101564,0.050184608,-0.045415584,0.0024921917,-0.00933143,-0.018136596,-0.022194764,0.0018130476,0.02330441,-0.008538974,-0.027537202,0.05277756,-0.03221907,0.010267897,-0.06090684,0.054046586,-0.0031339247
14,0.04986539,0.022021396,0.005933846,0.027961308,-0.012399299,-0.05993064,0.06806556,0.034292355,0.0030029546,0.0024275994,-0.033095066,0.011837695,0.030227162,0.015992709,0.0074845683,-0.028698757,0.066625014,-0.007680884,-0.041471954,-0.019449743,0.024455413,0.012172314,-0.004023329,-0.003159369,-0.054495633,0.039385807,0.012848832,-0.025618428,0.016601795,0.027104443,-0.058715004,-0.021039717,-0.023248298,-0.010082151,0.025248991,-0.017453125,0.0544962,-0.004513466,-0.034833014,-0.046136066,0.06250437,0.013833686,0.040222287,-0.029069223,0.027803648,0.03872385,-0.009250756,0.015363508,0.012303425,0.0026628473,-0.001017609,-0.0036259121,-0.019582573,0.02000617,0.006843978,0.022614172,0.09163282,-0.020979473,-0.009110199,0.0019902212,0.0007623841,0.05443316,0.0123897,-0.038738642,-0.033934694,-0.03293654,0.024463505,0.002266615,0.010477732,0.0370475,0.030733952,0.033314895,-0.081875816,-0.0028341555,0.029576939,0.014208315,0.0026708192,0.025037011,0.004616776,0.066004075,-0.009923455,0.019484282,0.0018674787,0.0577359,0.0255363,0.012908756,-0.03791888,-0.0026744485,0.016108988,0.065612316,-0.012211488,-0.01699811,-0.008937764,0.030908462,7.312129e-05,-0.038870107,-0.0027067882,0.0063461266,-0.049614806,-0.035000604,0.100908265,0.06587566,-0.018277604,-0.038873248,-0.040790603,0.023567073,0.009055471,-0.008666019,0.016024886,0.04998942,0.011612996,0.018569652,-0.01162929,0.039836682,0.02974047,0.03965251,-0.022081308,0.034625214,-0.0009460389,0.0043008705,0.02847053,-0.00016106264,-0.03146418,0.067143716,-0.020591753,-0.009271339,0.020046066,-0.048883736
15,0.0033690464,0.012135803,0.012135751,0.027795875,0.018983178,-0.013092906,0.011151441,0.017577397,0.038048495,0.0223762,0.0020009652,-0.04524386,-0.012169027,-0.021268765,0.004416829,-0.014316203,0.010884281,0.035316434,0.06591584,0.0020867852,-0.04489128,-0.009171473,-0.009746322,0.04517613,-0.015764225,0.00072858547,0.050176613,0.0004835161,-0.007269478,-0.00054387894,-0.018179653,-0.010730101,0.036151942,0.04253091,-0.018500265,0.021338925,0.026702985,0.016579999,-0.011249647,-0.08308248,0.019848956,-0.00524283,0.011036036,-0.019984761,-0.037107673,-0.0050115655,0.012829105,-0.03402967,0.011523103,-0.0062345155,0.015492368,-0.063067295,0.01284451,0.0522116,0.0319167,0.030626658,-0.04898364,-0.00029695578,0.018924547,0.04661963,0.056783363,-0.010487576,-0.039951503,-0.0219752,-0.051260445,-0.011581371,-0.0054141786,0.009307114,0.005277646,-0.017725423,-0.04643301,0.020194456,-0.017554974,0.019304354,-0.015651949,0.024225257,0.020678824,-0.016888635,0.007984379,0.01333148,0.014486461,-0.018026888,0.04084097,-0.02302755,-0.0023307449,0.0007484447,0.0028495546,-0.07996631,0.039823037,0.07346422,0.015883919,0.028846227,-0.030987766,-0.012368578,-0.019918675,-0.011508721,0.034945894,-0.0041292286,0.001998308,0.0046899393,0.0014498084,0.005217244,-0.054169346,0.019348212,0.005229449,-0.04767842,0.017628051,-0.03836868,0.015467711,0.023595702,-0.0006650906,0.025563464,0.033011805,-0.052461453,0.008379852,0.016651433,-0.018627275,0.015334653,-0.030459225,0.013900297,0.031848945,-0.010196296,0.007244441,0.009552124,0.015173147,-0.008007745,0.0028212036,-0.011183596
16,0.03935278,-0.008595846,0.008241748,0.0030766989,0.021384774,0.016588498,0.023447288,0.015048448,-0.033596348,0.017950553,0.010638728,0.0031043885,-0.00062241964,-0.028606895,-0.04587522,-0.07161819,-0.030054295,-0.076507024,0.02121971,0.014184309,0.022131437,0.006946503,0.017172718,0.03332113,0.030308513,0.010671636,-0.04555943,-0.020891605,0.0207892,-0.016584968,-0.07376667,0.009415722,-0.029194318,0.031163279,-0.024498029,-0.0059282146,0.00074588065,0.008391226,-0.013949617,-0.0043664826,0.0091283135,0.042440392,-0.008921748,-0.005521676,0.0031929086,-0.025478138,0.027249198,0.012103827,-0.011359554,0.018255604,-0.010425949,-0.010944982,0.014975411,-0.04627987,0.027760245,0.0192102,-0.023926133,-0.009891522,-0.031968277,0.016148351,0.022025716,-0.016599135,0.0011849959,-5.8042824e-05,-0.024575658,-0.013701282,0.01763237,-0.030151142,0.023428807,-0.039401352,-0.043511707,0.0009403572,-0.021097643,-0.015099142,-0.04422191,-0.0032356065,-0.009251084,0.004248346,-0.029973924,-0.033395827,-0.009447669,0.023207411,-0.029661812,0.0198946,-0.024051083,-0.0043929517,0.005082472,0.025341537,-0.060508385,0.07164779,0.026522651,-0.0012905647,0.018862475,-0.017841158,-0.0018214531,0.013062517,0.008435523,-0.027903808,-0.012549095,-0.012881289,0.016222062,-0.004508767,-0.043915287,-0.020585483,-0.035271324,-0.0072091054,0.01931557,-0.043591578,-0.008160924,-0.009826721,-0.034910876,0.016600303,-0.011140266,-0.0112874815,0.008647177,0.024874093,-0.037325807,-0.024759565,-0.002934372,-0.007949646,0.025201658,-0.01498105,0.030770957,0.0015339066,-0.012236929,-0.00014361378,-0.053330727,-0.004616994
17,0.0059433472,-0.00062627066,0.041857056,0.023123935,-0.018901858,0.03729005,0.044541437,0.0137881525,-0.019848526,0.030813072,-0.016132513,0.014997578,0.027413249,-0.019600075,-0.05148966,-0.052866876,0.053866692,-0.10505371,0.016488126,0.010826234,-0.0016312923,0.006322283,-0.0048186383,0.038973343,0.0023735745,0.02395925,-0.05096176,-0.032643456,0.008166882,0.02431251,-0.017211515,-0.04216823,-0.03369025,0.022535942,0.0028530331,0.049681067,0.018915735,-0.01755203,-0.052567963,-0.0089403745,-0.0012933108,0.000858867,0.0025734736,-0.027034659,0.009222516,-0.0031702241,0.040151868,-0.033153225,0.0058942502,0.0015375997,0.00596393,-0.043998685,0.044777855,-0.0977748,0.038560875,0.04589256,0.048849437,0.036597487,-0.0179503,-0.014389253,0.051921,0.005001931,-0.028939016,0.02376322,-0.03918458,0.011483929,0.012124152,-0.04162899,-0.0014779314,0.0014881904,-0.010426373,-0.017297093,-0.025191728,-0.046812646,-0.03844106,-0.003452355,-0.027204102,0.049183182,-0.04629896,0.03887549,0.0020355969,0.005059852,-0.00384773,-0.00028768403,0.0031459164,0.062310852,-0.04797789,0.028236669,-0.022287084,0.011098737,-0.017680144,-0.033787563,-0.04221415,-0.011137266,0.04826837,-0.012256274,-0.010528618,-0.0015438544,-0.0063497485,0.0041366327,0.008363321,-0.020499818,-0.07004247,-0.00059651386,-0.015739817,-0.0034407335,0.010912686,-0.04674688,0.051472,0.011808546,-0.07300958,0.006429378,-0.019694895,0.03982481,0.008467582,0.02140905,0.010521235,0.015400166,-0.019843753,-0.0039910134,0.027670344,0.018332621,0.03654361,0.020523844,-0.043799374,-0.020578409,-0.031916756,-0.02819928
18,-0.009094892,-0.015110377,0.004533746,0.0049388474,-0.06337526,0.090657234,-0.00032455998,0.0032962637,-0.07164346,0.032263484,-0.011117846,0.055266753,-0.049610738,0.018091407,-0.014206724,0.024181169,0.0036837303,-0.049656056,-0.04381446,-0.010152403,0.0021407702,0.00057510455,-0.02444302,0.004563608,-0.0335112,-0.008543231,-0.035589557,-0.06094844,0.01983517,-0.02025959,-0.09118798,-0.01394234,-0.03871437,-0.040245894,0.028533839,-0.019418864,-0.007087639,-0.018280528,-0.004938766,0.028732115,-0.023376415,0.02365722,-0.025218414,0.037059188,0.040881768,-6.319768e-05,-0.032543536,-0.008703645,-0.024029184,0.036190197,0.029768055,-0.03708788,-0.042031515,-0.06825731,-0.017072238,0.014327076,0.019253138,0.09092554,-0.0074401703,-0.029278561,-0.010026654,-0.045747433,-0.014876281,0.047011245,-0.03148331,-0.02265928,-0.0032731805,-0.021943502,-0.014827311,0.03986582,0.009978751,-0.06691879,0.049071275,0.028637154,-0.012980302,0.01180104,0.00027974963,0.03507375,-0.0055364254,-0.012872209,0.00012093485,-0.0193551,-0.03274679,0.010190405,-0.0069415295,0.03382896,-0.0066055474,0.057340927,0.0033492043,0.0052884202,-0.0047216723,-0.0060933367,-0.013004492,0.027537083,0.01070348,0.0069532753,-0.030931402,0.0014306474,0.0012879901,0.0065116757,0.01991451,0.024997871,-0.0118121505,0.016858475,0.027962677,0.00794797,-0.019730985,-0.03508704,0.02674116,-0.0035587437,0.0022168085,0.0102356095,0.0023629374,0.038521,0.007696285,0.0042278445,-0.019894317,0.0077043236,-0.035199367,0.04736795,0.012567725,-0.014024802,0.00029233703,0.041263994,-0.051033795,0.024185136,-0.006660851,-0.018728174
19,-0.031299133,0.012897035,-0.03448655,-0.02320645,-0.026562082,0.0698613,0.0032536322,-0.04681793,-0.034389272,0.0044253296,-0.02177067,0.01637053,0.03633518,0.031863622,0.00024674658,-0.035383925,-0.0314942,-0.054892655,0.050576128,0.018593518,0.006770175,-0.023622118,0.023593677,-0.019451788,-0.022215385,-0.031103086,0.055338267,0.042849775,-0.0104386555,0.02045209,0.033835936,0.02038694,0.0073815053,0.016672486,-0.024181273,-0.030188689,0.08553209,0.03729719,0.05128026,0.019003324,0.01578731,0.050334524,0.034463067,0.0051768785,0.05043649,0.020498939,-0.019590575,-0.010126404,0.0140577145,0.036083262,-0.046842754,-0.030219506,-0.028078625,0.05930155,-0.026916994,0.034952298,-0.009107053,0.025414811,0.043767314,0.047737576,0.031717774,-0.040394302,-0.026071368,0.016301753,-0.013590193,-0.00045679757,0.008236358,0.03197352,0.010439217,0.02626238,-0.012206287,-0.014216027,-0.0044212155,0.036698602,0.014199555,0.06128728,0.021805728,0.0012437013,0.01746401,-0.00011092864,0.00050045765,0.062618084,0.06492139,0.0016506964,0.027487976,-0.04205067,-0.013004708,0.039423075,-0.0020855537,0.037085425,0.011519352,-0.0047750757,0.039087653,0.03176379,0.0591211,-0.007301148,0.022760332,-0.011716783,0.0042641605,-0.040093116,-0.03614414,0.059697155,-0.009151958,0.008294261,0.06467516,-0.0032777102,0.0014986164,0.022244168,0.0024811083,-0.030159723,0.020644572,-0.002491685,0.048153877,0.05669283,-0.00096691726,0.0016757989,-0.014736328,0.010087714,-0.009706049,0.05777075,0.0026000508,0.016151018,-0.024913674,-0.02652234,0.04054142,0.019051252,0.013798773,0.006877808
20,-0.012319876,0.022767263,0.037593532,0.013399414,-0.0078122714,0.011511156,0.003887082,0.011801994,-0.029003132,-0.024535721,-0.0016359494,0.04258026,-0.06666667,-0.0020979631,0.03331678,0.004925697,-0.01498225,-0.013851161,-0.020027885,-0.0141275935,-0.00068297074,0.018837228,0.04417511,-0.04437762,-0.0050720545,-0.019954566,0.0066987197,-0.026404388,0.046759687,0.029290631,-0.024690332,-0.009024152,-0.015610108,0.012128809,-0.0509256,-0.016067816,0.022704631,-0.0047121192,-0.010361661,-0.0010967654,-0.01213376,0.02004125,0.0075636557,0.049019963,-0.021814601,-0.052058697,-0.028712213,-0.015291467,-0.00075924833,-0.013805123,-0.048397712,0.023195183,0.029036446,0.0056624888,-0.012678012,-0.029491514,-0.0052505834,0.0012468691,-0.021432854,0.001470322,0.0031437932,0.03769043,-0.060146585,-0.04135167,0.008116276,0.012257374,0.037302762,0.010256057,-0.0058326614,-0.03969074,-0.0075090923,-0.005970472,0.03332389,-0.004500451,0.013122345,0.027886089,0.036890276,0.014846703,0.010579826,-0.018806819,0.023886867,-0.014751099,0.018826485,0.065945365,0.03552608,0.025576264,-0.0946794,0.012002923,-0.047595784,-0.0029830602,-0.005813146,0.027913388,-0.03157491,-0.0026999933,-0.0061831353,0.02378694,-0.007218836,-0.0040346035,-0.011664937,-0.036901895,-0.004995862,0.044224385,-0.039974667,-0.021439238,-0.012954784,-0.04938154,-0.0027377591,0.033944014,-0.030610077,0.030654222,-0.0008921101,0.027008513,-0.017561156,-0.05651582,-0.0062404578,-0.0012623946,-0.016674422,-0.017847361,-0.011978623,-0.010818998,0.0017979812,-0.013803527,0.008183959,0.027805679,-0.0010689487,-0.0187894,-0.010073054,-0.067606404
21,-0.045603838,0.031009274,-0.017031442,-0.027159063,0.009512707,-0.026968574,-0.03467547,-0.0018968267,0.002949854,-0.04760631,3.8908697e-06,-0.011410787,0.002464666,-0.011987282,0.0075014057,-0.009083361,0.019329738,0.04796044,-0.007550314,0.00795281,-0.026940651,0.01808254,0.024017273,-0.10097547,0.00914902,0.03031595,0.0064311805,0.023465458,0.0022312575,0.0021545365,0.018182665,0.0036625601,-0.0141167855,-0.035269156,0.011470285,0.0075571053,0.055551425,0.015023402,0.017161144,-0.019518849,0.048495967,0.029517636,0.031388905,-0.010604435,0.014484101,-0.037060723,0.021827893,-0.050479285,0.0014876301,-0.0061622695,0.025290126,-0.03050727,0.0061280536,0.023342593,-0.04754463,-0.025963489,-0.016408576,0.0009009517,-0.09089273,-0.0163487,-0.01868988,0.05683098,-0.02457553,0.0069712694,-0.05308921,-0.038977183,0.04347291,0.018956026,0.008500047,0.023650182,-0.017237747,-0.06821581,0.011344476,-0.027833348,0.033875152,0.028894847,0.008927696,-0.006734809,0.017687913,0.031513114,0.01726546,0.04841068,0.034320537,0.020325731,-0.010515243,0.0044217864,0.013000006,-0.03352889,-0.02009153,-0.027434874,-0.0561993,0.15941271,0.0035205917,0.019313995,-0.034224577,0.016343102,0.012385428,0.00019133056,0.03002807,0.016261503,0.02461921,0.018902602,0.06333016,-0.04955969,0.026671942,0.026344271,0.007213377,0.035293516,0.018448437,-0.00045609442,-0.022912016,-0.031901233,0.066481166,-0.011862893,0.0017359668,0.0111698555,-0.03622262,0.018333673,-0.0061581614,0.039658234,-0.04380349,0.05482789,-0.025527222,-0.050080955,0.06950328,0.027630094,0.0049375915,0.062283278
22,-0.0038554664,0.009741079,0.0081782965,0.014191797,-0.002889731,0.03463662,-0.013158928,-0.05820576,0.04420998,0.0019944485,-0.021726511,-0.043734156,-0.009463434,0.009421714,0.020904845,-0.014849917,-0.057462428,-0.0031816692,0.04302559,0.012317543,0.016741915,0.023406452,-0.0021017483,-0.0034905805,0.024045274,0.012310291,-0.056806438,0.010757398,0.0034676383,0.007796267,0.040848162,0.042995784,0.008927318,0.039168343,0.034081966,-0.0248884,-0.011011714,-0.031856064,-0.017837048,0.015674071,0.009377003,-0.039392963,-0.04404231,-0.07773315,-0.019533798,-0.030109653,0.018444613,-0.038256176,7.1838294e-06,-0.002595362,-0.017946215,-0.04549317,0.040117852,-0.020910848,-0.016101992,-0.017744036,0.03469972,-0.031730037,0.004284336,-0.021850701,0.023614554,0.04579054,0.016256776,0.0058906605,-0.052796718,-0.020056888,-4.2641444e-05,0.002158332,-0.017684592,-0.034864303,0.08857599,-0.019883648,0.05717674,0.08330847,0.04240685,0.061712857,0.008460992,-0.009634274,-0.041220058,-0.05557068,-0.040756475,0.01928115,-0.02448909,0.037877686,0.007027893,0.034011416,-0.04885827,0.030842438,-0.0469786,0.062298235,-0.04441697,0.017093884,-0.0064864713,-0.026161343,0.012235985,0.022705369,-0.0138334315,-0.047118764,0.00052951515,-0.009219006,-0.03735134,-0.011956169,0.01707199,-0.03663712,-0.036726497,-0.0029014945,-0.0113125425,0.03129899,-0.004845669,-0.004593912,0.004915651,-0.042917874,-0.07271119,-0.01598489,-0.02279477,-0.0087218,-0.009881482,-0.057786908,0.05316706,0.0028671399,0.022211391,-0.016274901,0.032130755,0.028177058,0.02445618,-0.0594871,0.022819543,0.0151217235
23,0.01995891,0.014584511,-0.0043428554,-0.0025603548,0.0050200503,-0.009057771,0.05950157,0.038362183,-0.026634132,0.013185216,-0.018505406,0.015862573,-0.024473106,-0.007394705,0.024869798,0.009868968,-0.022215871,0.019625517,0.025060609,0.00046302867,0.016414821,-0.008868158,-0.013525018,4.505005e-05,0.016243683,0.018300878,-0.016665574,-0.03798367,0.011076362,-0.020079285,0.038113147,0.027775811,0.0313114,0.06297933,-0.005584008,-0.0048558414,0.030906469,0.019418012,-0.011047594,0.01869826,-0.019606717,0.0018480219,-0.025470052,0.06593713,0.01445955,-0.00934896,0.0073413616,-0.026234826,-0.02338571,0.003972156,-0.021076089,-0.025837751,0.02169321,0.045527633,0.035765775,-0.006001943,0.027884101,-0.043312762,-0.033433072,-0.0036353653,-0.018078769,0.025231406,0.022854185,0.004411883,-0.030756367,-0.033672243,0.034843437,-0.0013017037,0.0027584175,-0.024854807,-0.017464133,-0.040907398,0.019744901,0.084873885,-0.014532652,0.0038435066,-0.009097866,-0.0031579412,0.012514752,0.012971249,0.03858622,-0.02129226,-0.0057027843,0.009749797,-0.017361782,-0.020332575,0.032882612,-0.0165655,-0.011404114,0.040224325,0.025440037,-0.00052347715,-0.028325466,0.0032298192,-0.040887453,0.014495457,-0.02156623,0.031958222,-0.037612095,-0.020403815,0.019098585,-0.063307926,0.028807301,-0.024537971,-0.027793387,-0.0030751207,0.0014356818,-0.022598132,-0.016816594,0.03487342,-0.023783479,-0.008816594,0.0027689864,0.005304809,0.0008074599,0.038049012,0.020643264,0.0045349672,-0.0029121104,0.03275586,0.021669213,0.024958761,-0.007328339,0.023963986,0.0064781276,-0.0011486134,-0.03346213,-0.005642318
24,-0.015760884,0.006594158,-0.033901166,0.023811666,0.05510554,-0.03412523,0.05411656,-0.0283233,0.020024206,0.013917996,0.0027124935,-0.0018195173,0.032435473,-0.011434845,-0.0027174035,0.050015066,0.030357119,0.0013998469,0.08133108,-0.018730348,-0.021734275,0.006390084,-0.020795064,0.022853795,-0.016966658,0.002659791,0.0047895024,-0.032950677,0.014389484,-0.017197033,0.056269508,-0.0047959187,-0.010935151,0.0069761504,0.030057564,-0.01216587,0.007687885,-0.019187845,0.0066054408,0.008688905,0.04233484,0.026844632,0.0012070765,0.051137455,0.016062826,0.055588245,0.018888867,0.023456125,-0.021681536,0.06250349,-0.030781299,-0.023045266,-0.014516574,-0.02657949,0.0025459542,0.013466235,-0.037183367,0.021546023,-0.062237494,0.0066966503,-0.0044962717,-0.00041123724,0.007706283,-0.028730163,4.8068516e-05,0.010097648,0.008329402,0.014560668,0.014294698,0.017429257,0.052245457,0.00066627923,-0.03531982,-0.0042875684,0.005627182,0.021462094,0.007817106,0.017970499,0.06496545,-0.008337816,-0.011004002,0.023481617,0.017324563,-0.010072905,-0.02722177,-0.0025071928,-0.043324877,-0.0057785506,-0.009621394,0.07639,-0.018251738,-0.022203863,0.027838089,-0.026723035,0.0065052602,0.010921556,-0.0050921994,0.011214658,-0.0023946045,-0.05368848,0.05977061,0.0010858192,0.022691883,0.014519483,-0.013808814,0.01634198,-0.01874787,0.03340392,0.020972678,0.008073971,0.008728406,-0.0061181453,-0.018278036,0.029795017,0.0065776426,0.017047917,-0.02936771,0.019439457,-0.018314525,0.014383609,-0.010783504,0.00031634103,-0.000290441,0.0279743,0.015175135,0.009795329,-0.017990267,-0.09003143
25,0.0240353,0.018131107,-0.02525264,0.0023591316,0.025548818,-0.007100082,-0.027848383,-0.021414759,0.059689295,0.011714475,0.03976724,-0.08070688,-0.016570399,-0.013977024,-0.0680655,0.009997515,-0.043749005,-0.0077466504,-0.010554793,-0.017838847,0.014547065,0.0068065287,-0.016851954,0.06276382,-0.001129303,0.0050153746,0.012504757,0.027540304,0.021913966,0.004258108,-0.13043064,0.047006745,0.020992452,0.05477727,-0.04052681,0.036656406,0.03207584,-0.040207006,-0.039586756,0.006560812,-0.0054027066,-0.023162793,0.0135419555,-0.011899488,0.013403619,-0.013900712,0.01114453,0.026354475,-0.043889653,-0.016894178,-0.039654925,0.004555007,0.0046095126,-0.018386519,0.029266212,0.011091369,-0.020827537,-0.017362008,4.2674077e-05,-0.035592705,0.0029232337,0.009220547,0.063130625,0.020785695,-0.04539079,-0.040703986,0.012557266,-0.022592999,0.030879214,0.049191553,0.095896944,-0.008930918,0.024710126,0.02728751,0.010299735,0.06311415,-0.007333389,0.03751907,0.057605796,-8.3353596e-05,-0.07251445,-0.042367183,-0.018405696,-0.008548655,-0.01082807,-0.009224479,0.025295157,-0.035830725,-0.0063443775,0.013164818,-0.012001093,0.020454971,-0.018044205,-0.03276444,-0.017794857,-0.033043124,-0.006849668,0.021019066,-0.010550494,0.050199114,-0.11204288,0.032203466,-0.031163746,-0.0024449672,-0.003928705,-0.0061538136,0.016325219,0.00723621,-0.019847615,-0.058890723,-0.014118683,-0.019903397,-0.012563548,-0.067555815,0.019921245,0.019933678,0.016318185,-0.011967651,-0.024499474,-0.018481633,0.031298548,0.09427557,0.030877285,0.005383366,-0.06682139,-0.008183429,0.029119166,-0.023608992
26,0.020231089,0.011419733,-0.004337261,0.024267172,0.0031689843,-0.0074864463,0.06270679,-0.0074497224,0.0011671565,-0.012486302,-0.009534945,0.023319937,-0.073292896,-0.0221299,-0.007524624,0.006284168,0.004656488,-0.019009605,0.014450655,0.04547874,0.024567654,0.0473222,-0.02673045,0.06655564,0.01014091,-0.027119773,-0.013436312,0.001883615,0.016825106,-0.037430037,0.00951911,-0.022469599,-0.022991713,0.01805325,0.07731032,2.8226721e-05,0.034168582,-0.0036490741,0.002606112,0.04511711,-0.038553137,-0.009365722,-0.020316368,-0.06068974,0.0399239,0.000942212,0.02145712,0.02182772,-0.018070705,-0.009181884,-0.026025502,0.026691876,0.0141190905,-0.0033932845,0.018361391,-0.009107391,-0.017562546,-0.042188216,0.056217656,-0.01002403,0.040366493,-0.030389948,-0.020305207,0.02226139,0.0025550635,0.064323805,-0.0046975724,0.0102637755,0.045682684,0.026093118,-0.00081893016,0.026822306,0.037607584,-0.025987232,0.00820823,0.002346367,-0.0056421123,0.0132167805,0.017635567,-0.029900791,-0.023801686,-0.030310482,0.02818641,0.017079575,-0.032637697,-0.047809396,-0.028400421,0.017421583,0.008180383,-0.010789245,0.00024030393,-0.02458893,-0.012750279,-0.010371182,0.010406821,0.014358786,0.010812103,-0.002025657,-0.056055434,-0.0019549935,-0.073594294,0.016585102,-0.015692346,-0.007632373,-0.03435258,-0.04651406,0.023063662,-0.0067136786,0.023224734,-0.000116526964,-0.01880462,0.011576351,-0.028458327,0.04250874,0.00564678,-0.031112593,-0.02872163,-0.0016026974,-0.024210038,-0.033478916,0.0013169507,-0.0022229918,0.040789265,-0.015746586,0.030025283,0.03908246,-0.06015974,-0.09406377
27,-0.023196293,-0.00072982104,0.02493661,-0.0045172796,-0.04189054,-0.0040295417,-0.022810852,-0.015639579,0.019698031,-0.03197216,0.0011447752,-0.032703914,0.046078287,-0.009055505,0.025384717,-0.042441424,0.014814473,0.0030501203,0.0058921077,0.018519482,0.012909133,-0.0052589523,0.030790847,-0.01717566,-0.012954701,-0.008059047,0.0034904885,0.03837069,0.0143437125,0.032507155,0.027753357,0.0010338499,0.014994599,-0.021200478,-0.03630117,-0.014340662,0.003033155,-0.0063216574,0.020586006,-0.01498739,0.027884869,9.4350056e-05,0.040424146,-0.02783194,0.01056986,-0.024268052,-0.017848361,-0.030160606,0.028196506,0.0017614854,-0.0062829317,0.03073698,-0.026333734,-0.018066358,-0.02207467,-0.019558521,0.0044414727,0.016120471,-0.053114504,0.019056236,0.01829468,0.028120443,-0.055290442,-0.018689906,0.0004691136,-0.0013162231,0.019214144,0.01427014,-0.0083477935,-0.008644093,-0.0034362343,-0.07055045,-0.04357295,-0.015084112,-0.012007361,-0.011987374,-0.020046063,-0.01911793,-0.047425672,0.051460423,-0.0013357428,-0.026070088,-0.015054002,-0.010820266,0.014262643,-0.053551484,-0.0015897913,-0.0012644827,-0.003045347,-0.023393694,0.03722059,-0.10050245,0.012151457,0.0023361437,0.027642045,0.009337657,0.022947986,0.0039169737,0.0031938911,0.0035794694,-0.025306484,0.026683016,-0.043969385,0.00033212843,0.0772444,-0.027331736,-0.0051753367,-0.032611553,0.016776217,-0.031781003,-0.034580417,0.008886124,-0.09663323,0.011552916,0.013286659,-0.011634486,-0.025062252,-0.0011986591,-0.019968584,0.014540478,-0.020820491,-0.023355357,-0.05916637,-0.029332412,-0.010394484,0.028670346,0.030668188,0.04527482
28,-0.013286597,0.013145598,0.01967241,0.030280763,0.035853658,-0.011957439,0.01612048,0.002676351,-0.039364412,0.012039637,-0.013382226,0.010022392,-0.010348322,-0.0013309293,-0.015472132,-0.019834265,-0.031678032,-0.011217553,0.01939234,0.025078543,6.939823e-05,0.023032548,0.0011149363,0.012982944,-0.0016535594,0.0047112023,0.0014707067,-0.012047649,0.022030154,0.009423557,-0.004035023,-0.0016922381,0.022716109,0.031870637,0.016282838,-0.016958693,-0.04214853,-0.004989527,-0.0073706233,0.02822627,0.04614236,0.023868097,-0.035437442,-0.023015762,0.014169158,0.009410755,-0.0024314304,0.0028969236,-0.0062812394,-0.01947226,0.015158302,-0.006434014,0.023967322,-0.020300707,0.03326297,-0.004625383,0.008554308,0.0017227144,0.0095095225,0.004934794,0.016551122,0.04187015,0.0059874025,-0.013024131,-0.010251624,-0.013373808,0.009494026,-0.011120393,-0.00041834408,-0.013148944,0.011000851,-0.031280197,0.0020712914,0.045854233,-0.020494075,0.042614896,0.0014950819,-0.015622707,0.010007185,-0.019083248,-0.018816464,-0.009269899,0.024142018,0.020336045,-0.019035492,-0.010787164,0.004850803,0.0041745375,0.01122465,-0.00030125852,-0.01748233,0.014314028,-0.023491662,-0.010701831,-0.036032245,0.028463319,-0.009499518,0.004463635,-0.0051327283,0.021895515,-0.014553339,-0.0049424088,-0.0060812663,0.00788182,0.0162001,-0.00083905476,0.001421975,-0.012716545,-0.011083384,0.026651844,0.0015584768,-0.009088353,0.023162052,-0.03745748,-0.011176219,0.013656222,0.0038032546,0.0043306975,-0.020492924,0.0136254635,0.03216832,-0.00885552,0.03577139,0.012921551,0.010378808,-0.0047861296,-0.014012078,-0.0072238883
29,0.035017956,0.01565695,-0.012639517,0.0640513,0.004227009,0.009066732,-0.0054146955,-0.012605889,0.031164877,0.022989739,-0.042106215,0.0056295404,0.010376975,-0.0011685301,-0.0130163925,0.0026323404,-0.006483524,-0.0126455305,0.04749498,-0.0041287956,0.007850258,0.028970059,-0.024773765,0.01702557,-0.0012682821,-0.010325443,-0.057670444,0.004570653,0.03736024,-0.009638598,0.04041193,-0.004096403,-0.006675816,-0.0082520945,-0.01291277,0.0020854142,-0.019123783,-0.05548871,-0.02442054,0.009412849,0.0054455157,-0.0018097494,-0.023383489,-0.012067826,0.02321356,-0.0013126505,0.01881481,0.0010772119,-0.0038173601,0.022035962,-0.036425024,0.008340127,-0.010792437,-0.050841577,0.02725671,0.012030012,-0.025717754,0.0355404,-0.0038067363,-0.032794684,6.0027647e-05,-0.0034907374,0.028632408,-0.024657097,-0.015041655,0.0497517,-0.035268426,-0.0524851,-0.0095787095,-0.009365399,0.024193617,-0.02188714,0.011731075,0.037855748,0.01769805,0.030171389,-0.0022321076,0.03970785,0.017744029,-0.009328792,-0.015214581,-0.008662684,0.0041369037,-0.022238065,-0.03357576,0.019665826,-0.034258764,0.02975248,-0.0032922027,0.0054826722,-0.027351826,0.022413028,0.030837694,-0.013307704,0.012308476,-0.0062851696,-0.07846885,0.0065998835,-0.020335982,-0.058220826,0.008509858,-0.00010502924,-0.015122241,-0.0068160826,0.00011899146,0.014443412,-0.0017552935,0.022610914,0.006312413,-0.010934743,0.0038817488,0.0125182895,-0.013417563,-0.029533615,0.010655148,-0.004756367,-0.002573382,0.0112336045,0.017094499,-0.023025587,0.015155717,-0.0015423562,0.03942636,0.026423506,-0.02123892,-0.010670795,-0.012193794,-0.048394907
30,0.011036474,-0.014501626,-0.04796603,-0.013776692,-0.030861195,0.0039387094,-0.0132698845,-0.018537948,0.03711938,0.017317548,-0.034014504,0.023780832,0.012311422,-0.002756416,0.0026545043,0.0064275353,0.016614903,-0.04064248,-0.022855276,-0.0065156296,-0.039640617,0.0042415243,-0.028111817,0.017725864,-0.0069448436,0.042484418,0.0141119575,-0.0089560645,-0.033786964,-0.017620588,-0.03842539,-0.033689097,-0.0607809,0.009796332,-0.027726034,0.0021582663,0.0098364595,-0.011528992,0.066841334,-0.012336931,0.008759396,0.0009776687,0.005484901,-0.043088485,-0.03300348,0.031724054,0.034992203,0.011421042,0.008336117,0.006441092,0.041070513,-0.016535921,-0.039999843,-0.0056676054,-0.016180817,-0.019441543,0.019236645,-0.0037308193,0.02926886,-0.06160996,-0.020766139,0.016736444,0.0002994314,0.021859428,-0.020043865,-0.020649962,-0.031896967,-0.034132138,-0.019725835,0.017017197,-0.050191343,0.010934973,-0.022745855,-0.03987514,-0.015730849,-0.037537213,0.026791483,-0.021104183,-0.0026300834,0.02669918,-0.027672857,0.0031518238,0.010162419,0.03706342,-0.016350944,0.0038135238,-0.005940243,-0.029963609,0.01807388,-0.0030379419,0.042887386,-0.030693261,0.059638135,-0.0043202667,-0.017361658,-0.02445808,-0.06238866,-0.018769398,-0.010329785,0.02343056,0.017481985,0.009494335,-0.036672708,-0.006813655,0.0071488936,0.054819744,-0.011136866,-0.029470598,0.017833628,0.033193365,-0.019939968,0.011743137,0.0023564452,-0.012787392,-0.00709363,0.004137181,-0.018419968,-0.018166391,-0.01674314,-0.0027975806,-0.0057198424,0.0028580108,-0.0111602,0.0106210355,-0.054734528,0.02640688,0.015358201,-0.0032041613
31,0.02320458,-0.006754411,0.03183585,0.04141776,0.0076750587,-0.0053049615,0.030933743,0.042604975,0.022131596,-0.007008933,-0.01698802,0.046035018,-0.010320237,0.028215108,0.025290193,0.022423312,-0.026605789,0.052033473,-0.025320176,-0.014541855,0.0050356467,0.02507428,-0.009497667,0.026264315,0.02978031,0.013475926,-0.017322388,-0.007843814,0.025226908,-0.023134189,0.015444807,-0.0047717392,0.020894278,0.028227592,-0.022368593,-0.0023501026,-0.0031905188,0.0025678733,-0.013256591,0.012315654,0.0069007827,-0.024119059,0.008547618,0.05874979,0.008406353,0.006390128,0.028742997,0.0015039244,-0.0077167763,-0.0041182227,-0.031932943,0.014524638,-0.006978358,0.018773599,0.018018672,0.004532858,-0.0041381004,0.003938901,-0.07879292,-0.009456052,0.0147525,0.01620146,-0.033602227,-0.0070486283,-0.014970983,0.014712194,-0.0017427845,-0.009828014,0.011781741,-0.0033823105,0.007795684,-0.005996691,0.013405593,0.03040945,-0.0049082167,-0.026770968,0.0077535626,0.028421987,0.0064660585,-0.000505367,0.014650319,0.01713227,-0.013898048,-0.003862616,0.022944309,-0.04094861,-0.021371152,-0.0028680502,-0.0200253,0.0037860186,0.022608856,0.0044573667,-0.0012922506,-0.013424756,0.021806737,-0.015011151,-0.015998073,0.023819588,0.00071355136,-0.009615462,-0.028536562,-0.021229414,-0.011818019,-0.0071577905,-0.021446798,0.035967004,-0.01113102,0.018610815,-0.008331472,-0.024275236,0.010595038,-6.0098624e-05,0.000560298,0.0035880045,-0.00019428991,0.009843458,0.01838161,0.007596064,-0.007879757,0.00080472825,0.011894477,-0.0040033786,0.025903624,0.014172293,-0.0050776266,0.030500583,-0.011737951,-0.013220425
32,-0.019633068,-0.0011857301,0.014055763,-0.0057203127,0.040107302,-0.03433649,0.06330762,-0.023868477,0.00915911,0.008901368,0.033915564,-0.033434972,0.021473024,0.020786399,-0.06764234,0.0012011353,-0.013421414,-0.059836376,0.014121787,0.00916504,0.019483024,0.020506237,0.043401666,0.08021125,-0.0077838763,-0.022050057,-0.042126987,0.016235875,-0.020019904,0.03518762,0.037313763,0.040998302,-0.0012599968,-0.0025767388,0.031872593,-0.044819836,0.0026870416,-0.013055741,-0.0140560055,0.064561404,0.01946178,0.018744824,0.02328675,-0.086300805,-0.0289198,0.006713848,-0.01595975,-0.0022681935,-0.028606923,-0.012643005,0.0077282055,0.05277507,-0.035270207,-0.07393531,-0.022056784,-0.017088471,0.035737522,-0.057136893,0.013731792,0.02252106,0.057699237,0.013082717,0.046954688,0.0102853505,-0.028144633,-0.028762572,0.014826054,-0.020044245,-0.008314049,0.009550353,0.038639147,0.03734798,-0.024873005,-0.056950938,0.006153597,0.08949286,0.01437347,-0.011850571,0.018668065,-0.046334375,0.0024325876,0.006378569,-0.012792598,-0.005996228,0.0007184832,-0.027416399,0.023877664,-0.024325969,-0.03523603,0.006669006,0.019853957,0.054827724,-0.0021991576,0.005228407,-0.015643729,0.010028383,0.014604473,-0.048092593,0.00437154,0.013164065,0.008053217,-0.008800274,0.13880107,-0.04118549,0.021642644,0.012704718,-0.026446385,-0.034649085,-0.037654992,-0.06503477,0.010385626,-0.020350792,0.0051790224,0.08196799,-0.01032088,-0.041696515,-0.025970045,0.009933132,0.04359411,-0.017967332,0.0018565407,0.043237202,-0.011245453,0.015430373,0.009532449,0.007415007,-0.016108368,-0.0050127152
33,0.009824363,-0.019796161,-0.031402458,0.0018907309,-0.026769651,0.03546433,-0.004935473,0.0029411835,0.06477325,0.0009340559,-0.009817886,-0.009174752,-0.0064807455,0.052578177,0.0017919599,0.014649616,-0.039235394,0.0097956,0.011463434,-0.006094217,0.024823058,0.009759847,-0.055330228,0.027804608,0.024161091,-0.07000203,-0.0184046,-0.0021989539,0.018615762,-0.056555096,-0.023240492,-0.03622945,0.030897884,0.0041713146,0.0019814295,-0.0037339323,-0.014649148,-0.025813466,-0.010903233,0.033053998,-0.025789019,-0.005773006,-0.03599396,-0.0011254079,-0.0054891044,0.038436394,0.03649181,0.009878622,-0.045964714,-0.043748874,0.01727087,-0.009956649,0.022214482,0.03532346,0.0028763816,-0.020421615,0.0021440736,-0.07836454,0.036598608,-0.028778724,-0.03616123,-0.01943733,0.014822211,0.0035742368,0.026760751,0.005133038,-0.02226693,-0.045805685,0.007824725,-0.0060930853,0.015574928,-0.0232092,-0.023193976,-0.0005921188,0.008401166,-0.033749893,-0.021264475,-0.020580823,-0.0077132224,-0.06578593,-0.016132243,-0.0020041168,-0.022122752,-0.040368967,-0.038979128,-0.042968355,0.03094897,-0.009715184,-0.036350537,0.015938906,-0.0025093772,0.023251638,0.017142313,-0.04992552,-0.05271311,-0.02007023,-0.052067462,0.022652084,-0.02764589,-0.049549077,-0.026134832,-0.09373307,-0.09474466,0.011993746,-0.0063544544,0.02723587,0.007211381,0.00069435383,-0.019488022,-0.0019605213,0.044159368,0.004030754,0.006183398,0.028827174,-0.0017307145,0.0019681163,-0.024336716,0.0040796464,0.015170011,-0.0113846855,0.0054270145,-0.04068272,0.06054063,0.023309475,-0.0035917072,0.012263225,-0.0076553556,0.011594311
34,0.0027756216,-0.016030638,0.052795805,-0.008522092,0.034832515,-0.017012008,-0.045498706,-0.0014481163,0.03931875,-0.010427224,0.008634148,0.011287469,-0.019762892,-0.007799828,0.008377325,-0.011175158,0.024003744,-0.0745738,0.04213892,0.024124127,-0.0132694235,0.0044193463,-0.02690212,0.03103126,-0.0067417515,-0.024721967,-0.061853305,-0.022053966,-0.015509555,-0.07278534,0.01901358,-0.043492913,0.013214774,-0.014825927,0.09697146,0.01866537,-0.0116359135,-0.031243244,0.0235005,-0.06151453,0.019053254,-0.0040838653,0.020162392,0.007933752,-0.005084799,-0.044158783,0.035599764,0.02628546,0.012917777,-0.0030433284,0.019385401,0.028654516,0.023632213,-0.028884405,0.008557283,0.01961371,-0.023918184,0.006660586,-0.012264458,-0.019558461,0.031915504,0.037622828,0.03191964,0.026725082,0.00569339,-0.031866744,0.04464258,-0.022541735,0.03821023,-0.037274703,-0.05298809,0.000654709,0.077208444,-0.0109688565,0.0119982315,-0.045861434,-0.035034884,-0.002129839,-0.015260107,-0.0011153354,0.025465807,0.030545915,-0.024853075,-0.0042592227,0.030505935,0.0037161056,0.0034312883,0.030059718,-0.05190177,0.025186082,-0.053767785,-0.03316664,-0.04032975,0.02641439,-0.09978358,0.021074016,0.03685389,0.0028015098,0.042710513,0.0086150495,0.051255327,0.020875769,0.016065415,-0.04692473,0.0057626506,0.044451095,0.014345554,-0.064568624,0.044508025,0.04874248,-0.017299425,0.028009782,-0.017423904,-0.007978037,0.010067212,-0.005850072,-0.020464493,-0.0015986826,-0.076186106,0.04397364,-0.008387425,0.026668696,-0.0077758804,-0.040242746,-0.046766303,-0.027293626,-0.00511988,-0.036108006
35,0.0008420862,-0.0031812096,7.1472015e-05,-0.031732153,0.0016461075,-0.0045227995,-0.0805941,0.0010479499,0.021561332,0.009278583,-0.026689019,0.038895264,0.022708936,0.02461964,-0.06830069,-0.026767388,0.0037730024,-0.075354286,-0.08733609,-0.013440095,-0.08624667,-0.009565192,-0.029588655,-0.007537477,-0.0037829888,0.007493094,-0.13252302,-0.019818045,-0.052952375,-0.037581276,-0.09948097,-0.023496794,-0.03388815,-0.052037466,-0.015477586,-0.008551708,-0.011256593,-0.050754253,-0.00875678,-0.008145769,0.0059330584,-0.034263883,0.033626318,-0.06983158,0.0325737,-0.015558541,0.024107309,0.0112911165,-0.0068103797,-0.010995078,0.01812899,0.023510868,-0.0036288474,-0.015735606,0.036480267,0.0028697315,0.02105651,0.029958881,0.029790109,-0.15785122,-0.029875007,0.025739238,0.050844166,0.046541236,0.06611962,-0.0021496108,-0.00644056,-0.20245852,-0.048082195,-0.010805061,-0.053870104,0.010992058,-0.0054239696,-0.048116624,-0.0117293075,-0.09666748,-0.0039438196,0.0410827,0.021072704,0.014678791,-0.029725378,-0.011559099,-0.078324825,0.01110309,-0.010965878,0.052866157,0.008482059,0.033984844,0.0490698,0.012652471,0.009635591,-0.027103133,0.04551042,-0.018549467,-0.0010519665,0.012015344,-0.21056518,-0.02242118,-0.011594822,0.03772163,0.0018081788,-0.0018072763,-0.051861346,0.01704375,-0.025281202,-0.030866586,-0.05144307,-0.025133662,0.019617653,0.03846643,0.01310974,0.013528722,0.017894257,0.052083075,-0.04831193,-0.023510411,-0.04603624,0.04679008,-0.038087837,0.033680778,0.060001753,0.024814416,0.07027645,0.030436687,-0.025093453,-0.012551046,-0.036438014,0.01841746
36,0.0015212389,-0.0074381,-0.00086481846,0.018322302,0.015930286,-0.005487603,0.0037039511,0.0046593775,0.00024730118,0.010011514,0.0013354226,0.010847682,0.0023784551,-0.012840142,0.022319043,0.017825702,0.030251069,0.022380421,-0.0035654833,-0.014225617,0.016113752,-0.01782015,-0.011590289,0.032357212,0.00012113809,0.007983296,-0.01853107,-0.0038986295,0.0055651,-0.025482103,-0.018976696,0.023681069,0.0103062475,-0.010445869,0.0031867565,0.051700618,0.009611642,0.021315476,-0.006333557,-0.017396733,-0.024342345,-0.007168788,-0.01370424,0.042857584,0.014629503,2.5175003e-05,0.025867244,-0.012079881,-0.012760859,0.012146567,0.022336507,0.0028847964,0.0053019393,0.025126563,0.003970508,0.0072355927,0.015928082,0.007515955,-0.0008721975,-0.0133113945,-0.005915463,-0.006757216,-0.0016390977,0.034563225,0.024735376,-0.0204213,0.015733194,-0.0075561414,0.017622568,0.009297817,-0.016254423,-0.026244879,-0.0018558629,0.02019315,-0.01334343,-0.01883687,-0.025370998,0.008769977,-0.012996982,0.021478416,0.008005787,-0.03211624,-0.0146620115,-0.0033429153,-0.021271061,0.027855558,0.0093144765,0.006438706,-0.005103886,-0.02476416,0.001091989,0.018680822,-0.0038759774,-0.023628704,0.00040587748,-0.016380155,-0.013610765,0.046560872,-0.0057272385,0.021780832,0.011868403,0.0020646034,-0.012104855,0.0011480367,-0.0020423976,-0.0016674849,0.032694682,-0.022781415,0.0019283178,0.0016641364,-0.018087752,-0.013344874,0.01492234,0.04392287,0.035434317,0.028639134,0.01991102,-0.011436654,-0.006991303,0.008871244,0.003372293,-0.012986723,-0.0074742846,-0.0016090625,0.024567982,0.005772577,-0.014359127,0.0047744685
37,-0.018486245,0.033891574,0.021724747,-0.0004109268,0.046766564,0.04230648,-0.07334178,-0.025314817,0.014092058,-0.021829955,0.008846362,-0.026094347,0.0114211645,-0.04096161,0.0082788635,-0.046842612,0.022086957,-0.001069391,0.056105454,0.017768627,0.018208874,-0.01794341,0.0048171333,-0.008613142,-0.0021304917,-0.0076319776,0.011706246,-0.023286909,-0.012579355,-0.036720026,0.0462887,-0.022463705,0.059060287,-0.006128534,-0.00791486,0.0097009875,-0.005629312,0.017033055,-0.009258178,0.0040375255,-0.0023333794,0.03208978,-0.02142942,-0.028762331,0.01232209,-0.030787064,-0.027803574,-0.033809498,-0.00169058,-0.01611842,-0.11715516,-0.014080074,0.015371232,-0.027463624,0.01019451,0.01799164,-0.048734687,0.028485639,0.0033013453,0.032528326,0.061865408,-0.032534964,0.00834426,0.009836464,-0.0071632746,-0.003026932,-0.02842798,0.017587097,-0.018613977,-0.009018816,0.015326678,-0.04290063,-0.046743114,0.06820812,0.011402443,-0.0019835758,-0.015363123,-0.0023903272,-0.017034966,0.009281881,-0.008643487,-0.014939734,0.05196522,-0.013266836,-0.020465,0.013353405,-0.0099686645,-0.0042494987,0.025678538,-0.013172793,-0.010350859,0.07588583,-0.0028152943,-0.017618826,0.0691947,-0.0139230285,0.03455446,-0.008813641,0.035416156,-0.023494752,0.013340572,-0.0074951625,-0.0030492458,-0.03307017,-0.018295992,0.0626206,0.012509376,-0.013165817,-0.019285936,0.013716362,0.040722825,-0.014753286,0.030605951,0.04451447,-0.003911962,-0.01714541,0.011664588,0.0059205247,-0.023888925,0.047785167,0.008055359,0.010155927,0.029277947,-0.027529184,0.00044769185,-0.0073539317,0.0021361758,-0.0077924505
38,0.004026246,-0.0043339054,0.020265384,-0.01906044,-0.022726424,-0.03021735,0.013455334,-0.015761102,0.012261882,-0.030329293,-0.0049174046,-0.00530405,0.007876078,0.004560886,0.009757515,-0.041784696,-0.004071954,0.012037753,0.03798224,-0.002444318,-0.024748584,-0.02104112,-0.009016031,-0.037043527,-0.0027884743,-0.0043786084,-0.0034090732,0.01063274,-0.014019802,-0.00446895,0.0010891922,0.0053154007,-0.019302294,-0.012684816,-0.008097039,0.022325676,-0.0025830145,0.050450936,-0.030450372,0.012854359,0.0028665005,-0.0126852775,-0.0030907057,-0.037626125,-0.023223238,-0.005351083,-0.02487959,-0.02567381,-0.0025614733,0.0016062661,0.021661313,-0.02223714,0.009632902,0.018468276,-0.02698117,-0.007850635,0.03911158,-0.036275484,0.041216567,0.014964787,-0.0014647587,0.0020867789,0.0018485684,0.03372448,-0.000120379955,0.001817395,0.0029558144,-0.009416797,-0.022296334,-0.01064553,0.0061364174,-0.011510601,-0.03713482,-0.03619756,-0.009364398,0.011722171,0.012557889,-0.0034288003,-0.02161831,0.001341678,0.022316484,-0.026670925,-0.0024664772,-0.04561156,-0.009905614,0.0117618125,0.005178505,-0.00014593817,0.04020511,-0.07295446,0.01681174,-0.025261497,-0.011726846,-0.006116273,0.0037406927,-0.016850596,0.030720474,0.011239732,-0.035179667,0.0350748,-0.0417116,-0.0695169,-0.024317903,0.01265577,0.0036923704,0.03603661,-0.0058265203,-0.005824384,0.029792225,-0.010854004,0.01995298,0.009517892,-0.014586237,0.074624166,-0.026598327,-0.04712738,0.03305142,-0.02454704,0.006952792,-0.01530501,-0.018513832,0.025278736,-0.024371618,-0.03605914,0.013609032,-0.014528032,-0.020357877,-0.013959925
39,-0.013845821,0.0027286045,-0.0027955838,-0.0012754564,0.018532583,0.039787296,0.060498383,0.014924304,-0.028370595,0.03277016,-0.017433925,-0.032771952,-0.010481034,-0.0016651229,-0.007995123,0.03798216,-0.03698442,-0.033785567,0.048482306,-0.012739116,0.010379232,0.01459755,-0.02221671,0.035044476,0.009505626,-0.00036573817,0.028858192,-0.009376953,0.004424162,-0.048593435,0.064555295,-0.00029432308,-0.019639513,0.054654907,0.019557225,-0.009214668,0.0054056607,-0.0003745897,-0.035224386,0.0066227363,0.009835627,0.0014078206,-0.004028803,0.008719351,0.017543986,-0.009371877,-0.029871942,0.018261546,-0.03697844,-0.0031528238,0.024456909,0.038976483,-0.017591128,0.0032266062,0.009521878,0.015368949,-0.008056038,-0.046772093,-0.014139184,-0.0046278723,0.008303989,0.012514325,-0.021082133,-0.011330156,-0.0033047898,-0.02383276,-0.007985692,-0.011488847,-0.006987113,-0.02122083,0.009834769,-0.009005066,0.036455795,0.0072272797,-0.00025026867,-0.01289303,-0.042701274,-0.033719204,0.01690832,-0.0538296,-0.043167435,-0.014553512,0.029033212,0.036339574,-0.010919927,0.005061279,-0.014221093,0.031514894,-0.03796104,0.0785951,0.00021054217,0.01784573,-0.032112088,0.030613367,0.020703733,-0.012478222,-0.032784604,0.0032855733,0.00660133,-0.07808023,-0.013777037,0.014626546,0.016685292,-0.047179077,0.020834511,0.0061412863,0.012361616,-0.035372533,-0.00062829314,0.037733164,-0.005075211,-0.016809775,0.03413159,0.032626096,0.001051414,0.0041155666,-0.010810331,0.013518811,0.03747855,0.00037916907,0.02738989,-0.026911117,-0.004365314,0.013708741,-0.00421747,-0.015833676,-0.020312192,0.0072985603
40,0.01371139,-0.024314536,-0.024145314,-0.003519496,-0.02068572,0.016388258,-0.031864084,0.035830904,0.008570185,-0.0018565546,-0.012790918,0.011741636,0.0005201213,-0.0025682305,-0.018244559,0.018826427,-0.0052464753,-0.015844293,-0.026106833,-0.010599388,0.013711613,0.0063723144,-0.014955882,-0.0058984393,-0.0059052105,-0.017188504,-0.024006538,-0.012288983,0.027362192,-0.018379139,-0.012937579,0.004158123,-0.002979868,-0.0035956178,-0.019534225,0.021652058,-0.01284071,-0.017664906,0.020166831,-0.015069705,-0.0035268355,0.009239163,-0.01256456,-0.0014732206,0.02212376,-0.021609992,0.025105951,0.008865706,-0.0039319894,0.008035364,0.0020226256,0.00833042,0.011507128,0.016203709,0.004171184,0.020132728,-0.020177707,0.03072461,0.02324712,-0.03535143,-0.011817923,0.008450512,-0.024028879,0.02538397,0.030112112,0.0038403103,0.02789909,-0.027602622,0.050052583,-0.0053000962,-0.021475201,-0.0075736907,0.023929415,0.0072604753,-0.014096611,-0.0060074236,-0.015376537,0.02241191,0.0030910072,0.035453618,-0.006380443,0.011425131,-0.009869616,0.020465432,-0.016475042,-0.0021885438,0.02204918,-0.0017228182,0.023130614,-0.0108010415,-0.021353621,0.006430469,0.019016122,-0.009878034,-0.023216566,0.0034632322,-0.030691477,0.020360036,-0.0091740815,0.009888523,-0.016459335,0.059299875,-0.01664355,0.0051598176,-0.011621581,0.0040426073,0.051660735,-0.019116959,0.01244181,0.017282104,-0.01927091,-0.030893402,0.04000978,0.012123985,0.050646927,0.002152601,-0.008224394,5.7804784e-05,-0.014825355,0.013071001,0.007693319,0.00635285,0.019639093,-0.0013634702,-0.024844633,-0.021430068,-0.024544694,0.01026893
41,0.010138443,-0.017741926,0.006323353,0.032572612,-0.007713755,0.025485497,0.0030573658,-0.0040167826,-0.036767565,0.011365773,-0.034990095,-0.017497811,0.01847305,0.021171363,0.01487705,0.0278193,-0.016102465,0.01409159,0.00092174875,0.0021265454,0.042197037,0.029436102,-0.0034473788,0.020246048,-0.003905847,-0.0050173644,0.0010632636,0.00077258697,0.059321202,-0.0018609262,0.026872905,0.008329829,0.0090471255,-0.0066176387,-0.0015429376,0.0035412696,-0.019874496,-0.018832952,-0.004782094,-0.010428734,0.00075320556,0.010808842,-0.02917369,-0.012709025,0.009039039,-3.1001156e-05,-0.024779826,0.014073584,-0.005589475,0.0056673116,0.01008081,-0.009864785,0.047118086,-0.019822165,0.008457943,0.01681934,0.011806167,0.013741645,0.008890708,-0.018583214,-0.000780871,-0.0031411357,0.0022250672,-8.624009e-05,-0.021422224,-0.008107803,0.018455625,-0.016665436,0.027727624,-0.0018219999,0.018972682,-0.02809007,0.0027467937,0.026980923,0.0020544715,-0.0014583472,-0.039511018,-0.0025658563,0.01871912,0.00011946048,-6.452744e-05,0.027818104,0.020870868,-0.0021661315,-0.019486118,-0.0071181064,0.016299019,0.005909842,0.012077198,-0.017514337,-0.02162465,0.022255886,0.009966764,0.0030450728,-0.006992768,-0.017499024,-0.030094132,0.007613036,2.0840731e-05,-0.0058086864,-0.03187479,0.020111198,0.0146848075,0.008476119,-0.01606155,-0.0085096825,0.022420058,0.0002978668,-0.0027735755,-0.016110482,0.0044534625,-0.008720992,0.0017653914,0.052857105,0.028545627,0.030606585,-0.011476499,0.020405386,0.014845813,0.013730761,0.010840487,-0.0052083074,0.014707604,0.0135328155,-0.021193396,-0.012321676,0.0027847684,0.005426204
42,-0.01625892,-0.006122069,-0.0018042439,-0.0038879449,-0.029251797,0.043110073,-0.028978586,-0.029845217,0.00067786395,-0.027860425,-0.011149407,0.0046289084,0.025641777,-0.02306673,0.03011465,0.006486026,0.015591578,0.042117793,1.6231175e-05,0.024409471,-0.0120511595,-0.0026295555,0.015948763,-0.030360674,0.008490389,-0.037561316,0.023864897,0.038236253,-0.027855353,0.013984864,0.032032877,-0.008207308,-0.014817496,-0.024502039,-0.010811394,0.008738169,0.039211407,0.0018534999,-0.025474729,-0.012413351,-0.021553228,-0.026632626,-0.026335752,-0.020753324,0.019404393,0.04428766,-0.0009826584,0.0041878964,0.019106101,-0.01863691,0.020501407,0.07184109,0.043752663,0.038159337,-0.025589723,-0.00549281,0.039747827,0.0360266,-0.020988949,0.0028936453,-0.003408125,-0.0047436035,0.0015494108,0.020153807,0.006925686,-0.025288723,-0.012726289,0.025360607,-0.013867531,0.079245284,-0.008536905,0.029998185,0.015283186,-0.005213436,0.032989476,-0.005802577,0.0024001743,0.0072889184,-0.022459885,0.049070563,0.006983316,-0.041579813,-0.000805681,0.003824116,0.023516474,-0.0029856535,-0.02912426,0.024773335,-0.0019727754,-0.03126479,0.0029202797,-0.016091473,-0.017386662,0.020809196,0.034510396,0.01248389,0.011931919,-0.021028098,-0.003558167,-0.017419433,0.0001386138,0.02752557,0.025544813,0.013418323,-0.008924013,-0.093346216,-0.0005469008,-0.00095997145,0.015605954,-0.040540878,-0.008939457,-0.013302835,-0.071188994,0.018998977,-0.021919858,-0.030249033,0.042133667,0.062318057,0.027438045,-0.018456774,-0.024551503,-0.0019735787,-0.0076776915,-0.014507403,-0.0025101213,-0.015300387,0.013815918,-0.0014934066
43,0.023867948,-0.017251393,0.021968706,-0.01984251,-0.014353719,0.019055676,0.018403549,0.0067924736,-0.017558254,-0.0095298225,0.01041552,0.015949382,0.0071535883,0.0042824275,0.043865442,0.005846078,-0.014362579,0.027971826,0.02030375,-0.0006454487,0.026226258,-0.03304878,0.03915603,-0.01960476,0.024902625,-0.0076224706,0.040860623,0.021763511,-0.045871463,0.032783877,0.023463104,0.04191344,-0.00048402057,0.0042851763,0.0057474338,-0.004005671,0.035430856,0.032206323,0.014512535,-0.0044842176,-0.013423766,-0.007665747,0.0010549664,-0.0030132064,0.00037954494,0.012547548,-0.03033045,-0.013604654,0.03293126,0.0013412507,0.012498041,-0.0068181544,-0.033109527,0.042232867,-0.023296818,-0.024974534,0.020494396,0.0028943212,0.017803675,0.038820803,-0.0030806412,-0.0179815,-0.0025956514,0.0385561,0.013662948,0.0019660627,-0.025602223,0.057775863,-0.045860544,0.026689267,0.02482391,0.01891063,-0.0145152435,-0.019073391,0.01813496,0.01954741,0.008063464,-0.0013776622,-0.008651656,0.0045395414,0.04371611,-0.019630732,0.008873382,-0.04926939,0.03931677,-0.00045782156,-0.0050205733,-0.00094620354,-0.006166152,-0.037271332,0.0072497367,0.03416056,0.004355203,0.03218517,0.008394782,0.0013302203,0.051328395,-0.015968015,0.010871383,0.006872248,-0.013234257,-0.0026266298,0.023440741,0.0060403375,0.021917563,0.006932072,-0.049037673,0.036149587,-0.017268471,-0.011876299,0.015283206,-0.02096007,0.012241292,0.06334338,-0.030452108,-0.034315545,0.031215858,0.010794971,0.041598223,-0.016170336,-0.022581657,0.013296884,-0.056927122,-0.02439902,0.02488931,0.012121315,0.02817081,0.0022195037
44,0.023581222,0.008910577,0.023587195,0.04043305,0.047688473,0.0027148316,0.0028310337,-0.0038181741,0.004398275,0.016801925,-0.042592462,0.030822467,-0.030366398,-0.020240877,0.011659777,-0.0005037971,0.010094032,0.017927766,-0.00046069504,-0.01666693,0.0581776,0.047491428,-0.005884207,0.0020205409,0.02603105,0.05661143,-0.004077712,-0.0051678945,0.021280264,-0.004367524,0.067628704,0.0205215,0.027352173,-0.000118337324,0.028545022,0.025564676,-0.023364006,-0.012943816,-0.019708982,0.02788832,0.018817158,0.021434436,-0.043998428,-0.0012601333,-0.0025713693,-0.024919117,0.044440657,-0.010490447,-0.006743867,-0.002448117,-0.0037255867,-0.0026136718,0.019542301,-0.036636226,0.031041404,-0.0066595194,0.014081775,0.020557718,-0.061411045,0.027822623,0.0077695074,0.0039413753,-0.045023616,0.0020332392,-0.011689434,-0.00769253,0.009430537,0.027598947,0.015661422,0.0057864287,0.0006600416,-0.02618654,0.011165971,0.02080946,-0.019068938,-0.0064078486,-0.034449074,0.006755275,0.022372505,0.011309446,0.003226041,-0.028907018,0.055210445,0.009033614,-0.019362511,-0.00030776375,-0.0038829597,0.016361324,-0.006544306,0.012178166,-0.02857845,-0.047135998,-0.03624361,-0.018047288,-0.002404287,-0.030519137,0.02973125,0.028127639,0.017557906,0.020099891,-0.0073594856,-0.014326766,-0.006938423,0.010471875,-0.060136713,0.022186235,0.0024396926,0.01856182,0.005086956,-0.024587957,0.008965871,1.9226223e-05,-0.037075575,0.018020548,0.0051209377,0.031880867,-0.0113906115,-0.01748483,0.008451465,-0.016814813,0.010861193,0.01838608,0.0012893302,0.0105188815,-0.00022134442,-0.02126449,-0.0044806534,-0.0042644655
45,-0.017476365,-0.0786151,0.018474728,-0.0065553486,0.025685528,0.020521604,0.007866645,0.033429276,-0.010621187,-0.017573405,0.005628386,0.014895614,0.010345043,-0.0067662867,-0.014415917,-0.0062142448,0.030515816,-0.030193305,0.020332381,0.024001453,0.0024562916,-0.008904313,-0.0020960206,0.028217245,0.0062693525,-0.0065622055,-0.03521422,0.006540786,-0.0260403,0.019764988,0.023889016,0.023337556,0.0153839495,-0.0005618093,-0.01397762,0.0056895814,0.014437383,-0.03757865,0.016466837,0.020598346,0.012807555,-0.027201269,0.017801981,-0.089371294,0.024648616,0.007611364,0.008799625,-0.028200421,-0.00068994175,-0.0036479803,-0.03679113,-0.07303866,0.01789736,0.004968776,-0.021080783,0.01830284,-0.026748534,-0.019437023,0.011607942,-0.0060786554,-0.00036715085,-0.028693426,0.02770366,0.0013522558,0.0028686891,0.028712543,0.027630024,0.03767433,0.003594765,0.017831206,0.039359372,-0.0015552464,0.008445905,0.0028709583,0.01216261,0.02318123,-0.015601834,0.023491492,0.0016592738,-0.022536086,-0.016777016,-0.020146748,-0.05416592,-0.018901085,0.032189872,0.050116524,-0.0066660778,0.05075156,-0.044247404,-0.091486596,-0.03709355,0.017999992,0.008686764,-0.00043357883,0.07004432,0.017698877,0.015471251,0.0018840932,0.047097076,-0.03010912,0.026696691,0.0032472296,-0.12594664,-0.0020983391,0.015292553,-0.09603755,0.0035470927,0.04698319,0.007471946,-0.010328001,0.019084359,-0.022235785,-0.023814447,0.04415538,0.0040114117,-0.052766193,0.025154611,0.020204192,0.053655412,0.00078021444,-0.009371757,0.0033704285,-0.04289212,-0.022703402,0.018173588,0.017333282,0.012739759,-0.021429246
46,-0.01749858,0.049170483,0.020298077,-0.008083079,0.045068134,-0.0005003487,0.014341473,0.004564345,0.015598163,-0.03162261,-0.019368343,-0.00046158506,-0.0054220953,0.042113274,0.0034481564,0.0029011434,-0.019422371,0.044542775,0.0031206654,-0.014891447,0.01693326,-0.022160294,-0.008383356,0.013924498,0.026840972,-0.003633744,0.042299915,0.020750113,-0.016172538,-0.027306348,-0.0135464575,0.0075037763,0.039391663,-0.012943353,0.006819867,0.006374079,-0.013355698,0.0423561,0.0036020046,0.018924758,0.0008086904,-0.0028618425,-0.03269706,0.0150803765,0.01349146,-0.016442101,-0.017628623,-0.0014769837,-0.01060142,-0.0025722154,0.0052840607,-0.044604883,0.0072951578,0.03978436,-0.025485545,-0.020490523,-0.0012192008,0.011828244,-0.029005589,0.029370317,0.0284594,0.032672416,-0.012358004,0.04513419,-0.0031558974,-0.0035887717,-0.018474907,0.0078032515,-0.041285276,0.009355963,0.052007146,0.005892285,0.0036937161,0.046020538,-0.0069737704,0.01239921,0.020004973,0.00035195533,0.023789378,0.004467432,0.0024265116,0.00021798584,0.033786416,0.0071350913,0.0011817863,0.025596796,0.0076577845,-0.0072281924,0.019833814,-0.01703624,0.0029376615,0.02437155,-0.019299561,0.05304181,0.014915267,-0.026565041,0.028003396,0.013941692,-0.057285197,-0.006071975,-0.023473658,0.0027694176,-0.028252864,0.0066446452,0.009342536,-0.046514172,-0.03209834,0.037715983,-0.0050178403,0.028095465,0.006765308,-0.005690741,0.0075624897,-0.038325198,-0.025896287,0.008545752,0.012503442,0.009818376,-0.017436445,-0.011307933,-0.015180681,-0.015090433,-0.056333143,-0.01781508,0.029250955,-0.0094483085,-0.013859653,-0.015435532
47,-0.033247676,0.061651923,-0.03403199,0.016721163,0.009965264,-0.036821842,0.07357191,-0.06419882,0.015681421,0.038626693,-0.026296658,-0.040202573,-0.020068157,0.044824235,-0.043978598,0.013903033,0.010160776,0.010826993,-0.015258378,0.009019667,-0.054692104,0.005193844,-0.055069122,0.037646953,0.0064346115,0.0014712717,-0.011812273,-0.009089945,0.010655679,-0.027040116,-0.058060486,-0.021819582,-0.023117134,0.041413765,-0.012174012,-0.009879011,-0.029088296,-0.024137095,0.007950182,0.0042207423,-0.0259319,0.021826763,0.003976525,0.055780653,-0.01456949,0.0019982082,0.04290267,0.031634673,-0.017851604,0.0024424023,0.025261693,-0.046825964,0.0049690013,-0.0029695313,-0.016633924,-0.04709788,-0.090753324,0.015493486,-0.026609369,-0.047137458,0.0033943646,-0.00680712,-0.013840589,-0.031286146,-0.0548556,0.043419085,-0.00088903314,-0.053951725,-0.0071709305,0.06322857,-0.017044833,-0.0019363259,-0.009369283,-0.0077276696,-0.052626237,-0.009979507,-0.03009577,0.015260493,0.024888175,-0.021370387,-0.038563147,-0.031121116,0.018276079,-0.003979202,-0.020132586,-0.01860513,-0.011035303,-0.029341482,-0.056343455,0.10417768,0.009987162,-0.05211384,-0.007942978,-0.028221132,0.031109685,0.00053049537,-0.045894258,0.0020149415,-0.0054701874,0.054341063,-0.008586061,-0.011564984,-0.060995888,-0.010009078,-0.006435147,0.042100713,0.02958073,-0.047439188,0.011393816,0.01934202,-0.039286014,-0.0046207416,-0.053213432,0.018531937,-0.007668779,0.020546062,-0.016090354,-0.007878611,0.0025099458,0.021011136,0.0077161626,0.034070827,0.023165418,0.024415523,-0.0147412885,0.002565639,-0.021849344,-0.033055287
48,0.008225349,-0.0007135469,0.025971832,0.013031937,0.013152308,0.0091285715,0.025174972,0.00022292463,0.08802612,-0.0055178893,-0.013718259,0.01540662,0.0053343046,0.031523373,0.03348353,0.021183388,-0.010403219,0.024946196,0.044819545,0.001529822,0.0037867262,0.010382951,-0.007884591,-0.012787024,0.044021945,-0.0034064327,-0.030866748,-0.030840412,-0.007598432,0.0059331846,-0.0065276264,0.006864624,0.033437416,-0.015742617,-0.019514246,-0.007948169,0.023728399,0.014188472,-0.03567226,0.016313082,0.022491328,-0.021859316,-0.0064059733,-0.016590614,0.021066861,0.022105852,-0.02841547,0.009984778,0.004836236,-0.011989107,-0.023147263,0.008435659,0.00022697038,0.026072852,0.0032050645,0.014902097,0.030497491,-0.0004855529,-0.01780462,-0.0077865147,-0.004165193,-0.017432982,-0.020933947,0.0061615016,0.029796466,0.0036839645,0.013734463,0.0043362365,-0.007947589,-0.031056643,0.024158852,0.011735621,-0.00038018607,0.036531836,0.02478607,0.01375203,0.009062941,-0.011644199,0.03535772,-0.0152691705,0.0043522855,0.0055440515,-0.0071415124,0.0062692463,-0.013460721,0.019062832,-0.011316794,0.014288557,-0.0149422465,0.013413245,0.000123108,0.0067051556,-0.016997099,0.013448265,0.05214597,0.0036850313,0.0072713033,-0.0043818466,0.019427372,-0.015723562,-0.031069709,0.012970598,-0.017337333,-0.00392722,0.007204209,-0.038941458,-0.028751096,0.038224835,-0.025226343,0.012304373,0.026696336,-0.009602945,-0.00086201384,0.003885474,-0.023056557,-0.019900916,0.019580115,0.020323459,0.0035031098,0.007861555,-0.004436932,-0.006013866,0.005431096,-0.003327208,0.023866752,0.0005652514,0.019160194,-0.012034927
49,-0.0012336278,-0.0014941243,-0.025139537,0.011353939,0.019425657,-0.01781831,0.02099244,0.03904539,-0.004033207,0.04228893,0.009906865,-0.02567112,0.026923548,-0.0073340493,-0.017380418,0.0368518,-0.03497971,-0.03008484,-0.01586488,-0.037991256,-0.017055659,0.0035517933,-0.018732987,-0.00019112148,-0.02105055,0.021294018,0.0041857692,-0.033701245,-0.00077179,-0.008875468,-0.019974563,-0.014541758,-0.003220705,0.0016947857,0.0047691343,0.008598467,-0.0017110463,0.0018676796,-0.022249201,0.00024889316,0.01800263,-0.0032513675,0.023948506,-0.0046923775,-0.0022779484,0.05445597,-0.010633437,-0.022430804,-0.018959904,0.027510658,0.027181584,0.0035148745,0.0027881865,0.035326205,-0.0003541553,0.0015520972,0.0020845379,-0.01881926,0.04860143,-0.010679066,-0.029506486,-0.0021012803,-0.007666076,-0.024480326,-0.046717707,0.017192813,0.012693243,-0.029128589,0.0040982654,-0.0036468904,-0.015336653,-0.014024771,-0.13446055,0.012917878,-0.010294338,-0.012496537,-0.03842402,-0.008112313,0.0016313548,0.000577148,-0.008610054,0.027072871,-0.019892989,0.030103462,0.015788805,0.0355749,0.051579617,0.006950916,0.0185275,-0.011229882,0.00053610624,-0.035098787,0.011229239,-0.032282293,0.020074194,-0.026709998,-0.014487227,0.025178391,0.012717611,-0.04028908,0.023360455,-0.16291557,-0.034352776,0.018158592,0.011297382,0.005481178,-0.013499,-0.0069697304,-0.0051621543,-0.002083252,0.0077386745,-0.026228683,-0.030748405,0.03453211,0.016684402,0.013050289,0.0127725545,0.019519735,0.007316065,0.0075378483,0.009515517,-0.012390584,-0.07155718,0.005375624,-0.014695078,0.019841991,-0.0007762614,-0.013726969
50,0.061142173,0.0005677039,-0.0434092,-0.05556944,-0.041571625,-0.014343338,0.018071057,0.0115789035,0.04597211,-0.017731637,0.009288736,-0.009972087,-0.018631551,-0.02741421,0.0040846644,-0.007876676,-0.0010658571,0.001303728,0.049098887,-0.01505783,-0.038204618,-0.025822746,-0.025538249,-0.040707026,-0.009134966,-0.0014270996,-0.019451242,0.008793636,-0.08505737,0.006515967,0.05830307,0.005091872,0.032193672,-0.022344127,-0.013154892,-0.032628167,0.04050028,0.010768697,-0.023024162,0.033497084,0.008040363,-0.005295851,-0.012626961,-0.016520146,-0.04021816,-0.028082067,0.037044227,-0.007378428,-0.017990615,-0.028664693,-0.049164474,-0.0040517757,-0.03977349,0.040592737,-0.0017699511,-0.06838624,0.0039966134,-0.016310694,-0.000118084245,-0.028777635,0.016901169,0.03669414,-0.022564374,0.018465051,0.0037352785,-0.034829237,-0.13495818,0.00039763108,-0.059029296,-0.013900476,0.04138392,-0.059316587,0.012871484,-0.032530054,0.011909699,0.023635587,-0.000106468025,0.0042460607,0.0159132,0.0020679946,0.048659492,0.025091069,-0.022651859,-0.078699745,0.0066787247,0.026063535,-0.01801725,0.004209175,-0.0177461,0.026699755,-0.01600471,0.0029912589,-0.014645845,0.028250175,0.03322913,0.021028178,-0.02059684,-0.012059582,0.009785665,0.003197092,0.022198474,-0.009639883,0.04105856,-0.017425528,-0.0192447,-0.015127917,-0.038838126,-0.0052155955,-0.02719841,0.033426657,0.01188375,0.036377683,-0.03923709,-0.089598924,-0.041779958,-0.018750273,0.041105323,-0.049915057,-0.001553549,-0.024816332,0.043136187,-0.012349858,0.020982148,0.010161681,0.027217517,-0.026729153,0.012311851,0.019110287
51,-0.014820383,-0.022395467,0.005250502,-0.015310806,-0.039341833,0.018988343,0.0012577893,-0.0021489628,0.019712592,0.014160673,-0.0042065415,0.0014922811,0.015478382,-0.010338628,0.0011280318,0.031668954,-0.0002741785,-0.00024347808,0.033199616,0.0011791197,-0.01595918,-0.016716253,-0.01121155,0.003715226,0.0020485995,0.026178619,-0.029607868,0.0035893088,0.0050639887,-0.012740381,0.029340383,0.0065125003,0.009426815,-0.00046392306,-0.01576247,0.02685531,-0.027559854,-0.013759075,-0.019175176,-0.010999507,0.007116951,0.006249662,0.035270903,0.03244761,0.013095671,-0.008781722,0.03491367,-0.019772597,0.007895499,0.020726163,-0.0320126,-0.038767327,0.013207175,0.00643763,0.00546383,0.0013190618,0.0059818723,-0.017870484,0.029844793,-0.025210949,-0.008004529,0.04023135,-0.018816773,0.026204936,0.016159784,-0.024621604,0.0143258,-0.0396885,0.01346861,0.008081778,-0.014086683,-0.026094072,0.045322347,0.009954505,0.0004017458,0.018616237,-0.027121816,0.005138677,0.024990527,0.023420645,0.015702173,0.05118193,-0.020111399,-0.0069611995,-0.016524902,0.024196696,-0.015526435,9.138714e-05,0.0031555814,-0.0026901998,0.015993897,0.026979545,0.01770294,0.0012871571,-0.019193746,0.004538985,-0.029975198,0.015173001,-0.009271514,0.0039063618,-0.006980044,0.037466183,-0.063032605,-0.0058501796,0.025327155,0.0100952415,0.0091051245,-0.0025314586,0.0009498328,0.040951632,-0.024035063,0.022230169,-0.006445846,0.03126322,0.018618308,-0.0042578112,0.005645246,0.004749376,-0.010513898,0.05046674,-0.0024586858,0.0037799184,0.05108704,0.031561542,-0.004182816,-0.007510938,-0.009292693,0.0023991952
52,0.007431459,0.012725589,0.00016641554,0.003254856,0.016990712,0.02986502,-0.022781134,0.027703619,0.01484196,-0.029359467,0.031266976,-0.03438719,-0.04699146,-0.008256699,-0.014497353,0.024300821,-0.022264402,0.035032846,0.024883749,0.017576683,0.030052807,-0.0041664173,0.0047438876,-0.05240513,-0.0077713006,-0.027843248,0.022034675,-0.1094141,0.011165134,0.027708698,0.005265747,0.034710355,0.044097055,-0.050274093,-0.043305583,0.011755975,-0.0433125,0.0014923788,-0.0015395816,-0.027913434,-0.04456621,0.014341084,-0.05446661,0.00648249,-0.0029208835,-0.006099375,-0.009683845,0.0309868,0.0002406109,0.028440883,-0.025139075,0.031634163,0.011263051,-0.04054489,-0.008555893,-0.022695744,-0.008949173,-0.022117278,-0.19291443,0.007593531,-0.0067316215,0.0053277146,-0.04118135,-0.009386848,-0.012037253,-0.019860176,-0.010325126,0.015402045,0.016547354,-0.013658079,0.0014581719,0.0020823723,0.030552734,-0.0020397727,-0.019142235,0.027284207,0.004264853,0.019463597,0.007999815,0.004611069,-0.015425292,0.0069889394,0.0103637725,-0.016309796,0.025632882,-0.008755286,0.04580656,0.011489945,-0.013732392,0.0071969144,-0.02026654,-0.011917692,0.03713055,0.011431797,0.013263244,0.007297489,0.022956986,-0.004065702,0.013373986,0.060806848,-0.005272534,0.040157374,0.0193148,0.002845788,-0.04375163,-0.08511801,0.004720491,-0.005105626,-0.014168433,-0.024914745,0.07245883,0.024360633,-0.008336223,-0.043810915,0.0007439414,0.011580961,-0.03276068,0.007365954,-0.017412722,0.023704425,-0.019087255,0.012425542,0.0133527815,-0.028281005,-0.0025893508,-0.024508115,-0.0063223564,0.014091762
53,-0.01998879,-0.012478525,0.0063592494,-0.006391936,0.021384943,0.016927464,-0.0054219607,0.04307433,0.026092466,0.0032612225,0.0028265684,0.0073481766,-0.013195319,0.015462802,0.010120814,-0.0014704462,0.0044692648,-0.0015146022,0.041024964,-0.0049866242,0.019172074,0.032970954,0.0015639197,-0.0026430022,-0.0007823848,-0.0022686347,0.007824846,-0.0023646127,0.003891831,-0.016140724,0.039365195,-0.0019086729,0.002346793,0.0071405843,-0.0068866317,-0.011350143,0.013212765,0.020342141,-0.034681115,0.009877575,-0.010575854,0.032080777,0.014425381,-0.030729147,0.019640187,0.00040328136,-0.0068546208,0.0053972695,-0.025966424,0.014110988,0.020623185,-0.031237314,-0.012032531,0.020854127,0.015265867,-0.0012394575,-0.0021124028,0.006203616,0.011400748,0.012031385,0.0012017146,-0.0014821955,0.003748234,0.019410428,-0.0054177344,0.008670726,0.006442465,0.0055803573,0.0017653198,0.017079627,0.0008120703,0.028300112,0.06389486,0.02566009,0.0033384801,0.025460236,-0.023077331,-0.008795787,0.019356234,-0.011879329,0.008774257,0.014529267,0.009275716,0.033081356,0.011238607,0.0057994844,-0.037285175,0.043748956,-0.005188159,0.034696177,-0.007695318,0.02171039,0.006668097,0.0054272003,0.02479166,-0.0017476346,-0.00034042937,-0.008911225,-0.01828576,0.004479736,-0.028510613,-0.0065028975,-0.019128714,-0.008535634,0.03964718,-0.016456762,-0.008636769,-0.011201893,-0.006814737,0.006694781,0.013897343,0.007873396,0.02020985,0.067930035,-0.0006389563,-0.008694362,0.015270801,0.02444844,-0.015995964,0.011276076,0.0099423155,-0.004323812,0.008354563,0.014778597,-0.0047692214,-0.024519945,-0.0024090838,0.007891598
54,0.04808891,-0.012277854,0.018282672,0.016277386,0.019918626,0.015222215,-0.002793886,-0.008538943,-0.030797632,0.021677537,-0.009543195,0.0060667843,0.028304478,0.00831267,0.022395598,-0.0010936043,-0.008945372,-0.021362986,0.0034681808,-0.006084803,0.04009082,-0.007929295,0.02230407,0.015637768,0.005340525,-0.013210048,0.040677954,0.018327719,0.0027190452,0.02775994,0.03314792,0.01804391,0.016971003,0.039468814,0.0066626733,-0.020053132,-0.020954365,0.0028124216,0.007542662,-0.009249975,-0.009937663,0.007918084,-0.040319245,-0.027149547,-0.012737619,-0.004260873,-0.034745827,0.025342587,0.023901107,0.009691495,0.0027578229,0.031291083,0.0095458925,-0.010970809,0.021640629,-0.004369101,0.01732676,0.015307627,0.0015919845,0.020727146,-0.009563673,-0.024662452,0.012128112,-0.015948063,0.001147327,-0.0092099905,-0.014588087,0.031543326,0.001276373,-0.018948883,-0.008533055,-0.003185646,-0.0140195275,0.022312414,-0.011481668,0.02333867,0.00062893727,0.004166884,-0.045974944,0.001478163,-0.005616001,-0.0030792397,0.003253121,-0.013544003,0.0039681247,-0.0005026058,0.0026073463,-0.022071162,-0.0072049284,-0.0069784597,-0.034587547,0.021164935,0.02481966,-0.0065209256,-0.017200066,0.013539164,0.017701117,-0.01223636,0.014215811,-0.02606984,-0.021997565,-0.004769401,0.018628981,-0.006350029,-0.053556535,0.026372818,0.00067759125,0.0007998469,-0.013817899,-0.018911267,0.013543084,0.012169705,0.04328522,0.04247175,0.003482683,0.021243777,-0.021447498,0.0049324,0.023840548,-0.008910434,0.01281089,-0.014825595,0.0057603633,0.009799842,0.006352593,0.008706082,0.021206945,0.02758692
55,-0.003538897,-0.003869377,0.028884197,0.021229539,-0.03665526,0.00780616,-0.035802312,-0.017365629,-0.008935573,-0.014963336,-0.009326531,0.0061793267,0.04368426,-0.004453124,0.014033601,-0.05950669,0.01439271,-0.018820258,0.020288568,-0.013108521,0.0066085304,-0.0061879805,-0.002019459,0.018450666,-0.021542411,-0.005926503,-0.039301466,0.04307312,-0.00864987,0.046556015,-0.011064213,-0.009525956,0.060433216,-0.037887715,0.055346794,-0.015637882,-0.031771734,-0.013011396,-0.005965427,-0.0089516025,-0.010288861,0.02632145,-0.08657122,-0.051559977,0.015857777,0.025179518,-0.017845064,-0.012744446,0.04472413,0.014239934,0.02913008,-0.05152387,0.014267243,-0.04962917,0.0022998436,0.0047442806,0.051948234,0.03403771,-0.10397309,-0.016335165,0.013145286,-0.006530464,-0.042688474,-0.04546075,0.016782213,-0.011099736,0.0046247453,-0.009919541,-0.010488491,-0.027628718,-0.0049116854,-0.040800743,-0.04149685,0.018583907,-0.001398124,0.03242176,-0.016281707,0.005027003,-0.012576074,0.008597909,-0.018327478,-0.07074306,0.0035243938,-0.030634554,0.023021592,0.012520453,-0.029812245,7.0881404e-05,-0.0023835795,-0.042801432,-0.042781197,-0.012195153,0.00883423,0.02711876,-0.017131535,0.0061820988,-0.00010283471,-0.0060597807,0.034824897,0.014648838,0.01421547,-0.021374833,0.0860536,0.02599623,-0.05818407,-0.012331067,-0.029499255,-0.029670067,0.025523176,0.013020626,-0.018250773,0.041838687,-0.07094231,0.02261333,0.008441898,0.00061197375,-0.009610072,-0.05872614,-0.0057563484,-0.023830684,-0.0073241163,-0.024326425,-0.016965168,-0.004729355,-0.0031759024,0.016518295,-0.00094712916,0.039118964
56,0.07493401,0.040095333,0.014676589,-0.027252477,0.04114283,0.026899276,-0.00036243978,-0.022881988,-0.06428763,0.050765675,-0.02536996,-0.044108372,-0.09757657,-0.007481252,0.03333901,-0.008496384,0.0338456,0.0016468641,-0.008034537,-0.09023537,0.012940539,-0.014930379,-0.020267138,-0.020489719,-0.048912704,-0.012302723,0.023282742,0.03827619,-0.01826595,0.03551285,0.04099198,0.072903596,0.034412906,0.0013497581,-0.007346722,0.027561607,-0.010863534,0.004550222,0.038036067,-0.052461714,0.0009973937,-0.00056675286,-0.019308269,-0.043699972,-0.018396461,-0.0325965,-0.028969586,-0.03743461,-0.004809082,-0.024826711,-0.08710811,0.020887911,-0.04990304,-0.040734414,-0.018336354,-0.022083132,0.014201172,0.010120743,-0.014132391,0.046486255,-0.010675334,-0.040422432,0.022511793,-0.011354337,-0.059746772,-0.093633585,-0.010511492,0.05218146,-0.0071523776,-0.02816483,-0.020354161,0.08008394,-0.0577426,-0.024211867,-0.0044024056,-0.01972508,0.05653679,-0.037639145,-0.035465423,0.015589895,0.052034773,-0.016996935,0.024422158,-0.027945627,-0.011535939,-0.053184297,-0.011729755,0.031587232,0.08482213,0.009937467,-0.02609853,-0.0019477443,-0.0136041455,-0.02321183,0.044616833,0.041836817,0.038608965,0.011586522,-0.04671045,-0.023129387,0.034341387,-0.0077067255,0.03378614,-0.009071096,-0.054570965,-0.07179021,-0.012190934,-0.010946577,0.046026915,-0.031684656,-0.116602294,0.0404498,-0.019877424,-0.033079106,-0.003942494,0.007921163,0.024163447,0.08757519,-0.0145872645,-0.050668452,-0.056457233,-0.07694545,-0.042976405,0.025361303,0.014588032,-0.002008151,0.0076578623,-0.031807348
57,-0.026918134,-0.03926235,-0.027604645,-0.005323398,-1.8143348e-05,-0.014756664,-0.011940711,0.005922877,-0.07366593,0.021160837,-0.046893235,0.011744966,0.0030295646,0.008898898,-0.075383574,-0.0212952,-0.0048700627,-0.056767095,0.051756755,0.018895028,-0.03401842,0.010764374,-0.04323903,0.007167233,-0.0386538,-0.0058165104,0.011373054,-0.04860789,-0.014152013,-0.051489055,0.018790996,-0.025862461,-0.020898344,0.015933651,0.016444499,-0.03704271,-0.0579038,0.015894864,-0.041193925,0.036220275,-0.0021833146,0.014043291,-0.025064088,0.025029508,0.02245152,-0.008063619,-0.0055203093,0.022041878,-0.032139543,0.032295905,0.010140941,0.001506826,-0.035718232,-0.008306918,0.031240411,0.0032474454,-0.009508357,-0.004133509,-0.025378138,0.008722048,0.023268212,-0.032372486,0.011784382,0.022543991,-0.021069998,0.0040372415,-0.0111768255,-0.027358036,0.00871202,0.0025571696,0.022068698,-0.02757483,0.04147695,-0.0010211943,-0.027998216,0.029252097,-0.029116008,0.013123367,-0.003825054,-0.022049202,-0.05032637,-0.041044734,0.006671721,0.02987208,-0.05543534,0.003241715,0.017205384,0.027649738,-0.022487586,0.08231285,0.00066228054,-0.043109648,-0.011935885,0.035829585,0.09608349,-0.009599172,-0.014612415,-0.004949797,0.030109288,-0.004117631,-0.005591968,0.019801443,0.0063012564,0.027409304,0.015946887,-0.045655966,0.00069742225,0.010734937,-0.017236765,-0.023846297,-0.007002761,-0.061166216,0.042446256,0.07151948,-0.01007485,0.01003934,-0.012119359,-0.027290517,-0.0051042926,0.014524226,0.049824975,0.029479519,0.01576852,0.017757585,0.012029232,-0.028763697,-0.037000116,-0.001608595
58,-0.036188807,0.023595013,0.035342034,-0.0018198234,-0.032291327,-0.056471698,0.051609624,0.012191913,-0.05218036,-0.017873766,-0.0734866,-0.010060018,-0.012031001,0.035731178,0.034854878,0.0015142626,0.014700802,-0.034954093,-0.052703742,0.039929688,0.01283161,0.0438775,-0.01786125,-0.00039301065,-0.0037228388,0.005073212,0.025008444,0.0051325895,0.008463104,0.0021432217,-0.06450518,-0.04152105,-0.046082027,0.009198283,0.013745998,0.022055198,-0.01696252,-0.0035380283,-0.050355867,0.08130088,-0.013889347,0.02221982,0.0078098807,-0.010518948,0.027843235,0.0057488726,-0.015969556,-0.021263529,0.0071570766,-0.0027060825,0.0051557748,-0.014571029,0.010288281,-0.01422301,0.013892566,-0.033832118,0.038424153,-0.004087445,-0.022287047,0.011817645,-0.005935534,-0.045949902,0.016057601,0.019646486,-0.008820896,0.032690708,-0.0035350833,-0.00070306665,0.022145873,-0.009605008,0.017443698,-0.0026913201,0.058077693,0.025735267,0.004062231,0.011919118,-0.023992334,-0.03463597,0.0165212,-0.028665122,0.0012739099,-0.024780083,0.008256657,0.034829848,0.019406682,0.010169108,-0.026323497,0.047628302,-0.026739761,-0.006183185,0.0003767556,-0.03336805,-0.008206905,0.008619232,0.051922724,-0.01732867,0.003516195,0.014250257,-0.045628842,-0.0034428362,-0.010545914,0.019615263,-0.05628759,-0.0010643394,0.03201001,-0.011256827,0.0068573314,-0.024533825,-0.024263773,-0.032393437,0.024708882,-0.01557918,-0.031761155,0.06048702,0.0016619171,0.017309012,0.005315587,0.021512851,0.012937733,-0.026812194,0.035030663,0.024907146,0.0017655726,0.032502122,-0.04659155,0.011064432,-0.005109183,0.01928297
59,0.019690165,0.007936297,0.013123729,-0.033575263,-0.07786547,0.017592005,-0.016584393,-0.029449467,-0.026416758,-0.040460624,0.04160647,0.0585015,-0.021552512,-0.039562494,0.013236919,-0.023872165,0.016488856,-0.019995019,0.015330801,0.003636313,0.0149605675,-0.022770055,0.03823283,-0.03894649,-0.028062617,-0.040008042,0.017358268,-0.052990735,-0.027429968,-0.021797584,-0.0035360814,-0.0032110263,-0.0058228364,0.011452033,-0.021026634,-0.0061897296,0.0011403881,0.029592065,-0.009803133,-0.030368924,0.06439659,-0.016203932,-0.015213734,-0.05774741,0.018189771,-0.016668998,-0.042814076,0.013633064,-0.0034416504,0.009850117,-0.09773402,0.04709801,-0.038448967,0.0052382965,-0.014629349,-0.016376648,0.007999773,0.01631813,-0.019869415,0.02495823,0.017492978,-0.00035462584,-0.04366349,0.0067870594,-0.009969189,0.026758922,-0.017141115,0.02115177,0.010067706,-0.082754664,-0.024462814,-0.038940467,-0.048742358,-0.033189658,0.0024536059,0.027100349,-0.0063662464,0.022024326,-0.025330037,0.026343932,-0.015120864,0.053006027,0.011149178,-0.019757915,-0.0050093327,-0.051338274,0.032974973,-0.024198916,0.027095487,-0.023023086,0.04051741,-0.03327471,0.025218343,-0.042287085,-0.031069756,0.019501047,0.025750017,-0.030036556,0.031698395,0.011061917,0.051495634,0.046435326,0.028498968,0.049316544,0.03109078,-0.001569564,-0.024219502,0.053804107,-0.017464705,-0.015301696,-0.08517642,-0.0190386,-0.0416645,0.0020888443,0.0038343745,-0.015522724,-0.07510682,-0.04058498,0.011223993,-0.02429519,-0.009283656,-0.031434845,-0.0010127225,-0.04960086,0.019823348,0.0027176302,-0.00209854,-0.020354316
60,-0.0069393218,0.033795044,0.018121006,0.012581569,0.006831507,0.0055535575,0.01403533,0.004193061,0.0060262373,0.007180975,0.021039894,-0.006521037,-0.004034431,0.008852838,0.04377356,0.019619841,0.0011655507,0.029966533,-0.025926687,0.013937161,0.012797781,0.017601758,0.03243267,0.01434905,0.015297118,-0.00012207963,0.05195248,0.007810044,0.027724577,0.006375583,0.012325588,0.010784058,0.024986846,0.01597934,0.011126709,-0.0046248534,-0.0011123266,0.023228245,0.037414927,0.007981464,0.004021027,0.018184792,0.009480745,0.017046455,-0.003913054,-0.008098347,-0.010780164,0.052042525,-0.001966351,-0.02192717,0.011897873,0.04394313,0.031098139,0.009101909,0.01686247,0.0002695474,-0.009357418,-0.011362338,0.020797538,0.03826221,0.0030172141,-0.014087955,-0.013333825,-0.009455704,0.0023004012,-0.0021645753,0.031443246,0.052167907,0.026076982,0.017986553,-0.013471158,-0.0139079215,0.014414827,0.040689275,-0.011711379,0.02521006,0.040806472,-0.010260651,-0.019003808,-0.01587331,0.02094714,-0.009858824,0.06613163,0.028326754,0.009999473,-0.015623827,-0.000158892,-0.009021591,0.0027202377,0.017057298,-0.012835909,0.00010288416,-0.02150679,-0.0048262146,-0.00030167407,0.0152260335,0.040358227,0.015079754,0.021714734,0.017330097,0.010360401,-0.031103969,0.00026065818,0.0057833144,-0.006210697,0.0055222753,-0.0014266336,0.000724578,-0.010471392,-0.009004329,0.014116773,0.012824442,0.0114186155,-0.025685083,0.014286065,0.026620291,-0.0033225326,0.029280158,-0.0094159795,0.020928621,0.023137163,0.027664486,0.0088339215,5.4903652e-05,-0.004379253,0.015365391,0.013906637,0.009472378
61,0.0029041448,-0.026155882,-0.015642578,0.006987199,-0.007904483,0.0341357,0.002112096,-0.0012531393,-0.0007620331,0.026773186,-0.03040766,-0.012642437,0.0044114753,0.010258072,-0.004980137,0.015088257,-0.008729527,0.0012892449,0.050794713,-0.007169227,-0.0019414141,0.030441912,-0.021122139,0.01549855,-0.018209357,0.0025356486,-0.022729592,-0.009343322,0.04199091,-0.013149335,0.015585091,-0.011596077,-0.0077206786,-0.003480684,-0.01914336,-0.014434865,-0.0068729986,-0.027509525,-0.012596952,-0.0103881145,0.0031205653,0.012994871,-0.010799079,0.018473996,0.009126674,-0.0012383771,-0.010337579,-0.019716347,-0.0047016395,0.032255046,0.0042872666,-0.024679502,-0.0019916715,-0.0032718482,0.023080941,0.0061423425,-0.0059420997,0.020598724,-0.004169065,-0.0288068,-0.0017538465,-0.002892757,0.010915225,-0.016131287,-0.020501683,-0.0050540953,0.024318727,-0.03888197,0.01620568,0.00022439988,0.0059607467,0.005978494,0.017200524,0.024660155,-0.0017250904,0.0030580205,-0.031805873,-0.001043513,0.019343972,0.016419664,-0.006936054,0.012991209,-0.011532399,-0.0050962134,-0.020418806,0.008185654,0.021603571,-0.003545571,-0.010173518,0.039518718,0.00821438,0.00222072,0.018859923,-0.014730754,-0.0146046,0.0019264346,-0.053782936,-0.0054398784,-0.0016321075,-0.029177424,-0.00019423981,0.011099871,0.017669093,0.008756928,0.011410563,0.0055331774,-0.0025641432,-0.0032562106,-0.0071314787,0.019113466,0.0051591042,-0.0021571135,0.00273193,0.027051866,-0.007839728,0.0028136785,-0.003346316,0.0034399857,0.008750957,0.0135014905,0.023700297,-0.021439709,0.02456699,0.03286082,-0.009211835,-0.005282536,-0.00904515,0.008637373
