,0,1,2,3,4,5,6,7,8,9,10,11,12,13,14,15,16,17,18,19,20,21,22,23,24,25,26,27,28,29,30,31,32,33,34,35,36,37,38,39,40,41,42,43,44,45,46,47,48,49,50,51,52,53,54,55,56,57,58,59,60,61,62,63
0,-0.017743532,-0.020295637,-0.09474347,-0.029793127,-0.023648944,0.008735969,0.031501815,-0.13717753,0.047203403,-0.018747946,0.019516282,-0.118596464,-0.09427796,0.011914316,0.06652955,0.045952234,-0.06372008,-0.033582207,-0.0020311926,0.08533314,-0.18779443,-0.05269597,0.1202178,0.0223043,0.03106141,0.050469156,-0.046800572,0.060248114,0.002009989,0.136254,0.021740677,-0.020952912,0.028338011,-0.037779935,-0.045857735,0.1012155,-0.036119968,0.008646559,-0.05170527,-0.040224835,-0.0637558,0.04077221,0.11005999,-0.04257838,-0.0101555055,0.02699192,0.007935458,0.025264539,0.04732979,-0.05378978,0.12595035,-0.047494166,0.047708523,0.047823846,-0.012380308,0.084263325,-0.010698034,0.041622236,0.108086035,0.1376818,-0.040304396,-0.04733074,-0.027238334,0.060743965
1,-0.018209374,0.16666219,0.002280682,-0.04605816,0.011098236,0.027896717,-0.04460148,0.038822092,-0.023943646,0.023680646,0.16566253,0.070263356,-0.08590235,-0.028665049,-0.03740237,-0.0285286,0.03501585,-0.02741505,0.035067234,0.05745497,0.014330423,0.08881778,-0.032437492,-0.03205547,0.07262705,0.053337216,-0.030732851,-0.027216198,0.048346043,0.03296246,-0.04153023,0.06739442,-0.05985145,-0.046675067,-0.0020859013,-0.03874421,0.118669964,-0.03083219,-0.05522869,0.010581893,-0.043613125,0.053949494,0.016898746,-0.024646815,0.029370012,0.004174418,-0.014792542,-0.04194495,-0.057603505,0.010733631,-0.08036741,-0.07334806,-0.12572277,-0.10237946,0.0049136225,-0.028734175,-0.1430635,0.094904475,-0.026621813,-0.011702031,0.07764565,0.0019631803,0.0029433183,-0.0575027
2,0.03169215,0.044933032,0.049140953,0.05846731,-0.031743933,0.0053458107,-0.0009516153,-0.0108419405,-0.05093807,-0.03830411,-0.08578003,-0.014264348,0.01787516,0.018261433,-0.068422735,0.051991306,0.012957331,-0.0124141015,-0.07205978,-0.03962036,-0.00608154,0.01965467,-0.008693177,-0.09145948,-0.09262753,-0.09027448,0.07353668,0.05406537,0.14338854,0.017677637,-0.018699415,-0.046576712,-0.023764128,0.043797538,-0.011788703,0.04618058,0.016691115,-0.0053773858,0.029367462,0.00038167255,0.075960904,0.013512595,-0.012705274,-0.004667279,0.07752842,-0.019015942,-0.011786471,0.050966877,-0.07779328,0.04273212,0.001913564,-0.019139122,-0.050373647,0.12201165,0.0888149,0.08496781,0.00383859,-0.040767662,0.03703213,0.04933801,0.02347244,0.039596897,0.15853405,-0.03602144
3,0.054515395,0.02678256,0.32262006,0.038369913,-0.10035003,-0.18776783,0.008011613,-0.1342105,0.08572596,0.020978307,-0.038459834,0.02020037,-0.012365273,0.013379452,0.1227988,0.003408029,-0.0124294935,0.026019398,0.017736368,-0.033913456,-0.029418265,0.01831443,0.012806116,-0.009802905,0.00057729636,0.106386304,-0.030917019,0.068003416,-0.009744673,0.051964335,-0.015668226,-0.007348357,-0.05135853,-0.005657499,0.051003717,0.01896679,0.038246155,-0.013965434,0.31670624,0.0070394804,-0.06888622,-0.10106854,0.02374895,-0.00531691,-0.010813069,-0.031698342,-0.0018903852,0.0009778113,0.04636335,0.045420628,0.016467793,0.0368568,-0.0019313083,0.037741464,-0.01529055,0.061679136,-0.12886009,0.1361178,0.038492344,-0.02916561,0.09094803,0.024095615,-0.03324043,-0.049346626
4,0.0460051,0.059327636,0.044238854,-0.0035353375,0.11294765,-0.04006133,-0.026641428,0.06673257,0.030117013,0.0031590033,0.00019834291,-0.03653154,0.022610174,0.015194706,0.05653709,0.035477534,0.015510212,0.004174041,0.056403693,-0.11812677,-0.037712343,-0.015840428,0.0522158,-0.0075042862,0.031403597,-0.01874009,0.052730918,-0.07990019,0.0034284515,-0.006579868,-4.0233244e-05,-0.045626517,-0.008127535,-0.04389088,-0.034867294,0.048082255,-0.06807042,-0.06427766,-0.005879153,0.036913235,0.06761754,-0.048910044,0.025465703,0.020121202,0.06908425,-0.042582806,-0.067295685,-0.031045001,0.013604024,-0.04198295,-0.09442128,0.034925688,-0.080937326,0.094311744,-0.05323681,0.05964804,-0.049630605,-0.051791795,0.09139078,0.14543283,0.019864477,0.080580756,0.17960931,0.02389528
5,-0.039374158,0.0190868,-0.060238466,-0.052507486,-0.024982309,0.14407875,0.009999823,0.011139644,0.027656764,0.039006248,-0.031560466,-0.029858481,-0.05075745,0.048405666,-0.014444661,0.019304948,0.018576752,0.019856889,0.09746755,0.0024900243,0.026563445,-0.015225972,-0.022361506,-0.043612994,0.034895994,0.00088528544,0.07571658,-0.057022873,-0.02474144,-0.043305423,0.04191061,0.035051722,0.011817875,0.058821257,-0.026651973,0.0017135366,-0.023714254,-0.040215857,-0.06298402,-0.023435473,0.111223005,-0.092147425,-0.03478458,-0.031637594,0.05016193,-0.11243766,0.04813134,0.068839565,0.046353422,-0.04708697,0.020701088,0.007301322,-0.0315727,-0.01349251,0.004163781,0.020424517,0.15413475,0.058013506,0.00025512936,-0.012968158,0.0069526075,0.031339113,0.025295265,0.1113606
6,0.100042544,-0.0076077012,0.02165496,-0.08345257,0.058333468,-0.09650992,-0.024614617,0.17499821,-0.0912696,0.029253704,0.038106177,0.010416362,-0.06437096,0.15627578,0.08505989,-0.09370774,-0.03543788,0.037085317,0.00054898503,0.024753843,0.09802106,-0.0067831203,-0.0723016,0.041064084,-0.017589824,-0.05032719,0.030945154,0.007344166,0.031020487,-0.02324318,-0.039228998,-0.027634945,0.044034004,-0.044542927,-0.04974181,0.0917516,0.015970327,0.0021155986,0.10916877,0.020677956,0.13031825,0.023081347,0.03960287,-0.06744412,0.00926136,0.007792477,-0.06408438,-0.063154854,0.01847804,0.10024579,-0.033336032,-0.08950215,-0.082839854,-0.0035049333,-0.10542627,-0.06050618,-0.03291369,-0.06989283,0.010890953,-0.06886455,0.009683555,-0.08311846,4.29588e-05,-0.06793145
7,0.040549774,-0.073812865,0.026298437,-0.031005817,-0.038223,-0.04069019,0.034130223,0.0578316,-0.030623676,0.040793546,0.11955237,0.0124962805,0.03955598,-0.03620446,0.08725733,-0.010243002,0.007776983,-0.033787645,-0.052374613,0.05782606,0.004888406,-0.006798344,0.04221164,-0.005586573,-0.0074431673,0.06154214,-0.04376412,0.0066023194,0.00020372562,0.044584326,0.03911245,-0.03350584,-0.03145952,0.008171754,0.025777096,0.04702676,0.09293075,0.031351496,0.022012372,0.08209385,0.04320627,0.02167728,0.026748419,-0.0744801,0.01666837,0.021240123,-0.013823378,-0.025874684,-0.040757596,-0.045996152,0.026710497,0.005807726,0.12258313,0.012393333,0.05252057,0.08760945,-0.09109099,-0.16825074,0.32784104,-0.1459883,0.0058486224,-0.036319457,0.07699818,-0.07820274
8,0.06058338,-0.015049581,-0.03542726,-0.0068675606,-0.02454425,0.018687528,-0.035173677,0.13512096,0.00906383,0.0820619,0.006694711,0.012381968,0.044709448,0.06353316,0.12866248,0.05999783,0.022629678,0.040401254,0.0018844011,0.027140455,-0.049590413,-0.044845615,0.01699556,0.060159042,0.08590758,-0.013880928,-0.0175444,-0.038043156,0.052878927,0.0106108105,0.040916838,-0.08428975,-0.07752132,-0.023975145,0.024692697,0.020405484,0.04799726,0.012260363,0.12074874,0.11189167,-0.0109856445,-0.04768131,-0.03544178,-0.07343197,-0.059732307,0.007286025,-0.029446539,0.039390143,-0.009203065,-0.061069015,-0.005057548,-0.019369207,-0.04070809,0.020456506,-0.013461204,-0.072187,0.06392328,0.23744741,-0.013870612,0.004316901,0.038395587,0.024051033,-0.0005480721,0.026982395
9,-0.0035202336,-0.004049855,0.08076127,-0.009228809,-0.1316204,-0.052660774,-0.028010428,-0.08857223,-0.073420554,-0.041471116,-0.042102795,0.010812414,0.034448154,0.08014049,-0.025293656,0.015391971,0.025661092,0.004811593,-0.0150881605,-0.01611273,-0.0074762893,0.03523191,-0.0070800157,0.037293475,-0.1528752,-0.0091892835,-0.019162921,0.029306011,-0.012545276,0.03683671,-0.010363097,0.02014258,-0.03822559,0.008815791,0.044349667,-0.048303347,0.018561803,-0.07740929,0.12431794,-0.015482804,-0.05400625,-0.02892187,0.014164085,-0.061399274,-0.016107954,-0.04097686,0.01373776,-0.020149685,0.04476419,-0.009205089,-0.08163582,0.08401042,0.042332448,-0.04826812,0.014972712,-0.018331872,-0.06889541,0.007138244,0.08509981,-0.07999024,0.14452633,0.045133054,-0.031246038,0.03756021
10,0.061065327,0.12991716,-0.050414447,0.18270336,0.01693949,0.06293508,0.012763938,-0.014194646,0.065009706,-0.030856412,-0.0682868,-0.04507904,0.004757804,-0.039122168,-0.021975871,0.12172902,-0.13502105,0.06837551,-0.070436835,0.044790503,-0.00330096,-0.021974847,-0.028088914,-0.038187716,0.06840034,0.0026663882,-0.03133107,0.01708385,0.04600134,-0.06101075,0.107867666,0.03918266,0.03950518,-0.027376698,0.0004894147,0.038986187,-0.06408466,0.08585316,-0.026834877,-0.06307501,-0.01628149,-0.069237866,0.023294978,0.054053795,0.063909814,-0.0194892,0.098536395,0.026185784,-0.017971557,0.0067332257,-0.029904194,-0.011822429,-0.038966324,0.0015117027,0.07986753,0.04229,0.044635735,-0.0035590217,0.02864095,0.043260828,0.007882133,-0.02384529,-0.0058041834,-0.069746085
11,-0.023009665,-0.029410241,-0.08900808,0.013743124,-0.006671227,0.20520632,0.028466387,0.05925353,-0.1051686,-0.11074602,0.10813252,0.064339265,0.01401533,-0.014909784,-0.008705597,0.11123565,0.14714327,0.05099475,-0.020689258,-0.027564386,0.051590588,0.029010553,0.008212471,-0.011116654,0.04417541,-0.03473699,-0.038352426,0.03734,0.0025583871,-0.109198034,0.046567656,-0.07219811,-0.019853635,0.027908228,-0.06965145,-0.03201141,-0.0062812488,0.045343738,-0.10923316,-0.043553103,-0.019480713,-0.029492537,-0.0892496,0.040888503,0.041397247,-0.02237062,-0.06045491,-0.08878266,-0.015624172,0.03781044,-0.047064506,0.028813282,0.032079063,0.01746465,-0.032692857,-0.043606002,0.07786538,0.10643692,-0.05679273,-0.037217293,-0.08305897,0.04034427,0.012435532,0.06749697
12,-0.024745192,0.055524047,0.03171293,0.022315403,-0.03163777,-0.07551753,0.016544243,-0.003174922,0.040944017,-0.023639953,0.017445311,-0.05273616,-0.0366862,-0.020292627,-0.004836006,-0.0671906,-0.057309486,0.06151354,0.042603537,0.045133997,0.045082707,-0.03918407,-0.03665207,0.017685631,0.039634515,-0.08405326,-0.19021441,-0.109673575,-0.0782708,0.02453094,0.06775702,-0.041379783,-0.078178085,-0.08334314,-0.11524299,0.03259579,-0.06931555,0.041032504,0.09386682,0.05280914,-0.06579122,-0.07474003,0.016118726,0.01698593,-0.1442716,-0.03291826,-0.028186567,-0.010969016,0.04149052,-0.00095293426,0.04789467,-0.0017872445,-0.044846144,0.032678705,-0.020410964,-0.043133058,0.010687629,0.0785607,-0.0016982709,0.020280076,0.07151722,0.05957255,0.015793154,-0.09786908
13,-0.065965876,0.043196954,-0.041580718,0.05486336,-0.05188451,-0.058930248,-0.027703216,-0.020503687,-0.0018211284,-0.001830615,-0.052855622,-0.1121674,-0.028674385,-0.049326092,0.059713785,-0.0035922483,-0.039080445,-0.18375857,0.0069939983,0.018189149,-0.042675227,0.09077929,0.0044822586,0.015195606,0.1480669,-0.034603324,0.048092246,-0.056021586,0.033005435,0.10532717,0.007675612,-0.08821127,-0.045861475,0.07155662,0.02806849,0.011642609,-0.061210617,-0.00026022608,0.042777304,0.11672321,0.025703497,-0.0030267658,-0.0657797,-0.076786034,-0.02234149,0.08471948,-0.033996478,-0.06335707,-0.0023166742,-0.0043023387,0.092247136,0.026890919,0.026939144,0.045060486,0.0029659942,0.021302914,-0.034650475,-0.015964272,0.066026784,-0.024517315,0.079318665,-0.0095384,-0.01027034,-0.05129697
14,-0.02494757,0.08012158,0.0077266158,0.014567377,-0.036732446,0.079370864,-0.002470527,0.034451857,-0.01793633,0.119125724,0.1027332,0.06852483,0.039297357,-0.0804136,-0.028454607,-0.029926239,0.12485544,0.039503332,-0.03464686,-0.06496098,0.015881062,0.040831245,-0.05182236,0.04771703,0.0071297204,-0.16634887,0.011258668,-0.01568815,-0.02000268,-0.029364783,-0.039019037,-0.048377022,0.060817976,0.028566588,0.09335755,0.020204267,0.005144159,0.0149781285,0.043531828,-0.079992495,0.17532776,-0.05007283,0.05400834,0.14032409,0.0030389763,-0.036929525,0.02032899,-0.0033808541,-0.07797176,0.076436,-0.010004878,-0.007916206,0.009699729,-0.03656584,0.0319888,-0.089800805,-0.08314524,0.093211606,0.04585444,-0.09110371,0.078352384,-0.11199889,0.00032719952,0.009795289
15,-0.06655042,-0.044691972,0.12358768,-0.0142716775,0.021389881,0.062100004,0.027499564,0.08543055,0.10589831,0.02698569,-0.012109398,-0.0022609688,-0.000763177,0.035881344,0.024329338,-0.035733026,-0.07382379,0.040273804,-0.051814932,-0.013416937,0.034073025,0.02130858,-0.017453376,0.018173045,0.048310295,-0.05933696,-0.08577038,0.0907214,-0.004420662,0.004319266,0.0095765805,0.058844928,0.005517437,-0.0639227,-0.015252116,-0.121628106,-0.036962405,-0.03442416,0.076180786,-0.06725918,-0.0073951143,-0.03249341,-0.073498875,0.08633193,-0.19239223,-0.07691006,0.032373194,-0.048514396,0.029397085,0.054595575,0.008637762,0.03741886,-0.022280682,-0.035129815,0.0068411673,0.09288614,0.07067917,0.10967353,0.121066794,-0.043826766,0.08009186,-0.022577498,-0.008851335,0.023176463
16,-0.03468593,0.03818265,0.0034270345,0.068436384,-0.0529616,0.0074254344,-0.05981663,-0.06273781,0.08092738,0.016516965,-0.018530808,0.08092657,0.06785908,-0.14008519,0.08419524,-0.08173753,-0.035260823,0.06312414,-0.07198112,0.06347075,-0.02366402,0.03344382,0.047881898,-0.059795715,0.042764653,-0.06823279,0.054316983,0.06603572,-0.021827755,-0.0030624059,-0.058604356,0.07899899,-0.03929436,-0.039303128,0.0043418426,-0.079469614,0.008148607,-0.039683525,-0.059546303,0.016912248,0.010397131,0.050235674,-0.014626188,-0.04261995,0.04746818,0.13388583,-0.044189885,0.01208116,-0.035904,0.011385494,-0.017068664,0.0040328973,-0.10973058,-0.058638345,-0.034711115,-0.0014232751,-0.06309474,0.10488617,-0.014818034,0.024375508,0.09230198,0.04628395,-0.0064222543,-0.025566
17,0.14361094,-0.0007551395,0.0042958525,0.018684307,0.074311204,-0.022215437,-0.041899312,-0.05777715,-0.019281484,0.005519578,-0.06434566,-0.0149806505,-0.0063250144,-0.05536552,0.024883585,0.013813946,0.16218098,0.011995615,0.17597307,-0.040984977,-0.035898633,0.03703761,0.07873902,-0.025145212,-0.029698607,-0.034703396,-0.042288978,0.12757695,-0.043743312,0.00255669,0.007318557,0.07513179,0.013794106,-0.08029916,0.013472956,-0.048715748,0.049443252,-0.01759787,-0.06572786,-0.024161056,0.05033473,-0.16671424,-0.065679014,0.09750301,-0.0045008,0.061564904,0.030102428,-0.049492743,-0.0019193151,0.12450862,0.04329792,0.01577958,-0.043591026,0.029747268,-0.11656475,-0.005457156,-0.097167976,0.003944691,0.0704265,-0.03059201,0.07521797,0.07219436,0.061782848,0.04779316
18,-0.013901803,0.020592475,-0.0928623,0.0041308417,-0.01061106,-0.03344792,0.07387224,-0.032729074,-0.020669123,0.091550164,-0.03242921,-0.06104918,-0.0120308865,-0.0890192,-0.010619064,-0.0071482523,0.086535454,-0.07459597,0.11172087,0.058795203,-0.17976086,0.03068834,-0.008153154,0.0024853013,-0.08781833,0.09279562,0.02447634,-0.005831636,-0.05325446,-0.024985952,0.047208827,-0.03710127,0.009025587,0.009776496,0.03418336,-0.03908087,-0.05715736,0.08013845,-0.09557947,0.043656893,0.032901987,0.039490677,0.07546802,-0.09086211,0.06708897,-0.00952197,0.09571028,0.059656885,-0.036774058,0.01227863,-0.010036205,0.036888607,0.0014377205,0.06279843,0.012965829,-0.005798597,-0.010168651,0.046294466,0.022812538,-0.06057414,-0.045109905,0.021500815,-0.023802364,0.022567434
19,-0.039799575,-0.057670753,0.07451315,0.0703094,-0.07103529,-0.04111556,-0.0116850315,-0.01124369,0.12365086,0.024051337,0.016156787,-0.018001145,0.014417354,-0.15874094,-0.032716494,0.058537573,-0.017314447,0.040440265,-0.089206114,0.0507477,0.0070710247,0.079252,0.019407503,0.022205262,-0.0707879,0.00951761,0.05621,-0.05636483,-0.009279636,-0.0063788067,-0.07235655,0.036815163,-0.014702872,-0.033614162,-0.069256686,0.042631205,-0.07548825,-0.09013323,0.12657952,-0.013754685,-0.02723549,0.07842942,-0.019282958,0.05338283,-0.0008138514,-0.0126662,0.003740959,-0.003937823,-0.033913895,-0.012797264,-0.09087452,-0.00633165,-0.07146448,-0.11935053,0.02764077,-0.08013569,0.027631268,-0.027457288,0.110346414,-0.07963904,-0.106304534,0.07474814,0.014063306,0.044127677
20,0.09812301,-0.021178389,0.05736384,-0.0056919213,-0.0357632,0.18519847,0.015743092,0.052826513,0.0016937905,-0.02444279,-0.016938442,-0.09533994,0.02470604,0.09287465,0.07030245,-0.06786591,0.055727653,0.04444143,0.010084558,0.03354025,-0.049791705,-0.03281616,0.015409878,0.05251287,-0.016433483,-0.0153708365,-0.074499175,-0.023875495,0.0148848975,0.09008216,-0.076726526,-0.09946488,-0.07516762,0.0331366,-0.033694338,-0.030811692,-0.01675891,-0.04450174,-0.0075423466,-0.0063796793,0.025578707,-0.010918705,0.057711136,5.8052923e-05,-0.009864044,0.046431705,-0.02023134,0.08311119,-0.15632111,-0.00783942,-0.07231399,0.0014239383,-0.020088552,0.10341077,-0.117593326,-0.060380712,-0.05486988,0.005610027,-0.060534663,0.0069384202,0.09386818,0.011847049,0.12464574,0.005040008
21,0.07643723,0.015868234,-0.07424651,-0.038038492,0.09370421,0.14693579,0.124700524,0.0009904582,0.04159913,0.02191201,-0.032812957,0.004642908,0.065249875,-0.10453298,0.006462185,0.029188322,-0.056263268,0.0046240967,-0.051366154,0.3126245,-0.0038427487,-0.05037366,-0.0028380028,0.021859951,-0.074532345,0.02425277,0.030676203,-0.04098147,-0.009740026,-0.015038675,-0.07245237,-0.0076099616,-0.018439382,-0.05497852,-0.035672728,-0.024430951,-0.0012064119,-0.026038926,0.10902402,-0.053284694,0.0028543293,-0.10288687,0.034572735,0.004123395,0.009587997,-0.002488657,-0.020151956,-0.011682432,0.016424146,0.03246488,-0.08946842,0.053923756,0.06684557,-0.03687458,0.025863,0.025816495,0.02567866,-0.025063448,-0.036215123,0.036368173,-0.031647436,0.18726273,-0.016902355,-0.17103843
22,-0.03546032,-0.0569202,0.018790072,0.04574088,-0.019175623,0.00089075585,-0.01769743,-0.020522738,-0.10354502,-0.013099814,-0.015518095,-0.014862625,-0.098964274,-0.09619719,0.1354799,0.0056675044,-0.04112419,-0.031406984,-0.034915928,-0.002981379,0.044523746,-0.008663476,-0.050484277,-0.022893855,-0.006129357,-0.06146984,0.0039973706,0.028554467,0.09808402,-0.015725607,-0.015908312,0.015010692,0.03436454,-0.030617606,-0.00785403,0.05903464,0.060114197,-0.022970531,0.0070605297,-0.114888124,-0.01738683,-0.0017198769,0.07123171,-0.0016892727,0.066726595,0.022627927,-0.0025809356,0.06950075,0.14616877,-0.01964505,0.017488502,-0.0139969895,-0.06526459,0.018931668,-0.033913784,-0.103585,-0.020126913,-0.011573827,0.039237212,-0.005215289,0.036387075,-0.0050363936,0.026335761,-0.029476855
23,0.03168862,0.013653611,-0.014025365,0.042248737,0.0914782,0.0734754,-0.04602081,0.032007366,0.030734576,-0.051207285,-0.094637096,0.078890316,0.006691344,-0.022948783,-0.02898273,0.008158886,-0.039120484,-0.031396266,0.13951555,0.007354444,0.04748727,0.023481753,0.02293148,0.029064627,0.009895259,0.0062838085,-0.005907339,-0.031182304,0.07238317,-0.03436612,0.06574098,0.06543135,0.068144076,0.14917801,0.087448955,0.08125357,0.1509033,-0.06808776,0.042227358,0.12210057,0.084112756,-0.006154167,0.009450458,0.025357658,5.114986e-05,0.06703245,0.06306187,0.052159596,-0.03223831,-0.057148684,-0.039847393,-0.0076385513,0.009059841,-0.031294234,-0.004294796,0.054459,0.045397148,0.17131552,-0.031657234,0.050458178,-0.08037891,-0.08807245,-0.06841948,0.0061318385
24,0.008444538,0.050955623,0.012486081,0.043267895,-0.03199188,-0.10110939,0.14287049,0.18733731,0.01727652,0.10101764,0.05398354,0.036742914,0.040337317,-0.02973109,-0.029805256,-0.059125014,0.10001274,-0.023953155,-0.08352617,-0.02606861,0.024769107,0.020687977,-0.05017924,0.04930969,-0.09287484,-0.03668894,-0.0358976,-0.026530879,0.017396862,-0.04653435,-0.0550851,0.028815262,0.07795044,-0.02872298,0.10835035,0.079287045,0.033142705,-0.040721275,-0.004756315,0.0036969888,0.0030425896,0.044764735,-0.03180176,-0.019846698,0.018833485,0.025590232,0.045511857,0.032342974,-0.00579828,-0.013293961,0.00799526,-0.024040574,-0.020692836,-0.013008999,-0.052024793,-0.0061822813,0.05588572,-0.053917106,-0.012641803,0.0046981396,-0.03201162,-0.022768673,0.054637752,-0.033284545
25,-0.02623765,0.04710255,-0.019077854,-0.062073864,0.04258697,0.010284706,-0.0018856908,0.006629426,0.19634706,-0.034568664,0.01644159,0.042236865,0.046560135,-0.0071096937,0.034154393,-0.010658828,-0.0063511496,0.032580607,-0.04038124,0.038383152,-0.027414713,0.0253637,0.026192391,-0.039827142,-0.14470857,-0.06116995,-0.076701984,0.09810616,0.018706681,0.0029664524,0.070210926,0.019869614,-0.07891526,-0.14729726,0.0073052067,-0.055250276,0.2170136,0.012633001,0.03677193,0.105599746,-0.029528199,-0.023236472,-0.02683563,0.06887318,0.024874343,0.019478792,-0.013617641,0.020044029,-0.061387528,0.07837354,0.0019171903,0.002604653,-0.015146549,-0.02357484,-0.047008418,0.013057849,0.052368462,-0.054504044,0.0013419901,0.025054762,0.19241746,0.0338783,0.042261068,-0.010710392
26,-0.013979481,0.015407398,0.0026407347,0.05258168,-0.008866126,-0.18791722,-0.09185795,-0.062186226,-0.032263227,-0.07163614,0.06511196,0.08227473,-0.02680477,0.08850749,0.034837328,-0.08634054,0.064752236,0.07593748,-0.037900668,-0.051884215,0.006090667,0.023785926,0.016197737,0.028255837,0.004879751,0.009191412,-0.050128143,0.09093525,-0.014015762,0.03810366,-0.028942913,0.023729987,-0.14537264,0.0368982,-0.1507115,-0.018599696,0.018341212,0.011324379,-0.021980613,-0.03646761,-0.083694726,-0.007916278,0.036055956,0.002660843,0.023024399,0.11316073,0.018884983,-0.006516251,0.0049391454,-0.0784148,-0.040056173,0.07717853,-0.0944433,-0.005770443,0.08887897,-0.0010093853,0.07647395,-0.012588077,-0.036940265,-0.017701395,0.011226508,-0.12662779,0.09642074,-0.008965468
27,-0.08972831,0.04231242,-0.045418486,-0.0067746853,0.042406566,0.09723383,-0.05711917,0.045517206,0.052027345,0.0761524,0.050555937,-0.04718009,-0.0026531632,-0.002263993,0.05174036,0.09178473,-0.02051719,-0.034047455,-0.12590739,0.123268105,-0.03128721,-0.06762535,0.030040748,-0.0104869725,-0.0014705624,-0.07093988,0.070171535,-0.0875451,-0.00418396,0.106944285,0.08951339,0.01113954,-0.026120016,-0.12507603,0.021723887,0.05628906,-0.043691713,-0.05703731,-0.018808868,-0.006110123,-0.15525295,0.046745613,-0.017117897,0.08930655,0.010833853,-0.04756509,-0.077414826,0.053719785,0.01622068,0.14722022,-0.03657126,-0.00060008955,-0.00052340404,-0.12811008,-0.111061126,0.010280837,-0.07735796,-0.03149451,-0.009039765,-0.0050162417,-0.03828724,0.030268483,-0.029851066,-0.068902984
28,0.04396396,0.02991531,0.12961933,0.0067744832,0.03420581,0.094826475,-0.06690273,0.04266033,-1.7386577e-05,0.005020266,-0.046641797,-0.04648719,0.03938342,0.022368291,0.0668507,-0.053901833,-0.03791856,-0.038539134,-0.008480233,-0.0016643322,0.017874178,0.123385325,-0.06142901,0.011473904,-0.03776715,-0.047297407,-0.054794677,0.012841185,-0.017597735,0.052323107,-0.05448052,0.018178303,-0.006765994,-0.028034352,0.011625413,-0.010374835,-0.017711593,-0.029833835,0.018296005,0.2138827,0.02644994,0.0006629983,0.11452623,-0.034327578,-0.023445085,-0.008545603,-0.042447716,0.0066091963,0.01422732,0.0017788918,-0.018449808,-0.047909826,-0.02035452,-0.017240759,-0.017058391,-0.014089805,0.013950622,-0.009705156,0.09551783,-0.0002992275,-0.057786804,0.0047836266,-0.011337735,0.031120447
29,-0.04130058,-0.00074125937,-0.081848264,0.044341937,0.006965409,-0.100259125,-0.0152093405,0.1935725,0.03911491,0.06371738,0.12249435,-0.009783119,0.0012343514,0.013967832,0.008418058,0.08020479,0.124981426,-0.028656315,-0.01590266,-0.0124469455,-0.040967874,0.0035343412,-0.05331303,-0.032673694,0.091875575,0.024780782,0.009179131,-0.025256556,0.033196516,0.013820614,-0.002444205,0.033670507,-0.05621078,-0.11305706,0.012042101,0.11507663,-0.045205895,-0.017637981,-0.06608844,0.014779012,-0.03334476,0.05735468,0.010425755,0.0007236401,0.026866607,-0.026732598,0.07796582,0.003323116,-0.0027340814,-0.04480457,-0.004078947,0.049446978,0.008247457,0.029774524,-0.09944644,0.10587236,0.18185793,-0.046146467,0.023556035,-0.035149887,-0.06829971,-0.082583666,0.07539157,0.077440985
30,-0.06359489,-0.038594924,0.06324559,-0.047470987,-0.14701718,0.040816143,0.046265528,0.0036872802,0.08234685,0.12902302,-0.11503394,0.03328222,0.03826911,0.06562315,-0.16938277,-0.014333306,-0.06164658,0.038503356,-0.06695448,-0.02470227,-0.036696345,0.023162495,-0.11361977,-0.01956238,-0.009610832,-0.059318695,0.035780344,-0.05372811,0.026064252,-0.03652515,-0.049446844,0.056512944,0.020945866,0.05101604,0.045115992,0.020381734,-0.03303737,0.0140916,0.10588438,-0.00729389,-0.028527882,0.014676145,-0.016814798,0.063615404,0.01924018,-0.0008944202,-0.0056176726,-0.042095605,0.060716543,-0.0059660543,-0.01185984,0.01876467,0.014896603,-0.010433136,-0.02072734,0.030660078,-0.03036566,-0.048481327,0.045257468,0.010599505,-0.06890453,0.027756304,-0.022876652,-0.027369587
31,-0.032357253,-0.015832243,-0.031325243,-0.020171458,-0.05423016,-0.021003129,-0.097831056,0.0965146,0.047952347,-0.057828903,0.029871114,0.02268082,0.0022138916,0.004294748,0.04591044,-0.0037108148,0.16738023,0.075387925,0.045386143,0.0015094788,0.024248581,-0.00039917885,0.0033048696,0.06430903,0.03333352,0.0868799,0.05670049,-0.018184796,0.045882605,-0.07042232,0.016816841,0.054725595,-0.022470495,0.04175639,0.024639154,0.049229287,0.10728353,-0.035561375,-0.027149402,-0.020530036,0.029456666,-0.032654196,-0.023747379,-0.0012343505,0.010229155,0.019029701,0.0967833,0.033147037,0.069461145,-0.03281043,-0.045112543,0.00809818,-0.04699978,0.05591857,0.015929323,0.012713139,0.04858223,0.11664793,0.00143454,0.01119455,0.049882185,-0.075475745,0.03134854,0.02910977
32,0.12617896,0.025121558,-0.031241253,0.008209285,0.00020134228,-0.0876917,-0.03371177,-0.09631988,-0.06955014,0.004790773,0.041074842,-0.013448497,-0.08895931,0.067562595,-0.0025375066,-0.042357575,0.045312867,0.025655169,-0.029292867,-0.013142844,0.038325682,-0.020313123,-0.0196926,-0.06992495,-0.036824513,-0.081109226,-0.05687834,0.09687457,0.0020144854,0.0464736,0.019274794,0.078215465,0.016470743,-0.12244626,-0.0011187197,-0.0015257857,0.08710137,0.082261264,-0.06632281,-0.018123336,-0.04955645,0.06662858,-0.04416826,0.0164528,0.044188675,0.064994045,-0.048326597,0.013504306,-0.11419278,0.100750156,-0.031486742,-0.12733844,-0.06834661,0.07198491,0.05892703,0.0016183492,-0.046750914,0.08070737,-0.011574567,0.010516288,0.030672312,-0.069313444,-0.096956685,-0.07683725
33,-0.020189155,0.060301114,-0.055892505,-0.12908633,0.0106873,0.0484251,-0.05438893,0.04925263,0.093311265,-0.055208877,-0.10911998,0.028216185,0.00043587116,0.000113381306,-0.028216936,0.0601995,-0.083399184,-0.020109242,0.021318512,-0.029248359,0.047530893,-0.016980695,0.013958264,0.010144893,0.04760913,-0.0055642608,0.08061149,-0.094307296,-0.034817893,-0.039237086,0.058671623,-0.022808438,-0.014437257,-0.12279134,0.060014706,0.033641946,-0.054807797,-0.056129042,-0.037522163,-0.014755027,-0.001969259,0.14040326,0.02954898,-0.02170739,0.0624431,0.13313465,-0.00016088593,-0.010473828,0.04641746,0.019023843,0.03225529,-0.09330694,-0.12584715,0.043570336,0.09283382,0.10032363,-0.067268744,-0.019843293,-0.0146553125,0.056237992,-0.07217555,0.01067309,-0.01874464,-0.009913765
34,0.064640716,-0.021162989,0.021629758,0.07731245,-0.07272872,0.03509444,0.08062073,-0.10439803,-0.016385388,0.0623436,-0.017289571,-0.14297618,-0.026543401,-0.030538464,-0.025677744,-0.069380954,-0.062115323,0.048508003,-0.019811764,0.046006158,0.019926729,0.03231714,-0.023264028,0.012042256,0.011700602,-0.0018969537,0.042922884,0.057505637,0.047509287,0.023593271,-0.019877724,0.022111563,0.04385901,0.034788087,-0.073901325,-0.031636618,0.0038019132,0.0015117548,-0.091067895,-0.070802644,0.067088895,-0.061530013,0.015732208,-0.031600866,0.012963313,-0.0034731056,-0.0868195,-0.089208186,0.10440473,-0.016840542,-0.027301,-0.023305127,0.07669628,-0.07597664,-0.06319779,0.04400016,-0.0479568,0.121292695,0.0042740298,0.026238201,0.052375745,0.011538337,-0.016527938,-0.0023168328
35,0.022622027,0.0022956273,-0.15215987,-0.031057578,-0.09916078,-0.15384765,-0.04337246,-0.13141991,0.045548443,0.046454884,-0.14618953,-0.016350616,-0.028701333,-0.0041911397,-0.05766802,0.009143368,-0.10525089,0.014284745,-0.08795477,-0.026943881,0.02521822,0.0145225385,0.025902437,0.0844115,-0.12824579,0.028546086,-0.003547412,-0.02873286,0.0710115,0.04078277,-0.09703138,0.005329601,-0.02953408,0.0456678,-0.026393881,0.0010366655,0.062202867,0.002794926,-0.048570633,0.048506826,-0.023608672,-0.14937568,-0.016316501,-0.018856214,-0.03638475,-0.04091591,-0.02839136,0.004917527,-0.026930496,0.01580133,-0.013560087,0.024672437,-0.0020148442,0.0587456,-0.056572873,-0.03621687,-0.15970643,0.094059214,0.008506293,0.016653104,-0.026260156,0.022536788,-0.017229585,0.029156435
36,0.06590335,-0.07165386,0.047701,-0.024543721,0.080105945,0.00466257,0.016801728,-0.00027029132,-0.029031375,-0.058558222,0.06701493,-0.03392427,-0.016271982,-0.04703867,0.049088564,0.07694555,0.15953094,-0.03849114,0.175518,-0.014437655,0.016245274,0.0035678472,-0.026551414,0.044536926,0.19441724,0.043727737,-0.015665267,-0.020534778,0.013465974,0.017729435,0.010467543,-0.058049224,0.05822267,0.07113181,0.073746845,0.028312424,0.14796996,0.03777087,0.030252993,0.033027895,-0.040408153,0.11580572,-0.062272485,-0.0061778263,0.002533497,-0.015583043,-0.11224063,-0.005486301,-0.045393664,-0.069346204,0.0063339714,-0.000319733,-0.02228438,-0.054891925,-0.0019787385,0.004980017,-0.019061482,-0.032053053,-0.10456824,0.0087076435,-0.043278325,-0.0037749927,-0.007371173,-0.0217612
37,-0.05469731,-0.063646,0.16056387,0.050096635,0.16370432,-0.0128743835,0.0017157445,0.040582176,0.065992326,0.025181318,-0.056895223,0.008179966,0.061201613,0.0026540789,0.075054504,-0.047623742,-0.03810881,-0.022414805,0.018785082,0.293825,0.05031108,0.0017048628,-0.027447442,-0.03017994,0.08331368,-0.05245652,0.035908986,0.0665105,-0.031304263,-0.017866775,-0.055109605,0.013205118,-0.006419324,-0.05354045,0.02093141,-0.084316224,-0.09011265,0.044216704,0.01792267,-0.027207369,-0.031969763,-0.044447523,0.0071003255,0.037266668,0.032929346,0.029374642,-0.05336361,0.022576656,0.13659924,0.14683919,0.002568737,-0.03283344,-0.008294328,0.11990996,0.073020115,0.027191725,0.052509338,-0.08636597,0.15047084,0.005925144,0.02477313,0.0654664,0.041387625,0.020038253
38,0.08130081,-0.02688604,0.09350014,-0.038408637,0.042676162,0.00293718,-0.09956234,-0.14474554,-0.08208505,-0.051691446,-0.010301404,0.062250704,-0.007079675,0.21641749,0.20653653,-0.011805014,-0.05183053,-0.0064893425,0.13935576,-0.1300233,0.15978172,-0.043130975,0.024579715,0.0012140024,0.1195161,-0.063431166,-0.024541594,0.07536424,-0.009908399,-0.04478656,-0.028470337,-0.03656423,-0.027736086,-0.030113654,0.007241694,-0.020451011,-0.03877181,0.020262608,0.092577554,0.057084415,0.06688846,-0.1446277,0.011445837,0.06055402,0.0311281,0.007765093,-0.073131084,-0.020543654,0.025370596,0.07683062,0.03617487,-0.095489025,-0.108090155,-0.02491462,0.015224899,-0.000508587,-0.1046052,-0.08511226,0.008586402,0.099784374,0.022332104,-0.001224966,-0.032826934,-0.0779842
39,0.019631365,0.11328648,-0.031364635,0.012329825,-0.027766906,0.018492706,0.026549244,-0.11031766,-0.068106316,-0.29610488,-0.028717745,-0.04724502,-0.048384354,-0.10027693,0.010164464,0.112262875,0.023830505,-0.05258158,0.1211472,0.076869294,-0.034058988,-0.026948638,-0.005854203,-0.053448044,0.17566395,-0.085720636,0.0046116346,-0.011239617,-0.031377953,0.064808115,0.04446728,-5.486482e-06,0.0039909314,-0.0775915,0.068900876,0.041111693,-0.043456618,0.014817202,0.109225355,0.015381011,-0.020607853,0.032044463,-0.04264271,-0.055163726,0.07402744,0.076483265,0.053958405,0.03210345,-0.046483997,-0.0015140042,-0.08032161,-0.061463725,-0.17454168,0.038447622,-0.065837115,-0.022481676,-0.016120998,0.11595724,-0.06035552,0.049807608,-0.010695906,-0.10021944,-0.06939739,-0.016535064
40,0.022931678,-0.027130615,-0.0466613,-0.0540015,0.16665703,0.18317121,-0.04772356,0.067101076,0.020941103,0.014534689,0.05219015,-0.0038428875,-0.019227106,-0.030740224,0.03667013,0.035604786,-0.089928314,0.040738255,0.15285987,-0.035400767,-0.025466299,0.06399733,0.011071247,-0.004216187,0.15573289,-0.024964835,-0.02827254,-0.033073787,0.0026240377,0.038075246,-0.030983541,-0.025044393,-4.727165e-05,0.037136223,-0.019086462,-0.04810516,0.0008739082,-0.011707012,-0.10566726,-0.040667623,-0.058855917,0.3014437,-0.04391168,-0.009216032,-0.018890295,-0.042838797,0.019106414,-0.010187962,-0.053131837,-0.03680354,-0.03173156,-0.019462908,0.10124367,0.04613643,0.0005736558,-0.046181727,0.12545052,-0.012895564,-0.07723947,0.03207964,-0.029911371,0.062510975,-0.0055729803,0.055446804
41,0.052282598,0.065652765,0.028962117,0.0068571926,0.15814495,0.042156544,0.0366574,0.26115674,0.0013713909,0.064430855,-0.011553552,-0.01194915,0.00298855,0.041435376,0.055889785,0.07194684,-0.015812311,0.006812888,-0.025425276,-0.009493532,-0.031021321,-0.0058182203,-0.0148572605,-0.06844523,-0.057145637,0.00030215122,-0.0062486855,0.01696513,-0.05789971,0.0077515156,0.0846452,0.013044544,0.0043643303,-0.0063755494,-0.03311245,0.061754704,-0.009357837,0.049814876,0.0017025509,-0.060239203,0.019787101,0.16743259,0.015679186,-0.054692034,0.03247106,-0.039194815,-0.010440256,-0.036107305,-0.0045953817,0.015825916,-0.007657669,0.01964355,-0.043715127,-0.007451116,-0.014434526,-0.015579496,0.15026382,-0.06648909,0.014125421,0.008808336,-0.04775735,0.039137628,-0.07518895,0.059361253
42,0.053065293,0.007115928,-0.040542003,-0.00057878427,0.06167031,0.01708837,-0.007345792,0.06854516,0.04077004,0.04176829,0.05120406,0.111107044,-0.013201611,-0.04280548,-0.06434028,-0.055612016,-0.06549363,0.0037772898,0.029569875,-0.04945069,-0.24653816,-0.01361214,-0.024863543,0.09406322,-0.016992338,-0.058216237,0.050520826,-0.067786224,-0.012981017,0.33545795,-0.037219264,-0.020964878,-0.019092087,-0.018301722,-0.060443677,-0.011703568,-0.02477389,0.00078581803,0.05009491,-0.048476655,0.05597142,0.02038157,0.0072848387,-0.06592366,-0.052074127,-0.014025609,-0.061556883,-0.0057639233,0.06238519,0.016457208,0.16359802,0.081358634,-0.072431095,0.10375425,0.03523775,-0.06550213,-0.007017375,-0.041849382,0.11494588,0.02937835,0.006936706,-0.051667687,0.028393233,-0.01757593
43,0.06599833,0.013508145,0.259529,-0.0086130295,-0.15981853,-0.20770788,-0.051491622,-0.10723862,-0.016910907,-0.019211525,-0.07483703,0.0031057869,-0.046236236,0.08299887,0.12308241,-0.037712414,-0.061734755,-0.003993745,-0.07467264,0.065304734,0.020942884,0.024630971,0.045826893,0.09190845,-0.1738847,-0.021044035,0.014991408,0.049950086,0.011892117,0.07627525,-0.0014548538,-0.048008554,-0.03080921,0.0318705,-0.029896008,0.096103825,0.027693028,0.040013593,0.3037387,0.04336421,0.0115814665,-0.1672999,-0.0035593382,0.061260734,-0.007606606,0.04990136,-0.051063087,-0.013212214,0.04320013,0.08282949,0.044341896,-0.006858248,-0.023612792,0.032934643,0.00927803,0.034582462,-0.14818387,0.014154505,0.17813282,0.00063188677,-0.044697087,0.03809184,0.009471287,-0.012009025
44,-0.017808523,0.044509117,0.11138704,0.047495335,0.024185786,0.0058150906,0.06911436,0.04636893,-0.0103376405,-0.00677781,0.04299815,-0.015598525,-0.060522787,-0.0340019,0.07019871,0.037404,0.102700934,-0.032836046,0.0034045947,-0.0026122548,-0.015444168,-0.00047185936,-0.0010829174,-0.05218406,0.08676137,0.015283576,0.061109755,-0.045581326,-0.0031610138,-0.05988224,0.057190653,0.05830331,0.020284612,0.016802842,-0.044467468,0.044802655,0.0062447255,0.008324696,0.05031828,0.041965906,-0.0035033622,-0.024739465,-0.006063777,0.036896467,-0.010441678,0.013641015,0.05317825,-0.0038105096,-0.0065601426,-0.08763913,0.02614803,0.0033704669,-0.042237345,-0.016354335,0.009140347,0.054094024,0.2687436,-0.09356584,0.038673677,0.043240655,-0.08334015,-0.018856201,-0.0036526283,0.0104882615
45,0.037584245,0.021430014,0.016057791,0.009380649,-0.07014604,-0.057474118,-0.016211703,0.052113708,0.008142075,0.0155468155,-0.03624462,0.061569817,-0.0014324012,-0.046667285,-0.05142981,0.02278898,0.045800574,-0.069963805,-0.09505491,0.055991385,-0.017166607,0.03928138,-0.0031678663,0.03852899,-0.115467645,-0.095674336,0.0338718,-0.03805357,-0.040798057,-0.055255037,-0.03465869,-0.015602178,-0.025676914,-0.03523993,-0.089741655,0.16225152,-0.00610133,0.03079239,-0.06762599,0.028660202,-0.053408265,-0.11190773,-0.015906634,-0.0007570593,0.042849425,-0.010996344,0.031312797,0.0021900292,-0.010718527,-0.06655605,0.025242236,0.033557713,-0.035685606,0.047144495,-0.020965952,-0.037217434,0.022385191,0.018924499,-0.00016235457,0.05965081,-0.067938715,-0.06704424,0.085919395,0.089090794
46,-0.037222914,0.010424704,0.07586228,0.0079335915,0.0060250056,-0.029850835,0.045525536,0.053161543,-0.0026755948,0.020837339,0.035656847,0.048650168,0.035406,-0.010354917,0.16658701,-0.015189234,-0.0665684,0.0006095635,0.051789086,-0.0040262034,0.057926193,0.009691488,-0.08496671,0.039597493,0.0028506902,-0.018559458,-0.028546086,-0.022903565,0.022756007,-0.0175311,-0.031908695,0.0032918057,-0.019282253,0.034424033,0.030563839,0.055286903,-0.027330078,0.0039750873,0.18138859,0.116942,0.088139966,0.012813156,0.111950174,0.04809935,-0.009623416,0.022837717,0.005977213,0.03165184,0.06420361,-0.018508371,-0.057329785,0.08109038,0.04659449,0.024671135,-0.021938857,0.033372633,-0.0120207155,-0.012491462,-0.12145098,-0.008103145,0.052828655,-0.03595048,0.0080742305,0.029112434
47,0.031966504,-0.16318218,0.04829182,-0.013081457,-0.040821884,-0.008628519,0.08747152,0.047189817,0.09876591,0.06161714,-0.07550286,-0.007879853,-0.026633061,0.027827423,0.0051199375,-0.07176498,0.12093027,-0.075245515,-0.029699644,0.02022562,0.014199737,-0.020321082,0.017319506,-0.0042936457,0.05830839,0.053825222,0.017867496,-0.005355761,0.029168533,0.047006525,0.08421979,-0.009123893,0.01187362,-0.19134036,-0.010689579,0.008693032,-0.09909906,-0.014972512,-0.007865863,0.06123784,-0.03789471,-0.037394308,0.04302634,0.027084555,-0.043283336,0.10447559,-0.048615206,0.0689899,0.06394827,-0.037188485,-0.08819606,-0.03432847,-0.035467003,-0.0007964271,-0.034115613,0.10367442,0.07230618,-0.0066346587,-0.022149652,0.065685235,-0.059661396,-0.03323767,-0.015474652,-0.08852041
48,0.03760257,0.0012798795,-0.05647868,-0.07824558,0.028283862,-0.002044938,0.029101988,-0.038514033,0.038692158,-0.10120199,0.041163642,0.004193501,-0.013515031,-0.010716532,0.015298733,0.01867095,-0.04409466,-0.046110116,-0.0045123063,0.039938737,-0.042008426,-0.08743597,0.016079202,0.10611635,-0.014522666,-0.05564008,0.088413514,0.058489982,0.14024675,0.0418762,-0.09816073,0.13181713,-0.06776009,-0.016034756,-0.058366437,0.14847034,-0.011247352,-0.06401018,0.07035266,0.057491113,-0.046974324,-0.009003059,-0.03491307,-0.015104148,0.0049552554,-0.029349491,-0.04042378,-0.011676165,-0.019853076,0.024361923,0.121659435,0.024422389,0.014947796,0.006915847,-0.011169704,-0.11650986,-0.07601972,-0.044825193,-0.0011721429,0.10268337,0.01084014,-0.019791037,-0.017000679,-0.008508774
49,-0.025607875,-0.0038102064,-0.016310766,-0.03181593,-0.0016802787,0.043429557,0.055230696,-0.018081188,0.031259064,0.049949773,-0.0032897757,0.0029815594,0.0010855442,0.033874713,-0.0054926644,0.12041284,0.034297355,-0.046867482,0.015075621,-0.014725959,0.052744552,-0.024635946,0.0053241267,-0.028214086,-0.082850985,-0.0053843358,0.0043566325,0.027213806,0.0010653035,-0.08188575,-0.050329056,-0.026386537,0.06857998,-0.046071265,0.2166076,0.048327137,-0.0076050446,0.052896068,-0.012138331,0.023664538,-0.01447065,0.0019236535,0.014647807,-0.022371568,0.014494353,-0.05860374,-0.035791155,-0.030463506,-0.053598765,-0.079837345,-0.014933436,-0.19875498,-0.09876769,0.066176295,-0.032570407,0.0030337577,0.065295,-0.013378034,-0.04997786,0.0068194736,0.071117975,-0.095495954,0.07129292,-0.054041736
50,-0.050897278,-0.0006399206,-0.20035839,0.021522738,-0.009229301,-8.749923e-05,-0.0022195948,0.030554587,0.058187,0.052963033,-0.065847956,0.0989171,0.037608266,-0.055769444,-0.12008188,0.0324629,0.0036916372,0.03309312,0.027593952,0.019557761,0.021093315,-0.02655462,-0.056845777,0.023652531,0.062871754,-0.03338202,0.0952991,-0.025011318,-0.00348519,0.009501033,0.04886453,0.079917304,-0.009388511,0.079887934,0.0032039643,0.029033493,0.042585216,-0.01641668,-0.07197808,0.020701412,-0.044016372,0.0028529037,-0.0010108278,-0.02348445,0.0075340355,-0.00029062474,-0.030930448,0.0009870748,0.08025608,-0.023163289,-0.015681611,-0.027444812,0.022532588,0.01612782,-0.03835,-0.06441695,0.0046632285,0.08643394,0.02695909,0.0037352962,0.042034615,-0.0019241938,-0.04038276,-0.009091917
51,0.00198007,0.018755555,-0.051434997,0.027948363,0.043701705,0.11157127,-0.005496225,0.18150257,0.020618167,-0.056746997,-0.045305833,0.093483515,0.03331592,-0.16146399,-0.009164377,-0.0037027386,-0.055819146,-0.028831644,0.11029947,0.15039314,-0.022761302,-0.04057698,0.0251499,-0.015846489,0.13962157,0.03479727,0.036106315,-0.07002226,0.019308666,-0.016389102,0.032030713,-0.0031198612,-0.027356787,0.048456967,-0.05421084,0.02708866,0.043745115,-0.0065279463,-0.09623933,-0.0074384226,-0.04080473,0.110584505,-0.009556645,0.0024104712,0.0074582463,-0.04546841,-0.055329625,0.063223206,-0.0040582106,0.08319712,-0.08782008,-0.029822987,-0.0245838,0.0060700765,-0.030321198,0.03594982,-0.15958436,0.0031918928,-0.049072545,-0.056086738,-0.16953753,0.004338268,0.041066807,-0.057801407
52,-0.18562229,0.020051558,0.01761595,-0.04914802,-0.02243992,0.010466738,-0.07084912,-0.12559608,0.014647917,-0.0040476085,-0.1332208,-0.26141617,0.053686664,0.018591773,0.041068524,0.0567919,0.07689728,-0.040680148,-0.0044977833,-0.08271639,0.017696392,-0.055023324,0.0025001215,0.061336163,-0.018547503,-0.030131496,-0.0100106755,0.02165276,-0.040068224,0.06454203,-0.013677633,-0.023282835,-0.046490032,-0.021882959,-0.052398052,0.029237889,0.03472256,0.24114197,-0.034736525,0.03380401,0.17384598,0.05881343,-0.0039380584,-0.07199064,-0.018813632,-0.035905086,0.23875119,0.084312975,0.09189574,-0.0066104378,0.0054097245,0.059585273,0.0756158,0.12082631,-0.043371275,-0.017169967,0.28548864,0.01670093,-0.11506088,0.10714195,0.019604297,0.09682222,0.029903028,-0.23471202
53,-0.021963475,0.044196595,0.051294487,0.06515477,-0.011682425,0.04085444,0.1573101,0.12907241,0.029486442,0.03822949,-0.05297164,0.014479978,-0.053356476,-0.029928455,0.009719568,0.012384637,-0.048487097,0.011736486,-0.022019308,0.033053853,-0.03654607,0.08458577,-0.025212146,0.021444418,0.014140696,-0.07549914,0.021871319,0.028729262,-0.0046644215,0.0046789213,-0.06837999,-0.017228855,-0.13713752,-0.06423202,0.020437848,0.04853141,-0.023880364,-0.01257946,-0.022029318,0.013897745,0.021322722,0.12439167,0.04042993,-0.030959237,0.08597831,-0.021121776,0.019151092,-0.020515246,0.048962187,0.001581914,0.046026364,-0.006143824,-0.09046654,-0.052580647,0.018529689,-0.023580594,0.037428584,0.013219944,-0.040476695,-0.017118907,-0.024792641,-0.05684426,0.10447993,-0.041396085
54,-0.15761201,0.04666472,0.02714229,0.088384725,0.0068335105,0.010178611,-0.0062119113,0.032898482,-0.05495827,0.06546514,-0.020001728,-0.04442493,-0.0629478,0.03975245,-0.04664763,0.055803347,-0.015790116,0.09007715,-0.13120133,0.06438234,-0.03545589,0.053419646,-0.016864268,-0.003875112,-0.08307127,-0.007736086,-0.0061386307,0.05046559,0.04349038,0.104587175,0.07694554,0.024597842,0.07980118,0.0031816284,0.049348693,0.049178503,0.005065415,0.017142164,0.06248219,0.011013536,-0.027460497,-0.030674756,-0.01912522,-0.012383494,0.056100618,-0.0061769593,-0.04908703,-0.072568975,-0.020953758,-0.02043736,0.026681338,-0.019564662,0.03364426,0.072820105,-0.020414935,-0.0264602,0.06034437,-0.025259295,0.07005596,-0.032814287,-0.02368611,0.09715862,-0.07590572,0.08226754
55,-0.032091223,0.04960855,0.0807827,0.023634227,0.053610377,-0.015925322,0.0041517117,0.047468953,-0.051280394,-0.012197899,0.0899947,-0.021040943,-0.016589465,-0.017815355,0.013132173,0.06672539,-0.023312606,0.020974116,-0.041031685,-0.020189557,-0.020726874,-0.08530629,-0.04929257,-0.0032381113,-0.013678453,-0.07086046,-0.036324456,0.08247172,-0.062019464,-0.059452042,0.004684318,0.013157228,0.0052894764,-0.07428968,0.07611413,-0.013532262,-0.019923665,0.096647926,-0.086274944,0.03065771,-0.09228397,-0.042255294,0.06495286,-0.052993968,0.092763335,-0.04536981,-0.0025233552,0.058436263,0.04690045,0.028974177,0.23532934,0.041599374,0.0013098972,-0.03758318,0.021516196,0.093608655,-0.12744933,-0.076170094,0.06202867,0.117883116,0.028897272,0.17877956,-0.17278412,0.031138957
56,0.005401753,0.0091704335,-0.011677505,0.045422263,0.030817801,0.05557286,-0.024774496,0.04218949,0.10197286,0.046872906,-0.005393492,0.018976793,-0.0014846025,-0.027734926,-0.047302112,0.08089847,-0.14024648,-0.048024803,-0.03948484,-0.0063814954,0.037831992,-0.032933444,0.053366296,-0.107100286,-0.03889697,0.003071932,0.0063726176,0.11073755,0.03759563,0.010631552,-0.042672258,-0.02551746,-0.010721296,0.1266389,0.009089672,0.0639477,0.0047965283,0.030932615,0.027208043,0.06882014,-0.13301118,-0.080139466,0.0063094753,0.014548899,0.056374058,0.025388023,0.0008725626,-0.0009228967,0.07088421,0.053654857,0.15426938,-0.04640335,0.0030650885,0.051429745,0.203855,0.020276023,0.19837135,0.068117455,-0.20019124,-0.05808594,-0.03283656,-0.19543259,0.008205102,0.020655284
57,-0.035940703,-0.14509726,0.03512855,0.024373919,0.11331327,0.028326204,0.11844938,-0.09348284,-0.1230809,-0.06317333,-0.01481437,-0.037562933,0.052443113,-0.022658166,-0.012959859,-0.058019985,-0.013878901,-0.0076057017,0.00032767068,0.032733783,-0.029340768,-0.051541485,-0.06387254,0.029657166,-0.08097177,-0.029335191,0.017066253,-0.029590175,-0.07620853,-0.05062257,0.01132586,0.001005836,0.06437279,0.034240056,0.0016994465,-0.05551711,0.069084354,-0.057296373,0.014226766,0.08821058,0.023887621,0.07540964,-0.013350507,-0.008420433,-0.011514022,0.12060744,0.00020267072,-0.025202006,0.0010220456,-0.071005926,-0.0050912863,-0.02050878,-0.058517076,0.02254037,0.016885143,-0.19862702,0.02660347,-0.046891972,0.113271415,0.02059668,-0.08643252,-0.030041834,0.04212326,-0.08806883
58,-0.015760707,0.050549056,0.051735863,0.025805566,0.095198564,-0.0021957634,0.00020684813,-0.011803904,0.015293052,-0.025417667,0.05881137,-0.057491414,-0.038832184,-0.022432946,-0.076736644,0.06740975,0.08109575,0.096012846,-0.05052186,0.026258761,-0.039550036,0.033529643,0.013597837,-0.0044922293,0.037535634,-0.010714899,0.059965953,0.037635133,-0.023175549,-0.02377357,0.07399338,0.08631241,-0.10152399,-0.039805733,-0.042470858,-0.042370763,0.016224956,0.0083894795,-0.003777928,-0.0048761205,0.07731375,0.034000635,0.12765853,0.08881903,-0.008074856,-0.023439355,-0.08383871,0.053200517,-0.0017517797,-0.008680468,-0.028366718,0.038612258,-0.16575114,0.044645596,0.08233465,-0.09284196,-0.031882636,-0.049362745,-0.033609536,-0.00051340164,0.032177344,-0.054956898,0.07056008,-0.12035034
59,0.035233106,0.009027831,0.01570299,-0.021431662,0.029577522,-0.15477991,-0.1021692,0.01003028,-0.033329997,-0.06337738,-0.0025709125,0.14980757,0.031068683,0.05660009,0.16765895,0.106474765,-0.031069845,-0.050085735,0.066856764,0.04102427,-0.014883581,-0.031804025,-0.033153318,-0.079170756,0.056997024,-0.08881335,0.004369906,-0.074179485,-0.020330692,-0.028814647,-0.024005443,-0.05282229,0.08484907,-0.036816556,-0.04924619,0.020555448,0.06297672,-0.027041791,-0.02692597,-0.023924222,0.04108769,0.18635143,-0.016967876,-0.038147066,0.005322909,0.012931,0.034441367,-0.044668727,-0.08028628,0.03214189,-0.041258834,-0.000197922,0.03268555,0.029198138,0.070471324,0.0047547156,0.032687657,0.004698185,-0.0054872404,0.047751963,-0.055072833,0.17534569,0.08826533,-0.06866554
60,0.069131434,0.014390232,0.15412101,0.025197584,0.00430965,0.049186613,0.004026014,0.09548653,0.04247576,0.16398819,-0.006973787,-0.026802108,-0.007440835,0.036699437,0.055443425,0.0029816842,0.053896822,0.09657864,-0.065932915,-0.011066448,-0.018522784,-0.04124323,0.04341712,0.037784405,0.001639911,0.044691525,0.051752575,-0.008873991,-0.005380768,0.05366122,0.0060862005,0.10352268,0.037872627,-0.0037187065,-0.04157843,-0.046765327,0.051311065,0.0060351794,0.2715479,0.021648925,0.00908657,0.113508426,0.024055345,-0.056034587,0.027994232,0.08008567,5.326355e-05,0.05189699,0.06622276,-0.0018479408,0.027361907,0.017381253,0.063365474,0.0031097466,-0.021004168,-0.037704293,0.009670662,-0.035913534,0.024940738,-0.039354056,0.081853546,0.010491852,0.031238256,0.046236478
61,-0.043638412,0.0062149577,-0.1029048,0.022030974,0.07342137,0.1187269,0.1490416,0.2495225,0.04170013,0.06951917,0.011572978,-0.0038952103,0.008628925,-0.089096285,-0.058994174,-0.0024723797,-0.060245983,0.011716959,-0.10093237,0.008184083,-0.06842621,-0.050100252,-0.06209543,-0.019005336,-0.011456947,0.03672884,0.004253335,0.041030094,-0.019721484,0.0096508935,0.026525898,0.053993553,-0.01990147,0.01836308,-0.0010625356,-0.018823812,-0.03017719,0.04606035,-0.14568377,-0.028659241,-0.011394487,0.27487296,-0.027198547,-0.01627211,0.023798786,-0.05820065,0.0071572307,0.026252164,0.0019039349,-0.013092917,0.0024314483,0.0021166326,-0.015674155,0.0072685336,0.02313148,0.063445605,0.075914636,0.03853279,-0.021690704,-0.017465089,0.019720025,-0.015417451,-0.064928934,0.01614636
62,0.072652966,-0.007913318,0.0069700605,0.047650043,-0.1340037,0.009229036,0.05680282,0.07438268,0.07485194,-0.061893523,-0.047649924,0.13586426,0.05999215,-0.101763025,-0.082493186,-0.15551546,0.19075027,-0.07179318,-0.04261157,-0.04499213,0.06636702,0.06251805,0.05756474,0.040632885,0.1279041,0.022658862,0.046897672,-0.054111104,-0.06804127,0.000853648,-0.0452871,-0.07036351,0.020840505,-0.0903776,0.011734104,0.03974129,0.07681613,0.07783756,-0.065160125,-0.017234676,0.08740319,-0.061254177,0.026787717,-0.08144432,0.010881063,0.087401845,0.10419538,0.071116716,0.022290872,0.016976273,-0.08286705,0.069446065,0.0008466826,-0.046138525,0.0084291,0.051607322,-0.08755642,-0.05244171,-0.02652722,0.060894106,-0.01794017,-0.16361064,-0.16296609,0.055182997
63,0.014222518,0.014234295,0.034530718,-0.012708989,-0.05852927,-0.018899357,-0.010074877,0.022876497,0.007761176,-0.017479258,-0.06195553,-0.016351439,0.016990973,-0.0024715709,-0.04184809,-0.036679,-0.0055013257,-0.05668768,-0.06418856,0.03513845,-0.09401087,0.00034228605,-0.023949701,-0.00044988413,-0.0858916,-0.034907844,-0.011588752,-0.035739757,-0.019556146,-0.0745732,-0.042590268,-0.007645699,-0.0071893074,0.03345778,-0.040204525,0.029691938,-0.018678585,0.12417134,-0.0023058439,-0.017660031,-0.07269876,-0.03324504,-0.0019957141,-0.04614902,0.003803228,0.016724497,0.05693258,0.00036553215,0.0033022822,0.022120358,0.09513873,0.017171381,-0.020526275,0.087111495,-0.008173028,-0.016103689,0.047709126,0.013839682,0.02755221,0.02989118,-0.045801207,0.048923433,0.040054847,-0.009402032
64,-0.014394596,0.014968432,-0.024185935,0.07092132,0.08490123,-0.054659497,-0.048772868,0.06639731,-0.0030815308,-0.041067608,0.004202326,-0.063999586,0.04269938,-0.06219666,-0.028683033,-0.010391101,-0.06960197,-0.08372733,0.11801282,-0.032678925,-0.004029875,0.04789745,-0.021768875,-0.0995975,-0.020368632,-0.012113782,0.034978993,0.10152711,-0.070753746,0.037690025,-0.04437536,0.044656955,0.040062808,0.16609097,-0.0664988,0.017874252,0.0059111114,0.087603,0.06418072,-0.013584319,-0.07151552,0.06414076,-0.008678556,-0.017092766,-0.007591272,-0.032325327,-0.09079244,0.09562692,0.085169636,0.049609154,-0.0028645995,0.041466903,-0.037699312,0.04859626,-0.032678943,-0.007341866,0.06835426,-0.027939014,-0.02455067,0.09692817,0.070275836,-0.05280026,-0.019712443,-0.033364255
65,-0.08720296,0.07841118,-0.096024014,-0.015505835,-0.023280805,0.0006469763,0.03878063,0.14805126,-0.046127252,0.07249977,-0.012039234,-0.0028074298,0.09088535,-0.06655625,0.0013481012,0.01632152,-0.060764976,0.028370712,0.028508594,-0.05745182,0.10975455,0.044459336,0.003009203,-0.08719666,-0.06641076,-0.055969507,-0.024282603,-0.0016902527,-0.013146927,-0.050645586,-0.028787747,-0.007860346,-0.05772383,-0.021424007,0.0064301216,-0.008132018,-0.062287994,0.0070622833,0.007879715,0.03771525,0.15879819,0.090732366,-0.098343685,0.08135793,0.013714497,-0.07119342,-0.08453225,-0.008664633,0.13825913,0.066841096,0.019490287,-0.041671265,0.07355746,-0.037674706,-0.0058689388,0.03248379,-0.0075342967,-0.20433162,0.06876201,-0.06524095,-0.063183546,-0.11775665,-0.1420044,0.10251207
66,0.023340551,0.020799022,0.036024965,-0.004448217,0.09441001,0.059724372,-0.06563817,-0.016472986,-0.16891533,-0.048929438,-0.012921354,-0.017785251,0.00852414,-0.018395597,-0.0035506715,0.05495462,0.053483885,0.07039288,0.034588322,0.09763494,0.01339806,0.04766515,0.13749823,-0.0120716775,-0.055981163,-0.04220899,-0.07979293,0.017889507,0.018677551,0.028295763,-0.04987419,0.024931867,0.036726896,-0.035851803,0.0013385115,0.023865517,0.11151565,-0.13136408,0.07957152,-0.056632876,-0.09927673,0.055352673,-0.102982745,0.019170295,-0.0033061157,0.02898562,-0.05437715,-0.023028001,-0.03252471,0.061701383,-0.039044835,0.054697867,0.15519048,-0.112245515,-0.048415374,0.038892932,-0.022895182,0.009836443,0.0037145915,-0.02172021,-0.053971775,-0.028231362,-0.09346873,-0.026809743
67,0.04195659,0.07206811,-0.08262902,0.0881259,-0.040204678,0.017024178,-0.009844912,0.070866525,0.053259637,0.004704963,0.018906923,-0.055733137,0.01281091,-0.016512536,0.08561271,-0.05507608,0.016306289,-0.098337516,0.01408464,-0.0051205806,0.0115396455,-0.1337682,-0.07484673,-0.01875194,0.04812059,-0.0158956,-0.020727634,0.018232834,-0.008859926,0.024922682,0.03469525,-0.025810253,-0.011992113,-0.0034874284,-0.016523918,-0.120751865,0.0030732933,-0.03883235,0.039488878,-0.038053233,0.009041732,-0.03256154,-0.0606419,0.021743799,-0.08775974,-0.037545145,0.093812004,0.00011160971,0.009234609,-0.012252379,-0.013782072,-0.02503698,0.024475593,0.027569437,-0.011446311,-0.056733985,0.022849694,0.11634894,-0.08996297,0.031625647,-0.012180709,-0.028476134,0.038174737,0.016666144
68,-0.09549658,0.0037642752,-0.059318382,-0.02267989,-0.016945126,0.11649995,-0.02664359,0.015195036,-0.01914884,0.0011442712,0.093040094,-0.043487255,0.029750066,0.089496925,-0.017401261,0.005929579,-0.03937579,0.029670823,-0.013959966,-0.15685642,0.045245226,0.029414868,0.063095294,0.014994674,-0.08193654,0.0002543504,-0.017304132,-0.038547933,-0.016084515,0.012261406,0.029723167,0.038180497,0.05244363,-0.023507135,-0.06600881,0.022228876,0.0838093,-0.2155422,0.009612848,0.0029748378,-0.059041366,0.008196948,0.008152535,0.023793215,0.017600197,-0.071355924,-0.052500922,-0.07163412,-0.022140432,-0.007519036,-0.016776165,0.058123607,-0.015688578,0.15687193,0.017942008,0.1012465,-0.04805092,-0.036652736,-0.06466637,0.19515437,-0.06706881,0.028236596,-0.021593895,-0.0055052405
69,-0.061979964,0.05478225,-0.004145774,0.039819773,-0.011247124,0.015581357,-0.008941486,0.08986712,0.08580874,0.029856415,-0.0037319756,0.018905196,-0.040459804,0.07989848,-0.022607127,-0.061858177,0.09824714,0.013764799,-0.12209948,-0.04112685,0.010874373,-0.090156935,-0.047897957,-0.031084841,-0.05519275,-0.036415983,0.042328652,-0.092996836,0.02352441,-0.038643636,-0.087715134,0.013872379,-0.11453541,0.030924918,-0.053369466,-0.07694139,-0.07746372,-0.031044533,0.08620301,0.012517854,0.02877709,-0.08265202,-0.01596362,-0.1283799,0.099957064,-0.019687038,0.16690533,0.055736225,0.032735683,-0.023398256,-0.039283507,-0.05281713,-0.07003375,0.064667545,0.042408258,0.048206136,0.029972665,-0.079715185,0.28104508,0.010036833,0.15525779,-0.09087292,0.064562105,0.06183287
70,0.054024596,0.02534578,0.028183674,0.019612543,0.034445014,-0.088123254,0.030200861,-0.1893542,-0.030183168,-0.1230888,0.059269626,0.04274716,-0.0043934765,0.0059374413,-0.01248229,0.008223301,-0.012750504,-0.029545138,0.003561215,-0.063398615,0.014948661,-0.014892866,0.026686015,0.0297124,0.09879408,0.22692724,0.00140628,0.050679557,-0.018830877,-0.00958327,0.035345726,-0.014926663,-0.035745062,0.0045140693,-0.23639008,0.06926712,0.092443086,-0.005083881,0.049577568,0.07187555,0.021248026,0.024789479,0.042888466,-0.04561139,0.026548441,-0.023337053,-0.0014470347,-0.016158124,-0.054512475,0.015285584,0.01988826,-0.03280214,0.007384327,-0.00017930898,-0.06500439,0.058526143,-0.05057993,0.0760079,-0.038375814,-0.06403387,0.009726276,0.06528997,0.003835961,0.014042727
71,-0.043599736,0.020059591,0.052651796,-0.050540276,-0.031857707,0.05564481,-0.02414762,0.034458723,0.0019056046,-0.024128066,-0.01897508,0.035359457,-0.08982982,-0.05679259,0.08522922,0.017828483,0.028648792,0.029606521,-0.025025783,0.055147238,-0.006026056,-0.06856751,0.051570978,0.016375162,-0.010265302,-0.073897734,-0.037607126,0.08966153,-0.030874683,-0.018232124,0.03885046,0.034121003,-0.0315838,0.018517373,0.018412631,0.06545534,0.13933027,-0.040398464,-0.0056742704,0.01704971,0.038428325,-0.0073744375,0.0060163923,-0.02189608,-0.04105677,0.2093642,0.007607842,-0.08245857,-0.018365867,0.00023949522,-0.020592371,0.047984127,-0.05081862,-0.024028413,0.008193304,0.0027339195,0.06810192,-0.043232847,0.069801524,0.0045031663,-0.11099734,-0.054937087,0.0070312014,0.009643825
72,-0.039019387,-0.020756163,-0.073134094,-0.013025359,0.09895721,0.042327207,-0.020138536,0.022464385,0.0109274825,0.017275635,0.12819968,0.010688902,0.0016410364,-0.02888673,0.011419606,0.0141428,0.075524695,-0.032471113,0.020753,-0.018957937,-0.019067837,-0.017895935,-0.0039575715,0.011695177,0.1403786,-0.07431349,-0.03163474,-0.013629926,0.026562518,-0.02612356,0.067351125,-0.003947392,0.13404372,-0.0154628,0.044826142,0.015667878,0.002282579,0.008819454,-0.072218865,-0.01668704,-0.029625852,0.13198012,-0.016921692,0.015622716,0.011908325,-0.0070305006,0.011386823,0.013167323,-0.0015232271,-0.039184555,-0.024037983,-0.02189554,0.04922938,-0.036433496,0.0029804825,-0.06171878,0.13172701,0.006406424,-0.07539554,0.008677358,-0.036873862,0.0059955716,0.028636392,0.029819392
73,0.043777518,0.019556941,-0.062438156,-0.025425844,-0.05285868,0.040405195,0.01787562,-0.055013172,-0.026668468,-0.017681332,0.11320024,0.07974364,-0.013053249,0.056281086,0.0069099925,-0.018209489,0.01724653,-0.0011295319,0.051623225,-0.16710746,-0.039410852,0.10954151,-0.021437345,0.09614164,-0.03480973,-0.022856347,-0.01399849,0.07441663,-0.01748268,-0.020750944,-0.0238391,-0.050298095,0.0070186323,0.015871827,0.08303589,-0.0036849591,-0.012698534,-0.014702021,0.03650146,0.011277362,-0.21346228,0.04473127,-0.03699095,-0.033715416,-0.0047229934,-0.01574463,-0.09803742,-0.043046165,0.058852646,-0.032529525,-0.06630399,-0.019582883,0.064766854,0.070189804,-0.010667075,0.04236898,0.073668785,-0.057295978,0.10901224,-0.009090944,-0.036189098,0.042240564,0.24847376,0.004598236
74,-0.042264532,0.049694028,0.09462107,0.04444105,0.119871914,0.045773953,-0.09448593,0.04529308,0.10469253,-0.13126811,-0.10157178,0.052974746,0.078065366,0.013018755,0.07731538,-0.10314948,-0.013841539,-0.007445733,0.02976769,0.029448997,0.01836735,-0.0307226,0.07607193,0.031409264,-0.23856495,-0.042283844,0.022423163,0.06131313,-0.052301016,0.0030933986,0.010322913,0.034670446,0.23177841,0.19381204,-0.035098206,0.016282033,0.13177532,-0.10246471,0.07357037,0.02746051,-0.06367196,0.0058196075,0.042602785,0.0022465321,0.06373432,0.004482459,0.037055187,0.0031193541,0.06858506,0.027252449,-0.042815268,0.0509398,-0.027605271,0.019413475,-0.036649756,0.12634285,-0.096045844,-0.0906904,-0.038356043,-0.04561164,-0.044613812,-0.026880043,-0.040354326,-0.1681296
75,0.043483973,0.035593096,0.056247912,-0.055504713,0.008259258,-0.055206634,-0.010633437,0.02686204,0.0645671,0.012031296,0.061576463,-0.09741742,-0.04917612,0.04812549,0.056074377,0.013468425,-0.049161933,0.05963203,0.012406458,0.045212593,0.029920228,0.0055658114,0.10564873,0.019388275,0.06270956,0.042470813,0.1439732,-0.060292467,0.14107218,-0.04873285,-0.006076017,0.04810433,0.0068794,0.08319196,-0.04882317,0.003526261,0.105185926,0.0119256005,-0.014186997,0.1629192,0.013790774,0.029842297,-0.041951124,0.0039007477,0.055064127,-0.0139936665,0.013809827,0.09556607,0.119274765,0.058181364,0.0102109,0.029165862,0.06601764,0.0047822604,0.0046017007,0.030778982,-0.07927177,0.10580918,-0.0050527556,0.05379098,-0.09752598,-0.0038663046,-0.046816304,0.009562112
76,-0.08667847,-0.040453367,0.04398438,0.050862487,-0.016399814,0.15303266,0.075839095,0.17345612,-0.009658809,0.033608485,0.091660336,0.034331653,-0.007550011,-0.012223789,0.031755954,-0.012561268,-0.02393552,0.023554524,-0.009763868,-0.023597144,0.045653623,0.026948309,0.019379007,-0.012738375,0.12655318,-0.033582162,0.02383102,-0.067819916,-0.027607381,-0.039964456,0.0039677294,-0.042467907,0.016147716,-0.006016478,-0.100341775,0.010608025,-0.02299748,-0.021591496,0.023016883,-0.019594694,-0.01674179,0.12599272,0.049379464,-0.056792043,0.09937432,0.0224976,-0.011814996,0.025286196,0.011456152,-0.02567532,-0.005572015,0.010446679,0.071214825,0.016666338,-0.06949904,0.05636004,0.0058506564,-0.01074601,-0.06680984,-0.0012866114,0.048584554,-0.018160174,0.03986427,0.002587042
77,-0.05819636,0.057147514,-0.012892783,0.036759388,0.016259745,0.11611335,0.108933076,-0.028150558,-0.025810955,-0.021010336,0.05802844,0.07585874,-0.064787745,-0.11952802,0.049964532,-0.07525203,-0.06912934,-0.06367837,0.03277058,0.03989502,0.14284788,-0.16809544,0.033842586,-0.014326966,0.01846022,-0.013613978,-0.03707651,-0.03129101,0.09187414,-0.16589019,0.028465759,0.12505548,-0.09105982,0.08852031,0.06322164,-0.1074986,-0.0074450476,0.008368379,0.03113465,-0.08656511,-0.012130289,0.038188998,0.064062476,-0.04151018,0.022394327,0.08766337,-0.10884086,0.023711614,0.011888605,-0.036823865,-0.029084029,-0.19541295,-0.021297248,-0.040369634,0.025019232,-0.08725482,-0.022948336,-0.04232075,0.042501833,0.04623886,0.010637849,0.005344918,0.067980185,0.08197555
78,-0.07284146,-0.03606243,0.008481268,-0.0013035269,0.009789838,-0.02790798,-0.042013746,-0.14818077,0.096399024,-0.03762947,-0.007684166,-0.03426863,-0.021540342,-0.18093327,0.042883135,0.04493936,0.047689445,0.05711812,-0.026242081,-0.04800228,0.02393154,-0.06148712,0.045944717,-0.061134093,0.042687368,-0.071994185,-0.014380428,-0.05537038,0.03400919,0.09836573,0.002376742,0.011589153,0.023528818,0.002404165,-0.030101322,0.039603382,-0.0052141324,0.02569176,0.07756673,-0.012906406,-0.014220005,-0.07862354,0.005320023,-0.11056553,0.004278203,-0.09100773,0.012100749,0.048136078,-0.009514132,0.024618361,-0.018943438,-0.008528203,0.035816167,0.06577211,-0.014147705,0.040722527,-0.07479732,0.00023010708,0.13845858,-0.028149726,0.014664149,0.007381989,0.07650961,-0.008219096
79,-0.06379344,0.06512866,0.04180397,-0.10662686,0.046236914,-0.053329892,0.08291471,0.027321262,0.08598778,0.016755832,0.03803993,-0.047804352,0.01897864,-0.05653979,0.06872297,0.020913733,0.03582549,0.0072669503,0.009148654,0.034326777,0.017346876,-0.054698583,0.040897787,-0.05219841,0.031388994,-0.008025115,0.098096624,-0.067251384,0.09166533,-0.026944803,0.062119827,-0.079338074,0.038384866,0.05035201,-0.044427257,-0.051479124,-0.007744399,-0.015974324,-0.06801669,-0.09619529,-0.0012838551,0.04278978,0.03383853,-0.034734033,-0.066700764,0.0010271032,0.10374415,-0.027946683,0.028777545,-0.01770642,-0.018636417,-0.001427464,-3.954254e-05,-0.014705059,-0.014004703,0.062078193,-0.022133209,0.074034825,-0.00079378806,-0.022203412,-0.033153005,0.012094834,0.0073221624,0.002685963
80,0.010060573,0.03605044,-0.0028440077,-0.075644396,0.024226682,0.022999924,0.047905996,-0.084523104,0.066766515,0.039150093,-0.039212033,-0.05795956,0.027840046,0.03004036,-0.01888184,-0.0028687273,-0.063418314,0.02423375,0.0035433164,0.090902366,-0.17524081,0.015970483,0.010619318,-0.04121197,-0.013993173,-0.04636974,0.033056524,0.008050986,0.02625781,-0.030691983,0.021031052,0.031082578,-0.00018538018,-0.00278114,0.014280132,0.017028553,-0.038553756,-0.032866266,0.058619965,0.014598631,0.0042442065,0.1267868,0.024368806,-0.09894479,-0.012524873,0.0035819772,-0.003205435,-0.04300195,-0.016652739,0.019119848,0.42155963,-0.03133829,-0.008347963,-0.04975166,-0.026763935,0.02380411,0.03182235,-0.071386635,-0.015301728,0.043449253,-0.04398493,-0.022535365,0.058997255,-0.037679613
81,0.013796915,-0.01641013,-0.08224643,-0.055943143,0.029591894,-0.023805803,0.02955539,0.033548128,-0.041703735,0.010205632,-0.0072359885,-0.12793845,-0.0671732,-0.040680893,-0.04105463,-0.033278484,-0.061880596,0.0012227107,-0.059232287,-0.005031459,0.11003008,-0.009209752,-0.022581464,-0.004331306,0.060575478,-0.1397847,-0.014790461,-0.0041269436,-0.030070296,-0.0048630023,0.022508796,-0.00833405,0.019515641,-0.009873652,-0.083695814,0.04824638,-0.022806333,-0.009096202,0.018216,0.035351057,-0.024097962,-0.042254303,0.04473608,-0.10010472,0.008680389,-0.041065924,-0.028864834,-0.025802521,-0.014106344,0.036922444,0.0413654,0.046831887,0.057469696,-0.01780602,-0.013114725,-0.20194966,-0.0087032225,-0.026975268,0.0443467,0.023280552,0.010317406,0.026102446,0.02597552,0.004172444
82,-0.09131161,-0.013169526,-0.014327724,-0.072132654,0.098279774,-0.00054911384,-0.025338233,0.024622226,-0.025964927,-0.007893397,-0.0134156775,-0.06439969,-0.0018414145,0.019420944,-0.0056959316,-0.061106477,0.073789805,0.13386905,-0.007466867,-0.023670973,-0.017649569,0.10152479,0.029626865,0.066316396,-0.15496819,-0.058076568,-0.0067709554,0.04562115,0.028526993,0.020952392,0.009474192,0.08621469,0.097460516,0.053453844,0.01942961,0.025174942,-0.06756859,-0.017900743,0.04123037,-0.024584742,-0.01728371,0.115802854,0.023741895,-0.03161468,0.031086031,-0.03422576,-0.019319098,0.010863581,0.08850531,0.08032431,0.0028852574,-0.027086409,-0.032567892,-0.05664814,0.019009998,-0.007797589,-0.094537005,0.010140383,0.016740516,-0.027043233,0.029881172,0.030802626,0.08416132,-0.087129444
83,0.13622114,-0.17111947,-0.10409767,0.16596568,0.09804491,0.036626607,-0.0782593,-0.07858301,0.07187341,-0.051169366,-0.036751386,-0.026952429,-0.009880075,-0.07978555,0.066435836,0.054746024,0.029626694,0.0911463,-0.09287807,-0.023622857,0.018716728,-0.09607014,0.025855495,0.0095718615,0.029052896,-0.018198468,-0.0046378416,-0.026066624,0.054199398,0.010726036,-0.0804664,-0.0589733,0.0071129203,-0.043031648,0.037273224,-0.07458126,-0.0060374145,-0.043289926,-0.042138673,-0.02887663,-0.033991016,0.11934357,0.055682424,-0.03190012,-0.033406798,-0.08966348,0.0046016905,-0.010881505,0.123114884,-0.011461594,-0.029052967,-0.018857766,-0.11360929,0.010803745,-0.00913911,-0.096610196,0.06080053,0.008409728,-0.15683956,-0.004911183,0.10100051,-0.0090549495,0.054057557,-0.04513747
84,-0.037367586,-0.06638778,0.046453476,-0.004134659,-0.035953403,-0.050840527,0.041320022,0.0721334,-0.020159917,-0.07339582,-0.014377564,-0.07963475,0.014802767,0.091802344,0.020322828,-0.06187386,-0.009011293,-0.04534609,0.086913645,-0.0825782,-0.06655358,-0.021021886,0.036981978,-0.033981122,0.017378556,0.005605344,-0.02021037,0.039053176,-0.021839485,0.014009816,-0.0787129,-0.023322104,-0.042639527,0.039071765,-0.00929414,-0.0041036825,0.043971024,-0.055257156,-0.06482657,0.06942847,-0.08466356,-0.025740588,-0.00097624346,0.045842625,0.015484147,-0.03738934,0.004680259,-0.03207891,1.34047095e-05,-0.022694217,-0.016143395,0.016402615,-0.020817716,0.14894436,0.0909968,0.025524985,0.06466574,-0.045692902,0.047207784,0.021983052,-0.016889999,-0.21543823,-0.028549839,0.039668467
85,0.08774685,-0.022943258,-0.039566137,-0.103738695,-0.016046751,-0.0011178788,0.070766665,0.17297052,0.04041035,0.026028318,0.053087786,-0.061466113,-0.031639185,0.0038423648,0.03230738,0.038982492,-0.0041836514,0.0052139894,0.06099318,-0.09887408,-0.05700764,0.005332414,0.03226192,0.043707587,0.015386175,0.00069282093,-0.00826906,-0.05516721,-0.115852706,0.04491634,-0.06440356,0.025117122,0.0343137,-0.037868034,0.004413626,-0.0007849143,0.027107263,0.048880324,-0.00347538,0.039455496,0.019245854,-0.1333424,0.02779201,-0.014251441,0.009040991,0.063240446,0.09111701,-0.034177285,0.085347906,0.031434692,-0.3010897,-0.056893572,-0.091327995,-0.021251315,0.021166677,0.13233921,-0.031879254,-0.04080813,-0.038872175,0.0064907833,-0.100391015,0.028614318,0.01327668,0.017654715
86,0.00174366,0.05979914,-0.087193765,0.12261018,-0.060004875,0.0016839918,0.039989524,-0.040663954,0.07716149,0.08557888,0.033168204,-0.012093533,-0.032716025,0.039853357,-0.07706876,0.018741298,-0.034890942,6.31117e-05,0.03928188,0.058003496,-0.025949627,0.022178382,0.03357536,0.023169704,0.059309565,0.02757807,-0.023234943,0.013951321,0.0131070055,-0.004703495,-0.049529612,0.0015602316,-0.07323037,-0.037469856,-0.06828837,0.02890965,-0.025139902,-0.02152285,0.040061247,0.06468127,-0.027345557,-0.04145899,0.044502,0.005100477,0.056458842,0.04917663,-0.03147194,-0.0066615213,0.0048681553,0.050487384,0.013718483,0.009900096,0.048053604,-0.016435865,-0.05714388,0.036696095,0.040278684,0.1307931,-0.078533106,0.04251129,-0.08338126,-0.028300386,-0.03401096,-0.00094501575
87,-0.09117802,-0.023432674,0.021215009,0.051524628,0.023738693,0.10418202,0.05918066,0.040531106,-0.13345803,-0.0255279,0.02503796,-0.07516849,0.04934605,-0.012378364,-0.03407736,0.03724465,-0.0151660675,0.03741311,0.060885854,0.06744207,0.008800972,0.0898967,-0.012821317,-0.040000323,0.001406072,0.018826883,-0.039669245,-0.028732618,-0.04575829,-0.008339869,0.08685431,-0.10976084,0.058794945,-0.047948427,0.009398904,0.056840155,0.032946073,-0.0070833587,-0.015070222,-0.026629275,-0.0104256105,-0.08278639,-0.03611415,0.02994168,-0.019358633,0.052442193,0.0037652685,0.07541881,-0.031085012,0.017255122,0.05407443,-0.0432172,0.037784614,-0.008712259,0.03890045,0.042662572,0.0618073,-0.03584602,0.059281044,0.0035401543,0.099129595,0.0033801226,0.05867216,0.083764896
88,0.0748334,-0.006053341,-0.00850893,0.018128186,0.02443644,0.098444514,0.009693305,0.0356365,0.04318702,-0.0102711255,-0.029000679,0.04140933,0.033264253,0.0043354435,0.091400675,-0.0023094825,-0.05615117,-0.022709483,0.13970153,-0.007515599,-0.020002827,-0.040833097,0.037872244,0.04018063,0.18631081,-0.044765413,0.026678871,-0.017898425,0.07926949,0.024584105,-0.060482126,0.013590779,-0.0280799,0.029566398,-0.11065361,0.0133331735,0.07299931,-0.0030788106,0.046511833,0.018487524,-0.011455535,0.08045529,-0.06528007,0.008722246,-0.0067646587,0.005042939,0.0107932715,0.05591622,-0.056686427,-0.052258857,0.026030127,-0.03137552,0.017744621,0.050711196,0.017793523,0.037232384,0.120138705,0.0824337,-0.12639998,0.021486958,-0.034421224,-0.024750957,-0.008366925,-0.059578847
89,-0.058100864,0.008740736,-0.13186921,-0.029509135,-0.004952456,0.10194393,0.016339624,0.031471197,0.030311007,-0.029417852,-0.0035897917,-0.017908772,0.028985674,0.042898618,-0.002675758,0.0148013085,0.022718072,-0.011689861,0.02951034,-0.0027450025,0.14068337,0.0002910413,-0.005924705,0.022504386,-0.026945617,-0.10826563,-0.021865685,-0.0609257,0.023227269,-0.08084612,-0.06842057,0.055634506,0.06483864,-0.06382374,-0.037789483,-0.035339303,-0.02031038,-0.0016668458,-0.04497299,0.0038168882,-0.11199694,0.09258567,0.07149257,-0.031776,0.0036470976,0.013204699,0.092202514,-0.03340478,-0.048405077,0.011730819,0.046319608,-0.020676674,0.042707417,0.057781957,0.021748042,-0.023795895,0.011130985,-0.11930377,-0.055913985,0.021907624,-0.03291583,0.013423166,-0.05560147,0.041441873
90,-0.11091931,0.07773205,-0.100942366,0.08526863,0.05035922,0.08255042,-0.0002638143,-0.046329286,0.10437602,-0.031408828,-0.12128655,-0.019851997,-0.06693451,0.059590213,-0.001778659,0.07461716,-0.062719665,0.07214651,0.006820418,-0.027317267,0.09342695,0.025389608,0.029588033,-0.023937251,-0.037937168,-0.086400755,-0.0024081594,0.14501882,0.0032186834,0.0072429734,-0.031380925,-0.060102142,-0.04264195,-0.021734197,0.012101283,-0.025583403,-0.12385177,-0.07843413,0.05714568,0.009544827,0.10295585,-0.1447738,-0.010994322,-0.017668461,0.027677674,-0.017814454,-0.027497021,-0.030903565,0.14225323,-0.051693797,0.08580774,-0.0740214,0.031396266,-0.117727384,0.035952274,-0.0006784844,0.062097754,-0.0183337,-0.03252815,-0.0100918375,0.025823405,0.108279556,-0.0175531,-0.035736497
91,0.0060859625,0.0034625607,0.043894682,-0.011374958,-0.016235508,-0.009918547,-0.01661647,-0.11180132,0.020240681,-0.031567648,0.013096494,-0.2199264,-0.036879234,0.008875153,0.016559755,-0.15098758,0.084867194,0.08805916,-0.096479304,0.0020941817,-0.039572112,-0.09366637,0.01628029,-0.08979408,0.12943928,-0.022607516,-0.008285202,0.0035069368,0.0010575647,-0.008380626,-0.033950403,-0.034178205,-0.04327504,0.29795155,0.01764968,-0.010496249,-0.010430824,-0.038051195,0.08530478,0.03428752,0.005340248,-0.03907151,0.0065662763,0.07467554,-0.04677031,-0.00021710136,0.09188185,0.10149293,-0.056416508,0.055078693,-0.015627146,0.0035690991,0.003351654,0.009623088,-0.054538555,0.020674823,0.20449325,-0.048871316,-0.017613715,0.07181117,0.08699738,-0.041561823,0.044617273,-0.01825515
92,-0.14898008,0.059605874,-0.026839808,0.08827024,-0.03148582,0.014712594,0.030798763,0.16827637,0.042975422,0.022856077,-0.13199016,-0.11190864,-0.011718253,0.018099941,0.011917395,-0.11414764,0.020201817,0.0145380115,0.06553698,-0.028887153,-0.022395419,-0.103706814,0.054405507,0.04323512,0.02497462,0.06065012,-0.0029627692,-0.0035392507,0.06617717,0.01654703,0.021077365,0.036007486,0.0066881385,-0.06524051,0.0028848199,0.12809744,-0.0016655624,0.1757095,0.0056674527,0.04881695,-0.13256711,0.046631366,-0.04910374,0.06437895,0.040239684,0.079563834,-0.07608205,0.012019681,-0.05686876,-0.044422902,-0.04368336,0.0013658162,-0.032364614,-0.27825126,-0.013800915,0.07233331,-0.09762279,0.034675863,0.03437649,-0.099663116,-0.014422973,-0.13863048,0.17812873,0.053421535
93,-0.08842186,-0.0046901866,0.06798079,-0.04673464,-0.12861377,-0.14390866,-0.04097229,-0.047962356,-0.041392677,-0.0016459754,-0.17313486,0.08945741,-0.0041384813,-0.02719078,-0.017695867,0.011484912,0.03968405,-0.009292426,-0.026756957,0.08857574,0.055340495,-0.0662582,0.008209209,0.054396592,-0.22062469,0.017036155,0.0026786881,0.024585074,-0.027904531,-0.017197143,-0.055028584,-0.00032622914,-0.006257443,-0.012336612,0.03752634,0.033431783,-0.07170164,-0.025388716,0.06081903,-0.04979874,0.13276906,-0.1443773,0.0014996402,0.02016899,-0.0076267035,0.00844757,-0.059986234,0.059341673,-0.00034516005,-0.06487752,-0.029292021,-0.0891409,0.0459266,0.021563215,-0.053572834,0.06234365,-0.065993935,0.07713248,-0.02261366,-0.043252748,-0.08577145,0.01606317,0.001970666,-0.03110562
94,-0.009347413,-0.047297515,0.1624054,-0.040333956,0.0440046,-0.008649807,-0.009303469,-0.115023986,-0.023226175,0.016078873,0.030298254,0.0043926076,-0.033142496,0.043346528,-0.010981745,-0.08259819,-0.051384572,-0.0058692615,0.06443278,-0.029658454,-0.010930087,0.02601807,0.017425077,-0.03864676,-0.046669073,3.1638356e-05,-0.009274405,-0.0381687,-0.0045787757,-0.14676997,-0.013948059,-0.01506084,0.003985187,0.016458342,-0.11887498,0.005663606,0.00249847,-0.010072099,0.058774516,-0.00018638448,0.033996057,-0.001830346,0.048287943,0.028318828,-0.00053989893,0.028879717,-0.035668887,0.0025570926,0.010689119,-0.039014865,-0.025896128,0.02497149,-0.03831045,-0.015598082,0.08984633,0.013076687,0.0728499,-0.00525595,0.020623613,0.16803446,0.020417798,0.0020883507,-0.0009047917,0.010273717
95,-0.08474398,0.01089848,-0.03664399,0.031870842,-0.093899034,0.118069336,0.020038344,0.10923559,-0.00028382684,0.095782384,-0.02040072,0.013107068,0.0023712968,0.04070783,0.032150514,0.0024129245,-0.0742013,-0.01869724,-0.107952416,0.040052757,-0.020905089,-0.010305362,0.004063079,0.0064732316,0.018475842,0.010348941,0.09636151,0.040578786,-0.02704694,-0.015633823,0.00989209,-0.013755925,0.030336076,0.009892215,-0.06758253,-0.040918157,-0.082351625,-0.0086112525,-0.05849971,-0.017617857,0.063101545,-0.04274279,-0.081265695,0.002870342,0.014909689,0.046626095,0.0002757108,-0.0637533,-0.01840004,0.058353074,-0.010400446,-0.038953878,0.00030808945,0.0075448663,-0.027874295,-0.02702672,0.05759436,0.043207366,0.06965935,-0.02087386,-0.015923064,0.023330944,0.01639823,0.078466974
96,-0.0340097,0.038295045,0.029431418,0.11609708,0.06820511,0.008335824,0.11758743,-0.099436305,-0.03481931,-0.11590876,-0.015089032,0.057617873,0.008960775,0.015208734,-0.056628216,0.0044751465,0.028300503,0.06385669,0.06343619,-0.034432843,-0.0648514,-0.042851303,-0.089975014,0.0033075572,0.060762536,0.040741637,-0.020144492,0.007501328,0.12888192,0.03477869,0.011918525,0.07880134,0.04743841,-0.0037940133,0.07351993,0.050875954,-0.045119695,0.0062864674,0.10384856,-0.071601234,-0.043685075,-0.013550496,0.13954031,-0.014954102,-0.12270352,0.087424345,-0.027809825,-0.04548585,-0.006157169,0.01420129,-0.006486967,-0.05149953,0.05936039,0.04134278,0.03163495,0.056090485,0.07064684,0.0620227,0.03141478,-0.0040705367,-0.06694928,0.019952277,-0.048675027,-0.05673686
97,0.01764321,0.021468718,0.045310475,-0.01800683,0.011500397,0.11608723,-0.046699923,-0.059931997,0.03997473,-0.060940117,-0.0499917,0.12873521,0.00700175,-0.045697395,0.08278088,0.04765669,0.025559882,-0.026882,0.20100425,-0.04357764,-0.056220386,-0.056332707,-0.045762055,-0.048421104,0.09553303,-0.019508008,0.066410355,0.11350888,-0.073335916,0.009444068,0.082847975,-0.02571905,-0.009831563,-0.074685685,-0.01032885,-0.012517588,-0.03756706,-0.011710955,0.0059569348,-0.06527689,-0.005466992,0.030271022,0.04473473,0.076511525,-0.003637894,0.03494939,0.008799396,-0.022541352,-0.043680996,-0.0038418875,0.01173576,0.012270808,-0.07156236,-0.08026902,0.042910635,-0.051916525,0.032304823,0.013424271,-0.006313585,0.026422804,0.014424713,-0.05745591,-0.065239355,0.052463718
98,-0.021231584,-0.0943362,-0.029775213,0.06352865,0.019022731,-0.022741301,0.033572223,0.06087527,-0.10176149,-0.0019818502,-0.040068172,0.03449568,0.0067092874,-0.055313114,-0.038533945,-0.03083634,0.02572453,-0.03514879,0.015478354,-0.041158788,-0.016061753,-0.008898721,0.05200994,0.015171298,-0.071793534,0.010776961,0.04502687,-0.08491252,0.027151719,0.011707614,-0.033813283,0.04126363,-0.01864266,0.023890823,-0.05205321,-0.006513304,0.21816131,0.03974436,0.12017336,0.030681837,-0.0036924346,0.077988274,0.010418254,0.026062487,-0.018069563,-0.013701088,0.013640836,0.051766474,-0.023650503,-0.011756754,-0.014029883,0.031618927,0.053952005,-0.031324916,0.059342444,0.020447211,-0.17619357,0.013959834,-0.04063585,-0.06692831,0.096496984,-0.009912869,-0.048052277,0.060618274
99,-0.056954645,-0.017475069,0.14068091,-0.048306033,0.05406142,0.09705695,0.029277787,0.1641677,-0.025839942,-0.0071391487,0.023084808,0.06771221,0.04194662,-0.009278337,0.064853705,0.0236036,-0.022254685,-0.006540672,0.00052624726,0.015976924,-0.0017745348,0.022513693,-0.058576256,-0.0028195754,0.029753966,-0.031276498,0.06095912,0.02078639,-0.07156771,-0.023607375,0.14316219,-0.0015454311,0.10723228,-0.03127993,0.07485902,0.04253771,-0.07878217,0.014271724,0.077433124,0.053763967,-0.00515411,0.036482453,-0.017969588,0.05216051,-0.007993949,0.0058708424,0.036769733,-0.030458743,0.083957456,-0.031187147,0.06158433,-0.02698316,-0.052104753,-0.043404825,-0.015063146,-0.004204611,0.08751996,-0.051115848,0.06658928,0.00896146,-0.02805928,-0.008312363,0.05382466,-0.017468087
100,-0.04352607,0.02156586,-0.016454434,-0.024629394,0.17055666,-0.088190205,0.050025027,-0.021500142,-0.010115782,0.015441521,-0.016594045,0.13495427,-0.006924759,-0.0730629,-0.022679426,-0.11271454,0.039151292,0.0031090258,0.017027782,0.13845696,-0.03787386,-0.03411377,0.044557262,-0.040257443,0.024345161,-0.019753007,0.01410104,-0.08900143,-0.0019344348,0.1093824,-0.035988845,-0.060137715,0.04873342,-0.05444101,0.05671331,0.008563604,-0.0032609098,-0.07401436,-0.023543105,-0.032249324,0.009050199,0.07650348,-0.001387256,-0.04802398,0.010667994,0.015229569,-0.019358568,-0.02738035,-0.028103504,-0.014415866,0.04166729,-0.10521504,-0.0054834452,-0.023421835,-0.038924556,0.06885316,0.025956498,-0.036204927,0.011041707,0.07488613,-0.026669567,-0.012861444,0.008947709,0.029260095
101,-0.00018895905,-0.048842486,-0.016219635,-2.485677e-05,-0.055548515,-0.11083142,-0.052609682,-0.00030360697,-0.14982294,0.08101977,-0.066488154,0.05310753,-0.055683132,0.112189524,0.04171067,0.06422876,0.060641892,0.007419293,0.017162977,0.045434885,-0.017076515,-0.013332858,-0.03013451,0.049223457,0.001320865,0.10515116,-0.03125302,0.15526557,0.0005740074,-0.07062426,0.058600977,0.003244648,-0.09042062,-0.019040955,0.07564359,0.015611731,-0.05120919,-0.022236558,-0.06493819,-0.022127112,-0.09226923,0.012190893,-0.044950187,0.055643853,-0.008600292,-0.0056448155,-0.04050996,0.028851084,0.0073588453,-0.020292044,0.014570305,0.07887514,0.00051736523,0.059792385,0.14497118,0.06826495,0.0016381626,0.048036546,0.0035726388,0.06795705,-0.03638018,0.17267032,-0.02869566,-0.123458914
102,-0.032452896,-0.033877198,-0.12058926,0.001406287,-0.06786106,0.013118418,0.048233416,-0.004122147,-0.037080664,-0.0815281,0.07822271,0.014084484,-0.04159775,0.020802835,0.00070993474,-0.024520226,0.04660475,-0.07043753,0.009015297,-0.034246095,-0.03261208,-0.006805182,-0.0018071546,0.015121666,-0.039017208,0.020261597,-0.04634204,0.0009787782,-0.030302418,0.0031275998,-0.0075274967,-0.0072861114,-0.021335294,0.013821291,0.023328308,-0.011040794,-0.035969988,0.008068032,-0.095347196,-0.05587583,0.036314826,0.06329262,0.04321618,0.04306271,-0.0020387117,-0.05969921,0.009365321,0.0029153135,-0.047444444,-0.0040835165,0.0349675,-0.17088978,-0.02829339,0.016753372,-0.030311594,0.0018362037,0.04279695,8.796875e-05,0.041923802,-0.01739887,-0.04755076,0.007817335,0.025913186,0.0058076456
103,-0.026430048,0.100483924,0.05189039,0.0026194556,0.069439165,-0.018963303,0.0816025,0.03871824,0.08730871,0.046597973,0.010617689,0.011032042,0.045998577,-0.005915841,-0.009930197,0.03540879,0.0056163645,-0.03885483,-0.03806427,-0.013445859,-0.03902145,-0.013214485,0.071707614,-0.07544277,-0.0029443721,-0.026050558,0.051234342,0.00011069784,-0.02110174,-0.013963221,-0.0008612205,-0.099904224,0.042102776,-0.008476649,-0.068672135,0.038592435,-0.05673968,-0.015065694,-0.025789028,0.0005307022,0.021301748,0.026241127,0.03648143,0.05516606,0.07448217,-0.012600542,0.019599874,0.049569216,-0.03404537,-0.0060643163,0.033088055,0.014871002,-0.09484655,0.005648349,0.014066611,0.19226328,0.0077221002,0.08898792,0.037797675,0.048387088,-0.05649696,0.0010369727,-0.037614755,-0.027985763
104,-0.031499296,0.023917891,0.10907713,0.026070718,-0.13650474,-0.08445035,0.01953542,0.034087956,0.056444183,0.08384467,-0.012771566,-0.020196557,0.010518701,0.021471003,-0.06947376,0.02236642,0.018449921,0.02214943,-0.07926164,-0.0024027815,0.047499355,-0.039537042,-0.0150281545,0.051625162,-0.1858337,0.0634543,0.010288877,0.08903925,-0.02434907,0.0030691708,-0.029210418,0.038979314,0.043179844,-0.015581049,0.005039103,0.038840797,-0.0577799,0.024532916,0.046090532,-0.023829652,0.10660816,-0.0027145012,-0.05657348,-0.019196803,-0.0028271994,0.010264239,0.07214886,0.023234867,-0.027264599,0.021790544,0.014929191,-0.05517571,0.005746107,0.03599931,-0.01153792,0.01802619,-0.05256173,0.014342835,-0.0657628,0.07215408,0.17518993,-0.03385207,-0.013962248,0.057519738
105,0.044443093,0.096872464,-0.03424764,-0.04020162,-0.14994061,0.02883134,-0.042043004,0.17565286,-0.006971783,0.05382668,-0.09307122,-0.041727267,0.022728737,0.1456912,0.023946885,-0.07011494,-0.08981404,0.015450882,-0.08779805,-0.0030267176,0.019978613,0.03732995,0.08589342,0.027178556,-0.11980223,-0.027042674,0.027484758,-0.0025659201,0.013292678,-0.0037595087,-0.017637823,-0.027181124,-0.018251749,-0.056933396,-0.056667376,-0.021510014,0.04427634,-0.023955947,0.26156464,0.03259013,-0.008828899,0.08137713,0.021541782,-0.071739025,-0.0009433155,0.03930025,-0.040963788,0.035271402,0.050061848,0.0154997455,0.03369779,-0.02668084,0.06736962,0.0032259887,-0.05838588,-0.004155652,0.011511603,-0.06558099,0.053115986,-0.06006519,0.22955832,-0.0010705995,-0.041636754,0.009653856
106,-0.019721746,0.033640567,-0.06357563,0.012398254,-0.05777924,-0.08667449,-0.030069206,-0.044481408,0.05698336,-0.015982682,0.04337207,0.07227553,0.034762643,-0.033549875,-0.043328933,-0.043229673,-0.10683019,-0.041929763,-0.12923339,0.06434825,0.0016586973,-0.007904587,-0.0053237434,-0.08025291,-0.17548555,0.0503603,-0.0074606533,-0.056887224,-0.001651112,-0.03608675,0.02058898,-0.016180756,-0.040732544,-0.007933957,-0.06692675,0.006568915,-0.034904443,0.015812622,-0.06086032,-0.0011362893,0.04261788,-0.058843374,0.057887763,0.05749342,0.006215844,0.06617278,-0.0715801,-0.035160158,-0.049112644,0.085515924,0.019211749,0.021465974,-0.04859251,0.002330257,-0.011778673,-0.03965854,-0.07098175,0.008341437,0.002466646,0.055355992,-0.025348926,-0.011907923,-0.047106143,-0.029318206
107,-0.10316081,0.015958654,-0.078024186,-0.04395723,-0.042656545,-0.06174542,-0.029102793,-0.022503635,-0.0077664903,0.05645671,-0.021684453,0.08162662,-0.00712151,0.034153476,-0.03068536,-0.06977076,0.030372532,0.021714633,-0.017848548,0.017388597,0.04009709,0.032058258,-0.063404486,-0.020940939,-0.06723342,0.012456313,-0.0130175585,-0.025734974,0.040881783,0.008985766,-0.034109,-0.07234286,-0.04633088,-0.056898218,-0.02710148,-0.029229568,-0.14006402,-0.049160786,0.013430822,0.08884456,-0.021824833,0.07681204,-0.023424516,-0.02193232,0.009294942,0.13223216,-0.07105636,0.0612237,-0.015298555,0.009690366,0.01302053,0.013947195,0.08175839,0.0660366,0.044533283,-0.0049726614,-0.048104458,0.022243425,0.06874994,-0.00035183027,0.10161799,0.010538392,0.019837158,-0.10995842
108,0.068670936,-0.014848656,0.108018376,0.06851997,-0.00060103735,-0.05253469,0.029849147,-0.043776754,0.02211787,-0.0071400604,-0.03231624,-0.029997548,0.048834484,-0.00014603637,0.066058524,0.074479066,0.13280345,0.0040601776,0.15132654,-0.005440351,0.053278476,-0.009218981,0.0795377,0.02103804,0.082922675,-0.047378503,0.07499595,0.07702319,-0.056809977,-0.0126131475,0.008963965,-0.010408262,-0.10220642,0.0080619985,0.07361879,0.14193015,0.02571975,-0.036396883,-0.06253583,-0.03657137,-0.08805447,-0.08193077,0.00011803414,-0.014788912,0.010515152,0.038543426,0.07220845,0.033339903,0.07139491,-0.011423756,0.034268137,-0.02542481,-0.04784323,-0.0071536293,0.008823013,0.029519627,-0.04532038,0.029564181,0.055909112,-0.037517928,-0.0038124109,-0.085101366,0.028656805,-0.0034694434
109,-0.039053142,0.0018913181,0.004736698,-0.02433013,-0.007186783,0.044908904,-0.019484146,-0.16686627,-0.019266445,0.060676295,-0.04471318,-0.2506215,0.0358406,-0.024416829,0.0469868,-0.07405094,-0.03150969,-0.045051377,0.07181759,-0.11201037,0.056071226,-0.00880923,-0.026756532,0.09169525,0.012889748,-0.060389895,-0.0037492085,-0.020747487,0.011169311,-0.009099702,0.0020245253,0.0026824214,-0.047782257,0.10701575,-0.015352298,0.003980776,0.03167378,0.23349552,0.013041885,0.024939017,-0.009342818,0.0021386466,0.14814416,0.03646829,-0.05447761,0.09727463,0.19991878,0.010507314,0.0040948633,-0.035153817,0.05620979,-0.06622617,-0.029911643,0.060152102,-0.08222349,0.04772633,0.15200645,-0.04189221,0.011413967,0.051631093,-0.041065965,-0.00016121124,-0.067082725,-0.11591848
110,-0.0042445823,0.007680232,0.095629424,0.016854815,0.026349539,0.023496786,0.019076832,0.06311525,-9.48864e-05,-0.073397204,0.07602896,-0.09843826,0.12986785,-0.088306926,0.047754977,-0.051216677,0.064450786,-0.011791461,0.054561593,-0.009042331,-0.014406357,-0.0356591,0.0354635,-0.0028184813,0.0093768835,-0.011537538,-0.05800043,-0.07443365,-0.06902803,0.0025302027,-0.024608035,-0.01954228,-0.026893083,-0.07662213,-0.09119183,-0.025211658,-0.041211803,-0.042759705,-0.05648996,0.00073594763,0.122440666,0.06761159,-0.0063626687,0.122643344,0.028586527,-0.091595106,0.0582878,-0.06470715,-0.015271795,0.06110938,0.058622908,0.016016824,-0.0047786306,0.025514966,0.1044919,0.21378875,0.03609559,-0.060076594,0.07120437,-0.0572006,-0.10404898,-0.020415794,0.08526016,-0.011094482
111,0.035272203,0.034563508,-0.012022729,0.013258363,0.122504264,-0.096359104,-0.014006339,0.046858557,0.015415178,0.005601654,0.09541937,-0.011971462,0.0020641417,-0.010996368,-0.008229256,-0.031312063,-0.08013836,0.0016229022,0.03510884,-0.056847505,-0.19678697,-0.0085415235,-0.026737478,0.060278125,0.0025140531,0.011380173,-0.011588304,0.024336923,0.02085022,-0.07921649,0.0021299622,0.04094355,-0.06679823,0.009882986,0.04596874,0.009615126,-0.024153259,-0.036785956,-0.035672426,-0.053677503,0.025786271,0.040523097,-0.013948985,-0.015716441,-0.008270822,-0.017514085,0.0006949635,0.039221976,-0.07976454,-0.020239638,0.08170336,-0.056338947,-0.058161873,-0.06312734,0.03638678,0.0026247876,0.10306179,0.0075661475,-0.012315286,0.017445244,-0.03503965,-0.119952336,0.012712052,-0.05539282
112,-0.14386083,0.08883709,0.14868958,0.004472024,0.036598094,-0.022590205,0.11660451,0.109246515,-0.019175246,-0.06508637,0.010217544,0.12141949,0.029717483,-0.011358829,0.009746031,0.04514329,0.028861534,-0.008166975,-0.026080763,0.07334293,0.009547166,-0.022047207,-0.023050433,0.005616416,0.032513406,0.0296252,0.08597592,-0.08045194,-0.07252137,-0.0030324229,0.07067721,0.09037746,-0.04677697,-0.006725538,-0.02834223,0.019275835,-0.04568426,0.040568504,-0.04310479,-0.030969234,-0.06947062,-0.045910656,-0.062501855,-0.033601504,0.029103788,-0.028490122,-0.014351162,0.066026226,-0.015336312,0.022312822,0.04499896,-0.010440123,0.014883774,-0.008556475,0.050272528,0.017914876,0.08328391,0.08068473,0.039113227,0.0402716,-0.113898665,-0.024321783,0.00027774114,-0.0016708146
113,0.02196164,0.011407347,0.069648564,-0.0043479064,-0.09437571,-0.06072477,-0.015503958,-0.041203104,-0.0442861,-0.030663455,-0.13454045,-0.023439014,-0.045115575,0.10545022,-0.041338876,-0.0063866638,-0.036009744,0.02267775,-0.13975443,-0.027329994,-0.022862567,0.042697437,-0.033579674,-0.0014754672,-0.1023601,0.00339012,-0.021843461,0.05088557,-0.006929797,0.049012944,0.003135625,0.03735176,0.034440275,0.016674045,0.0046558264,-0.043241438,0.028842662,-0.009807832,0.110546574,-0.00993786,-0.020017935,0.04660763,-0.013903221,0.031643353,-0.027817443,0.003696954,-0.028568314,-0.012957131,0.05801331,0.025124913,0.0017765416,0.0455432,0.033927295,0.051020607,0.0023359484,-0.008829565,-0.08150132,-0.02328437,0.06555674,-0.040802576,0.072817706,0.03937078,0.04117444,0.021451795
114,0.0059321006,0.10813137,-0.037724517,0.01400443,-0.06927404,-0.06526713,0.041661028,0.09115951,0.021146871,0.16015017,0.007544198,-0.10011665,0.05710573,0.064609826,-0.053795762,0.0056927023,0.035132308,0.022891013,-0.005912554,-0.02944719,0.00634007,0.0077299722,-0.028898204,-0.05478317,-0.035708748,0.039038237,-0.03204382,0.038785636,-0.030724937,-0.037998777,0.1249826,0.060543917,0.03438992,0.17469022,0.0011322956,0.05849814,-0.00564635,-0.022263613,-0.0547992,0.06164898,-0.07185631,0.016910838,0.004138629,-0.016845694,-0.0030245816,-0.017780837,0.07616478,-0.07318204,-0.07504946,-0.015898716,-0.019560521,0.007498519,-0.015106115,0.07866305,-0.008442119,0.04849669,0.040762782,-0.08194499,-0.0034681142,0.06511291,0.061912686,-0.04696933,0.0156783,0.021689938
115,0.08422509,-0.02373572,-0.0050588497,-0.0022585138,-0.02835352,0.09851114,0.02746049,-0.047369067,0.012520881,-0.13997708,-0.07215793,-0.020197518,-0.0057366053,-0.0030219364,0.023581382,-0.05041688,-0.031229928,-0.026646005,0.066685796,0.021389531,0.026083507,0.07133486,0.031094842,-0.061182592,-0.04479523,-0.06824584,0.0045224726,-0.046861228,0.06981957,-0.05995556,0.038292315,-0.012344398,-0.06932973,-0.011791921,0.109191485,0.08890887,0.028934669,0.037483457,-0.06521892,0.07729158,0.13295297,-0.12407881,0.004354128,-0.008097211,0.030286094,-0.04460297,-0.093282,-0.035657484,-0.04048352,0.004900786,-0.013579299,-0.0021046693,-0.021361304,0.017839767,0.026433645,0.041794047,-0.052614454,0.12922114,-0.020062793,0.02766132,0.018855616,0.020768763,-0.011958405,-0.02904133
116,-0.10245719,0.050362322,0.031457122,-0.040311977,-0.11518999,-0.019895956,0.04565316,0.13677442,0.03820353,5.0197246e-05,-0.045156814,-0.016598077,-0.006694315,0.03865888,-0.0014350234,-0.01828756,-0.07058085,0.0024687736,-0.007243633,0.024616936,0.036377337,0.006118232,-0.039066385,0.02572594,-0.05287245,-0.038239766,0.057360318,0.013390156,-0.032004286,0.037603434,0.042055834,-0.024907831,-0.0005164781,-0.069206335,-0.023250401,-0.043552168,-0.032530982,0.035267007,-0.032836318,-0.0032196357,0.004330865,0.022886064,-0.04541181,-0.031297386,-0.039868984,-0.018236142,-0.06230216,-0.048322335,0.088679634,0.026282616,0.094500706,0.019596413,0.0036620386,0.067933075,0.08652941,-0.0017436331,0.03232595,0.0041965474,0.034299407,0.035558756,-0.045855332,0.07102732,0.0976655,0.00909494
117,-0.014845006,0.02364678,-0.022960342,-0.03642858,-0.022015447,-0.00294808,0.04402717,0.027250508,0.046950802,-0.07337097,-0.01622494,-0.010408334,0.04501429,-0.02527012,0.04068641,-0.043065634,0.041101933,0.045144938,0.035336196,-0.004211065,3.679319e-05,-0.035582617,-0.066293046,-0.023537017,0.093550816,-0.053872902,-0.020174045,-0.014311107,0.00051250367,-0.015097453,-0.113503516,0.07505871,0.014468428,-0.0018394504,0.22432204,-0.060893483,-0.021208456,-0.033178046,-0.05643246,0.023956474,0.038645696,-0.02392564,0.013283806,0.011435783,0.12175454,0.082406394,0.0004739465,0.08791914,-0.03507913,-0.0063237622,0.03451564,-0.011880814,-0.013264132,0.0047552027,-0.0031728295,0.021701468,-0.006581123,-0.08901301,-0.018218828,0.009347877,-0.075546324,-0.00046689814,0.025597852,-0.06254878
118,-0.039709754,0.009232074,0.07107719,-0.00827933,0.07456933,0.1659216,0.026122471,0.11996456,0.016290631,0.070486054,0.022477167,0.0054469802,-0.013339205,-0.014964835,0.005871774,-0.03845884,0.04107442,-0.01497399,-0.052842453,-0.013533162,0.015572088,0.0062397313,-0.0007771224,0.008484785,0.1009169,-0.0066518956,-0.00035019458,-0.034954388,-0.010468934,0.011334725,0.018534735,-0.03779005,-0.0019044355,-0.07281658,0.080502115,0.11018739,-0.061377905,0.032806702,-0.0014725011,-0.0565962,0.008248586,0.22170882,0.046459697,0.008023113,0.012157358,0.005483189,-0.028442131,0.017923098,0.044003636,-0.025708908,-0.00716825,-0.0699633,0.009686238,0.015760187,0.06810845,0.021652482,0.21938068,0.015171435,-0.012993362,0.011731575,0.0100676315,0.03923908,-0.05186928,0.036423802
119,0.13008608,0.014405356,-0.003947927,0.06345088,0.087075844,0.011725922,-0.03006482,-0.04441889,-0.09805442,-0.0370589,0.01588915,-0.0023848864,0.0780395,-0.07853809,-0.0016048558,-0.107042395,0.005607934,-0.019558217,-0.038767733,-0.016621923,-0.052024074,0.017756796,0.061244637,0.04410075,0.058602773,-0.074666776,0.13299298,0.13313374,0.1919209,0.018673407,0.07809712,-0.13808954,-0.030692006,-0.043586474,0.031163821,-0.0352599,-0.05355312,0.04390866,-0.0014734289,-0.04039691,0.038316857,-0.03416956,0.018734885,0.14978118,-0.052548695,-0.08209012,-0.014363906,0.0056853364,-0.1149764,-0.0058971485,-0.030819692,0.016815273,-0.032151166,0.11113354,-0.026582967,0.007949532,-0.03277143,-0.10659811,-0.022642469,-0.03889345,-0.08272393,0.12244606,0.012898826,-0.039277155
120,0.026004544,0.016501267,0.029643988,0.0066243615,0.04804188,0.03001588,-0.10695205,0.22772005,0.019803148,0.010401251,0.049172264,-0.009910011,-0.033759683,0.07263856,0.11322538,0.03192271,0.010505501,0.05591851,0.010008367,-0.020755876,-0.008961892,-0.009128845,0.022154205,0.009499378,0.030838726,0.011043725,0.07006644,-0.0044978457,-0.014618473,0.08766031,-0.031802643,0.040815238,0.006643766,0.04027942,-0.02019324,0.093584165,0.08008558,0.030571105,-0.00097426196,-0.013507299,-0.010709965,-0.04816249,-0.030617412,-0.05413017,0.04256583,0.10355162,-0.01543987,-0.013799107,-0.045454517,-0.020286582,-0.041206744,-0.025159946,0.0017647218,0.020793254,-0.08325987,-0.0083713895,-0.0005812342,0.038829323,0.05106027,-0.021741748,0.044337593,-0.0029338317,-0.02315979,-0.03226685
121,0.07235503,0.0017221603,-0.065358095,0.0152547695,-0.06919022,-0.054013316,-0.02707072,0.023041843,0.046966493,-0.045454018,0.030704044,0.054043423,0.057834353,-0.002292009,-0.06569502,0.028918605,-0.025283309,-0.10908235,0.057636105,0.028177867,0.057287905,0.012035992,0.06145199,0.02340079,-0.10948316,0.025547381,0.064728625,-0.17883553,-0.053140655,-0.03378962,0.013389907,-0.034025256,-0.048007924,0.0035356812,0.03725084,0.05888949,-0.063296236,-0.020217845,-0.11350291,-0.00060342177,-0.042857584,-0.04979215,0.025643338,0.09574866,0.042098425,-0.057011355,0.052856695,-0.09265969,0.03871809,0.038235597,-0.0021053865,0.008921503,-0.044126824,0.023074172,-0.05542913,0.11596307,-0.0290287,-0.002081278,-0.0027280657,-0.06167298,-0.10381482,0.016077554,0.05433225,0.01386321
122,-0.03747142,-0.043871354,-0.11114537,0.050181363,0.0349151,-0.10948057,0.031244159,0.03778951,-0.043473534,0.05032764,-0.012747959,0.019019818,0.04572767,0.016047629,0.07679386,0.1552568,0.03611708,-0.020026743,0.0062974356,0.05477818,0.02715187,0.0019962518,0.031399038,0.025631923,-0.06394372,0.0046996702,-0.054575592,0.021339042,0.0023907125,-0.021929003,0.11630999,-0.0075380686,-0.0669479,0.02950099,0.080136485,0.039361015,0.04742871,-0.02422997,0.014371516,-0.009939593,-0.0038303602,-0.054046683,0.09849177,0.035963565,-0.08229712,-0.07569393,-0.13447517,0.012617993,0.056568056,0.0062954617,0.018353106,0.010744804,-0.014395667,-0.06033671,-0.0151064135,0.06369637,0.10710417,0.074296005,-0.0035368348,0.07475752,-0.020915968,-0.025223503,-0.06809589,0.01297953
123,0.028346483,-0.010923106,0.005078461,0.08862527,0.037436992,-0.05012097,-0.03224062,-0.024881933,-0.065334864,-0.102549136,0.0217979,0.04264227,0.015696827,0.012217492,-0.077927865,-0.014402754,0.028688706,-0.0009749479,0.06958059,-0.018187458,0.006444969,-0.00042490865,-0.055247422,0.039516635,0.052957222,-0.023956195,0.22712155,0.14650477,0.27280813,0.067567,0.044926148,-0.108205475,-0.06364894,0.059127722,-0.09526586,0.030989392,0.052691456,-0.013100445,-0.06440655,-0.015704956,-0.002754766,0.027088651,-0.026711313,-0.075205185,-0.14478712,-0.008250686,0.013412482,0.054739434,-0.13175094,-0.06170123,0.012891846,-0.03157308,-0.06759684,-0.0035090558,-0.015301884,0.071362816,-0.015787132,-0.10240857,0.05988801,0.027497854,0.012972678,-0.05212605,0.039741755,-0.050051812
124,-0.02541899,-0.004531555,-0.025071405,-0.008292438,0.01597964,0.0032645122,0.004662602,-0.13673618,-0.024311196,-0.022398092,0.04607701,-0.0771828,-0.0384684,-0.074593216,-0.0056170993,0.0057368614,0.11391713,0.08558208,0.06487945,-0.103607275,0.08344327,0.0145158395,-0.025453534,-0.03275596,0.104118235,0.019725602,0.0056694034,-0.03754157,0.090419985,-0.06427351,-0.02743352,0.00810715,-0.004332859,0.05489584,-0.021659216,-0.04030831,0.06967561,0.018964443,0.0064426833,0.047938824,0.008460456,0.009090317,0.043512937,-0.025340507,0.01593533,0.0019550822,0.02650443,0.006072785,-0.078248374,-0.04277845,-0.060032457,-0.07808445,-0.046563447,-0.028421812,0.111003526,-0.057529923,0.032823425,0.14583187,-0.096289985,0.016104577,-0.00073002174,0.0051804762,0.008627824,0.015224208
125,0.03337598,0.03548115,-0.012597116,-0.0012655366,-0.0438058,0.03646404,-0.044559367,0.056010567,0.016053835,0.08076263,-0.0005513535,0.06269731,-0.069028996,-0.035115056,-0.040673893,-0.076988004,-0.014478578,0.022292003,-0.06531298,0.035556383,-0.032140683,-0.013831843,-0.08818517,0.078869514,-0.092621356,-0.03112462,-0.035473626,-0.033838768,0.026966771,0.00765714,0.10663175,-0.055521317,0.07970819,-0.047609862,-0.1614336,0.10765026,-0.0129011525,0.03715042,-0.038595527,0.053635035,-0.041794926,-0.045108363,-0.042315654,-0.063787825,0.050496254,0.00896078,0.032357324,-0.029722946,0.00464244,0.2472865,0.06929708,-0.30380908,-0.10498248,-0.04819278,0.094547436,0.058154155,0.11547035,-0.08816049,0.04442746,0.09964813,-0.06798622,-0.02317025,-0.016333604,0.01644387
126,-0.069022134,-0.02772219,-0.013178232,0.0051777125,-0.019944414,-0.035674725,0.01895932,0.064443335,0.014859514,0.0010543411,0.03417144,0.08734315,0.0040944945,0.006083544,0.069016136,-0.03148078,0.0027161986,0.008074191,-0.084755,0.014290572,0.02375441,-0.056252647,-0.03267861,-0.043776847,-0.066709764,-0.043086834,0.00844616,-0.026800076,-0.050681904,0.0774676,-0.037982605,-0.05191366,0.03379021,0.024849448,-0.019772023,0.0084163165,-0.004688089,0.03482806,-0.011101762,0.033724673,0.33585164,-0.0013192283,-0.019849114,0.05486836,0.049659725,0.05754892,-0.036650475,0.04462529,0.11882001,-0.021448813,0.03621456,0.053641625,-0.0106362,-0.04090384,0.049427025,0.075934425,0.07920067,-0.05247567,-0.07029813,0.12091384,-0.035469998,0.10858239,0.07884196,0.02879147
