,0,1,2,3,4,5,6,7,8,9,10,11,12,13,14,15,16,17,18,19,20,21,22,23,24,25,26,27,28,29,30,31,32,33,34,35,36,37,38,39,40,41,42,43,44,45,46,47,48,49,50,51,52,53,54,55,56,57,58,59,60,61,62,63,64,65,66,67,68,69,70,71,72,73,74,75,76,77,78,79,80,81,82,83,84,85,86,87,88,89,90,91,92,93,94,95,96,97,98,99,100,101,102,103,104,105,106,107,108,109,110,111,112,113,114,115,116,117,118,119,120,121,122,123,124,125,126,127
0,0.028566059,-0.006706196,0.012986725,0.0060371035,-0.020746885,0.0067540635,-0.016988048,0.0009181514,-0.0098323785,0.009191897,0.029855236,-0.004794436,-0.005301164,0.03989313,0.014016328,0.039475374,0.004644743,0.006091715,-0.034540825,-9.358174e-05,-0.02571617,-0.055985365,-0.014056666,0.023390684,0.0056601274,0.014308332,0.023968419,-0.03264371,-0.02071372,-0.0024109336,0.015800674,0.022245564,0.015352098,0.022867754,0.042094555,0.014095272,0.02373362,-0.028738787,0.020017834,0.00590773,0.0039434214,0.009032783,-0.0031947196,-0.0065683653,0.006424017,-0.00835234,0.0009934985,-0.034381893,0.0013391199,-0.01356505,-0.0074771508,-0.0014601147,-0.022478154,0.010392416,0.010218357,-0.010835221,0.07194931,-0.0074990103,-0.016899297,0.009184758,-0.004269035,0.019961452,0.0066991947,-0.00753311,-0.01227845,-0.013022068,-0.00432127,-0.025508255,-0.049092606,-0.018105105,0.0037301893,0.014809519,0.005907776,0.0032987033,-0.006102885,0.012933674,-0.023315253,-0.00724805,-0.010863867,0.006338823,0.03441137,-0.037154146,-0.0041684792,0.030907318,0.055634025,-0.01695042,0.0066793254,-0.0635274,0.021560922,0.034872524,0.023065394,-0.0359745,0.05247565,0.0054401136,-0.0064721755,0.008797758,0.0121310735,0.023617867,0.062039375,-0.0037133654,-0.003060082,-0.056560386,0.024563577,-0.010217473,0.036799315,-0.008662484,-0.00016210298,-0.013372622,0.015758218,-0.03878201,0.012639549,-0.02096818,-0.01223153,0.023025515,-0.01038332,-0.0072207586,0.010313053,-0.020588981,0.010211718,-0.022889977,0.008327895,0.0036378459,-0.021191644,-0.009995943,0.017358122,0.0130948005,-0.017201724,0.03189325
1,-0.003694024,0.011116102,0.0027740847,0.0047949036,0.015086329,0.0054620216,0.015443775,0.01876004,-0.014320601,-0.010229686,-0.0058733225,0.015903868,-0.010010609,-0.013429222,-0.0052357744,-0.0011902142,-0.010729286,-0.010241412,-0.009286545,0.008727135,-0.023298891,0.011562319,0.00020158358,-0.022781933,0.00020232335,-0.025452537,-0.024872364,-0.0086339945,0.0027945247,0.0044400934,0.018833764,-0.012708882,-0.012035116,-0.0027520072,-0.009201269,-0.0017758847,-0.0006508428,0.03160491,-0.0077359364,-0.020554908,0.020962805,0.012167229,0.01009369,0.0284477,0.00903287,0.009865591,-0.016768906,-0.020219222,-0.008778606,0.013188206,0.00013475372,-0.013777571,0.0062133027,0.0043467386,-0.002976156,0.025169887,0.0067021986,0.006956398,0.017343804,0.010403471,-0.0008292399,-0.00905075,-0.03832683,0.021845296,0.011731647,0.0104665505,-0.03109907,-0.008408747,-0.017540086,0.0060715103,-0.014462684,-0.0028177628,0.03150782,-0.012526777,-0.039008193,0.012062815,0.010285564,0.004923441,0.0030588538,0.009780713,0.0036378654,0.001691296,-0.011219503,-0.007111932,-0.015616251,0.0011036594,-0.0021489246,-0.020228568,-0.02085583,0.0061668847,0.012613212,0.0091959275,0.016507687,0.022489779,0.02665855,-0.004524969,-0.014789422,-0.01301252,-0.033615444,0.0218052,0.019784817,-0.025474606,0.022903668,0.026107283,0.012444925,-0.0027415697,0.013790719,-0.033206742,-0.00016085217,-0.0144568775,0.014485469,0.030182917,0.018721333,0.015008026,-0.023433447,-0.016720174,0.0140166,-0.027056517,0.008220998,0.012465627,-0.015969286,-0.0090446705,-0.012477758,-0.0015963712,-0.011228241,0.03006635,0.020088648,-0.012484322
2,0.03384028,0.04328194,0.0073923403,-0.0028266583,-0.009192858,0.0016205098,-0.00017782667,0.01614794,-0.005310269,-0.0006285822,0.013390257,0.0039471625,0.02013706,0.019882543,-0.0020068309,-0.019632876,-0.00427925,-0.0072188103,-0.009004416,-0.02190223,0.016859176,0.02157766,0.01532195,0.021269048,0.0017520437,0.0054109357,0.005782392,0.01689499,0.0081883995,-0.0058212336,-0.010114542,0.017736275,0.02758227,-0.0072288127,0.020057267,0.019652527,-0.006435973,0.004154208,0.0046047294,0.0015889143,0.014641954,0.012259483,0.024587432,0.0026349663,-0.007509358,-0.0049079848,0.01035742,-0.005635485,-0.003728043,-0.018412475,-0.005291911,-0.016192606,-0.022479601,-0.0005465713,-0.004534857,0.024674645,-0.026356524,0.01073252,0.022881553,0.024645403,0.009649651,0.006788778,-0.014763179,-0.008048016,-0.011703719,-0.01564817,0.018183472,-0.0055071814,0.0024548417,-0.0016374725,0.007842289,-0.0044159926,0.0076926057,-0.018216912,0.024113443,0.012776762,0.003837046,-0.008442326,0.010221308,-0.007676351,0.0130907195,-0.020962778,-0.016538829,0.016842475,-0.016516732,0.0065425867,0.0065928185,0.015013977,0.008541984,0.017259778,-0.000996386,0.0025450566,-0.042193323,-0.013814942,-0.012886749,0.0009769952,0.026799018,-0.010778938,0.020891083,-0.0041532526,0.019212475,0.0042719673,0.0005929159,0.0009325439,-0.0057836487,0.022921354,0.032199167,0.018998057,-0.0050706756,-0.008582186,-0.01623188,0.0060474663,0.0007086017,-0.01218981,0.0022536258,-0.006056924,-0.00041397434,-0.026378758,0.012324092,0.01685547,0.0034325193,-0.000111165486,0.0056455885,-0.0024957203,0.008710448,0.0013262025,-0.0069476403,0.0011606244
3,0.0065997555,0.05668672,0.0027812503,-0.004201001,0.023580488,-0.003148315,0.015148959,0.010824057,-0.025422236,-0.0019562186,0.008153919,-0.013876415,-0.0029649192,-0.016760059,0.0026242451,-0.00083257037,0.04240509,0.047788426,0.018645674,-0.0053177956,0.0005805888,0.011996139,-0.0045831404,-0.0003706502,0.0069224588,0.06538044,-0.015909348,-0.0033023497,0.020999437,0.021755144,0.0027232044,0.024733055,0.07606947,-0.0041819597,0.0043858676,0.0063580526,0.0073378547,0.00014036211,0.012346638,0.008058697,-0.0067674676,0.029835751,-0.008459208,-0.00027282335,0.006200119,-0.012087149,-0.010681676,0.03200465,-0.0016374814,-0.00025084484,-0.004595387,0.0087194415,0.009054157,-0.0045437007,0.0029361153,-0.016690247,-0.02201858,-0.00062832265,0.03502754,0.017336097,0.014481297,0.030508671,0.020505387,-0.007964236,-0.020617533,-0.004361037,0.03873144,0.0014513778,0.0009094557,-0.005694748,0.005177454,0.029261,0.0050110803,-0.029730843,0.020302871,0.012579748,-0.0103614945,0.02611786,0.00352628,-0.0009987875,-0.01120973,-0.006367041,0.01010474,0.020029007,0.015155156,0.011520566,0.0049367854,-0.02503855,0.0022942536,-0.0152283,0.00260019,-0.0030181427,0.025184916,-0.0011722886,0.0005780135,-0.0055572214,-0.0057766424,0.008661381,0.0056799278,-0.0018815454,-0.009213181,0.007229236,-0.009219105,0.0064944224,0.02063919,-0.008882281,0.008572408,0.036824208,-0.017953368,0.031045467,0.018983133,-0.0043575596,-0.03265723,-0.005351438,-0.0004984569,0.021874234,0.0041232854,0.0045153033,0.014451826,0.012175173,0.026841866,-0.010603899,0.007153527,0.032476146,0.03008443,-0.021990206,0.01577283,-0.022630926
4,-0.016695043,0.0065101786,0.0018923477,0.07917975,-0.0132369455,-0.012298257,-0.028516129,0.004491586,0.024648653,0.027488556,-0.016507646,-0.024474759,0.010688573,-0.03872248,-0.0036535724,0.01309402,0.00017178037,0.006632306,0.0024909133,0.004777271,-0.016990166,-0.02192578,0.041873425,-0.008182232,0.02966516,0.04362063,-0.00059734937,-0.017504696,0.013165982,-0.014295502,0.025992196,-0.0016571627,-0.0028024158,-0.015870396,0.05212534,-0.03573182,0.0015418581,0.010061941,-0.0017651021,-0.011435185,-0.012560427,-0.010405107,0.0009945293,0.046002656,0.036580563,-0.010532786,0.011273946,0.020385943,0.0048281047,0.020281,-0.006144692,-0.027692206,-0.00683272,0.009525015,0.019840725,0.025765704,0.055644568,0.005159055,0.016539697,-0.027533893,0.019585526,-0.021230392,-0.014223563,0.010632905,0.01696516,0.000387257,-0.0070012547,0.02209706,-0.017131355,-0.010323921,-0.011849574,0.0008657319,-0.015725274,0.016377153,-0.0037947497,0.014268724,-0.005831898,0.0050128736,-0.008145824,0.028593265,-0.026601316,-0.01133929,-0.011397445,0.0038141576,-0.0070907804,-8.293422e-05,-0.013240022,-0.014790474,-0.011756066,-0.021705426,0.020472543,-0.014563412,-0.027939172,0.014306409,0.041212734,0.0017078284,0.033146434,0.032371745,-0.007914922,0.04073339,-0.016561873,0.05109221,0.0055236504,0.03248038,0.061553612,0.0056695244,-0.030124685,-0.021715209,0.016823133,-0.01900712,-0.011265863,-0.019234687,0.036344126,0.00041258565,0.03921391,-0.0039013256,0.0026388143,0.014088426,-0.01614713,0.022491077,0.008046677,-0.010525411,0.039338995,0.015312308,-0.009632969,-0.04130928,-0.008722243,-0.010338272
5,0.01462433,0.029105913,0.0033847813,-0.0041206637,-0.0036495477,0.020247938,-0.028637316,-0.010108119,0.015359482,0.036721144,0.0055886307,0.014633558,0.013753086,-0.031845227,-0.026765164,0.0124241365,-0.0023417969,-0.017293274,-0.007382806,0.052230462,0.004816367,0.017389126,-0.009288816,-0.020654803,-0.00886273,-0.0051560113,0.013385869,0.011380893,-0.00673803,-0.004767765,-0.01416677,0.0072277095,0.007768775,-0.021235505,-0.0007245305,0.052679688,0.032827284,0.00660735,-0.013895715,0.012459833,0.038786065,0.018989325,0.021833941,0.0012970096,-0.011856196,0.013137866,0.009551385,0.022830367,-0.003910498,0.012975579,-0.021793703,-0.0005587333,-0.05847098,0.015464502,-0.00037891307,-0.02419591,0.031820253,0.006934985,0.022922328,-0.020666655,-0.0013883447,-0.0027580124,-0.022498434,-0.024008581,-0.01349169,-0.021546874,-0.025909824,-0.0040384955,-0.008964973,-0.050978914,0.02348195,-0.002758573,-0.011863352,0.0291642,-0.03465404,0.018723607,-0.010786638,0.03989218,0.025919395,-0.0033036585,0.00894717,-0.002742083,-0.0067285397,0.036366224,0.021977259,0.002228883,-0.0061950283,0.008894583,0.02034464,-0.026081253,0.007830089,-0.008165313,0.003981438,0.008100416,0.013177122,-0.02606585,0.0030892852,0.0033337197,-0.008876081,-0.0015719602,0.0043334276,0.003021333,0.02816026,0.0033621502,-0.023821656,-0.017157106,0.015132962,0.013875282,-0.0039667157,-0.07277283,-0.01886391,0.026628716,0.0019213759,0.021527791,-0.0043599727,-0.012553224,-0.019515665,-0.03140235,0.0040039653,0.00504454,-0.01025148,0.0015038749,0.013954575,-0.014409136,0.038125884,0.008115548,-0.0020078283,0.015723746
6,0.020159066,0.004284607,-0.0058642775,0.022824023,0.01149949,0.0025044675,-0.0022028547,-0.0012883064,-0.019261038,0.01191526,0.008534588,0.037012786,-0.007413186,-0.007961587,-0.013520084,-0.029731143,-0.015520204,0.011784915,0.007252979,0.008516858,0.01253649,0.026776085,0.021787839,-0.033625066,0.019342264,-0.024190385,-0.033432428,-0.025815114,-0.011573558,0.00038756372,-0.026407724,-0.032339264,0.007353533,0.002290781,0.001024077,0.014456751,-0.0134868,-0.02261992,0.0050961333,0.0114675565,0.0042722747,0.010725103,-0.019802043,-0.00935026,0.021401837,-0.0023188496,-0.021458631,0.051915944,-0.008319308,0.0034893085,-0.0056775426,-0.034427863,0.017598234,0.010243549,0.0035064465,-0.034793332,0.030328408,0.06183367,0.014488217,0.007373108,-0.010845934,0.00852057,-0.026326768,0.0045989007,-0.0061982614,-0.0038625349,-0.002214465,-0.004857224,-0.011655585,-0.023130821,0.045750678,0.020801513,0.04062551,-0.020763984,-0.010915283,-0.016839402,0.0114769405,0.043480776,-0.03761055,-0.023970094,0.01145365,-0.0037730725,-0.027385661,0.021199657,-0.0052439827,0.015900241,0.016549896,-0.055231024,-0.011389439,0.019714046,-0.0145846475,-0.015100457,-0.008130707,0.01749063,0.009547709,0.0027577067,0.017416168,0.008187586,-0.036086496,0.01602168,-0.01629676,0.004442996,0.012767635,0.018627502,-0.02387411,-0.01053796,-0.012313067,-0.01733337,0.010232527,-0.011460646,0.0052608266,0.002004615,0.007748839,-0.005012326,-0.006312674,-0.013453361,-0.002832442,-0.03427607,-0.004851777,-0.00460687,-0.009947849,0.0014278193,-0.018929828,0.0045968005,-0.02687996,-0.00015407486,0.0112991175,-0.0016203059
7,-0.018126974,-0.0055605494,-0.021283621,-0.013571319,-0.005027066,0.000875569,0.0079369135,-0.018967025,-0.014765508,-0.005013874,-0.009831741,0.015472977,0.0062412214,0.012479759,-0.008586615,0.022226721,-0.022347368,-0.026544465,-0.0061699557,0.0036856958,-0.018265637,-0.033147924,0.0020435855,-0.0077933646,-0.031229438,-0.009333531,0.01262635,0.03660298,0.009947781,0.028459076,0.0380578,-0.017417124,-0.033319112,0.005870719,-0.001374513,0.04451075,0.038848124,-0.006020286,0.025082817,-0.014388312,0.013433874,-0.025433134,0.010576515,-0.012038288,-0.011906533,-0.0019252874,-0.012758159,-0.0036083343,-0.004599598,-0.026648747,0.019218681,0.0118937045,-0.031095568,-0.0071081826,-0.0116753485,0.010019665,0.017836573,-0.025811404,-0.0019120612,0.00732371,0.00210931,-0.023119815,0.033492345,-0.0027838745,0.009756065,-0.0010476871,-0.015829224,0.0048970366,0.020467265,-0.0047331527,-0.00089250156,-0.010003551,0.00629394,0.026957288,-0.048968844,0.02608082,-0.00029290997,-0.021007303,-0.01824243,0.00672467,0.012863561,0.06587175,-0.030535942,0.012336286,0.017129831,-0.0079437895,-0.015148999,0.008245163,0.017523747,0.011490424,-0.0011303911,0.0021054521,0.037920743,-0.044237815,0.012690577,-0.0017050185,-0.04261134,-0.015876118,0.009373728,0.009205726,0.0025809936,0.0258146,-0.015067896,0.008630807,-0.012138791,0.02890063,-0.008594819,-0.011346942,0.0010989408,0.017353501,0.0052217646,0.01992796,-0.006237475,0.015545721,0.012482608,-0.011889646,0.014620085,0.004142357,-0.023258537,0.0076765316,0.0020252517,0.006398847,-0.0015947585,-0.0035202312,-0.008447033,-0.04251369,-0.029078202,0.011161271
8,0.028800137,0.02189897,0.00023253755,0.025852613,0.048353195,0.035716765,-0.0056840223,0.037817486,-0.0122480905,0.015049744,-0.004076746,0.0015339489,-0.0032230988,0.011426088,-0.014121018,0.013168997,-0.0051575433,0.028681388,-0.02295957,0.009814039,0.0003699805,0.033567697,0.015326641,-0.018738475,0.015476119,-0.024673667,-0.0131143825,0.014118878,0.009358694,0.02366636,0.014876264,0.020289475,-0.03240705,0.03145526,0.016373409,-0.012882383,-0.0035060218,0.025017934,0.007522221,-0.0090371,0.04004938,0.022241145,0.042243097,0.02680491,0.018965246,0.014386845,-0.009848623,0.0438373,0.016252564,-8.8327e-06,0.025149671,0.031644057,-0.033233363,0.014043772,0.00062706973,0.01801032,0.0026516502,-0.005432848,0.003838076,0.012629968,0.017045261,0.03368385,0.028077627,-0.0066616945,0.012147045,0.02770413,-0.0038628196,0.03592856,0.007829526,0.0015192511,-0.024125734,0.0068759453,-0.00726468,-0.023129767,-0.0014089306,0.0069189016,0.01874909,-0.015826913,0.016290901,0.02660611,0.0333612,0.015078726,-0.009856231,-0.014076114,0.0059223087,-0.024018187,0.0083189625,-0.015723925,0.0066521154,-0.027731184,-0.0032133858,-0.01828995,-0.013767051,0.0019861215,0.009569773,0.020642087,-0.010652237,0.024690885,-0.004055051,0.030632699,0.03774614,0.023943061,-0.025101285,0.028578022,0.008820279,0.002473478,-0.0032524567,-0.0076799826,0.0075924085,-0.045606412,0.008344101,0.0068270853,0.002364581,0.017188054,0.0009701337,-0.018133992,0.021961669,0.010945301,0.012554376,0.020505715,-0.0032928642,-0.0017240522,-0.008756709,0.010255361,0.010390196,-0.003804061,0.023764966,0.009792066
9,0.036943607,-0.046046216,0.003972156,0.0035583214,-0.034464926,-0.0067763226,-0.009275342,0.014829242,-0.002049432,-0.011663746,0.01788931,0.020378875,-0.015770381,-0.028898118,0.04517489,-0.007290666,0.018845418,-0.029041482,-0.025818644,-0.014263003,-0.0145217385,-0.0072902194,0.020688016,-0.017464148,0.017323108,-0.0054267426,0.039534573,0.003114884,0.012118616,0.013122967,0.02319356,0.02551517,0.028147038,0.03344682,-0.0017060782,-0.016840285,-0.015641224,0.021274056,0.023477329,-0.017114429,0.013193994,-0.0065355077,0.011186291,-0.0006957517,0.02746108,-0.00041838747,0.010368926,0.024709387,-0.0031512298,-0.06886116,0.025632,-0.006408608,-0.028855823,0.0042208047,0.01038218,-0.012200198,0.0069418065,0.037405066,-0.000936716,0.012612875,0.029575095,-0.013221951,-0.007707921,-0.021521255,-0.015968988,0.008605083,0.041084576,-0.03048611,0.016582714,-0.0013533948,-0.061842036,0.051810812,0.04031996,0.003552606,0.027976668,0.02607832,0.0029186113,-0.02840577,0.0023381908,-0.0013698584,-0.0068888674,-0.06360477,-0.03335502,0.025512358,0.0077915723,0.012228117,0.023628607,-0.004261291,0.0069208494,-0.006272358,0.0057119536,-0.012943009,-0.041044254,0.001649446,0.014582554,-0.005487315,-0.036236946,0.010942414,0.0042571537,0.03118591,-0.025033547,-0.016294058,0.0068207732,0.00915488,-0.027227342,-0.019581297,0.008005187,0.017703595,-0.014473582,-0.0006024817,-0.016345399,0.009153559,0.011871984,-0.008098523,-0.0107212495,-0.05156526,-0.007895448,0.009290701,-0.007639216,-0.024999175,-0.010568737,-0.01562347,-0.01757945,-0.051576108,-0.0037766811,0.03401256,0.02332598,0.02088845
10,0.052362703,0.04787256,-0.09141906,0.0026896694,-0.01771822,0.0010145665,0.010488218,-0.033732884,0.0058587375,-0.005764528,-0.06207634,0.032520372,0.07700935,-0.07319138,0.057957664,0.053121295,0.06320728,-0.012335234,0.004945648,-0.028882118,0.058436986,0.029781133,-0.06171114,0.0050443592,-0.036447372,-0.051609825,0.0043856585,0.008404273,-0.044267688,-0.0055569736,-0.007997358,0.03186904,-0.008359415,0.03396971,-0.012625876,0.038011335,-0.018949257,0.008177274,0.0029907674,-0.040054165,-0.0029348468,0.0055521103,0.020988427,0.019683268,-0.007896513,-0.0015758752,0.0069190115,0.028760301,-0.073431455,-0.02218425,0.007887495,-0.012083801,-0.022917943,0.0065957736,-0.03147822,-0.039368156,0.003995095,-0.04068405,-0.021954209,0.0053782226,0.027350295,0.027136764,-0.001029775,0.010597087,-0.003897817,-0.0074030887,0.027090793,-0.0013114489,0.0023616322,0.0120600965,-0.011498355,0.0728636,-0.03477496,-0.00064951717,0.024376286,0.028363565,0.012363339,-0.028589772,-0.017785795,0.09960892,0.045497842,-0.051468115,0.0032217777,-0.037754126,0.013584394,0.039654143,0.0023146982,-0.0034060741,-0.043353613,-0.030048827,-0.037985437,0.002521611,-0.015173464,0.048726022,-0.015961118,0.011993847,-0.06641351,-0.0105864,0.0017215988,0.014823365,0.030353762,0.037305392,-0.022413915,0.05311986,-0.018848881,0.023309032,0.0074616726,0.06253266,0.03763536,0.068571925,-0.026628757,-0.047950372,0.015084246,-0.028863274,0.004547346,0.0055781794,0.035293505,-0.020286512,0.008302033,-0.056828145,-0.007934988,0.0010174824,0.07846408,-0.11474384,0.07831418,-0.043330666,0.030199224,-0.019496918
11,0.015964162,0.02430892,0.02365928,-0.041518748,0.0067044115,0.012664252,-0.017440611,-0.030569691,-0.0019301578,0.012760823,0.023364717,0.021028597,-0.0034441715,0.0035414146,0.011235323,-0.0046339086,-0.019108452,-0.0034966506,-0.0075798715,-0.015347573,0.00025807234,-0.008069428,0.032505944,-0.013601981,0.013036576,0.033715766,-0.016015423,0.008528016,0.0011647646,0.015156924,-0.008799874,-0.014705547,0.013520976,0.022743896,-0.027188733,0.027754363,-0.012354391,0.016933443,-0.0020393438,-0.009089463,-0.0021744515,-0.009337947,0.009089007,-0.04996707,-0.0024697217,0.006729618,-0.027214257,0.014371224,-0.0070790336,0.01036452,0.019138912,0.0053809956,0.0032663762,-0.023535576,-0.012216287,0.0020860997,-0.0060474295,-0.010979444,-0.021958929,0.023937127,-0.025053011,3.721248e-05,0.01407742,0.010912643,0.0060769753,-0.0010972646,-0.02064403,0.03834148,0.011983189,-0.004007935,0.033951897,0.0068767546,0.0208377,-0.010388858,-0.023899456,0.0061038076,-0.0014516189,-0.0039323573,-0.005767018,0.023010805,0.030905515,-0.005305015,-0.024029937,0.0111818705,0.01797436,-0.0102089625,0.01622232,-0.0036253,0.0016409684,0.007334804,-0.020680776,0.0052960454,0.035475086,-0.007207643,-0.0026103691,0.0056208507,0.00974615,-0.0016102702,-0.013311054,0.0069927284,0.014805938,-0.034477558,0.016851168,0.01219358,-0.023350185,-0.0278719,0.0072274115,-0.015200736,0.01079381,0.0106005,0.025243627,0.0018296866,-0.008417296,0.027465738,0.015325019,0.013168199,-0.0036558756,0.0023363596,-0.009223096,0.010038384,-0.014524786,0.022983266,-0.0011248614,0.0055610486,-0.016933516,0.022792712,0.020039437,-0.00094832404
12,0.010934091,0.039268255,-0.022468103,0.030380541,-0.0010109305,-0.0058840998,-0.063965626,0.009929037,-0.054700624,0.005142072,0.014313685,-0.067487836,-0.044340722,0.025414731,-0.012786274,0.0051552877,0.040485527,-0.028050452,0.027982766,0.040215574,-0.04955865,0.007618271,-0.09275018,0.0140998745,-0.008893885,-0.028963216,0.012702378,0.022347445,0.0523118,-0.009423462,0.023871532,0.011856758,-0.012341461,-0.0026578063,0.007191596,0.0410357,-0.0372717,0.022748241,0.010744109,-0.027891766,0.0025881783,0.004095057,0.024817185,-0.014182595,-0.009236863,-0.01872452,-0.0002934905,-0.035151064,0.024935048,-8.243236e-05,-0.032900617,0.01155658,-0.037757,0.038210493,-0.0143137565,0.019577263,-0.040889043,0.013890412,0.025139686,0.008126528,0.04213396,0.020656427,0.01853787,-0.0052147834,-0.0036493074,0.007991001,-0.05721814,0.011971677,-0.0072484873,0.044157643,0.053741787,0.01519543,-0.00018019315,-0.01846121,0.01771432,0.09441672,0.001144182,0.033516582,0.009276594,0.02853985,0.0013837859,-0.021009149,-0.006545912,0.038679767,0.019394418,0.011171255,0.032628395,-0.13386557,0.023646329,0.024253974,-0.012895247,-0.030159758,-0.010253661,0.0063848877,-0.0025300544,0.003722227,-0.039110173,0.019281168,0.010989458,-0.047706697,-0.012447571,-0.038560912,0.020072874,0.023148531,-0.0042138454,-0.021357452,0.028519101,0.013124517,0.03829004,0.032899156,-0.029329035,-0.02425141,-0.0014404018,-0.010717085,-0.012127365,-0.0047142915,0.0133315995,0.010399403,0.0031748468,0.012660926,0.009989681,0.0010371727,-0.035524335,0.002323128,0.027126456,0.016341187,0.0013696067,-0.018497376
13,0.0076766275,-0.0036113139,-0.002629398,-0.036911312,-0.0164199,0.007955156,0.043559305,0.01724216,0.011931792,-0.015225745,-0.020798963,-0.0069520343,-0.0058841063,0.022598485,-0.011607618,0.014561596,-0.015016837,0.012340048,-0.000687547,-0.013978718,0.0070357304,0.030195573,-0.014259299,0.0042013936,0.00072322006,0.0152951,0.020382151,-0.0030512281,0.034382846,0.017460624,0.008390146,-0.020929828,0.0031017736,-0.058871318,-0.00035885104,0.0065865214,0.02942592,0.031207701,-0.005735089,-0.008870995,-0.044715613,0.036047474,-0.007558529,-0.0025751858,0.004311288,-0.014815569,-0.010276852,0.036930464,0.0059242523,-0.017256917,0.024748536,-0.0095679695,-0.011802017,0.015390328,0.005300261,0.00963876,-0.014002568,-0.003655259,0.026948802,-0.047577843,0.01881609,0.030538322,0.03513274,0.022155624,0.023260944,0.0022132564,-0.016389925,0.0016585613,-0.076445125,0.019077206,-0.016870402,0.0018848483,0.006458104,-0.0072458354,-0.02554495,0.019279737,-0.013589436,0.033653855,-0.008374493,0.0021018065,0.029964587,-0.020482494,0.015554195,-0.053769074,0.0040463335,0.0059040487,0.007564605,0.033384126,-0.009678065,-0.05070563,0.009647969,0.08609672,-0.0015703585,0.009329489,-0.011408479,-0.0008687637,-0.0032641783,0.008177001,0.024989357,-0.008571858,0.0103959385,0.0073062684,-0.0033813315,-0.019340614,-0.038472746,0.008846654,-0.010231626,-0.010196389,0.0048096264,0.02149242,-0.036665853,0.0017496976,-0.004579484,-0.01131976,-0.0021049574,0.012800893,-0.004219421,0.045610305,-0.0016820369,-0.010117634,0.03478139,-0.023291044,0.04942922,0.02804389,0.0006638485,0.02846485,-0.0012412802,0.048016794
14,0.004904223,-0.013596171,-0.010263707,0.0033157375,0.025220573,-0.0104075065,0.04776566,-0.0014471723,-0.010924907,0.004876027,0.0030187042,0.009089,0.018958334,-0.004963499,-0.02433701,-0.02211245,-0.017065998,0.009488694,0.00021385163,-0.012370091,0.005285181,-0.0039404784,0.036705274,-0.04816192,-0.0014126062,0.008966522,-0.00053434575,0.008093215,-0.01226067,-0.0047527472,0.015616021,-0.024208443,0.04049602,0.0067332066,-0.030688014,0.015833063,0.016493725,0.013625331,-0.009177751,-0.005085718,-0.0013016283,0.013075164,0.018084303,0.014505101,-0.00077898963,0.019981107,-0.006744702,0.018347552,-0.000545999,0.018209593,-0.006477408,-0.017589174,0.00520827,0.0037856812,-5.0468578e-05,-0.00074458384,-0.060315285,0.024700852,0.0013478583,0.02551451,0.01427721,-0.024569796,0.00794095,0.016623003,-0.005790629,0.010063678,-0.017073303,0.002430805,-1.2503148e-05,0.012476163,-0.007038811,0.028244212,0.008477502,0.021422163,-0.04099789,-0.017157122,-0.011883193,0.044977613,0.0002945567,0.039119747,0.021753887,0.038799945,-0.019889066,0.024900332,-0.011151663,-0.0007981226,0.009083126,0.01320127,-0.021223262,0.011675929,-0.03183651,-0.016071212,-0.007011248,0.023661155,0.005461116,-0.023253703,0.051795144,0.018618733,-0.023604233,-0.002329061,0.02228279,0.01343784,0.00028587357,0.016870167,-0.010037234,0.019818567,0.020459497,0.015377111,-0.03498328,0.016736794,-0.055655044,0.024201654,-0.024509402,0.00852516,0.020791546,-0.021599649,0.009107939,-0.0049986206,0.0076568737,0.0007504292,-0.010506647,-0.014188822,0.0031966956,0.01317816,0.008464631,0.024653062,-0.012353839,-0.03876992
15,-0.002093836,0.024425225,-0.027202582,0.01778646,0.0040826234,-0.012437459,0.0063961903,0.0068776277,-0.02220321,0.033031736,0.006387426,-0.0008002549,-0.05637896,-0.021591406,-0.0016333787,0.008821825,-0.026463311,0.023694662,-0.00010103197,-0.010704342,0.0071447194,-0.026955664,-0.023450363,0.018688288,-0.008658954,0.022148782,0.02636039,0.05848319,-0.026814902,0.009799827,0.009379438,0.010177805,0.0014861982,0.031028822,0.014223836,-0.003403455,0.010044283,0.0019048296,0.031725403,-0.011262572,-0.046481438,-0.016109116,0.0050088726,0.0045486763,-0.023864454,0.0008643164,-0.0032971476,0.013896789,0.01570979,0.013441136,0.019199539,0.0089918235,0.025297035,0.012327354,-0.016895074,0.025388265,-0.009782667,-0.001222427,0.035770543,0.0041581965,-0.004964904,-0.024648787,0.020546343,0.0030307116,-0.012549461,0.009229269,-0.003926491,0.020425001,-0.003638524,0.0012685556,0.017266946,0.012515946,-0.003200726,-0.017796218,-0.0054106335,0.0009922899,-0.0035122733,-0.00539898,-0.03461501,0.004028882,0.026090538,0.0020011049,-0.013994001,-0.01239267,0.007101531,0.0016649651,0.0036069378,-0.020191522,-0.017665071,-0.012597756,-0.0073846327,-0.012454442,0.0107262805,0.008914023,-0.002739832,-0.011717318,-0.013951844,0.016091939,-0.0013863861,-0.006302816,6.931145e-05,0.016077237,-0.016972523,-0.018590365,0.0073849824,-0.0050085117,-0.0066055497,-0.0020733976,0.019674225,0.008924225,-0.005511471,0.017394064,-0.020185772,0.007031026,0.03908624,-0.009809806,-0.0074089365,0.018707799,-0.042610694,-0.033387374,-0.013908326,-0.008623318,0.0046088835,0.009353585,-0.019330421,0.005364787,-0.03148398,0.0067400853
16,-0.015921142,0.061761606,0.018320322,0.0023617903,0.013642379,0.0025547673,0.027663324,0.022995757,-0.026408767,-0.0038913956,0.0077384003,-0.0018040483,0.023523353,0.018840868,0.03755264,0.015789364,0.04164608,0.031475645,0.00934064,0.054683987,0.0080949655,0.03037513,-0.09214031,0.009282514,-0.010357393,0.019662978,0.0028296944,-0.011432164,-0.0025861948,-0.0075301873,0.027201168,0.009259255,0.0062481994,0.012872211,0.0030809403,0.0006200238,-0.016397415,0.019363277,-0.030456124,0.008662945,0.006712957,-0.016360812,-0.03534724,0.004618576,-0.0005006128,-0.0076127625,-0.010971448,0.018014653,0.03965352,0.008237381,-0.028110117,0.021136133,0.014860359,-0.0059073973,-0.028155234,0.005388691,0.00036451835,-0.03977833,-0.004418228,-0.030704495,0.0052181003,0.029040439,-0.008594661,0.004745906,-0.028629221,-0.041250575,-0.010105212,0.015697237,-0.025200367,0.032555148,8.9095214e-05,0.008323509,-0.010978599,0.010873795,-0.007771304,0.0055050957,-0.0021363758,-0.0023856433,0.03856912,-0.016809456,-0.007896629,0.0013339834,0.0280614,-0.03676082,0.0020259158,-0.0075175907,0.015662177,-0.027708454,0.012135222,0.0043430403,0.013914047,0.00839845,0.016386457,0.026677584,-0.013759806,0.0007271013,0.024629079,0.008502665,-0.0021475558,-0.022988837,-0.03180555,0.054362398,-0.003900872,-0.026815733,0.030643888,0.003780689,0.012553448,0.05755484,-0.012721984,0.0061990297,0.015698846,-0.007857425,-0.029474603,-0.009019875,-0.018911611,-0.009940305,0.0010573576,0.010299158,0.027066031,0.02783499,0.013479336,-0.03455382,-0.03241529,-0.0029376799,0.0530875,0.009222076,0.0083628725,-0.041080292
17,-0.009211033,-0.012751746,0.017681789,-0.0002533284,0.04596844,0.009713017,0.007104511,0.025241552,-0.009869157,0.0069205295,0.028470045,-0.0009410677,-0.0075476295,-0.0016306445,0.0037263322,0.056190096,0.012371427,0.0405469,0.030796902,0.021801027,-0.0047516786,-0.008885529,0.021670733,0.013296056,-0.007531028,-0.01636363,0.02389556,0.021918464,-0.003610713,-0.013660743,-0.011809276,0.007470533,-0.0045107203,-0.010963402,0.008723474,0.07064242,0.020369709,0.04519662,0.017509554,0.004687441,-0.0232666,-0.0078402255,-0.002640437,0.026245441,0.0016043951,0.0381169,-0.0065687466,0.012736907,-0.0064075696,-0.014655807,-0.0021330826,0.017717345,-0.020764885,-0.010787507,-0.023573397,-0.017741812,-0.027242422,0.0038848633,0.00057934545,0.028429411,0.004395571,-0.016244944,-0.0056998003,0.017736299,-0.024631744,-0.019538337,-3.770292e-05,0.009386453,-0.062231988,-0.0030124267,-0.023070753,0.013524896,-0.012817957,0.013828966,-0.024593784,0.035163905,-0.032098703,-0.0036837566,0.037182357,0.025647365,-0.014652611,0.06312083,-0.014707299,0.010473181,-0.016486406,0.02219176,-0.0026796663,-0.011853993,0.017329434,0.0015285867,-0.022486001,-0.009445758,0.020075938,0.009888429,0.0027265449,-0.0033711873,-0.009601,-0.00040010133,-0.024730003,0.008187405,-0.0051568565,0.009925366,0.0036615962,0.0017089078,-0.037379213,-0.02437126,0.011977064,-0.027577383,0.036253545,-0.010207005,0.020510325,-0.006436035,-0.010038815,0.029234564,-0.012261452,-0.003274841,0.016525155,-0.0057018716,-0.025972616,0.025872473,0.013002228,0.047783926,0.00025720306,0.016826363,-0.0056818854,0.04303346,0.015983013,0.0006857478
18,0.05527177,0.02553924,0.0008162871,0.0052173487,0.018231995,0.005294855,0.013393407,0.045100346,0.0076283016,-0.029447768,0.011180957,-0.013956583,0.03787855,-0.042524662,0.02214701,-0.0016223415,-0.03136378,0.00535873,0.012462759,-0.034148045,0.0119356355,-0.025023824,0.014657422,0.01596291,0.020497827,-0.0031324145,-0.056962546,-0.015323334,-0.031089509,0.0071211467,-0.027333532,-0.01593396,0.06897163,-0.047560148,-0.019642971,-0.024742415,0.009866391,0.0038578091,0.009633933,0.03775575,-0.018050741,0.028313888,0.011225201,0.013483016,-0.0073242346,-0.05729483,-0.015663147,0.0052401097,-0.017804338,0.0815783,-0.009263991,-0.062529944,-0.0003108265,0.012501489,0.019909611,0.018899273,-0.0013939715,0.0028022851,0.029511781,-0.00091984024,-0.015468749,0.021031043,-0.042265568,-0.018855423,0.02188958,0.029741365,0.0093190465,0.005595146,-0.016804345,0.021097673,-0.034682147,-0.001957135,0.03819126,-0.008757667,0.01064887,-0.014598764,-0.016651988,0.0047304546,0.0038731077,0.041114043,-0.0032990645,-0.008045452,-0.022019569,-0.0075481692,0.015155908,-0.011016585,0.010803004,0.00027810305,-0.033666864,-0.048725042,0.030652119,0.034775056,0.01635851,0.018187819,0.0027223178,-0.020075612,0.00389265,-0.0026269853,-0.009721624,-2.0822992e-05,0.008868211,-0.027921496,0.045689423,0.031279176,-0.0020651128,0.008466458,0.024522526,0.043846447,-0.0035307892,-0.040229756,-0.08900691,0.017976956,-0.018816387,0.00383615,-0.0049053486,-0.0119899055,-0.006622893,-0.004476408,0.013463672,0.022065772,0.012600305,-0.021559902,0.05381941,-0.0025013469,-0.008420991,-0.15108186,0.05001753,0.0011461577
19,-0.0014842481,0.016902559,0.005078698,0.024570888,-0.013722686,-0.035929438,0.03915769,0.00020163896,-0.015958631,-0.02096177,-0.010106617,0.019878687,0.0073415474,-0.00062530616,-0.008369268,0.024949532,0.0390864,-0.0032162033,0.022701789,0.054691598,-0.011848811,-0.01239011,-0.0025359022,0.0077430103,0.030698372,-0.0076092,0.0178735,-0.012240253,-0.003984317,0.010171816,0.008580208,0.029697524,0.009939592,-0.00021449848,0.018017307,0.007275688,0.001096432,-0.019263702,-0.018542858,0.017226532,0.004079096,-0.0030193648,0.014825009,0.012655841,-0.038279347,-0.0065844264,0.021037543,0.015533718,0.002594078,2.192875e-05,0.016229246,0.00266924,-0.009660179,-0.0019165159,0.045539275,0.0044790683,0.026561655,0.023900446,0.001118841,-0.010647026,0.040926732,0.046825804,-0.00043435203,0.002809196,0.002015098,0.014442976,0.01041952,-0.0100743845,-0.023555124,0.018474951,0.071369894,-0.003630423,-0.001800638,-0.018270139,0.019358665,-0.023606062,-0.0025835314,-0.032887045,0.010738428,-0.02425141,0.0059141517,-0.018359741,0.025506062,0.04669319,-0.020817185,-0.0064665526,-0.013381853,0.013622352,-0.017198592,0.010497676,0.022732727,-0.03578821,0.010021801,0.0040506306,-0.0012417757,0.0057626353,0.0005216163,0.0010063621,0.0033413705,-0.020732751,-0.021041028,0.009702028,0.0013226315,0.021285774,0.07480401,0.028606381,0.03199844,0.060463518,-0.012073442,-0.039270055,-0.034364168,-0.0072061447,0.009758994,0.02397666,0.026254216,-0.007857927,0.015397249,-0.020914286,0.0044731623,-0.0006323088,0.017999528,-0.0035691552,0.018692276,0.011095352,0.007873954,0.010479485,0.0094226785,-0.032914475
20,-0.004952582,0.015160511,0.011995862,0.02194014,0.028498398,0.018040756,0.012966705,-0.011132947,-0.00033153465,-0.014449043,0.007970362,0.017479679,-0.003075581,0.010817555,0.04948389,0.0011564764,0.023110377,0.052731838,0.030544829,-0.00015492375,0.016564477,-0.03626881,-0.003450791,-0.006655501,0.022869155,-0.024762567,0.016733848,-0.028534004,0.021194965,0.04825329,-0.0062727677,0.043144878,-0.0040071756,-0.04133583,0.02525675,-0.0036266202,-0.027902083,0.0156113375,-0.0067854915,0.0058620377,0.0021520907,0.024373481,-0.013990745,0.01744193,0.021591691,0.0032339718,-0.007848953,-0.036311127,-0.021104163,-0.015386058,-0.03125697,-0.012378926,-0.02663435,0.00079137547,-0.005240176,-0.011502531,-0.051454622,-0.01671787,-0.003956298,0.00899184,0.021228734,-0.01819575,0.009795133,-0.0014865593,-0.026941787,-0.027626134,0.013288327,-0.0122702615,0.0088956505,-0.00908278,0.009299865,0.0036854174,0.018090291,-0.020587666,0.000281634,0.023118282,0.004690775,-0.023996133,-0.00764403,0.011806441,-0.012988018,-0.05135491,-0.006414552,0.004910871,0.019938128,0.015562921,0.009454842,-0.0065559964,-0.005959882,0.010466629,-0.048284076,0.017265188,-0.085834615,-0.0020638206,0.027520247,0.028358962,-0.0127615,-0.03949877,-0.012896353,-0.013522427,-0.022489052,-0.022284633,0.017022833,0.016882993,-0.0036707665,-0.026210755,0.030081665,-0.014209012,0.045621675,-0.0030122248,0.044985123,0.004192084,0.020144405,-0.015817383,-0.022246042,-7.3411895e-05,-0.01032852,0.013433847,-0.0064148568,0.025178501,0.019345747,-0.004705002,-0.04061026,0.0021256094,0.0072738435,-0.006279108,0.017921839,-0.0069805267
21,-0.039480947,0.011487579,-0.051492386,0.029404568,0.019547172,0.002540311,-0.0045731915,-0.04989798,-0.024720153,-0.0053879865,-0.023360552,0.027254416,0.023549763,-0.099058434,-0.05120979,-0.03249183,0.019487724,-0.018216105,-0.05123711,0.02526348,-0.013397896,0.015575391,0.0635801,-0.018590357,0.030131275,0.03364552,0.013332741,0.021584278,-0.030250894,0.0038916308,0.009722175,0.008867322,-0.0287681,0.036274746,-0.04890581,0.009748105,-0.014033777,0.018817792,0.0038890496,-0.023867026,-0.013150608,-0.028489266,-0.02044811,0.011671807,0.008587584,0.060374122,-0.012477506,0.02740521,0.049912345,-0.023982026,0.035374973,0.02254742,0.023263112,0.00020413361,0.008579446,-0.01832747,-0.030269189,0.009794288,-0.02514163,0.034057345,0.025499238,-0.009053421,0.023058997,0.013248601,-0.00024371543,-0.012041162,-0.000324783,-0.014968132,0.032864906,-0.032826666,0.018799637,-6.879878e-05,0.032455154,0.047466494,-0.025771417,-0.0051313,0.0060452693,0.013432037,-0.0029193955,-0.033204556,-0.051440526,0.01715569,-0.0055017904,0.03330998,-0.022637924,-0.043813784,-0.02243842,-0.047708996,-0.003493649,0.003575022,-0.014247328,0.014489971,0.021845153,-0.013887118,0.0408722,-0.017585592,-0.008197786,-0.010561943,0.021398867,0.045880336,0.015021861,-0.003166102,0.016327966,-0.045622185,-0.013659193,-0.020273412,0.019747192,-0.025112443,-0.017535381,0.00015057207,-0.04558331,-0.020182926,0.01802524,-0.015415847,-0.0038687526,-0.03120163,0.011069157,0.0019036026,0.010080186,-0.05091982,0.012476575,-0.0184062,-0.040264904,-0.029914327,0.041723497,-0.068036534,0.0006970051,-0.08562739
22,0.020753797,0.010394498,-0.0194706,0.0035403627,0.01730077,-0.035233796,-0.0017904845,0.023680052,-0.018833015,-0.0056829806,0.062041234,-0.033966906,0.0042385287,0.014396822,-0.025506234,-0.0027715813,-0.02344189,0.025400983,-0.0070533007,-0.026583422,0.021335645,-0.012404387,-0.005357883,0.013108891,0.008353873,-0.012288586,0.0026642794,0.007927606,0.0038775227,0.012853354,-0.019640796,-0.0034532787,-0.013866504,-0.015196774,-0.001593266,0.0020407166,0.013775497,0.030789144,0.0047673383,0.007956381,-0.02176337,0.004543413,0.02831187,0.0028743008,-0.0025234316,0.0062317722,-0.005978479,-0.01826628,0.0070815976,0.020608159,0.021298535,0.024190143,0.002069085,0.017128056,-0.0153663475,0.043227475,-0.005841635,0.0127238175,0.0089540575,-0.05688461,-0.015985908,0.03663065,-0.01563181,0.004346123,0.036343753,-0.0019544985,-0.03233695,0.009111538,0.019990046,-0.010817898,-0.02413911,-0.0028345885,-0.011134841,0.008194463,0.04124134,-0.008785717,0.0038011207,0.02066946,-0.00453673,0.020133229,-0.00082089094,0.029480036,-0.005152819,0.008783603,0.014779158,0.010466744,-0.02029044,0.0025078675,0.011859204,-0.026059171,-0.002801978,0.01482454,0.024591109,-0.023906367,0.0045793327,-0.010984833,0.0033203536,-0.008735086,0.010070019,0.025564536,-0.00152102,-0.010502867,-0.030409146,-0.006408114,-0.020659072,-0.034319114,-0.009615711,-0.038220227,0.048137367,0.032254364,-0.009208059,0.028423544,-0.0032354395,-0.0199334,0.025491074,-0.019916225,-0.019044608,0.005847433,-0.00550509,0.02178905,-0.011692088,-0.009640632,-0.003190509,0.020145657,-0.025623947,-0.015585895,0.006699205,0.017584424
23,-0.015190849,-0.0049556238,-0.0023744486,0.0027073533,0.004873212,0.009261041,-0.02568391,-0.011401579,0.015670659,0.0075443406,0.016358206,0.0020064218,0.028470244,-0.036356196,0.010821232,0.021753017,0.014398231,0.0046222094,-0.018314164,-0.008066715,-0.007550672,-0.035982687,0.015398906,0.019649735,0.00922612,0.017443236,0.007512209,-0.013580824,0.020059604,0.026582383,-0.005649201,0.01820989,0.004999062,-0.00014846925,0.0070803156,-0.005940384,0.0010997726,0.004184503,-0.0075311237,0.020047624,0.0016279729,-0.0011951942,-0.008065412,-0.014086864,0.013339872,-0.010172477,0.0056226114,-0.023552217,-0.0067743147,0.011078134,-0.00760329,0.0125791095,0.0106475875,0.016923506,-0.011009459,-0.030351566,0.009586944,0.005036794,0.0013096208,0.0005708867,-0.0012305178,0.012574822,-0.0043577133,-0.008859136,0.02328689,-0.0003720936,-0.0010692478,0.015886277,0.007274035,0.002930106,0.00930848,-0.009971442,0.0003118554,-0.0030333328,0.038462177,0.005095535,0.012142573,-0.029473424,0.015169546,0.0012467179,-0.0044433945,-0.0003114113,0.0014341715,0.011836307,0.025808817,-0.009274406,0.01748527,0.017651277,0.022608407,-0.0017490138,-0.013568191,0.0075788302,0.02527298,-0.0041316845,-0.006686809,0.00036436427,-0.011061464,0.0074025905,-2.0446032e-05,0.0046745758,-0.007828432,0.008629071,-0.0025986335,0.014147742,-0.019184884,-0.0114411535,-0.012862284,-0.028313413,0.01907364,0.0010809359,0.047963563,-0.002373837,0.016355518,-0.013162232,-0.0013398152,0.008524534,0.014295264,0.038166184,-0.0046719722,-0.003121286,0.0049729203,-0.0033858437,0.00084749726,0.0082486,0.010535848,-0.032303948,-0.0080293175,0.005739754
24,0.025640812,0.040843688,0.0071414597,-0.023245838,0.011550444,0.023962261,-0.00780671,-0.01766903,-0.016774166,-0.007892303,0.0031177157,0.040973406,0.0022092042,-0.015473455,0.011838797,0.0016563929,0.0096443165,0.012536539,0.01749836,0.03151349,-0.028523065,0.008388842,-0.018143605,0.0053523183,-0.003393319,0.023930155,0.00035480206,-0.008996676,-0.0020812133,-0.004290503,-0.0029714769,-0.012926497,0.008137097,-0.0031396395,0.011842338,0.04313082,-0.03454278,-0.008460521,-0.020139461,0.024939084,0.02358453,-0.007547897,-0.0018475949,-0.03414378,-0.026088502,-2.355608e-05,-0.00086277624,-0.0004844436,-0.0019759827,0.04721234,0.0059319604,-0.029611262,-0.025363743,-0.0015607644,-0.00600714,-0.009725755,0.0006393879,0.051092323,0.026622172,0.0017635961,-0.0038594953,0.02987896,-0.046116162,0.009050987,-0.00856354,-0.00014718801,-0.011741443,0.013531012,-0.01244054,0.009523834,-0.009762232,-0.032457493,0.024055092,-0.0009021917,-0.0073322896,0.007227058,-0.006970946,0.017222697,0.015718723,-0.00034267423,0.009390449,-0.04505547,0.0012909548,0.019285308,-0.007399144,0.007610631,0.015230636,-0.05677652,-0.010498431,0.020313933,0.01871113,-0.014964209,0.019955425,0.01378442,-0.00037447774,-0.009484881,0.037599966,0.020160347,-0.010796593,-0.002224012,-0.017740987,-0.02546529,0.03802114,-0.0010863575,0.0076826606,-0.03204432,0.026513007,-0.013091329,-0.0046411194,0.009040432,-0.017593488,0.024028122,-0.014831367,0.01190046,-0.007723997,-0.018633433,-0.006939857,-0.053467084,-0.020546647,-0.008823974,-0.021978248,-0.0013481715,-0.0056047942,-0.014399718,0.02367026,-0.0042166673,-0.010194837,0.0034529439
25,-0.056868687,0.0001419846,0.04252469,0.0067113973,0.018631564,0.015374846,-0.013796592,0.0012454891,0.0010067279,0.02612726,-0.0255083,0.07271767,0.024319824,-0.0061147837,-0.02453669,-0.0043986687,0.0015648542,0.008689281,0.002230815,0.018679027,0.021619657,0.0074973702,-0.009025241,-0.027697707,-0.0019299996,0.007834578,-0.00070605386,-0.021662408,-0.012314353,0.03397666,-0.0041486085,-0.0043656244,-0.026787426,-0.011192573,-0.018391643,-0.03576847,-0.015287293,0.019783784,-0.03126564,0.011709954,0.011252734,0.00695301,-0.046890244,0.022229401,0.011441507,-0.004784947,-0.014210392,0.0010197542,-0.08263312,-0.09249398,0.01574895,-0.012195553,0.0011724344,-0.024113705,0.00019684744,0.010364572,0.010459584,0.011760101,0.021081531,0.028006973,-0.016472021,-0.011714224,-0.01721801,0.0065798485,0.0074081253,-0.012083438,0.01149732,-0.056378577,0.007990905,0.0068913107,0.022052148,-0.020671247,-0.002175706,0.02308219,0.023430556,-0.06061864,0.026037205,-0.034587763,-0.010955,-0.012026924,-0.035133652,-0.0027791369,0.0056099705,0.006897706,-0.019885149,-0.006404923,-0.03988525,0.057896134,-0.017827138,0.0048314705,-0.019957574,-0.0057002455,-0.0059897024,7.667117e-06,0.015456299,-0.006683926,-0.032341626,0.013153212,0.018577456,-0.028371917,-0.008746287,0.00016145772,0.025410907,0.04192338,-0.016935933,0.020468444,0.0021564572,0.0029375406,0.0077548972,-0.012431162,0.026874403,-0.011047396,0.043614328,0.010403195,-0.006054072,0.0029006773,0.0016085006,-0.071594596,-0.005529625,0.03081576,-0.00816582,0.013695628,0.011653242,0.01859283,0.005871563,-0.032473676,-0.02637633,-0.015779804
26,-0.004093889,0.005576299,-0.016759815,0.001735615,0.027249033,0.029207258,0.003192985,0.022551984,-0.032909263,0.042354718,0.0018320375,0.018881196,-0.057675753,-0.042020194,-0.04621443,-0.019996233,-0.01364064,-0.011686204,0.008282043,0.029559275,-0.0058316193,0.011702311,0.033256404,-0.0045412034,0.005713096,-0.007623349,0.011972395,0.023467865,0.0041216733,0.01677062,-0.0005913468,0.009097123,-0.024539288,0.015594322,0.0072765388,0.00043424312,-0.027320879,-0.015463401,0.03143097,-0.022980392,0.0073210387,-0.016473843,-0.0017608035,-0.004502375,0.00790811,-0.0012308898,-0.033036325,0.001877532,0.02128336,-0.0035517141,-0.012426947,-0.010559298,0.024641449,0.033195283,-0.003696674,0.017968275,-0.020086622,0.013433835,0.0010679276,0.026128842,0.0013247725,0.0007304518,-0.006918453,-0.010426533,-0.0022836258,0.020414276,0.010911613,0.0052708923,0.011320072,0.028261727,0.007085536,-0.0056578405,0.01295018,-0.006217407,-0.036442045,0.0137440665,0.017927527,0.048022915,-0.016554777,-0.029503427,0.02025269,-0.0023674911,0.0039001687,0.00059163396,-0.020172803,-0.02288776,-0.009209533,-0.0049821087,-0.0043873284,0.01955652,0.011704634,0.008853605,0.021737998,0.024824345,0.011873651,-0.00020119816,-0.019489259,-0.022258434,-0.0031496077,-0.014753648,0.0057464265,0.00029482102,0.010622072,0.014397774,0.0038381116,0.02508894,-0.021853907,0.021567589,-0.017876344,0.02532475,0.016800411,0.022375125,0.0018988181,0.013700854,-0.012024408,0.0062792795,-0.0198588,0.03389451,-0.027987769,-0.05565403,-0.0026717081,-0.0018611621,-0.010778159,-0.027712435,-0.012253689,-0.0016664581,-0.007193702,-0.009883423
27,0.03429297,-0.025521787,0.006064683,0.001779675,0.00542855,-0.021553108,-0.005744749,-0.011234008,0.0067639016,-0.041903045,-0.03936853,-0.016995002,-0.02016973,-0.019558333,-0.04234794,0.0053518643,-0.004564829,0.024686165,0.027924696,0.0067587118,-0.0046499097,0.02776509,-0.011310435,0.0076131998,0.046799835,0.0055744336,-0.029371766,0.001059188,-0.017114943,-0.035070866,-0.020798527,-0.049860418,0.010615046,-0.058721147,0.08716961,0.002359761,0.041647255,-0.014985726,-0.020412456,0.0697365,-0.0183787,0.009247318,0.0011720276,0.0065743863,-0.01111674,-0.028462647,0.011896999,0.073762976,-0.015995853,0.015113545,0.010977097,0.00030912508,-0.036585823,0.041399702,-0.014246385,0.04165537,0.0027850412,0.046960883,-0.027857753,-0.09017686,0.023384053,0.0057778973,0.05597136,0.012205744,0.09287101,0.047682848,-0.019476116,0.05962591,-0.11459954,-0.0143631715,0.038794026,0.013561033,0.027868528,0.062332742,-0.004314011,0.021765862,0.01945868,0.034422237,-0.001940027,-0.04294885,-0.017597679,0.00938131,-0.01486955,0.010325526,-0.012711459,0.03378944,0.03191629,0.014005182,-0.02072811,-0.062654175,-0.031106064,0.08498028,-0.05828081,0.030304965,0.057431236,0.00867554,-0.016412448,0.025941465,0.034172732,0.012577196,-0.008879281,-0.0072670006,0.036812466,-0.014753428,0.0064244946,-0.019513307,-0.036080096,-0.015527528,-0.013621601,-0.047611218,-0.12845165,0.020180851,0.006711286,0.007306709,0.011983454,-0.021279864,-0.029951664,0.045437247,-0.025383824,0.014619968,-0.03318787,-0.10696094,0.026244687,0.025656449,-0.0040866663,0.041316073,0.11663532,0.038254227
28,0.001949015,-0.0014356964,-0.007373436,0.023532635,-0.0093679875,0.0091209095,-0.017837998,0.008597985,-0.0057161683,-0.009945549,0.00149273,0.013622175,0.021789629,0.0025931743,0.0018806132,0.03693478,0.0002246982,0.006134514,0.012522317,-0.005932334,0.0020578485,-0.008878005,-0.016912552,0.026396161,-0.0016160783,-0.010137376,-0.025549928,-0.02565991,0.007929115,0.018719027,-0.014227105,0.012766787,0.0069294344,-0.039689247,0.018144824,-0.004170936,0.008960189,0.01700431,0.021904295,0.012956753,0.020325793,0.014591473,-0.011864235,0.026898755,0.04659682,-0.022548625,0.014736922,-0.033665907,0.016593335,0.0050655603,-0.014661075,-0.013095734,0.0068650413,0.002750487,0.028565556,0.00077861093,0.028408362,0.015677338,-0.013454242,-0.01620538,0.015454778,-0.00082260993,-0.021435568,-0.008675751,0.030272828,-0.017415708,0.024530731,-0.011915544,-0.0092418,-0.0005346607,0.016507752,0.011453022,0.008380846,0.0060801976,0.0032924714,0.01859246,0.0087669715,-0.0024130086,0.0030630615,-0.0024593058,-0.013278306,-0.0037691186,0.009361512,0.003776178,0.02813334,0.012371805,-0.013658684,0.01595571,0.024081454,-0.0017057969,0.018059067,0.028690457,-0.007628497,0.01576073,0.015846806,0.0053627756,0.02011714,-0.0038108383,0.0022161568,0.0059831706,-0.02141816,0.016049633,-0.002882704,-0.022416592,0.02638085,0.00689185,0.00016234526,-0.007617879,0.02316805,0.010533669,0.0035014648,0.010401468,0.022129612,-0.008546582,0.002303403,-0.004190488,0.017857058,-0.014592469,0.009347916,-0.0034493092,-0.008907856,-0.028798679,0.013570687,0.0090612555,0.020840736,-0.0059990208,-0.0015549872,0.0233503
29,-0.010828983,0.030899331,0.0048263352,-0.037397545,0.011484711,0.011859375,0.0071617654,-0.0006164146,-0.038891893,-0.008384607,0.0140517885,0.008540628,0.017333496,0.0009209224,-0.025829494,0.014520131,0.0018450173,0.007375295,0.015434383,-0.009395848,0.0015945811,0.010923024,-0.00087619567,-0.019941349,0.024060851,-0.011438468,0.014143629,0.016640754,0.02891238,0.06088164,-0.0041524624,0.02191667,0.0011878699,0.020258417,0.011758704,-0.031653233,0.012359498,0.007709012,-0.03937506,0.02610967,-0.0296211,-0.02183341,-0.007236899,-0.029342085,0.0029356508,0.0055216514,-0.022557197,0.027966728,-0.0017571857,0.039624795,0.04217792,0.038312055,0.0062443074,0.020426622,-0.011277871,-0.010013362,-0.012061178,0.012712454,-0.008193469,-0.0045828456,-0.0024800925,0.023194872,0.010254437,-0.004850373,0.011124845,-0.0030513187,-0.0027515497,0.031479586,0.003693354,0.016861906,0.012377058,-0.0044813184,0.003959926,-0.0012947735,0.0057195285,0.002544108,-0.009805901,-0.030855633,-0.023272833,0.0034530056,-0.021153597,-0.027181245,0.011782422,-0.00012982066,0.0014286744,0.041463133,0.014339336,-0.014846572,-0.0052238973,-0.009857979,0.006112605,-0.016531143,0.01305596,-0.009258478,-0.022797322,-0.012582383,-0.010410734,0.009144022,-0.0027719343,0.013370476,-0.013597436,0.016996173,-0.0032508066,0.016998062,-0.008937572,-0.016376464,-0.0064536724,-0.00027752246,0.030752871,-0.0017090285,0.03606516,0.005600532,0.028095644,-0.02129041,0.025135465,0.006149218,0.021077551,0.028498422,-0.024385728,0.0047216346,0.009151431,0.03153561,-0.005786054,0.03763154,-0.0021408447,-0.01974314,-0.0259024,-0.0042085415
30,-0.026361216,0.023083052,0.004943614,-0.01962367,0.073742025,0.008597553,-0.01449326,-0.010260456,0.022986714,0.025123883,0.0020796463,0.041514352,0.0038607684,0.018847706,-0.0151537275,0.003285998,-0.0174178,0.006696279,0.01718693,0.012520364,0.031637516,-0.04848193,-0.018952899,-0.01695432,-0.024498364,-0.013778326,0.026744876,-0.0014310761,-0.015537336,0.04883925,0.0039904905,0.035225444,-0.004921374,0.01370963,-0.029084587,0.025992356,0.030086894,0.019134378,0.018591903,-0.0016176257,-0.01294327,-0.023982529,-0.024330836,-0.01863763,0.0013236337,0.04351296,-0.022002537,-0.019941362,-0.0039678807,0.0049621016,-0.03247487,0.0154904695,-0.04450148,0.0028292704,0.036756296,-0.061220765,-0.08329961,-0.048892405,0.03981356,-0.03260392,-0.0077820723,-0.027103238,0.038653467,0.0040808734,-0.03987548,0.055920467,0.022361467,0.007784413,0.07398299,0.06941008,-0.014078458,-0.013455866,0.01844883,0.043972403,-0.1148034,0.009600502,0.01343261,-0.019766988,-0.025794948,-0.0016456279,-0.061429903,0.011438057,-0.03585345,-0.040404875,0.022171028,-0.02776886,0.02358665,0.03975717,-0.0036123772,0.044532698,-0.027079295,-0.011333426,0.023617603,-0.018672153,0.0018834454,0.017986672,-0.009767893,-0.031090215,-0.023667015,-0.0088158995,-0.0151443295,0.0006607628,0.018974835,0.0041389354,0.007466972,0.016951129,-0.008889746,0.00028883826,-0.012385784,0.010547037,-0.01988472,-0.03018683,0.011021487,0.02309939,0.039642677,-0.0066209496,0.0171042,0.011752199,0.030991336,0.0041962634,-0.014015832,0.0019991389,0.0148084955,-0.014007356,0.022884317,-0.019366665,-0.0045777103,-0.09599484
31,0.004385972,-0.019116877,-0.026674537,0.040882677,0.020701738,0.03262438,-0.0030913197,0.0016085169,-0.03412288,0.022205634,-0.017505853,0.012887475,-0.016576005,0.013236375,-0.06919818,0.008747856,0.014360777,-0.028491573,-0.0364981,-0.031891413,0.010531146,0.024316352,0.05637913,-0.033355676,0.005945139,-0.005062278,0.031459406,0.014972508,-0.024848266,-0.0107606165,0.013083924,-0.019373536,-0.021305846,0.0060063465,0.028632645,0.02341579,-0.01611312,-0.02532955,0.022408055,-0.013308238,0.005741307,-0.0068654795,-0.035056576,0.018858625,-0.0033076974,0.015130582,-0.013549733,0.024157576,0.023647046,0.05113134,0.018598605,-0.004787251,0.016866218,-0.016677225,-0.017691387,-0.03305135,-0.0077249752,0.002990908,-0.042432297,0.0010893312,0.01703463,-0.006815146,0.008700038,0.002328515,-0.009892492,-0.0016713014,0.030955067,0.036626555,0.012151025,-0.007285587,0.005610487,0.0012560919,0.009380242,0.019314228,-0.00987039,0.0107291285,0.03071849,0.06282285,-0.0010943032,-0.009579897,-0.011824213,0.0018008262,-0.01789457,-0.0172926,-0.0403963,-0.0033666992,0.011084783,-0.02038187,-0.0031408246,0.0642882,-0.013316076,-0.0014667354,0.061716862,0.011713937,0.026645921,0.033730973,0.016130837,-0.03417618,0.048835274,-0.017355422,-0.022471704,-0.01814615,0.013537379,-0.058826298,-0.011940826,0.018186038,-0.012055058,-0.014365736,0.0043936176,0.034836464,-0.031014554,-0.048645463,-0.0070273015,0.010005516,-0.008469505,-0.0026898182,0.0044146217,0.012546006,-0.013574287,-0.021677416,0.0015006725,0.014023158,-0.01376814,-0.038741972,0.015940296,-0.046847243,0.0019396776,-0.0336623
32,-0.009082723,0.03144137,-0.022759281,0.0020919906,-0.0017387358,0.009644736,-0.004823251,0.015453777,-0.04679364,0.0051065097,0.02289566,0.014826047,0.010115674,-0.023334628,-0.024777511,-0.01566461,-0.018944126,-0.036534123,-0.018186755,-0.02446048,-0.038312327,0.03131547,0.017614435,-0.0069079767,0.0037747044,-0.03324291,0.0013339194,0.03321834,-0.051396802,-0.008477775,-0.026806321,-0.032692775,-0.021465303,-0.015347103,0.051771585,0.0012034567,-0.00061839,-0.0013453088,-0.0031210505,0.014268465,0.018279407,-0.02412333,0.018244566,9.601436e-05,-0.038166188,-0.015128337,-0.03626866,-0.0071853786,-0.005479726,0.01670655,-0.030513762,0.021541676,0.010786558,0.015059237,-0.0023595518,0.051599387,0.032825977,-0.02513247,-0.027968714,0.0017379116,-0.018277682,0.018627537,-0.027253028,-0.009980356,0.0044297283,-0.010621247,0.025269486,0.022144308,0.031048354,-0.009506129,-0.011126662,-0.042913605,-0.003177947,-0.048483502,0.0053026513,-0.036635637,0.024793327,0.036951177,-0.03327449,0.003908619,-0.03461801,0.03395095,0.008670205,-0.007607292,0.010085898,0.03413302,-0.017448654,0.03450145,-0.0141595695,-0.019736324,0.055309772,-0.022354256,0.051805757,-0.012468954,0.008898258,-0.000721568,0.016225016,-0.01512987,0.053729795,-0.027478961,-0.030490194,0.010678867,0.0027116314,-0.026927037,0.028319623,0.016249178,0.022798378,0.053676143,0.0036094796,-0.02716297,-0.0024481541,-0.02231611,-0.031672005,0.024787806,-0.022257399,0.020582058,0.000755299,-0.0054600844,-0.01059307,-0.0074574645,-0.009522935,-0.046478696,-0.0061425017,-0.01876236,0.015111384,-0.0673599,0.02369849,-0.053428024
33,0.0029681202,-0.004956014,0.004083176,0.036733706,0.0066055492,0.0096054785,-0.021718962,-0.019870173,-0.00079578516,0.011495291,-0.025053555,0.0121033555,-0.0014629229,0.0012962328,-0.01759347,-0.012347432,0.023420969,-0.017853577,-0.004932616,-0.016405977,-0.004036687,-0.001549876,0.0037242991,-0.033304058,-0.0026227399,-0.0039230585,-0.027276197,-0.06624742,-0.010026131,0.005810648,-0.008888061,-0.001505306,0.0033466974,0.014656346,-0.009514656,0.0090084355,-0.008037023,0.003923817,0.024565717,-0.0104004005,-0.0014103432,-0.008243539,0.014727763,0.0038813988,0.0010098201,-0.0013302311,0.0016836582,0.01771689,0.01850785,0.0148050375,0.028515084,-0.04513469,-0.016767083,-0.019315938,-0.012657047,0.008710907,0.00930738,0.034884457,-0.0039203716,-0.026676292,-0.014465199,-0.027598945,0.06214464,0.0037443521,-0.012802629,-0.001804957,-0.024834614,0.0153936185,0.05222556,0.00041818712,0.017541971,-0.02061467,0.018037058,0.003316431,0.004140556,0.010413041,-0.013899412,0.027322117,0.01648596,-0.0012348504,0.0040560705,0.016320484,-0.00821639,0.011299655,0.04893076,-0.002106319,-0.0076832552,-0.007860074,0.004942675,0.006281343,0.0107496735,0.0050335783,-0.10220558,-0.01425474,0.035901662,0.011162132,-0.037095316,0.009501153,-0.0015382516,0.026542906,0.021518936,-0.07576473,0.0018411865,0.015780551,0.005112333,0.0016363574,-0.012554648,-0.0066168667,-0.018797131,-0.022932766,0.023213077,0.0017067794,-0.005376254,-0.008727947,0.007700266,0.037822746,0.023984998,-0.017548248,-0.008516349,-0.01479366,-0.0037247252,-0.017380266,-0.030192588,0.030245962,0.018087115,0.02080349,0.013514264,-0.038652867
34,0.0051335334,0.011111643,-0.0064184386,-0.021671513,-0.00542716,0.023184145,-0.010757914,0.0031611985,0.0032305543,0.005195671,-0.025598891,0.030277822,-0.004566343,0.009142985,0.025636347,0.021986198,-0.015527178,0.0063249045,0.02057216,0.037503615,-0.0034247916,-0.017806591,-0.005356823,-0.0057950625,-0.009295571,-0.02309754,-0.005178725,-0.006776457,-0.015926734,-0.0030911332,0.009414975,-0.01706251,-0.026047477,0.015474688,0.0036846397,0.024585942,-0.0013776758,-0.0055742017,-0.02908697,0.0035404405,0.013678057,-0.010534684,-0.0059115374,0.0029927075,-0.013831448,0.041043438,0.0008010384,-0.0012805433,-0.0093218405,-0.027727436,-0.006054908,0.0067365924,-0.06616973,0.02102864,-0.023876218,0.036510456,-0.015898034,-0.009016644,-0.0071529946,-0.04922965,-0.012113438,0.002519473,0.021229466,0.007765499,-0.011352445,-0.016157134,0.027115045,0.00701782,0.037121106,-0.017830767,-0.008412891,-8.986434e-05,-0.0049557406,0.01916178,-0.007580287,-0.0009897511,0.02537765,0.012564723,-0.01123834,0.012672477,0.015597212,0.014444593,0.0109601915,-0.018698389,-0.02595785,-0.035318922,-0.0028467616,0.009179132,-0.00087200355,-0.01548493,-0.019713068,-0.03991966,0.0027529623,-0.027541107,0.021268122,-0.004782095,-0.015276851,0.019567927,0.006324199,0.014830761,0.0062032654,-0.014892625,0.0051616174,0.008784776,-0.014699498,-0.008796677,0.0093579395,-0.026971698,-0.0047919536,-0.0048970077,0.002244587,0.0131122535,-0.004571887,0.017917255,-0.01563665,-0.009358769,-0.018942924,0.024084307,-0.0053870017,0.02900174,-0.009453387,-0.0005683056,-0.017517814,0.000530615,0.0002730733,0.0043333126,-0.017434418,0.013776166
35,0.021635473,0.042259477,0.0046281996,0.03623021,-0.0031034632,-0.025637692,-0.006062622,0.022488302,0.022879392,0.019288966,0.021168439,-0.005578299,0.026904924,0.01884263,-0.06760726,0.004774656,0.028755283,-0.02224344,0.0038866536,-0.019499814,0.0049431175,-0.03480591,0.0091259945,-0.0053349,-0.014084696,0.03576673,0.047429316,0.0006368742,0.022297554,0.011029383,-0.024561042,0.038215492,0.012822139,0.020488001,0.021389358,0.0076375813,0.0005252369,-0.0029683502,-0.004757339,0.017724229,-0.0064806007,0.015047606,-0.008842233,0.008320229,0.030259557,0.0009075034,0.03285169,0.012573595,-0.011721707,-0.032927245,0.000871952,0.004776255,-0.027406879,0.013078429,0.01164441,0.010182518,-0.030620907,-0.013533874,0.031233465,-0.011965829,0.0072018984,-0.007711127,0.017279284,-0.004441331,-0.016605275,-0.0033452949,-0.023893664,-0.0057896683,-0.011863343,-0.017612379,0.078151606,0.02931868,-0.026849417,-0.012947117,-0.028814137,0.017876988,-0.0071987486,-0.02721648,0.017100539,0.008757654,0.004229446,0.0046861786,0.0011690913,-0.0051708655,0.031570613,-0.021005604,0.030237254,0.04880883,0.01102001,0.005432836,-0.0047448087,-0.0033774402,0.04322918,-0.0042559514,0.009173988,0.003970254,0.029137088,-0.0060981545,-0.011664091,0.009086311,-0.012707472,-0.022046745,-0.0011600426,0.015979026,-0.01531287,-0.02745375,0.028465113,0.040440176,-0.0010984417,0.008986736,0.014566686,0.010989025,0.049191475,-0.007670318,0.016922072,0.01781099,0.046936765,0.029030902,-0.005818522,-0.032997284,0.035482302,0.016663676,0.011134903,0.007877696,0.016670424,0.013941766,0.006572804,0.0047704927
36,-0.020453246,-0.03745233,0.040735886,-0.01064185,-0.0077681746,-0.021004526,0.0016098036,0.015457863,-0.00504843,-0.0216283,-0.0022499429,-0.015853593,0.021449072,0.021846058,-0.015514698,0.001919387,0.052521557,0.01839788,0.0151320165,0.004004365,-0.005341316,0.009497174,0.009753766,-0.019811124,-0.017752443,-0.016038312,-0.0019047917,-0.013273681,0.019974291,0.018183924,-0.025756018,-0.0144304065,0.020045733,-0.013691192,-0.018525586,0.021508237,-0.03622283,0.006296395,0.0005992805,0.021165742,-0.019057447,-0.02176315,0.015499954,-0.0036294335,-0.0030007092,0.013319786,0.018084867,0.0194915,0.0255697,0.0051792134,0.0053600245,-0.0007564287,-0.00198744,0.018016336,-0.028808573,0.021255432,-0.0034400478,0.042540215,0.013761911,-0.004263815,-0.001595746,-0.012814083,-0.0083967885,0.00889335,-0.0087025985,0.00653117,-0.0062329276,0.012511965,-0.014041664,0.013744945,0.0221289,0.020905178,-0.02076339,0.004165695,-0.0024180757,0.0027928315,0.00970033,0.012693897,0.041936837,0.002198805,0.050240923,0.0042435643,-0.011527439,0.009561948,0.010345289,-0.015370195,0.014569849,-0.016739387,-0.0029697947,0.013884125,0.012350652,0.024619637,-0.026478736,0.0144631555,0.01932701,0.0014240168,-0.015077931,-0.004185677,0.005395455,0.0005998903,0.0027535742,-0.051197197,0.0006704703,0.010967039,-0.0022289003,-0.019879086,0.02083754,0.006793282,-0.0053276974,0.028795714,0.015358974,0.0051415972,3.398344e-05,-0.008909375,-0.004762741,0.01954707,0.032022238,0.0077121463,-0.03741169,-0.0030358643,-0.012487927,-0.011319671,-0.016164113,0.014358712,0.008083908,0.012191229,0.02238877,0.0055030747
37,0.008659402,0.035251558,-0.011605213,0.018723723,0.0010783214,0.022656806,0.008107135,0.00851143,0.005226309,0.036340788,-0.0042205746,-0.013446327,0.013363575,-0.017296247,-0.0001716732,0.008082944,-0.030516626,0.01033972,0.018842166,0.038359012,0.010175874,0.02035086,0.031380642,0.001112532,0.02468704,-0.03399466,-0.023550658,0.0005524171,0.00023054513,-0.014989557,0.003943934,0.0048403004,-0.026139585,-0.004303978,0.03224598,0.0071900333,0.0015939514,0.018061543,-0.008926208,0.033372723,-0.01499148,0.0039216937,-0.027014356,-0.0008235371,-0.0037208458,0.0050463746,0.018685699,-0.00025917406,0.042706788,0.0015399258,0.0038534685,0.016571138,-0.019303896,0.009016947,-0.006952023,0.008758936,-0.008987144,-0.00069847686,0.0015422117,-0.01729552,0.04532437,-0.0011472282,-0.012860846,0.00979419,0.023044748,0.019528821,-0.008793716,0.008753508,0.009858729,0.012739511,0.027333897,-0.039855417,-0.010134693,0.0015952813,0.006923487,0.04127899,-0.012981588,0.02788681,0.011077255,0.0067107184,-0.0008713289,-0.006775448,-0.0032629522,0.0033609779,-0.035447147,0.010789014,0.00051381486,-0.031346384,0.010126385,0.0007089399,-0.0023945516,0.0039535826,0.016809814,0.01813738,0.0050142948,-0.001043535,-0.0028467618,0.004814833,0.006249557,0.016676085,-0.016154557,0.026523275,0.019091373,0.005538063,0.022424929,0.022611849,-0.017533772,-0.023226168,0.032424446,-0.010905007,-0.023668109,0.017177401,0.012034316,0.0011692006,0.027233144,-0.010506524,0.017198103,0.01909501,-0.006766173,-0.010798865,0.013707799,0.0023869432,-0.010479241,-0.0020020613,0.03211101,-0.023500595,0.0022227631,-0.011499007
38,-0.026658503,0.039532177,-0.028513018,0.007894756,-0.013074697,0.012918555,-0.01481618,-0.010746609,0.0123124225,0.005149654,0.01639386,0.005720876,0.004815589,-0.0093710935,-0.0041715465,-0.0032974945,0.009932801,0.001354972,-0.009130096,0.0025617415,0.017054878,0.012793253,-0.052064616,-0.003548976,-0.032301914,-0.011278355,-0.00554821,0.042028245,-0.024512434,-0.035103228,-0.008460759,-0.016025227,-0.0140379695,-0.005490056,-0.010578816,0.032814,0.030507024,0.013671168,-0.004778129,-0.0035403962,0.053226687,0.02672826,-0.009616816,0.0034178193,0.002731121,-0.02285954,-0.028932588,-0.041718952,-0.019514678,-0.024003088,-0.028950471,0.04942328,-0.011619028,0.002414023,-0.0096846325,0.008742021,0.0308155,-0.05772469,-0.01044449,0.027040381,0.0067047356,0.0054404843,0.0028304444,0.005849353,-0.022318095,0.016708449,-0.015848149,0.026858894,-0.023833992,-0.0026902466,0.02615551,0.011888794,0.0033286859,-0.0078833625,-0.034271445,0.0049757394,-0.0035353736,0.033701338,0.011967877,0.021968717,0.015606896,-0.011095946,-0.020797266,-0.04087309,-0.014619623,-0.0067651593,0.026742833,0.019337244,0.032094367,0.013519317,-0.013702184,0.032586075,0.013650404,0.005890849,0.021625811,0.032408368,0.030773407,0.0441823,-0.030203465,0.009758645,0.008822343,-0.0061268266,-0.0011231824,0.031169698,0.00543761,0.034253523,0.029730156,0.010268562,0.022707673,0.024535503,0.026418315,0.004439017,0.052435506,0.0061048223,0.0032590544,-0.013897672,0.03821079,0.021964218,0.031074436,-0.02035366,0.010836228,0.03608411,0.012137321,-0.024447981,0.02163543,0.0006450285,0.030844763,-0.011081367
39,-0.00886892,-0.0015546575,0.006067064,0.04674955,0.0191429,0.0032507365,-0.03359114,-0.0012626301,-0.020440143,0.009630488,0.021791829,0.030965492,0.008982452,0.012271312,-0.012511245,-0.00794652,0.03448161,-0.007767081,4.3746757e-05,0.0015973777,0.0014435275,0.026480222,0.021748666,-0.029648392,-0.017732397,0.019377057,0.023817811,0.02723403,-0.0018345786,-0.008467489,-0.004830756,-0.027213376,-0.0079874005,0.009735557,-0.008768433,-0.035486426,-0.030857105,-0.0012428882,0.03275855,-0.0057832324,-0.001561128,0.0014676456,-0.04919217,0.013838672,-0.009037097,-0.027625285,0.005182283,0.015982633,-0.009272807,-0.006609554,-0.0050963857,0.030162845,0.0165734,0.015365183,-0.026751256,-0.010890688,-0.04270234,-0.011527501,0.0016660853,-0.003112492,-0.019129857,-0.0012786771,-0.011326918,-0.011594376,-0.027582606,0.0015633925,-0.0034649,0.0007724711,0.015232792,0.020257274,-0.0012793371,0.011281057,0.0012675736,-0.0071547427,-0.0054426347,-0.004991284,0.009606643,0.044983234,0.011247091,0.022490216,-0.025902417,-0.05168864,-0.007377029,0.0045481995,0.0038993487,0.050997317,-0.003649412,-0.0136641245,-0.02764003,-0.00024864584,0.017981648,0.008221226,0.021185225,0.022140123,0.015085148,-0.0014269942,-0.0061764335,0.01831265,-0.018202242,-0.023872992,-0.0032180306,0.00089785125,-0.0042629973,0.016310235,0.002615313,-0.008993189,0.0012938213,0.022669837,-0.0056645656,0.013545109,-0.0037504735,-0.00016138284,-0.0007961682,5.213278e-05,-0.021250691,-0.0013571548,-0.010543431,0.020117745,-0.0067007523,0.00885946,0.0024277482,-0.010832326,-0.014763256,-0.011074456,-0.02771474,0.00015994674,-0.019937104,-0.006747005
40,0.030515032,0.0031476673,0.00856495,0.024168126,0.017523624,-0.01804889,-0.0028242844,-0.015111872,0.042352285,0.023746066,-0.024021752,-0.0059209284,0.017020775,0.019595003,-0.040930472,0.013031315,0.060454205,0.05328259,-0.074881196,0.0042001405,-0.0074709556,-0.008317282,-0.012405679,-0.01727224,0.026075458,0.017841173,-0.011779822,0.0102203665,-0.052179106,0.004070929,0.025145903,0.0069122966,0.025913026,0.011464032,0.023333114,-0.0053895884,-0.015970895,0.0014594847,-0.011070227,0.025323922,0.0007286734,-0.014135813,-0.011279439,-0.01666996,-0.02295165,0.0089625865,-0.022445511,0.04407001,-0.0032019028,0.009652581,0.009318797,-0.007467637,-0.02549544,0.0106435,0.028529435,-0.016598055,-0.0020059373,0.022101803,-0.036771685,0.0047556064,-0.019526705,0.022473529,-0.002681615,-0.00026466307,0.0020656688,-0.031865276,0.03312197,-0.010814066,-0.020391913,-0.01937537,0.003594884,0.01872461,0.024995463,-0.032676272,0.019954111,-0.0156503,0.009575301,-0.035287812,-0.013766034,0.022051988,0.0533519,0.008737455,0.03454213,0.026893275,-0.052419312,-0.082977325,-0.0069233016,0.032874685,-0.006549689,-0.031123256,-0.0047986903,-0.011020195,0.032638855,-0.014354335,0.009790808,0.02097937,-0.020503726,-0.010064947,-0.0033951618,0.026219651,0.03267212,-0.035137974,-0.011837603,0.025263907,0.042376753,-0.007353221,0.003490282,-0.00027094554,-0.02587639,-0.117845245,-0.016840085,-0.017625168,-0.017372223,0.019466262,0.025792401,0.024210583,0.035166383,0.01172414,-0.029723344,0.021131814,0.0005368124,-0.041005652,-0.070343174,0.0254456,0.0094178775,-0.005893139,0.013359587,0.014473248
41,0.0061682533,-0.012769897,0.0021433795,-0.0039052912,0.01877795,-0.0028476552,-0.010299091,0.010634416,0.008050607,0.0023699712,-0.010848543,-0.009439496,0.0068128253,-0.014076014,0.03327417,-0.009481769,0.010048915,-0.036594328,-0.033416383,-0.017937087,-0.007476361,-0.022195293,-0.019657617,-0.020575034,-0.014038729,0.01950575,0.034399055,-0.036375895,-0.017560387,0.008632873,0.0011453782,0.016853044,0.0022105945,0.0450209,-0.024568988,-0.030365398,-0.0010076506,-0.017528865,0.011171597,-0.03563311,0.016535593,0.0041875034,0.030927133,0.010779102,0.03618382,0.011736182,-0.03548594,0.0030627174,-0.047477808,0.045575455,0.0283458,0.006931304,-0.038857233,0.011878312,-0.0040697237,-0.05444293,0.023447772,0.01330271,0.04026715,-0.0016921447,0.016368069,-0.0100771915,0.005033964,-0.007165977,-0.01911234,-0.009814711,-0.03490021,-0.012527297,-0.0054057217,0.018722175,0.015187388,0.0023571793,0.0022202895,0.012004986,0.003951373,-0.025263585,0.0042348485,-0.024592318,-0.015911369,0.005367692,0.015160096,-0.01787546,0.0055611837,0.009037877,0.01546567,-0.022332033,-0.021348348,-0.0034759776,0.008340058,0.0020616038,-0.002416596,-0.02055774,0.016596582,0.025177838,0.0220101,0.0067529683,0.0047554774,0.03839382,-0.0065149716,0.028376903,0.009527476,0.021734051,0.004883161,0.012900209,-0.00922001,-0.010897881,0.021562533,0.023871716,0.009541222,-0.055709723,0.011068058,0.032418724,0.041127324,0.00768974,-0.002541193,-0.031542588,0.015452042,-0.016010253,0.010325479,0.0019023527,0.005733033,0.04004905,0.0071531883,0.0035632364,-0.018571641,0.0004966437,0.009343058,0.024234777
42,-0.013948849,-0.04497665,-0.00023815663,-0.008803367,0.021890204,0.007241418,-0.008885213,0.0006917882,0.017851615,-0.05252258,0.04053618,0.022342963,0.05013378,-0.004343265,0.056843016,0.021987762,0.013263181,0.037431296,-0.052114595,5.322491e-05,0.017501878,0.006999932,-0.023818688,0.044657838,-0.0041809515,-0.034615118,0.019092817,0.020535896,0.044550087,-0.010777837,0.04034874,0.022394909,0.03789367,0.023540076,-0.017498272,-0.039116997,-0.028678924,0.014147205,0.016128192,0.017426804,-0.034290213,-0.005651073,-0.026062813,-0.011032326,0.0022571608,0.014082247,0.018509107,0.022633962,-0.011416751,-0.028203344,0.027014988,0.01298655,-0.018524645,-0.022771183,-0.007858334,-0.012512325,-0.033340037,0.013532028,0.030497154,0.0058410503,-0.019800521,-0.008255417,-0.0037328748,0.020080639,-0.0077338573,-0.007830595,0.0038699042,0.013236675,0.005231744,-0.03862085,-0.018138103,0.024930319,-0.009899335,-0.0041812593,0.0065365676,-0.048331812,-0.048166666,-0.044235874,0.0025327583,-0.03832969,-0.025046801,-0.00075663294,0.0015283821,-0.04229017,0.01323569,0.007701118,-0.015697991,-0.009478981,-0.007989492,-0.07600655,-0.067064784,0.01561593,0.029824425,-0.006885164,-0.004042942,-0.03415528,0.0063532805,0.06578144,-0.0033763836,0.052513607,-0.049373016,0.061548892,-0.0035339547,-0.005251174,-0.016162634,-0.050694387,0.024766363,0.011777521,0.0030637707,-0.0010468456,0.013083555,-7.132383e-05,0.011599212,-0.012077455,0.029183533,0.038023945,-0.020847213,-0.011066156,-0.018361352,0.038859326,-0.02041492,-0.018276744,-0.017741948,-0.025393438,-0.028799074,0.024403203,0.017361717,0.010850083
43,0.011549776,-0.013533855,0.014889855,-0.0009955602,0.007824864,0.017415352,-0.034397062,-0.036341872,-0.009731377,0.015277396,0.0047422475,0.018265175,-0.015399146,-0.011784697,-0.012892064,-0.0012509823,-0.019858684,0.02774885,0.025798181,0.0006917323,0.033618025,0.011027016,0.01931946,-0.032157283,0.0017360065,0.0044837515,0.014498932,0.008223341,0.003333374,0.013196081,0.0479061,-0.005523994,0.0029515382,-0.01508066,0.0018033504,-0.01046367,-0.00078362605,0.00077111914,-0.045318294,-0.008534386,0.0047381115,0.0055137253,0.023828497,0.030035304,0.019821655,0.027889794,-0.016528897,-0.0039804033,0.01079018,-0.009449531,0.0071533867,-0.0042272685,0.0012373311,0.017770644,0.016729223,-0.0014529927,0.016625108,-0.0043651103,0.033928238,-0.00070627226,-0.000719217,-0.0025744569,-0.02620914,0.032721426,-0.011703976,0.008442134,-0.03743376,0.011377479,0.0035822617,-0.03733965,-0.0030228458,-0.012780697,0.0018722183,0.039808158,-0.053152803,0.0076108477,-0.020973796,-0.06452703,-0.008701409,0.008976159,0.007718354,-0.026478257,0.0029250532,0.006375551,-0.021501036,0.054678403,-0.009807422,-0.02824065,0.010115746,-0.023483159,-0.038467955,0.033577085,-0.04192061,-0.00543468,0.019480549,-0.00023169254,-0.0049513527,-0.009182876,-0.026090119,-0.0022636924,-0.003098268,0.0036014558,0.015461201,-0.001585856,-0.0020108775,0.011063185,0.0013096619,-0.02601678,0.01323378,-0.0019344371,0.00899942,0.019467482,-0.0012727109,0.039359707,0.02024385,-0.030216679,0.0005785988,0.007693024,-0.02010195,0.009601401,-0.018313834,0.046028927,-0.0036838613,0.002988502,0.01356264,0.08460208,0.0050563677,0.024220448
44,-0.037299946,-0.023348467,0.040366534,0.004358163,0.003651002,-0.038234297,-0.014083192,0.021401977,-0.021183318,-0.018702235,0.020808421,0.0348349,-0.014921938,-0.020525597,0.03248013,-0.010151694,-0.0018370857,0.019663384,-0.055898037,-0.0037165422,0.004144046,0.020640315,0.030724673,0.022503972,-0.032207336,0.06818655,-0.012399108,0.028857052,0.0055914284,-0.066594966,-0.011368061,-0.003587503,-0.008060615,-0.017287133,-0.060863756,-0.0017469657,0.0152306445,-0.00400362,0.020273099,-0.014006111,0.0026309947,-0.0020592015,0.008761441,-0.0018461363,0.030077279,-0.019513594,0.0025565822,0.01724069,-0.012852719,-0.008314548,0.019510986,0.029825805,-0.013933464,0.00023888292,0.01137278,-0.024358694,-0.020768244,-0.0092308,0.018674083,-0.00767139,0.03196323,-0.0044402904,-0.0016400412,-0.027634783,0.0018519127,-0.00043915992,-0.010757425,-0.009100625,0.009754973,0.0036138387,0.022058735,0.03164896,-0.00699708,-0.024343219,0.011980004,-0.0023740097,-0.0031397308,-0.0011872619,0.0039436435,-0.0013329259,-0.01844309,0.011574255,-0.03768892,-0.055631466,0.007902629,0.007533962,-0.009861887,-0.035496008,0.0069374708,-0.059926666,-0.027101282,-0.0053218575,-0.0043840515,0.028898912,0.022800844,0.018502044,0.031366996,0.04387527,0.039954066,0.048488516,-0.0065559437,-0.0034863504,-0.0069909827,0.021995785,0.0046042753,0.012766663,0.031864658,0.011583937,-0.021063983,0.0068608513,0.076116346,-0.010388307,0.05616849,0.0009822915,-0.01079559,0.028284766,0.0053831777,0.01210751,-0.0041711614,0.002717833,0.0053868033,-0.0037368068,0.016290981,0.024048151,-0.035803568,-0.0014890067,0.0159616,0.04116564
45,0.021431837,-0.02354144,-0.007874482,-0.023880139,0.0012673468,-0.025649121,-0.018420704,-0.013968747,-0.023376955,0.04014026,0.05409511,0.0025609264,-0.012727121,-0.029333156,-0.0302759,-0.028405732,-0.015602505,-0.014999434,-0.047843456,0.0028807903,0.007529381,-0.0030517671,0.019496724,-0.035487443,-0.015930625,-0.024113165,0.010095425,0.031394802,-0.016662473,-0.008187207,0.033771317,-0.034748577,-0.02924196,0.05716121,-0.008727046,-0.0073385504,0.00067387143,-0.010340685,-0.030454494,-0.00039899442,0.007792908,-0.02173642,0.012106303,-0.004015502,0.023337401,0.0399624,-0.010962997,0.03720894,0.0156186465,-0.0050506615,0.018449796,0.0044402746,0.04479116,0.015621305,0.0150505975,-0.0021943287,-0.040081758,-0.033657447,0.033362262,-0.057459325,-0.023135949,0.0081003215,0.034821942,-0.008973911,-0.005213846,0.01690119,-0.007126531,-0.0005391806,0.032376453,-0.032821137,-0.017881757,0.006903437,-0.006381831,0.011538144,-0.034601077,-0.0019913863,-0.0009256145,-0.0073270607,-0.0076036835,-0.005342493,0.02140275,-0.026307788,-0.001941484,0.009150158,0.006931085,0.0015736863,0.018562118,0.017482156,0.02266972,-0.002968303,-0.003901622,-0.0060378043,0.013869298,-0.006524415,-0.0028184634,-0.0140846735,0.035375886,0.015441128,-0.03317306,-0.0051170075,-0.0050081187,-0.0061249877,-0.029965501,0.0036709558,-0.01779057,-0.0009845184,-0.010855767,0.005935109,0.009282532,0.041926436,0.03436845,0.007818537,0.029289648,0.019297088,-0.002064812,-0.0080887135,0.0040878938,0.04204119,0.00034687071,0.004654377,0.0070487326,-0.0041435603,-0.031609315,-0.008529392,-0.00058779656,0.043173045,-0.02812713,0.0065952037
46,0.020663656,-0.009301029,-0.016436107,0.040255487,-0.018299313,-0.02314908,-0.010603993,0.00772558,0.023097772,0.012251186,-0.012234289,0.006911359,0.046767946,-0.012334271,-0.034970004,0.00352832,-0.031754825,-0.046410978,0.010929461,0.012360933,0.025107916,0.0016245237,0.029102162,-0.0009393883,0.01539402,-0.057485204,0.014656258,-0.006310305,-0.00238318,0.004887322,-0.008684569,0.007464521,-0.047695674,-0.015486955,0.024494158,0.0052217934,-0.0049091815,-0.006270415,-0.024026083,0.02906327,0.0021413672,0.018650493,0.010109863,0.008378355,-0.00994638,-0.014474627,0.036017522,0.0046010893,0.016551826,-0.01692809,0.017001433,0.0019581057,-0.030389506,-0.007213951,0.012647882,-0.011121298,-0.0010632465,0.009825562,0.0019963617,7.5019925e-05,0.00084549305,-0.013335865,-0.011186288,0.00019670524,0.02257682,0.03168875,-0.009787359,0.014475067,-0.008113025,-0.02610722,0.02549176,-0.008457767,3.2957494e-05,-0.021484232,-0.010320827,0.021178648,-0.013914728,0.030964866,0.015313068,0.020250391,0.008644446,-0.013846157,0.0065719257,-0.0023489725,0.019727131,0.005014511,0.006612437,0.020346409,-0.0067592287,0.006893196,-0.008128524,0.017117651,0.015670443,0.022565028,0.0058471197,-0.010953647,0.051020402,0.015358038,0.000682772,-0.00582279,0.00080745696,-0.006967952,0.016562201,0.01789153,0.0022710895,-0.015429796,-0.0013866592,0.005392987,0.017891005,-0.021499593,-0.0027258275,0.015888724,0.012849927,-0.0077958144,0.019324856,0.017001532,0.0128265135,-0.006751895,-0.0024725504,-0.0147524355,-0.009391466,0.017667834,0.008571092,0.020731928,0.010095604,-0.024316227,0.0013116477,-0.02008869
47,-0.0038176181,0.016688699,-0.012400901,-0.027164914,-0.009133348,-0.014675539,0.06615598,0.0075313454,-0.04129249,-0.0392756,0.054523498,-0.034208387,0.04245186,0.032869592,-0.029034043,0.035489634,0.0092609525,-0.011808878,-0.022308474,-0.04116182,-0.008814896,0.019407868,0.02653471,-0.0049017672,0.022325937,-0.0024534343,-0.019763352,-0.062260453,0.0095382,-0.022051584,-0.028582897,-0.020407364,0.066190474,-0.027835561,0.021061877,0.0051924293,-0.01497699,0.002961875,-0.0070138974,-0.0045874612,-0.01677229,0.038193014,-0.010889392,-0.023478603,0.009674736,-0.07165682,0.018320685,-0.042032868,0.03470094,0.028907876,-0.0040703835,-0.02960553,-0.022166014,-0.01710509,0.009585311,0.07035169,0.02305517,-0.0056677484,-0.03374224,0.04692084,-0.0070082997,0.04825356,-0.03133487,0.018669512,-0.0010506667,-0.022368714,-0.038811143,0.008919124,-0.020196164,0.007767855,0.006803088,0.03118189,-0.012750622,-0.032667417,-0.016090894,-0.031852644,-0.044529416,-0.008676619,-0.026935646,-0.01689338,0.0021282483,0.014682862,-0.030801274,-0.02942702,0.015423222,0.055056024,-0.009037133,0.0013073963,-0.005969822,0.013110337,-0.008195796,0.015349428,0.035410285,-0.048513427,-0.0015804989,0.0046772286,0.020235345,-0.059454214,-0.025292965,-0.041811615,0.008594669,-0.020962825,-0.012674464,-0.046740767,-0.006495664,-0.015425876,0.021480095,-0.036633372,-0.022560371,-0.0155455405,-0.029404214,0.021539764,-0.013772004,-0.013141296,0.007847131,0.026201317,-0.0032844178,0.017212968,0.0020217942,0.016980829,0.028449534,-0.0056682215,0.005291345,0.013518252,0.021249272,-0.068182446,-0.02688896,-0.0014839856
48,-0.0076783877,0.0064052455,0.012755388,0.010201579,0.018741503,-0.00014274877,0.005753874,0.02523007,0.009499745,-0.0027234822,-0.017883385,-0.0143015105,-0.010525144,0.036862943,0.000726336,0.008586131,0.002406506,0.0075356383,0.012025791,0.030377733,0.03665864,0.020794211,0.0066602207,0.025032911,-0.0024261372,-0.00027068416,-0.0033919422,-0.00043807857,0.018478645,0.009474351,0.011293421,0.0062844595,-0.025253465,-0.0032579366,-0.014870588,0.012445482,0.024408635,0.02038256,0.016239513,0.004828866,0.031216,0.04191455,-0.005850918,0.022738481,0.024094965,-0.011333867,0.012602063,0.010354245,0.010671533,0.011023071,-0.0142484475,0.01692072,0.025315102,-0.006462955,0.0147066135,0.022955256,-0.006063235,-0.011761038,0.0045648757,-0.010424447,0.038005702,0.0091218585,-0.008790083,-0.00035951028,-0.0009243059,0.007572702,-0.0026187717,-0.0022009593,0.0036975339,0.011994984,0.0011313378,0.0070978873,0.0041981023,0.01767001,0.012873864,0.004824215,0.02864057,-0.019436244,-0.006962527,0.011870247,0.0005043827,0.0007513657,-0.0035294644,-0.02667695,-0.009351925,0.004809668,0.01388985,-0.0030396234,0.03262692,0.017148819,0.0023092583,-0.003264462,-0.0083022,-0.010012261,0.007783324,0.0151457945,-0.004230913,0.01203474,-0.004071158,0.040294755,-0.005097087,0.043085437,-0.011350499,0.011299153,-0.011811774,0.023809353,-0.012729171,0.021143356,0.0064651496,0.0024662223,0.010976883,-0.0011710572,0.033435207,-0.0056813997,0.005792395,-0.020150773,-0.0051368102,-0.0024709273,0.03473936,0.019960688,0.014297069,-0.011993497,0.01783377,0.010912405,-0.0022837573,-0.01394461,-0.001893837,0.014461772
49,0.03781209,0.020466078,-0.031391464,0.021845346,0.034620956,0.05026103,-0.011006206,0.023121646,-0.029169392,0.014397143,-0.03797827,-0.0048457896,-0.04461008,0.014143428,-0.030079221,-0.0057352297,-0.05856324,0.047467988,0.044396985,0.063448876,0.019501312,0.015627408,-0.02768448,-0.022009807,-0.022257786,-0.026192695,0.009894384,0.00061227346,-0.0109158,-0.005593535,-0.02921286,-0.022041572,-0.011564206,-0.0031710924,-0.024781043,0.01515391,-0.0019726662,-0.00074932165,0.032018248,-0.004751529,0.036106274,0.006208673,0.06086309,0.017674774,0.010055357,-0.005386402,-0.018735524,0.003841129,0.0154165,-0.0072979946,-0.019324796,0.0020311591,0.012101765,0.005172063,0.017372323,-0.0028930947,-0.057764947,0.028147027,0.011174737,-0.01893428,-0.018676559,-0.017007932,-0.034642003,-0.006112063,0.011308446,0.012745357,0.027455661,-0.003188313,0.01791204,0.039781004,0.043817405,-0.02825807,-0.0019399192,0.0073727774,0.003494526,0.0161446,-0.020557327,0.022550998,0.005222388,5.921104e-05,0.007957335,-0.019726973,-0.0077768117,-0.0037008307,0.016003003,0.064146295,0.012741036,-0.015637672,0.0146678435,-0.017370775,0.02677398,0.011792273,0.015485398,6.7665e-05,0.043535758,-0.0083630085,-0.033409834,-0.0038113066,0.03362577,-0.015431863,0.020514198,-0.021602137,0.035592306,-0.037336312,-0.034722544,0.0050081164,-0.020489013,-0.03449216,0.010088909,0.0072982353,0.014701616,0.056656297,-0.025738545,-0.022063337,-0.0154590085,-0.0069813714,-0.012198183,-0.037651997,-0.022301858,0.0002170336,-0.007300666,-0.022445478,-0.012805223,-0.0005931341,0.021212127,-0.007620774,-0.018153021,-0.013818504
50,0.019362569,0.008754285,0.00043841638,-0.004999404,-0.007792039,0.009294977,-0.0017411826,0.00705919,0.033293393,-0.0020921333,-0.016506603,-0.015967289,-0.005248893,-0.020030487,0.007999678,0.028600413,0.0028543766,0.008660211,-0.028338598,0.022231067,-0.015677562,0.028975535,-0.026602315,-0.0061920523,-0.010976736,0.022573007,-0.030810878,0.00972177,-0.001236657,-0.017989995,0.015056043,-0.027168352,-0.0012331234,-0.075909935,0.07577706,0.0057210107,0.025783978,0.048114963,-0.00795776,-0.026597075,-0.015398648,0.002722114,-0.00026184833,0.000271269,0.017693277,0.0046931813,-0.0046718433,0.02711695,0.015727138,0.016388325,0.009337095,-0.010567399,-0.0065228348,0.007003363,0.006384205,0.036130346,0.0037959095,-0.020575607,-0.02585417,-0.027293706,0.033592403,-0.006864599,0.026666764,0.010590204,0.0426554,0.01589258,-0.011930974,0.016537843,-0.12064861,-0.023298407,0.022673696,-0.014657008,0.02804602,0.013240155,-0.02017592,0.04234845,0.008735452,0.040454756,0.039206136,-0.013528099,0.02391052,0.0051211435,-0.004776353,0.013264992,0.0008537271,-0.03963033,0.04289426,0.01351596,0.0018948427,-0.061234195,0.0009843815,0.0700457,-0.035561357,0.020591168,0.013897937,0.0050804517,0.01692759,0.01743629,-0.012028731,-0.01509428,0.053188022,-0.039777488,0.0061041177,-0.0132033415,0.013655722,-0.03350959,-0.017864065,-0.011103696,-0.02485249,0.01833026,-0.05366318,-0.023963891,-0.0240673,0.0023664043,0.04225084,0.0023866647,0.0097231595,0.02721804,0.010797129,-0.009827387,0.025048852,-0.04120064,0.009013727,-0.013163531,0.018842936,0.0151308365,0.07542794,0.028300755
51,-0.0031322185,-0.032671176,-0.019656595,0.014323706,-0.0329123,0.00050920417,-0.0117063895,0.01098583,-0.024758445,0.008886712,-0.02111509,0.00654686,-0.0070419544,-0.010498548,-0.00496282,0.0016913296,-0.0063064303,-0.022467954,-0.00049720437,-0.04101725,0.0070287604,-0.0005826463,-0.02985903,0.005156924,-0.0034561967,0.028607715,0.0008982588,0.0064682057,-0.02696086,-0.009346899,-0.0026806768,0.00964047,0.022940008,-0.003753405,-0.01584155,-0.00085696485,0.013348293,0.017576905,-0.009368457,-0.015616279,0.03137766,-0.009060891,0.014237602,0.018077886,-0.0018605965,0.015499326,-0.020158969,-0.036209665,-0.002681764,-0.013063506,0.027879328,-0.025695104,0.03003951,-0.010295787,-0.008222395,-0.0058332356,-0.0024037377,-0.0006150662,-0.0315713,0.00046580614,-0.0049425545,0.008410813,0.011059817,0.016043419,0.023925,-0.023142936,0.0070453505,0.0015043657,-0.06799634,0.001807084,0.02362921,-0.0014398692,0.018698098,-0.00874587,0.04091855,-0.02866321,0.011020857,-0.01136882,0.016887223,-0.0043104733,0.010213867,-0.006211049,-0.025282403,-0.009000874,-0.020849235,-0.062474158,-0.026442003,-0.0014579538,-0.015041276,-0.017252332,-0.008412032,-0.00030790138,0.013654628,0.037953377,-0.021579051,-0.014376241,-0.0021313021,0.020392146,0.0050966763,0.006441483,0.014907322,-0.0019190775,0.0031593337,-0.030082354,0.016083762,0.011135173,-0.016531708,0.00032083454,-0.023820134,-0.020384084,0.013004903,-0.0052325646,-0.002521335,0.0010819886,-0.018250132,-0.005759229,0.0005527395,0.03614854,0.00979231,-0.0047603943,-0.005709522,-0.0058985045,0.004844124,0.0044425554,-0.02881381,-0.0052966196,0.006796853,0.01108212
52,-0.019602338,0.0033083758,0.007436942,0.022565097,-0.00818865,-0.013672068,-0.0005675781,-0.00097217003,0.026267406,0.0048829657,0.06682135,0.0032872008,-0.022330876,0.029444275,0.008498345,-0.013271047,0.011066081,-0.020822333,0.0074108327,0.01776015,-0.021048592,0.05764734,-0.013269256,-0.00039164702,0.047590073,-0.019078266,-0.001684467,-0.05503131,0.022968436,0.014586362,-0.012833756,0.0059938137,0.01766499,0.009123667,0.027641997,0.012723354,0.0022588861,0.0074472004,0.0018395735,0.031727552,-0.019345544,-0.009019237,-0.019569999,0.017527979,-0.0014239869,0.015897846,0.0040362673,-0.04422989,-0.013132476,0.01097767,-0.0003152429,-0.009746818,-0.03071377,0.0062734587,0.022278545,-0.028590944,-0.0039235083,0.019313624,0.011047692,-0.015947038,0.009030001,-0.0034928464,-0.036059372,-9.2413815e-05,0.020756325,-0.0023671016,-0.025735488,-0.010595983,-0.03041461,0.015257338,0.037135076,-0.044410188,0.014845509,-0.005639616,-0.018108595,0.0070391833,-0.020460518,-0.015183896,-0.011829465,-0.056891713,-0.02184148,-0.0066225138,-0.008057598,0.015144967,-0.015030182,0.018038154,0.006928025,0.024212545,0.0016732262,-0.02037804,0.021866461,-0.011502552,-0.028472582,-0.007965905,-0.008028891,-0.007891219,0.009432625,-0.039721474,0.0034640671,0.028112112,-0.044759147,0.0018538549,-0.02131892,0.005287126,0.02319122,0.011258542,-0.0048970873,-0.014210324,-0.009500075,-0.009040459,0.018902132,0.010586096,0.018330485,0.019464538,0.0036441302,0.013893703,-0.0034774153,0.02065162,0.008024364,0.0036328754,-0.007229819,0.03225352,-0.008588265,-0.010584024,0.010015787,0.0008551202,-0.042488996,0.025444146
53,-0.015725415,-0.00485525,-0.00076777313,-0.0076307952,0.009598779,0.014109155,0.017719155,-0.0020626788,-0.007950613,-0.01923371,0.0377966,0.009555151,-0.0033523994,0.0049459054,0.02495629,0.024530511,0.016735451,0.025752483,0.0305329,-0.006890883,0.015919952,0.0009238707,-0.014653386,0.015662031,0.0005012713,0.019968927,0.023953073,-0.013134595,0.027688693,0.02031258,-0.002350008,0.0047719935,-0.005540968,-0.0027102856,0.034909837,-0.011256987,-0.00072557956,0.024049629,-0.014547112,0.014615432,0.058515564,0.027959771,-0.0128624495,0.0012185707,0.009862381,-0.008632115,0.0074461293,-0.01556173,-0.0070973174,0.023876285,8.7383334e-05,-5.1999712e-05,-0.0036857317,0.01596144,-0.0048345476,0.009483538,0.011630778,-0.0018101559,-0.0031225446,-0.01151588,0.012246011,0.03137371,-0.017743414,-0.0068279747,0.00066600146,-0.018638166,-0.00024241362,0.0016213482,0.003919744,0.017411664,-0.00871101,0.007571756,0.008454857,0.00325574,-0.0029882079,-0.015551293,0.016997129,0.0071182987,-0.020708265,0.012917861,0.000962641,0.0064258506,0.013592546,0.011259261,0.012636569,0.0167421,-0.0034647011,0.02103388,0.017902,0.0243409,0.005225869,-0.012162596,0.018176489,-0.019591337,-0.002485054,0.00047832396,0.015114594,0.014126621,-0.023988204,0.029173579,-0.0028863458,-0.0003778822,-0.019784769,0.0095210085,0.0037781678,0.002373558,-0.021000737,0.016288096,0.020493954,0.020785209,0.017645294,0.009364034,0.0072315624,-0.017305395,0.019836457,-0.002937552,-0.0050378717,0.030345278,0.035951573,0.017804045,0.017168501,-0.0024115567,0.0067400434,-0.005442145,0.0058383597,0.017434997,0.0003399266,0.018872097
54,0.010586048,-0.036326606,-0.029007189,0.034996856,0.037680905,0.012917025,-0.041857958,-0.022935646,0.010805874,-0.0012151899,-0.0351668,0.012538961,0.015260512,-0.004307961,-0.009858162,0.011441914,0.013231867,0.018219985,-0.03660331,-0.0287089,0.014805987,-0.027887471,0.032602683,-0.01385915,-0.03376895,0.008695399,0.0064004916,0.0021715926,-0.02058261,0.005731822,0.00071450206,0.00024911202,-0.04748635,-0.024171893,0.026088811,0.010433881,-0.019964311,-0.036586616,0.011141608,-0.036948938,0.020209398,0.010626392,0.040944472,-0.007904626,-0.022599077,0.008931666,0.021546386,-0.04093493,0.035538193,-0.016522173,0.02764924,0.008532064,-0.053094026,-0.033260223,0.00027578254,0.036752824,-0.0031058122,0.02061139,-0.0044972026,-0.051854845,-0.0055429162,-0.0020180016,-0.041514512,-0.006517607,0.008484158,-0.01380628,-0.005121616,0.03545393,0.04754846,0.026959758,0.008707914,-0.03768587,-0.02032542,0.037684117,-0.0021346812,-0.034782663,0.027259111,0.06572956,-0.004657443,-0.020908542,-0.009870658,0.004988752,0.006126976,-0.043235265,-0.010930693,-0.027700614,-0.018446777,0.02533603,0.01818802,0.014706165,-0.025429301,-0.010358318,0.0273101,-0.002670397,0.021952245,0.044615064,0.007253335,0.022507753,0.043034524,-0.00501739,-0.018270673,0.0070453584,0.0073166015,-0.053510725,0.003494871,0.0032810206,0.008314788,0.000583982,0.00033676423,-0.013307859,-0.044005238,0.009776727,-0.009352228,-0.030133277,-0.009057718,0.02098962,-0.020437002,-0.021310262,-0.008849138,-0.024938058,0.010185603,-0.021121956,0.011813614,0.005071106,-0.004956075,-0.004712104,-0.026858853,-0.024312574
55,0.014420179,0.011243113,-0.017457077,-0.040127065,0.009132964,0.0073306933,-0.0014453805,-0.023954585,-0.0023149902,-0.01203999,0.0030111973,-0.00507878,-0.0007029348,-0.030411335,0.012679857,0.011939365,0.000115895455,0.0050433455,0.008451495,0.011506102,-0.018348431,-0.016728763,-0.016508834,0.014486995,0.02488566,0.028920392,0.0029120527,0.013651696,-0.02063038,-0.0025304833,-0.0077322796,-0.002242666,0.00990569,0.013241267,-0.0060537253,0.0446748,-0.0064400584,0.016851459,-0.023740418,-0.020907909,0.013784143,0.011824657,0.03427774,-0.03886384,-0.0117799295,-0.014072801,-0.016713347,0.0073380787,-0.023772266,0.003941033,0.013104363,0.029294945,0.0057828673,-0.0059040007,-0.0049940897,-0.004630627,0.009620423,0.01393688,0.0043722778,0.023278967,-0.02739966,0.03190266,0.003781065,2.3575672e-05,0.0047705085,0.0044511156,-0.013565368,0.028281158,0.0099813035,-0.018694395,0.030188585,-0.0032780992,0.002213825,-0.0041337856,0.010510091,-0.0027907724,-0.014278294,0.009530223,-0.002788845,0.014861913,0.001726503,-0.00063038326,-0.011305222,-0.00034474855,0.015171324,0.0019781701,0.02297668,-0.0289453,0.0039374996,0.011977747,-0.010491824,-0.0022404818,0.0370948,-0.013968072,0.016468216,-5.4648997e-05,0.0036901676,-0.011851051,0.008217302,-0.006387047,0.029637141,-0.025847808,0.0149192065,0.015690576,-0.022388402,-0.030410329,0.011037213,-0.008905318,0.01323007,0.027527882,0.00927637,0.012667797,-0.008662103,0.018498925,0.0064407117,0.005063224,0.0058041015,-0.015186091,-0.016303264,0.0008635092,-0.010661247,0.011140327,0.011682426,-0.0006481686,-0.0033775428,0.011113923,0.005053963,-0.016190453
56,-0.008304283,0.0077951127,0.017616274,-0.03706349,-0.0017454913,-0.003294008,0.0011260228,-0.022782817,-0.0016137523,-0.020445636,0.023920484,0.005481142,0.02335494,-0.020177469,-0.019659258,0.0050158827,-0.014410589,0.008982338,0.0036308134,-0.0228186,-0.017327644,-0.008835022,0.015691843,0.01776515,0.010412787,0.014854711,-0.0043483125,-0.01781093,-0.0006513205,0.011022539,-0.038982276,-0.0036478892,0.023178022,0.026537357,0.010489855,-0.025863819,0.008634863,0.008113939,-0.024058716,0.02705306,0.017418668,0.012972207,-0.00425411,-0.039271455,-0.0052240905,-0.007869115,-0.016327797,0.027415406,0.006153977,0.0040324926,0.016254943,0.030212589,0.0051695,0.011269777,-0.019591197,-0.011002054,0.00070915173,0.032455847,0.00029366574,0.0033217012,-0.01616999,0.031696983,0.0025254418,-0.018601868,0.006291415,-0.0056905933,-0.0077422443,0.030122198,-0.022411304,-0.016335426,0.07359545,0.018858785,0.002342454,-0.0025567678,0.035580553,-0.012476582,-0.0060634566,0.026486998,-0.011820482,0.019531265,0.016146334,0.0022120266,-0.024115244,0.013551513,0.015288864,-0.0046974467,0.022852203,-0.0006990484,0.013539803,-0.0019435147,-0.023510927,-0.009527824,0.020859998,-0.0142318625,0.0071764863,-0.015351314,0.014717898,-0.0075419038,0.015878791,0.0011706884,0.017032214,-0.04774248,0.00023816839,0.019242007,-0.042445417,-0.032098215,-0.006194673,-0.040223375,0.018807545,0.013258819,0.034295633,0.009405381,0.019274935,-0.017359387,-0.012523598,0.02052725,-0.0066022775,0.01186423,0.01369751,0.010543006,-0.009235958,-0.014619929,-0.0015970566,0.010190749,-0.009363954,0.029548796,0.0068807774,0.0046672337
57,-0.014814908,-0.010706832,0.0017107053,0.024792118,0.011381571,0.012536646,-0.024938995,-0.0021458582,0.026684696,-0.0033171922,0.016738713,-1.7849103e-05,0.020815449,-0.055919044,0.009737748,0.012319627,0.015430049,-0.007850351,-0.0018977313,0.03155487,0.022450909,-0.009235608,0.009380628,0.005822839,-0.0041298224,0.012420812,-0.0037404078,-0.010436259,-0.0018105077,-0.008555439,0.009805036,0.012824798,-0.020114262,-0.0131906085,-0.0068251714,0.00935445,0.0034609733,-0.011738036,0.004924269,-0.010454583,0.026478346,0.029690918,-0.016211547,0.014172881,0.029733343,-0.0063344394,-0.0025262383,-0.015474947,-0.0024466133,-0.0070901085,-0.0015146479,0.0014283602,0.022720478,0.015317077,-0.001421535,-0.0060036266,0.014090037,0.00072568125,0.0053781923,0.019751176,0.016720835,-0.0031605768,-0.0046741283,-0.0063585257,0.02025976,0.0018828495,-0.0067732455,0.009419945,0.00024993828,-0.017950868,0.005780024,-0.010947739,0.0013719318,-0.010327703,0.0017065557,0.027236758,0.00213642,-0.015159861,0.0034372613,0.0076756277,0.00014028192,0.0015577084,0.00263323,0.035158318,0.003233539,0.00063041656,0.0077828667,-0.007556437,0.029487116,-0.010705454,-0.008204805,0.018235795,-0.018752825,-0.010591982,0.01409346,0.0073401676,-0.008739385,0.01046677,-0.011650529,0.022028117,-0.028750416,0.0011967997,-0.012889107,0.013588906,-0.002875094,-0.0104402825,-0.0062582246,-0.011585639,0.013036694,0.0017918437,-0.0152243655,-0.0029600142,0.012688954,-0.02708529,0.0012070403,-0.00029245546,0.013603667,-0.00041404986,0.018126901,0.014526626,0.008310997,-0.008586871,0.0035523404,0.017830996,0.028503042,-0.0071199364,0.0061005875,-0.004843452
58,0.0031899798,-0.017084036,0.0054329694,-0.00077495363,0.004343896,-0.010210667,0.03593739,-0.038844522,-0.00598715,-0.04510629,0.0018963659,-0.02401604,-0.004062505,-0.035858355,-0.0069233933,0.020286106,-0.006874767,-0.0025980987,0.004153385,-0.023452686,0.02951289,0.015189141,-0.04612883,0.012556771,-0.024319127,0.034122903,0.0044339593,-0.018778244,-0.042080138,0.0060236612,0.024255209,0.018194783,-0.006546449,-0.021475941,-0.04741765,0.011833874,0.023369674,-0.0044505666,0.014377218,-0.056254987,0.024670025,0.038842328,0.005362791,0.00788762,0.008375868,0.01303829,-0.015534468,-0.038597256,0.00054457015,-0.023241786,-0.008948476,0.04325757,0.023047699,-0.02613579,0.023474844,0.008921414,-0.037007857,-0.010179637,0.027560573,-0.026550665,-0.0020194645,0.005051042,0.01940828,0.0035243845,-0.04058466,0.012958054,-0.020644143,-0.060926184,-0.054127686,0.012600085,0.0027161036,-0.010022658,-0.016539056,-0.03047902,0.010549052,-0.010818747,-0.01244606,-0.016448965,-0.012712864,-0.015776962,-0.021095434,0.012035985,0.018737433,0.022862079,-0.0219598,-0.053741235,0.014789133,-0.010552874,0.020700024,0.0031951861,-0.024774434,0.008657225,-0.008833164,0.0016561034,0.00092418387,-0.0032498736,0.0041371905,-0.008606249,0.040179916,-0.021021107,0.03861121,0.013155338,-0.0117508145,-0.037387222,0.025805507,-0.0048533566,0.022985725,-0.05019319,-0.0011133293,-0.056247447,-0.022740755,0.018081862,-0.0013080233,-0.029829266,-0.028636135,-0.018500919,-0.011612312,-0.07424128,-0.00044355143,0.055286918,0.0011632319,-0.03575068,0.008141755,0.026299749,-0.002271015,-0.013499624,-0.034855854,-0.03220367
59,0.003318635,0.017013907,0.0033369393,0.018824616,-0.011170294,0.009682709,-0.00673274,-0.009259334,0.0065470133,0.013429334,0.0005474862,0.0044699623,0.031245299,-0.0035452356,-0.019819561,0.022339465,0.0054745064,-0.017325254,-0.005957381,-0.02686714,-0.0057930606,0.0029496346,0.011653631,-0.0132267075,-0.028200943,0.045651753,-0.018655859,-0.018390419,-0.0042299135,-0.012264383,-0.0031490216,-0.01525816,-0.0012311649,0.021602098,0.018807428,0.02522078,0.0153137585,-0.010709354,0.0016295252,-0.020678125,0.016231317,-0.021311348,-0.010266996,0.0033186679,-0.0013109358,-0.014837465,0.00023299975,0.005180796,-0.025818028,0.012590933,-0.010415178,0.028609859,-0.015825104,-0.001399266,0.0062871934,0.0062189247,0.0145279085,-0.030232385,0.0017326378,0.013805575,0.0053012096,-0.01728705,-0.014242702,-0.002450391,-0.017825881,-0.012878614,0.00043283773,0.0022478949,-0.0038795345,-0.006683036,0.014547611,0.03338204,-0.0048534074,0.0069112363,0.008653274,0.020803116,-0.0040822243,0.0056822286,0.01997433,0.033292037,0.0045475173,0.0063913027,0.006456288,0.029193435,-0.015428277,0.014443208,0.0034110832,0.0235667,0.014905839,-0.010098095,-0.00025333985,-0.0022705253,-0.009440761,-0.0037967158,0.0045413766,-0.003512174,-0.009876313,-0.016130421,-0.0036992976,-0.009739319,0.004965428,-0.023774134,0.0016506733,0.03365926,-0.008034534,0.01719417,-0.011786257,-0.004112571,-0.0017967032,-0.022540124,0.03619726,0.004918133,-0.0072307074,-0.011654684,-0.004304397,0.03067219,0.04130788,-0.0010774576,-0.019649629,0.0146970395,0.00023152582,0.027613387,0.013089412,0.015225968,0.019518044,0.015879901,0.036691617,0.021146366
60,-0.045468558,0.008300869,0.0057730735,0.033137634,-0.0440476,0.0002915278,-0.021712283,-0.0036653557,0.004661453,-0.020740151,-0.018559486,0.020645307,0.051086396,-0.016184643,0.025015099,-0.0009652739,0.0029889832,-0.04516365,-0.032472454,-0.021655433,-0.004007656,0.051693693,-0.010537182,-0.016311668,0.0072333654,-0.012654531,0.027463898,0.021933833,-0.0052738227,-0.018616067,-0.012297955,-0.017440991,0.022477996,0.024401747,-0.023771321,-0.039277624,-0.0002749487,0.03220235,0.03347347,0.0023864796,0.008571639,-0.015024033,-0.06797391,0.01945956,0.0313052,-0.020852653,-0.0018046747,0.020819461,-0.00082842243,0.002594458,-0.013540825,0.028672423,0.004609553,-0.013677209,-0.011663393,0.0020323333,0.02031762,0.011894551,0.019530755,-0.001600914,0.008371878,-0.012962745,0.048773,-0.017245669,-0.0034405624,0.004496872,-0.0006388484,-0.0042428784,0.0020661736,-0.030750688,0.018239502,0.014733872,0.02505793,-0.015087519,0.01021309,0.002910876,0.035514135,0.009686976,0.015861476,0.011631326,-0.046782777,-0.02519634,-0.01713349,0.0066820434,-0.015609303,-0.044943035,0.03392975,0.019872356,-0.0014142528,0.04527265,0.011117049,0.041346703,0.0396682,-0.00019705108,-0.037897233,0.0020920793,-0.0022193037,0.018923188,0.019686101,0.0019297018,-0.013545583,0.029907923,0.0073042014,0.022693919,-0.02586458,-0.0056576147,0.0005657824,0.0072755055,0.0074383263,0.015836647,0.006084259,-0.039785374,0.005799635,-0.011879345,-0.0020666688,-0.0068148775,0.023901537,0.008529211,0.043924727,0.0324131,-0.018200614,0.020086896,0.0046195397,0.0056889337,0.01565813,-0.0031711143,-0.02765011,-0.04364018
