,0,1,2,3,4,5,6,7,8,9,10,11,12,13,14,15,16,17,18,19,20,21,22,23,24,25,26,27,28,29,30,31,32,33,34,35,36,37,38,39,40,41,42,43,44,45,46,47,48,49,50,51,52,53,54,55,56,57,58,59,60,61,62,63,64,65,66,67,68,69,70,71,72,73,74,75,76,77,78,79,80,81,82,83,84,85,86,87,88,89,90,91,92,93,94,95,96,97,98,99,100,101,102,103,104,105,106,107,108,109,110,111,112,113,114,115,116,117,118,119,120,121,122,123,124,125,126,127,128,129,130,131,132,133,134,135,136,137,138,139,140,141,142,143,144,145,146,147,148,149,150,151,152,153,154,155,156,157,158,159,160,161,162,163,164,165,166,167,168,169,170,171,172,173,174,175,176,177,178,179,180,181,182,183,184,185,186,187,188,189,190,191,192,193,194,195,196,197,198,199,200,201,202,203,204,205,206,207,208,209,210,211,212,213,214,215,216,217,218,219,220,221,222,223,224,225,226,227,228,229,230,231,232,233,234,235,236,237,238,239,240,241,242,243,244,245,246,247,248,249,250,251,252,253,254,255
0,-0.004193766,0.0050525595,0.0012093143,-0.017636733,-0.0020200373,0.030301811,0.024957903,0.02528412,-0.008114527,0.0020520864,0.006168523,0.009604658,0.008091825,-0.019189257,0.016384704,0.008348858,-0.004007272,0.018150581,-0.0036005974,-0.011351838,-0.0065153143,-0.0095231095,-0.013001744,-0.02932339,0.007476513,-0.0031707725,-0.014017761,-0.03349375,-0.008436865,-0.009775502,0.0030252745,0.0128268665,0.001240376,-0.004300675,0.000561088,-0.034805372,-0.005208101,-0.005473139,0.008325567,-0.015977375,-0.02708637,0.0048979893,-0.030233378,-0.0021702799,-0.0052639693,0.008044477,-0.012490713,0.029804058,-0.0010140352,-0.0016592183,-0.01748901,0.0019913788,-0.01896541,-0.0015177219,0.00022251942,-0.000729659,-0.007472875,-0.026170516,-0.003951158,0.019460479,0.0018878441,0.008098218,-0.013331196,0.0035931284,0.010573094,-0.0055656172,0.002197045,-0.0014777783,-0.024267398,-0.018760577,-0.0052964767,-0.01803699,0.0078432895,-0.020455478,-0.01957753,-0.011857014,-0.007297945,0.007373668,-0.0008194991,-0.0026901586,-0.00042180394,-0.021406991,0.0014200613,0.012397458,0.012027816,0.0059894966,-0.0035120167,-0.036477406,-0.004695893,0.024038333,-0.0013251528,0.0054325885,0.0015614473,0.010781124,-0.00511401,-0.0044567455,0.004987283,0.002387142,-0.010110624,-0.03908514,0.00031069966,-0.010202742,-0.011838599,0.0009408096,-0.0073646563,0.006656806,0.016068067,0.0033736164,-0.014788495,-0.016577715,0.01593546,0.014802905,0.0036667988,0.009634274,-0.010799184,-0.021748213,-0.02065868,-0.0018605455,-0.019034496,-0.0035015342,0.01580997,-0.0014520969,0.028849237,-0.008570832,-0.021393115,-0.009115362,0.012421877,0.0035330805,0.007935515,-0.0032948675,-0.0023739645,0.010085344,0.016225291,0.0050563477,-0.016578183,0.012457216,0.004468665,0.013416511,0.017416682,0.0010150566,-0.0047286362,-0.022761717,-0.0016552652,-0.0044672852,-0.03702912,0.0030807112,-0.016451389,0.020130312,0.013742395,-0.006616406,0.014847253,-0.003933002,-0.0045227446,0.008136551,-0.007633486,0.020322282,8.9151064e-05,-0.012857595,-0.01145461,0.046324167,0.00058460044,-0.013399985,-0.00077339966,-0.008325497,0.0067208093,-0.018226525,-0.0076511493,-0.017514413,0.0061743436,0.0061723385,-0.00026052544,-0.017901314,0.020846345,0.0037339597,0.002699047,-0.033018272,0.008947701,-0.010845469,7.175014e-05,0.0033324508,0.0098686265,0.012721086,-0.0024233474,0.0057637007,0.009636199,-0.021727508,0.014682897,0.010327583,0.0044792593,0.011447534,-0.009876923,-0.025822802,-0.004982143,0.005847741,0.008214541,-0.024539988,-0.01378578,0.021965876,0.011366495,0.00827999,-0.003600161,-0.0016215679,0.00066896447,0.01733357,-0.002823957,-0.014384132,0.01717956,0.008081629,-0.0075895865,-0.008114671,-0.0165984,0.0016782541,-0.012909452,0.018483281,-0.013250258,0.008375783,0.029153995,0.004018496,0.006144408,0.0058092284,-0.0106403865,-0.028308436,0.007085032,0.017204624,-0.00028778764,-0.020922069,-0.0137658855,-0.008270566,-0.008204219,0.02508957,0.002826165,0.009406662,-0.023968866,0.0074089607,0.0021659825,0.009697292,-0.024140317,-0.007118827,0.025324196,0.004920367,0.0058423886,0.014535068,-0.02531174,0.0051674633,0.021870852,0.0011195363,0.018278154,0.008279912,0.009254618,-0.006667027,0.0064131743,0.006724849,-0.027929503,-0.0029058652,0.0080538355,-0.029285856
1,0.014279376,0.0023003991,-0.0004337182,-0.0035096733,0.0024833875,0.006285659,-0.005519105,0.005480944,-0.011593809,-0.010535073,0.005096687,-0.030110873,0.013673261,-0.0038563968,-0.006781492,0.008698086,-0.009413756,-0.00043182884,-0.00088914775,-0.0153795015,-0.020693112,0.0052884957,-0.026419733,-0.015329379,-0.013309438,-0.015151134,-0.012631915,-0.011756154,0.0036765926,-0.00706521,-0.0040535848,-0.009174289,0.008966149,-0.0077114943,-0.0025861776,0.010272244,-0.009202296,-0.0029707213,0.016929664,-0.008073833,-0.0058218157,-0.003909926,-0.006613537,0.0042771595,0.004786481,-0.011773348,-0.011501067,-0.015599683,-0.0040935064,0.00037919008,-0.0090396665,-0.009863919,0.01437973,-0.0069391825,-0.008039654,-0.009345242,-0.019915307,-0.0074069435,0.015446616,-0.010909276,0.01189141,-0.011082163,-0.0047796243,-0.020505076,0.0052720676,0.011163628,-0.016708458,-0.01227058,-0.0040430813,-0.0028938286,-0.012667917,0.0022511485,0.008423637,-0.038795095,-0.010824215,0.028775873,0.007848635,0.0068223854,-0.0044339667,0.0005001297,-0.010692309,-0.011485026,0.007497124,-0.0210051,-0.01903019,0.017613536,0.023896294,-0.012171712,-0.010063333,-0.034722477,0.016683407,0.017563578,0.007948276,-0.0020241824,0.021244932,-0.027868127,-0.018286824,-0.012068648,-0.012743308,-0.018958984,-0.0041715405,0.0030093093,0.010062259,0.008609429,-0.009913814,0.011116108,-0.008058864,-0.011438171,0.0024765476,0.007672297,0.0030169524,0.0030603646,0.0069738366,0.009013486,-0.004386446,0.0054075993,-0.017878061,-0.005619687,-0.015141292,0.003416554,-0.009341056,-0.017353864,-0.0057633584,0.0048675276,0.019757647,-0.005320074,-0.0043755784,0.014577567,-0.011179535,0.012295217,-0.004292194,0.004876438,-0.003815387,0.0148201315,0.009015484,-0.0043041287,0.0005593884,0.0037074937,-0.010046857,0.018592456,0.004827576,0.0010617377,-0.0057592606,-0.013412821,-0.0045343116,-0.012680347,-0.008397981,0.035190605,-0.006260007,-0.018490639,-0.0015028261,0.0024866613,-0.009404091,-0.03781414,-0.005647266,-0.009961947,0.010209709,-0.0065295696,0.021337131,0.011056059,0.009778767,0.00071855535,-0.012011193,-0.026754308,0.008530976,0.011360969,-0.011494628,0.016408186,-0.016427128,-0.019763319,0.014480922,-0.015130887,0.012851568,-0.012279708,-0.008853088,-0.016198631,0.0006952904,-0.022545967,0.0020708113,-0.0005753459,-0.013529921,0.003403431,-0.00060193025,-0.025511328,-0.00418326,-0.017582458,-0.0018689982,-0.007647624,0.044239625,0.0010192172,-0.035589926,-0.0043308986,-0.0041544354,-0.004516395,0.00779032,-0.018278925,-0.0070195156,-0.012523116,-0.012685487,-0.02304659,-0.0032795065,0.0034506498,-0.0048830593,0.01566158,-0.0063458695,-0.025525313,-0.009665688,0.0032178327,-0.01129238,-0.012263635,-0.014398617,-0.0031439965,-0.0060981656,0.0016654107,-0.007270428,-0.0040161046,0.013140006,-6.642918e-05,-0.014508581,0.004670979,-0.020855265,-0.01948871,0.0070540267,-0.008103129,-0.0075358707,0.0048835715,-0.013488376,-0.017636945,-0.0017792184,0.0010601878,0.005248888,-0.012379932,-0.006633674,0.00096186716,-0.005477359,-0.018916005,-0.017483423,-0.0058022793,-0.00616763,-0.015709573,-0.007686628,-0.01671131,-0.012278149,-0.0019518662,-0.017852722,-0.04444458,0.011095279,-0.003262433,0.004075428,-0.012734406,-0.010889006,0.007104533,-0.027517563,0.006427617,-0.0033555257,-0.010010814
2,0.003153171,0.011937381,0.0063393526,0.0040277434,0.00045797482,0.012555985,0.006143103,0.0052930005,-0.014862586,-0.025298854,-0.008220831,-0.009032601,0.012711504,-0.004302392,0.006206788,0.0078335535,-0.015236574,0.0031592324,-0.030733453,-0.016079308,0.011894181,-0.0003390768,-0.012312277,-0.0073438995,0.014292831,-0.012633816,0.019010752,-0.015153059,0.0047079567,-0.014821826,0.040516183,0.008324905,-0.0037920652,-0.008104049,0.0062626046,-0.019386593,0.0015561417,-0.0043358216,0.010230827,0.014518337,0.0058177966,-0.0052135773,-0.026669662,0.0132735,-0.021029769,-0.021708312,0.00018077406,-0.048729096,0.012124289,-0.020660669,-0.0024510573,0.01233928,-0.017919201,0.00012328367,-0.0026776614,-0.004309915,-0.02590107,0.0040855617,-0.003042439,-0.0035151648,-0.025865542,0.011447279,-0.020528497,-0.006244846,0.015694255,0.008134899,0.02469892,-0.011265306,0.0055031255,0.0092812665,-0.007510707,0.008679765,0.00036169807,-0.041827876,0.003779117,0.035803262,0.020002509,0.009126086,-0.0020390667,-0.0006500553,0.0045083407,-0.009071824,0.010200264,0.007651372,0.032654632,0.008768106,0.005408694,-0.002759284,-0.011133232,-0.032241665,-0.010083195,0.015211425,0.0017491244,0.015870694,0.014091646,-0.012236042,-0.0056969067,-0.020474467,0.0110106515,-0.028832786,0.0017924554,0.009960403,0.01223108,0.018229976,0.014047828,-0.007855576,-0.0031914501,-0.011480955,-0.021349248,-0.007948494,0.012078751,-0.0033486316,0.030642815,-0.0120726535,0.010494394,0.00062392803,-0.0069544343,0.032644294,-0.023388004,0.0011384358,0.0143367825,0.004709048,-0.0051936437,0.014993961,-0.012411673,0.005121405,-0.0077479803,-0.013310939,-0.014573282,0.00652572,-0.005555267,-0.00018618228,0.013036445,0.030457001,0.0007731526,-0.006010164,0.005309595,-0.021993976,0.0007508907,-0.0123238815,-0.0037411072,-0.012995356,0.015079246,0.014573545,0.0039560543,-0.0033613981,-0.002458863,0.022370774,-0.0026579392,-0.020861989,0.006336706,0.006856385,-0.012322564,-0.03328416,-0.012945677,0.009273037,-0.006659856,-0.0033438243,0.015552741,-0.018599615,0.00604029,-0.01030319,0.011792669,-0.008646884,0.02540602,0.0001049443,0.012653157,0.0114857,-0.020050945,-0.03495041,0.016390635,-0.023977911,-0.003361207,0.0012870993,0.0034085948,0.008573416,0.011165763,-0.023284929,0.015172997,0.0149910245,-0.01027656,0.018427929,0.0050683543,-0.0016282373,-0.010608409,-0.023810875,-0.006383148,0.01608624,0.03762775,0.01240552,-0.02439114,0.012618661,-0.0050722524,-0.0008918444,0.02155564,-0.009392814,-0.012529914,0.0123329675,0.012761918,-0.0008197235,-0.021410612,-0.019360598,0.0045497897,0.008338677,0.02792498,-0.016831005,-0.011174656,-0.0074398145,-0.0021582795,0.00904211,0.0038153708,-0.005772295,-0.00444199,-0.006871562,-0.019101232,-0.0070495233,-0.014976172,0.0034911195,-0.007307072,0.01321621,-0.023634348,-0.02778378,0.011572371,0.008624751,-0.017671485,0.0011290573,0.009075985,-0.0027502535,-0.00079018506,-0.0068277065,0.0038339088,-0.0048197163,5.281131e-05,-0.011382413,0.011912594,0.022281462,-0.035260566,0.009445563,-0.013965258,-0.0049340986,0.0059428876,-0.015870266,-0.010451109,-0.0030516225,-0.02998036,-0.04569943,0.01850463,-0.015549259,0.019153599,-0.012892685,0.007578175,0.01928571,-0.0025526278,0.032069318,-0.00950395,0.013577408
3,-0.0100183515,-0.0008622912,-0.0044713467,-0.006962689,0.0023655212,0.00406216,-0.012528449,-0.0067215287,0.0008395436,-0.0037758574,0.010510157,0.00044334884,0.009594428,-0.0010011425,0.019669916,0.0057492186,0.01239935,-0.009753191,0.022213524,0.00057984795,-0.0090862885,-0.015397958,-0.0038688742,-0.0017410268,-0.0069183805,-0.014476639,-0.0075058904,0.025005069,-0.0008875954,0.019102033,-0.014563405,-0.030455211,-0.0009010586,-0.018461285,-0.009793478,0.022290818,0.017621582,0.0006361647,-0.011145693,-0.0016756527,-0.007188173,-0.0015014873,0.032013875,-0.010950751,0.028050182,0.0003709393,0.010954513,0.0076342127,-0.013262672,0.0013849451,-0.006667502,0.010430032,-0.0012785135,-0.015531694,0.0020977757,0.0069068978,-0.0064399345,0.0038639877,-0.02880149,0.020815993,-0.0032020204,0.008278346,0.03949785,-0.006461507,0.003723017,0.015791053,0.021449253,-0.0031764836,-0.008408639,-0.00020064363,0.0039479895,-0.021224907,0.009465738,0.014211989,-0.0028139765,0.011036535,-0.0028069043,0.004114801,0.0086630825,0.003140568,-0.0009150231,0.004251006,0.0024866764,0.019838711,-0.008755203,-0.008622246,0.027089622,-0.020538358,-0.017314913,0.027286524,-0.0073162927,-0.0065623824,-0.008157143,-0.001108058,-0.0061017773,-0.0026892803,-0.010181204,-0.0036178373,-0.00556982,0.0011763427,-0.0086843325,-0.0144282235,0.01784143,0.023124762,-0.0043221307,0.0035958171,-0.0054290374,0.044441015,0.024694348,-0.006105468,-0.004265574,0.002272655,-0.008685681,0.016675793,-0.011387816,-0.008077591,0.006066782,-0.0112668965,0.034946006,-0.01000157,0.0065235794,0.0019020971,-0.022650583,0.0012042462,0.023970388,-0.021117084,-0.0047501903,-0.0032074642,0.017624196,0.024962943,-0.0018054658,-0.008405119,0.00036988663,0.010268957,0.00781838,-0.00341993,0.00036461404,-0.00042859477,-0.016715646,0.0008306444,0.02365146,0.017292181,-0.02138114,0.0039329263,0.012786342,-0.008504477,-0.001426148,0.038261488,0.0007964233,-0.0013495226,0.0054990435,0.028830059,-0.012418522,-0.00086119847,0.0065067816,-0.0073474604,0.010088898,0.034956813,-0.0049381666,-0.030653303,0.0069817267,0.0002812708,-0.032367136,-0.02860892,0.014046961,-0.0016558315,0.011132044,0.017244479,0.009450372,0.042421423,0.023782983,-0.011710968,0.00524017,-0.021118954,-0.006413251,-0.0012011079,-0.011517824,0.032727327,-0.0076868725,-0.0018205206,0.0027177073,-0.008504178,-0.0071251523,0.035171222,0.0049759066,-0.009507193,-0.013527513,-0.020697324,0.0027778551,-0.0021614463,0.03986457,0.004331995,-0.0020052083,-0.0013176796,0.010180236,0.03182878,-0.0009959077,0.009768709,-0.0033336587,0.009738083,0.011416362,0.0045886864,0.032536987,0.012752329,0.0047971313,-0.013551713,0.0035905833,-0.0016659502,-0.00438157,-0.018886885,-0.016366117,0.01071922,0.023475211,0.015766324,0.0077703055,0.004691034,0.020569319,0.0123085035,-0.011044227,0.014738876,0.04402119,0.0012341995,-0.009089908,0.026323006,-0.026200227,-0.014886725,-0.0026211347,0.014436276,0.02404956,-0.009017016,-0.019257672,-0.010206882,0.013403733,0.039064843,0.004076017,0.01755166,0.015554847,-0.010369392,0.013974201,0.00086192286,0.0092619425,-0.020023363,0.010729304,-0.006988218,0.04920285,-0.007999907,0.005810211,-0.0043552932,0.013188332,0.03942547,-0.0027468135,-0.006185621,0.021321112,-0.01875853,-0.007779673,0.011204696
4,-0.011220743,0.0031716267,-0.0033876228,-0.023549894,-0.018397454,0.010235634,0.01042613,0.023339255,0.015585247,0.015604973,0.008398267,0.019568695,0.03447589,-0.007925173,0.018787958,-0.003429816,-0.0019818104,0.05343813,0.021579921,-0.02386814,-0.00016768629,-0.021184733,-0.010225307,-0.008814757,0.019715916,0.007674671,-0.020431101,-0.012350413,0.002290861,-0.011314065,0.0100497445,0.0059072874,-0.041416403,-0.01348359,0.03432663,-0.025310567,0.023631455,0.014660358,0.02759183,-0.004578994,-0.026676835,-0.00025715277,-0.023519581,0.010737706,-0.016260795,-0.014340923,0.02829973,-0.022308303,0.0012436386,0.015153763,-0.0086407745,-0.018491868,-0.01178614,-0.02682366,-0.0055676852,0.022494651,-0.038889933,0.005663955,-0.028480621,0.031238321,-0.006788272,0.00321545,-0.008900416,0.010561405,0.032426264,-0.04292461,0.022966385,-0.016113402,-0.011097199,0.017977402,-0.016621979,-0.008197297,0.02284261,-0.012863438,0.002744635,-0.03248371,-0.022984425,-0.021924453,9.256768e-05,0.0058758943,-0.008030735,0.0150668835,0.01404944,0.007460397,0.021057151,0.0052464767,-0.012522005,-0.0071595423,-0.026835438,-0.002662709,-0.017304186,-0.015117285,-0.020277176,-0.0017113362,0.027050488,-0.016343907,0.03307167,-0.007991165,-0.002600886,-0.03828462,0.025370575,0.0026750711,0.015743885,-0.0026885744,-0.02525058,-0.014494013,0.02587875,0.033335894,0.023728613,-0.0049963794,-0.015485396,0.011690961,0.026671302,0.014060496,-0.003749174,-0.01685315,-0.039755452,-0.04358082,-0.034027617,-0.011174756,0.033320475,-0.009015607,0.010009208,-0.010470647,0.009630112,-0.012711073,-0.008377139,-0.033741057,0.034984324,-0.038560584,0.0125029795,-0.012550736,0.037383843,0.028141975,-0.0066387644,0.022766257,0.023244176,0.0013500941,0.019182086,-0.0024175134,0.00080560293,-0.015214837,-0.0144047225,0.020229457,-0.04327712,-0.004194758,0.028435765,0.020382999,0.0021421225,-0.018717993,0.004397934,-0.0032118377,-0.013539007,-0.028896993,0.010078625,0.026804503,0.012698362,0.02550202,-0.027120223,-0.0062276423,0.015546424,-0.027923279,0.03200403,-0.002078346,0.020681875,-0.04110066,0.005294664,-0.012227191,-0.016470559,0.01289181,-0.0037239646,0.017401284,0.01229131,0.0066253855,-0.009073451,-0.008022083,0.015177638,-0.023915075,0.025271498,-0.0026095358,0.016145648,0.002948703,0.018741515,0.012568791,0.02026945,-0.020075412,-0.035788946,-3.679352e-06,-0.055083405,0.02187448,-0.004102248,0.015123815,-0.005931073,-0.015954671,0.03036164,0.013497175,-0.023621205,-0.0012450233,-0.010087908,0.038115922,-0.0039424743,-0.02471984,0.0013057817,0.0015326672,0.01805027,-0.04380362,0.0053341817,0.0013099329,-0.023516979,-0.065716304,0.00056077505,-0.016430166,-0.008770162,-0.008050591,-0.05044235,0.0068856645,-0.006434714,-0.027109185,0.015539941,-0.029661028,0.029732581,-0.022270776,-0.022946887,0.014587607,0.016699389,-0.010114233,-0.004867328,-0.006319483,0.004416256,0.0048237215,-0.028744904,0.014226722,-0.014351693,0.0072367564,0.0053002276,0.019953934,0.022808226,-0.009110366,0.020858107,0.008592968,0.02027361,0.005396464,0.0027703147,0.015768468,-0.018941332,-0.005956773,-0.00031743004,0.0015733595,0.01920193,-0.0022445908,-0.0052317563,0.007860779,0.0052199787,0.0322539,-0.015620272,-0.0005316259
5,-0.037311256,-0.0054943506,-0.0015304415,-0.027723914,-0.00086332415,0.0064067263,0.00578891,-0.011496237,0.009630891,-0.0024637715,0.035032034,0.0051313,0.020010434,0.0034407382,0.001728685,-0.003439491,0.00633274,0.022788316,-0.01532743,-0.004485088,0.007909735,-0.021381162,0.0124553135,-0.0036613117,0.017952811,-0.011225169,0.0021696328,-0.026132349,-0.004323222,-0.004700135,0.024882386,-0.0066500525,-0.015048767,-0.012878087,0.0083285365,0.021938095,0.01439565,-0.006988898,0.03673492,0.0025177607,0.007724341,-0.04095916,0.010057369,-0.002112027,-0.0062594595,-0.008136465,0.00017648656,0.006903864,0.0037407875,0.003056532,-0.016966935,0.0009930412,-0.015217175,-0.0030059388,0.02115006,-0.0011139916,-0.0100084385,0.0032805584,-0.00790008,0.012970752,-0.019249702,-0.00086137594,0.003353848,0.0054853885,0.0142964935,-0.027497422,0.018200368,-0.0026241678,-0.0019144126,-0.005532912,0.007938279,-0.00212499,-0.0043682163,0.005190547,-0.005377078,-0.036823943,-0.0067254943,-0.0074985963,0.03860052,0.0028420053,-0.014541141,0.023824496,-0.004046949,0.02449795,-0.0045860056,0.0021886893,-0.0013719021,-0.02011125,-0.008571564,-8.148922e-05,-0.0029739265,0.0014130877,-0.030919597,-0.002394171,-0.002274717,0.002586315,0.0018689475,-0.005966151,-0.00020502687,0.02263504,-0.012805293,-0.015171489,0.008118696,0.01631958,-0.0070797266,-0.008989851,-0.0011074829,0.029151091,0.0059569553,0.011885575,0.0053390656,-0.010129235,0.0017378669,0.00076052366,-0.003175289,-0.02278302,-0.017342538,-0.00012358766,-0.0011995101,0.005700916,0.01023172,-0.01835423,-0.013657089,-0.0034571704,-0.047261726,0.0030459554,0.024176933,0.0055571673,0.013888376,-0.0149322,0.0012270063,-0.008709317,-0.022333883,0.0013875237,-0.007753353,-0.0023108674,-0.008043445,0.002602685,0.009966749,-0.0060129026,0.014647232,-0.0058278074,0.015650565,0.031897217,0.018707896,-0.0075868047,0.004405004,0.007925049,-0.012584016,-0.026628686,0.014725921,0.005534576,-0.013950648,0.004590006,0.0066722455,0.008489603,0.012692769,0.02588348,0.020491669,-0.0068572694,0.008155638,-0.007867719,0.00865725,0.0032803055,0.016595542,-0.0023670718,-0.012630743,0.0070868814,0.016494004,0.0012731523,-0.0038610017,-0.03426319,-0.007675541,0.0025356228,-0.0013888943,0.00095798506,-0.010225404,0.021464042,0.001826917,-0.0063454974,0.018907106,0.0051281415,0.001540991,0.00814402,-0.004241354,0.014558714,-0.01174547,-0.012074768,-0.0018826711,-0.0104768295,0.02089114,-0.008240536,0.01782091,-0.016715234,0.00349987,0.0056843995,-0.0032884802,-0.0281054,-0.0027404663,0.03490661,0.008419469,0.009202187,-0.016751979,0.0016033464,-0.019780098,0.0040581836,-0.015464685,0.0029319392,0.0035185746,-0.011661176,0.020909643,-0.0071743894,0.015842525,0.012846759,-0.03017554,-0.011657747,0.031873126,-0.0032907883,-0.015748098,0.001157313,0.025215128,-0.0014774774,-0.01858205,0.010454139,-0.0015174022,0.0058550676,0.0036051637,0.04175835,0.020104999,-0.005871337,0.005813443,0.014160125,-0.014997259,0.0064282296,-0.023951808,0.0010175385,0.0077563096,-0.031146541,0.011523378,0.00045882317,-0.007202426,-0.0065639704,0.0008009007,-0.015258164,0.0023580743,0.014876159,-0.006731723,-0.0197945,0.034927476,0.018683607,0.02632151,-0.00041411145,0.009515629,0.0022362687,0.0005358587,-0.0043320926
6,0.0026478253,0.004313161,-0.01524369,-0.010609683,0.010471516,-0.009066508,-0.0013147013,-0.010904529,0.014342234,0.009543372,-0.017904522,0.011677791,0.011481004,-0.03767723,-0.011912312,-0.018761277,0.0096795,0.008430776,-0.039944384,0.024020532,-0.013610541,0.029654384,-0.01019285,-0.007361802,-0.0073662894,-0.005221603,0.028789649,-0.05940391,0.00014707645,0.0017270547,0.0018600181,-0.006757308,0.0124552585,0.017671932,0.015930802,-0.0022819198,-0.00010671008,-0.0032953727,-0.0026991921,0.0005177367,0.026923683,-0.017027458,-0.024071684,0.009932319,0.0028479043,-0.0021691727,-0.0020308767,-0.040288728,-0.0033875066,-0.005474779,-0.03880165,-0.0040599746,0.005388594,-0.004761856,0.008794841,-0.014636919,-0.006971402,0.009607392,-0.021843294,0.02575592,0.02013281,-0.00280102,0.016289726,0.031032003,0.0136663625,-0.026488872,0.014335914,-0.0019023437,0.040895898,-0.026049176,-0.0041392744,-0.014555478,-0.03825538,0.01529886,0.003339782,-0.026087942,-0.0027556068,-0.0060094753,-0.0029873173,-0.014903057,-0.0052664494,0.0037346783,-0.0018272329,0.0007537286,-0.013695433,-0.013251999,-0.03631193,0.017424203,0.025603525,0.016155478,-0.04217105,-0.014928701,-0.0004855259,-0.0036072126,0.019628845,-0.00090375176,0.04535067,-0.0051936447,-0.00025265838,-0.02179252,-0.00418034,-0.017999183,-0.021210453,-0.00905571,0.0052449126,0.0037050608,-0.01962115,-0.0061562685,0.022806687,-0.0011561611,-0.016592467,-0.03919284,0.0036395844,-0.024768598,-0.018586708,-0.006568492,-0.02069908,-0.0052552493,-0.011077238,0.00016791468,0.015333393,0.02471288,-0.019196205,0.0018367667,0.0076570716,-0.0013854278,-0.01412849,-0.0017284376,0.008783941,-0.03113077,-0.006393377,0.024470465,0.039574523,0.019374708,-0.014512869,-0.005837874,0.013676693,0.014014347,-0.010111234,-0.023382153,0.002408766,-0.013639483,-0.0043415204,0.022124395,0.02982942,-0.0006527397,-0.013945204,-0.016018089,0.0017653544,-0.001280422,-0.0029406892,0.02205311,0.0171473,0.031422976,0.00640048,-0.009217832,-0.0029728808,0.029924346,0.006566118,0.023078904,0.0012217677,-0.007206848,-0.014378488,-0.01651639,0.016209707,-0.013037167,-0.022485243,-0.017771507,0.0050200713,-0.046619467,0.013932215,0.02888482,-0.030066224,0.04404017,0.0052771787,0.004195966,0.003214612,0.022972932,0.01249771,0.02305051,-0.0018731081,-0.009371848,0.019261353,0.0031424141,-0.016201064,0.020184735,-0.010096899,-0.026545567,0.025375297,-0.03714327,0.025475398,-0.016545068,0.002206546,-0.008809957,-0.001396622,0.021081867,0.0054338668,-0.014621105,0.008421477,0.015385019,-0.016257599,-0.009206768,0.0045822295,0.0068738926,0.007845359,0.0083830375,0.029721202,-0.0019873718,-0.011743163,0.03131286,0.00053610164,-0.022130797,-0.009057681,-0.012387912,0.022948135,-0.011255665,0.0025533668,-0.022145486,0.010260321,-0.022104798,0.03605304,-0.006028322,-0.0023379682,-0.009263321,-0.00071824354,-0.014245313,-0.006563323,0.00970654,-0.024752177,-0.0059636952,-0.0055095362,0.022289108,0.005530559,-0.04871044,-0.042155802,-0.0020640478,-0.053298943,0.015947353,0.019780817,0.009339674,0.016102042,0.008022996,-0.010755999,7.4675504e-06,-0.009204574,0.021964332,-0.002119866,-0.0031969836,0.027408287,0.014998031,0.024216479,-0.0037442928,0.023191823,-0.0047814986,0.0001439661,-0.008950502
7,-0.025138276,-0.0021489563,0.018236365,-0.019689288,0.01527668,0.0111708855,0.0026137482,-0.0012735933,0.014374554,0.0041852063,-0.007834403,-0.0021992808,-0.0055449144,-0.008401121,-0.009035794,0.0041473564,-0.002709494,-0.0021043033,0.013293142,-0.010853079,0.013181217,-0.004983807,-0.0073763058,-0.011025943,-0.0075524026,0.011119546,0.013250826,-0.004064528,0.00038186501,-0.01335962,-0.005515208,-0.0061271084,0.03787335,-0.0077261105,0.016523829,-0.01290139,-0.01824241,-0.0050311578,0.0066170227,0.012428268,-0.005267133,-0.011822475,0.0050169183,0.031512726,0.0028885119,0.01912353,0.0065860287,0.0027828263,-0.005529965,-0.0017938669,-0.0013951776,-0.014459819,0.0048067807,-0.012535483,0.001013981,-0.00972861,-0.021117853,-0.0041085323,0.00072610425,-0.0052166777,-0.008436132,0.0085613355,-0.010180784,-0.0015990501,0.0063681514,0.004310222,0.018025884,-0.01422645,-0.007870663,-0.0046897917,0.007106595,-0.0073270565,0.011345583,-0.04394389,-0.00403135,0.008578188,0.011529544,0.018139532,-0.001422876,0.0030031763,-0.014906464,-0.008947883,0.02832551,-0.004588443,0.005175405,-0.001370386,0.01601472,-0.012951646,-0.008391703,-0.015625814,-0.0044975253,0.0052415994,-0.0005556917,-0.00016009006,0.018353164,-0.015376931,-0.015104174,0.041494157,0.0053774836,-0.0018553279,-0.010087554,0.0066008708,0.022070501,-0.00660897,0.006530743,-0.004253416,-0.021321636,-0.006433862,-0.009716394,-0.0047504795,0.006990603,-0.004444027,-0.0089272605,0.0022449468,-0.011193943,0.023016777,-0.0056478647,-0.005278273,-0.0059615397,-0.0016646769,-0.00614498,-0.022563681,-0.012303378,7.0860726e-05,0.004805608,-0.012440037,0.0012279224,-0.013668741,-0.00565206,0.019664645,0.011245656,-0.0014785472,0.003120326,0.0031066053,0.0004953243,0.004200574,0.005495037,-0.011683451,0.004360281,0.00893317,-0.0018792043,-0.008036362,0.006567869,0.00020396773,0.0067394003,-0.0065444484,-0.0022589841,0.0039784065,0.011513383,-0.02243664,-0.01549795,0.011340297,-0.013093507,-0.026558975,-0.015573594,0.0036228013,0.008037493,0.04419636,0.03668557,-0.00788181,0.008504731,-0.0136035625,-0.020306729,-0.016366629,0.0014167959,-0.0044738287,0.015309355,0.0141074145,0.0014239858,-0.028875249,0.019154197,0.01033981,-0.0071285604,0.014812319,-0.0033763025,-0.016433384,0.016082639,-0.01913031,-0.01170945,0.0060385573,0.0014933645,0.01596615,0.0053250813,-0.00302247,0.0018471844,-0.01117973,-0.0036801104,-0.0049024615,0.014849385,0.00012259242,-0.005071527,0.008949447,-0.004108301,0.017484156,0.011818792,-0.009281658,0.00453519,-0.021317562,-0.005751315,0.003951627,0.005682787,-0.00773858,-0.0061124656,0.0047773602,-0.024944648,-0.020980375,-0.0017101999,0.015235598,-0.004838159,-0.01726181,-0.003932431,-0.0042350213,-0.008399574,-0.0051853796,-0.009237596,-0.015309093,0.009971215,-0.015938776,-0.0010269125,0.003709859,0.0016225318,-0.02033242,0.011066864,0.01552877,-0.023266146,-0.0032589023,-0.00867141,0.0032621613,-0.0015462962,0.0011585398,-0.0060572056,0.0067947023,-0.005414195,0.010340624,-0.0003847307,0.0071239895,-0.034652665,-0.0054563107,-0.00041648146,-0.010963585,-0.0034462386,-0.0019939896,0.016595189,0.008583773,0.0021341858,-0.00918275,-0.014098542,-0.008400218,0.008445367,0.016998176,-0.017919624,0.023687225,-0.0093093645,0.0004458922,0.0037383875,0.00605559
8,0.0003262809,-0.0021496823,0.0011719998,0.0072283684,0.024244016,-0.016957143,-0.01506329,-0.009025387,-0.0062826285,-0.01414651,0.018922051,-0.002639059,0.0027730977,0.012783947,-0.004128307,0.011175745,0.0046266555,0.007676774,0.006400446,0.01611808,-0.00015131547,-0.014121487,-0.012051119,0.003764451,0.0030397868,-0.023980567,-0.007873924,0.006194273,0.010399768,0.014137837,0.01734464,-0.0059395637,0.00014440723,-0.0024432214,-0.0119057,-0.011990882,0.007232835,0.015664963,-2.5957692e-05,-0.0168378,0.010604018,0.008173706,0.006012577,-0.0038021982,0.017762525,-0.0013448684,0.011896543,0.011388395,-0.0030832598,0.00022270536,0.017350163,-0.0022592484,0.01971775,0.001038064,-0.007618499,-0.010343711,-0.016590388,-0.0039639384,-0.017707402,0.012930832,-0.014350732,0.008959924,0.016949872,0.0039221616,0.005962054,0.0019025716,0.013710193,-0.005877009,0.006103177,-0.009924814,6.6206536e-05,-0.004416231,0.009825963,0.0037057146,0.0074590533,0.01667875,-0.01036994,0.005475269,0.009314498,0.010220361,-0.0023521592,0.011527285,0.00156585,0.02458169,0.008423341,0.013636809,0.00035864298,0.0035564995,-0.0017453352,-0.0062930016,0.019900132,-0.0029807396,-0.003812791,-0.008744056,0.004405291,-0.010333918,-0.005513346,0.0025450701,0.012456699,-0.00836054,0.013858083,-0.0068202023,0.010841682,0.026549496,-0.01345518,0.002911241,-0.0016246986,0.018404096,0.029618653,0.012323982,-0.0003255673,0.003530844,0.011974489,-0.0058330907,-0.0010755628,-0.014811226,-0.0018972359,0.00515263,0.0076585063,0.003138572,-0.005762642,0.023827877,-0.0094585875,-0.0063166744,0.01215485,-0.015665099,0.024893032,-0.0018566748,-0.0011232501,-0.009259958,0.004577191,0.0016398482,-0.013794159,-0.007822453,0.0048955195,0.00017474686,0.010222629,0.0031880408,-0.0025466236,-0.010826775,0.001337751,-0.0008519794,0.0019856703,0.012515846,0.01231853,-0.023183556,-0.003904884,0.014006093,0.0038821285,-0.0057659224,0.00019738055,0.013401761,-0.008492168,-0.014099918,0.019763498,-0.014513622,-0.0026071894,0.015636893,-0.0008636995,0.0066624116,-0.014608475,0.013730224,0.010181404,0.017602198,0.009218064,-0.0011022645,0.007484979,0.009745886,0.031809382,-0.0013787443,-0.0122593185,-0.012936369,-0.0009966465,0.0019502062,0.006472387,0.012637232,0.00094100944,0.00906606,0.006503384,0.006343454,0.016253049,-0.0006959984,-0.01793538,0.012210865,0.0016821438,0.01762631,0.0065201605,-0.018621407,0.010989274,0.0049371133,-0.0012988449,0.02133639,0.02615302,-0.01289301,0.0012194148,0.017581552,-0.015475938,0.028277954,0.019492472,0.0055092634,-0.013936274,-0.004203713,-0.014519758,0.01466995,-0.00691041,-5.220466e-05,0.008106603,-0.0057111885,0.00446824,0.010892138,-0.0012133106,0.002492248,0.02153514,0.015376777,0.025692586,0.010652746,0.0126652615,-0.0023781573,-0.0064806542,0.010693684,0.023211524,-0.003624289,0.00572266,0.007165002,-0.006534417,0.016368348,0.007417573,0.036583446,0.026481848,0.006851628,-0.0020648679,0.0037729875,-0.013738503,-0.036495022,0.036657967,-0.00592301,0.00772241,-0.0056718457,0.0020577325,0.010146547,0.00091209274,-0.0018947744,-0.00023932313,0.005066348,-0.0003329051,-0.008952634,0.0024960365,0.011054077,0.0023232102,-0.008960459,0.011052695,-0.009516633,0.015498276,-0.016813297,-0.021851271,-0.00011123059
9,-0.000992431,-0.006552136,0.022551358,0.009312635,-0.008749796,0.0055325683,0.017442232,-0.007943523,0.009855528,0.014491191,0.03273078,0.0077322,0.01665356,0.0042990064,-0.011086051,-0.004964799,0.017983131,-0.01348503,-0.0046788095,0.015368366,0.00043691858,-0.02463476,-0.0102344835,-0.0031790475,0.018898373,0.0015389256,-0.008081449,0.012948119,-0.014334467,-0.0078045493,-0.01602078,-0.019334503,0.0020797823,-0.011138645,0.01203083,0.002448051,0.011029553,-0.0046467436,0.011690047,-0.0032983234,0.011235115,-0.004042412,0.004581159,-0.02032757,0.011405473,0.0017129055,0.01048027,0.0004987124,0.0015894979,0.00075920386,0.020645667,0.0076084174,-0.0021958495,-0.0029230772,-0.019404897,0.011431903,-1.6463295e-05,0.0051567564,-0.015522854,0.005786168,0.029587872,0.029239971,-0.008407356,0.016195133,0.014332125,-0.009395857,-0.008348093,0.018373081,-0.0040816753,-0.01710906,0.0061215935,0.0011554623,0.012086595,-0.011133902,-0.011985839,-0.008737595,-0.015476955,0.0071496447,-0.0024790836,-0.01279925,0.00237592,-0.002588186,0.007961049,0.026346358,0.011490616,-0.006009068,-0.011650227,0.009022876,0.0018708938,0.013564909,-0.014541878,0.0016177734,0.014585475,0.010734356,-0.008687582,0.03495474,-0.005661821,0.027163127,-0.0072638467,0.0012239934,0.0026762635,-0.00571375,-0.0038231732,-0.01957303,0.01110582,0.004154186,0.0075793555,0.004678118,0.008848046,0.0045285034,0.014545416,-0.0018898847,0.0064218976,0.00993819,0.005012684,0.0017737531,-0.0057939533,0.0035855155,0.016936686,-0.004647926,-0.008166732,0.0009885153,-0.012347418,0.013321812,0.0037111195,-0.0055037034,-0.009006812,-0.0030919316,0.001302402,0.003993544,0.010838571,0.004472826,-0.0015959663,0.009568594,-0.0060784062,0.00052115746,0.00903637,-0.0023257337,0.015544239,0.015871955,-0.015951008,-0.017498692,0.010074789,0.018103993,0.00043139633,0.010130689,-0.008004573,-0.012916394,0.025155134,0.0011219506,0.0028820208,-0.019473393,0.0025472206,0.009275626,0.00076517,-0.0029039779,0.0013330497,0.0049197352,-0.0048609297,0.006670873,0.0047790054,0.007988126,-8.298925e-05,-0.0021328768,0.019421011,0.0077919867,0.0019059926,-0.02885599,0.015942156,0.009919607,0.0062528513,0.006930245,-0.003614618,0.008751303,-0.0061086155,-0.00020380138,-0.007523041,0.0006185871,0.0028313487,-0.012605491,0.004884927,0.0010131752,0.012768549,0.01298306,0.0104539525,0.009313705,-0.004943166,0.011584163,0.009708775,-0.0056385323,0.0137325935,-0.013866402,-0.014860784,0.011723446,-0.020293487,-0.01619371,-0.012147238,0.008641583,0.00607273,0.016514173,0.009258389,0.0009543306,-0.000930479,-0.0063474,0.0056981244,0.013739393,-0.011273216,-0.0020611833,-0.00038643065,-0.011707805,0.006638267,-0.006877142,0.010723411,-0.0155147,0.0058557265,0.0010188014,0.007296203,-0.017460361,0.022269353,0.003406769,0.0030104828,0.0021098775,-0.009763261,0.0060192174,-0.013728509,-0.002050013,-0.0064103487,0.0003337878,-0.0013583195,-0.028917894,0.003269327,0.027155502,0.007821671,-0.021384986,-0.01574393,0.001159631,-0.012632367,0.0033812881,0.004722618,0.0077455007,-0.009455524,0.0034200635,0.005709046,0.00040692123,0.007235138,0.0022548249,-0.0030924538,0.02666788,0.0066982997,0.0055149943,-0.013221204,-0.0078122434,0.012785539,0.013207593,0.014310742,-0.002679904
10,-0.0035381168,0.014312617,0.0053333896,-0.019002745,0.017111788,0.023768269,0.030676387,0.0025416722,-0.005544147,-0.021104624,-0.050607726,-0.017192096,-0.010741507,-0.01849252,0.012744999,0.0066943127,-0.0078199245,0.014190725,0.021222917,-0.020280628,-0.019663615,0.005540662,-0.012257878,-0.023163892,0.03830923,0.04062675,0.008094068,-0.006523045,-0.018830169,-0.032587674,-0.006222932,0.003790012,0.003311667,0.005351752,-0.0054574218,-0.022169467,0.009913749,-0.016070537,-0.004953543,-0.00805874,0.0024316031,-0.0147364205,-0.016515808,0.019153921,-0.03040527,-0.029113546,0.015736677,-0.004181504,-0.005872044,-0.0070376834,-0.009027727,-0.0193636,-0.010911436,-0.024205273,-0.011537251,-0.007866668,-0.05046709,-0.006380404,-0.02444104,-0.009705459,-0.0123338085,0.024913708,-0.012822827,-0.008933712,0.011830821,0.00040549878,0.021752112,-0.006859895,-0.0041452767,0.011108448,0.0090815,-0.012474099,-0.0025806266,-0.036166158,0.0012540857,0.0060338336,0.00025871093,0.019693524,-0.045716427,-0.0003577213,0.018048493,-0.0044422685,0.00872518,-0.023600876,0.0029180024,0.017675862,0.0030190183,-0.0019846968,-0.0077845315,-0.035176437,-0.018446177,0.017847305,0.012855662,0.0062746233,0.016084874,0.0040693767,-0.010513945,0.005876341,0.013119569,-0.025161354,-0.009875928,-0.018015387,-0.00033168838,0.030588334,0.011769161,-0.0045296415,-0.013953606,0.00094172405,-0.00046891754,-0.037569396,0.034773204,-0.0006845626,0.018955545,0.0046085683,-0.023658317,-0.022997154,-0.025364298,-0.022657765,-0.012858352,-0.0113897575,0.029034954,-0.0080042165,-0.014976263,0.015212973,-0.019772131,-0.017732577,-0.014297303,-0.010538219,-0.0038601486,0.025659045,0.02465152,0.009966463,0.009676937,0.017487098,-0.003704605,0.012122913,0.01634931,-0.01941407,-0.013303865,0.001335607,0.0019135345,-0.014513468,0.02608946,0.0075619956,8.093284e-05,0.006525641,-0.00085986214,0.024659583,0.0031293787,-0.020078903,-0.006951854,-0.010814752,-0.01904901,-0.02810431,-0.010470804,-0.0074313455,-0.009768844,0.0065058437,0.00031053898,0.0032098363,0.024381842,-0.025166892,-0.022069082,-0.008265263,0.03618489,0.017315784,-0.0023548808,-0.010083974,-0.00319265,-0.004585184,-0.0040982133,-0.0054747886,-0.0039755143,0.005798313,-0.00941848,0.00035426288,0.0064482144,-0.030111995,-0.016368277,0.0012581155,-0.00037728477,0.0041110157,-0.005878731,0.0032089038,0.010936822,-0.034242798,-0.0076714996,0.020823503,0.06399951,-0.017558996,0.008765987,-0.0044573247,-0.021917515,-0.012545829,0.0044200285,-0.0321322,-0.016861122,-0.003264088,-0.0015314457,-0.011637801,0.00085828017,-0.042253137,0.004335116,-0.003854919,0.027412253,-0.0067429007,-0.016017959,0.004917859,-0.01765086,-0.010767931,0.014721099,-0.006991324,-0.01799637,-0.027526978,-0.014131356,0.0036930626,-0.0062094396,0.007806873,-0.011381323,-0.02294645,-0.022844005,-0.0043023867,0.0009432573,0.017958982,-0.020877825,-0.0011144023,-0.010436285,-0.0018176875,0.005077641,-0.032105982,-0.00060381775,-0.001323821,0.004316135,-0.0124009,-0.005050581,0.02839436,0.01587428,0.0228866,-0.024876267,0.01130731,-0.016120559,-0.011878682,-0.020005718,0.011468202,-0.013274731,-0.03598722,-0.008752172,0.018101936,0.0049187243,0.0021028682,-0.0021040414,0.018902296,0.019992037,0.00895468,-0.00041819544,-0.0031158973
11,-0.012131556,0.004344863,0.01662913,0.00987724,-0.018844912,-0.0012006885,0.020433722,-0.009718725,-0.016179994,0.005695385,-0.006369358,0.00037480926,0.00016856297,-0.012413394,0.0010817318,-0.0014005784,-0.012858077,-0.013792331,-0.07075586,-0.001731917,0.024147125,-0.044025697,0.001925499,-0.015804483,-0.015736522,0.018306086,0.0044243913,-0.013349784,0.0053184456,-0.0016130382,0.019352749,-0.014978621,-0.014673933,0.017348086,-0.028232312,0.037920594,0.015485702,-0.0073006353,0.0037043751,-0.007224083,-0.0065946663,-0.00031151177,-0.0028390076,0.030329732,0.0062533766,0.009635799,0.021278584,-0.02426838,0.01096477,-0.024079984,0.0076518403,0.0036422124,-0.018469218,0.018794347,-0.016315207,-0.023457877,-0.0028698696,-0.002983224,-0.026754778,0.01155686,-0.0034550596,-0.026991097,0.001678401,-0.00014776051,-0.004054496,-0.04994406,0.017787317,-0.014038267,0.035485554,3.9350696e-05,0.020134069,0.025383193,0.010220101,-0.020610379,0.019091716,0.009100607,-0.0038786647,-0.0017160517,0.0028530073,0.0030375319,0.00727991,-0.0116625475,0.022202782,-0.0035980116,-0.01926192,0.00046055563,0.01636117,-0.019160092,0.009904051,-0.011485419,-0.021806557,0.01538334,0.018074483,-0.0021907354,0.012596247,0.008173848,0.015260944,0.01164431,-0.006885715,0.006781391,-0.0075688977,-0.044851374,-0.015958775,0.011804413,-0.0013180301,-0.00870306,-0.015115752,-0.013449364,0.001501064,-0.015561267,0.018725628,-0.038603,0.0016936832,-0.010349607,0.0011510567,-0.016090175,-0.022390924,-0.009023587,-0.00017609526,-0.0058442643,-0.023272349,-0.02822077,0.011611,0.02179373,-0.0479023,0.0023985447,0.008889572,0.008096372,0.023057923,0.019621652,0.03590525,0.015854396,0.032555163,-0.024993373,-0.003357446,-0.021807132,0.006622517,0.007114456,0.0073004127,0.007675291,-0.022355225,0.008314521,0.037608363,-0.015720844,-0.004397399,0.00775636,0.004751303,0.009740934,0.023261858,-0.0028802198,-0.017125467,0.011887943,0.0030425885,-0.00561122,0.008750966,-0.018074235,-0.029322663,0.011603894,0.018375129,-0.022960206,-0.014735375,-0.007516245,-0.04289366,-0.00995936,-0.021703014,0.0025139453,-0.033907223,0.011428241,-0.028253784,0.031726006,-0.024726765,-0.0019434665,-0.011883461,-0.013130295,-0.021800548,-0.04617589,0.00833502,-0.008011942,-0.030894827,0.03909772,0.04292169,0.012241206,0.014336081,0.019722804,-0.0043118624,-0.03109812,0.034169156,0.019798843,-0.051441617,0.02701549,0.0006586716,-0.0022758497,-0.007759663,-0.031303372,-0.0015583234,-0.040045,-0.0243604,-0.026471239,-0.020494642,0.02459135,-0.013992631,-0.02243803,-0.021395754,0.022996904,0.011593419,0.022809274,0.008373254,0.0028694442,-0.0040736077,-0.0016568325,0.0058937343,0.005691236,-0.009840365,-0.018280234,-0.019815905,0.0022459908,0.014364207,0.008755099,-0.013513619,0.002230283,0.026627246,-0.00078818307,-0.0002793503,-5.955433e-06,-0.01989826,-0.008041193,-0.014562179,0.014389317,0.0008295779,-0.012780859,0.017381446,0.007881271,-0.012629452,0.03200831,-0.013152048,0.026041104,-0.022113949,0.012014579,0.012654375,-0.0055128024,0.006398919,0.016300615,0.0069045657,-0.0024184235,-0.0026328736,-0.0005580052,0.008622891,0.0016691464,0.023910351,-0.012207217,-0.013335249,0.006497613,-0.020014353,-0.023321772,0.0061747306,0.0018612132
12,-0.015607812,-0.0008611087,-0.016451374,-0.0016267684,0.0149969775,-0.004210246,-0.017617075,-0.007948012,0.012296061,-0.025380544,-0.021050652,0.0008113967,0.027549617,-0.0117085995,-0.0030041568,-0.027770983,-0.0063856672,0.014089725,-0.015886372,0.007749987,0.015292279,0.015314364,0.014450041,0.025561057,0.008127845,-0.008004515,-0.0057355887,-0.025258727,-0.0025739814,0.008905788,0.00069463043,0.0015267425,-0.021398183,-0.00852381,-0.0073817843,0.014509189,-0.0015087842,-0.00364662,0.015538364,0.017603597,-0.010287426,-0.013583078,-0.00021467799,0.0013590943,0.004040881,0.0072294287,0.01412768,-0.010572236,0.013378443,-0.0071715033,-0.019145021,0.00013046872,-0.015107601,0.0035871882,0.0073544015,0.006378351,0.009445706,0.021728106,0.015959512,0.013788554,0.0021296095,0.008405796,-0.034013662,-0.011162523,0.010791759,0.0037850935,-0.0016479527,-0.0019748562,-0.0047330773,-0.0058140154,-0.0075735115,0.004952914,-0.0018669124,0.011135499,0.010849633,0.0044309157,0.011115367,-0.0060060387,0.0095135365,-0.0015448965,0.006137544,0.0033873024,0.0048974864,0.006835479,0.012875269,0.0077221845,-0.0032680358,-0.018895306,-0.004292703,0.0077556907,-0.005813415,-0.0128294565,-0.009975572,0.0058672903,-0.012259573,-0.008059633,-0.006371718,-0.0016089948,0.009974649,0.004845644,0.021989405,-0.009260182,0.0010415715,0.0027535826,0.0052764122,-0.032875378,-0.011955087,6.8716006e-05,-0.031290825,-0.033523884,-0.00067232444,0.0034611828,0.0027696013,0.002661663,0.016224781,-0.0060290815,0.003849866,0.002496912,-0.010129023,0.0058364435,0.0018463964,-0.0039328095,-0.02731305,-0.011286557,-0.0121453395,-0.0033354268,0.007834772,0.0014157165,0.01876859,-0.0067059817,-0.0038446551,-0.0089357365,-0.011690995,0.005301529,0.014084551,-0.018020304,0.004614237,-0.017442657,0.0032864357,-0.018304484,-0.0035584122,-0.00089617964,4.4087345e-05,-0.006927682,-0.024777036,0.0013464587,0.007686967,0.004918931,-0.002637384,-0.01756024,-0.013176257,0.01399196,-0.00085024966,0.007495466,0.012956212,0.00552952,-0.004503738,-0.0070752325,-0.008534003,-0.013459189,0.013029883,0.0049742875,0.0036093246,0.009196856,-0.0064973827,0.016284266,0.013143337,0.006023072,-0.032499418,0.01136417,-0.003623719,-0.0013965648,-0.019677293,-0.001751162,0.003589036,0.013829176,-0.0071927304,0.0006002267,0.019478342,-0.008653629,-0.014529289,-0.0029847478,-0.0041403226,0.0048537147,-0.013933122,-0.0031673056,0.01732364,-0.0043051085,0.008604556,-0.02512632,-0.008224221,-0.022058962,-0.0020927559,0.0026469082,-0.00044396525,-0.010801383,0.0024429061,-0.014372213,0.008605132,-0.0024782682,-0.0071232063,-0.0437279,0.0011666155,-0.009007843,-0.0025849005,0.008531671,-0.005895511,0.018492453,-0.012793597,-0.0044154553,-0.003023095,-0.010756486,0.0024333145,0.01818498,-0.0012507838,0.005375353,-0.0082231965,-0.013380814,0.0063626873,0.0044533224,0.043936986,0.019877166,0.0046765306,-0.032423288,0.016209826,0.003999118,0.0013817529,-0.017829413,-0.010360331,0.004268636,0.008573453,-0.0006809515,-0.0052556503,-0.027214175,0.0041875187,0.00037507035,0.027788585,-0.005543291,0.01970267,0.0032782613,0.0074098324,-0.018456617,-0.0022283127,0.00043939243,0.020001799,-0.019941213,0.0033842938,0.017081058,-0.0069926437,-0.012031998,-0.0033069747,0.0024693694,0.025668766,0.015059448,-0.0020402835,0.023590583
13,-0.031109001,-0.0006525748,-0.03136434,0.018954765,0.009453699,0.0032491279,-0.0018225041,-0.014341875,-0.018375862,-0.013676949,-0.021060253,0.006383177,-0.0029803924,0.00886956,0.015609632,0.002217318,-0.012528792,0.013058385,-0.0007986505,0.014426664,0.0014792208,-0.03046678,-0.0051551857,0.0057887896,0.006340137,-1.3797517e-05,0.027160287,0.015988039,0.0068659363,-0.0016783105,-0.046008028,0.014838942,0.020448662,-0.02147861,-0.018620552,-0.0024466095,0.004069725,-0.024009746,-0.037421953,0.0070194798,-0.013743558,-0.015527277,-0.0003958987,0.0040646037,-0.01229759,-0.006632925,0.0055454634,-0.026145767,-0.0010266743,0.008756477,-0.011851507,-0.005145171,0.009906457,0.0042061144,-0.017887862,0.009810664,0.004821304,-0.0069391513,-0.034245852,-0.011409279,0.0011135769,-0.0039001855,-0.014893108,-0.016330102,-0.0069652414,-0.009348765,0.017133137,0.00759008,-0.010680925,0.009965177,0.014791872,-0.015283758,0.039750285,0.001308826,0.02556957,-0.007942457,0.025220215,-0.03631202,-0.013689502,0.008342704,0.017439071,-0.014812529,0.033997376,0.0010860469,-0.028736597,0.0048452946,-0.016253762,0.019369539,-0.016198922,0.024582397,0.01512619,-0.0006812488,0.008035503,-0.002409405,5.044353e-05,0.0023188828,-0.019092662,0.015962215,0.018126661,0.02161725,-0.012331827,-0.008795586,-0.023604317,0.009626949,-0.014138141,0.008983747,0.01022265,0.02578595,0.0062289173,-0.020438509,-0.011884561,0.0058454815,0.005649816,0.021054296,-0.007886779,-0.024942636,-0.001486069,-0.013156243,-0.026257774,0.01610153,0.00504497,-0.011415481,-0.011485404,0.00057684764,0.044275217,-0.0025646356,0.0049681123,1.3906058e-05,-0.038649753,0.00066827866,0.017360931,-0.008720976,-0.020443404,-0.015262358,-0.012026702,-0.0151772965,-0.014173741,-0.026188662,-0.026512219,-0.010067647,0.02203428,0.008302882,0.027554726,0.04821994,-0.024353856,0.013255799,0.015598686,0.01282136,0.025351532,-0.011529909,-0.042183604,0.017951136,-0.007848748,0.005200432,0.026158497,-0.00073395116,-0.028254703,0.013037063,-0.000140966,-0.022575857,0.051419713,-0.004620983,-0.02591232,-0.024964131,-0.025404839,0.016364034,-0.025070727,-0.0014118305,-0.0041253893,-0.012838251,0.012144439,-0.01334285,-0.01934262,0.00893465,0.015118847,0.014728431,-0.017761089,-0.016377969,-0.041369673,-0.023715286,0.012127418,-0.01648064,-0.0067778886,0.022128478,-0.011433291,0.039105155,0.006893947,-0.0006475874,0.008852802,-0.0009957964,0.015726507,-0.034262322,0.012874744,-0.02123761,-0.016881617,0.024752045,-0.0063531892,0.00118308,0.0398061,-0.0029502946,0.0066926526,-0.01138689,0.00026698812,0.0005510838,-0.017115975,0.0036225065,-0.0004397996,-0.006593939,-0.0008955763,0.0008888093,0.008466349,-0.007447475,-0.040931486,-0.04244284,0.0066026202,0.0052547823,0.017642558,-0.020998612,-0.01210587,-0.013566046,0.03352545,0.01830278,0.014004245,0.014598612,-0.01656009,0.0056619504,-0.010440255,0.003253167,-0.002309454,0.0009559239,4.7029247e-05,-0.014506769,0.008464869,0.05383594,-0.019569755,0.0059677786,0.00033787917,-0.0165844,-0.008651008,0.013222378,-0.002357566,0.0003783231,-0.004403778,0.0010490054,-0.013772952,0.0070922393,-0.010064634,0.019492168,-0.007150988,0.006397743,-0.011592448,0.002002591,0.013655522,-0.024578495,0.01608186,0.009811547
14,-0.01835481,0.00022625658,0.0023579248,-0.0080945855,0.008947923,-0.0067033945,0.0079675475,-0.012472003,0.0026203813,-0.008555797,0.020745648,0.016491974,0.010035549,-0.021935252,-0.009552486,0.027681004,-0.0053637465,-0.01718483,-0.028752014,0.004468951,0.0070527806,0.022862297,0.0148703,-0.0030195685,0.019626157,-0.0040188157,0.00886776,-0.014339699,0.00018178289,-0.010953082,0.022678372,0.00070683967,-0.024981925,-0.0077990904,0.0020428076,-0.024372391,-0.010528371,0.029693788,0.00718981,-0.0016215859,0.0129877,0.012052823,-0.02355294,0.009600756,0.019409815,-0.0038944518,0.01962989,-0.0031964532,-0.004183903,0.02073916,-0.008637701,-2.5043322e-05,-0.01771847,-0.0061418056,0.016352458,0.009999614,-0.012569428,0.010402524,-0.00027183705,-0.005947957,-0.0048559997,0.0049852384,-0.021551719,0.012539975,0.037690688,0.011958052,0.022684725,-0.009644486,-0.010166094,0.005323735,0.010163964,0.007844071,0.025398394,-0.03350786,0.022213753,0.0030421517,-0.012938021,0.033228092,-0.0031977897,-0.010716366,-0.01109866,0.012351983,0.006691738,0.024825292,0.030143341,-0.00040778425,0.0030157256,0.012280775,0.015721994,-0.006800528,0.0039930786,0.0110240495,0.029664418,0.05352279,-0.013197107,0.0096279,-0.0052166292,-0.008656085,0.009151995,-0.0074625476,0.006691213,-0.034839123,-0.004289327,-0.009541775,0.0072297864,-0.007656414,0.026702471,0.010818302,-0.017518185,0.006878231,0.023365812,-0.001804424,-0.009664928,0.017466,-0.013526678,-0.004597928,-0.009062765,0.013562033,-0.03015898,0.0044392548,0.0290462,-0.003990729,-0.004429696,-0.011192659,0.008848051,0.02224382,0.0229226,0.026332512,0.010851404,0.00900638,-0.0014899275,-0.012901562,0.01756063,0.022365237,-0.0077409083,0.019525893,0.013123862,0.011442047,0.025600396,0.011924691,0.0048843594,0.00052169873,0.022252413,0.0097538205,-0.06160729,-0.0075289044,-0.014468128,-0.0017404188,0.016809601,-0.0018507714,-0.0007433287,0.030993281,-0.004065568,0.009897165,0.00040655374,0.035633743,-0.035209946,-0.0035440652,-0.037773766,0.005221364,-0.018725425,-0.015166494,0.017210593,0.012597094,0.026041249,-0.026900217,-0.007091815,-0.021071339,-0.024390062,0.014334314,-0.047499903,-0.0051614568,0.010865854,0.01257763,-0.0028513498,0.0025252646,0.015515003,0.009559381,0.0034859504,0.034719866,0.019526782,-0.011393583,0.0037211583,-0.005419012,0.0027278725,-0.014783382,0.0011729224,0.017567137,0.019967133,0.031221805,-0.010723377,-0.03962727,0.021128273,-0.0051932307,0.03326059,-0.0020773364,-0.02124385,0.002281,0.02947119,-0.011857122,0.017472003,-0.012573589,0.0028483472,-0.004934986,0.03587037,0.014115628,0.0076386086,0.02936733,0.0042544003,0.017267058,-0.038453203,0.013328562,-0.0059775435,-0.0064268005,-0.032427665,-0.005338608,0.02034165,0.02495107,0.02063464,0.0101150675,0.0020352057,-0.029042404,-0.0025919203,0.013306092,-0.0010159267,-0.0021395774,0.020690817,0.0035531619,-0.002814348,-0.020646129,0.01410598,0.007277775,0.0076555684,-0.021019636,0.018095743,0.023720155,0.024608133,0.016064972,-0.022477785,0.017811326,0.021162914,0.01324719,0.0007690423,-0.0008185834,-0.00060445454,0.0005383981,0.0026283248,-0.00018061775,-0.015804293,0.0063700806,0.006581944,0.0004507008,-0.010309666,-0.008912208,0.009033818,-0.014302432
15,-0.00034824558,-0.005041232,-0.011592032,-0.022107003,-0.0023438013,0.010860071,0.017224666,0.01673936,-0.014916045,0.016463166,0.01664207,-0.007123592,0.011984578,0.017887142,-0.008888697,-0.002785939,-0.0052041835,0.013369365,0.014217997,0.00943473,0.032259345,0.04284549,-0.010537343,-0.013225122,0.0012720891,0.0147262,0.0054717516,0.009346865,-0.007067612,-0.014628375,0.020300938,0.006511192,0.00033915773,0.020840866,-0.0030315379,-0.014063006,-0.019630026,0.007538681,-0.009163441,0.0054498245,-0.003875815,-0.00927339,-0.005233309,-0.0038821462,-0.01790339,-0.05033109,0.021961292,-0.041355517,-0.0033813897,0.022566764,0.010667468,-0.005694526,-0.009976702,-0.0030801522,-0.009066836,-0.0019113513,-0.019394472,0.01710347,0.013359621,0.005000602,0.027411109,-0.004699104,-0.0052914023,-0.010238771,0.00432683,0.01783645,-0.011413162,0.007998963,0.0127326185,0.0004429165,-0.010582057,0.0136626465,-0.003705068,-0.036858246,0.006330038,-0.023689268,-0.0114610065,-0.012844783,0.022793388,0.0072939377,0.0063380944,-0.018487368,0.004812338,-0.013637935,0.0157598,0.0061700926,-0.005428389,-0.07407577,0.014229995,-0.009073183,0.010972128,-0.00080684904,-0.015333706,0.00679223,0.0037777543,-0.0008620601,0.017929805,-0.0044355625,0.009485533,-0.02222936,-0.010096994,-0.011040713,-0.013387961,4.0264036e-05,-0.028922256,0.009676295,-0.02042178,-0.016141081,-0.025839295,-0.03276523,-0.003502604,-0.012630687,-0.011219978,-0.008109299,0.012748456,-0.01712952,-0.02267879,0.014843307,-0.028419476,0.013105309,0.003479078,-0.008996724,0.0063350266,0.006603328,-0.07314003,0.0048286463,-0.018268146,0.0136003,-0.006107586,0.005389226,-0.013593674,0.00039031616,0.012618536,0.0017587596,-0.033765838,-0.005763817,0.0024732575,0.015644908,0.009457064,0.023864409,-0.010866375,0.0015985491,0.009709211,-0.0038388625,0.023164583,-0.006232578,-0.0114561645,0.01654465,-0.016764492,-0.03129548,-0.0013070103,-0.016656427,-0.011035842,-0.0046725483,0.0039311773,0.0036418913,0.02347481,-0.020576818,0.018222302,-0.0148019185,-0.006700936,-0.0040725227,-0.008629017,-0.020563575,0.00046320283,-0.01620446,0.010650485,-0.009867933,0.0014210803,-0.0016522204,-0.014607954,0.0037884696,0.0072845425,-0.0045747124,-0.02665132,0.00014640925,-0.0005490338,-0.010288091,0.033508226,0.030367784,0.0053613903,-0.005502462,0.0044269487,-0.004508712,-0.009001086,-0.026386634,0.006665365,0.013108947,-0.019445125,0.0058753463,0.0045829103,0.011664064,0.0017840975,0.01075525,0.0023557842,-0.022933193,-0.006286981,0.009544851,0.0036203177,0.0008628988,-0.01228883,0.01940528,0.037223812,-0.004978412,-0.04408458,-0.013841398,-0.004290501,0.0019351188,0.0015151104,0.026770728,0.00027287303,-0.017177563,-0.012454571,-0.010824928,-0.028908052,-0.019028788,-0.012901039,-0.010480285,0.017282188,0.0095384335,-0.0020493227,-0.010917476,-0.011409424,-0.030690974,0.0024863281,-0.016659364,-0.0077540567,-0.014123304,-0.0040304074,-0.022912867,-0.012046666,-0.012802972,-0.016599188,-0.00032086877,-0.009119271,0.012337852,-0.011953472,0.002052362,-0.0007897117,-0.0041196784,-0.0051730606,0.035734467,-0.012358363,0.0031883912,0.0019764574,-0.017668024,-0.00020398088,-0.0093578,0.0015644241,0.008983783,0.0037538593,-0.016141368,-0.02086253,-0.01369197,-0.0046933466,-0.0044426853
16,0.0014836958,-0.008942769,-0.000360696,0.012526765,-0.023914285,0.020220846,-0.014950124,0.031955127,-0.012990396,0.0014150518,0.033395372,-0.020097064,-0.034666803,-0.030931251,0.008703476,0.0022181561,0.0033257394,0.0029303322,0.028575556,0.010149476,-0.03623022,0.008489065,-0.05548437,-0.009879421,-0.024188263,0.0032240879,0.021034485,-0.020430025,-0.003642605,-0.007935637,0.022184288,-0.012557319,0.014781651,0.004351813,-0.024360826,0.0025582965,0.02834963,0.00015125891,-0.0014832035,0.0011952707,0.0066409493,-0.0028197798,0.009665689,-0.018971523,0.012601781,0.008261821,0.0054528005,-0.010662794,-0.015086485,-0.0038395487,-0.055921126,0.0121881,-0.029745545,-0.024583612,0.0057064057,-0.02122841,-0.013988988,-0.017768113,-0.003224535,0.015121812,0.007521173,0.0050613326,-0.025621643,0.011859196,-0.009762443,-0.0033017062,0.008395677,-0.004632179,-0.017523319,0.019311573,-0.008036528,-0.013948155,-0.009378959,0.0020773604,-0.0005282797,0.00372667,0.009958904,0.014987366,-0.0034522521,0.01657837,-0.053186852,-0.011768491,0.012407759,-0.005614245,-0.021908337,0.0032782517,0.007785862,-0.018008452,-0.01806379,-0.035956893,0.031436883,-0.013055322,0.00020009512,-0.023143025,0.029287605,-0.027415318,0.010064288,-0.04598769,-0.004878827,-0.000101252605,-0.012803113,-0.003456405,0.020416303,0.031473912,0.013563181,0.028623737,-0.009207225,0.010372362,-0.005420953,-0.03470035,0.011225018,-0.0153252045,-0.04107129,-0.013228073,-0.0037692934,0.021879291,0.012415775,0.009929574,0.0083552385,-0.01272331,-0.008314861,0.01582982,0.011284753,0.004052639,-0.0024537405,-0.0012859195,-0.0017520043,0.0068854773,0.016764317,-0.0065068193,0.013020357,-0.026571171,-0.009623566,-0.010748324,0.004783526,0.018741075,0.0018932997,0.006727787,-0.0050779046,0.00143178,-0.031373493,0.005273598,-0.012117082,-0.0014489432,-0.009929166,0.0010375779,-0.0017032474,0.008233152,-0.03866429,0.0058971285,-0.0107704075,0.0041760984,-0.025423525,-0.042464025,0.0073155127,-0.011375313,0.022218531,0.026706776,0.004276901,0.0056567076,0.0005027229,0.00039377323,-0.043865107,0.00420141,-0.0325816,-0.012749218,-0.02185035,0.024611903,0.009956339,-0.0149225965,0.013494911,0.011362221,0.019889705,-0.04698607,0.018331584,-0.0122884745,-0.0068667866,0.0009462511,-0.009722231,-0.0023359812,0.020574812,-0.025798952,-0.002786272,-0.026434345,-0.00011098339,-0.03981983,0.009324566,-0.0031492373,0.038042024,0.0056553665,0.011364345,0.00025711162,-0.0009390386,0.012449021,0.0116486745,0.015272551,-0.0044437353,-0.009327816,-0.03393358,-0.010246605,-0.006482854,0.025910039,-0.03125194,0.017702391,-0.0253832,-0.047115494,0.0015880496,-0.0035534315,-0.015649254,-0.0058958167,-0.025186468,-0.005141931,-0.026465604,0.019372147,-0.0022482502,-0.008865129,0.0027211183,-0.016208911,0.00611736,0.013016005,0.030719211,-0.010242985,0.0069027254,-0.017426819,-0.0057643647,-0.0006086517,-0.0033840402,0.0031578075,0.008716591,0.049092542,-0.015480481,-0.0047923587,-0.010391823,-0.017420737,-0.0014522416,0.020270176,-0.013703153,-0.0025807917,0.0015939417,-0.0017084422,0.017870063,-0.03269362,-0.012004323,-0.048420426,-0.020092724,-0.0123976255,0.009740578,0.0053042383,0.0049799257,0.007216075,-0.026726948,0.008791699,-0.02973849,-0.000856139,-0.008499049,0.021704962
17,0.004810837,0.025139058,0.003731228,0.013924462,-0.009810903,0.0020916283,0.008083044,-0.006558108,0.022103531,0.0023299044,0.02057576,-0.007669336,-0.024337139,-0.013022289,0.014079571,-0.007142716,0.018109716,-0.020935914,0.00095477933,0.009703185,0.00054695416,-0.019728404,0.011766862,-0.0046223416,0.028035175,0.0047703907,0.0054708384,-0.021474175,-0.016234104,0.00777886,-0.0024025047,-0.008471485,-0.028412063,0.01929442,-0.01441186,0.020373944,0.008443516,-0.023104662,-0.0063557243,-0.03722098,0.0052687493,0.017263899,-0.023695996,0.018796626,0.016783983,-0.0054841675,-0.008133324,-0.009785571,-0.0056494777,0.038006023,0.0019662967,-0.011284203,-0.004242764,-0.0008310948,0.016766587,0.00483814,-0.008158903,-0.002270056,0.0006538784,0.0026857893,-0.016667925,-0.015788926,-0.005545995,-0.0033496723,0.015801553,-0.008546437,0.0146775525,-0.004011392,0.022382023,0.018660957,0.00976267,0.008752686,-0.0022053814,-0.025489368,-0.00047679504,0.0067069465,0.010888025,0.021772377,-0.020848604,0.017498598,0.0013572235,-0.023275845,0.01692825,-0.017274898,-0.008320731,0.00012108438,-0.005591771,-0.019973846,0.0030946569,-0.01967823,0.0042125317,0.0012769073,0.0211861,-0.005863036,-0.00024583848,0.0054588853,0.0013531605,0.013755412,0.0046559293,0.0012105574,-0.01899678,-0.00424971,-0.004110522,0.012833648,0.025249602,0.0012746833,-0.0065933173,-0.0007304371,-0.018006722,0.007808054,0.020012585,0.017504426,0.008457983,0.011596097,0.007884751,0.004985066,-0.0053181914,0.008653157,0.012526612,-0.003752253,0.01997954,-0.008701161,0.007153884,0.01683581,0.013848974,-0.0042336173,-0.013005022,-0.008208652,0.004753301,-0.00849373,-0.00032173927,0.008511007,0.0043499526,-0.00028723862,0.0012083694,-0.00022283358,0.001549561,-8.496018e-05,-0.002762106,-0.0115266675,-0.025675522,-0.004733856,-0.017533727,0.00038527572,-0.0052476185,-0.00888939,0.011680111,-0.00036505875,0.006253696,0.0050982987,-0.0013740802,-0.0067950375,0.01109301,-0.0042091804,-0.001900482,0.0049007162,-0.0058046263,0.03683923,0.007417721,-0.0014229818,0.01701731,0.010360442,-0.0027309523,-0.020373324,-0.007617213,0.002089455,0.007957034,0.021802122,-0.0023217325,0.012747754,-0.013707477,0.005918463,-0.000107621534,0.0037906924,0.0020706707,0.006086436,0.0030214658,-0.0103143845,0.0046707476,-0.0050080637,-0.0051770667,0.002898722,-0.0020264178,0.0051601585,-0.014111514,-0.019153493,-0.0040491954,0.009831534,0.018075498,0.0048421915,-0.016373586,-0.02653657,-0.0025647723,-0.0014407483,0.0146424435,0.011827106,0.011653283,-0.018813998,-0.031906866,0.012550963,-0.018024838,-0.00549628,-0.020668102,-0.021448882,-0.03573426,0.008330962,-0.010507094,-0.023901006,-0.0037328594,-0.019698903,0.0057688914,0.009714002,-0.0062569347,0.0044616107,-0.0020966146,-0.025789311,0.0066826018,0.0018619534,-0.02190035,0.0071192677,0.008500378,-0.0032139572,0.002389988,-0.0030148942,0.0090457685,-0.026279325,0.00456153,0.012009265,0.007013233,0.0032347424,-0.007028004,-0.003263252,-0.014878245,-0.009047701,-0.01774572,0.001949678,0.002635385,-0.0017350613,-0.008316554,-0.0071747573,-0.016020823,-0.014886159,0.019934485,0.00095529214,-0.015889961,0.00674627,-0.014128056,-0.009350128,0.012511775,-0.0072416463,0.011390958,-0.012085075,-0.011235559,0.014682781,-0.0006596555,0.0046946304
18,0.001740326,0.015037238,-0.017407749,0.014525574,0.055704106,-0.009154073,0.0039697834,-0.0018266711,0.023638537,-0.003890418,0.038792796,-0.032620996,0.013524183,-0.022422254,-0.006636072,0.048163034,0.017295612,0.006252989,0.020611597,-0.013725223,0.0038176754,-0.0026731852,-0.013110919,-0.004624398,0.0077221817,-0.008318694,0.0065081483,0.0046558636,-0.012120822,-0.009131464,-0.0070154257,0.0041038953,0.00536811,-0.006895012,-0.014687848,0.011626316,-0.01032987,0.010446827,0.003715477,-0.004630058,0.014171228,0.019787543,0.008363039,0.004151283,0.04911718,-0.020735512,0.0051830956,0.004270028,0.022266312,-0.0083795,0.00014294728,0.03236123,-0.009302299,-0.019813338,0.00076988025,-0.009946571,-0.029450998,0.006803649,0.021840421,-0.010434098,-0.020259332,-0.0036590223,0.009652705,0.0070079337,-0.010304031,0.061787978,-0.00030054708,-0.008422919,-0.011769901,0.00481884,0.009684982,0.009315809,-0.0019780986,0.0002084317,0.019422954,0.007824328,0.015447801,0.032761022,0.0056372155,0.024972815,-0.0103292335,-0.0072251996,-0.0035893396,-0.0043972703,-0.0078200335,0.03183644,0.010009341,0.014526341,-0.004498243,-0.035110414,0.038110264,-0.0020376404,-0.010525708,-0.014389143,0.031012358,-0.009080097,0.012454101,0.0022617285,-0.0028166752,-0.013225825,-0.010011666,0.0062795547,0.0065293848,-0.00029885038,0.026703358,0.035598945,-0.0062502553,0.010198203,0.03803656,0.0018737689,-0.0038450568,0.012725219,0.0031390903,-0.0009225855,-0.0067297537,0.020637603,-0.013453718,-0.005190284,0.026283514,0.012436405,-0.0093064485,0.015727043,0.0044910586,0.014999813,0.04228066,0.03664143,0.025981087,0.025078373,0.0040457193,0.038031448,0.023620518,0.021736348,0.011613155,0.0012989497,-0.004119422,0.009502815,-0.0050612153,-0.00078977743,-0.0011516364,0.0367973,0.010299205,0.0098795,0.021022746,0.00764484,-0.07401464,-0.016426625,0.0047696647,-0.016297154,-0.015786747,-0.00084713823,-0.00016775938,0.009457994,0.009646806,-0.01951915,0.019432893,-0.005880198,-0.011077555,0.014958928,-0.010030819,0.014618306,0.019460857,0.023640946,-0.016199756,-0.0031950804,0.027273593,0.016855383,0.0029485256,-0.0048743905,-0.020411724,-0.01070663,-0.002807957,-0.0285998,0.010880464,-0.019355047,-0.00505051,-0.028222011,0.0003962028,-0.013146742,0.0020304625,0.0034844994,0.0077719754,-0.005116302,-0.020625021,0.012185208,-0.0005308683,0.006090243,0.020363506,-0.003833397,0.020030964,0.0029128946,0.014062125,-0.015113315,0.035727017,0.0047239955,0.025688786,0.043944553,0.006155556,0.019187117,-0.03704909,0.006679701,0.01397168,0.0061202883,-0.008635807,0.011844419,0.016494207,-0.0014031886,-0.000507541,0.011647724,-0.00880484,0.021610564,-0.014398082,-0.0065260744,-0.03385505,-0.0024166002,0.008621923,-0.029541513,0.030204993,0.009710192,0.03733244,-0.015965499,0.0076595526,0.006680448,0.0027835981,0.008977724,0.028121052,0.008252262,0.00069786416,0.012766183,0.018074492,-0.0008493248,-0.0069882316,-0.0037994517,-0.04905961,0.038583677,0.0064086616,-0.011574059,0.0076877093,-0.0025831277,-0.021077842,0.009508444,-0.01371251,0.009970014,0.04654802,-0.007418607,0.012043885,-0.010666611,0.011965694,0.01998254,-0.0025187489,-0.0015710726,0.017474113,-0.0051072044,0.025757011,-0.007639524,-0.0014657826,0.00035358057
19,0.0020934588,0.00013085765,-0.033783156,0.0041900035,0.008098084,0.011982411,0.02172974,0.021175623,0.032541454,0.011765971,0.0008628121,0.0151937315,0.0012129097,0.01564608,-0.023941666,0.023951707,0.014892304,0.03235673,-0.011924763,0.001280296,0.008438584,-0.03508537,0.016768502,0.0037212938,0.032436997,-0.01549849,-0.019376326,0.004929687,0.0039718794,0.010431847,-0.01556349,-0.0132291205,0.015971025,-0.011506888,0.017660683,-0.025212511,-0.032905594,-0.019556414,-0.00775971,-0.013886516,0.024944471,0.0033138148,-0.0061746067,-0.005302694,0.001179423,-0.0059526307,-0.016813744,-0.012808204,0.0022578016,0.027575962,0.0011434241,0.029465709,-0.008281826,0.0055138594,-0.00574048,0.035470273,0.015900109,0.0020659366,-0.017545039,0.010583665,-0.02722182,0.017803738,-0.0033024834,-0.013698705,0.028995294,0.026377806,-0.036358573,-0.0122727,-0.01065865,-0.011580104,-0.0013309743,-0.028843952,-0.008478193,0.0049600266,-0.01150873,-0.024030613,-0.015413473,0.03818384,0.019791277,-0.011970085,-0.019804627,0.0165031,0.006239704,-0.0026983162,-0.029510966,-0.0002214256,-0.0042049503,-0.0020101606,-0.012145002,0.016701367,0.010449298,0.019202696,-0.023978217,0.010437295,-0.0019510462,0.009143998,-0.00738448,0.026015421,-0.004466397,-0.005295449,0.008499789,-0.004387194,0.019790169,-0.008273608,0.012553759,0.0076759905,0.0067642885,-0.0071879746,0.006163723,0.019952565,0.0021773041,-0.0068800356,0.0019338992,0.031684753,-0.02024439,0.029150276,-0.030111376,0.014798151,-0.009716165,0.014191841,-0.003731058,0.019604893,0.0076707806,0.0060049878,0.009237051,-0.0055528902,0.007935557,-0.002856568,-0.006794372,-0.002439077,-0.004773535,0.010022803,-0.0011368251,0.027973037,0.007551061,0.01776212,-0.012249664,-0.017955497,-0.024463065,-0.012796642,0.007348961,-0.016712734,-0.02886705,0.019871254,-0.011402284,-0.030149844,-0.0076286937,-0.011817259,-0.0034767194,-0.031061418,0.027308868,-0.0038356853,0.010168563,0.028915435,0.015074094,-0.022216782,-0.0062145833,-0.0115392,0.0050563496,0.0107451575,0.008007666,0.0040367693,0.006028519,0.009876965,0.030123865,-0.013453817,-0.045795903,-0.009615952,2.6747768e-05,-0.032046255,0.014860686,-0.017135842,-0.0004655799,0.007082599,0.008191114,0.005998754,0.018661382,0.0109336,0.030476848,-0.005354095,-0.01865704,-0.004505264,0.003992531,-0.013576409,0.02162211,-0.000344569,-0.0033018556,-0.014880381,-0.022488961,-0.0019268394,-0.013815136,0.0040597497,0.0033562272,-0.014954292,0.0026336596,0.032315746,4.4634235e-05,0.032088127,-0.005702324,0.015442751,-0.001956209,0.021957675,-0.0016200664,-0.018678628,0.012060427,0.0008070671,-0.0027728535,-0.023447458,-0.0010979188,-0.0056217387,-0.017933445,-0.007547325,-0.034882948,-0.005837739,0.043088336,-0.007358745,0.012010218,0.0022891506,-0.012013014,-0.014517827,0.041674554,0.010903332,0.023181265,0.0046812785,0.0057410398,-0.0025612484,0.00946569,0.0031644348,0.0038382306,-0.02295533,-0.004667308,0.0038230666,-0.036085073,-0.027099032,-0.004780141,-0.0059031225,-0.013871885,-0.012737018,0.034753777,-0.0069968062,0.0027287789,0.020410595,0.0012126616,0.020621309,-0.026326058,0.005501587,-0.004971737,-0.007963507,0.011600921,0.008654465,0.012993077,-0.0038286392,-0.022648301,0.036466695,-0.023779912,-0.0114546465
20,-0.0031369217,-0.006498841,0.0001452588,0.017328417,-0.02908975,-0.001334725,0.026044419,0.011216921,-0.0047341157,0.037749566,0.025900142,0.0032201658,-0.011379244,-0.0020080216,-0.020638548,-0.012377337,0.03780676,0.0017293282,-0.038692217,-0.045506593,-0.017514398,-0.0099106785,-0.0026736336,-0.0132557945,-0.008504387,-0.014846757,0.008393104,-0.06395163,-0.013286388,-0.011205542,0.01762718,0.0016702994,0.019738533,-0.020039184,-0.012968796,-0.01610969,-0.034387287,-0.0022828998,0.0227518,-0.0151770925,-0.04911466,-0.00013623193,0.011441718,0.02108208,0.0045647775,0.026636504,-0.025290195,0.015982838,0.01311321,0.032337807,-0.033794697,0.004906094,0.0030596028,0.001966659,0.0032075443,0.00947091,-0.007689594,-0.0013557931,0.019519428,0.010221784,0.010287777,0.0009118775,-0.0062235077,0.0030013097,0.026926512,0.018785847,-0.0018018942,-0.015665743,0.02440582,-0.014488067,-0.0019417129,-0.0149662895,-0.0021747497,0.005683611,0.0006522874,-0.024595488,0.015942052,-0.014748226,0.0010415072,-0.0031258506,-0.0077864737,0.015945992,0.0018519985,0.010587166,0.004061169,-0.0046376092,0.0071788244,0.0077553326,0.007327836,0.010488418,0.0061867083,-0.0063128076,-0.054469693,-0.0054167286,-0.010692449,-0.019167619,0.008560703,-0.008164405,-0.013156625,-0.013311242,-0.015397007,0.0065351897,-5.7767244e-05,-0.022777585,0.0019198314,0.014025161,-0.041532315,0.022237634,0.03220536,0.034690205,0.009048083,-0.0063247317,-0.045211088,0.0075604855,-0.015693534,-0.0012040612,0.013573583,-0.0028175598,0.013255305,-0.023548316,-0.029263526,0.0018980602,0.0061145634,0.0035815611,-0.0011407445,0.006320774,-0.02692052,0.0048672613,0.0029733083,0.006565891,-0.0013088749,0.009744413,0.022386586,-0.023951098,-0.015163343,0.007032823,0.0043580285,0.004008065,0.0057512396,0.0054334155,-0.06577913,-0.0018470191,0.0035316537,0.025186919,-0.02310066,-0.0067872764,-0.0029085074,0.0051741684,-0.010031434,-0.006657695,0.027516248,0.01520806,0.0038701138,0.007288244,-0.012147298,0.0018045997,-0.0448208,-0.024294315,-0.046035755,0.043212246,0.010103618,-0.003118494,-0.0036752778,-0.010680051,-0.05330602,-0.054057054,-0.009041043,0.005093427,0.021115044,0.026465807,-0.0006957783,0.021040684,0.0025736801,-0.010421381,-0.03445351,0.0017818643,0.009373379,0.022324868,-0.0005803088,-0.020459194,0.029512834,-0.013093349,0.0048195785,-0.01909518,-0.010157942,0.02552887,0.00027006137,-0.008291629,-0.027392857,-0.0043869335,0.011799782,-0.037305914,0.023854358,0.005650691,-0.015677895,-0.03210614,0.010520714,0.005620097,-0.028418211,-0.04407454,0.020445827,-0.022399496,0.00974512,0.0052813827,-0.058082074,0.0053346306,-0.012463944,-0.012964861,0.00035516275,-0.014407613,-0.00800292,-0.0066262176,-0.01575496,-0.03084059,0.030518347,-0.009144328,-0.05761854,-0.033608474,-0.008900217,-0.007439374,-0.0026143196,-0.013948103,0.021536518,-0.0030902773,-0.005310769,-0.015304965,0.015305006,0.0012792859,-0.025364969,0.0018730119,-0.0028246767,0.00281862,-0.031708796,0.0002769051,-0.010051025,0.008815814,1.919508e-05,-0.034184165,0.016002059,0.015142845,0.010748102,-0.0350594,-0.03475725,-0.017232025,0.023677742,0.042159356,-0.009088983,-0.06353631,-0.026095025,-0.020262923,-0.0071256887,-0.004435107,-0.02090627,-0.014232642,-0.011812708,-0.015101334
21,-0.013832322,-0.008776319,0.0021293531,0.0018036218,0.018864967,0.016441453,-0.0076200995,0.015545022,-0.024914967,0.007163989,0.018216409,-0.003996641,0.01944429,0.0030205236,-0.0053002867,0.0010102586,0.017202066,0.0038170784,0.0067336806,0.0057492196,0.020660004,-0.01091533,0.0065941745,0.004498564,0.03352171,0.006612278,-0.01338341,0.030653967,0.011006055,-0.0046322923,0.012742186,0.015252857,0.011951423,-0.014272773,0.016303163,-0.012682413,-0.014854916,0.011501652,0.016144669,-0.014037861,0.013366611,0.008030788,-0.007135378,0.013579723,-0.031189973,-0.020170622,-0.0047694393,0.00067348743,-0.0053742696,-0.013887611,0.0011892166,-0.002727688,0.0011963762,-0.0064884014,0.018448344,-0.002852139,-0.0027733198,0.0089100655,-0.025192205,-0.018938217,-0.008461015,-0.015098393,0.017658006,-0.0025924533,0.021515876,-0.015551023,-0.01922234,-0.02501592,0.00836773,-0.028917009,-0.0048974273,0.002000178,0.0094166,0.018468767,-0.009067475,0.012113882,0.014574099,0.012478433,0.039383203,0.004247825,-0.01698978,0.022389906,-0.025464509,0.022702293,0.029026173,0.00847892,-0.018211404,0.0162416,0.010793175,-0.024760736,-0.018944783,0.00329146,-0.0021937145,-0.0001003491,-0.0043532923,0.015077392,-0.010644623,-0.0203399,-0.015193222,-0.0046337643,-0.017847069,-0.018045079,0.010515087,0.019456986,-0.0028344546,0.0063095577,-0.013885782,0.00012089398,0.01939923,0.023514178,0.021212138,0.0023114118,0.002657808,-0.00023707382,-0.018139578,0.004257096,0.01310742,0.010926762,0.034731995,-0.0405695,-0.00060817885,0.03513777,0.0024583556,-0.006841826,0.032180563,-0.00741195,0.025213392,-0.04713039,-0.013398358,0.009353466,-0.006382845,-0.0003725146,0.0044260104,0.016083881,0.018855115,-0.0040600398,0.022809196,0.00947876,-0.0047074975,0.008557725,-0.016571525,0.00262105,0.020102594,-0.010972963,0.013275467,-0.018379306,-0.014995382,0.00832236,-0.012583144,-0.003949951,0.011541238,-0.007898039,0.024670117,-0.0040196558,-0.009436549,-0.008944083,-0.007575321,-0.018235559,-0.00016764516,-0.003225942,0.0052226814,0.02904753,-0.0018764267,0.012035176,0.0039857575,0.008682332,0.018308554,-0.0069509046,-0.018295951,0.003867814,0.0025878348,-0.009991351,0.0076484624,-0.007461939,-0.022823755,-0.016909137,-0.019017711,0.02617055,0.007962721,0.0022599672,0.014928202,-0.0046335664,-0.008256403,-0.009930606,0.0020836121,0.020334052,-0.019247431,-0.011912594,0.033017535,0.01303994,-0.030180035,0.014524123,-0.00051506225,-0.0044706287,0.0044765524,0.014678843,-0.014373956,-0.002855168,0.014329015,0.02265727,-0.009395798,0.019233681,-0.005026221,-0.007780649,-0.0008038977,0.0064261775,-0.0037239406,-0.0029944056,0.015881928,0.012572529,0.012631683,-0.0029352852,0.0071583213,-0.016501334,0.006440677,-0.012276367,-0.010262026,-0.0011399378,0.016852701,-0.002876692,0.0011936368,0.0077940593,0.004610333,-0.0017329454,-0.03307163,-0.0020503553,-0.015309596,0.005346605,-0.014543096,-0.0051250807,0.0066216537,0.02892983,0.008775435,0.021082208,0.018018696,0.008043628,-0.018659014,0.0060843728,-0.012902107,0.01610888,0.001365262,-0.028916232,0.008580488,0.011346734,0.014748029,-0.014405714,-0.008358088,-0.012494099,-0.011086591,0.013061064,0.047274977,0.0028825144,0.004510408,0.015371752,-0.013803879,-0.006339658
22,0.02185701,-0.02864703,-0.017102748,0.024974372,-0.0157378,-0.006200954,-0.010239815,0.009349225,-0.0077108727,0.006660387,-0.013287397,0.01053789,0.0080586355,0.019785956,-0.018122446,0.025879996,0.0121755535,-0.012569276,-0.0018578722,0.022856554,-0.011510253,-0.014564443,0.0018851091,0.007703316,-0.00943736,-0.012058823,0.011241001,0.015253369,0.004701489,0.023741575,0.039716583,-0.0016651951,0.006965363,0.0053178864,0.00011807815,0.005371827,-0.018402081,-0.0068046967,0.00558166,-0.0031659743,0.007055083,0.002053535,0.01466124,-0.026758065,-0.0051215393,0.005464772,-0.007314703,-0.00492415,-0.00456122,0.012898958,0.035453666,-0.0044075144,-0.0028987736,-0.005195383,-0.015451986,0.015893118,0.013458389,-0.002015239,-0.0072048153,-0.003080244,-0.00929941,0.0037850833,-0.0039248727,0.016280765,0.008693892,-0.033833604,-0.01637045,-0.006374422,0.01610193,-0.012659051,-0.02953679,-0.008050599,0.0143666025,0.0006061551,-0.012118061,0.009425736,-0.021038314,-0.0007800338,-0.001727415,-0.012299518,-0.0075413245,-0.0058511607,-0.020062571,0.0041309423,0.0019371904,0.00079543295,0.009394212,0.016065205,-0.0063126506,0.021040676,-0.0043355385,0.02110331,0.003403628,-0.0014826065,-0.022843754,0.023847492,-0.01455283,0.01467336,-0.012350323,0.015064334,-0.016550548,0.001320824,0.0004093626,0.003858403,0.024693565,0.027486445,0.015012668,-0.0068825115,0.011433119,0.009007332,-0.015609391,0.015679823,-0.014355928,0.0013896136,-0.0043848483,0.010086215,-0.0062580747,0.014373817,0.0011748505,-0.023794837,-0.010186267,-0.0010311065,-0.006327969,0.009204428,-0.0074200323,-0.014421807,-0.0037873618,-0.0013999472,0.00092060375,0.013291855,-0.027922072,-0.023929274,-0.01401352,-0.0015690727,0.0013407855,0.023015894,-0.034482222,-0.0122905895,0.01638489,0.0010656147,-0.02140315,-0.0203123,-0.008965825,0.008237266,0.014610252,0.011646318,-0.020915078,0.011198415,0.0014738527,-0.016381811,0.01712808,-0.025165169,0.025441654,0.022653857,-0.010476501,0.0056095165,-0.0071521075,-0.056394648,-0.015082501,0.0010317705,-0.007093705,0.005731555,-0.0052155126,-0.0065516257,0.013216933,-0.0028024425,0.008285418,-0.03191723,-0.0114131905,0.014279996,0.015571526,0.002987591,0.009159968,0.004541656,-0.013677802,0.0115833925,-0.01871648,0.015084555,0.001376566,0.007527994,-0.022206793,-0.014503425,-0.0055704582,-0.0035384842,0.008843181,0.023517014,0.015867453,0.013735605,-0.007889923,0.022118803,0.009771008,4.668208e-06,-0.016430054,0.0017272092,-0.004873216,-0.00490846,0.011080576,0.0025159789,-0.015365824,-0.011266133,0.00012275636,0.012308954,-0.0032461495,0.039206587,0.00011238969,0.01337457,-0.008397378,-0.006442091,-0.013411949,-0.004698994,-0.02164482,0.014759614,-0.012010604,-0.0055141845,0.028727686,-0.010450683,-0.019207638,0.011268732,0.0019651202,0.009980816,-0.031055616,-0.004877379,0.0038213402,-0.015785633,-0.029622486,-0.0049515925,-0.0036812702,0.0018674742,-0.01670455,0.010629668,-0.005799863,0.0027378353,-0.005472914,0.016830308,-0.029591894,-0.002778064,-0.0025556625,-0.0005031601,0.0011630281,-0.0047678216,0.015304866,-0.019731851,-0.021138603,0.0060101887,0.008875193,-0.002548634,0.021229515,-0.0038804633,-0.026268097,0.008158359,-0.01540266,-0.010426071,-0.033732202,-0.0038325402,0.014921927,-0.0041533154
23,0.0096336445,0.0010634193,-0.011172303,0.0009913407,-0.009399666,0.01061363,0.010176327,-0.00021752586,0.021070685,-0.0082360655,0.030233642,0.03003882,-0.011092653,0.020806033,0.014328109,-0.0029681898,0.004948904,-0.021431474,0.011686575,0.020802725,-0.019791733,-0.03576141,-0.004787784,-0.0098303165,0.032755937,-0.006568301,0.0022827904,0.03068431,-0.009112811,0.026894933,-0.0073900013,-0.019900585,0.011276133,0.012504844,0.0020317715,0.0027499562,0.027192933,-0.011542938,-0.0024717913,-0.012280568,-0.0074595055,-0.015799997,0.0048955483,0.020753926,-0.014598048,0.0065609985,0.00862567,0.010719701,-0.0011849749,0.019809507,0.006585995,-0.013578757,0.017913232,-0.0016779231,0.0016572039,0.005149719,0.004620682,-0.0071924627,-0.018807128,0.01750122,-0.040897794,0.01034179,-0.013566139,0.005911167,0.031220468,-0.0149864005,0.013985881,-0.010418954,0.017214239,-0.01713613,0.0062042684,0.0031400516,0.024007434,-0.0032177013,0.0039424673,-0.031063683,0.013159244,-0.012759273,-0.014111816,-0.008286722,-0.002097821,0.00037215662,-0.007550388,0.036729857,-0.033916116,-0.03516498,-0.017403547,-0.04120365,-0.010399347,0.044158306,-0.026818866,0.005138761,0.0014711673,-0.024194773,0.008435094,0.0020838839,-0.029072806,-0.022159826,0.0072559756,0.016583707,-0.0016575344,-0.014158581,0.0078065703,-0.021689886,0.021417884,-0.012168078,0.0147847235,0.0042802976,-0.0034242691,-0.0011912687,-0.006983349,0.005403518,-0.013788204,0.015427967,0.0019691156,-0.010946462,-0.004113042,-0.012104289,0.040530477,0.0019838922,0.007396451,0.018255329,0.0028141015,-0.0026611711,0.016682986,0.010741456,-0.0024795644,-0.016076231,0.012311392,0.008267565,-0.0059908046,-0.012543358,-0.001091056,0.002456218,-0.006722233,-0.0038347424,-0.014535875,7.008203e-05,-0.015029481,-0.000986451,0.0003940933,0.0124224005,-0.0064914017,0.028229406,0.0012138379,-0.021879232,-0.020677768,-0.01721985,0.01248359,-0.0070505277,0.012011145,0.02140374,-0.006155817,0.032208797,0.009369379,0.018689828,0.0030901858,0.032661337,0.0017802698,0.0008271817,0.020720271,0.0122215515,-0.003218161,-0.021776328,-0.0055049225,0.0028660859,-0.005420879,0.0042093396,0.030668348,0.025125988,-0.0018164988,0.0075850375,0.0072321207,0.015125106,-0.0016040532,0.020409564,0.0013494375,0.012712951,0.00053131056,0.020497385,0.02638463,-0.0020296993,0.0038958697,0.009097525,0.0023491662,0.006469674,-0.026561396,0.0066221952,-0.021583043,0.02132289,0.0054601594,-0.018316826,-0.014376111,-0.011019732,-0.006022579,0.012583687,0.006281551,0.014007832,1.6139407e-05,0.016277691,-0.00034542283,0.009784358,0.00262103,0.008584774,-0.0096183615,-0.0034664313,0.011167127,0.00018879365,0.012428737,-0.013990663,-0.020621806,0.010416951,0.0021971168,0.0019148552,0.008164318,-0.019350035,0.012290314,0.009144968,-0.010330109,0.009655175,0.029949203,-0.023247192,-0.005443897,0.011329747,-0.022334622,-0.014826963,0.011741314,0.036544908,0.015124064,0.011203406,-0.00038647372,0.0012981187,0.0037573082,-0.010728423,-0.0061261696,0.027450174,-0.0017535198,-0.020768065,0.021452319,-0.008065519,0.010054073,-0.009220463,0.019701544,0.017589998,0.006152571,0.022901976,-0.014005158,0.0071593192,0.0060795117,-0.009384119,0.026794642,0.01421589,-0.0074801035,-0.008173969,0.012533483,-0.0063701463
24,0.0017192421,-0.0021410494,-0.007480706,-0.031042414,-0.00059964246,0.025134554,0.016954223,-0.021632867,-0.0039135274,0.01693014,0.010181222,-0.018871453,-0.014877115,0.0041262023,0.003282868,0.0055555706,-0.007886464,-0.031469714,-0.007603396,-0.018657807,0.012677533,0.0039972654,-0.009333749,-0.0040652007,0.00744075,0.023528798,0.019257821,-0.009919975,-0.009598454,0.00191181,0.0016692337,-0.00064108125,-0.0040861843,0.030274587,-0.0035442696,-0.0034763163,0.022481536,-0.0029867196,0.0015620326,0.010080863,-0.0051837657,0.033409633,0.012058573,-0.0406989,0.006812472,-0.030520014,0.0039975145,-0.05721079,-0.012475886,0.0026208325,-0.0072147804,0.004002568,0.001777397,-0.015012726,0.011368345,-0.005248919,-0.012390112,-0.009745891,-0.016868697,-0.014660099,0.013473958,-0.018349532,-0.0022834942,-0.015310175,-0.007011359,-0.00089308573,-0.016925318,-0.00092281983,0.002592374,-0.004225543,0.0034611658,-0.016847467,0.013581168,-0.040291637,0.0020286527,0.024560016,0.011764315,0.025715334,-0.024773829,0.0076503414,0.01713208,-0.015532405,0.025822233,-0.028189179,0.0046115513,0.01800387,-0.003056758,-0.02066045,0.017776199,-0.0109895,0.0119065065,0.016286602,0.04302454,0.006371977,-0.015863396,-0.003675649,-0.020109788,0.010759167,0.0057767383,-0.017795742,-0.014321024,-0.0015998578,-0.024637662,0.006163439,0.0034456672,0.013120818,-0.0022770974,0.016872464,-0.0024335468,-0.016031317,0.013417314,0.004122255,-0.01264247,-0.017561149,-0.0033718774,0.018411266,0.0010719573,-0.0070500835,-0.019603318,0.0085603455,0.018012753,0.007868232,-0.0044342997,-0.0036925331,-0.027991368,-0.021282533,-0.014255753,0.03377535,-0.024318349,-0.0076265335,0.0014543824,0.0065247244,0.02469598,0.017589327,-0.0074324463,0.009040148,0.0029280127,0.0097497525,0.015307076,0.020196317,-0.010948102,0.00095997064,-0.0031026888,0.012700758,-0.0034838305,0.0017441319,0.007605641,0.0048482907,-0.0076764426,0.0020696851,0.00039495778,-0.01086371,-0.0153296925,-0.003417826,0.0067210444,-0.0016655485,0.03741314,-0.011402836,-0.012584913,0.0015582376,-0.00015789355,-0.033364672,-0.002237511,-0.011025344,0.033590842,-0.0065300367,0.0031825916,0.010560683,-0.0015016055,-0.0017037215,-0.02160789,0.007305446,0.010211138,-0.0028241016,0.048037477,0.015835913,-0.0020643745,-0.015024885,-0.010813186,0.020233074,-0.0008009597,0.017722169,-0.00739448,0.014079637,-0.00024643805,-0.045600925,0.015787663,-0.0013978829,0.014517079,-0.016410612,-0.0024414784,-0.016018718,0.0027745527,0.016464517,0.0135358805,0.007633551,0.018297017,0.0057446267,0.002443468,0.0040836334,-0.03709605,-0.012600771,0.0017626835,-0.005552698,-0.012750471,0.0037833396,-0.0028996945,-0.007469506,-0.021452894,0.020691723,-0.011700165,-0.008058948,-0.014302073,-0.01987752,-0.017724715,-0.021508195,-0.0073801675,-0.020320486,-0.008017776,0.0057329456,-0.0021514369,-0.014759696,-0.0076862522,0.00072618574,0.011246783,-0.009763779,-0.0009124788,-0.0014060137,0.0032697197,0.0016702663,-0.019319406,0.00858771,0.0023291723,0.0006766047,-0.0050779707,0.020363495,-0.010976888,0.013360247,-0.0052081537,-0.011198494,-0.007874953,0.017837746,0.03203137,-0.003469186,-0.010427068,-0.011684699,-0.016033806,-0.01073449,-0.010231083,0.016870357,-0.008389394,0.0028489807,0.008979668,0.010468843,0.013193932,0.009649067
25,-0.07639363,0.024256017,0.021691969,-0.010073443,-0.0082442425,-0.02005461,0.0093497755,0.02010727,-0.028807929,-0.012207264,-0.030827282,-0.013220933,0.011220707,-0.059070893,0.0022013378,0.009455486,0.017246954,0.013265734,0.013840312,-0.016336124,0.009370533,0.004096855,-0.012424042,0.0009568281,-0.006581439,0.022637831,0.014498405,-0.08358945,-0.008903957,-0.015649535,0.0052905213,-0.013947041,0.023729445,0.012761787,-0.014522544,-0.00950181,-0.003508465,-0.013941495,-0.02418572,0.008475215,-0.04014232,-0.022666937,-0.026961874,-0.0037515732,-0.0024147017,0.028822703,-0.016085146,-0.0250715,0.017182393,0.012441045,-0.12005167,0.009026533,-0.0021476157,0.0017192345,0.017261257,0.0051310495,-0.012182164,0.0022954603,0.008604691,-0.0143701825,0.030444844,0.018877214,0.056793924,0.008855348,-0.023508998,-0.0015011862,-0.00863233,0.0047064405,-0.0022908163,0.010997204,-0.009430591,0.0068064085,-0.0070317457,0.018758776,0.0009581369,0.009046368,0.01367607,-0.00089358096,0.003952482,-0.00083482394,0.0007481024,7.8886675e-05,0.0103277825,-0.026263975,0.03948419,-0.017239338,0.029886654,0.005164042,-0.009159296,0.021386422,0.008468693,0.010957827,-0.012189816,0.0064050695,-0.02326758,0.0027355105,-0.012214518,0.038888846,0.012745731,0.013482024,-0.019696807,0.0027963393,0.028666476,0.0038774677,0.0059303395,-0.016347148,0.0014102808,0.011071889,-0.022124955,-0.013832872,-0.001512292,-0.016774235,0.012828886,0.010022551,0.010202909,-0.0007999495,0.017348744,-0.01908288,0.0061767767,0.0035577288,0.0048008314,-0.028159609,0.024909496,-0.008351421,0.019647716,-0.010632036,-0.010397992,0.018291628,0.0027312303,0.0060100043,0.040678,-0.002737368,0.011106627,-0.025303064,-0.0007466152,-0.006023506,-0.031305138,0.015186175,0.0008765425,-0.00026167286,-0.01975556,0.0007974165,-0.0063458257,-0.0045442777,0.035006173,0.00047168584,0.0019028591,0.007798007,0.013590569,-0.022953415,0.00078996364,0.0032809025,-0.0018520202,-0.011569993,-0.0026228207,0.013424241,0.028053222,-0.00826042,0.013299091,-0.058229417,0.01144722,-0.018090356,-0.00057928753,-0.014324181,0.0047785053,-0.01624037,-0.004369233,0.0056676334,-0.01736799,0.0439581,0.019080201,0.021119155,0.0014953166,0.011826866,0.023875542,-0.016125506,0.03948052,0.0074421526,0.0077961246,0.025289329,-0.0075312243,0.01054875,0.005357876,-0.012334464,-0.022251843,0.01475617,0.022893658,0.027969629,-0.005585637,-0.030265406,-0.020936936,0.03545182,-0.0014135297,0.03774765,0.021568183,0.01170389,0.03788086,0.001637568,0.023554603,-0.0026630012,0.004854467,-0.010043504,-0.03280605,0.037329227,-0.023977792,-0.014304831,-0.004578028,0.05015698,0.0015340328,-0.028746072,0.0036775398,-0.0038038844,0.036446005,0.031746645,-0.007389848,0.0067598326,-0.019427242,-0.004242939,-0.018863974,-0.00970004,-0.022054125,0.014446903,-0.009582357,0.001912437,0.007712516,-0.019323865,-0.05108953,-0.004267922,-0.00876986,0.035585687,0.013217509,-0.0004786409,-0.0050287633,0.027430477,-0.0069673136,0.00080341223,0.013693284,-0.014707651,0.008374599,-0.012313248,0.0016453896,-0.033740297,-0.0037392909,0.016782785,-0.033716895,0.009097323,0.0047555296,0.002981722,-0.022546455,0.0154764205,-0.06716827,-0.014611076,-0.017363451,-0.024521068,-0.003362656,-0.011536632
26,-0.01473109,7.874327e-05,-0.014598292,0.012168241,-0.0054819686,-0.020120885,0.0011761842,-0.0093049975,0.024936086,0.020026471,0.041650545,0.0021949636,0.0012673574,-0.0023973358,-0.018472437,-0.0012990695,0.0345075,-0.016973903,-0.01150404,0.005693483,0.00037724373,0.023376318,-8.185276e-05,0.004002879,0.0117072435,-0.011240957,-0.0032508483,-0.0012380962,-0.019186525,0.03009696,0.014075326,0.007356402,-0.0002842398,-0.0026956715,-0.0055896295,-0.015623254,-0.021765957,0.00794996,0.010430396,-0.005672396,0.038958617,0.02626854,-0.0041827895,-0.003544252,0.0010255305,-0.010571949,-0.008326824,-0.0070234435,0.013762486,0.0052767512,0.009035392,-0.013443494,-0.0056092897,0.011061988,-0.013695852,0.009632437,0.0058028027,0.011719304,-0.024203617,-0.01648925,-0.0078105107,0.01046477,-0.0108479755,0.025816787,0.026892424,-0.0038089126,-0.0036617862,0.024142532,-0.0049765604,-0.0072755595,0.0014548257,-0.0021162236,0.015323758,-0.013259463,0.00311014,-0.0019472934,-0.011761489,0.0120853605,-0.013438358,0.008965009,-0.014673825,-0.0041456544,0.011051803,-0.00044750035,-0.0055772588,-0.010082602,-0.012194978,0.010640886,0.010251184,0.005487917,-0.011250146,-0.0052845897,-0.010862991,0.012844641,0.0007778056,0.0024525034,0.02710846,0.0005790728,0.003962284,0.019996418,-0.0020854843,-0.011234912,0.0072329124,-0.001616452,0.003658182,0.0023732241,0.005503217,0.019901887,0.0018060256,-0.017882416,0.0014533873,-0.0070380685,-0.022154037,-0.002430438,0.0076301307,-0.00624326,-0.016193844,-0.003892425,0.0016419266,-0.014552722,-0.0043945415,0.019005613,-0.010901858,-0.008332746,0.03456225,-0.0011585389,0.012333272,-0.024028756,0.0018241577,-0.0039357687,0.005033357,-0.004362059,0.0033776283,0.015310857,-0.0060064695,-0.010663904,-0.009093618,-0.010878198,-0.010573717,-0.0024560704,0.017739914,-0.015266402,-0.023224914,0.023416892,-0.023305917,0.0010288006,-0.0103438,-0.010835772,-0.018581852,0.017512158,-0.0030642047,0.002292733,0.01782557,0.018588338,-0.01192866,0.016768122,0.009429764,0.014270717,0.029467477,-0.0038708264,-0.0057827793,0.012631137,-0.0039940444,0.007696322,0.02325508,-0.012848545,-0.0024199744,-0.0051525403,0.004867234,-0.019904912,-0.02735714,-0.009182569,-0.0019655689,0.0071325502,-0.0035054092,0.012705903,-0.0030419633,-0.010680056,0.009534056,0.02214398,-0.0054392475,-0.0022477012,0.015215573,0.012023809,0.009499429,-0.0018878249,-0.008411728,-0.0060249534,-0.023259033,0.0022190176,-0.014089972,-0.016461955,0.0026612538,0.008618322,-0.008801272,0.029324356,1.9983201e-05,0.035557903,-0.012715817,0.011438502,-0.0017675963,0.019389907,-0.0114089595,-0.0057135737,-0.03466159,0.025268307,-0.00020068782,0.033963468,-0.0022976885,-0.0037597388,-0.022386994,0.017892893,-0.014222481,-0.009612259,0.041537344,-0.009995057,0.010753189,0.008804093,0.013176144,0.0012144316,0.0036406214,0.0049752328,-0.008095911,-0.018421512,-0.010663421,-0.017149946,-0.0005704171,0.0082061915,-0.014825004,-0.0200497,0.018812535,-0.000740304,-0.0027625249,-0.0071120127,0.0009196047,-0.010492614,-0.009614592,0.014558199,-0.009314024,0.005097586,0.0035398405,-0.02632814,-0.0013183366,8.7232013e-07,0.008015442,0.004075357,0.013194865,0.020761788,-0.002228875,0.009278089,0.0010860671,-0.0040659,-0.01547746,-0.0036461737,-0.0036430617,-0.02457653
27,-0.0005587135,-0.0043365634,0.0038764202,0.0072380383,-0.0038995084,-0.010863925,0.009350486,-0.014660979,0.005271256,-0.0008242179,0.028164033,0.015954617,0.0011994201,-0.0125221135,0.008993155,-0.032472733,0.034985736,0.0061988,-0.012071062,0.010903058,0.0060400874,0.02578581,-9.033736e-05,0.0025292584,0.014749324,-0.0129817445,-0.0027002473,0.015882235,0.01009199,0.016709056,-0.04847242,-0.0072148903,0.0017443354,-0.010173404,-0.008391059,-0.006224125,-0.016222877,0.0072958283,-0.014930054,-0.013076778,0.011397061,0.01194011,0.021426069,-0.017555607,0.03513661,0.027808703,0.01178827,0.0073699635,0.009423368,-0.015325723,0.0021545778,0.019782823,-0.031981613,-0.0014356989,0.016788037,0.016444677,0.014611694,0.0012267752,-0.0013148654,0.0018327639,0.004514601,-0.009425085,0.022846129,-0.02260964,-0.01949411,0.030587323,0.010368987,0.013382372,-0.03436217,0.005028741,0.0032132904,0.009519903,-0.0016020035,0.026324773,0.015207293,-0.0075773993,-0.018488795,-0.017141862,-0.0017740399,-0.008547919,-0.015671518,0.013579486,0.025114147,0.008120185,0.011183288,-0.034060773,-0.008178676,0.0013600144,0.024930004,-0.018938644,0.013559847,-0.0059161577,0.0017989402,0.013515097,-0.016754588,0.018930594,0.0029785219,0.020788532,0.0067921956,0.00073510554,0.012805335,0.006316286,-0.016031649,-0.007145869,-0.012699665,-0.0008844958,-0.0042197686,0.038420837,-0.010093269,0.009858446,0.004101435,0.014264863,0.0051402613,-8.716046e-05,0.009607323,0.016320644,-0.0027617752,0.025031686,0.027103566,0.01629726,0.0024147776,0.002124961,0.0028970449,0.013894523,-0.0031300911,0.013933915,0.0062461295,-0.0154619785,0.013287198,-0.0029267173,0.007023266,0.0070249503,-0.016845992,-0.012185227,0.0012283906,-0.013332064,0.022997972,0.018029671,-0.01563059,0.0046797465,-0.01770779,-0.013823708,0.0064859637,0.00043819897,0.022578806,0.016661165,0.006940275,-0.008352798,0.010991312,0.028704913,0.0014827922,-0.018664185,0.026120773,0.022006059,0.015942648,0.028263004,-0.014193946,0.03214733,-0.004331233,-0.0078101945,0.005715761,0.030780816,0.01812401,-0.019549213,-0.017146291,0.010068513,-0.014762488,0.00042860507,0.023619251,-0.029384116,0.014784811,0.00060058717,-0.019220237,0.01561747,0.006641701,-0.026996728,-0.012594076,0.017195456,-0.008492989,0.0036363956,0.016364632,-0.0031573356,0.0047611366,0.02336313,-0.009395625,0.004286459,-0.011858622,-0.01678138,-0.024210686,-0.007309297,-0.01245832,0.0018573072,0.029181214,-0.014836956,-0.023622302,-0.0017804633,0.006316072,0.025354505,0.014546671,-0.0074666413,0.006334174,0.03272544,-0.018871892,-0.018668761,-0.022387382,-0.007872761,0.023137731,-0.00056744914,0.020325737,0.014335332,0.011197111,0.0023665777,0.010596399,0.006196913,0.002810158,0.0105378125,0.01116312,-0.0013020813,0.016374538,0.010730081,0.003978111,0.0028162508,-0.013718721,-0.004565862,0.012525987,0.011335708,-0.0038726137,-0.009014567,-0.0024853293,-0.012020901,0.0033887308,0.02971185,0.005607275,-0.0034936445,0.007747829,-0.015285262,-0.009035548,-0.012327002,-0.009015332,0.037067156,-0.0033257948,0.00625919,-0.010503668,0.004183842,-0.013362176,0.031560194,-0.03014789,0.0007760853,0.00909019,-0.0061936136,0.0034141208,-0.016724518,0.005470851,0.019137999,0.0064301053,-0.011351396
28,0.016765885,0.0016484839,-0.00708517,-0.030684713,0.02488314,-0.018522173,0.021369176,0.02341131,0.0015552345,-0.008574772,-0.045041572,0.01258825,-0.029449781,-0.0059936293,0.018290464,0.0030428816,-0.017844263,0.009086403,-0.036293816,0.007220643,0.013529843,0.00074559206,-0.011981154,-0.0066563273,-0.011023805,0.0089499485,-0.0143571915,-0.034602143,-0.022072595,0.0039137686,0.04009558,-0.0024189015,-0.0035695846,0.006299666,-0.0043770084,-0.0018783644,-0.0055016507,0.02759559,-0.026836019,-0.005630321,0.0043490846,-0.04593801,0.007851871,-0.0030953223,-0.024364067,0.0018478059,0.023795187,0.011988591,0.0048227184,0.019756198,-0.035720762,-0.022280516,-0.0018470637,-0.021766143,-0.032770317,0.00600365,0.004830774,0.00042172786,-0.028202366,-0.0008474798,0.0014783498,-0.0056787548,0.0037757924,0.0024417534,-0.0070911064,0.013927912,0.011699349,0.002615863,-0.010368348,-0.0017180804,-0.019568136,0.006228609,-0.024005217,0.0004917384,0.0045614517,-0.000385388,-0.017385479,-0.018656177,-0.001601023,-0.0061875354,-0.011357946,-0.010942379,-0.04355084,0.010574028,0.0050056395,-0.0047163474,-0.014854774,-0.071576655,-0.007791631,0.0489098,0.018872516,-0.014295495,-0.011176526,0.0047695055,0.028096108,-0.021853203,0.012658574,-0.016013667,0.015133205,-0.0016128969,0.020788131,-0.009741541,0.008130081,-0.005963868,-0.015955385,0.0019769168,-0.025457408,-0.026406694,-0.007028413,-0.025960982,-0.009158826,0.0025779482,-0.008500009,-0.0006942727,-0.005407267,-0.011357925,-0.0021752412,-0.016526,-0.01620876,0.011345246,0.012216415,-0.007758817,0.017823355,0.00083155354,-0.039786667,0.0140892565,-0.012555983,-0.008965295,0.01915252,0.024003265,0.02149113,0.028230207,0.014158137,-0.01983517,-0.012321117,0.012060762,-0.0021662074,0.009410005,-0.008367513,0.028397208,0.021606188,0.009031713,-0.0072332523,-0.0084732305,0.019202208,0.01365552,-0.01074354,0.002639625,-0.00089447014,-0.0016788234,-0.019122249,0.015521459,-0.005763817,-0.0021684684,0.0016511185,0.014702425,0.0071080225,0.012981706,0.00774368,0.00179434,-0.0094423955,0.011181015,-0.029193116,0.014385204,4.594294e-05,-0.0018790833,0.020995114,-0.0279132,-0.023795044,0.03644051,0.014985826,-0.013878799,0.016173756,0.011379162,-0.013656564,0.027844865,-0.0028975296,-0.002236252,0.012145813,0.019591574,0.011955544,-0.009199913,0.009278141,-0.0019951253,-0.011508356,0.010715743,-0.0019156429,0.0114056375,0.030365447,0.004379378,-0.004175076,0.0005596165,-0.0228174,0.004401298,-0.007766309,-0.00033289628,0.0006724851,0.011041951,-0.06668603,-0.034859233,-0.014386765,0.0021253608,-0.0029763735,0.0076434347,-0.00437183,-0.002406833,0.009442761,-0.0051211994,0.015622204,0.011238752,-0.02655842,-0.0044847038,-0.008120682,0.034622516,-0.016060704,-0.011350031,-0.024095275,-0.023816455,-0.0047199153,-0.017101858,0.011302916,-0.019882433,-0.016286796,-0.0017133041,-0.002174348,-0.006247592,-0.011719406,-0.011952399,-0.008475793,0.017159801,-0.015028226,-0.026997281,0.016537787,0.03422597,0.0069880686,0.0032822725,-0.0057443194,-0.0010816363,-0.04360852,0.0009831382,0.012463075,-0.012165389,-0.004905226,0.0027388842,0.017054347,0.018211246,-0.0025221566,0.0134048425,0.0038749576,0.023906186,-0.006774709,-0.01338537,0.003940338,-0.01223714,0.011570161,-0.00073904154
29,0.015851403,-0.0009099218,0.0058712293,0.0077225883,0.0138762975,0.010551758,-0.008385963,-0.01008734,0.009012257,0.0023042017,0.015183906,-0.011842369,0.009958767,0.006885257,-0.004216102,-0.0029556188,0.012132161,0.0005488494,-0.01494459,0.016617708,-0.0123844175,0.0074849133,0.02212426,0.0067437515,0.01876198,-0.0312422,-0.008345481,0.02880636,0.0018684872,0.008343996,-0.029262226,-0.008419412,-0.00537963,-0.013582044,0.0113224955,-0.02058809,0.0009101221,-0.0038486365,0.0055916496,-0.008407605,0.01989591,0.01577282,0.010389897,-0.005734173,-0.002343755,8.6948885e-06,0.0032124005,0.018155487,0.022712072,0.0014791692,-0.0012196186,0.002470576,0.014832236,0.011765878,0.019523038,0.009771146,0.0049020136,0.0049975095,-0.015373829,0.0012489011,0.0033739302,-0.0057005216,0.01949729,-0.009174511,0.017732907,0.009581984,-0.003735339,0.0075359223,0.0011972048,-0.011711037,0.007687076,0.021709165,-0.0027245218,0.00084285846,0.0022449344,-0.00090019184,-0.0038416039,-0.0030067316,0.0069651,-0.019787142,-0.0004151648,0.0027079221,0.014488099,0.011386313,0.019106524,-0.008013762,-0.019268848,-0.0029568656,-0.00027883038,-0.0137922885,-0.004042007,0.00464096,-0.021257687,0.021485422,-0.002576735,-0.0062258686,0.0021790706,-0.008103871,0.02203318,-0.00047119832,0.004544044,-0.0063616843,0.0058120796,-0.010422666,0.012855836,0.006965738,0.0049181976,0.01300333,-0.013723346,0.020976428,0.0012248693,0.0056358273,0.01775399,0.0052242302,0.026744898,0.012163318,0.0154725835,-0.007914471,0.0148615185,-0.00057381566,0.008636013,-0.011006192,-0.01979756,0.0010573409,-0.0154557265,-0.005059139,0.00778009,-0.009064237,0.0063281814,0.0011750655,-0.0072584087,0.014444107,0.006047161,0.009574786,0.0021499577,-0.005976201,0.011975126,0.010296789,-0.0063695465,0.0010537924,-0.0052328976,-0.0012142053,0.0017042541,0.010130153,-0.0005381763,0.016083805,-0.0020502347,-0.008978806,0.02312805,0.022980386,0.010728943,0.011864437,-0.001316803,0.0039821137,0.000679954,0.017894166,-0.008470882,0.016341878,0.0022502511,0.019866996,0.009132081,0.011407132,0.019066801,-0.005030948,0.026257874,0.0014062457,0.006092043,-0.0085951695,0.0051266034,-0.01608173,0.017461732,0.0064888066,-0.0059482176,-0.008388928,-0.0016508565,0.009237501,-0.0037849466,-0.005022089,0.017200068,-0.0026961295,0.013056098,-0.0046136305,-0.0106381895,0.004851416,0.00131051,0.0038521353,-0.015259712,-0.005643362,-0.012472152,-0.014299367,-0.0014350467,0.0024090086,0.013672787,-0.014092913,-0.005897079,0.015699029,-0.016670926,0.00930876,0.019774886,-0.011308908,0.020647557,0.013198659,-0.0077526635,-0.00049123546,0.0067093354,-0.008426708,0.01125735,-0.0067951195,0.010980163,0.005476456,-0.009449943,-0.0098606385,0.012562453,-0.0034853593,0.0030400944,0.025534086,0.012909252,0.0066097025,0.013145857,0.018464092,0.01049228,0.013462491,-0.013005799,0.009075779,0.005274244,-0.0023320427,0.0054085185,0.0024266231,0.0016447419,-0.0065983525,0.009193519,0.020239698,-0.0035721874,0.0051519787,-0.0025594523,-0.013438352,0.016263044,-0.0032316702,0.0074463133,0.02251697,0.0061031384,-0.0135809025,-0.0063863248,0.010302034,-0.035814468,0.0072415033,0.0030277565,0.024738923,0.012009978,0.0018729366,0.018756172,0.013696978,0.010289648,0.02153359,0.01771126,-0.012050382
