,0,1,2,3,4,5,6,7,8,9,10,11,12,13,14,15,16,17,18,19,20,21,22,23,24,25,26,27,28,29,30,31,32,33,34,35,36,37,38,39,40,41,42,43,44,45,46,47,48,49,50,51,52,53,54,55,56,57,58,59,60,61,62,63,64,65,66,67,68,69,70,71,72,73,74,75,76,77,78,79,80,81,82,83,84,85,86,87,88,89,90,91,92,93,94,95,96,97,98,99,100,101,102,103,104,105,106,107,108,109,110,111,112,113,114,115,116,117,118,119,120,121,122,123,124,125,126,127
0,-0.015073141,0.019971803,0.001990642,-0.007221524,-0.007049299,0.0038123985,-0.011109006,0.02926002,-0.031663403,-0.0130532915,-0.005851897,-0.019052794,0.0110767465,-0.00044475956,-0.00883458,0.022214184,0.008896345,-0.010860582,-0.0006041075,0.024623297,0.017773613,5.061409e-05,-0.059739903,0.019723551,-0.0031412556,0.040285375,0.0011920615,-0.0035330993,0.010507282,-0.015517407,0.0097832745,0.0009575787,-0.008409873,0.028549857,-0.008204889,-0.0027283242,0.013635589,-0.009863032,0.004356768,-0.010658512,0.019127775,-0.015191244,-0.006551261,-0.011002325,-0.00784918,0.00503344,0.024594454,0.016530732,-0.0049857176,0.07620411,-0.0009055978,0.009603601,-0.0044249073,-0.005640636,0.015319518,0.014650776,-0.0011383652,-0.0094922,-0.004519717,-0.0022109316,0.03101177,0.006648777,-0.0045563974,-0.0011957972,-0.019248117,0.011280295,-0.025548743,0.00311024,-0.01563334,0.021949016,0.07800031,-0.0009954383,-0.013869697,0.017787775,-0.015441296,0.013735772,-0.012930969,-0.0031939528,0.019417832,0.0029012272,0.018125862,0.014460147,-0.0059924554,-0.022396171,-0.019699527,0.0012795043,-0.0044968408,0.031609382,0.0152993,-0.009299791,-0.0031366532,0.006456253,-0.009957832,-0.0019218079,-0.020625489,-0.0018761526,0.03313336,-0.012233858,0.026526518,0.0024733115,0.009032469,0.025403976,-0.004993199,-0.007965254,0.025294397,0.014034377,-0.010468362,-0.0038195841,0.021637633,-0.0068191495,0.02197957,0.0024261535,-0.0069079185,-0.024002284,0.01952916,0.0022911222,-0.0029733223,0.09954281,0.0056754337,0.0031765793,-0.027755413,0.023395384,0.008490873,0.015296398,0.02381608,-0.010303177,-0.0005716215,0.020640507
1,-0.0052874824,-0.043808464,0.004187952,-0.003729544,-0.006909411,-0.028820656,0.024991542,0.018618256,-0.014245703,-0.020448092,-0.018468384,-0.05142339,-0.013706972,0.00024369558,-0.018456759,-0.017151868,0.013449278,-0.0046626125,-0.024499243,0.007188449,0.013772943,-0.0027915162,-0.03350901,-0.009971654,-0.03644274,-0.0018355885,0.02625442,-0.029688226,0.006149417,-0.014082035,0.014197485,0.024362162,0.024529664,-0.05934034,-0.013423449,0.0017276373,-0.023779882,-0.03275007,0.0069599138,-0.04493143,-0.03834152,-0.00834536,0.020013172,-0.012757099,-0.012799675,0.028934253,0.03621572,-0.035397805,-0.022010665,-0.061985534,-0.033933762,-0.03329446,0.014540552,-0.036562227,0.014232319,-0.014007417,-0.016232615,-0.022506652,-0.03049408,-0.04718704,0.0084130755,-0.02665329,-0.015166161,0.007733048,-0.008166386,-9.720793e-05,-0.0155482665,-0.025890047,-0.014806756,0.008189981,-0.052824605,0.0044620507,-0.03018736,-0.014078903,0.0020421061,-0.015011262,-0.013162609,-0.053275052,0.0072277104,-0.030282514,-0.026059328,-0.008777057,0.017044408,-0.033557083,0.0015218802,-0.040909484,-0.03696571,-0.020435449,-0.017002733,-0.020448249,0.035815533,0.011517007,-0.028722707,0.034940675,-0.009258145,-0.0042826734,-0.017837683,-0.037672583,0.0023317756,-0.019135637,-0.030854212,-0.012511745,0.010663527,-0.01858559,0.009952989,0.01223811,0.009019696,-0.0068508307,-0.03492227,-0.024534473,-0.013642226,-0.023008209,-0.009557769,-0.023702953,0.020535814,-0.022057867,-0.021614408,-0.036185455,-0.022435086,-0.03669753,0.019094514,-0.01480672,-0.018315429,-0.006916529,-0.013066673,0.003677453,0.010275166,-0.024016328
2,-0.015178888,-0.01061007,-0.0068851234,0.002170099,-0.017799616,-0.004261303,0.008532555,-0.0015664244,0.012193809,-0.03241098,-0.0073922556,0.009235274,-0.0026124676,-0.006280712,-0.02890435,-0.018198585,0.065894276,0.01013266,-0.015110304,0.0003299153,0.026565695,-0.021897165,0.008755924,0.019087536,-0.00051752647,-0.0018678342,0.014196336,-0.020389358,-0.006907541,-0.0012513367,0.0019302667,0.0196657,0.028183138,0.014024246,-0.02505499,-0.012331745,0.016920254,-0.016906109,-0.0071810978,-0.029560333,0.015631797,0.008754316,-0.02227721,0.0032887277,-0.0008812522,-0.0030247457,0.010895377,-0.004001287,-0.0128110135,-0.05903215,-0.0012844817,0.005050849,-0.016500313,-0.00107784,0.005514045,0.0014149535,0.02316005,0.008598511,0.009280838,-0.0042535923,-0.0072998824,0.0020758312,0.017833069,-0.015184752,-0.0010338022,-0.0055639753,0.040046073,-0.019449072,0.0018700076,-0.024900561,0.047863588,0.042116,-0.018322954,-0.0070469063,0.035976157,0.0085101,-0.0043089446,-0.03402729,0.012372646,-0.015763436,0.006692113,0.0040399865,0.030994672,0.00017642224,-0.016286755,-0.0038310369,0.002275918,0.017150544,0.016415816,-0.012634902,0.004325156,0.008465838,-0.023948133,-0.010509662,-0.016722387,-0.009791292,-0.015478377,-0.015388149,0.02834426,0.024695022,-0.0038848505,0.03061705,-0.015431139,-0.0069775074,0.006966082,-0.014459806,0.0070332866,0.0287183,0.033489097,0.002816854,-0.014905675,-0.00038717545,0.008680543,-0.007745144,-0.015377552,-0.0040056584,-0.017521286,-0.02457709,0.008906467,-0.013662827,-0.0013467707,-0.0019120959,-9.599484e-05,-0.009040813,0.012524088,-0.024547497,-0.001068121,-0.025928704
3,0.009921954,0.030516239,-0.00058324035,-0.0041105156,-0.012738117,-0.0022197335,0.014271621,-0.028731562,0.026959706,-0.035557564,0.0018980663,0.008579783,0.03948033,0.021409146,0.014676585,0.0009670249,0.030916194,0.02962973,-0.043811757,0.0015432234,0.02158772,-0.010594231,0.027264446,0.008081486,-0.025786677,0.04874834,0.010899636,-0.0089782085,0.008271543,-0.022025313,0.014622491,0.021927357,0.031846084,0.008138914,-0.0015341751,-0.010068913,0.004008472,-0.032585014,0.013366906,0.019691832,-0.00028654188,-0.0062272213,0.004551166,0.0029190204,0.007527345,0.011197016,0.01860688,-0.005474156,0.0045307586,-0.031670008,-0.011437545,0.006825085,-0.005314979,-0.0135093,-0.009785456,-0.0031446842,-0.0086502265,-0.017064117,0.030413792,0.007549249,0.0006110717,-0.019283406,0.004193273,-0.001611193,-0.004520516,0.005847994,0.0275439,0.0014059691,0.0081519345,0.0025689935,-0.015395508,0.0088552395,-0.008607022,-0.017701896,0.033709347,-0.017128987,-0.014105384,0.02365775,0.007275838,-0.007656278,0.014446165,-0.005680023,0.015876139,0.0044823363,-0.020634707,-0.020456268,0.009139246,-0.01406957,0.0057569225,0.010633094,0.0010053725,0.017432243,0.008973417,-0.0010986261,-0.009625201,0.0057932585,0.036970392,0.016310552,0.017265867,0.003887716,0.011216664,0.011790868,-0.0046428,0.0015719691,0.024922023,0.022861822,0.026253471,-0.011558077,-0.0036269196,-0.0015001508,-0.003304572,-0.008172625,0.0042723776,-0.006722574,-0.026185337,0.0044708634,-0.010747291,-0.028323831,0.0013026149,0.017316151,0.014358585,0.005524341,-0.0074670007,0.011177658,0.014731678,-0.009773575,0.010069806,-0.007295842
4,-0.010298811,0.011645719,0.019320719,-0.006375345,-0.0030346473,-0.0040135137,0.0067202947,-0.0011482959,-0.005967246,-0.0008289196,0.039247304,-0.016081965,0.009751854,-0.026845323,-0.0075300215,0.020628382,0.01855711,-0.008899793,-0.04114797,6.224063e-05,-0.017191209,-0.017460061,0.02740053,0.01906245,-0.0040499396,-0.0022010375,-0.01096986,-0.0042328327,0.00073789514,0.0034452376,0.005244115,-0.0076295636,0.017210368,0.011081699,0.018269809,-0.017669134,-0.0060247867,0.0014209384,0.006133593,0.018836398,-0.003019099,0.01470028,-0.014604921,-0.013943632,0.0019921148,0.0072138174,-0.025243662,0.005547279,0.0011635673,-0.022404227,-0.0028521197,0.023702227,0.0023249933,0.024028521,0.017632324,0.015891036,-0.020616908,0.00792605,0.017690815,-0.018022114,0.0060662595,-0.0072372677,0.0006298588,0.002892456,-0.0027249067,-0.016400218,0.024302619,0.0014206377,-0.016133005,-0.017195735,0.016207129,-0.0037940894,-0.020352002,-0.013562185,-0.00014575607,0.0026412043,0.016016137,0.0028293175,-0.0029496239,0.008692153,-0.0036499533,0.006939057,-0.011532234,0.018995827,0.0057995,-0.0031210042,0.01835107,0.018300153,0.031335317,-0.023093835,0.008117728,-0.003594862,0.019713271,0.0059033204,-0.008124078,0.0074897567,0.029066114,-0.014711842,0.02228608,0.010858773,0.0060595083,-0.032133743,-0.015622284,0.0042325077,-0.02559022,-0.013744998,-0.009162164,-0.0065952,-0.0010054918,0.0011839378,-0.0007926801,-0.007927147,0.03934084,0.011042747,-0.014596179,-0.0005943837,0.004218773,0.021286463,0.004245838,0.006314285,0.023514828,-0.010534837,-0.013008878,0.019998537,-0.010135755,0.0052311,-0.013583992,-0.011480155
5,0.007397696,-0.014076525,-0.009084296,0.013515881,0.014762902,0.003840689,-0.025041863,-0.0074378243,0.010684654,0.022357808,0.0074838065,0.016363362,0.013874396,-0.015387744,0.011817079,0.011122606,0.010153624,0.013667412,-0.0015353318,-0.00840975,-0.005448569,-0.0089030545,0.004083401,-0.00087236235,-0.019837154,-0.012846052,-0.0038473327,0.028409913,-0.01064716,-0.006334912,0.006719172,7.588301e-06,0.003976048,0.009359017,-0.021634793,-0.001853704,-0.005559887,-0.0017919056,-0.00681739,0.003542304,0.00091232586,0.00427589,0.027312033,0.019058853,0.016824016,0.0031972025,-0.00580139,0.012741957,-0.015684366,0.022065999,0.003788595,-0.0006298267,0.0290604,-0.008433914,-0.0007992396,0.008452882,0.0011668,0.00019809966,0.0108381575,0.0046301773,-0.0022262596,-0.0015814349,0.022717882,0.013281617,0.01606738,0.0027111208,-0.002229251,-0.004650275,0.010307072,0.008859257,-0.016001476,-0.0046293032,0.017362678,0.0051651644,-0.025955187,0.0008921651,0.0034448064,-0.0012175714,0.0024891861,-0.0041663893,0.0074990247,-0.004227884,-0.0025478594,0.0032315934,0.0026844982,0.008771556,0.008587099,-0.007937886,-0.00247622,0.0043937494,0.0074588,-0.008939548,0.00054499035,0.0073109902,0.0046305447,-0.002127125,-0.015392746,0.026286481,-0.007032031,0.019651406,0.005218919,-0.011443358,0.0013015186,0.0180162,0.0073441705,0.014993672,0.012951488,0.0059957607,-0.0032843275,-0.005650643,0.003767045,0.016212866,0.024742447,0.029462507,-0.0073382873,-0.011326474,0.012426766,0.0017394482,0.008991016,-0.028595258,0.015399867,0.017174704,0.003093647,-0.04543599,-0.005869464,0.007750347,-0.0029891557,0.0069197025
6,-0.0044982326,0.005049787,-0.0011947415,-0.00445543,-0.01818492,0.024907112,-0.021484466,0.024475874,-0.01869921,0.012171205,-0.015716389,-0.030498544,0.012971871,0.018101364,-5.6953537e-05,-0.005609047,-0.027396355,-0.012945832,0.011492842,-0.014129515,0.013654281,-0.008139393,-0.06582485,-0.0128208,-0.012534452,0.005041837,-0.011986188,-0.00491278,-0.0068937014,-0.015643649,0.006759954,0.011024079,-0.020514416,0.039341282,0.021136992,-0.009432997,0.0058561573,-0.014367675,-0.013524292,0.01782261,0.008853392,-0.0049179946,0.0005975722,-0.0021401504,0.017745396,-0.022314904,0.008313191,0.021360314,0.01575219,0.051570743,-0.01877325,-0.005972466,0.06752217,0.011925949,-0.012327345,0.010200122,0.029516863,0.038982186,0.002258572,-0.007796569,0.009405566,0.0030304005,0.023623867,0.0062337667,-0.009568973,-0.0147361765,-0.020054962,-0.003538211,-0.028269766,0.023729652,0.023577353,-0.015299648,-0.019665182,0.009630318,-0.016059704,-0.0025100796,0.00893668,-0.013924652,0.01275044,0.0005410382,0.0081809955,0.00097329594,0.019319763,-0.009452694,-0.0022399416,-0.0147761125,-0.010680017,-0.009424877,0.009040886,-0.005389103,0.01802425,0.034157883,-0.0039149877,0.0072721117,-0.009073046,-0.005847528,-0.010986241,0.0053874436,0.013411775,-0.0101857,-0.017946133,0.0007344847,-0.0043077664,-0.024144113,0.017374374,-0.011825826,-0.022105781,0.041507125,0.0028014763,0.05841735,0.008029535,0.008828996,-0.0071141506,0.010643141,0.0074100234,0.04881353,-0.0012582133,0.04338046,0.028592056,-0.0054113604,0.0009552244,-0.0011938475,-0.043877937,0.00039414671,0.016706476,-0.013966452,0.015216444,0.002695874
7,0.008243856,0.0009859436,-0.009148035,-0.00046007833,-0.012289685,0.015391048,0.010100607,0.0044896966,0.004334043,-0.0007863736,0.014238017,0.0007722492,-0.017758822,0.0249836,0.019574957,0.01188707,0.0055763046,0.029698586,-0.0027541076,-0.004149042,-0.010998598,-0.007837523,0.0019667384,-0.0103049725,0.009899804,-0.008292079,-0.0026480088,-0.0036154347,0.020676024,0.013811139,0.0025315795,-0.0028282527,0.007632028,0.01019896,0.016836558,0.021664554,0.01406488,-0.0024527162,-0.0025766923,-0.010820569,0.011321231,0.0057772463,-0.00040145224,-0.0059045423,0.008033603,-0.012785154,0.008161504,-0.008978272,-0.0056393775,0.000605577,0.0027171283,0.01410869,-0.008942775,0.015284907,-0.0018728036,-0.0063552284,-0.013842149,0.003805933,-0.01216022,0.008726496,0.01786824,0.0031065196,-0.012971901,-0.008965946,0.017186115,-0.016990406,0.0030895947,0.0017430212,0.0023280373,0.010658133,-0.0102844685,0.0027942269,0.0020094581,0.016481247,0.02349729,-0.0031770987,0.016176889,-0.0011196756,0.0035247933,-0.0053406456,0.010666605,-0.016742626,0.0416047,0.0053599314,-0.019360388,0.0074188644,0.007336944,0.023115726,0.02437594,0.0110207535,0.023501936,-0.0013780046,-0.024452811,-0.00030550343,-0.018818043,0.008655885,0.039539095,-0.0068976516,-0.00544288,0.038913693,0.012567667,-0.00950245,0.00705378,-0.012484122,0.0104773445,0.0029147621,0.0072787483,0.01385641,-0.00035227413,-0.015632445,0.0042020255,0.009239705,0.0016572846,0.0033987302,-0.017265065,-0.019704374,-0.023553392,0.02552526,0.015336344,-0.0030407573,0.018155748,-0.0011933774,-0.013824772,0.013803563,0.0016494193,-0.022069646,-0.0133986985,0.0052386005
8,-0.00990482,-0.002685683,-0.0015450332,-0.04903671,-0.004442045,-0.0052325525,-0.0081763845,-0.014133084,-0.025137274,-0.020141998,-0.0050249347,-0.0021264055,-0.00784628,-0.022627419,-0.0020366134,-0.016492413,0.005308435,0.009020984,-0.007660235,-0.015537868,-0.019225812,-0.014491868,-0.014344399,-0.014907445,-0.003457084,-0.005753119,-0.02109376,0.011849003,0.00054891687,-0.0073911105,0.0017233405,-0.027101433,-0.001164455,-0.014839598,-0.019509958,0.030009585,-0.010222859,0.0060069514,-0.010588949,-0.019381328,-0.008070638,-0.0047289664,-0.0117231505,-0.04993674,-0.008744105,-0.027382692,-0.009988378,0.007312829,-0.015237792,-0.007175386,0.012797407,0.0049508153,0.009808868,-0.0090840515,-0.025191838,0.0014648625,-0.0138319805,0.0039780014,-0.010096955,-0.0036337264,-0.0057416344,0.021066217,0.011666712,-0.019530049,-0.0085622175,-0.0104880035,-0.010965322,-0.0029863096,-0.0054380987,-0.00555388,-0.057088584,-0.01962456,0.0067360937,-0.0067794924,0.0067526735,-0.018546771,0.0020086002,-0.006612108,-0.013020746,-0.0119810905,0.021879122,-9.971921e-05,0.0072072055,-0.007255652,0.008471828,-0.022357052,-0.01297485,0.0026959733,-0.021731608,0.0025741993,0.012106674,0.00039003568,-0.00033621417,0.00017639772,-0.03194639,-0.0018987056,-0.0025322759,0.012058713,0.013971583,-0.03590285,0.0045143906,-0.040030614,0.0122139575,-0.012395785,-0.030431857,-0.02394154,0.021399377,0.007864607,-0.04026451,-0.0033561923,-0.0059619257,-0.005798709,-0.020178238,-0.020803805,-0.015839733,-0.008988162,-0.019132724,0.007968432,-0.0067318166,-0.0029026088,-0.01159903,-0.04350147,-0.013112644,-0.0058068023,-0.0070248204,0.0017292884,-0.021694448,-0.015579247
9,-0.009402958,-0.015888974,0.004020961,0.011767727,-0.0077302596,0.012099739,0.032214455,0.004738781,0.033784896,-0.004961299,0.0036814485,-0.029291071,0.029949673,-0.0067492914,-0.00058885594,0.011870878,0.0074124914,-0.021416666,0.011321321,-0.012873667,0.0016128067,-0.025823245,0.00299159,0.00013915515,0.017764697,-0.02737844,-0.033900715,-0.000542264,0.00080056844,0.02596906,0.0074162735,-0.013435149,0.03325174,-0.011688632,-0.01811712,-0.0036932903,-0.02385841,0.0013298655,0.0049480596,0.021513283,-0.000585426,0.032569118,-0.04122883,0.024891885,0.016991036,-0.025568515,-0.012650241,0.002451742,-0.00067711616,0.0031679838,0.01909501,0.020194786,-0.009167083,-0.005860545,0.015461615,-0.008798974,-0.03574385,0.025456762,-0.013052724,0.006540183,0.013393499,-0.0006705311,-0.0028423527,-0.011076653,0.027894443,-0.0040871096,-0.0114858,0.002173487,-0.023215398,-0.02975475,-0.0015537872,0.013313039,-0.0018714264,-0.004299372,-0.032920305,0.01080087,0.02400718,-0.02194954,-0.0033057078,0.009046444,-0.0026117386,0.00462619,-0.030897316,-0.015719611,0.027402256,0.0007918351,0.030549703,0.039744675,0.016453682,0.002391353,-0.016631307,0.005390152,0.022072695,0.026886975,0.011365315,0.0116433585,0.007353513,-0.042979024,-0.006368313,0.005083639,0.00476625,-0.018827364,0.010463928,0.014009214,-0.014955606,-0.03964437,-0.0016256622,-0.030799769,-0.02082864,0.0050608553,-0.025673073,0.011129515,0.05182696,-3.9397022e-05,0.014257962,-0.03917455,0.012320021,0.028334849,0.0008060975,0.0048392774,0.040748596,-0.014797035,-0.012676095,0.014335382,-0.02417984,0.002349665,-0.011198991,-0.012072894
10,-0.006956349,-0.013717141,0.012022891,-0.0012155675,0.004816547,0.032492306,-0.010356242,-0.022236843,0.016010199,0.0053448193,0.018076746,-0.05281577,0.012894172,0.002699972,-0.0054198895,0.007090957,0.00052975654,-0.011762318,-0.0068016336,-0.021634184,-0.009724436,-0.025803853,0.0154596,0.0075793737,0.022796221,-0.024963444,-0.026645537,-0.018174628,0.0070914133,0.023632543,-0.0098049855,-0.023331532,0.0003452225,0.0021914416,0.007016709,-0.017371137,-0.036736675,-0.0065227156,0.010369044,0.014861334,-0.0024739697,0.020981986,-0.028388359,0.0038472859,0.049371026,-0.0068203267,-0.02658725,0.031406973,-0.0042197867,0.001734462,-0.0030659058,-0.0134465555,0.01729142,0.013049738,0.0059694387,-0.014587386,0.006951754,0.012524913,-0.006832686,0.0023988823,8.046396e-05,-0.004150801,-0.012009296,-0.010609961,0.008411307,-0.015458182,-0.014794262,0.0035723492,0.0048976317,0.0015710272,0.0022262821,0.016576203,-0.014468637,0.0051778117,-0.010890509,-0.0026339092,0.03003511,0.014070637,-0.013125124,0.0127497865,-0.012250916,0.011657349,-0.031829163,-0.008592515,0.009965741,-0.0022858942,0.024113916,0.035716828,0.03305207,-0.009095557,-0.00878434,-0.00064681703,-0.031918667,-3.278056e-05,0.027307676,0.024650425,-0.00076095574,-0.008509164,-0.018499909,0.0072486424,0.009201421,-0.02337949,-0.015176702,-0.005318799,-0.03569143,-0.033666506,-0.01208804,-0.00885184,-0.016308855,0.015377257,-0.009869763,-0.00015744787,0.02431439,0.0024316693,-0.009229104,-0.023780458,-0.0065439786,0.0027977172,0.03088436,-0.0076235794,-0.0012067133,-0.0144064445,-0.005181601,7.296568e-05,0.0029958533,0.020624803,0.019515943,-0.0054395874
11,-0.002665409,-0.01997661,0.013076701,-0.028463144,-0.0031370074,0.014917695,-0.013152722,-0.030600725,-0.0096793035,-0.003924702,0.0020520412,-0.02068467,0.010585502,-0.0040300186,-0.0047683995,0.012972208,0.011655821,-0.0081359595,-0.019249702,-0.013372962,0.0043590628,-0.0020627445,-0.005562993,0.0011661008,0.002457393,-0.0011212832,-0.01800299,-0.0044564093,-0.00021518915,-0.0062644086,0.01400295,-0.003148419,-0.028796237,0.023398338,-0.0066957916,-0.015198234,0.0011618768,-0.008235215,-0.0144930845,-0.0039567,7.4508964e-05,-0.018663118,-0.01870209,-0.010485191,0.024246247,-0.012073071,-0.020152142,0.03220338,-0.010318591,0.008188244,0.014646238,0.0027973359,-0.00028686327,0.0004902513,-0.026116587,-0.016736135,0.0026239508,0.025606679,-0.0113406,0.02194221,-0.012952591,0.0064524543,0.017571468,0.001046843,0.0003078744,-0.0059063947,0.0044923676,-0.0029001317,-0.02282541,-0.012974226,0.04575138,0.0011801576,-0.02097705,0.018065691,0.0242816,-0.006251798,0.0045908336,0.01772318,-0.013867135,0.0060063065,0.010317268,-0.008383225,-0.021222774,0.0055131293,-0.0119355945,-0.008043822,0.0023631067,0.009672871,0.0131401075,0.0034165073,0.0064065093,-0.010331043,-0.0022166301,0.0032104577,0.008557963,-0.00328168,-0.015700318,0.026430164,-0.009672282,-0.0127175115,-0.013289477,-0.018013,-0.023191161,-0.012377272,-0.01556054,-0.007435722,-0.0012938632,0.01881147,0.0015213327,0.016336434,0.015539615,-0.008298466,-0.013522746,-0.0029395816,-0.017405728,0.026880747,-0.0044208984,0.024907803,0.00833525,0.0044209054,-0.017468521,0.0020579407,-0.023727717,-0.011552381,0.01751037,0.00814168,-0.0032467493,-0.018906841
12,-0.0041046473,0.01183269,0.013244404,0.015005337,0.0010526399,-0.010207274,-5.2733794e-05,0.010637305,0.02417571,-0.00809884,0.0007694617,-0.010515351,0.011445702,-0.004384238,-0.002839124,-0.009802542,0.0024795944,-0.0043211933,-0.008579204,-0.01355351,-0.0031199907,-0.0036169235,0.015954752,0.009655029,-0.0002075299,0.0012929608,0.009789804,0.010040862,0.0077105705,-0.009367768,-0.0030859855,0.0044924943,0.0016635876,-0.015591095,-0.0022226244,0.006882055,-0.0037903914,0.0016666192,0.004304824,0.017684236,-0.008468263,-0.014431769,2.7338961e-05,0.020583535,0.008380793,0.0002203949,-0.006730612,0.011457435,0.010659084,-0.009492738,0.0127569055,0.00071463606,-0.0149484575,-0.0053726113,0.0019209803,-0.00656358,-0.0023615952,0.004212677,0.0031506983,0.0118977325,-0.0032134133,-0.022622935,0.014736906,-0.00216175,-0.0032949303,-0.0061945994,0.013775783,0.015167676,0.0028323869,-0.00092728453,0.007500787,0.012482397,0.0036228483,-0.005594949,0.021845305,0.011151658,-0.010314534,0.0024091296,-0.008293799,-0.0012938029,-0.013641148,0.0067335516,-0.031757638,0.024963096,-0.0009304421,0.000634274,0.029813102,0.00068909966,0.0023718765,-0.0025640263,-0.019100433,-0.0046036565,0.0076870136,0.018372593,-0.0031723867,-0.0012093518,0.016783068,0.01447915,0.023338865,0.0073389676,-0.0038588243,-0.0017248186,-0.009475083,0.013286034,-0.011346562,-0.018951202,0.013005736,-0.008337214,0.0033064683,-0.0046428544,0.006353781,-0.0027510924,0.020183483,-0.0015626,0.0042481,0.012649242,0.018196058,0.016656661,-0.012498733,0.017821811,-0.0041824724,-0.006068384,0.010628562,0.015505298,0.0023068571,0.006619555,0.013199635,0.005138182
13,-0.039414033,-0.01433113,-0.018735366,-0.017737137,-0.005039545,-0.020324001,0.0108250575,-0.017316556,-0.014825653,-0.034424312,0.020281322,0.011127529,-0.008422497,0.0034346287,-0.003709958,0.006890382,0.0049159015,0.008521175,0.0024627994,-0.004674926,0.013160922,8.43059e-05,-0.035821285,-0.012101821,-0.004551806,0.0048312848,0.03642612,-0.012697312,-0.013355636,0.0065033874,-0.0075062886,-0.02964424,0.0074557676,-0.022775548,0.0039801174,-0.0053835236,-0.009990977,0.0007691552,-0.019032504,0.032144777,-0.005482598,-0.007958924,-0.03292022,-0.022314155,-0.009907451,-0.009366026,0.0017074024,0.009476664,-0.0043332647,0.016207203,-0.0036300954,0.010186993,0.00017815473,0.015300738,0.009738087,-0.056140363,-0.0059668394,0.0054107695,0.012078959,-0.023806293,-0.0057641286,0.0045415363,-0.010584157,-0.029618617,0.0036337576,-0.008673373,0.024266873,-0.0071024764,-0.021204012,-0.016053079,-0.097262636,-0.0061531626,0.0015221689,0.006328614,-0.0075678388,-0.01561177,0.021638464,-0.053347137,-0.023381868,-0.021342898,-0.030344047,-0.014282457,0.007912298,-0.02305477,0.012596958,-0.0041881124,0.018840099,0.024237571,-0.003328182,-0.008842588,-0.030280564,0.030036349,0.03313967,-0.020102147,-0.017036384,0.0073955082,0.015067531,0.0042363512,-0.010250663,-0.04337745,0.014992282,-0.0016708855,-0.003390823,-0.022857226,-0.0046589156,0.0113475695,-0.0006760905,0.03204271,-0.022800758,0.0016141367,-0.017372608,0.012741497,0.004802059,-0.01675497,0.011031021,-0.012797312,-0.015074139,-0.0032204092,-0.0163522,-0.0018295979,0.0021706931,-0.015347982,-0.0041684443,0.017874394,-0.0035967699,-0.029947313,-0.03227845,-0.035591025
14,-0.012893251,-0.015134388,-0.0065488857,-0.029561862,0.0001027843,0.011330904,0.00028551742,-0.01292005,0.0015633693,-0.017070672,0.0009196988,-0.010966522,-0.009185462,0.004841994,-0.0060853525,0.0062586805,0.031406753,0.035657518,-0.026582245,0.0021940896,0.007439101,-0.025960512,0.0047906255,0.0037968697,-0.005818783,0.043241937,0.015997728,-0.009165823,-0.00025187264,-0.011867184,-0.0077411095,-0.006975516,0.03493859,0.00096882647,0.012238585,-0.006888001,-0.0070035947,0.0006313711,-0.0041087437,-0.0071961926,-0.00519913,-0.002753321,0.017904067,-0.030755885,0.012410712,-0.013378829,0.0156219,0.0043339427,-0.0066692294,0.008764443,-0.0068941293,-0.023711652,0.0055253007,-0.0074469703,0.0071624,0.0432722,0.050079826,-0.017400727,-0.011439224,-0.008179698,0.022809628,0.0010153615,0.023061141,-0.0054842727,0.021890251,0.02278778,-0.008274287,0.02687584,-0.008833931,0.018618135,-0.01574846,0.0044278153,0.003865466,0.023023782,0.008567514,-0.009029627,-0.008144056,0.019105187,-0.00023563512,0.008948803,0.0019913034,-0.001990071,0.0010988126,-0.0070348945,-0.005037543,-0.0044408077,-0.009047199,0.0077731,0.0062198937,-0.004663956,0.030998128,0.024412004,-0.014650045,-0.02572378,-0.014762165,0.008327921,0.018079737,0.027533397,0.0075920704,-0.0016125838,-0.0035384013,-0.0027732165,-0.011853223,-0.017060136,0.03413528,0.03536507,-0.017648095,0.016754635,0.016330803,0.015591413,-0.020906527,-0.0031048942,-0.026734902,-0.0036865382,0.013237686,-0.005386807,-0.0042895926,0.013803658,0.006257928,-0.002491518,0.009850792,-0.023672815,-0.011781937,0.0017401229,0.0043277736,0.004120262,0.018280543,-0.016113278
15,0.017389122,-0.016539978,0.0052233394,-0.030137496,-0.0056280745,0.0013416499,-0.00599541,-0.0077479095,-0.023481065,-0.0073278053,0.012446146,0.011139302,-0.0022015823,-0.009335819,-0.009011093,-0.023607993,-0.008503372,0.0069495803,0.002815081,-0.021160293,-0.0040564574,0.0055786776,-0.016787788,-0.016187975,-0.02001348,-0.015343755,-0.017803695,0.0034018802,-0.0074742706,-0.0070635285,0.0030625795,-0.011840577,9.9579476e-05,-0.00059678114,0.0059203915,0.016266081,0.0055498728,-0.016927605,-0.008421062,-0.0077889143,0.0014315906,0.0060457126,-0.0011865882,-0.021537881,-0.015600299,-0.0075257868,-0.017593388,-0.015910346,-0.015390712,-0.015500493,-0.0050896336,0.0134298755,0.001914164,-0.0021694647,-0.026997387,-0.008867029,-0.004881487,0.00032465335,-0.008451463,-0.006318455,-0.014241232,0.0023526903,-0.001711807,-0.0032920244,-0.0131864445,0.00068805355,-0.006173161,-0.0051412145,-0.00097505597,-0.006224219,-0.01676362,-0.007650975,0.008949469,-0.0006755336,-0.014542878,-0.015231996,-0.008959921,-0.0063480563,-0.012655267,-0.012604737,0.015479959,-0.009261222,-0.0036343369,-0.0016256744,-0.00039249074,-0.01949085,-0.0226425,0.0035810561,-0.009392657,-0.009840476,0.004172617,-0.0068723913,-0.009772504,0.008553234,-0.03400954,-0.0023468954,-0.01075054,0.010260984,-0.0022818195,-0.026483856,0.0023919896,-0.02365228,0.002536115,-0.016511334,-0.027335651,-0.020007003,0.0073338593,-0.015374055,-0.039674662,-0.007687073,-0.019048363,0.001764611,-0.021634946,-0.0016778948,-0.017618945,-0.0062061963,-0.018122291,0.00016049566,-0.008287039,-0.011295813,-0.0019368457,3.91581e-06,-0.015098315,-0.0019420149,-0.007712288,-0.0010691984,-0.016201764,0.0010852428
16,0.009209779,0.00068813545,0.010063068,-0.008762547,0.002338575,-0.0068106884,-0.026393527,0.0018245672,-0.012567321,0.017556826,0.0044202427,0.011753162,-0.021137875,-0.013081003,0.016169775,-0.005684718,0.00513068,0.016562322,-0.0051758997,-0.020139404,0.009142846,-0.009687042,-0.018253727,-0.018825307,-0.010171906,0.0031587428,-0.005632564,0.0026495885,-0.012363261,-0.0021613252,0.0046152696,-0.023349011,-0.0009063327,-0.0019163422,-0.01732829,0.008451747,0.0020802773,-0.017725179,-0.0073636514,-0.0052506025,0.00574613,0.00450274,-0.00259772,-0.015403337,-0.013128296,-0.0037129833,-0.004427298,-0.005809217,-0.01715739,-0.00082343636,-0.010419539,-0.0074237366,0.018373448,-0.009805945,-0.028326469,-0.004113128,-0.0078711305,-0.016752658,-0.0004749113,-0.006650045,-0.011051038,0.0028594565,0.01593118,-0.004473767,-0.00046621525,-0.008548245,-0.00077659247,-0.0052757612,0.0027855076,0.003342071,-0.0061026015,-0.0034286934,0.012607519,0.011331685,-0.013784653,-0.018653598,-0.0064864974,0.009577777,0.0002949613,-0.019485269,0.004070612,0.0029785605,0.0010488823,-0.007781528,-0.0033329993,-0.024609834,-0.02445268,0.0057817884,-0.009942371,-0.0059281937,0.006033379,0.008767236,-0.01697445,0.016221808,-0.02447944,-0.012668193,-0.011837674,0.013416738,0.0022844695,-0.023424093,0.0127397105,-0.02161756,0.013934484,-0.016041823,-0.011189536,-0.024578476,0.008213744,-0.0051521403,-0.041898455,-0.0036367937,-0.011572695,-0.0013385623,-0.018812785,0.014539996,-0.011833003,-0.007227404,-0.021041974,0.017721895,0.0035834417,-0.016702032,0.0054928963,0.0032097925,-0.021732476,-0.0077039083,-0.0012369695,0.001715826,-0.011757418,-0.0052663423
17,0.0042642476,-0.0016425779,-0.0022448255,0.020954235,0.0051019285,-0.006555339,-0.00072028325,0.004245117,-0.014284964,0.033147387,0.0043365676,0.023365464,-0.037737742,-0.020382604,0.012805521,-0.007532112,-0.0045324587,0.0131287165,0.011853656,-0.0061791455,0.022083312,0.0045244745,-0.0035838622,-0.020906078,0.0045776935,-0.025506567,0.003151271,0.0033089109,-0.015799308,-0.011011035,0.011225986,-0.0144409835,-0.017770078,-0.014366913,0.017262014,0.004234607,0.011740494,-0.01682249,0.010098308,0.012445934,0.0018270843,0.008559656,-0.0020889305,0.0019119406,-0.013823604,0.0023220582,-0.013724716,-0.013738501,-0.009546112,-0.0038502717,-0.007880919,-0.014378639,0.0031338222,0.0059532495,-0.015453629,0.0056812703,-0.0052347365,0.0018324038,0.00027086659,-0.008566163,-0.010385096,0.0012723331,0.02353853,-0.0009270213,0.014139639,0.002185492,0.017801765,-0.005609197,0.010771335,-0.012280286,0.024877595,-0.0057720942,0.018880993,0.0010288805,-0.041582406,-0.007818529,7.3944566e-06,0.0033114527,-0.021200685,-0.011971659,-0.0012602946,-0.011455288,-0.003201901,0.00033494126,-3.787602e-06,-0.011082678,-0.015682755,0.002144857,-0.0038302979,0.011649813,-0.00800601,0.0122300275,0.010285582,0.03053959,0.010536155,-0.00428406,-0.01491592,0.0054221577,0.0051471777,-0.0034163708,0.005109856,-0.011585293,0.012290826,-0.01455718,-0.0049668225,-0.004395552,-0.012190228,0.008204648,-0.028386971,-0.024573987,-0.02656703,8.10328e-05,-0.01763623,0.016863277,0.004636691,-0.011410756,-0.026255468,0.015690047,0.0030856128,-0.0056476207,0.00022705994,-0.019636413,-0.014755385,0.01186869,0.002769859,0.010246857,-0.0097590005,-0.0060185855
18,-0.00012603962,-0.023559442,0.0021302258,-0.010261767,0.013300543,0.004897094,0.026221108,0.019900998,-0.01424063,-0.00971125,-0.0043296493,-1.5073933e-05,-0.022047246,-0.01765652,-0.024150115,0.012145149,0.0035607775,0.006037223,-0.01552357,0.0018048713,-0.015391931,0.008986582,-0.016322179,0.0028058202,-0.024756806,-0.02607112,0.046771545,0.0075250557,-0.019396288,0.010679937,-0.0153193055,0.0137774935,0.012616316,-0.015718764,0.025680583,-0.027921442,0.017262772,0.013493309,0.0072917086,-0.017768383,0.00702976,0.009514806,-0.0030008506,0.0047821337,0.02045724,0.017426686,-0.009515752,0.0019369599,-0.009031182,-0.007050975,0.0015799317,0.016312456,0.005205447,-0.020197166,0.02340502,0.010149696,0.0031418884,-0.026039507,0.0043292907,-0.0004632397,-0.00931134,-0.012525947,-0.01105284,6.5963875e-05,-0.009018313,0.0053924564,0.0073221517,0.0018190725,-0.0021617252,-0.004632055,-0.011027452,0.004264783,-0.00051225873,-0.0036379974,-0.04347352,0.013204329,-0.015183484,-0.04558188,-0.0049293744,-0.0030534735,-0.026109852,-0.018412782,-0.02204482,-0.0060351486,0.009401459,0.031104388,-0.009716025,-0.0025801007,0.014149732,-0.016451297,0.0084841475,0.0014686625,0.0035722826,-0.016546281,-0.013807541,-0.0020905645,-0.013537006,-0.019997802,-0.00472183,-0.016965305,-0.0062858365,0.016841166,-0.014691198,-0.011625542,-0.0027499513,-0.01131342,-0.014581015,0.01277263,0.025811287,0.010390638,0.00695663,4.9823477e-05,0.0008687084,-0.0013041521,-0.0077854577,0.009456526,0.0109664565,0.0013090534,0.014484052,0.0017508578,-0.0004927116,0.009248082,0.011308666,0.004326796,0.0088835545,0.005303222,0.014891055,0.0033694247
19,0.012191816,0.009347448,0.0005580492,-0.018511318,-0.015182445,-0.027513633,0.0006288648,0.016530128,-0.0027433778,-0.015694141,-0.023711443,-0.013632662,0.0074129286,0.01202332,-0.011613336,0.00019781584,0.0151721295,-0.0056278775,0.004301529,0.011849857,0.019574495,-0.0025217573,0.024840875,-0.019912735,-0.00062509766,0.01667575,0.010933376,-0.023804976,0.020762963,-0.0067947996,0.0007059224,0.010598149,0.0033668114,0.0054493365,-0.015218351,-0.014792561,0.015269685,-0.0042559705,-0.010877725,-0.004328457,0.020771416,-0.01638317,0.0061872173,-0.019503342,0.0017540941,-0.00658773,0.03666575,0.012119142,0.008456504,-0.02504166,-0.014631251,-0.007145622,-0.02090682,0.0029404336,-0.018707847,0.00021602877,-0.026339777,0.0074542845,0.004611905,-0.017737305,0.005358295,1.4106507e-05,-0.003246196,-0.009037511,0.0004349939,0.0021965303,0.017776137,-0.016376259,-0.0035796869,0.016403783,-0.004992856,0.02539342,0.0105631035,-0.01340673,0.032004133,0.0016627787,0.010176782,-0.002841607,0.012948738,-0.0033319185,0.019576266,-0.022700353,0.017088031,-0.0025128683,1.1391893e-06,-0.03138517,0.00869016,0.002392389,0.009090716,0.0021621448,0.014000862,0.0006702365,-0.0074142064,-0.032053962,-0.011221133,-0.0031670823,0.003960423,-0.013398222,0.02631551,-0.0040119826,-0.0009987871,-0.0135877,-0.0117448345,-0.0018749294,0.00546734,0.03761916,0.005359102,0.025993995,0.009494526,-0.020076692,-0.005764107,0.01911669,-0.007625536,-0.010621012,0.00011138793,-0.019786062,0.00293782,0.00928172,0.002187882,0.0055562356,-0.0021801807,-0.0056090197,-0.018578757,0.019579994,-0.0056486684,-0.012478038,0.018258963,0.0051182653
20,0.0045947004,-0.005604865,-0.01830348,-0.017316043,-0.01073517,0.0041882894,0.016665975,0.014939555,-0.0056543695,-0.011746859,-0.005576627,-0.016035274,-0.038526304,0.006179962,0.008018183,0.0035178151,-0.03664003,-0.034406006,-0.0073409765,0.0146534005,0.016280917,0.0020758412,-0.026768595,0.0047141006,-0.018650305,-0.09407532,0.0096649295,-0.030264486,0.0020698332,0.0030825217,-0.00035246974,0.0071962727,-0.060798343,-0.00064137834,-0.0009068013,0.039381124,0.013264741,0.0067502544,0.012103486,-0.010798362,0.014778572,-0.0045026755,-0.0053884727,0.0048703756,-0.007257527,0.0059398534,2.9003502e-05,-0.03550436,0.013706719,-0.04418046,0.011601196,0.012093246,0.0047572884,-0.015577493,0.0022002463,-0.015202638,-0.010156222,-0.029561764,-0.011128641,-0.026013376,0.007708852,-0.022560202,-0.015064686,-0.00023444368,0.0012385349,0.0053314264,-7.5685755e-05,-0.0027273037,0.015619964,-0.008745864,0.011445548,0.0050635175,-0.016026748,0.009621085,-0.03928728,-0.007239046,-0.008266104,-0.0035007591,-0.0066976896,0.0067833504,-0.02691344,-0.017442117,0.00035428206,-0.038051855,-0.008410522,0.0033416154,-0.007892291,-0.007288822,0.013518207,-0.0088523235,0.017919028,0.02296641,-0.018347606,0.017113341,0.007899428,-0.006693887,-0.008516108,-0.016612807,-0.0028534748,0.006550699,-0.023333274,0.005244452,0.004319961,-0.035466544,-0.018883675,0.021841511,-0.023943374,-0.004095065,-1.4402673e-05,-0.005303239,-0.00264312,-0.013173927,-0.012990262,-0.041184068,-0.022978166,-0.03654132,-0.02295983,-0.027674336,-0.010271619,-0.0031223418,0.011935549,0.0068822647,-0.0044653714,0.014258375,0.009581202,-0.030154029,0.010200991,-0.017009746
21,0.03971316,0.014033159,0.015241335,0.00025232177,0.012687054,0.0018868282,-0.006941185,0.0075749117,0.022814782,0.0016650733,0.012224703,0.029495286,-0.00789862,-0.0021122526,0.00075392827,-0.013331821,-0.011467004,-0.0075351894,0.029846476,-0.0149082085,0.023067925,0.029339077,0.00071349135,-0.009030374,-0.009219496,0.00291385,-0.0077969497,0.005352697,-0.009861351,0.014460097,-0.010020375,0.0015718787,0.0038614997,-0.0010472051,0.032320414,0.014861735,0.013263869,0.007688504,0.015997395,-0.0173679,-0.00045443408,0.018859826,-0.02654943,-0.01818276,-0.017475883,-0.010048145,0.0126777375,0.0015591715,-0.023466557,0.014193607,-0.009895492,-0.014833773,-0.0064322823,-0.0017671206,0.009450036,0.025903396,0.030695448,0.00057127676,0.02524724,0.01359976,-0.019256463,0.0024958919,0.0071886852,0.0072335964,0.0057242583,0.0060232603,0.0058560697,0.009181679,0.019470762,0.014794977,0.030897373,-0.014894237,0.006152763,-0.026222061,-0.037041713,0.0022265739,0.0097103715,0.0047513805,-0.017282946,0.01648457,0.0251061,-0.018805368,-0.027651645,0.00029496662,0.0015385861,-0.013251613,0.025218468,0.010047937,-0.0039475923,0.023180906,0.0004857785,0.011873948,-0.005615207,0.009994438,0.030266847,0.0020397801,-0.0008855056,-0.005403427,0.0026565555,0.0012508386,0.017022438,0.025894249,0.012754563,0.027886562,0.00538556,0.0007933542,0.011415802,0.00076479587,-0.01006417,0.007572988,-0.0047969157,0.0070945434,-0.0027050488,0.0064792666,0.033399682,0.022114638,0.013532417,-0.034631334,0.009667391,0.0047362735,0.0069852257,0.0018247573,0.022131644,-0.011486811,0.010686368,0.018069346,0.0044778464,0.024446419
22,-0.0022250274,-0.022487829,-0.0043113455,-0.004239501,-0.016099839,0.007161109,-0.012746271,-0.0143172825,-0.03001597,0.0057171495,-0.016430372,-0.02436075,-0.006052919,-0.021877827,0.024968652,-0.007456443,0.00092806475,-0.018660516,0.019074239,0.012201235,-0.017890083,-0.0032094768,0.020232568,-0.00043691945,0.03080724,0.030286102,-0.020415429,-0.010220557,0.02154343,0.013870295,0.0060010245,0.0013400934,-0.028996842,-0.0077704736,-0.032058537,0.0015482901,-0.0071628913,0.0032577831,-0.0066181514,0.010154344,0.00077058264,-0.00023753771,0.009788083,-0.000109130066,0.012902555,-0.005181406,0.008738107,0.0053173364,0.020355158,-0.002024563,0.025519898,0.010806885,0.010275204,0.0071876803,-0.019024083,-0.015003451,-0.016662478,0.021569367,-0.017596625,0.003049084,0.017825227,0.001525902,0.0002463675,0.0083609745,0.03570373,0.010157069,-0.01590739,0.014846344,-0.006714262,0.0011723952,-0.008016979,-0.0057668774,-0.0107479105,-0.00965895,0.056213815,-0.00046664302,0.0021800697,0.0031126323,-0.0059210486,-0.016076082,-0.008316357,0.017197523,0.0026442793,-0.019827807,0.0007765431,-0.010612416,0.0020443394,-0.03517252,0.008347467,0.00040954544,0.006368325,-0.006041784,-0.028928801,-0.0066302456,-0.011814397,-0.015473065,0.010519691,0.0077596507,0.020027744,0.005483725,-0.0011264537,-0.036080234,-0.00896853,-0.0036557605,-0.012039108,0.008003232,0.0048740995,-0.022689462,-0.023164522,0.012684134,0.008861615,-0.009760824,-0.014790979,1.6281458e-05,-0.011345459,0.001656334,0.012250528,0.010977903,-0.009964661,0.0020485346,0.0063644215,-0.022012725,0.000112334565,-0.01490875,-0.007483715,-0.01631421,0.008038984,-0.015946353
23,0.0031765527,-0.013462723,-0.014596679,-0.001305159,-0.00420794,-0.005659771,-0.012968484,0.02684669,0.0017578135,0.01821234,0.021418836,0.016004182,-0.033914007,0.013359477,0.006266697,0.009854607,0.030874958,0.007692411,0.0009960914,-0.0022090995,-0.0057464894,0.013254591,0.00946664,0.005231856,-0.0067701396,-0.008124063,0.017890116,-0.014742624,0.025300168,0.011318324,0.00069459615,-0.02869727,0.02108028,-0.034015685,0.021006284,0.0063275527,0.0069334395,0.020686137,-0.0023890568,0.009766714,0.023451893,0.034713306,-0.001402883,-0.007820834,0.015102134,-0.013284746,-0.008777694,-0.0058014304,-0.007990663,-0.01127831,0.00031824186,0.013968457,-0.019966783,0.0019635642,0.0014891953,-0.014097555,-0.017344514,0.05237274,-0.0014663789,-0.02075935,0.0008491043,0.030414639,-0.016341314,-0.0066960435,-0.013721866,0.000931662,0.025813257,-0.005075737,-0.007955162,-0.012880171,-0.024990423,0.008387856,-0.011074869,-0.014345074,-0.03430943,0.009853996,0.013232855,0.009650904,-0.0010589086,-0.019420912,-0.013893148,0.0020255425,-0.025223568,-0.004530356,0.02219914,-0.0015416675,-0.016482374,0.023583397,0.01683105,0.0026826577,0.0026419607,-0.036969293,-0.023140103,-0.0020926092,-0.002508135,0.024592042,-0.0060164253,-0.0024151728,0.0142989345,0.013569603,-0.005262068,-0.013174239,-0.006786719,-0.012107491,-0.028759528,-0.032617986,0.00037936593,0.0022268905,0.015408661,0.0076549035,-0.021085015,0.007424952,0.037006993,0.0005957747,-0.030178647,-0.0038306655,-0.0008415596,0.015033209,0.018843425,-0.019730907,0.009446703,-0.046876743,-0.0031053834,-0.0068885996,0.00305177,0.008844685,0.013092002,0.008554817
24,0.008923792,0.01688685,0.0031999338,0.002393649,-0.005725844,0.00019043828,0.0101147555,0.0054224874,-9.335748e-05,0.0035255048,0.008955366,0.007999148,-0.017190544,-0.00943558,-0.0037996683,-0.010930745,-0.011267524,0.0013676304,0.0067527704,-0.00251641,-0.001016178,0.016254691,-0.009195044,0.0011079496,-0.00054832676,0.015167599,0.0063284445,-0.0012182263,-0.014478512,0.011568952,0.0038687561,0.016556567,0.009841306,-0.014727687,-0.0017871538,0.0014633578,0.025829144,-0.0040917424,0.0090611335,-0.008742728,0.00081740925,0.01923503,-0.00743933,0.0009160479,-0.0007574845,-0.0038972665,0.0012651233,-0.016730124,0.0036815258,0.009719145,-0.007003593,0.021385629,-0.024539338,-0.008830189,-0.002057355,-0.0037318647,0.001569414,-0.008669729,-0.01123079,0.0063014296,-0.006463385,0.004792566,0.007112917,-0.0037065973,0.0014565866,-0.004182539,0.0032497055,0.0048037726,-0.0065920344,-0.022321273,0.0050465846,0.014032463,0.0029706014,-0.008898499,-0.008650069,0.0033449582,-0.007242551,0.0005650593,-0.019108808,-0.0026361279,0.0032201994,-0.005327062,-0.022979064,-0.012382724,-0.0019647349,0.011133718,-0.005879665,0.005801091,0.0137098115,-0.009470613,-0.009913889,-0.023197984,-0.013737941,0.012495824,0.009180067,0.0038944394,-0.0047350894,-0.011606249,0.031231787,0.00256838,0.016655013,0.0170961,0.0077304486,-0.0038929307,0.008024735,-0.005159873,-0.014165897,-0.015331015,-0.00622782,-0.0135462675,-0.014611472,0.012331278,0.007270537,-0.0040635546,0.020198831,-0.014916645,0.0007987172,0.00024452433,0.0072871903,-0.0062525063,0.017194225,-0.013250869,0.02115376,0.0070964918,0.004909839,-0.010433314,-0.013638571,0.014221329
25,-0.0037126981,-0.0038962567,0.0029746748,-0.0020067927,-0.0026164406,0.0065873545,0.021961605,0.015256578,0.00562127,-0.0070953467,0.021051621,0.016178524,-0.019577645,8.539243e-05,-0.017189207,0.011417688,0.008351846,0.0021772413,0.011983989,-0.00964451,0.008853812,-0.0028982812,0.0015129667,0.007160343,-0.005775215,-0.0037103354,-0.008805029,0.0044042254,0.012439818,0.011030895,-0.014135271,-0.009094709,0.012266042,0.0054043154,0.018564,0.028513264,0.01025273,0.0036723246,0.00800496,-0.037883166,0.023566939,0.016927626,0.000938152,0.0005537512,0.0008637146,-0.011785716,0.007155687,0.011475538,-0.004144631,0.017183945,0.00460195,0.022995386,-0.0066413647,0.0066644987,-0.01099358,0.00022217967,-0.0063505946,2.1250904e-05,0.00900187,0.01793932,0.01918927,0.02526877,-0.008471649,-0.0045606266,-0.008555234,-0.02067821,-0.009167175,-0.0003190367,0.015270356,0.0027787955,-0.0062497626,0.0041821846,0.0031466642,0.019332996,-0.025153335,0.00083963136,0.027748227,0.03016222,0.0065174517,-0.0036970202,0.010081771,-0.016706545,0.023695461,0.013827065,-0.019498406,0.008695286,0.009549426,0.020054895,0.0053168163,0.018257007,0.023813564,0.0023993866,-0.009971324,0.004077715,-0.0048578316,0.009284631,0.029914644,-0.01922606,-0.0007477852,0.029595632,0.0057453685,0.006436499,0.025866324,-0.009366901,-0.016234081,-0.0052369903,0.0015970095,0.0004798135,0.013264022,0.006788822,-0.010795918,0.0063281558,-0.0039134733,0.004206415,-0.0065409853,-0.019654455,-0.01803358,0.005662427,0.0193784,-0.017132457,0.010398451,-0.005684133,0.0006831122,0.004270501,-0.0029787922,-0.0028190997,-0.0016100626,0.008101256
26,0.006502497,0.013965361,-0.008441994,-0.0014796427,-0.011197758,-0.008063518,-0.0039225644,-0.019308815,0.018133271,0.0027110523,0.004054176,-0.009033531,0.020386647,-0.009574846,0.007651365,0.014371585,-0.0013333991,0.010834526,-0.0030094467,0.018042158,0.018713506,0.007873987,0.016784262,0.011946027,0.0065006064,0.00066098693,-0.009333891,-0.017437259,0.008079738,-0.0013370109,0.013325661,0.0015096874,-0.01947379,0.0021502317,0.0035176955,0.0158075,0.004701596,0.0047923652,-0.0028021089,0.009665354,-0.00565758,-0.0023230002,0.004185757,-0.01492072,0.008431055,-0.0015452311,0.002047161,-0.010929393,0.01807911,0.00058767135,-0.0017003089,-0.016334744,0.0021164936,0.024892284,0.0027392376,0.0073209186,0.0063363286,-0.0003454846,0.014673381,-0.014185058,0.009475766,-0.011225927,-0.02189159,0.00089662784,0.009664559,-0.007886422,0.0035728964,-0.005097303,0.008701865,0.01696178,0.008947179,-0.028004164,-0.016218178,-0.009705861,-0.018546386,-0.0018130542,0.006334553,-0.0032889014,-0.0053406423,-0.025357751,0.002031518,-0.0038951065,0.022161437,0.009934589,0.008241204,0.011453785,0.02687203,0.006285805,0.01536625,-0.010379484,0.008292648,-0.006175316,0.005731782,-0.00277638,-0.010138294,0.004129959,0.02245034,0.0025192762,0.014171688,0.0056842994,0.0028922097,0.019537318,0.00077333936,-0.00911906,-0.017119354,0.016275564,0.0015872892,0.003671618,0.011396475,-0.0028354924,-0.017432502,-0.0017851667,0.010323653,-0.0017176123,-0.004499516,-0.014932163,-0.0032810709,-0.0059632976,0.009222212,0.0053217565,0.0018076727,-0.01188529,0.011361762,0.007826146,0.0066242996,-0.008731578,-0.010583663,-0.0049376185
27,0.008704344,-0.005901857,0.0074681453,-0.015838848,-0.0020585414,-0.0012185292,-0.011562539,-0.006430619,-0.02265226,0.010146762,0.0025591415,0.003515687,-0.02664908,-0.0073666894,0.008124639,-0.017263172,0.0019035685,0.0093650585,-0.001092967,-0.010595535,-0.0022435337,-0.002384175,-0.0137854405,-0.0022970184,-0.012639965,-0.011032543,-0.0015348333,-0.0036148613,-0.015574832,-0.011335339,0.007543791,-0.012689099,-0.0057780887,0.010019035,-0.0038393703,0.011715429,0.0034314261,-0.022486318,-0.0064877532,0.0051165894,0.006783444,0.004972852,-0.0034754358,-0.019049754,-0.007853769,0.002048293,-0.012731869,0.00087727676,-0.018941864,-0.0025944107,-0.006821183,0.005095652,0.011454986,-0.01830621,-0.02638623,-0.0037953635,-0.01133572,-0.013306529,0.00052912236,-0.011651236,-0.0153320655,0.00017213736,0.010683309,0.0016334308,-0.0060058483,-0.019637631,-0.005864821,-0.014064629,-0.012285288,7.499478e-05,0.004351162,-0.002073051,0.00061385834,0.007367756,-0.021216111,-0.009417636,-0.00992628,-0.00043461556,-0.010646605,-0.0085325455,-0.00024505603,0.004291898,-0.0018946525,-0.0014347377,-0.0013318049,-0.020932997,-0.013788092,-0.0015881829,-0.0018993033,-0.009123569,0.012175088,0.0070434227,-0.007684117,0.0066428324,-0.011626808,-0.012834954,-0.017204234,0.0035142303,-0.008438471,-0.026395455,-0.0005841985,-0.0063602724,-0.0067640906,-0.011079425,-0.00587853,-0.01364992,0.0009168714,-0.0030652124,-0.0244547,-0.0028575377,-0.0074651414,-0.0042837425,-0.019011568,0.0044442597,-0.0077675013,0.00038717408,-0.018720642,0.004330577,0.006143434,-0.0063374843,-0.0060075377,-0.004534943,-0.0073754336,0.0047437334,-0.0045931865,-0.013609664,-0.011866148,-0.0037725165
28,0.003198204,-0.002000201,-0.004063903,0.005370849,-0.003991423,0.0006059364,0.0009058738,-0.00096853584,0.011272615,0.0051509663,0.014477925,-0.017084813,0.00540806,0.035111826,0.018254973,0.012773693,0.011378986,-0.020557763,-0.01845862,-0.010194406,0.0020739331,-0.008285746,-0.0017415441,0.010875341,0.011036282,0.0025453414,0.00085500366,-0.004685318,-0.0005726081,-0.0014132743,0.016611347,-0.008448744,-0.0066809854,-0.014504749,0.02332182,-0.016813701,-0.014213288,-0.010081573,-0.00397822,0.018780971,-0.013845738,0.016610237,-0.025227536,-0.021520562,0.006236183,0.004944425,-0.011287476,-0.05363995,-0.0021344211,0.012029572,0.019605553,0.0018823912,-0.009546093,0.009952493,0.020109735,-0.0064491006,0.004501466,-0.024535066,-0.005937084,-0.014921306,-0.020823147,-0.006723941,-0.00029206718,0.0013392883,0.012474768,0.00060771336,-0.010188501,-0.001426785,5.9449198e-05,0.00671962,-0.0049391594,-0.007477142,-0.01502609,0.0017548263,-0.0025898411,-0.008683154,0.012104868,-0.0370259,-0.004870129,-0.0047595506,-0.007632203,-0.03010734,-0.012361977,-0.020875992,0.011029175,-0.0060656015,0.0077484935,0.018349221,0.014364585,-0.007410963,-0.025929417,-0.0064050276,-0.021601152,-0.0057647,-0.022220584,0.016506277,0.016264344,0.01203243,0.00084556575,0.01953793,-0.012191695,-0.0033056359,0.0033588551,-0.005703266,-0.0056955162,-0.012774808,0.002105795,-0.018055713,0.013837909,0.0052048927,-0.006986822,-0.018696418,0.025625004,-0.009077299,0.035846148,0.009300945,-0.0051688114,-0.024515344,-0.0036907948,-0.00875589,0.014465821,0.001706346,0.00889004,0.0043731183,-0.011155729,0.015213346,-0.020514162,0.037488572
29,0.0019463119,-0.01241718,-0.0033591685,-0.0031303156,0.0049430155,-0.0053017507,-0.014843001,-0.00071954797,-0.021949098,0.018519556,-0.0030915225,0.012610647,-0.015812501,-0.0034887646,0.01164167,-0.012798423,-0.0033716746,0.0062094126,0.0018036845,-0.010046492,0.0037141722,-0.013729276,-0.0071958518,-0.0010530632,-0.013700045,-0.025128923,-0.0016319318,-0.000852027,-0.014330151,-0.011175387,-0.002609201,-0.0028128945,-0.017104307,-0.006799246,-0.00026878825,0.0019749205,0.010071686,-0.017835857,0.0031320837,-0.0039955643,0.0054559465,0.0068693273,-0.006855673,-0.01440524,-0.009552888,-0.0025957485,-0.014949444,-0.004262043,-0.0120636895,-0.0019412703,-0.0053997333,-0.00045863265,0.023444736,-0.010415134,-0.012539278,-0.0032152825,-0.010415222,-0.0064300736,0.000424923,-0.011235479,-0.0045988522,-0.0031158477,0.00027599066,0.0011375964,-0.0051775766,0.007765105,-0.006441813,-0.013396478,0.0052757743,0.006017421,0.014073536,-0.005884442,0.013425923,-0.008098889,-0.020169528,-0.003774242,-0.0023400397,0.0019381737,-0.0019402866,-0.013390314,0.0015765748,0.0005929509,-0.010448051,0.005694521,0.0103545785,-0.017369932,-0.018032761,0.0071177157,0.0019756088,-0.0075587006,0.0041728513,0.008047806,-0.0013869398,0.008225297,-0.0040126625,-0.011281387,-0.018545862,0.013953206,0.003087131,-0.019312374,-0.001648272,-0.011706886,0.004749749,-0.006436115,-0.0056363917,-0.009728395,-0.0009620303,-0.0054604304,-0.027358165,-0.00017668602,-0.0029226774,-0.0040408354,-0.019638384,0.00012580767,-0.0017614113,-0.009201329,-0.01878201,-0.0018180885,0.0015119809,-0.0056122267,-0.0050470657,-0.0020983464,-0.0016885984,-0.003418679,-9.914812e-05,-0.00036091407,-0.012819742,0.0008030712
30,0.035948005,0.0313191,-0.020570861,-0.009299624,-0.0044998205,0.00024863184,-0.016519882,-0.008092829,0.0190493,-0.002544799,-0.026783815,0.031200843,0.024076099,-0.01285312,0.025567422,0.027145805,0.004595629,0.022971475,0.027115429,-0.016032653,0.0056000915,0.0129029015,-0.025810974,-0.008710263,-0.0014253817,0.004660638,-0.018191088,0.01313133,-0.010823368,-0.035748627,0.0011599456,-0.011839605,-0.0047828606,-0.00075122295,-0.014745288,0.021593075,-0.015343418,0.013177811,-0.027387451,-0.0065980805,-0.006485371,-0.018446362,0.024793273,-0.0064822384,0.0027209055,0.003031755,-0.0043818285,0.0053476095,-0.021573616,-0.017032348,-0.014555059,-0.014111169,0.005846537,0.01064956,-0.0072793076,-0.005296996,-0.009388824,0.026228875,0.002488922,0.013271903,0.013064091,0.014265378,0.020740166,0.009458659,0.007654518,-0.027523344,0.01554803,-0.019207288,0.012767888,-0.00321278,-0.022620454,0.010905261,0.008338164,0.011612515,0.0318153,0.0074856924,0.019024549,-0.0025174976,-0.0051140324,0.048481125,0.015566098,0.0016190569,0.044353995,-0.0031667585,0.008547585,0.003567427,0.0016385528,5.7597998e-05,-0.01699552,-0.008091543,-0.018406684,0.023343444,-0.007208915,-0.005042208,-0.0008755695,0.0029752061,-0.009870331,0.016927874,0.015319622,-0.00340739,0.018179195,-0.015591166,0.014524625,0.03981368,-0.023683352,0.010172729,0.0039115595,0.015203641,-0.02765061,0.00076356105,0.0024840843,0.010828804,0.029776344,0.0052918172,0.00835343,-0.016410245,0.022401614,-0.008703194,-0.0073539997,-0.014262873,0.009309668,0.0016848911,-0.015461214,-0.039286435,0.021265306,0.010807355,0.006218595,-0.006836957
31,0.0002989054,-0.00047362092,0.011360168,-0.031097732,0.0032300677,-0.008831382,0.0010610919,-0.019966805,0.020247184,-0.013599839,0.019435912,-0.012126626,-0.01504899,-0.00073912356,0.0036542378,0.0152271185,0.041743357,0.005317495,-0.032370083,0.005183723,0.012387825,-0.0034177827,0.033557456,0.009665015,-0.024246851,0.035331957,0.017735235,-0.0037122578,0.010369944,-0.0067119966,0.010872723,0.017301574,0.0025630123,0.0076797623,0.0018693999,-0.009971444,-0.014845182,0.0074082734,0.0054372163,-0.006747604,-0.012265167,-0.0063617993,-0.004430795,-0.032673705,0.013709925,-0.008101162,-0.0028354335,-0.014041521,0.015511727,-0.046096403,0.00035897223,-0.013182689,-0.0012048959,0.003463089,-0.007746815,-0.002145584,-0.008324983,-0.0175181,0.00185118,-0.012727436,0.0029259322,-0.0054911417,0.0051084175,-0.0020500056,-0.011068417,0.0015877798,0.020676197,-0.0022624375,-0.008692568,0.0032221766,-0.024028888,0.0039993497,-0.005745141,-0.019687867,-0.001801108,0.021250954,-0.0061474126,0.006831916,-0.020041628,-0.012778456,0.010456778,-0.015611871,0.00011069202,0.004530066,0.014204004,-0.0119417,0.014654437,0.011483072,0.019007554,-0.0030622804,0.007823723,0.0019871714,0.046264082,-0.0038582955,-0.018700479,0.019312168,0.015661122,-0.00634042,0.0014228537,-0.001190801,-0.016747558,-0.00088798866,-0.0052033025,-0.020687794,-0.001981529,0.036117826,0.007919779,0.027737586,0.021729056,0.0050752424,0.0011591471,0.0045369784,0.029282756,-0.0075034085,-0.030590748,0.0013579876,-0.0016414413,0.007826929,0.009038801,0.0038587726,0.019150581,0.0027503178,-0.010288042,-0.008234793,-0.004412979,0.008991154,-0.0077366927,-0.0015175672
32,-0.010682343,-0.0052119712,-0.018304734,-0.023819365,0.0053295176,0.02488984,0.0069439313,-0.025251692,-0.023182316,-0.030109687,0.019152122,-0.009283259,-0.019102562,-0.015957147,-0.01363874,-0.012686927,-0.019212745,0.025949845,0.023101049,-0.034689624,-0.017849836,-0.028786767,-0.02125614,-0.0025938072,0.009464558,-0.0411361,0.009801276,-0.010485876,-0.020998219,0.012313066,-0.039641604,-0.0013368482,0.010721319,0.017302087,0.008501399,0.007837771,-0.016193982,-0.017529713,-0.0031137823,0.015528146,-0.014869402,0.005600119,-0.0126220435,-0.05080973,-0.0127419615,-0.02467395,-0.014342058,0.010076459,-0.025046652,-0.0037698264,-0.025841622,0.0053386507,0.022875054,-0.009158129,-0.025198575,0.0117675485,-0.008712232,0.012815891,0.016323952,-0.0066873436,-0.002954872,0.010354049,-0.016857693,-0.018502664,-0.0058400733,-0.018153027,-0.016936276,0.019531041,0.010968295,-0.012213923,-0.014615205,-0.018851524,-0.01601017,0.0206403,-0.013514926,-0.01576602,-0.018015591,0.003313319,-0.023300653,-0.002719595,0.010366348,-0.0021251338,0.0012034347,-0.007022392,0.018387437,-0.0061616204,-0.02799442,0.027109038,-0.01612666,-0.0020641827,0.012006442,0.01722973,-0.0047816765,-0.025355617,-0.017132867,0.003355548,-0.018987706,0.010700871,-0.00845914,-0.042534426,-0.0069738477,-0.00809039,0.0007634063,-0.025651975,-0.015576314,-0.0450929,-0.018219166,-0.019318096,-0.02025186,0.0065843877,-0.0018455447,0.013395147,-0.014099935,-0.02660024,0.0010163715,-0.0052576098,-0.029807195,0.0026357856,-0.0025237037,-0.02922007,-0.004815839,-0.026629325,-0.0037560363,0.006312463,-0.00518816,0.003307469,-0.029342335,0.004899713
33,-0.009260734,-0.0058766874,-0.009987504,-0.00032007525,-0.01586239,0.0062312335,0.011629126,-0.014337356,-0.011728802,-0.004253343,0.03753991,-0.0062525813,-0.03586658,-0.019138278,-0.008130803,-0.0013247894,-0.032242257,0.003936464,0.0131857535,-0.0111499075,-0.001455609,-0.0073753144,-0.027707336,0.02166908,0.002650718,0.032653097,0.01844979,-0.021823341,-0.020154204,0.0070169116,-0.006596823,0.022091823,0.03958568,-0.0020664441,0.007658095,0.002145861,0.026328076,-0.01923413,-0.0013057461,0.0012375439,0.00080488384,0.017721338,-0.022972688,0.011297176,0.008934995,-0.010707751,-0.0074109025,-0.0076683457,-0.008853646,0.006047895,-0.005207123,0.009953613,-0.010620911,-0.01576167,0.013012571,-0.008645417,0.014200002,-0.01696274,0.003803269,-0.008140278,-0.004226764,0.007216025,0.019628821,0.0020729338,0.019311847,0.0066157947,0.0042186105,0.015394784,-0.0014459285,-0.023803432,-0.0073893326,0.010881968,-0.03043256,-0.025305508,0.0019137715,-0.008744238,-0.0046321186,-0.0057556764,-0.03458168,-0.006398674,-0.018160364,-0.006933146,-0.029951591,-0.018741226,0.007271421,0.0009805424,0.0042072167,0.00056720985,0.005252379,-0.002367754,-0.0085699065,-0.019731382,-0.01964297,0.032456655,-0.0067169187,-0.0044439016,0.017094063,0.0033075183,-0.006018189,-0.015465715,-0.020656446,0.031237302,0.01069186,-0.020758938,0.0066982256,0.006770076,0.015860641,-0.024748284,0.0023725538,-0.022401106,-0.01780564,0.01576342,0.0064245183,0.009282074,0.01923893,-0.02973775,-0.016681746,0.013931217,-0.0021333764,-0.009067024,0.014683861,-0.0037175042,0.011009064,-0.001205185,-0.014906665,-0.01476355,-0.019811466,0.019053305
34,0.013152643,0.006255219,0.0015570645,-0.022225613,0.0072973366,0.0071974467,-0.0034261239,-0.0110704275,-0.0100371605,-0.0025098133,0.03061136,-8.087849e-06,-0.0060965437,-0.0057780095,-0.0030399447,-0.0036901627,0.0060207406,0.0031339233,-0.0013822762,-0.015815591,-0.008401373,0.012441054,0.008800316,0.013242422,0.0042021703,-0.008331884,-0.009125838,-0.0028059788,-0.0057263975,0.008702103,-0.0035363934,0.0010793941,0.002006111,0.0034380832,0.0031857037,0.006186099,-0.0044402666,-0.0056489687,-0.00906702,-0.005016829,0.0021412282,0.007657276,-0.0020816724,-0.018546062,-3.9072762e-05,-0.0025113942,-0.016024468,-0.0043222844,0.0073525268,-0.004585993,0.011051384,0.015380629,-0.009953867,0.0050503104,0.0110950675,0.008349612,0.0020692395,0.0046616304,0.0027963752,0.0014574565,-0.014133408,0.03251184,-0.011312239,-0.011128121,0.002271352,-0.0014389562,0.003256177,-0.008505527,0.006371483,-0.013721053,0.02138118,0.0100350315,-0.010166117,0.0047365776,0.010927293,-0.0036145777,0.012983723,0.006846314,0.0041177245,0.00060825935,0.010179153,-0.001869246,-0.0025736906,-0.00068021903,-0.0048829466,0.008542678,0.0092415465,0.024202432,0.013036049,-0.002967208,-0.0044724606,-0.006905232,-0.0058893845,0.008259922,-0.008319485,0.018916097,0.025149658,-0.005772595,-0.0022765563,-0.0069079595,0.005302376,-0.0021242315,0.0036928256,0.0046100337,-0.011870906,-0.016913963,0.009375845,0.0018240273,-0.00038736896,-0.0045849374,0.002266701,0.006444031,0.015368625,0.0042192,0.0063862135,0.0015099607,-0.0067153256,0.006479427,0.011124062,-0.0024439066,0.014279653,-0.0020624169,-0.0034281798,0.008828986,0.008410572,0.012698953,-0.005848867,0.002512588
35,0.016948935,-0.011656187,-0.012436596,-0.035809316,-0.02593414,-0.003671589,0.0318525,-0.00071721704,-0.0014680021,-0.016305018,-0.013277267,-0.003175664,0.002175166,-0.0018125973,0.0044684573,-0.01908977,0.037195083,-0.00050382724,-0.0060033724,0.015871242,0.016408306,-0.0030548617,0.036243424,-0.017130647,-0.0066419197,0.06490783,-0.0018127026,0.026847582,0.03431916,-0.014627178,-0.00891773,-0.015957145,0.041623693,0.031141292,0.022331145,-0.011063075,-0.013873657,0.00876626,0.026727771,0.0012484611,0.002514735,-0.02063385,0.005987468,-0.045878675,0.004963419,-0.0024769946,0.03460064,0.0685908,0.005465752,0.024328787,-0.013102431,-0.005841921,-0.015957179,0.0057691056,-0.020338925,-0.0010238079,-0.029462777,-0.030805824,0.0154495165,-0.055669665,0.03105038,-0.032238204,0.027442122,-0.008152708,-0.012293658,-0.004931968,0.007549562,-0.0017161391,-0.0072379378,0.008903435,-0.005812007,0.035777826,0.010302709,0.00543753,0.0016303038,0.0056020343,0.0077353236,0.015560499,0.01689112,-0.0040999567,-0.0004808452,-0.018465262,0.012390632,0.0199588,-0.008329968,0.011986678,0.02389464,0.01662766,0.0054704924,-0.005055898,0.0012125997,0.004775826,0.060779564,-0.02518975,-0.015066231,0.009305151,0.014845815,-0.00032906467,-0.010780085,0.015987117,0.0030354082,-0.040685788,-0.010073799,-0.0067285444,0.0068458547,0.03376392,0.009415106,0.02807912,0.021061681,0.014550384,-0.025011517,0.0045839096,-0.01842494,-0.018225817,-0.016215535,-0.0015503204,-0.018863259,0.01455299,0.009857477,-0.008494999,0.014833446,0.009625859,-0.027772468,-0.00736847,-0.017628772,0.008992355,-0.016382288,0.00024058306
36,0.0057676258,0.054097917,0.027096907,0.0039260006,-0.0012835057,-0.023412187,-0.02062462,0.010500802,0.022476101,0.00826453,-0.015996411,-0.033992883,0.008858689,0.026692593,-0.028554555,-0.009420379,0.032605853,-0.009896851,-0.0024768636,0.003553918,0.026815038,-0.0024123963,0.01600445,0.013186181,0.023304159,0.03845663,-0.011854345,0.005624805,0.010536245,-0.012361298,-0.008939932,-0.0013039038,-0.006052125,0.008674511,0.0013119786,-0.005128784,-0.0140610505,-0.015377885,0.0058490927,-0.0034906988,0.0087458715,-0.007507143,-0.0038894145,0.015536541,0.023921244,0.021257667,0.0028115527,0.053308003,-0.0045984494,0.004615046,-0.013818453,-0.0033737838,-0.01771747,0.016031777,-0.01423973,-0.0052758795,0.011472265,-0.0010322315,-0.0016736275,0.01081695,-0.0034737259,-0.011356129,0.03388718,0.0038729485,-0.002360003,-0.005979295,-0.010942505,0.007955879,0.00216484,-0.0011291744,0.011890872,-0.011122195,-0.0074604396,-0.006529094,0.018328577,0.008344218,0.009202209,0.020984853,-0.0055928333,0.004908043,0.0077174236,-0.0045519415,-0.018261153,0.02667175,-0.007592619,-0.0009569145,0.044184983,-0.027429326,0.013954353,0.00905995,-0.021368777,-0.014074495,-0.0033196954,0.017981347,-0.005145578,0.030384155,0.022398025,0.026346572,0.02781958,0.03809574,-0.003367958,0.011405237,0.008200363,0.0035461169,-0.010888862,0.0039258744,0.0041677807,0.0373042,0.009325879,-0.00045353503,-0.011193905,0.002770083,-0.0127260825,-0.009414492,-0.023074694,-0.0098731145,0.028948376,0.0067550284,0.006586979,0.016015068,-0.0016166468,0.01812911,-0.01057943,0.012531892,-0.0026653796,0.017284475,0.020545704,0.002588283
37,0.0055818697,0.0020487688,0.0032230685,0.0020195767,0.016054716,-0.0024289323,-0.0016399327,0.0097443005,0.012881881,0.0075870804,-0.015754014,0.018759003,0.001824241,-2.2892156e-05,-0.0045347326,-0.0048519806,-0.0011290461,0.010881804,-0.005734745,0.0030660778,-0.011188434,-0.0032891654,0.019893546,-0.00789654,-0.018006751,-0.017526172,0.0070133163,0.023851147,0.013118779,0.0017127253,-4.7931477e-05,-0.006647059,0.005998167,-0.005399903,-0.014438327,0.01365678,-0.00041490595,0.007095825,0.0013538974,0.0022864747,-0.00039306283,-0.005324069,0.003386341,0.0139366165,0.015988797,0.014811102,0.005776453,0.0024924844,-0.0035361636,0.011978631,0.0023182412,-0.0029233627,0.007519465,-0.010588595,-0.0028922434,-0.0027347314,-0.010231414,0.017677145,0.016157016,0.0020072483,-0.008492285,-0.02853923,0.016423577,0.0015266733,-0.001578764,0.018882198,0.0070630633,-0.0024790533,-0.0040217945,0.0012839702,-0.009301008,0.0137728285,0.018419702,0.018221755,-0.060014833,0.00394137,-0.012006685,4.624226e-05,0.011047166,0.012127805,0.0083225705,0.009709504,-0.015328983,0.009859764,0.0013065084,0.008610875,0.00373161,-0.014036916,-0.0020855265,0.02299039,0.002498804,-0.0019997167,0.01572242,0.0073458366,0.006475007,0.005190035,-0.008963257,0.0026661297,-0.013027289,0.025519863,0.01113687,-0.0265406,0.011194635,0.017721154,0.0008856759,-0.0073623266,-0.0027367745,-0.0064112134,0.0064275395,0.003249759,0.013253398,0.011753514,0.018251652,0.006126997,0.0020247863,-0.00473226,0.019481227,-0.009617279,-0.0010328734,0.0011081725,0.00051034184,0.0006354129,-0.00045199943,0.0011516471,0.0005412587,-0.00425417,0.007011699,0.00528788
38,-0.0056052273,-0.0061392346,-0.0007865316,0.002489052,0.002659186,0.002162148,0.0010850944,0.0035773427,0.0069387397,-0.003855063,-0.0009812213,-0.001642671,0.0056808502,-0.008628988,0.011749549,-0.011584865,-0.020678228,0.0015391604,-0.023400497,-0.0014259265,0.00948405,-0.001975466,-0.00083342765,0.008272433,-0.008881348,0.017020516,-0.011077646,0.014963929,-0.004647706,-0.006987143,0.00642629,0.008308835,0.006269308,0.012993259,-0.03580075,-0.0034510917,0.0074242502,0.00094200386,0.012833085,-0.017217206,-0.013744139,-0.0042128162,0.01931079,0.010269585,-3.0722047e-05,0.0077545787,-0.008125851,0.0033444024,0.021032318,0.0060915863,0.021848239,0.016387045,0.023855591,-0.010799324,-0.0026832104,-0.0057214764,-0.035689026,-0.011268252,-0.013620172,-0.004171038,-0.0048482786,-0.011265721,0.01905454,0.0120842615,-0.009236807,0.0019591784,-0.012571666,-0.00068357686,-0.0035670002,0.008386525,-0.010327718,-0.0069251973,-0.011704219,0.0075786337,0.003099473,0.018772198,-0.0071482873,-0.00081649417,0.0023044858,-0.00012715871,-0.026757091,0.017269876,0.010897747,0.008959772,-0.008449442,-0.0014404878,0.0011995115,-0.0007881377,-0.002031845,-0.00804855,0.0039687594,-0.0046490096,-0.009771863,-0.006625691,-0.009483944,-0.0019991582,-0.014977221,-0.005110253,0.008126797,0.002442708,0.0057368446,0.021909019,-0.013331841,-0.018692885,-0.016383164,0.018175924,-0.0028603103,0.0013129577,0.011036182,-0.006530563,-0.0029765174,-0.010685802,0.001622208,0.0024502967,-0.009781745,0.008646166,0.00775869,-0.0065073585,0.0008969569,0.006493278,0.0055600307,0.014863736,0.0070529585,0.006260138,0.0064056762,0.010488754,0.0012710872,0.0013844112
39,-0.0032707166,-0.015927136,-0.011033462,-0.012152162,-0.01476788,0.015416368,0.034701094,0.02654733,-0.001275285,-0.0033467163,0.030540688,0.02108906,-0.02603752,0.0048732976,0.021457328,0.015222987,0.019494576,-0.008800937,-0.012544387,-0.009154702,-0.01762948,-0.004682503,-0.018163953,-0.002703678,-0.009733661,0.008443049,0.030685013,-0.013735471,0.006302927,0.010453517,0.016302474,-0.00097275135,0.00523772,0.008458373,0.0075107827,0.016197301,0.010391215,0.030888863,0.008698879,-0.0326687,0.025414782,0.031207766,-0.010416333,-0.013921059,0.0055584125,-0.015849195,0.033445567,-0.015820391,-0.014742175,0.004238438,-0.0043653287,0.012040682,-0.022252783,-0.0180246,-0.005945051,0.005122326,0.00047214958,0.009499245,0.0032313906,0.0068475883,0.017842973,-0.0017256979,-0.0018739172,-0.016930372,0.0066470522,0.004624884,0.0026498253,-0.019051552,-0.013334712,0.0076253996,-0.036737535,0.0006798227,0.021354062,0.00080001965,-0.0003639337,-0.009301777,0.0077425935,0.004409805,0.019143919,-0.009531104,0.003921594,-0.024379926,0.0333014,0.008328105,-0.014342748,0.0011860371,-0.017383032,0.03603992,0.014381242,0.013300514,0.034069102,-0.0112865595,-0.014138363,0.009769722,-0.014291288,0.00044922938,0.02366614,0.011243765,-0.013576848,0.05228405,0.018940253,-0.0049752546,0.005814606,-0.0107452115,0.008836637,-0.007433855,0.016859533,0.011534719,0.0040431824,0.0013065309,-0.0335176,0.017627332,0.0014507453,-0.02163797,0.0012187179,-0.019782456,-0.020450199,0.00023182304,0.027942387,-0.008900156,0.026881276,-0.0026873436,-0.0013058285,0.0038698956,-0.014804715,0.0005837165,0.0062283813,0.008598269
40,-0.01121456,-0.01319573,-0.017178917,-0.020117434,0.005562441,-0.0051315627,0.029130429,0.0070250323,-0.0037700366,-0.06182757,0.02680699,0.035632405,-0.025731148,-0.011715382,-0.006343132,0.03572808,0.0051280824,0.021795869,-0.031154098,0.007572518,0.021140853,-0.00622357,-0.039294366,0.0075335475,-0.02951424,-0.008894837,0.060272604,-0.012357383,-0.006265944,0.027805183,-0.016325634,0.011866356,0.0057663433,-0.022935998,0.017461106,-0.013530597,0.014127179,0.044968545,0.023946144,-0.026952278,0.0074496693,0.0077455626,0.013499452,-0.010651603,-0.007326851,-0.014741254,0.04497882,-0.011683983,-0.010559658,-0.011111969,-0.011901207,0.00730391,-0.025929151,-0.011815215,0.0030080143,-0.0064479364,-0.016989848,-0.018772705,0.005842861,-0.029756265,0.035120334,-0.0031212466,-0.016228948,-0.02165697,-0.018350983,-0.007270682,0.028010344,-0.0055668997,-0.0182701,-0.007288131,-0.052507285,0.033701487,0.0047440743,0.016779587,-0.023105048,0.0025776005,0.0070434064,-0.02904553,0.01611387,-0.014736312,0.0016886026,-0.017145049,0.024226516,-0.013980998,-0.008536595,-0.031540427,-0.00027984948,0.037240747,0.006783424,-0.02669583,0.030985441,-0.0038410604,0.007937385,-0.029605046,-0.011032591,0.0013329497,0.031667076,-0.021831611,0.0036547296,0.00953989,0.012118558,0.014994758,-0.016696272,-0.031453796,0.008289752,0.008574804,-0.0007721189,0.018694572,0.008087311,-0.025848947,-0.0069154724,0.03287432,0.011150626,-0.043311667,-0.00490673,-0.026113503,-0.017736696,-0.0054569775,0.014616203,-0.000659775,0.024649875,-0.011431,0.009439212,0.0046530957,0.011460726,-0.031510737,0.008561451,-0.008754048
41,-0.014787636,0.010936432,-0.016769134,0.0036849673,-0.011351563,0.016203862,0.024475249,-0.0063793566,0.0301428,-0.013959305,0.01448718,0.0045035486,-0.024449795,-0.009404407,0.0032772569,0.0029823252,0.0034536107,-0.00030402417,-0.0045160674,-0.009197522,-0.002539508,-0.010906213,-0.01607328,0.013247277,0.00320243,-0.009750166,0.006668149,-0.0024043205,0.0010583759,0.0018268925,-0.012272041,-0.0021235608,0.043843184,-0.005419234,-0.020389004,-0.0029684713,0.022238143,-0.014785542,-0.0038236964,0.039350174,0.018524693,0.010422733,-0.007022581,0.011030449,0.013491796,-0.0065733907,0.024480097,-0.016184121,0.0026994578,-0.017105287,-0.008706238,0.024779962,0.00471054,-0.008704937,0.0019384656,-0.014929611,-0.0032320607,0.012370726,-0.024137804,-0.02290204,0.017860854,0.030376147,-0.021478936,-0.0014355861,0.021782737,0.013197927,0.044553507,-0.012272232,-0.009261684,-0.039279483,-0.035360366,-0.0042216294,-0.0070645884,-0.009364779,0.030085059,0.017094554,0.016725093,-0.017373603,-0.008870068,0.00038449038,-0.008918037,-0.0039284523,0.026087776,-0.031382043,-0.018139377,0.004312679,-0.03153426,0.01680388,0.032885473,-0.023367647,-0.007551321,0.01138719,-0.020163985,-0.021231337,0.0043770852,0.0030083235,0.0038222852,-0.013608615,0.03829987,0.02759784,0.022883685,-0.03209726,-0.008948327,-0.018979477,0.009659294,0.025646862,-0.01365212,-0.016764704,-0.0137619,-0.026722448,-0.008011342,0.0130543085,0.014776637,0.0025626104,-0.0105638895,-0.0032587508,-0.015164811,-0.010640458,0.019900415,-0.010812291,0.026079915,-0.019527258,-0.039887775,0.019353917,0.022461612,-0.004552494,-0.0062066964,0.007117963
42,-0.008247455,-0.0137379635,-0.011860218,-8.019304e-05,-0.017031536,0.0017953378,0.015679479,-0.005122804,-0.017584438,-0.00445484,-0.012348116,0.021511262,-0.020649552,-0.0055156644,0.032636035,-0.016893182,-0.02849666,0.0041919425,0.024948882,-0.019781327,-0.0022869206,0.010495703,0.003506969,0.00888794,0.05307054,-0.029281208,-0.028543795,-0.019213496,-0.0011609894,-0.0041103363,-0.0067363842,0.0059304074,-0.0009418866,-0.00976341,-3.445473e-05,-0.006535171,0.024582436,0.0057816193,-0.0071834107,-0.014619949,0.016519869,0.021322615,-0.008446161,-0.0029072617,0.018829573,-0.013919232,0.007174533,-0.027331842,-0.009233497,-0.0015306491,-0.017934715,0.016400354,0.003823122,-0.014840032,-0.004699076,-0.008982894,-0.0075262887,0.06188639,-0.012440565,-0.0062636654,0.0050618504,0.010849654,-0.0064374586,-0.0062122536,0.032375798,-0.004519004,0.018771466,-0.020977832,0.011058137,-0.02235053,-0.029766172,-0.018420395,0.008039699,-0.0008325785,0.084954694,-0.0033402403,0.035927843,-0.005313185,0.001969018,-0.006789735,0.00064467255,-0.01150905,0.05110136,-0.017532595,-0.005926151,-0.009687734,-0.026784021,-0.019388424,0.02036384,0.010852485,0.0107713295,0.008114526,-0.013593714,-0.013997257,-0.018975073,-0.0067121196,0.021582091,-0.020154621,0.040564306,0.039197855,0.02444213,-0.02475045,0.00086522766,-0.0066540665,0.012487784,0.0044792406,-0.0010952953,0.007203072,-0.012760871,-0.024058228,0.029403172,-0.006102466,0.0037236523,0.00818643,-0.015527263,-0.016137417,-0.019263206,-0.025764603,0.025092067,0.0034938273,0.019896764,-0.015911995,-0.027320053,0.010442694,-0.0031471436,-0.022229742,0.001056957,-0.0018728601
43,0.0008812367,-0.022512661,0.0010642983,-0.009804407,-0.021435615,-0.023076518,-0.00031651914,-0.015016375,-0.017128171,-0.00096888427,-0.02807972,-0.031095399,-0.028886003,-0.018315658,0.003857028,-0.017696204,0.0111898715,-0.006968297,-0.004661868,-0.0014742116,-0.0019059695,-0.006517956,-0.024793578,-0.005257123,-0.008990446,-0.027871035,0.0037566035,-0.01861599,-0.014064518,-0.02861559,0.01753984,-0.0048166146,0.016673107,-0.029265525,-0.013907123,0.018319953,-0.026481358,-0.054465212,-0.010111688,-0.035131793,-0.029983725,-0.0047674826,0.0048218314,-0.0153590245,-0.02190946,0.003280404,-0.0020765895,-0.028269585,-0.022805203,-0.023952302,-0.021663362,-0.024012309,0.021654071,-0.02847409,-0.0017307068,-0.0193709,-0.010287198,-0.01842623,-0.034713544,-0.037537474,-0.0032140121,-0.0049819853,-0.0019165478,-0.0003414867,-0.009845833,-0.0067567863,-0.0043711886,-0.012648352,-0.0005219525,-0.010789503,-0.015354823,-0.004546914,-0.02309272,-0.015522113,-0.013515815,-0.023632325,-0.026824947,-0.01728657,-0.003359223,-0.01358885,-0.012113799,-0.011452432,0.008652121,-0.022561138,-0.0055959444,-0.016835473,-0.026494682,-0.0014152131,-0.019816484,-0.01597107,0.012673612,0.021992281,-0.03500019,0.03541408,-0.0070360284,-0.021451728,-0.020228,-0.030740531,0.013256798,-0.036829486,-0.02330853,-0.0006255927,0.02425094,-0.026356235,-0.0075131585,-0.008640794,-0.0024627752,-0.0042669866,-0.032495923,-0.015022171,-0.023528332,-0.015401689,-0.01461238,-0.0006621168,0.0029697374,-0.024297697,-0.030292831,-0.012938105,-0.021634191,-0.03862827,-0.0057971403,0.00054451963,-0.011054207,-0.0028861626,-0.0069816085,-0.004851033,-0.013131984,-0.017996099
44,-0.009272465,0.010540765,-0.00905281,0.016420988,-0.015011533,0.018308975,-0.00767036,-0.009995109,-0.009709635,-0.010022208,-0.0033072631,-0.0038231441,-0.0019257551,0.010091311,-0.0025466096,0.00942575,0.012143638,0.005294005,-0.0008526253,-0.0065162745,0.002368031,-0.0058305482,-0.030593837,0.031093922,0.014542048,-0.008941796,-0.037126284,-0.010775291,-0.024213267,-0.007657709,0.008309144,0.0077059916,-0.017954802,-0.00070029957,0.0071991137,-0.0043245447,0.02234242,-0.0159523,0.0061180973,0.008331587,-0.005725939,-0.02084098,-0.0071761007,0.00601695,-0.0032223035,-0.010506614,0.0054375385,0.028133769,0.0045732586,0.027316628,0.00043942413,0.00042986503,-0.011158919,-0.013839375,0.015130836,-0.014814928,0.01894408,0.0021721458,-0.018186608,-0.011958064,0.0026292484,0.009471455,-0.011321436,-0.008861163,-0.017125906,-0.00422006,0.012262995,-0.002230124,-0.0136983255,-0.022263104,0.052629378,-0.023324242,-0.011350434,0.0041494197,0.019405436,0.0043178443,-0.00065750733,-0.015293288,-0.0069201156,-0.0062710294,-0.013225515,-0.00067058456,0.007840006,-0.016793974,0.0047838953,0.009235736,0.007922518,0.007245145,0.013115556,-0.02586333,0.0109568685,0.03228115,0.0094882315,-0.016610863,-0.013788601,-0.009913385,-0.014419586,0.018809376,0.021338774,-0.0070159286,-0.010482359,-0.012636056,-0.029884301,-0.031368148,-0.0005792229,-0.0055247378,0.0016707964,0.031107733,-0.0068388884,-0.007327763,-0.0012403303,-0.00089722045,-0.031110214,-0.010386293,-0.01327025,0.03442473,0.0022871124,0.02750097,0.01115476,-0.015725601,-0.021846885,0.0057398845,-0.0030659393,-0.0021974747,0.028380994,-0.0062596397,-0.004899439,-0.008687543
45,0.000826621,0.003579158,0.0132521745,-0.0012392045,0.009650827,0.0002519214,-0.009620946,-0.008011769,0.031609382,-0.022673877,-0.01702049,-0.03228349,0.022762002,-0.024600547,0.006941775,-0.016311923,-0.003789765,-0.03990773,-0.0067797825,0.02208235,0.017268084,0.0059560495,0.021737115,0.00097271585,0.012754834,-0.0006068289,0.011123926,0.007627379,0.009696735,0.020254567,0.01877125,0.019734599,-0.019639615,0.0074855606,-0.018497342,0.009107053,0.006902898,0.0023072977,0.008657082,0.0035290793,0.0020145907,0.0013677835,-0.008413622,0.0012226999,0.013176935,0.014087332,0.0071596904,0.025297575,0.0069446694,0.00029384973,-0.019110236,0.012903895,0.009571076,0.00702242,-0.006163202,-0.020615907,0.0020434717,0.004854111,0.0057423934,0.017529296,0.010559256,-0.017466297,-0.016492741,0.00029500743,-0.001176784,0.006230092,-0.028085636,0.008842388,0.0057133185,0.025581574,0.044605993,-0.0033827266,-0.014658935,0.0031121476,-0.006248305,0.043447908,-0.003213063,0.016216433,0.007542578,0.015295053,0.0010267101,0.008601627,-0.012624986,0.045407817,0.02235906,-0.004680423,0.0066702995,-0.04063147,0.029116541,-0.0050670635,-0.016699068,0.03265243,-0.010304413,0.0111489985,-0.0019781329,0.0039385576,0.006877395,-0.025255721,0.0061562434,0.0074815475,-0.01655189,0.010466973,0.002390414,0.008978301,0.00892744,-0.0060976516,-0.007860662,-0.0024360216,0.007567802,0.017090734,0.0046437928,-0.0071726544,-0.00048773215,-0.009883904,-0.01986863,-0.007662227,0.0062033553,0.032531563,0.005103199,0.015479231,-0.0002069897,0.0037605413,-0.014509408,0.021703394,0.018029723,-0.0035257202,-0.008759268,0.0033637898
46,-0.002281245,-0.008443598,-0.0009382088,0.012672122,0.005815483,-0.015979292,0.012364628,0.016502252,-0.00048171496,0.009244033,-0.013743273,0.0014512137,-0.015255725,-0.009247003,-0.0044237534,0.003664476,-0.00433071,-0.00011061732,-0.0050287643,0.008692042,0.008389948,0.021280633,-0.0055648484,-0.004469994,-0.024140436,-0.007535558,-0.0019004846,-0.004332508,-0.0023157736,-0.009189518,0.0126470085,-0.0032592681,-0.0032586083,-0.010567547,-0.0049935025,-0.0031598508,0.0061686807,0.018487643,0.0052122674,-0.0022170527,4.753418e-06,-0.0046535353,0.004813353,0.009890647,-0.010362204,0.012285407,0.0058963504,-0.018848224,-0.0048953434,-0.0022130674,-0.022376569,-0.013102217,-0.015342746,-0.016425094,-0.0012377251,-0.0013633723,-0.0024221363,-0.018005095,-0.013689234,-0.009373425,0.0064279083,-0.006845895,0.0032013834,0.009676958,-0.009875468,0.0012869461,0.0035128186,-0.011480759,-0.0044774255,-0.003700499,0.022471063,0.017009748,0.008070788,-0.002509372,-0.01900112,-0.013494227,-0.011825016,0.003261753,0.0024866178,-0.01966083,-0.007261816,-0.007025356,-0.007876321,-0.00972849,-0.010912226,-0.016445532,-0.016607547,0.003264129,-0.0062979064,-0.003949703,0.0055287033,0.0009069632,-0.020405933,0.019822247,0.013832826,-0.016552657,-0.011106345,0.0064350185,-0.011132038,0.013233229,0.0035433774,-0.011268398,-0.0033757186,-0.011530232,0.006571994,0.015386662,0.0009670968,-0.005963733,-0.00837859,-0.026861113,-0.019311316,-0.005137652,-0.0027157017,0.0011055938,-0.0070528984,-0.012220978,-0.001114888,-0.005812731,0.003654742,-0.014505766,-0.0041917437,-0.0072689634,-0.008303791,-0.0031955086,-0.012744956,0.009958322,-0.0003573626,0.009482494
47,0.006350363,0.031110583,-0.0046574664,0.012107178,-0.0029975837,-0.008062004,-0.0073261517,0.020102134,0.0045779822,-0.0038719971,-0.022194315,0.0022704024,0.012339514,-0.009896302,-0.0021102987,0.01183976,0.011908588,-0.010853557,-0.007076691,0.0028296546,-0.0050124037,0.00046864295,0.017422538,-0.00500337,0.009739728,0.022984603,0.013323918,-0.006800553,-0.009501818,-0.016237555,0.019766442,0.008157015,-5.449993e-05,-0.04555614,0.041615866,-0.0049679033,0.008019906,-0.0025034966,-0.0048130215,-0.011718661,0.018471245,0.007442327,-0.0022532777,-0.0036123716,0.017827589,0.013666955,-0.0047549745,-0.0075831567,0.004969437,-0.029818382,0.009604888,-0.0014577841,-0.0051480005,0.000309282,0.0023288515,-0.0029534926,0.013206085,0.0053835455,-0.006877096,0.0054028886,0.013668783,-0.02513058,0.0063798977,0.0052183624,0.015323132,0.02538736,-0.00050348905,0.011037123,-0.007779152,-0.0062172404,0.046531115,-0.0021417688,0.00882934,-0.016223717,-0.009998616,0.03167108,-0.0038550019,-0.0012552628,0.0033899006,0.019383304,-0.00018607957,-0.009108807,-0.016652232,0.01751582,-0.008351276,0.0031811434,0.014430927,-0.010089105,0.013026611,-0.0021137842,-0.013407318,0.006296776,-0.030543057,0.01334639,-0.0151107935,0.015398716,0.01040156,0.007315068,0.04486255,0.040146545,-0.01249163,0.00074993266,-0.0015862951,0.015897937,-0.0010537078,-0.017506683,0.011244644,-0.014692335,-0.004467014,-0.0045507313,-0.0136798965,-0.015468989,0.01493655,-0.011438124,0.0069018574,-0.025806,0.028546924,-0.006970929,-0.013690913,-0.010723164,-0.0037359644,0.011063901,0.018903978,0.017078578,0.022531273,0.007656214,0.010253478,0.0063847634
48,-0.029835159,-0.013984715,-0.005258319,-0.017354714,0.00084293995,-0.0025087956,-0.009139732,0.009239809,0.012049441,-0.02754319,0.01938636,-0.030557321,-0.009794438,0.0067408048,-0.002534585,-0.014258666,0.008976353,-0.017772464,-0.024062652,0.0059193964,-0.002343497,0.006675671,-0.027514221,0.029358003,-0.024694739,0.041119177,0.023871914,-0.033545025,-0.0012304471,-0.004304047,0.050164912,0.011780256,-0.017300386,-0.0063108196,-0.009471127,-0.037322503,-0.017761072,0.0041572335,-0.009166558,-0.011637904,-0.009128699,0.013620894,0.00020798303,-0.01327628,-0.014025359,0.011553805,0.0069798627,-0.0328334,-0.03161315,-0.008094691,0.026074955,-0.005700562,0.02819932,-0.029050263,0.04924412,0.010648913,-0.00025284692,-0.0037801822,-0.018785877,-0.005321398,0.004226643,-0.0015738643,-0.005368953,0.0016350291,-0.0039622756,-0.0042226557,-0.014781373,-0.0070766145,0.0035384477,-0.015513807,-0.030892424,-0.009802588,-0.032099053,0.011559809,0.0032209072,-0.032305345,-0.0012736521,-0.01866315,0.006466827,-0.031005278,-0.035988804,0.030685231,0.00015441781,-0.02816154,-0.0043359157,-0.0056511373,-0.003121982,0.025518171,0.005137704,-0.031260908,0.00068502844,-0.013025796,-0.009985812,-0.015318229,-0.0020869276,0.008085929,0.015838506,-0.010099216,0.012279244,-0.009473204,-0.009646524,0.017811855,-0.025646286,-0.027621247,0.036368303,0.009387123,-0.026822891,0.01744551,-0.01843166,-0.008328849,-0.013165293,-0.0050941175,-0.0018248794,-0.03932478,0.06116965,0.0032155036,-0.011675072,0.0074263318,-0.002808729,-2.2154445e-05,0.0100038415,0.0010756255,0.008859478,-0.01680498,-0.007106036,-0.006913218,0.031691965,-0.004868864
49,0.00030411844,-0.012971747,-0.001601952,0.002826299,-0.009410662,-0.008640035,0.008369382,0.009510598,-0.018830068,0.008037949,0.0076365587,0.013204543,-0.0003171274,-0.024397735,-0.007881817,0.004245791,0.0091350125,0.012124117,-0.020979116,-0.008696142,-0.008953436,0.00087284675,6.765768e-05,-0.011580156,0.0017112484,0.011361626,0.029665004,0.018297262,-0.024905873,-0.0048128366,-0.015976949,-0.012054209,-0.0032490185,-0.017674018,0.008375755,-0.0035642516,0.018539375,-0.017209105,0.010850252,0.0005738886,0.00040290962,-0.0057135057,0.0037072822,0.01608466,0.0025572572,-0.008709815,0.016896892,-0.01521867,-0.0125420345,-0.016058225,0.017475026,0.0119881,0.016129466,0.006978458,-0.021610215,0.019418813,-0.00267188,-0.00981522,0.0038020944,0.0077802185,-0.010177124,-0.00033554906,0.019662417,-0.022601042,0.003322519,-0.008371003,-0.0040175435,0.008424281,-0.018767338,-0.012914181,-0.097443976,0.008892375,0.006582157,0.009495471,0.015791032,-0.021386925,0.011517141,-0.018807858,0.0101747895,0.001260348,0.012659178,-0.0062472257,-0.018860085,0.0037122997,-0.0023282461,0.0031476908,-0.013220044,0.018692726,-0.0063535636,0.008951943,0.023950558,0.009925135,0.0017585936,0.00747464,-0.016909854,-0.024471935,-0.0049226247,0.0013857951,0.002581162,-0.020270038,0.014314567,-0.004520798,0.0017945742,-0.011505428,-0.003936869,-0.011537723,0.008037505,-0.0046152906,-0.012603109,0.0023664974,0.008412868,-0.011054077,-0.018333916,-0.01071414,-0.0041028373,-0.011430301,-0.009002058,0.0071863807,-0.0064010243,0.011590598,0.0041110055,0.00483511,-0.0067036217,-0.008161515,0.002276893,-0.01211003,0.00044912612,-0.007767873
50,0.010767692,-0.009264492,0.010451651,-0.011231583,-0.0063854163,0.0011335884,0.0039462885,0.012873733,0.021312516,-0.005868858,-0.012013659,0.00469747,0.012256918,-0.011556001,0.0025533652,-0.018729037,-0.014209375,-0.008632344,0.0012987694,0.008150842,-0.01644505,0.0074784546,0.000106580526,-0.0075615584,-0.010970183,-0.0053864196,-0.008298922,0.0031221523,0.0036679406,-0.012736639,0.0042346786,-0.00948705,0.0028479262,-0.03353921,-0.013066553,0.0030394888,-0.002268616,-0.011871093,-0.0031845756,-0.015371792,0.0032257547,0.011218611,-0.00064506754,0.008108433,0.021307074,0.014188304,-0.00759507,-0.012825317,-0.019926917,-0.02188866,-0.0044046184,-0.006004642,0.009091347,-0.009412549,0.0010462501,0.019854859,0.008506134,-0.006949818,-0.007589751,0.015307014,-0.0037674562,-0.021386974,0.013070691,0.0081942165,-0.0027783012,0.025623247,0.001180833,-0.012764335,0.0058073704,0.014169788,-0.05120499,0.0050536273,0.0028485605,0.013120372,-0.003760929,-0.004699002,0.0017528844,-0.0027684986,-0.0035001833,0.010200105,-4.2739623e-05,0.0040190243,-0.0011136474,-0.023540074,0.010034588,0.0024479274,0.0064891335,-0.019611804,0.0023244976,0.017081663,0.0030362827,-0.005838315,-0.002098708,-0.0012134344,-0.004715147,0.0038812677,-0.0025192525,-0.0036846981,-0.0057764356,0.007363874,0.0020463495,-0.0221892,0.017905917,0.009833702,0.001337843,0.01317689,0.006344181,-0.009497392,-0.010679249,0.0154929375,0.011550954,0.011628887,0.00689045,-0.008560944,0.0018526791,-0.0080675725,0.017595304,-0.06985346,-0.009424448,0.016978236,0.0081006335,0.0011872039,-0.005779399,0.0077387257,-0.0065462915,0.010440194,0.0063305222,-0.005918474
51,-0.004952238,-0.0034449361,0.0024234161,0.0035417741,-0.002274966,-0.008581015,0.004671283,-0.002736167,0.022773093,-0.06981,-0.07724359,0.01445559,0.017827978,-0.02664814,-0.034906037,-0.00043774067,-0.011906391,0.009303496,0.0028955862,0.039530884,-0.028577756,0.011100513,0.07648471,0.019895421,0.017972108,-0.02054297,0.0066472194,0.005304052,0.019675689,-0.03071494,-0.018575674,0.02313372,-0.0267767,-0.034669302,-0.0029781098,-0.030401591,-0.010663076,-0.008730011,0.017864285,-0.014455836,-0.00758478,-0.0011803298,0.029508388,0.010692683,0.02065734,-0.007987155,0.07149199,-0.045179773,0.012375639,0.009168489,-0.008081224,-0.012220011,0.008436026,0.01601948,0.016408896,0.0044816607,0.012790851,-0.012106887,-0.01621735,-0.020249097,0.024092313,-0.021310087,-0.0021542753,0.0011401582,0.004475096,0.011283845,-0.029532176,0.011562342,-0.011707672,-0.008434652,-0.018541573,0.02471495,-0.0073116235,0.009621492,-0.016991595,0.01750809,-0.0114961015,-0.0075055445,0.004405375,0.040086523,-0.028328158,-0.029037561,0.013791121,0.0003047588,-0.03568817,0.010472695,-0.033535004,-0.04854104,-0.014228475,-0.015828205,0.010328312,-0.025798284,-0.01477632,-0.0742796,0.007111299,-0.014818301,-0.013123732,0.008598792,0.030026961,0.043785665,-0.037089724,0.013327965,0.0044627725,0.06293037,0.020120554,0.06637168,-0.04342375,-0.014622255,-0.0040223342,-0.021453843,-0.015633818,-0.0071105314,0.051570237,-0.083989,0.013354142,-0.021010827,0.017319612,0.003640424,-0.021730166,0.018659422,-0.008256664,-0.0370564,-0.0015956439,-0.019291745,-0.016670287,-0.009326018,0.02444684,-0.0019614298
52,0.0139745055,-0.033578135,-0.010781867,0.012745971,-0.00043043372,-0.015641993,-0.01699062,-0.0012447013,0.009577717,-0.0045195934,0.016934766,-0.020703364,-0.020131493,0.016295217,0.051400684,0.003762746,0.0102558015,-0.024859106,0.006040712,0.0014076608,0.029713646,-0.009437644,0.019455705,-0.038029548,0.021216605,-0.00501344,0.008606418,-0.0048519922,-0.0042646173,0.014994155,0.008303069,-0.0048796665,-0.012778177,0.02110447,0.015014887,0.015187607,-0.042369977,-0.003944682,-0.03416128,-0.029301224,-0.029300842,0.011324497,0.001849647,-0.038049303,-0.0053689345,-0.024461009,-0.0043013836,0.041828513,0.00045897582,0.0031698982,0.005914201,-0.0062536593,0.025393251,0.016786534,-0.012684099,-0.021249566,0.0072206887,-0.014096395,0.017710196,-0.0014396248,-0.014225234,0.031678334,0.029252158,-0.020293579,-0.0056850337,0.0067434087,-0.030739179,0.0016506694,0.0073457886,0.018732926,0.05092906,0.045875605,0.002273305,0.009257031,0.0075646243,-0.04030154,0.027887318,-0.016253969,0.009657876,0.017501244,-0.03515901,-0.011057928,-0.010520972,0.012302832,0.007374169,0.046387658,-0.01842373,0.008304206,-0.0117940605,-0.0054251147,-0.008891341,0.012410415,0.0031766652,-0.00018881817,-0.008410675,0.005908623,0.011646697,-0.0072548003,-0.025729427,-0.020712407,0.0024194645,0.020472443,0.010164913,0.0069801924,0.007595107,-0.011933482,0.0054768273,0.027093893,0.0077066314,0.0016173616,0.022991965,-0.025716426,0.0047355406,-0.0051457076,0.014703809,0.02206715,-0.02635453,-0.0077673006,0.02221531,0.013951431,-0.0007674119,0.011466339,0.01745727,0.009036916,-0.019223936,-0.018543437,0.015173007,-0.044759
53,0.002331385,-0.0044767438,0.0022873962,0.009256614,0.0014702029,-0.012501797,-0.004847988,0.0053662467,-0.0039420174,0.0030298126,-0.012254456,0.010607109,-0.01534018,0.007948894,0.009099064,-0.011763327,-0.0047013564,0.012350308,-0.00471805,0.0060672807,0.018331936,-0.0010066803,-0.020016886,-0.016964996,-0.014178402,-0.0069070905,0.00773307,-0.010921431,-0.002646183,-0.0067013754,0.006427968,-0.009125339,-0.0016617255,-0.01231971,-0.008664705,-0.0023350879,0.0014205244,-0.007558059,0.012259197,0.010297626,0.0029558165,0.005313066,0.01363934,0.009390185,-0.008282325,0.003430001,0.0125399,-0.012505578,-0.010356081,0.0038499883,-0.0020539812,-0.009985845,0.00911118,-0.0063570156,-0.0011116335,0.0028732913,-0.012585312,-0.011206873,0.008280427,0.001965326,0.008191709,-0.014731652,0.003850225,0.0032646514,-0.0029725523,0.0059819617,-0.015609975,-0.012907683,-0.0065913694,0.0046455525,0.013145278,-0.0014544711,0.0030091673,9.1604124e-05,-0.015406123,-0.0020847372,-0.010589182,0.015759867,0.006529842,-0.010207692,0.00032098877,-0.003494226,-0.0072891274,0.0033978675,-0.00036084288,-0.0026355218,-0.011449045,0.0017265114,0.001677563,0.007699933,0.021838102,0.0043724314,-0.00835576,0.011254006,-0.0019795683,-0.0126165,-0.008230465,0.018097438,-0.009097426,0.0005915219,0.007903574,-0.014912143,0.00052671775,-0.013547524,-3.1666266e-05,0.011903025,0.0030605136,0.010616863,-0.022793878,-0.008872001,-0.018420883,0.0024957133,-0.015401749,-0.0018863437,-0.019709684,-0.010631829,-0.005099536,0.007904672,-0.005692421,0.0028873018,0.01509453,-0.012906003,-0.021114647,0.0019332807,-0.0031049552,-0.0011285783,-0.010629168,0.0017511465
54,-0.0038278408,-0.008162907,-0.00856213,-0.007140849,-0.026159095,-0.009362003,-0.007206355,0.016129995,0.00043873343,-0.0056025996,0.02329977,-0.025107812,0.01187422,-0.007946939,-0.019392004,0.027289059,-0.00796773,-0.0018215494,-0.018980965,-0.027661033,0.01574958,-0.014537315,0.019863294,0.015579354,0.013175997,-1.1533851e-05,-0.011940588,-0.0044197715,0.0035226077,0.0201864,-0.019750817,0.00738279,0.009492324,0.02421983,0.00075274776,-0.030072542,0.02361383,-0.020308364,0.015403994,-5.1415016e-05,-0.0073902276,-0.003473585,0.002683278,-0.0038196035,0.009608502,-0.011532681,0.0035661857,0.03826493,-0.0073893694,0.0052005774,-0.013984206,0.016558548,0.013640761,-0.008072497,-0.0032202902,-0.018873021,-0.0005515779,0.009063033,-0.0050930637,-0.009500058,-0.0041514887,-0.0045809993,-0.011475803,-0.012450504,-0.011349755,0.0069661285,0.004847345,0.031170048,-0.0030184528,-0.019147994,0.042264223,0.015270485,-0.02082695,-0.0074194763,0.053976074,-0.01948688,-0.016473662,0.0067010582,-0.0055504777,0.0037148425,-0.0005684319,-0.013917936,0.010703923,0.0007554958,-0.0014200159,0.0018103587,0.0092171775,0.006059609,0.012430383,-0.0110093625,0.005669937,-0.009378966,-0.007878709,-0.0031368935,-0.027777757,-0.0048960936,0.013242168,-0.015099249,0.010814434,0.020476876,0.005702667,-0.0021607794,-0.015843827,-0.010061203,0.0065073897,-0.0019004644,-0.026045285,0.004798222,0.027554473,-0.0016194823,0.040655255,-0.020621482,-0.015358535,0.0041691954,0.011841944,0.025671268,-0.010228845,0.03272665,-0.00646521,0.014147712,-0.019930227,0.021325251,0.010628758,0.018981857,-0.012689267,-0.011760662,-0.010598386,-0.008154176
55,-0.0015402068,-0.014193925,-0.0064203064,-0.010330173,-0.015385368,0.019822044,0.0078045884,-0.021936666,-0.012767914,-0.024019819,-0.011432569,0.0019726572,-0.0038921265,-0.005995367,-0.012751468,-0.019312035,-0.02124956,0.0197286,-0.0063570784,-0.008711562,0.021756431,0.015020536,-0.012767565,0.02135294,0.0034565045,-0.00976453,-0.008859826,-0.0036590593,-0.0032567861,0.0018692048,-0.007942265,0.013405213,0.0010902537,0.0100585,0.0050662057,-0.005533515,-0.003592042,-0.013558603,0.011302915,-0.001688277,0.005003265,-0.0059077316,-0.017941954,0.00808954,0.0012184904,-0.014022568,0.004940761,0.0012275893,0.011680445,-0.0016649489,-0.03231785,0.0077493615,-0.0026015413,-0.003323487,0.014790541,-0.0031871456,0.024763428,-0.005448903,-0.00678621,-0.022715118,0.0070666475,0.01300098,-0.027917327,-0.00565848,0.017801303,0.002109437,0.037466623,-0.00065956445,0.022793004,-0.025240568,0.007967735,-0.0019525253,-0.03532347,-0.0011273306,0.025465446,0.02196471,0.0067095156,-0.026506655,-0.007302255,-0.01579457,0.00036299834,-0.015727762,0.011567527,-0.029498706,-0.011974536,0.0037058047,0.008129487,0.018567473,0.013010179,0.0030272156,0.011126576,0.020211812,-0.006025022,-0.03568375,-0.0049364762,0.009647263,-0.011455409,-0.017879248,0.042716797,0.006366313,-0.006250359,-0.0073234416,-0.012881769,-0.027980689,-0.009865785,0.003470399,-0.011099795,-0.007193405,0.027103478,0.008091521,-0.006301031,-0.015356682,-0.009419291,-0.0073256097,0.01350753,0.03203675,-0.019535674,0.012638791,-0.003977778,-0.0097583635,0.008567354,-0.001986978,0.010264758,-0.0126387505,0.012969247,-0.048164517,-0.021464776,-0.006428013
56,0.0030047048,0.0024348022,-0.016364526,-0.009067651,0.0021122165,0.011524629,0.016632298,0.0072532464,-0.0069018696,0.0029466012,-0.011470328,-0.014099619,-0.016763391,-0.0033772285,-0.0060407794,-0.012928969,-0.004152422,0.035006456,0.01826255,-0.005554376,-0.014146978,-0.008853798,0.0048231715,0.000618132,-0.0023730972,-0.010255954,0.020502662,0.016652156,-0.003837994,-0.005089781,-0.0115412595,0.007396704,0.011040935,0.019595178,0.009654278,-0.0017854307,0.0016583124,0.0011737205,0.01181672,0.016912006,-0.015052157,-0.013206037,-0.0016860501,-0.014662261,-0.0011521123,-0.0070806895,-0.0077097495,0.01947084,-0.013537147,0.012939683,0.00683222,0.025916895,-0.0043932293,0.0040319837,-0.0013108834,-0.0030636438,-0.03145559,-0.012895137,0.016803442,0.0049210843,-0.005138035,-0.012732376,0.004319308,-0.017197818,-0.016158001,0.0014587125,-0.017594485,0.011414228,-0.007066974,0.0043542744,-0.036527663,0.00036255343,-0.024054537,0.006417897,0.00422296,-0.0063294224,-0.02250614,0.0078032734,-0.013129229,0.0009167926,-0.012675274,-0.01843585,0.011522292,-0.0052038133,0.021815624,0.021847187,-0.014117307,0.0019498076,-0.0024091108,0.000429037,-0.0008515904,-0.0044878246,0.017337058,0.007791178,-0.017210104,-0.016960546,-0.012084928,0.002281785,-0.006459509,-0.023834964,0.013839112,0.010479035,0.014068617,-0.022837913,-0.018304199,-0.019050969,-0.0032368517,0.0075229807,-0.0041208877,0.012380099,0.010397649,0.0039584343,-0.01286526,-0.0010530568,0.0009772218,0.00982112,-0.017716834,0.0067266435,-0.011250314,-0.0061860345,-0.012782763,0.010590975,0.006369771,0.016311774,-0.006914318,-0.006270773,-0.017086793,0.013137895
57,0.010421193,-0.01528737,0.010787058,-0.0038109964,0.007715448,-0.017360067,-0.00046139004,-0.001693748,-0.009423264,-0.004167,-0.019660166,-0.0019388994,-0.019642971,-0.019357603,-0.012352821,-0.0065624965,-0.0053503066,0.0055703935,0.0027736307,0.007449578,-0.0021514888,0.016329715,-0.017189411,-0.015298573,-0.011217861,-0.013852761,0.0012801973,-0.0058005084,-0.008144323,-0.011429884,0.012396084,-0.003310544,0.01766529,-0.029321596,-0.009276558,0.0026087994,-0.013935805,-0.01809305,-0.0014177938,-0.0064668697,-0.0038958231,-0.00092568964,0.019814232,-0.0038667468,-0.012357529,0.012316437,-0.008276745,-0.028633652,-0.0053977277,-0.020259077,-0.016533123,-0.00033020685,0.004850293,-0.0036080133,-0.0011638373,0.0077062873,0.006533791,-0.010499835,-0.012624037,-0.0015512313,-0.010399233,-0.008455824,-0.014564354,-0.00065119436,-0.008776219,0.0015586641,-0.0155428285,-0.015228528,-0.002687005,-0.008876818,-0.04279212,-0.008120253,-0.010358175,-0.0021317392,-0.010676543,-0.013266719,-0.000100981655,-0.00927785,0.00044017585,-0.016116042,-0.00020922846,0.0090668425,-0.011275599,-0.008465569,-0.012578935,-0.018623952,-0.017705977,-0.016900089,-0.012613273,0.009543238,0.014449587,0.0038293656,-0.027601719,0.017577995,-0.015291468,-0.012120853,-0.013492883,-0.012128418,-0.014791633,-0.019763427,0.0019394055,-0.014269251,0.004220259,-0.010551269,-0.0052149203,-0.002688433,0.013709004,-0.006502496,-0.0303587,-0.024322914,-0.020753104,-0.014039089,-0.0063475226,0.0006464676,-0.015920619,-0.024422502,-0.00965353,-0.01874688,-0.014097296,0.00022913826,-0.0036377222,-0.013832888,-0.011297493,-0.009397069,-0.01821125,0.013560107,-0.006782457,-0.00823955
58,-0.02432154,0.016135335,-0.006761988,-0.0016543762,-0.044826012,0.019620761,-0.029854704,-0.012482559,0.01133981,0.0030546025,-0.018306572,0.035909347,0.031317122,0.029479666,-0.013256487,-0.0075448775,-0.007596424,-0.013733428,-0.019050648,-0.01904739,0.0030870507,-0.0013511857,-0.013895265,-0.012066902,-0.012746088,0.030110244,-0.0036460182,-0.006068448,-0.023292145,0.0021497905,0.005639733,0.013896108,-0.012548449,-0.058899138,0.030121231,0.012381176,-0.01667269,-0.019625787,0.030051036,-0.007545296,0.016292011,-0.0067494716,-0.03043265,0.007440658,0.0007866937,-0.05008941,-0.02637891,-0.0047064093,0.021371737,-0.13797478,-0.0043870653,0.021248827,0.009908639,-0.0073404303,0.006816235,-0.023673194,0.024638446,0.016260589,-0.03118678,0.017952327,-0.014675528,0.020016497,0.005407678,-0.017317947,0.008031427,0.015856761,0.046504512,-0.0035731087,-0.009873497,0.00900762,0.09109794,0.0020548473,0.0057529304,0.0010599741,0.015443581,0.02092665,0.019380247,-0.005957424,0.007059905,-0.008628429,-0.005575263,-0.042966124,-0.024674524,-0.03473836,-2.000565e-06,-0.00769717,0.023987183,-0.015238012,0.028903956,-0.009515248,0.043798584,-0.005433304,-0.0007447358,0.035691943,-0.0038332585,0.037812795,-0.08666583,0.015007368,0.020627998,-0.020617617,-0.014451702,0.009592075,0.0055970494,-0.015587604,0.010447455,0.018090552,-0.030744419,0.0045967647,-0.002602113,-0.03214713,0.01193359,-0.02958768,0.007628287,-0.012165855,-0.00196668,-0.03045705,0.011108372,-0.06862304,-0.028100846,-0.03692488,-0.007447496,-0.027578052,0.017098732,0.003169697,0.018000312,-0.025242098,-0.023752077,0.009065139
59,0.01529682,-0.022040317,-0.0041861087,0.006941534,-0.0040563047,0.00765556,0.00585843,0.0020515455,0.020700505,0.009231182,0.011601351,0.03964066,-0.0120987315,-0.004955359,0.016236313,-0.007928745,-0.009535092,-0.01172829,0.010379047,-0.0050208797,-0.006801104,-0.009581825,-0.008331232,-0.008311541,-0.012021617,0.00047396208,-0.0036331436,0.0056525893,-0.01436874,0.021145998,-0.006873598,-0.0067828693,0.005012373,-0.0055165323,0.011356951,0.017843219,0.010964326,-0.012259452,-0.00083799043,-0.022748686,0.019770574,0.035373684,0.012654942,0.0049113245,-0.007626638,0.0005471622,0.0035019252,-0.009056776,-0.011478505,-0.012324739,-0.004644148,0.015416106,-0.022923365,-0.0018704116,0.025341809,0.0021256106,0.020109573,-0.013137125,0.0013841733,0.014260667,0.0023075442,0.0088861,-0.00285719,0.0032451805,-0.01039447,0.01606887,0.010405179,-0.02073253,-0.0018892086,-0.019840578,0.0032699555,-0.009424403,0.032749597,0.0034293786,-0.026187677,0.005798309,0.019668806,-0.005781705,0.002968429,-0.006360219,9.513528e-05,0.010796039,-0.0057134535,-0.0021489384,-0.018909888,-0.0038774775,-0.016553102,0.024953367,0.015823606,0.0150683345,0.0017994071,-0.00999621,0.014968062,0.010958144,0.009735743,0.012760933,-0.005164122,-0.0055886228,0.013307976,0.01171442,0.013627966,0.0029691597,0.009411131,-0.0052656108,-0.017941082,-0.0123767955,0.0046067983,-0.010549501,-0.019412985,-0.030382188,0.004251994,0.010844389,0.0325184,0.007518579,-0.0144839985,-0.007394443,-0.0012461229,-0.018362287,0.033453077,0.007674312,0.017008426,-0.021888409,0.021021148,0.00021452241,-0.008271475,0.018160112,0.0075829457,0.027031012
