,0,1,2,3,4,5,6,7,8,9,10,11,12,13,14,15,16,17,18,19,20,21,22,23,24,25,26,27,28,29,30,31,32,33,34,35,36,37,38,39,40,41,42,43,44,45,46,47,48,49,50,51,52,53,54,55,56,57,58,59,60,61,62,63
0,0.018853465,-0.009488139,0.04583161,-0.023181677,-0.047982,0.013635785,0.022566335,-0.017504025,0.044044416,-0.08655062,-0.052976947,0.013995714,-0.034039747,-0.0342534,0.035244178,-0.054371275,-0.048677493,0.010550416,0.05889131,0.025390718,0.014208497,-0.009564011,0.025293978,0.012652024,0.051310096,0.029932337,0.018060837,-0.065125816,0.045556962,-0.027056547,-0.021055182,-0.04447346,-0.029287994,0.048468288,-0.014978573,0.047651544,0.06268735,-0.06330821,-0.0053828415,0.06609563,0.025467668,-0.01544998,0.038588453,-0.048884064,0.030689204,0.013316967,-0.01634338,0.06524943,-0.012508325,-0.028135594,-0.014242847,-0.054946356,-0.027250657,-0.06182131,-0.04123709,-0.023488035,-0.015432562,-0.00521837,-0.031611178,0.057339553,0.016885623,-0.04940349,-0.014022975,-0.06599421
1,-0.040392373,-0.018772172,0.023764677,-0.008784073,0.081794575,0.02237243,-0.03297477,0.0210544,0.032446876,0.034283828,0.023645595,-0.018159414,-0.08748422,0.0042738365,-0.05929788,-0.001200235,0.02402436,-0.046899084,-0.056444727,-0.006888047,-0.028617743,0.015200588,-0.03747472,0.013810026,-0.07407685,-0.013452275,-0.0018294051,-0.0431598,0.013871095,-0.015660392,0.009181096,-0.002175722,0.030865435,0.036766745,-0.09924491,0.016579285,-0.054662168,0.008091654,0.05166807,-0.035792172,-0.00031045507,-0.025741614,0.024561793,0.048496116,0.0004148076,0.06333102,0.022295402,-0.043502204,0.0022342945,0.006647376,0.015348396,0.017509896,-0.048636794,0.00879389,-0.0009554915,-0.0812556,-0.0069135907,-0.06578913,0.002064583,0.015812544,-0.0040643746,0.008377675,0.046960954,0.011233126
2,0.014210772,-0.011984169,-0.002258707,-0.0061943303,0.007969135,0.009590071,-0.008801091,-0.022040086,0.009019047,-0.017751904,0.011251791,0.005178984,-0.04412616,-0.030041734,0.00015068747,0.036313113,0.006855969,-0.0021518595,0.036635183,-0.032495294,-0.015780937,0.0049422635,-0.0095523195,0.0103489505,0.038486484,0.021329174,0.04170306,0.016619239,0.03818992,-0.026585158,0.020800287,-0.010937346,-0.0010942579,0.03090632,0.0146752745,-0.006002591,0.01990255,-0.006792285,0.018955184,-0.026117776,-0.011582369,0.0007782183,-0.009238046,-0.01486914,-0.015143303,-0.00821195,0.028650614,0.02919756,-0.028470136,-0.015614767,-0.013218294,0.0036762208,0.024434727,0.008766959,-0.0134305265,-0.019171707,0.03002556,-0.0016997239,-0.035484098,0.014881119,-0.004970107,-0.016882733,0.013764683,-0.01483926
3,-0.051100947,-0.043108676,0.008523693,-0.014919281,0.030099327,0.09197134,-0.0015544338,0.05561755,-0.015101054,0.005581323,-0.016551761,0.01506488,0.00055028056,-0.029957032,0.013397369,0.0366249,0.021588909,0.031792536,0.028079798,-0.006743533,-0.019561637,-0.01159763,-0.026097208,-0.010852661,0.0333247,-0.0003268475,-0.030884331,-0.038206402,0.019012539,0.005705274,-0.00600923,-0.049301498,0.052836347,0.034408316,-0.0065487535,-0.04896715,-0.008740721,-0.0141326105,0.059509803,-0.03136365,-0.0060389205,0.026791662,-0.009623339,-0.024138639,-0.014851125,0.03781937,-0.03955639,0.019781118,0.052459903,-0.026527913,0.06724242,-0.03384608,-0.011493247,0.023808725,0.081235506,-0.014066265,0.061328717,-0.041615997,-0.016536435,0.003986559,0.026820496,-0.0024905128,0.010649442,-0.012518075
4,-0.04122578,0.01250354,0.051155645,0.05110446,0.028221318,0.020124314,0.077566706,0.103916734,0.022621915,0.02670758,0.038027864,-0.0019369328,0.032206077,-0.01467412,0.02243474,-0.04515614,0.015325275,-0.052615833,-0.009022694,0.0023733657,0.03979937,0.015110666,0.012073018,-0.046180457,-0.014022724,-0.033259522,0.029813675,-0.012054485,-0.011629803,-0.0032545251,0.046467457,0.04775408,0.054517917,-0.05745346,0.053917367,0.08530954,-0.050402254,-0.051856987,-0.05789685,-0.030348463,0.0017803161,0.009430579,0.0050250585,-0.017594472,0.01559545,0.0006254046,0.032929126,0.03610728,-0.042300407,-0.02856985,-0.0073657045,-0.079578504,0.0011549116,0.019518098,-0.015006284,0.05108301,0.10241338,-0.012660666,-0.0052749887,-0.03645636,-0.08319478,-0.065452084,-0.0022814707,-0.012387477
5,-0.026031386,-0.00054038275,-0.064262636,-0.015272945,0.0580399,0.046184096,-0.021513827,0.030553509,0.010827554,-0.06452437,-0.02491867,-0.0069657564,-0.027282827,-0.056232203,-0.029014526,0.010360846,0.0047802567,-0.0058476836,-0.0025331504,-0.015263415,0.013288469,-0.0057610963,-0.02379789,-0.061292637,-0.018953117,-0.036051884,-0.038754605,-0.013515678,-0.03027482,-0.018882532,0.0017546543,-0.030541914,-0.02645196,-0.042781446,0.002676909,-0.043212164,0.0025169884,-0.06326495,-0.054369032,-0.047891516,-0.027915975,0.017927812,-0.012170803,-0.025237948,-0.0015058325,-0.035134885,-0.012129564,-0.028697167,-0.0436327,-0.039885156,-0.028471483,-0.1151878,-0.056475393,-0.04583515,-0.01989908,-0.02307357,0.009805136,-0.049344648,-0.025152907,-0.0040888763,-0.0018290378,0.005460449,-0.001034652,0.019410694
6,-0.045287084,0.05814713,-0.008191867,0.09493177,0.038164515,0.014047507,0.029659403,-0.019882662,0.015969079,-0.013626379,0.011468024,0.20602977,0.004876162,-0.023919597,-0.00034942848,-0.046728518,0.04373743,0.054166872,-0.028489472,0.035022993,0.0018123653,-0.0020821397,-0.02499588,-0.019785015,0.0032593266,-0.02826659,0.022780959,-0.024883961,0.0033896382,0.010135298,0.07218534,0.06397598,0.0054532075,-5.492113e-05,-0.02015371,0.00063785765,-0.061001737,-0.029412953,0.0062053083,0.045772996,0.07770636,0.02388762,0.0006101576,-0.05497169,0.004682606,0.0383761,0.018823177,0.014856321,0.044433266,-0.02666512,-0.024335526,-0.0017521235,-0.013619897,-0.0056183194,-0.029953668,0.024515333,-0.058885608,0.10095213,-0.024608161,-0.007868514,0.052911647,-0.018289298,-0.00049723993,-0.026125351
7,0.04131038,-0.016727742,-0.04593614,0.03692709,0.035502568,0.010224946,-0.04241567,0.021892507,0.015169121,0.006394284,-0.03557029,-0.009388573,-0.0064413156,0.039232463,-0.017153583,0.015505395,0.00361733,-0.0066205156,0.040580586,-0.0077150194,-0.005279655,0.063740455,-0.020829707,-0.007390852,0.013185568,0.034184657,0.007653074,0.042722706,0.07183558,0.022109866,-0.028271573,-0.106455594,-0.007601916,0.036125366,0.004406251,-0.025053319,0.022968253,-0.015072569,0.035417877,-0.0565087,0.028770663,0.014246958,0.015925145,0.0013095307,-0.035862494,-0.010471629,-0.0007033255,0.06511916,-0.046744354,-0.0030312142,-0.041870743,-0.018575406,-0.017034018,-0.01217113,0.07750434,0.013621627,-0.01696936,0.029283073,-0.043838285,-0.022256916,0.097543865,0.016221363,0.0035097168,0.0030324333
8,-0.028058946,-0.027836297,0.024866387,-0.050992083,0.019619107,0.08562621,0.00131295,-0.03040225,0.021335417,0.03920249,0.004843121,-0.08216355,0.06892303,-0.05842301,0.02706098,0.034486193,-0.009100963,-0.04022533,-0.07224416,0.008610057,0.03851253,-0.030392168,-0.015096041,0.008033237,-0.023191506,-0.043511167,-0.01579485,0.015817484,-0.040755853,-0.0018338084,-0.02934533,-0.02031972,-0.015342899,-0.019457767,0.055892084,-0.031497177,-0.026392566,0.0051468033,-0.0028752196,0.029095883,0.034176767,-0.031099664,-0.050304122,-0.01780343,0.0012834425,-0.027637191,-0.017076902,-0.019801997,-0.013285563,-0.023975471,-0.007485321,-0.014178376,-0.024261374,-0.05243573,0.0066528376,-0.028109288,0.008672481,-0.05233447,0.07246489,0.04917859,-0.020423902,0.00503673,0.063702635,0.03239504
9,-0.014741413,0.02836895,0.029810099,0.08235831,-0.012777682,-0.018452762,0.058006212,0.05338484,0.08597694,-0.005868326,-0.004614799,-0.072903916,0.008649129,-0.0055656955,0.008170323,-0.013724394,-0.039500214,0.032737583,0.037623357,0.006357881,0.015089157,0.04180506,0.054461066,0.0029399893,-0.0010868632,0.009657751,0.019912811,0.018806249,0.035944413,-0.022371002,0.0032839878,0.06861404,0.028221413,0.015457878,-0.027659548,0.03095528,0.0077251145,-0.026807122,-0.038672436,0.039793033,-0.013479205,0.018513614,0.04894204,-0.0023523578,0.005904791,0.025722029,-0.0020987524,0.025749424,0.00748203,0.0050963555,0.026671382,0.043845233,-0.039476886,-0.03168754,0.008375213,-0.0108104125,0.041395307,0.02932413,-0.0048744464,0.035336662,-0.018693358,0.0069051622,0.01667543,-0.014165605
10,0.016620543,-0.029023293,0.029940734,0.03544552,0.08185598,0.0047228867,0.02597956,0.04562487,-0.03833036,0.029415868,-0.00054832903,0.038770657,-0.12858148,-0.028443437,-0.021285297,-0.00067726726,0.0110707255,0.0143660735,-0.010867481,-0.0066438457,0.022376347,0.019009724,0.016707547,0.00014674252,0.03059225,-0.03788262,-0.040073738,0.0017891725,0.015359975,0.041921984,-0.0017080028,0.011621994,-0.005246553,0.0031955868,-0.11351576,-0.045986254,0.027454382,-0.024836728,0.014278033,-0.05048958,-0.0071120495,-0.008323082,0.073844716,-0.016289467,-0.011739099,0.09774129,0.007109956,-0.011601654,0.050559197,0.012182913,0.04777299,-0.14588541,-0.11097022,-0.010096554,0.009586194,-0.09963234,-0.0063667134,-0.030250609,-0.011592834,0.087794796,-0.02131088,0.025283895,0.06567701,-0.010104179
11,-0.0035607393,-0.0044652494,0.048876263,-0.021363769,-0.050054993,-0.026301846,-0.027573464,-0.02222552,-0.009035964,-0.0083940225,-0.0054187644,0.012935898,0.0012400664,-0.009697526,0.043531973,-0.016895825,-0.018273091,0.036765035,-0.03329003,-0.037890974,-0.019387478,-0.005262326,-0.016913414,0.025304293,-0.04804726,-0.010785216,4.0270283e-05,-0.010166833,0.0014980563,0.041540448,0.0024027934,-0.010075972,-0.008153149,-0.0073730825,-0.005835788,0.020028466,-0.023628192,0.014175472,0.06146694,-0.012024087,-0.01433971,-0.008264118,-0.005367775,-0.016861487,0.00917408,0.026577376,-0.0021949434,-0.016862383,0.036652267,0.011525421,0.020345371,-0.020507645,-0.014290549,0.010047272,0.022060659,-0.0051550632,-0.015492408,-0.0143148275,0.01898613,-0.003371546,0.04721493,0.01882788,0.031775095,-0.014267555
12,0.055115618,0.01710439,0.009305962,-0.042927165,-0.038248084,-0.035432536,0.011418335,0.03570876,-0.017500674,-0.029291356,0.02062878,-0.047522362,0.016048199,-0.041377228,0.028913027,-0.054785326,0.007813071,-0.013555716,0.035626765,-0.060042594,0.0016104296,0.041940488,-0.013671974,0.014510838,-0.014929054,-0.023715664,-0.022377003,0.00030261933,0.045370787,0.00902332,0.045430887,0.009085384,0.049052514,-0.027789276,-0.015068068,0.015665958,-0.023231305,-0.04381774,-0.0022155822,-0.040661503,0.07388467,-0.033459708,-0.034112863,0.010860531,0.01705832,-0.029304864,0.043449305,-0.076169126,0.033059336,0.024161683,0.04042794,0.03534858,0.008773139,0.034617055,0.04006714,-0.012530735,0.025619311,-0.036202304,0.06023712,-0.06671614,0.01638942,-0.042813,0.027140662,-0.010070878
13,0.016483264,0.004568557,-0.01683805,-0.004998577,-0.0027179674,0.014069049,0.014871915,-0.0068809437,-0.00034894547,-0.006964992,-0.0013325518,-0.037710894,0.013110607,-0.01026424,0.001289773,-0.048304204,-0.015071546,-0.03806416,-0.003571255,-0.003752235,0.047502313,0.00088507443,0.03975703,0.02757969,0.0050685187,0.0034842943,0.061201155,0.030220702,0.017162457,-0.023093702,-0.039399397,-0.029180285,0.009301326,-0.012420571,0.0015982453,0.04302669,0.04233482,-0.0101092,-0.016356563,-0.008277166,-0.049493145,-0.0052174637,-0.009284485,-0.00579262,-0.010419567,-0.01951663,-0.033099286,0.013454335,-0.0007709364,-0.021318857,-0.026231002,0.019454252,-0.01623328,-0.008943225,0.009613393,0.018752996,-0.02373249,-0.0005450865,0.034506336,0.034635585,-0.0021519195,0.007693234,-0.017391039,0.0066686245
14,-0.18667254,0.010661263,-0.03538534,-0.06454342,0.06789599,0.075468965,-0.033502284,-0.11755223,0.047825675,0.002757175,-0.07604345,0.0039258786,-0.08105033,0.039315812,0.021916049,0.063508146,-0.19249107,0.02431947,-0.013253838,0.07494971,0.028823936,-0.019381793,-0.063503966,-0.06491401,-0.022821393,0.007813461,0.03391021,0.10376027,-3.6999183e-05,-0.004925591,0.03575438,0.025155073,0.011730791,-0.034365095,-0.033436578,-0.0003596174,0.017396946,-0.00564662,0.057832006,0.01696073,-0.05576446,0.09554311,-0.021447705,-0.012255378,-0.0066026095,0.013692914,-0.27215534,0.054718934,0.040840786,0.004557975,0.0070694415,-0.09882567,0.038932063,0.006054952,0.018916007,-0.014597421,0.01816147,0.013781336,-0.13257946,0.23543897,-0.003465304,0.019951062,-0.052325565,-0.116883725
15,0.033063207,-0.008929274,0.083279066,-0.020667674,-0.021693096,-0.01948057,-0.011348152,-0.022872198,-0.016795903,0.011074332,0.005014248,-0.01063423,0.008430158,0.03133514,0.07442162,-0.011146092,-0.00330933,0.07094652,-0.030259302,-0.032890666,0.022432389,0.021967104,-0.0063384376,0.004267101,-0.025923187,0.015910935,-0.029518303,0.0006267461,-0.0011633738,0.046848536,0.00093231734,-0.018037684,-0.011364799,0.023850776,0.038104266,-0.0030883746,0.039111607,-0.0011378622,0.09265918,0.020059766,0.004257677,0.008422105,0.019717518,-0.009234287,0.022358816,0.023569865,-0.016215654,-0.026162168,0.043247573,0.0394024,0.0057795676,-0.0071926913,0.043899253,0.037860796,0.01004727,-0.005073248,-0.040809788,0.0117279375,0.0024216555,0.009833915,0.05842438,0.0124394,-0.016205547,-0.029682873
16,0.047411144,0.041317444,-0.0070215715,0.013764083,-0.0071161524,-0.03204382,-0.026440887,0.053637646,0.051380545,0.06101813,0.011705742,-0.024172701,-0.039510306,-0.005229096,-0.01872386,-0.0016706499,0.0021087546,0.08754973,0.025508502,-0.0067221266,0.001199014,-0.025753096,0.0002916335,-0.026333665,0.026752755,0.01353508,-0.0009259545,0.039217312,0.0352415,0.003994296,0.0073136645,0.00067829463,0.0022469272,-0.0037421084,-0.021286355,-0.018302517,-0.047837134,0.0013852834,0.011662429,0.027479995,-0.053154163,0.048201464,0.026362646,0.0027599684,0.009370438,-0.028577289,0.0084980745,0.027350815,-0.013318242,-0.003065522,-0.013338713,0.042295326,-0.013295574,-0.010262945,0.030562168,-0.0043899524,-0.02153511,0.017973132,-0.010014281,-0.015364055,-0.0049127564,0.0013355982,-0.024500204,0.016434904
17,0.066445015,0.043318156,-0.0039063315,0.016343333,-0.051565986,-0.054900475,0.04286997,-0.0069871587,-0.029802388,0.026872382,0.0025837903,0.012122784,0.005604265,-0.050313544,-0.029110856,-0.0197708,-0.04551688,0.029655546,0.057854977,-0.045282133,-0.027370486,-0.034315385,-0.036917888,0.022692831,0.016675193,0.032814812,-0.014079445,0.02366789,0.0025211056,-0.0034311342,0.0104320245,0.01173848,0.031234937,0.005466459,0.002144418,-0.016433887,-0.031673573,0.07469466,-0.030084016,-0.05731378,0.021728178,-0.0047340994,-0.034218986,0.004306769,-0.019479714,0.015561637,0.02145096,-0.0052489433,-0.030986756,-0.03657031,0.0046459646,-0.013831997,0.024905663,-0.0075017777,0.037734516,-0.023770329,0.044020582,0.034643777,0.039431836,-0.06199104,0.011539848,-0.02598122,0.11986338,-0.052214373
18,-0.065181985,0.008090232,-0.02952407,-0.029090332,-0.060888913,0.032010946,0.0017729466,-0.04597348,-0.0073423367,-0.054848555,-0.015594777,-0.0010141656,0.03329375,0.030498564,-0.011609768,0.05347437,-0.025087796,-0.028311236,0.013134313,0.0411788,-0.035683304,0.01596479,0.1011199,-0.05847262,0.016890272,-0.03246188,-0.016298225,0.041246332,0.008983357,-0.025299633,0.02418682,0.009363601,0.008504842,-0.023344457,-0.023784768,0.032068066,-0.07572922,-0.02464039,0.07296362,0.0065144515,0.058597732,-0.014523614,-0.010796478,0.08408597,-0.04144082,-0.014112379,-0.004686287,0.03987018,-0.002555601,-0.08510396,-0.016624665,-0.0085070925,0.026485272,0.035391115,-0.02679747,-0.06764854,0.0059523345,0.006000306,0.039681617,0.0010953548,0.06808396,-0.060866386,0.023021547,-0.06511007
19,0.009973656,0.016046034,-0.00840172,0.00058627676,0.041614566,-0.013361745,-0.03169162,0.013869313,0.031206893,0.014629762,0.003032123,0.024398629,0.018258791,-0.018363532,-0.034166735,0.0030917332,-0.014569713,-0.018403804,-0.018572748,0.040868916,-0.03776004,0.04916273,-0.021495258,0.043148685,0.007212932,-0.0091254795,-0.010934978,-0.026067208,-0.03143039,0.009941673,0.027763199,0.037106268,-0.005588846,-0.082627,0.04003746,-0.014569977,-0.05235145,0.0034992853,0.010365263,-0.033265665,-0.04788513,0.007763097,0.02563324,0.029070536,-0.0021497072,-0.01680305,-0.013925191,0.021718813,-0.0048631257,-0.010652203,0.016937677,-0.0108002825,-0.0154520385,-0.008375115,0.008886225,-0.033472963,-0.04487277,-0.011141356,0.0035837686,-0.06935574,-0.021391777,-0.024137178,-0.056538176,-0.058740903
20,0.07453245,-0.032831006,0.0019289538,0.044949565,-0.03833544,-0.024387637,-0.033517577,0.049570393,0.026322888,-0.049506348,-0.00044889245,0.107200995,0.052229155,0.04170427,0.023005817,-0.033634752,0.053497136,-0.05951614,0.0007288484,0.068443656,-0.017729184,-0.052229036,-0.019749636,0.014402692,0.03380901,-0.077326365,0.059084233,-0.017667433,-0.078098945,0.01703953,0.03224189,-0.03745619,0.036601193,-0.07443074,-0.0208445,0.079619035,-0.0061448137,-0.019982202,-0.03806664,0.026892068,0.004000454,0.045813356,-0.03650746,-0.021402147,0.033729117,0.00048451853,-0.03880885,0.019090794,0.027753223,-0.025786046,-0.010520777,0.015706804,-0.023119887,-0.04337923,-0.07836968,0.02257766,-0.018343555,0.0050351536,0.04586868,-0.02038291,-0.06552242,0.014716173,-0.046319835,0.010572416
21,0.023901572,0.015049974,0.017667783,-0.012902459,-0.061004672,-0.01098225,-0.056902323,-0.018270688,0.015653897,0.09381404,0.0040138974,0.001312614,0.022886425,-0.07248969,0.035425693,0.006072112,-0.011467492,0.04142254,-0.09597878,0.01520331,0.010806933,0.026938504,-0.010284688,-0.00036166713,-0.06795903,-0.0076285102,-0.004515299,-0.047177605,0.02819951,0.021863561,0.0054745083,-0.0025108901,-0.007868112,0.02652285,0.030339362,0.009104593,-0.050035387,0.0039112163,0.10831939,0.021650368,0.040472843,0.004985761,-0.03977821,-0.007791674,-0.017034013,0.009213768,-0.07275304,-0.015262781,0.0569789,0.011076447,0.029253466,-0.018472232,0.027674263,0.01085321,0.0064335493,-0.03853345,-0.03462208,0.021695575,0.015552368,-0.0041347034,0.093611695,-0.0023981677,-0.0035924402,-0.014699784
22,0.010425937,0.030745627,0.022727268,0.018549832,0.012525212,-0.005353212,0.027565828,0.021054132,0.07260973,0.011334023,0.00010749377,0.033233322,-0.0034549697,0.026048364,0.010336175,-0.013831994,0.035607353,-0.006080918,0.06856689,-0.035885215,-0.037811287,-0.035128184,0.0092061395,0.010770719,0.09284927,-0.018537033,0.000703418,0.05399889,0.034954514,-0.0110748,-0.016118579,0.05325737,-0.02670069,-0.0040448285,0.03398164,0.013771488,-0.023288384,-0.0077645807,-1.1163822e-05,-0.05663258,-0.047988303,-0.019191027,0.0009522425,-0.016930144,0.019570595,-0.039155852,0.027683837,-0.004397072,0.08574788,0.049882486,0.013575926,-0.01406127,0.006109847,-0.007824529,-0.04491226,0.030419592,-0.022163223,-0.024253322,0.0046923924,0.0069856476,0.031084321,-0.004559548,-0.009928502,0.03705292
23,0.020426622,0.013381983,-0.034476753,-0.047410455,0.010356507,0.042185612,-0.013746861,0.046943054,0.027621152,-0.03228297,0.027587919,-0.007715798,0.01660517,-0.095508926,0.04610168,-0.008323407,0.017277315,0.013591445,-0.03423149,-0.0007833306,0.002463323,0.012330872,0.00083166617,0.029571716,-0.10599323,-0.05435649,-0.0301022,-0.034193505,0.022605922,-0.0046482785,-0.02549994,-0.024883432,-0.01859748,0.029490137,-0.047029477,0.022586586,-0.050950564,-0.003299031,0.066357,-0.0035213237,0.01636753,-0.013981353,0.014103853,-0.002572885,0.014709599,-0.022156788,0.0052233716,0.00212596,0.052389197,0.007889139,0.03799729,-0.022635762,0.045077063,0.053284865,-5.8270834e-05,-0.03335996,-0.002445378,-0.07659803,0.019432943,0.0056147864,0.011085277,0.0055355723,0.036194958,-0.027174132
24,-0.025051063,0.097200915,-0.010590611,0.030603075,-0.003861623,0.05352442,0.018930428,0.027490776,-0.01086589,0.042326543,0.006037464,-0.020333396,-0.027593235,-0.014181285,0.0022508032,0.028354043,-0.016583195,0.025041856,0.0061435895,0.015452236,-0.030229468,0.022982221,-0.061658897,-0.034311548,0.006469419,0.0060449047,0.0094905775,0.0055108396,-0.014668133,-0.019933335,-0.06892324,-0.024848247,-0.019188154,0.0067510335,0.008758654,0.03803346,0.010166156,-0.014355877,0.019638646,0.009306495,-0.02749297,-0.012501992,0.019576319,0.00078921,0.12755233,-0.034227986,0.053463638,0.043161705,-0.051145945,-0.0053425175,0.032544263,-0.04743454,0.004129997,-0.080125086,0.031109944,-0.0022016263,-0.037576184,-0.0086166775,-0.010934298,0.054009117,-0.02014545,0.019437006,0.025503648,-0.003624228
25,-0.010383783,-0.008757466,0.0018003603,-0.013123994,-0.008767927,0.039495412,0.053898945,-0.028712692,0.040013947,-0.018658077,-0.094764926,-0.006007262,0.03233473,-0.030582208,0.03291183,-0.04259165,-0.014509268,0.009601668,0.08131935,-0.023924617,-0.028899204,0.019091362,-0.016729109,-0.08368057,0.018815098,0.084429435,-0.0016095114,-0.0016385312,0.057049748,-0.009021558,0.057049796,0.017582744,-0.051161036,-0.0063964054,0.10351967,-0.03714346,0.04207089,-0.053429335,-0.013027523,0.034709144,-0.026862767,-0.0343097,0.026889427,-0.032698013,-0.11168199,-0.0022746376,0.058099896,-0.03421171,0.002133325,-0.06415678,-0.015605772,-0.089366056,-0.049532507,0.00023508261,-0.01587754,0.026263246,-0.035811245,0.0019282727,-0.035683263,0.024823174,0.012143434,0.02103497,0.032857135,0.0052693686
26,0.041992538,-0.01755527,0.10666265,-0.027859416,-0.006174239,-0.0246282,-0.047960058,-0.034338024,0.0126582775,-0.0013356799,-0.0062150713,0.012217714,-0.040959857,-0.010939598,0.06260885,-0.032317333,-0.016576368,0.070483185,0.023377083,-0.04851005,0.05554151,0.01991288,0.0064874054,0.002418981,-0.055869613,0.020043284,-0.041922685,0.024068357,0.022819113,0.028453251,-0.016800473,0.018009854,-0.0059260125,0.051625825,0.009728391,0.023758817,0.07767288,0.013716888,0.07049586,0.031143816,0.006705106,-0.041970897,0.036909003,0.011212311,0.0049002357,0.050086383,-0.052701067,0.03641375,0.0068158647,0.025057351,0.00024679254,-0.021733994,0.021599317,0.014249199,-0.02430161,-0.023456847,-0.035948914,0.0014559751,-0.0015297107,0.021583963,0.06857632,-0.029249592,-0.017100727,-0.022559687
27,0.012078721,-0.011528875,0.0055120424,0.0034713952,0.041029513,-0.02709328,-0.013848417,-0.029313458,0.02118946,-0.00010693678,0.044076674,0.0020744274,-0.014109547,0.043670036,-0.0128350835,-0.024923671,0.008449577,-0.010746362,0.024183916,0.021191023,-0.0076674563,-0.0024872452,0.04355678,-0.06116148,0.013914432,0.020558499,-0.021231746,-0.012725085,0.015520861,-0.014949408,0.0024017754,-0.0010333443,0.01342344,-0.032737106,-0.012191001,0.02075019,-0.016173357,0.01814406,-0.036518715,-0.022508321,0.018421851,0.0014112311,0.014847986,0.039490517,0.0054627312,-0.0056407438,-0.016377816,-0.0017411279,0.008193178,0.023767268,0.03199748,0.030322483,0.0011499694,0.062019594,0.019758148,0.029121773,-0.024718354,0.0117058,0.054892045,-0.004517497,-0.004417738,-0.029273402,-0.011619185,-0.024589745
28,-0.041001577,-0.017827082,-0.019155469,-0.0033393418,0.0174,0.03919358,-0.024140231,-0.009049359,-0.013490988,0.008937978,-0.00021104733,-0.018244904,-0.015088406,-0.0045340075,0.014502057,-0.022052659,0.027861914,0.006724284,-0.029872961,0.007150797,0.007927441,0.010910152,-0.01988393,-0.020106195,0.018951531,-0.011092889,-0.025440922,-0.02624727,-0.014656067,0.0034429,0.026598837,-0.02704953,0.03860883,-0.0017938126,-0.024034755,0.009998955,-0.0042233765,-0.018517258,-0.030221218,-0.0108624045,-0.022492342,0.017548108,-0.004791024,-0.026278699,0.0069582844,0.0028713266,-0.011313237,0.00040292475,0.007977244,0.011792866,0.027848594,0.0019586177,0.017636744,-0.00032657944,0.011164285,0.023896677,0.016727032,-0.01540367,0.007136736,0.047815412,-0.027876396,0.022447977,0.054076053,0.021087514
29,-0.0030687437,-0.023758719,0.013407923,0.03527113,0.031404078,-0.01633652,-0.031498235,-0.026705774,-0.02617108,0.012542852,0.057438157,-0.002241058,0.009871276,0.013665641,0.026192253,0.06109616,0.043066632,0.026460137,0.018323237,0.013856023,0.06469412,-0.018176522,0.051834427,-0.019439114,0.0066988817,0.07021755,0.004553209,0.065357976,-0.003399166,0.059864465,0.0013396889,-0.0021256222,0.016366046,-0.078807905,0.024097184,0.033266027,0.051346008,0.02986046,0.016067823,-0.030867143,-0.012973468,0.0063092057,-0.045774337,0.027427236,0.014776148,0.05883188,0.028069459,0.0062433877,0.013204151,0.05714552,-0.08472913,-0.012087466,0.016063139,-0.0058501423,0.028071223,0.013245123,-0.063064404,0.014736126,-0.053902287,-0.0031110216,-0.013650555,-0.017432688,0.0067563904,-0.0072443346
30,-0.0074593257,0.05166795,-0.074853264,-0.017918177,0.026620451,-0.014746081,0.003526508,0.050028455,0.026432004,0.017391743,0.04553161,-0.020806493,-0.028382698,0.051274545,-0.0292732,-0.007917751,0.07841709,0.038528737,-0.042584207,-0.02505425,0.0329394,0.015763348,-0.012883765,-0.046705652,-0.020691963,0.04880691,-0.016728021,-0.0075447564,0.033519357,-0.008989068,-0.008321351,-0.0015176168,-0.054862965,0.04116889,0.01022974,-0.05777128,-0.031122271,-0.012765331,-0.002307719,0.082484774,0.011000806,0.06790951,0.0001005974,0.023792097,-0.024556562,-0.019879447,-0.04174563,-0.051486604,-0.044160124,0.007587658,0.007860683,0.056333795,-0.0011394935,-0.0011645553,-0.008697874,-0.0062908214,0.0036271266,-0.016023008,-0.0589449,-0.033684447,0.0499139,0.011731818,-0.054991502,0.044693355
31,-0.015033861,0.008524158,-0.031563636,-0.012059228,0.07445403,0.012029799,0.0007014181,0.02473274,-0.0104455585,0.035259943,0.01925421,-0.006886024,-0.007617713,0.066474065,-0.02690984,-0.050742242,-0.013712632,-0.021170987,-0.0060509564,0.013902323,-0.023845626,0.0216815,-0.023835262,-0.023958711,0.022402115,0.002061943,0.008278739,-0.031144444,0.0077278446,0.0063851546,-0.0056051663,-0.014674245,0.018276397,0.06252214,-0.035840623,0.013349798,-0.071182005,0.03599568,0.018936632,0.0016448463,-0.0057634297,-0.02675345,-0.013806489,0.04171955,0.011638553,-0.0049236626,-0.04352644,-0.023039963,-0.04381155,0.01451802,0.014196126,0.03581009,-0.013683308,0.012031308,-0.0044816355,-0.0032844061,-0.021871993,-0.01506167,0.063558936,-0.03157019,-0.01344528,0.033547252,-0.004203451,0.008385342
32,-0.0591177,-0.008330148,-0.002469185,-0.022174986,-0.033743672,-0.03988391,-0.08218322,-0.02329231,-0.026002,0.037238766,-0.011842522,-0.0307615,-0.039519317,-0.05105821,0.010141762,0.02089903,0.0031271682,-0.00478499,-0.03519926,-0.014173018,0.019200366,0.012846915,-0.04444775,0.0006207941,-0.0715876,-0.040901568,0.00075462664,0.013970386,-0.044531655,0.033621572,-0.028819025,-0.031303953,0.00084023335,0.01621286,0.048948176,-0.03671737,-0.060968872,-0.011698367,0.026539354,-0.052100513,0.017994117,-0.0595309,-0.013539737,-0.023998903,0.010216498,0.011841982,-0.02544687,-0.01072511,-0.007836633,0.008002331,-0.009745934,0.016631367,0.0072787013,0.0066034202,0.027994223,-0.081286915,-0.018753184,-0.03610943,0.018802937,0.003559007,0.04604753,-0.005281185,0.014910509,0.019154841
33,0.01955014,-8.269831e-05,-0.08508604,-0.072548635,-0.1019492,-0.061123405,-0.064337246,-0.0633362,-0.025610117,0.009480991,-0.02912473,-0.034177378,-0.041224737,-0.052700322,-0.0020294061,-0.015130337,-0.00626203,-0.0024228443,-0.014584022,-0.046153262,0.0062716226,-0.0114750825,-0.03349262,0.034608398,-0.1422553,0.0071799657,-0.0414957,0.0027751906,-0.01941649,0.054500353,-0.020256013,-0.03763283,-0.06350348,-0.019872488,-0.04355469,-0.05707799,0.030685937,-0.0148954075,-0.026861733,-0.054284915,0.021507049,-0.10048972,-0.058550615,-0.004241541,-0.030267563,-0.04316944,-0.04512478,-0.0069255866,-0.01684166,-0.01255358,-0.040036675,-0.051737074,0.007572935,0.016486395,-0.012776867,-0.016677821,-0.10464476,-0.06773533,-0.018033069,-0.013573177,0.0076343818,-0.04154194,0.05365638,-0.04345879
34,-0.10250193,0.018076688,-0.04632667,-0.06251625,0.074379236,0.10939433,0.008642204,0.036303505,-0.055040173,0.104144596,-0.054688886,0.00945849,0.021463452,0.11721469,-0.03389232,0.036584895,0.060273748,-0.0122424,-0.049977668,-0.038709275,-0.019253144,0.009050957,-0.03484821,-0.019451153,0.014357351,0.035513896,0.0821936,0.025628867,-0.036894273,-0.013982616,-0.02843407,-0.028425759,0.016290067,-0.019903814,0.09189369,-0.009808362,-0.10987245,-0.02576609,-0.034510124,-0.03059782,-0.00562695,-0.045438383,-0.0006800545,0.010188163,-0.017009547,0.0004489245,-0.01668756,-0.030522445,0.025993282,0.053358786,-0.018959053,0.044652235,0.029315399,-0.04592364,-0.005375305,-0.028449856,0.06970387,-0.06217641,0.07270828,-0.056377444,0.0017551257,0.031535313,0.026314933,-0.0042933947
35,-0.054728795,0.029704245,0.03337784,0.08585634,-0.04279408,-0.036449604,0.053523947,-0.01069081,0.077631734,0.016290436,-0.042795643,0.005943051,0.012076945,-0.019469604,-0.0011614304,-0.019277593,-0.056705255,0.014211458,0.03287277,0.05126753,0.0050265826,0.0326599,0.0010968697,-0.009180651,0.05456217,0.060079884,-0.011222333,0.006870564,0.044682924,-0.005548677,0.06551831,0.046471585,-0.044534013,0.018563464,-0.0049314485,0.007623286,0.049167074,-0.029406976,-0.037867818,0.06743464,0.007938499,-0.030080028,0.05895748,-0.007476389,0.017798055,0.039002743,-0.0500997,0.035943054,-0.036629587,-0.030263998,-0.017725928,-0.00695894,-0.03518584,-0.02692976,-0.024584126,-0.03198425,-0.025725054,0.021859065,-0.028051512,0.06366542,-0.0077648624,-0.03553868,0.009011872,0.0053493064
36,-0.047753863,0.027884759,0.06699632,0.07583876,0.0048531312,-0.020444049,0.10059837,0.04957795,0.033107717,-0.035723396,-0.0070415847,-0.02332689,-0.014153855,0.09804454,0.012363035,-0.013245255,-0.05623289,-0.03312163,0.013371053,-0.042073615,-0.01867968,0.02087526,0.041496683,-0.023962762,0.007813598,-0.020004831,0.052940574,0.021005264,-0.01846035,0.002156913,0.054492936,0.07321201,0.030694302,-0.039036516,0.00081138173,-0.0004376842,-0.039771464,-0.026982302,-0.019644458,-0.048029166,0.0122492835,0.03540212,0.036771365,0.010392461,0.031173294,0.037948374,0.032074295,0.049805388,0.008912567,0.02427448,0.031251386,0.042089507,0.017197972,-0.0010643188,0.013787874,0.014666933,-0.01606303,0.020554353,-0.0066278432,0.0017666584,-0.047035243,0.05707981,0.017433396,0.0002168043
37,-0.034779307,-0.013968582,0.010251161,0.01148734,0.03701576,-0.02511731,0.029958518,0.0028226394,-0.0049615675,-0.008682859,0.026395243,-0.017582115,0.03252769,-0.009889595,0.00866615,-0.033080086,0.016541636,-0.0019377705,-0.023800649,-0.051753704,0.017574228,0.014133071,0.029093027,0.0053050467,0.0059879045,-0.008758913,0.0006019561,-0.0469566,-0.042767704,0.009381349,-0.007223896,0.006445589,0.030539917,0.043862943,-0.027286397,0.0049956827,-0.02541007,-0.014037556,0.0189479,-0.00042667764,0.07495814,0.03328247,0.012545967,-0.007605576,0.01634572,0.025947182,-0.019763345,0.015065093,0.007260946,-0.013046115,0.021331092,0.004225024,0.008947431,0.032862224,0.020995775,-0.022398368,0.018755749,0.049303073,-0.014941888,-0.016596781,-0.041691814,0.0013195038,-0.013543029,-0.0002553401
38,0.0701709,0.019802103,0.06902988,-0.03799611,0.028026652,0.032806884,0.0037151845,-0.034782477,9.464461e-05,-0.012580831,-0.053907096,0.054407712,-0.029004041,0.018819422,-0.025274446,0.049557988,0.065560974,0.043758083,-0.06969774,-0.076890506,-0.05020672,-0.027098235,-0.048238173,-0.0008611447,-0.02912347,-0.0166805,-0.05137283,0.049231008,0.02853631,-0.03606968,0.035855185,0.020689264,0.034058657,0.023238817,0.019997586,-0.057117593,-0.0591775,-0.036725614,-0.037669398,-0.012935612,0.1218049,-0.05991077,-0.029127084,-0.0437503,-0.011426622,0.050520025,0.030822504,0.07152141,0.023212044,-0.02521434,0.046658803,0.022910798,0.03830025,0.12456692,0.021758933,-0.032181416,0.13205862,0.06696735,-0.063290566,-0.0017889941,0.02831928,0.03119195,-0.07022329,0.007539674
39,-0.0027293444,0.05983348,0.017961709,0.017102014,0.026665356,0.0074224514,0.0371046,0.0164409,0.053696226,0.053539354,-0.0051912074,0.13253832,-0.005857187,-0.014615031,0.009715816,0.04588324,0.048554223,-0.026380926,0.01772876,0.00662419,-0.031994756,0.05220471,-0.03110623,0.010755463,-0.028200135,-0.004090052,-0.032225918,-0.015727274,0.03837527,0.004583425,0.042776678,0.0053357547,-0.04132574,0.0061177434,-0.014363389,-0.026038885,0.0033449077,0.00052367704,0.020295009,-0.03477882,-0.0028841232,-0.019482555,0.00083858136,0.013605956,-0.015750146,0.020182617,-0.012874757,0.028514536,0.05021435,-0.001176987,0.0096644685,-0.02577261,0.0011134074,0.024051024,0.011051161,-0.019577293,0.0028388184,-0.018753525,-0.030275326,0.025679165,0.043350734,-0.010225065,0.023258934,-0.005564712
40,0.019023135,0.0059223464,0.05356531,-0.0023068644,-0.018188423,-0.009161911,-0.0136466175,0.0023474132,-0.01436056,0.006461126,-0.012232492,0.008717527,0.026626889,-0.043603454,0.018370263,-0.015143103,0.0022768406,0.021005213,-0.018772146,0.004166681,-0.010480502,-0.02113569,-0.0014617031,-0.0006848836,-0.037147384,-0.03130709,-0.013229265,-0.013962108,-0.026027117,0.015780734,0.0008583919,-0.021970807,0.0034728504,0.01993144,-0.008259823,0.02416443,-0.01795464,-0.033255663,0.05661552,-0.01625906,-0.011277859,-0.007117941,-0.0058256136,-0.009079774,-0.009035132,-0.0085795885,0.008826129,-0.023081798,0.021505326,-0.012552462,0.034184843,0.044086706,0.001431473,0.038694948,0.046018787,-0.002424147,0.0026321763,-0.0214352,-0.016075695,-0.0057119844,0.012622482,-0.016876906,0.031411663,0.011720486
41,0.038199496,0.025302783,0.007658482,0.011767401,0.007249783,-0.02079645,-0.007815576,0.053341832,-0.026318967,0.011096164,0.030166717,0.014652166,-0.04410678,0.04847027,-0.02094456,-0.017788054,0.023575313,0.00485886,0.09099405,-0.020307634,-0.03354798,-0.018696258,-0.04327057,-0.008025546,-0.023984361,0.0040456387,-0.009147365,0.022108458,-0.01051631,-0.0036528548,0.059398256,0.052056894,-0.067898594,-0.0044675027,0.05285313,-0.012025936,0.047623485,0.012592712,-0.019967804,-0.035930473,-0.016914649,0.018588206,-0.02695246,-0.009628949,-0.02908927,0.006307925,0.008088518,-0.017931007,-0.013223039,-0.0595961,-0.025490832,-0.023927048,-7.6353106e-05,0.018695233,-0.021034641,0.02145658,-0.0017599685,-0.0015324465,-0.016001025,-0.029232271,-0.004867394,0.031314492,-0.011102658,0.034568433
42,-0.020573005,-0.02396607,0.00096685963,0.035231788,0.02928352,0.039362386,0.010645465,0.030321075,0.005848974,-0.007044168,-0.01915414,-0.040850904,0.012713275,-0.026452014,-0.021384593,-0.03547431,0.013182772,0.013413628,0.09479885,-0.06964287,-0.0035210429,0.013474885,-0.019713456,0.013486475,0.051313944,0.023463625,-0.04143132,-0.02350283,0.026017578,0.004798243,-0.016999746,-0.021999711,-0.009317339,0.04212431,0.006393619,-0.0021432347,0.058030162,0.026186878,0.0068614767,-0.0054644756,-0.02219411,0.052105032,-0.030203696,0.009436298,-0.0022285068,-0.0058863945,0.023355702,0.011953493,0.006386688,-0.067007706,-0.026971435,-0.020789657,-0.0022930538,-0.025180934,-0.029407375,0.0008076843,0.07795868,-0.0060921423,-0.055561993,-0.0017974123,-0.044082005,-0.014895665,-0.0008788315,-0.003681271
43,-0.05583762,0.022415243,-0.005353672,-0.050170545,0.056031708,0.072095044,-0.0038710833,0.038631592,-0.028596198,0.0050645447,0.020105418,-0.014640368,-0.026906732,0.015782004,0.0140316095,0.03358746,0.05567186,0.03691312,0.03539115,-0.059549354,0.03288584,-0.0071652546,-0.009336046,-0.009307829,0.013875233,-0.03544345,0.017836321,-0.052837543,-0.03314043,-0.021287197,0.014820633,-0.010289312,0.0047614425,-0.022164438,0.073806904,-0.011094021,-0.03919654,0.032161616,0.0029692408,-0.033412308,0.0032885692,0.020814039,-0.02822766,-0.004272251,0.00952728,-0.0006619024,-0.02453583,-0.003695057,-0.017857537,-0.0020569423,-0.022161875,-0.025682978,2.2871041e-05,-0.0129396,0.009986596,-0.02225284,0.057263646,-0.051820457,-0.0008844561,-0.033129033,0.012369107,-0.058097914,0.061698377,-0.042835467
44,0.00042791138,-0.033721674,0.013116969,-0.023816906,-0.019218955,-0.025399426,-0.032371715,-0.04475417,-0.04123011,0.013486438,-0.004278436,-0.035926573,-0.05206975,-0.043194734,-0.00045087747,0.010476546,0.044157192,0.00047579064,-0.017604169,-0.004889739,0.009913455,-0.016482558,-0.0047465973,-0.010540268,-0.023896404,0.029659225,-0.015825545,0.027785046,-0.019606955,0.008844554,-0.02196457,-0.049000174,0.017651888,-0.0038994853,-0.007669647,-0.0034407787,-0.040949836,0.02161422,-0.015787795,-0.032266844,-0.004161281,0.00017008616,-0.025157578,-0.016088447,-0.005899913,-0.022776615,-0.01597499,0.018872181,-0.032574303,-0.02890562,0.020539468,-0.015550877,0.012141285,-0.01377918,0.010819019,0.010400826,-0.00088726915,-0.011313942,0.015723307,0.023900129,-0.014443274,-0.032050546,-0.010106653,0.010345775
45,0.024581404,-0.02692702,-0.033224907,-0.014996135,-0.044747725,-0.04980727,-0.0567669,-0.037096385,-0.042936645,-0.0032972689,-0.01600037,-0.03961757,-0.040479194,-0.08829324,0.021604398,0.004355899,0.037274927,-0.018342543,-0.020868685,0.0077700154,-0.009579385,0.000960289,-0.027753862,0.03052386,-0.109367795,-0.017315054,-0.026631609,0.023223266,-0.051886637,0.017784739,-0.010462851,-0.0439463,-0.02092314,-0.021393951,-0.040616482,-0.0515419,-0.00067616056,0.025985565,-0.02082087,-0.081761956,-0.03188541,-0.05131616,-0.046396244,-0.010760001,-0.010654919,-0.036625333,-0.01566184,-0.019048518,-0.03448771,-0.039887,0.002153231,-0.025064653,-0.0065296097,0.012450813,0.035062723,-0.042197343,-0.053406715,-0.054405175,0.0025854872,0.035704937,-0.0086551905,-0.031350687,0.050675645,-0.029045738
46,-0.027777167,-0.015239304,-0.017588362,0.051316075,-0.011016814,-0.020948742,-0.0037225564,0.047926236,0.08366418,-0.03220217,-0.004246125,-0.032055363,-0.0048552863,-0.040530853,-0.049894754,-0.03293811,0.034161594,0.02038807,-0.029290851,0.006210943,0.013301012,0.03900453,0.019313669,-0.043607738,-0.029736642,0.00019189883,-0.029980574,0.035799637,0.001476667,-0.07900119,0.08294997,0.08475603,-0.045104936,0.004545406,-0.0108041065,0.0632839,-0.04675137,-0.034652762,-0.022314938,0.007538899,0.012415225,-0.053718712,0.005680745,-0.015227709,-0.0101006655,-0.009416938,-0.04329472,0.038820174,-0.021649217,0.009505219,0.015289947,-0.07265182,0.020423945,-0.03240609,0.023843044,-0.008948707,0.0070733684,-0.0056605777,0.0047961827,-0.012972984,0.06425683,-0.04331158,-0.016236164,-0.024540419
47,0.0085970685,0.022836514,0.041592505,0.057575602,0.003959178,0.009469053,0.020729313,0.027009536,0.043939997,-0.005196735,-0.03293585,0.0026133417,-0.00395665,0.0039835153,0.014146369,-0.005425339,-0.0573837,-0.0140039865,0.107645035,0.026304431,-0.027514134,-0.009079222,0.03114268,-0.03747807,0.05493479,0.008180368,0.025282074,-0.0063324855,0.04351247,-0.015517192,-0.028126765,0.008804851,-0.010931357,-0.022550294,0.06566273,0.036002595,0.05624026,-0.02974082,-0.003941773,0.07391594,-0.023851112,-0.061408218,0.0027389235,-0.010762926,0.059035346,0.014529409,0.022237524,0.032721348,-0.015976783,-0.020536803,-0.006344757,-0.034565184,-0.02715956,-0.02997194,-0.020262532,0.07157025,0.020955928,0.055144995,-0.028641097,0.0029637087,0.005598837,-0.0019522049,-0.017527983,-0.028683083
48,0.08278924,0.007393256,0.029698694,0.027245525,-0.0979454,-0.046893388,0.082456075,0.053341676,0.023899397,0.017541302,-0.015550411,0.037968565,0.025114248,-0.06314856,-0.018929103,-0.08049271,0.076427616,0.03455568,-0.0033651546,-0.018804118,-0.011569812,0.042071562,-0.061599907,0.009735397,0.0443981,-0.015621867,0.011965642,-0.023923788,0.018414209,-0.05121205,-0.0356859,0.009278376,0.013402513,0.034623593,-0.02587938,0.015133734,-0.0003574884,0.04850535,-0.03939971,-0.04492911,0.028045492,-0.0112355435,0.024254346,0.019560967,0.026244115,0.031720094,0.018902214,-0.0011289231,-0.04265715,0.02046355,-0.051411614,0.020892516,0.020457169,0.0050019543,-0.16801207,-0.008540117,0.030581238,0.0027560326,0.054598004,-0.09251242,0.0050019245,-0.106353365,0.15595555,-0.011519715
49,-0.027757712,-0.034764614,0.027059857,-0.0033762434,-0.00937184,0.065455444,0.010020121,0.075102635,0.04451872,0.01752475,-0.025985597,-0.0029204192,0.013662406,0.007191084,0.00045010934,-0.058969725,0.08265919,-0.0065796394,-0.0075511415,-0.10205825,-0.029811453,0.02813806,-0.040602975,-0.010869274,0.0038370865,-0.008515373,-0.043290704,0.030332422,0.0067214603,-0.012812441,-0.0116332695,-0.034380406,0.0039061937,0.057935663,0.013316326,-0.019982979,-0.009484523,0.00398178,0.010994052,0.013330364,0.0043770624,0.056717616,-0.027848076,-0.031304754,-0.012174028,-0.023538813,0.022943,0.0033197785,0.06662494,-0.092080355,0.005770248,-0.040179413,-0.021799408,0.079549395,0.05373844,-0.052965183,0.069172665,-0.004807229,-0.03850145,0.0101196915,0.009196178,-0.028577736,0.0072565866,0.05692299
50,-0.0015704449,-0.027895607,0.025490541,-0.019140312,0.0016564068,-0.00024975516,0.042511694,0.017233958,0.0021242257,0.00021227772,0.016368594,0.028711801,-0.017257309,0.007598574,0.034892734,-0.016328616,0.071900256,0.025920095,0.005189166,-0.035023842,0.03110915,-0.007825748,-0.015185304,-0.008832437,0.024855847,0.04651892,-0.01964991,-0.008172069,-0.0016999291,-0.0018613118,-0.026258728,0.008213564,-0.030958783,0.032850444,0.0029287918,-0.003931137,0.005899787,0.048241608,0.016637724,0.02007372,0.033260718,0.034336757,0.011454581,-0.036028236,0.010194519,0.02206647,0.011151052,0.022387737,0.016765628,-0.012784034,0.0002682384,-0.021131346,-0.010960336,-0.0047935722,0.026114501,-0.023859948,0.033166215,-0.01195557,0.017948877,0.0037996885,0.0289193,-0.004039027,-0.03607695,-0.003337977
51,-0.05730658,0.027466957,-0.020656465,-0.009527176,0.013405472,0.051691283,0.047403738,0.08496952,0.0140177915,0.070571594,0.0807402,0.05157302,0.008039638,0.048520423,-0.032288544,-0.005240479,0.022330962,-0.017824262,-0.033184133,0.015807226,-0.028775927,0.014772005,0.010223071,-0.03365376,-0.02096874,0.0010367902,0.055472,-0.05480994,-0.06562557,0.026183974,0.041650534,0.017772507,-0.004329223,0.0154341515,-0.0017160769,0.021950375,-0.0055163573,-0.0025269692,0.01738832,-0.041753583,-0.033315998,-0.024703082,-0.0012757069,0.04359389,0.08871404,-0.007948267,-0.01110842,-0.0034741086,0.006328811,-0.01873944,-0.03961897,-0.037299037,-0.040831577,-0.028343122,-0.04164335,0.018116497,0.034196414,-0.050550517,0.009704079,-0.08326263,0.0060794316,-0.049884286,-0.010711632,0.057289116
52,0.050682593,-0.013097347,-0.008407022,0.04009567,0.06287609,0.006764967,-0.06136678,-0.005977255,-0.022546658,0.0124834655,0.05557504,0.009426119,-0.013553128,-0.01807951,0.00032574552,0.0160139,-0.018704422,-0.014421606,0.0541372,-0.012406932,0.019852994,0.029068282,0.01776842,0.07604143,0.012604188,0.02738496,-0.018884296,-0.015742978,-0.028564813,-0.01284499,-0.010426317,0.0066797435,-0.024373986,0.0008933902,-0.025556289,-0.021772137,0.031125976,0.02360027,-0.051431935,-0.023698978,-0.024591252,0.021033617,-0.038157247,0.0076867514,0.0053520156,-0.030250125,-0.0066281366,0.0167244,-0.036575887,0.014187858,0.025068356,-0.015542462,-0.03275437,-0.035233308,0.009580372,0.016641606,-0.12062907,0.046235595,-0.052769344,0.0051078806,-0.023540668,0.051287424,-0.028594099,0.044471085
53,-0.020384507,0.00591926,-0.0071262955,0.0041736965,0.0028079215,0.038902868,-0.0023067056,-0.021247782,-0.0017325848,0.006788566,-0.0069399085,-0.02677831,-0.016359465,-0.024825078,0.018288342,0.036867578,0.02008316,-0.011560603,0.0068829563,0.007823966,0.0026883527,-0.042984832,0.0050715874,0.00015282357,0.011539386,-0.008184299,-0.02836211,-0.008416296,-0.026820209,0.00079804746,0.023413848,-0.02136755,0.016143031,-0.0019709417,-0.029514855,-0.019027041,0.030850193,-0.040375013,-0.02090775,-0.002547388,-0.0021010533,-0.03203755,-0.024807818,0.012999087,-0.025805116,-0.036598507,-0.0039833034,-0.015955202,0.010447064,-0.0055592223,-0.0053549632,-0.01815495,-0.025957702,0.0107310265,-0.059566908,0.003165676,-0.00086626725,-0.037249546,-0.039931893,0.043779433,-0.023380293,-0.0063718045,0.06311137,-0.01669624
54,-0.010891512,0.006177277,0.0003556528,-0.016191877,0.02149972,0.050602198,0.011445261,0.03875969,0.00013646945,-0.017070955,0.0025070834,-0.023385044,-0.011935306,-0.0070197964,0.015428828,0.033587605,0.009349085,0.0047973464,0.010943858,-0.04157666,0.024689022,-0.0069120764,0.006196805,-0.013269168,0.00701073,-0.0112989,0.015518936,-0.014917717,0.017012622,-0.015054647,0.025020171,-0.050604407,-0.009359543,0.03779113,-0.010219318,-0.00995611,-0.021286195,0.02425668,0.00037940074,-0.00018027308,0.057934813,0.008070092,-0.010249535,0.022918386,-0.022398183,-0.026906285,0.0076042255,0.036715116,0.015350387,-0.004172725,-0.022209622,-0.008807389,-0.013054418,0.04915984,0.025008688,0.008815927,0.07090003,0.0023476253,-0.041158028,-0.00087426597,0.018464249,-0.0034732267,-0.031993534,-0.008703076
55,0.054623205,-0.00039668154,-0.037351206,-0.008936818,0.037089087,0.017411519,-0.0676364,-0.04040331,-0.008324855,-0.001271999,0.030239196,-0.039179824,-0.02719948,-0.018424219,-0.031173425,-0.0015257917,-0.015358713,-0.021165434,0.04531102,-0.035910316,0.02905029,0.053191684,0.012266272,0.051732782,0.024093322,0.0020413843,-0.017713808,-0.015672762,0.0021769758,-0.029740455,-0.021317076,-0.04922687,-0.00981792,0.06963763,0.03274439,0.009273796,0.00025771573,0.0052185045,0.03699608,-0.020365201,0.00542043,0.017864974,0.02635115,-0.045631923,-0.013313904,0.017693378,-0.0029221307,0.046829756,-0.09721838,0.016730329,-0.033201624,0.00087472185,-0.02597005,0.031117903,-0.018382818,-0.055648297,-0.053268388,0.037557382,-0.10481805,-0.0114696035,0.06606349,0.009247984,0.023604719,-0.014472373
56,-0.020481996,-0.019458815,-0.016551448,0.0033446304,0.008156602,0.016237216,-0.058947053,0.03516693,0.0031907477,-0.021064635,-0.014006979,-0.013938808,2.34081e-05,-0.037810232,0.0157343,-0.05518334,0.008849916,-0.031483017,-0.026777912,-0.019171484,-0.0037477808,0.031402916,-0.01111155,-0.009539869,-0.05532533,0.027724491,0.007957911,0.019598449,-0.038461927,-0.04775836,0.008092774,0.027051415,0.024716627,0.029152056,0.028834566,0.021287132,-0.0042487457,-0.032112233,0.011943456,0.02420435,0.031818077,0.020740524,0.014042569,-0.03170429,0.012585653,0.012923024,0.037714973,-0.0015796982,-0.02272503,-0.021754798,-0.0037691584,-0.002493766,0.017052133,0.009594792,0.007936066,-0.0141487075,0.0044422215,0.04455224,0.01118407,-0.02842988,0.020171871,-0.0056757354,-0.030366283,-0.015207937
57,-0.0036310852,0.020126343,-0.08495186,0.04210632,-0.02444045,0.0048740837,-0.016496833,-0.018553145,0.023662964,-0.02140924,-0.0618308,0.024996411,-0.0012040604,-0.013269476,-0.05762567,-0.0907182,-0.008474195,0.012943672,0.02918398,-0.026125588,-0.006416798,-0.04739258,-0.015513532,-0.008530655,0.057936713,-0.017807234,-0.053163365,0.09098164,-0.019941464,-0.043332703,-0.020515028,-0.012803699,-0.057637744,-0.028613167,0.010566989,0.037712634,0.0749284,-0.07215351,-0.11418757,0.001727616,0.0011074971,-0.011728656,-0.01586972,0.04035313,0.012094522,-0.023766609,0.0052555623,0.028337615,0.0015644642,-0.04297991,-0.0062889922,0.023683494,0.009758736,0.021885285,-0.03072276,0.052546818,0.043651804,-0.00524395,-0.051270176,-0.043247715,-0.0031525267,0.0034882857,-0.015921561,-0.058470093
58,-0.006859161,0.00089216646,0.041087568,-0.012222998,-0.030930247,-0.014964257,-0.04947413,0.0022875206,-0.035965998,0.0034699717,-0.012453158,0.03132851,-0.019352062,0.05470639,0.021859247,-0.014320091,-0.014505325,0.049954005,-0.015408944,-0.04214507,-0.0063433005,-0.007953616,-0.029949384,0.0441813,-0.029303035,-0.051594418,0.01860814,0.001981547,-0.033159807,0.042199414,-0.036742453,-0.029002566,0.0011846763,0.008239963,0.038434673,-0.025793739,-0.022549452,0.0037253255,0.062415503,-0.025177233,0.00676399,-0.028672876,-0.044269778,0.011404434,0.017140336,-0.009158223,-0.026789514,-0.023011599,0.043374587,0.008712344,0.0020963599,-0.004345747,0.0570411,0.0057043326,0.023965023,-0.033785783,0.00028249586,-0.05951738,0.02523152,-0.025961665,0.04585636,0.029002225,0.006236102,-0.024018897
59,-0.023174293,0.032695584,0.01220512,0.07283811,0.038266305,-0.0155266,0.070869535,0.028702628,0.115608945,-0.017663654,-0.006196838,0.023271048,0.030720385,-0.06133938,-0.03634372,-0.013792287,-0.0012213734,0.07384116,-0.02537828,-0.013847635,-0.0006432991,0.020416236,0.014243187,-0.048068967,-0.071774244,-0.055251498,0.011634034,0.036575057,0.028367933,-0.0026492982,0.08338627,0.082468525,-0.031535793,-0.058398467,0.007719089,-0.0036481293,-0.057278637,0.016243517,-0.00014424768,0.024126142,0.026156554,-0.031844206,0.024943518,-0.019122945,-0.015512586,0.04384792,-0.025570827,0.040880237,-0.021375643,0.010507512,0.010939484,-0.055593167,0.0004204588,-0.01378416,0.00022455351,-0.023532636,-0.0021550737,0.036222063,-0.0103546055,0.041428547,0.043667395,-0.028479584,0.019184567,-0.0029720264
60,-0.010470765,-0.02257108,-0.03323672,0.023317043,-0.0055370573,-0.019858174,0.0037558917,-0.006766426,0.008479834,0.04788318,0.004405015,0.028386066,0.024276229,0.00869632,-0.010855869,0.031127336,0.033220768,-0.00104557,0.064469084,0.019016074,0.03322837,0.0012155235,-0.007241398,0.008713987,0.013152712,0.014964363,-0.009762744,-0.030995235,0.008586713,0.0295507,0.06716373,-0.0081647495,0.023103291,-0.00418636,0.028047452,-0.0118814595,0.06661892,-0.022782851,-0.022851562,-0.031370293,0.023253579,-0.036837883,-0.016405614,0.031824883,0.0048618023,0.011060656,-0.0071720947,0.014847406,0.0075749336,-0.018724991,-0.023317058,0.026124043,0.0035452847,-0.023526624,-0.029976903,0.040520936,-0.009509197,0.015288855,-0.02454225,0.031768326,0.032441504,-0.013721865,0.03762023,0.014897132
61,-0.012741633,-0.024829714,-0.025315426,-0.012987626,-0.017940748,-0.010429267,-0.038099904,-0.020606434,0.030173432,-0.0040052147,-0.040950812,0.009638697,-0.0029070736,0.03929001,0.024664098,-0.004985534,0.01096119,-0.06171706,0.0050468687,0.03696283,-0.034170266,-0.01946125,-0.038554076,0.0529202,-0.012501768,-0.042558365,0.016828224,0.009760999,0.013968378,-0.03366462,-0.0027129422,-0.003731205,0.034216233,0.004995905,0.05559653,0.026432002,0.04546434,-0.024292076,0.01860282,0.027713427,-0.048116762,-0.007385387,0.0061182533,-0.051151644,-0.012184488,0.009613039,0.05717847,-0.013238618,-0.0085122725,-0.04882669,-0.013222352,-0.07043452,-0.050042026,0.050369527,-0.06489237,-0.017674033,-0.01835188,-0.0054721734,-0.018283382,-0.06610773,0.0011387856,-0.001083286,0.0019507759,-0.035848327
62,0.018450942,0.022099944,0.03587529,-0.0080821365,0.04796107,0.09261971,0.05111462,0.040994026,0.055293024,0.01745746,-0.032798015,-0.03040028,-0.037299726,-0.03925706,0.043298837,0.03044089,0.021530272,-0.015022474,-0.018230993,0.041673314,0.011799981,0.015293733,-0.050480496,-0.0012978209,0.02554844,-0.03363823,-0.01105474,-0.029034283,-0.03233191,-0.0034350457,-0.010653505,-0.0052681146,-0.00015995667,-0.0120012285,-0.0013563753,-0.0002873704,-0.008639696,-0.0046757143,-0.018038357,-0.0032766794,-0.037526507,-0.009147591,0.016542217,-0.07500634,0.034966867,0.0044609923,0.026681064,-0.04315133,-0.018625302,-0.0013329518,0.013549399,-0.041797437,-0.034437783,-0.048701055,0.027679842,-0.025126636,0.006548408,0.0037982522,0.02216091,0.01607697,-0.00966996,0.044978287,0.029366154,0.014564724
63,-0.0042127525,0.013307336,0.0026648669,0.030371824,0.033299483,-0.03641763,-0.038411424,0.037977684,-0.012240066,0.048900865,0.062796004,0.015290542,-0.021046026,7.002955e-05,-0.0043911864,-0.016977249,0.006408747,0.009702035,0.063541844,0.008888797,0.033878006,-0.017860962,-0.0105853565,-0.00069640565,-0.02990996,0.03470743,-0.017498199,0.0004550189,0.013974471,0.019422004,-0.009,0.023655416,-0.022770507,0.006447926,0.007049126,-0.0075804875,-0.009979473,0.014447498,0.009229987,-0.025315283,0.009180882,-0.018119493,-0.007773004,-0.021663422,0.026022656,-0.028126495,-0.041359797,-0.013683993,-0.0015578044,0.061940815,-0.056083616,0.0070437314,-0.003771016,0.043090746,0.027617741,0.053893562,0.051216923,-0.023458969,0.024984213,-0.044130977,-0.026969632,0.004132088,0.07414927,0.009538686
