,0,1,2,3,4,5,6,7,8,9,10,11,12,13,14,15,16,17,18,19,20,21,22,23,24,25,26,27,28,29,30,31,32,33,34,35,36,37,38,39,40,41,42,43,44,45,46,47,48,49,50,51,52,53,54,55,56,57,58,59,60,61,62,63
0,-0.11626644,0.05377647,-0.02057079,0.063620865,0.05293291,0.017891824,0.045912445,-0.09708974,0.042612232,0.01750326,0.038511567,-0.01314911,0.026503436,-0.026192727,0.10062198,-0.0076699494,0.026934851,0.0211992,-0.03726562,0.063007526,0.028639613,0.06589245,0.0040394855,0.036986195,0.033145364,0.0021209014,-0.0749938,-0.007523023,-0.0024332462,-0.09393633,0.05315118,0.0363717,0.020452948,-0.059716392,0.108504765,-0.025703924,0.0032201284,0.038850892,-0.014662369,0.046422094,0.045878395,0.001402278,0.018972859,0.097283445,-0.008184436,-0.032690454,-0.017851416,-0.047871232,-0.09055663,0.029102614,0.02425879,0.08116337,-0.11081021,-0.03675467,0.009010339,-0.11591571,0.033236258,0.0058964556,-0.0051615774,0.015548541,0.029897217,-0.037753247,0.04151704,-0.015498038
1,-0.015509501,0.047824185,-0.026319772,-0.057472974,-0.01962136,0.037014846,-0.026865475,-0.007956863,0.002190254,-0.057736978,0.07770099,0.026416454,0.01582283,-0.03135309,-0.003005316,0.026047982,-0.046206597,0.0052014794,-0.04046692,-0.0146113625,-0.006717599,-0.030783506,-0.0041408343,0.03585926,0.06476461,0.005089503,-0.025183842,0.011621135,-0.015648268,-0.02477806,-0.046683207,0.02084399,0.017097587,0.056632463,-0.015456436,-0.030146863,-0.022136101,0.01759845,-0.031738553,-0.03280643,0.015565835,-0.005957057,-0.020224113,0.0066286293,0.00045359234,0.019481473,-0.045853123,-0.018524429,-0.0016186037,-0.036330033,-0.010320645,0.004890597,0.01816401,0.020042015,-0.024509352,0.008102591,0.0073444983,-0.05021588,0.060968935,-0.08380496,-0.01680726,0.006250493,0.017219903,-0.02528396
2,-0.017367814,0.00678582,0.052971203,0.11055854,0.065576226,0.120039046,-0.08312919,0.025404828,0.040063914,0.01684553,0.11734567,0.0005501578,-0.023691025,-0.012007926,0.00988431,0.0016104426,0.035146765,0.02198287,-0.009474316,0.010982787,0.013864374,0.034855384,0.0059661963,-0.0032523933,0.07757795,-0.03842419,0.026911583,0.00046187418,0.095413454,-0.018009832,0.06755571,-0.007938781,-0.0853152,-0.037124988,0.048122514,-0.005024633,0.010849223,0.0068134773,0.025653131,0.006662776,0.014692409,0.053110197,0.07915322,0.14385773,0.020211274,-0.032210134,-0.046835195,0.017583504,-0.028723607,0.0685859,0.0018738727,-0.0018501467,0.045337576,0.053592622,0.034041833,0.0354741,-0.0051882816,-0.1006613,-0.11517775,-0.042084333,0.00030625128,0.015409237,0.10898399,0.04378594
3,0.0178825,0.021733908,-0.011294249,0.0023775673,0.005672752,0.00175357,0.006666632,-0.044859584,-0.016870037,-0.00051309244,0.009734952,0.0255275,0.0077181915,-0.018540129,0.036867253,0.01426675,-0.031678367,0.008629779,0.018113496,0.013835685,0.036542933,0.02091267,0.019705866,0.000581117,-0.025105942,0.0009942823,0.037022322,0.009283287,-0.0115442565,0.009820605,-0.007047687,0.038527846,0.013463031,0.039135452,0.03902584,0.017705236,-0.009840808,0.011937184,-0.005646473,0.0038753094,0.0076062875,0.017733956,-0.0049056113,0.018119553,0.010925784,0.023558255,0.0036521622,-0.0031789043,0.01751912,-0.021463692,-0.015918339,-0.010554929,-0.0038230997,-0.038815085,-0.025572097,-0.031697664,0.03772591,-0.0042619687,-0.0048285485,-0.018054428,0.019592479,0.017674454,-0.008580941,-0.016117891
4,0.024050197,0.014359502,0.0005423886,0.009486696,0.014747591,0.02255888,-0.0077930777,0.008832907,-0.015284528,0.0051505314,0.019021504,-0.036085404,-0.022187585,0.02228818,-0.017857913,-0.06477418,0.014396474,-0.030150948,-0.036691878,-0.0045466656,0.0011930923,-0.07996223,-0.0029519205,-0.03249877,0.005591069,0.023745863,-0.06630754,-0.008924018,0.0041126525,-0.006151174,0.0036057758,0.017691847,0.011276177,0.063007146,-0.00012950796,0.0029597739,-0.0097706085,-0.0052421326,0.0159371,-0.01062983,-0.017358545,-0.005391563,-0.009721005,-0.014002814,0.0060460893,0.009939135,0.016012264,0.014762704,0.011467139,0.023717659,-0.016806971,-0.0068715257,-0.0006872307,0.0014589457,0.0061032763,-0.0064939694,0.029947754,0.008260323,-0.008105727,0.018126223,0.008712852,0.013133376,-9.99964e-05,-0.008303341
5,-0.0043171984,0.0063870437,0.012284335,0.02515311,0.004579742,0.0036005173,0.0035615503,-0.005952616,0.008880362,-0.004905653,-0.00067759043,-0.02821997,-0.0065842564,0.004640535,0.005735907,-0.041255284,0.0016431235,-0.0021788047,-0.008645167,-0.007070379,0.00190739,-0.02908535,-0.017831713,-0.013218336,0.009701924,0.010321981,-0.036511075,-0.0056170644,-0.005497421,-0.009671899,0.007613714,-0.008346103,-0.013297313,0.020992653,-0.0060291844,0.0019244989,-0.0023305546,0.0047086976,0.0011784983,0.0005485073,-0.02248482,0.006325023,0.014781579,0.0033306924,0.00123237,-0.0050789486,-0.00041435854,0.007641389,0.002310311,0.0123521965,-0.00726853,0.010207982,0.008054141,-0.006174468,0.013465371,-0.0036616237,0.009685242,-0.012632695,-0.03962046,0.0027851055,-0.00031615945,-0.0040109064,0.008923731,-0.0072987173
6,-0.11595395,-0.03195109,-0.00016570506,-0.018105753,-0.03930393,0.034371037,-0.032444227,-0.03104099,0.014146614,-0.06749669,-0.026218086,0.02573344,0.016607529,0.015862461,0.06804365,0.03349693,0.003316238,0.04326639,0.012544674,0.015941378,-0.07577341,0.0119953845,-0.022684291,0.00055261346,-0.029821932,-0.10416171,0.036181353,-0.013605187,-0.0055776853,-0.018630745,-0.015192178,-0.027360735,0.048186995,0.10084894,-0.06371044,-0.090615936,-0.015711913,0.036297265,0.0324145,0.007902797,0.029779462,-0.00429054,-0.014328505,-0.029010804,0.036770172,0.069693714,-0.06601912,-0.08201824,-0.07393815,-0.028413346,-0.007699742,-0.045295604,0.010441975,-0.008787986,-0.020420227,0.0073999763,-0.07680546,-0.029363578,0.029839085,-0.009402593,-0.02588688,-0.04082321,-0.0006395409,-0.031178359
7,0.008517372,0.009893773,0.0070923977,0.011438696,0.02959442,0.00793413,-0.0037957393,0.010268769,0.007950901,0.002893598,0.0018134286,-0.038673483,-0.0031478866,0.013640668,0.008548424,-0.06271951,0.011281654,0.014364221,-0.017822279,0.0034852624,0.0156088285,-0.032870717,-0.03372905,0.0026950687,0.0029410596,0.0015316688,-0.028820504,-0.016942592,-0.007525741,0.009969527,-0.0133887585,-0.009698391,-0.013798176,0.017991237,-0.019206973,-0.00858673,-0.012176165,-0.004912143,0.006769477,0.020478435,-0.029898765,-0.0060271225,-0.0019307769,0.00034235456,0.00838432,0.0072595887,0.012536607,-0.0040230956,0.01837141,0.02323754,-0.0016669409,0.01211097,0.024064973,0.009477245,-0.000916007,0.015840229,0.01628731,-0.020199493,-0.074871495,0.007064615,0.009916859,0.0013175278,-0.003159953,-0.0057015317
8,0.0692988,-0.058593873,0.042298175,-0.043394532,0.0073150815,0.0012139158,-0.056409396,0.0010222857,0.034048945,-0.026967388,-0.048313983,0.0068835453,-0.030055799,0.012968063,-0.015199766,0.009705333,0.007391258,0.0014034314,-0.0074195666,-0.028911548,0.023347236,-0.019069852,-0.014220879,-0.025770167,-0.0059667225,0.016724672,0.05624252,-0.022116685,-0.013483591,0.018709078,-0.049756177,-0.022375733,-0.023004713,-0.027249547,-0.07658206,0.0019721007,0.036939915,0.0030785203,0.045350682,-0.025028925,-0.002264895,0.031751744,0.015041626,-0.008375442,-0.032458708,-0.044102177,0.0024315943,0.018797064,0.0062059057,-0.020161249,0.009121557,-0.059503373,0.032434154,-0.008043227,0.0067711486,0.044336624,0.033361007,0.010626301,-0.061776087,-0.03435884,0.011782144,0.0050122845,-0.030189505,0.004460961
9,0.04971376,-0.014211111,0.02479234,-0.019136015,-0.02673915,-0.009377417,0.0028433083,0.07404444,-0.08715697,-0.02302842,-0.064990774,-0.014962829,0.030802809,0.0072454005,-0.00015764001,-0.043704923,-0.013286597,-0.013504113,0.0007006927,-0.013338651,0.013525988,0.009699156,-0.029961389,-0.0106715495,-0.025279667,0.049497534,0.0024906,0.0068042185,-0.018023985,0.059560236,-0.06379512,-0.028998578,-0.05496617,0.0092425775,-0.09520772,0.015116682,-0.044502493,0.011485136,-0.039455023,-0.032920446,-0.0021124047,-0.039679393,0.0052914517,-0.04857699,0.01365074,0.005197717,-0.0039183255,0.044365894,-0.0024687832,-0.032113124,-0.04030056,-0.035957035,0.051042378,-0.025414132,-0.010571084,0.053159613,0.01700362,-0.011174159,-0.04346555,-0.014796027,0.008229055,0.019071827,-0.04076401,-0.05933037
10,0.043943316,-0.0366525,-0.043402042,-0.0652743,-0.032589287,-0.06161268,-0.05158179,-0.043645855,-0.030382305,-0.020067468,-0.07844811,-0.013298752,0.045744672,0.008360344,0.05998493,0.0036897925,-0.032808237,-0.009415064,0.032362312,-0.016201379,0.011092854,0.031590007,-0.012862192,0.031031527,-0.025319321,0.018458277,0.06917736,0.0029219626,-0.016578684,0.006347691,-0.0729388,-0.0021236632,0.015229285,0.052846856,-0.04810855,0.017316937,-0.007994842,-0.01878156,-0.060257427,-0.03200788,0.013900703,-0.043134887,-0.074841425,-0.082839616,-0.019929862,-0.004747826,0.009045628,0.007852131,-0.035784334,-0.048603565,-0.038403686,-0.008045081,0.010147634,-0.021538135,-0.04389741,-0.012448994,-0.017511398,0.017323894,0.013835621,-0.016185472,-0.035430513,-0.044605546,-0.06498365,0.018922111
11,-0.030043084,-0.00861741,0.02886184,0.040424667,-0.010190798,0.015533554,-0.21258873,-0.00056839903,-0.044845663,-0.028667033,0.01564224,-0.007885147,0.021706587,0.008705641,0.018283496,0.00971652,0.007435473,0.052741613,-0.08504547,-0.025709609,-0.090157345,-0.091701925,0.004753048,-0.051972393,-0.012262193,0.013875785,-0.009998527,-0.00016481633,-0.010321185,-0.0064410497,-0.010549009,-0.0065701995,-0.003292962,-0.0058511384,-0.013119318,-0.087306865,0.04856253,0.003926069,0.04110117,-0.115632035,0.03764164,0.004476835,0.019666335,-0.00947934,-0.001400724,-0.01602649,-0.043867145,0.033573885,0.008434496,0.04801195,0.032613784,-0.040473543,0.017338237,-0.0259499,0.04132043,0.008346652,-0.025699945,0.022475312,0.0057545905,-0.09557244,-0.0279393,-0.016919343,-0.039272152,-0.01628472
12,-0.03163738,0.008492242,-0.011107774,-0.027845524,-0.05259301,0.047829434,-0.08182558,-0.038783662,0.0023449904,-0.021723067,-0.046936672,0.0026381745,-0.021405082,-0.03869584,0.04168266,-0.0016516113,-0.012576469,-0.013943552,0.026636861,0.023374977,-0.01909423,-0.024517259,-0.019332951,0.0140820565,0.010773012,-0.06597098,-0.02335477,0.0016078412,0.021363843,-0.041276217,-0.030815246,-0.01214478,0.02355666,0.014630015,-0.03006111,-0.03934636,-0.006289281,-0.03053441,-0.045924578,-0.0034888587,0.009590883,0.0131056905,-0.012190171,0.030387316,0.022705171,0.038226847,-0.02680903,-0.06301472,-0.029825779,-0.011625168,0.003508841,-0.016930293,-0.0025161174,0.00011986885,-0.022233762,0.020661922,-0.065643996,-0.042564295,-0.022948463,-0.0117784655,-0.049572203,-0.008110751,0.06426076,0.021751795
13,0.04281287,-0.04829888,-0.039630037,0.008590671,0.15461498,-0.00379479,0.06400744,0.02458193,-0.055660833,0.08547352,-0.062099293,-0.09456633,-0.06696663,-0.0039941953,-0.03669804,-0.1044526,0.017315822,-0.04911358,0.07621553,0.032906987,0.097698264,-0.11970315,-0.020252801,-0.08995411,0.026714277,-0.015647339,-0.12602238,0.0205744,-0.00180068,0.024605831,-0.033677604,0.029050067,-0.11994005,-0.13740532,0.022819132,0.08535781,0.06258837,0.013111135,-0.02201486,0.026585944,-0.046521377,-0.0039023603,0.0037054322,0.0155945085,-0.03981287,-0.108661994,0.095824465,0.08853007,-0.011762857,-0.049960785,-0.009173056,0.07425216,0.0031046525,-0.029855423,-0.008055716,0.006500725,-0.0073045744,0.036975544,-0.06048031,0.1069865,0.023069063,0.03301559,0.02349859,0.016373068
14,0.004457652,-0.020215573,-0.014848934,-0.012180053,0.010786498,0.03769618,-0.04789823,-0.0041879015,0.0077437623,-0.0034625456,0.0026138248,-0.02067389,-0.010659281,-0.0128287915,-0.064628184,-0.038137343,-0.05746702,-0.04039525,0.010019793,-0.012013799,-0.0059133344,0.008925717,-0.006914483,0.031783808,-0.015748838,-0.024858482,0.010959266,-0.014881576,0.029726181,-0.04122453,-0.018426709,0.015120949,0.0056710104,0.049343005,0.05495727,0.0067228116,0.016400399,-0.013089264,-0.035718404,-0.038245294,-0.0064558825,-0.03907171,-0.030242018,0.00851503,0.0042389296,0.006338166,-0.009012942,-0.013892515,-0.009995404,-0.017291918,-0.028530374,0.006696368,0.027940692,0.030808788,0.004167056,0.027353311,0.0036319476,-0.025704572,-0.040891908,-0.028246291,-0.029975498,0.0032341066,-0.02148617,-0.017274687
15,0.032791533,-0.0032219216,-0.0029575161,-0.01162297,0.045017377,-0.021073135,0.013085314,0.021887852,-0.031575453,0.032265216,-0.012208919,0.054579273,0.049004916,-0.013827697,-0.09059712,0.03279635,-0.035944995,0.029687135,0.063825086,-0.018951666,0.01712478,0.08330633,-0.010729646,0.074676394,-0.027543962,-0.037556704,0.040693253,-0.011524236,-0.047808226,0.024184145,-0.0013829138,-0.041324027,0.020890214,0.017703222,-0.03396729,0.019225039,0.03893009,0.053809967,-0.037977874,-0.003183653,0.03132424,-0.026194043,-0.019608513,-0.00034265072,-0.008571677,0.0013243821,0.037230745,0.0033681295,0.04825634,4.2881442e-05,0.012739122,0.02282825,-0.03180553,-0.022008738,0.010724849,-0.003095127,0.035643443,-0.036689546,0.05693636,0.03448327,-0.02067285,-0.0069142296,0.00013062762,0.04528785
16,-0.08416941,0.03835077,-0.016963186,0.037529256,-0.06518848,-0.01808107,-0.102616124,-0.02214555,-0.014536303,-0.07717745,0.04782537,0.021028107,-0.018897826,-0.03180909,0.12623453,0.04059871,0.039475907,-0.0399691,-0.031070828,0.037316594,-0.05163182,0.10654162,0.024817513,0.057909876,0.0028689275,0.017644918,0.05327581,-0.011422776,0.017297126,0.050583504,0.0401879,-0.025879575,0.0044757915,0.02489653,0.04453752,-0.051674068,-0.076974854,-0.023685535,-0.040016554,-0.020544464,0.030262457,0.003981826,-0.055769254,-0.018402066,0.00018693825,0.016849,-0.010880004,-0.057555724,-0.069181964,0.0013379358,0.006283366,-0.035788573,-0.012261545,0.029050324,-0.041108422,-0.029320903,-0.009218357,-0.0616431,0.0026211343,-0.07404751,-0.04341245,0.024502901,-0.014468791,0.024693003
17,0.04438659,0.092711955,0.018358676,0.05386619,-0.0023189373,0.04397897,-0.033878826,0.003913338,-0.017087724,0.021160426,0.08854378,-0.0633577,-0.00791226,0.0043723662,0.006786283,-0.09724077,0.019604037,-0.029918183,0.0009837641,-0.022217266,0.05128089,-0.084745646,0.004671532,-0.027779767,0.0052993298,0.027719023,-0.065870896,0.001438911,0.03283766,0.014129383,-0.03741738,-0.0037610414,-0.016735159,0.0076860655,-0.004223745,0.038233925,-0.0101743,-0.004182034,-0.0036076033,0.0065726493,-0.021562181,-0.03171571,0.0035264997,-0.010769832,0.0009415065,0.029011251,-0.011442117,0.018280176,0.017331246,-0.0046885908,-0.022257816,0.0017337742,-0.0069268313,0.06838081,0.0060136323,-0.0095173465,-0.0408976,-0.010228414,-0.054637622,-0.008696097,-0.008392317,0.0286278,0.0032452298,0.01775632
18,0.024469038,-0.0035446421,-0.004741232,0.006556304,0.0026593271,0.009766885,-0.004320164,0.0067072758,0.005642101,-0.0009811715,0.00793477,-0.028983315,-0.02233539,0.0104642315,-0.004237295,-0.031249346,0.0085450085,0.002856296,0.010768311,0.019860305,0.0008287646,-0.05075599,-0.023342296,-0.022924446,-0.00026707852,0.018030785,-0.01821113,-0.016265728,-0.00090059265,0.0065056346,0.004772969,0.006938399,-0.009098826,-0.002363014,0.0011449112,-0.0018321334,-0.015427191,-0.0062691076,-0.00089512713,-0.0042548035,-0.026215542,0.0010763123,0.012847167,0.006098654,0.0020511816,0.016554618,0.007671061,-0.007095304,0.0010625873,0.0152762905,-0.009113727,-0.0058951136,0.012366146,0.000850305,0.007043691,0.019285135,0.014047488,-0.0055887443,-0.05432019,0.006995721,0.007944342,0.00923748,0.006707708,-0.013456257
19,0.025655221,0.0029956906,-0.027796034,-0.020118238,0.018434063,0.019234551,3.9836075e-05,-0.04486969,0.029103091,-0.0009506572,0.005526143,0.0065041734,0.021014199,-0.015203682,-0.0323003,0.015610177,-0.054973036,0.0013822254,0.011425339,-0.00167272,0.040370088,0.02537409,-0.010555997,0.005289191,-0.012504109,-0.013077356,0.0294886,0.009852158,0.011372111,-0.013401395,-0.053572178,-0.027621767,0.005689342,-0.015872167,0.013337883,-0.031930212,0.043381598,-0.005393371,-0.022038987,-0.013359834,0.01522622,-0.029224718,-0.034216143,0.029685145,0.0064254426,-0.025668915,-0.03229118,0.016333746,-0.034526773,-0.0044735326,0.0014807972,-0.02216066,-0.046562236,0.023465067,-0.012671605,0.009176853,-0.004962607,-0.037801117,0.024963219,-0.011184346,-0.025088478,0.0070895865,-0.027564926,-0.044300508
20,-0.03088582,-0.00569377,-0.011152413,0.008324406,-0.036492147,-0.035138633,-0.040888485,-0.0026160008,0.012927627,-0.050613664,0.032084074,0.007841952,0.008645347,0.013426015,0.029625919,-0.001918435,-0.011376773,0.017406523,0.0059722946,0.0059096394,-0.012998588,0.011836035,0.004709021,-0.013484126,0.006579597,0.016006092,-0.0102889715,0.006637798,0.029260006,-0.014835177,-0.013043306,0.0029379216,0.015051123,0.017072396,0.019800512,-0.045511063,-0.018378573,-0.03054529,-0.041370224,-0.017260946,0.0050988174,-0.025999133,-0.009342918,-0.0012394042,0.02318357,0.0055063893,-0.06512914,-0.0002531735,-0.0013300282,-0.011374154,-0.0025114724,-0.008712047,-0.006457749,0.010968489,-0.024835257,0.0031467145,-0.042591315,-0.01797533,0.005497231,-0.048873216,-0.03898314,0.025093501,0.020851342,0.011477372
21,0.026044047,0.006403149,-0.03392708,-0.011848436,0.023850584,0.004464391,-0.025135452,-0.008521351,0.028430918,-0.036557972,0.0013612123,-0.0006866194,0.008389084,-0.012002857,-0.009818168,-0.007820725,-0.050837465,-0.008509836,-0.0034867546,-0.004867248,0.04838012,-0.010939277,0.025098184,0.009160539,-0.03261854,0.03767331,0.0056457096,0.011156119,-0.008769852,-0.014257285,-0.036615446,-0.039279193,0.015040701,-0.019615494,0.0027476824,-0.017364196,0.012658605,-0.05585005,-0.027108574,-0.011142896,0.014082667,-0.03708557,-0.031561885,0.0061836485,0.011519568,-0.0027662367,-0.027224332,0.022317018,0.015990945,-0.024231095,-0.0044542695,-0.033782665,-0.028373359,0.04160621,-0.027209591,0.025123183,0.023968441,-0.030399047,0.0013946167,-0.04052568,-0.020622872,-0.006289396,0.00091316714,-0.011711327
22,-0.01920571,0.062461533,0.004999688,0.03738427,0.046754252,0.061953407,-0.006545823,-0.03545922,0.026979683,0.0114819985,-0.0024868476,0.0046015005,0.037450716,-0.02365492,0.0809646,-0.00551143,0.005475576,0.028703239,0.014393033,0.012214758,-0.027194792,0.00016790052,-0.036648422,0.033143647,0.021492297,-0.019700866,-0.06689211,0.0008818188,0.028741393,-0.03399773,0.015450573,0.0482092,0.030666737,0.009361038,0.11540804,0.004239729,0.052108526,0.035288148,0.048391085,-0.0025834276,0.021658674,0.009071008,0.03280569,0.0054425993,0.006991462,0.010989052,0.016606485,-0.024865087,0.05260573,0.037608966,-0.0019886158,0.03688608,-0.025856461,0.048938695,0.01276089,-0.08535193,0.0011690913,-0.0061387024,0.0155928265,0.013435783,0.022194277,-0.054056674,0.04706605,0.010592915
23,-0.0002824287,-0.018239694,0.007548112,0.0038153145,0.10205496,0.010042268,0.034470722,0.0057401457,-0.0039106733,0.0030242482,0.020671822,-0.021950074,0.004761368,0.026415644,0.03803438,-0.028434332,0.0337626,0.0011654791,-0.06586447,0.026504362,-0.034251478,-0.06643948,0.02116243,-0.024866829,-0.032123547,0.03985747,-0.02640235,-0.0036539764,0.005200464,0.0129425265,0.040017966,-0.056780603,-0.019079233,-0.01592706,-0.014175156,0.031224234,0.0635796,0.00010093288,0.041890405,0.025410736,-0.031103263,-0.023337666,-0.029049736,0.027453572,-0.0038772095,-0.015537168,0.07610549,0.01677644,-0.0007398896,0.023136389,-0.020801734,0.0074742865,-0.011787065,0.02727876,0.0068198983,0.0047541833,0.0031980039,-0.029966705,-0.011581982,0.10028792,0.025110796,0.019930677,-0.035159055,-0.035925183
24,0.061727732,0.033954877,-0.047492668,-0.054775346,-0.016256714,-0.019507185,-0.0025226262,-0.016290886,-0.01212066,0.004547966,-0.010619436,-0.03450784,-0.049676597,0.016616931,-0.04991277,-0.044930067,-0.016582416,-0.03434713,-0.02178718,0.017244706,0.04441564,-0.084629565,0.011471255,-0.09880545,-0.029077498,0.0052936715,-0.017653964,-0.047142096,-0.038371775,-0.08709651,-0.062556244,0.03792787,0.08370742,0.07847278,0.08161276,0.04842331,0.005520222,-0.030648176,-0.018108549,-0.047836788,-0.058180355,-0.08028953,-0.057922613,-0.072846726,-0.0009040392,0.0554318,0.060056888,-0.025905747,0.020736666,-0.051970445,-0.05233105,-0.060620602,-0.046060603,-0.02581939,-0.040765405,-0.013188509,0.07219443,0.06850821,0.035064757,0.0409811,-0.06411014,0.0068806647,-0.03506526,-0.09630924
25,-0.09907036,-0.03800396,-0.030433549,0.006484519,0.0064251777,-0.04731447,0.023108184,-0.006340858,-0.13333209,0.009155816,-0.008573603,0.01874145,0.009530503,0.0051383125,0.023879899,0.026071968,-0.0048790295,-0.011873791,-0.011079141,0.012506778,-0.005342185,0.017539995,0.051823895,-0.017868435,-0.043552283,-0.14620923,0.021076482,-4.91489e-05,-0.01503952,-0.047723196,0.0393561,-0.03207342,-0.01615072,0.033338577,-0.10291373,-0.07108944,0.038875077,0.025361996,0.029111378,0.021003941,0.012498991,-0.0038873777,-0.008554306,-0.022917755,0.039207473,0.03522152,0.058404706,-0.07517215,0.008423645,0.006467707,0.020391267,0.03957277,-0.019861577,0.018480176,0.007875264,0.0024299838,0.0036692321,-0.030763144,-0.048814632,0.037431132,-0.014558996,0.028535949,-0.0050634593,-0.002821576
26,0.026346404,0.058336526,-0.071652986,-0.034344833,-0.007688617,0.03799415,0.0018687746,-0.073839456,-0.0062777298,0.010146605,0.05471297,0.03259052,0.04008767,-0.029628789,-0.02931779,0.011387983,-0.00949704,-0.011875805,0.020193627,-0.0035531926,0.011938302,0.0499132,-0.020559052,0.01824839,-0.005534752,0.014693855,0.024227947,0.0074671316,0.0072881095,-0.038389746,0.0061557232,0.010329507,0.007594648,0.021675045,-0.013607945,-0.0070569525,0.010840921,-0.009818102,-0.022888267,-0.019661428,0.017183932,-0.027819833,-0.042903893,-0.015536001,0.00013791965,0.031316474,-0.012899155,-0.0032810501,-0.03245195,-0.018414969,-0.0050512385,-0.026454123,-0.043048173,0.024948243,-0.049656786,-0.014322293,0.012047945,-0.08307334,0.0074985214,0.0076673124,-0.07463475,0.001393375,0.055935618,-0.022304157
27,-0.049690675,-0.018196499,-0.036827844,-0.012243586,-0.00038317314,0.022016551,-0.029586788,-0.040496707,-0.028567852,-0.011906121,0.009451127,-0.029194683,-0.0141143575,-0.0037194432,-0.08774767,-0.027403334,-0.0054212557,0.0056652073,-0.0012060346,-0.017215561,0.033648033,-0.013787833,0.010199905,0.0015399858,-0.02466883,-0.05811246,0.026286865,0.02510455,0.011234009,0.020454701,-0.031211616,0.011450848,-0.007064811,-0.033283427,0.0061244695,-0.042979896,-0.029623946,-0.013159887,-0.053694714,-0.05553279,-0.015470148,0.028263535,-0.017879603,0.041685857,-0.017854583,-0.012270519,-0.023298433,-0.0384056,0.036804635,-0.030801354,0.0028489253,-0.02256173,0.012752466,-0.00845309,-0.00978803,-0.024326062,-0.028430952,0.03510105,-0.03843294,-0.035992663,0.019155117,-0.010650849,0.008873262,-0.013887439
28,-0.05192844,0.05758866,-0.0495453,0.021725317,0.045812644,0.03720556,-0.012187283,-0.108275704,0.05160012,-0.05773805,0.06861706,0.012799179,0.053518586,-0.017553616,-0.013765097,-0.04353199,-0.025429279,-0.0029115267,-0.016711853,0.00064412976,0.022570562,-0.016799608,-0.060607962,0.042338006,-0.0049385913,-0.02494749,-0.038108498,0.007429453,0.034196466,-0.037712265,-0.020533163,0.013999473,0.029836416,0.051876467,0.0051939175,-0.050283402,0.02537872,0.0006480998,0.032026064,-0.0076137413,0.014431168,-0.027717656,-0.018823484,0.028650897,0.00999292,0.044138297,-0.01569325,-0.015678031,0.00988016,0.018117698,0.015651792,-0.017086985,-0.013520823,0.032938987,-0.012419199,-0.050893247,-0.01314841,-0.019454826,0.003173285,-0.0009101033,-0.0055978103,-0.02525701,0.048837654,-0.0022515967
29,0.036097895,0.009750602,-0.008097898,-0.0025331404,-0.0057026404,0.019450055,-0.011056872,-0.020187398,0.0020798773,-0.0038583702,0.0008848153,0.016680392,-0.0012840299,-0.003932925,-0.0068316567,-0.004668914,-0.018911274,0.00432259,0.020494374,0.007336179,0.014236445,0.00096643105,0.0020440063,-0.007967584,-0.0054348437,0.004291695,0.012564057,0.006216572,0.010147678,-0.010232571,-0.036016475,-0.013723653,-0.008481102,0.0035353892,-0.0064494163,0.010954305,-0.0003065917,-0.020704972,0.0047465633,-0.014457424,0.0029211463,-0.008608269,-0.0018163136,-0.0053672707,-0.005780061,-0.008594864,0.007597341,0.017005013,0.011025424,-0.0004599332,0.0070169377,-0.025776476,-0.019552747,0.0044331206,-0.011838771,-0.0011402072,-0.0046597053,0.0002098656,0.0077577,-0.0050907335,-0.02569704,-0.017274221,0.0023759613,-0.0090632755
30,-0.06997859,0.016852971,-0.030441232,-0.055398997,-0.052869927,-0.052118443,-0.078332044,0.06861541,-0.01924628,-0.027128257,-0.03767754,0.040971622,-0.03775887,-0.017867763,-0.030751409,0.038203545,-0.0566424,-0.031515453,-0.04056413,-0.01744317,-0.07362719,0.058106296,-0.013977337,0.038955733,-0.023753665,0.017270627,0.017747568,-0.020297064,-0.023805663,0.020863486,-0.019852,-0.020522425,0.027157418,0.024533864,-0.030759862,-0.031782996,-0.034808733,-0.03821639,-0.014808818,-0.047266014,0.043956786,-0.040001255,-0.046657473,-0.042942617,0.031584542,0.030318148,-0.0031427445,-0.04393493,0.014944633,-0.057601795,-0.016255852,0.0008187171,0.022664718,-0.0148575585,-0.02006367,0.021641523,0.015694244,0.003598741,0.044833317,-0.043751117,-0.0024524478,0.023303028,-0.031176204,-0.0111236945
31,-0.062377628,0.031959023,0.0032334703,-0.03294572,-0.05145367,0.043033402,-0.05469702,0.010673946,0.062681444,-0.05216132,0.025932068,-0.005263747,-0.03278551,0.018953694,-0.011604183,-0.010652696,-0.06873704,-0.009438867,-0.03074545,0.022979058,-0.019846793,0.027582547,0.007637114,0.023645831,-0.033690684,-0.039334968,0.011497396,-0.011016762,-0.00031120738,0.020896412,-0.021910941,-0.01798165,0.036442835,-0.0049940306,-0.014810784,-0.03795675,-0.046095967,-0.015717141,-0.018162193,-0.019310473,-0.0004826132,-0.03770419,-0.04529944,1.6885759e-05,0.02104246,0.017690578,-0.0268578,-0.08598412,0.022869982,-0.03535348,-0.018029314,-0.024027884,0.0062213317,-0.0075092064,-0.0028219903,0.02124568,-0.032700345,-0.031488102,0.0008350591,-0.05399305,-0.027348856,0.0011494338,-0.0034849325,-0.050059635
32,0.006152679,0.004495177,-0.027630525,-0.042332634,0.01015766,-0.048559617,0.043452896,-0.017346315,0.008716191,-0.016653623,-0.024617488,0.030376203,-0.0009250367,0.028665401,-0.051564276,0.037809797,-0.038832694,-0.026735492,-0.009837004,-0.024932504,-0.00041633318,0.04412008,0.0021403958,0.012616467,-0.01094722,0.029618032,0.036128223,0.012470686,-0.00027920626,-0.021167548,0.012483468,0.018548053,0.039074212,0.043130968,-0.021486724,0.004653142,0.026257826,-0.04445666,-0.0427212,-0.009402323,0.047358003,-0.0046928595,-0.037820004,-0.0200674,0.00020223022,0.032181047,-0.0027508778,-0.00082683895,-0.024363138,-0.017873561,-0.010736827,-0.027375698,-0.03626503,-0.007919029,-0.044986404,-0.0032408906,-0.017949745,0.022803614,0.051416125,0.034486804,-0.006172016,-0.03326922,-0.029112384,-0.022567296
33,-0.014393201,0.029169645,-0.0045067975,-0.06984672,0.0067819124,0.056796227,-0.021311661,-0.003626611,-0.023653273,-0.076532215,0.027608754,-0.016843792,0.0016682722,0.013555818,0.012099156,-0.00073921354,-0.026296085,-0.0060972506,-0.027282672,0.028798528,0.057423227,-0.023471737,0.0012579204,0.04306323,-0.011489593,-0.014569645,-0.0011215816,0.0072544995,0.0024209877,0.007024137,-0.04572225,0.0053952327,-0.0055871587,-0.0018465463,0.005082971,-0.035053995,-0.02441906,-0.024976933,-0.09550906,-0.033405095,-0.005236229,-0.015808214,-0.02870967,0.017967755,0.0049238917,-0.0010250853,-0.06163516,-0.053959053,-0.05052576,-0.0771108,0.0026541897,0.018785404,0.031502135,-0.016228303,-0.038030684,0.018660719,-0.037819747,-0.041602075,-0.0026032764,-0.019411774,0.008749152,0.032597233,0.016226808,0.014389555
34,-0.062880315,-0.07213306,0.008536441,0.009814463,0.01017139,0.06437586,0.021804431,0.024456076,-0.005333183,-0.045365877,0.023736384,0.0028442102,-0.05241841,-0.0009095558,0.0019675114,0.014204128,0.0037254873,0.011743204,-0.03940785,0.0091604395,-0.02665862,-0.0053740256,0.014190832,-0.065342195,-0.017129336,-0.093893774,0.02668976,-0.026256047,0.0021126512,0.0060361936,0.006202917,-0.02395428,-0.0173575,0.011781863,-0.050725102,-0.089627594,-0.029138437,0.015339839,0.004201387,-0.022909164,-0.0056225085,-0.009858365,-0.01216664,-0.0052317516,0.036249176,0.0159481,0.0008697437,-0.033298053,-0.027020745,0.01577074,0.014389035,0.02315394,0.036250453,0.046456583,0.019816525,-0.0078106527,0.02375896,0.0017211753,0.0052362513,-0.02742244,-0.045251116,-0.056578297,0.020302529,-0.008761151
35,0.0049275826,-0.027561326,0.046556175,0.016616918,0.09407296,0.030883074,0.0078024273,0.016016832,0.0026297648,-0.0013780468,0.016602222,-0.007822123,0.0027367177,0.01652981,0.0028202524,-0.04329298,-0.013734418,-0.034354337,-0.004605224,0.02704572,0.020993004,-0.03996918,-0.018534787,0.000117074094,0.05472914,0.014216208,-0.031971358,-0.044286035,0.03144559,0.014997654,0.016475644,-0.036840085,-0.055333983,-0.048804227,-0.039080493,0.030278906,0.005607202,0.018631488,0.026414964,-0.0004718842,-0.0032750694,0.0027518051,0.050673574,0.058030836,0.015337588,-0.021015618,0.07896942,-0.019441258,-0.004116754,0.055728056,0.018847361,0.01845486,0.042592995,0.035207126,0.012955244,0.02716931,0.029171877,0.026283601,-0.06656118,0.045877945,0.044457983,-0.011669783,0.010812616,0.023601057
36,0.00670281,-0.031024428,0.01094461,0.015749445,0.016217208,0.013757844,0.021673767,-0.003417028,-0.013571345,-0.001508919,-0.018273575,-0.0006088683,-0.019440588,-0.003261639,-0.028822938,-0.016196225,0.010916107,0.0007467239,-0.013455575,-0.009683218,0.013018791,-0.0053182323,-0.00680383,-0.018208334,-0.0059530125,0.013836336,0.0016589435,-0.031676393,0.007787564,0.008061053,0.006317438,-0.022491701,-0.032820854,-0.0071256105,-0.034855984,-0.00763075,-0.0055714003,-1.3072724e-05,-0.002898114,0.013985612,-0.019429522,0.010117632,0.008587799,0.021742195,-0.0054322896,-0.013243301,-0.0024720714,-0.006516967,0.021961845,0.017856529,0.002108999,0.019330207,0.0017154001,-0.0074058557,0.0079162,0.012635234,0.008635875,-0.006587255,-0.037397582,-0.005859879,-0.0023295125,0.019846603,0.0023034103,-0.00559105
37,0.053691097,-0.016626727,-0.033719946,-0.0150166815,0.08026718,1.1378129e-05,0.113677025,8.404555e-05,-0.019544264,0.05891408,0.029828556,-0.0039460748,-0.0001487081,0.0161705,-0.026251147,-0.02301045,-0.017306013,-0.025292903,0.0041465005,0.0033287785,0.07109464,-0.060076755,0.012951451,0.009498451,-0.019618787,0.07150322,-0.0021777216,0.010979203,-0.021045363,-0.0050342353,0.035690527,0.00403829,-0.0013513523,0.02923585,-0.016902868,0.09408591,0.04971227,0.039593656,0.016906215,-0.02110897,-0.01374346,-0.021491898,-0.022844722,-0.079310946,-0.010989477,0.0017982338,0.012117806,0.062964246,-0.048081417,-0.04004151,0.016434783,-0.00696561,0.026950536,-0.015348147,-0.048751637,-0.05824396,0.03793652,0.040546894,0.031238202,0.039680477,0.00152897,0.018633988,-0.03810704,-0.053773355
38,0.009792256,-0.01719043,-0.012398917,-0.017396538,-0.0033867713,-0.03374421,0.0048623295,0.02299703,-0.02040915,0.028259138,-0.015082687,0.01207306,0.0075950017,0.00694644,0.018427107,0.017816918,0.019646311,0.016332828,-0.0077865613,0.0035472661,-0.0034935246,0.016613841,0.014513803,0.018125,-0.025395771,-0.011173432,0.0058511095,0.012300457,-0.04881003,-0.006117497,0.020383399,0.012854341,0.020681428,0.043653544,0.0019413542,0.008137388,0.0024899235,0.0065324754,0.014910736,0.010815346,0.0069440687,0.02424416,-0.012679723,-0.06306325,0.022818837,0.017928855,0.018539002,0.014125445,-0.0034756165,-0.02671159,-0.027364634,0.019170985,0.020714968,-0.02307491,-0.013548604,-0.020122902,0.015669387,0.003428575,-0.009816872,0.013306587,0.027014466,0.016258545,-0.054319352,-0.02458366
39,-0.03724746,0.041556716,0.0520336,-0.03875058,0.025736254,-0.015957536,-0.005680911,0.04945171,-0.001444439,-0.045217983,-0.033615425,-0.0018509807,0.012288384,-0.011828919,-0.015890447,-0.028679343,0.016536774,0.046929438,-0.016926808,0.0041061575,-0.013934063,-0.030209396,0.033403095,0.00078412594,-0.024717482,-0.0049310154,-0.08816322,0.026253719,-0.016320087,0.0014036032,0.03219191,0.0030458642,0.07298658,0.070566475,0.077775076,0.012392675,0.006847953,0.021200731,0.012517848,0.0062978845,0.029701756,0.033543795,0.042105075,-0.0047316044,-0.00032527003,0.03211428,0.01393989,0.012953334,-0.009919147,-0.0035267544,0.0020011275,0.014917106,0.03528897,0.015502995,0.009826333,-0.013473887,0.020110548,0.046088435,0.057259686,-0.018297352,0.07160279,-0.037349634,-0.025588939,0.033870123
40,-0.048213966,-0.017829781,0.0019860656,-0.008276319,-0.053499684,0.08130691,-0.09754699,0.006610873,0.014080565,-0.054565415,0.07288416,-0.0093735345,0.01546226,-0.034228064,0.04473338,-0.032145415,-0.0048291124,0.0102815535,0.0073283464,0.014586205,0.018326337,-0.009671711,-0.0018026467,-0.02229907,0.0024544098,0.010370605,-0.034557804,0.039753363,0.00378816,-0.04393022,-0.040521678,0.022751536,0.008342104,0.03546578,-0.055098083,-0.053621598,-0.022115706,-0.0383018,-0.07144642,-0.04567508,-0.019624604,0.011217722,-0.013310164,-0.04040549,0.011716893,0.027677095,-0.11214621,0.040553864,-0.025688553,0.0077161132,-0.05623094,0.024948707,0.05394387,0.010432948,-0.043942392,-0.0014506384,-0.03727926,-0.041416224,-0.0073982934,-0.10048381,-0.016897378,0.05949463,0.072119705,-0.00025545777
41,-0.00434781,0.0054163956,0.012665822,0.022088625,0.018674603,-0.001724378,0.009559698,-0.0023547097,-0.0019090334,0.0027694355,0.0074633067,-0.037889067,0.0015804757,-0.003861412,0.00907965,-0.051105734,0.0032431195,0.0209884,-0.015918748,0.012617239,-0.018897358,-0.03846464,-0.01588247,0.0059029856,0.0006948038,0.004130238,-0.065797344,-0.009536978,0.005934597,-0.012222492,0.010910626,0.008724784,-0.0066185067,-0.010212503,0.0015836654,0.007833091,-0.0047100554,0.010542221,-0.025433784,0.010637571,-0.017677797,0.0042586946,0.032247346,0.014029223,0.0011412574,-0.005546526,0.012262367,-0.004994181,-0.012491677,0.007902196,-0.0009324983,0.013984638,0.001504462,0.0042406633,0.0051441896,-0.016312046,0.0035870625,0.014261314,-0.015477419,-0.0061063985,0.0032631408,0.005343976,0.0006755246,-0.0043140803
42,-0.020831462,0.03825519,-0.019688096,0.033800963,-0.03240408,0.047061276,0.020896764,-0.027256895,0.0076713837,-0.033599716,0.06667796,-0.017244328,0.083816305,0.043260224,0.004801351,-0.057440184,0.02304264,0.028266387,-0.025518404,0.020460272,-0.0032371762,-0.058570553,0.024887774,0.012341408,0.0060309186,0.011656759,-0.06777577,0.01802055,0.024049347,-0.058865543,0.015161661,0.007040666,0.007680625,0.064630724,0.028551755,-0.012768387,-0.014088544,-0.021242168,-0.044681594,0.054970104,0.007897971,-0.009957363,0.008345865,0.010723046,0.032853477,0.05783848,-0.06755489,-0.033965483,0.05242218,0.057808105,-0.01948799,0.046957154,-0.0046120966,0.019707311,0.009124943,-0.020075776,-0.06654425,-0.024413943,-0.007164177,-0.023208592,-0.020721454,0.019523405,0.027319143,-0.006729921
43,0.033947617,0.021135185,0.0029727088,0.007400728,0.066387355,-0.0041724234,0.06929576,-0.020671498,-0.01521565,0.061370432,-0.08220073,0.016340708,0.00016369726,-0.0030223334,0.0061619743,0.020949125,0.016971998,-0.015148208,0.05628708,-0.004962552,0.029004496,0.01534379,-0.0030543145,0.047387753,-0.0039228676,0.0048831594,0.02180539,0.014501287,0.01285674,-0.007081291,-0.02344786,0.046686895,0.0101702865,0.013407324,0.020290725,0.038018517,0.040985517,0.013722598,0.04616076,-0.005198382,0.020606685,0.0020653212,-0.00760679,0.012845778,-0.023914248,0.0040366556,0.030784084,0.050419927,-0.050004672,0.04917248,0.010666633,-0.001460728,-0.0734755,0.0009952579,-0.0030610177,0.007172365,0.0031394856,0.008682867,0.026000677,0.0798247,-0.04027665,-0.01829983,0.011658364,-0.0015449622
44,-0.022995599,-0.041991923,-0.016823411,-0.010194217,0.007718268,0.075239666,0.0026902657,-0.02434195,0.011081916,-0.026645595,0.05829179,-0.0759596,-0.04426273,-0.025001274,0.017191773,-0.07651458,-0.01305667,0.020988995,-0.0905235,-0.018854512,0.06348175,-0.0856942,-0.023447057,-0.03698022,0.06765233,0.004349486,-0.06829162,-0.04128661,0.036372513,-0.03593484,0.0024561067,-0.0615342,-0.062179558,-0.014729053,-0.047050748,-0.038806573,0.016001,0.007241349,0.017460706,-0.033278342,-0.02872858,0.024815788,-0.04224624,-0.014319104,0.006328279,0.036751658,-0.0026507638,0.0048730094,0.00088899554,-0.0025336794,-0.054330386,0.05461349,0.008682555,0.08242264,-0.0081062,-0.05062099,0.01863108,0.03477076,-0.07107052,-0.017698105,-0.025340032,-0.022019848,0.026413143,-0.025472222
45,-0.017775323,0.03521475,-0.021252863,0.031614155,-0.052578323,0.009057788,-0.06349635,0.011448521,0.03809328,-0.011259093,0.02555773,0.008379951,-0.0012251622,0.019701753,0.015209303,-0.015860582,-0.020864395,-0.027712595,0.008058753,0.0015382562,-0.026697647,-5.819761e-05,0.041253366,-0.048617188,-0.013031692,-0.027703678,-0.031558745,0.00053248287,0.033705413,-0.011630547,-0.012105426,0.007421809,0.03934094,0.043194704,0.011422929,-0.021204066,-0.01984903,0.0068748775,0.028798454,-0.053895086,0.0067036855,-0.054056875,0.021990238,-0.0028380074,0.029506033,0.046895538,0.008119418,-0.005174052,-0.04484586,0.012427167,-0.00886861,-0.025675306,-0.0018781797,0.011639593,0.02368982,-0.032561935,0.033258766,0.016392816,0.01079867,-0.042581443,-0.02800744,-0.021700064,-0.009452061,-0.050986893
46,0.011619619,-0.033345014,-0.030765412,-0.044943128,-0.020889126,-0.017321195,0.06795726,-0.00988654,-0.009306766,0.01005474,-0.04135602,0.035311032,-0.007190917,-0.020782659,0.1769764,0.04885636,0.07280336,0.011924631,-0.039299853,0.06826323,0.09571393,0.024658915,0.029082973,-0.03181018,0.049302753,0.005166501,0.008302215,0.012458744,-0.030631792,0.013495146,0.04741799,-0.03145645,0.012901122,0.01424994,-0.017851304,0.06564399,0.018081926,-0.03477083,-0.007080718,0.016479583,0.002448016,-0.0061722184,-0.05153257,-0.016630564,-0.03750274,0.008934648,0.06728831,0.0090806205,-0.035997063,-0.048033755,-0.06468455,0.007793425,-0.026016451,-0.030660369,-0.05613114,-0.034571316,0.00042538802,0.020470917,0.01702187,0.07755447,0.024859965,0.00051870465,-0.003979814,-0.011157675
47,-0.04970901,0.043170255,-0.02932837,0.024980715,-0.008739309,0.04417432,-0.07057248,-0.006731293,0.017329533,-0.07480885,0.048672102,0.009764632,0.0014943558,0.013393995,0.011460488,-0.022944141,0.020913098,0.0029646202,0.009757304,0.05346837,0.006404012,0.021377787,-0.025137966,-0.0053923894,0.047908444,-0.01357496,-0.035182815,0.0030674872,0.016423129,-0.018601071,-0.026413297,0.0048954138,0.03435916,0.050923113,0.000863815,-0.04312165,-0.044347193,-0.010718579,-0.021469187,0.0027412546,-0.008511016,-0.040358268,-0.021568926,-0.001461873,0.042820413,0.04653178,-0.030599931,-0.040087856,-0.04268932,0.014666909,0.0098450435,0.04906023,-0.013050679,0.017571008,0.0030955998,-0.033890292,-0.0018061403,-0.0019449027,-0.004114028,-0.06264969,-0.015709851,0.010410462,0.027805492,0.023840517
48,0.008789274,-0.004425894,0.03591614,0.030072866,0.0361066,0.020200245,0.024285555,0.01676125,0.010865015,0.009545418,-0.015779976,0.011439337,-0.0095718475,-0.008546778,-0.014426234,-0.013005789,-0.002869196,-6.712781e-05,0.00503252,0.01367229,-0.020462224,0.015474186,-0.030806372,0.0025970957,0.023196371,0.0024663887,-0.014871274,-0.026100447,0.0040093274,0.012979235,-0.020365635,0.0046754354,0.0036760923,0.00586317,0.024804546,-0.0027575414,0.0035536033,0.04102078,0.026591204,-0.0037401638,0.025323581,0.027371902,0.030871026,0.03203753,0.007974723,2.562288e-05,-0.02622628,0.015499917,0.012505963,0.01872821,-0.0086748665,0.0066015143,0.0058056996,-0.0047189165,0.02613479,0.025380345,0.0041389167,-0.042784944,-0.019592728,-0.018733582,0.03054164,0.0124555705,-0.010042094,0.016812552
49,0.08660193,-0.05252942,0.025553439,-0.021745455,0.10315473,-0.003646998,0.05873478,0.016948607,-0.057326995,0.0565253,0.0066666785,0.0101222405,0.044582047,-0.0104279015,0.025717646,-0.00283316,-0.008333161,-0.022367839,-0.08533169,-0.028388435,0.05377705,-0.063030526,0.06470344,-0.008325721,-0.013735635,0.08810268,0.024887882,0.005874303,-0.016085928,-0.055844087,0.034321696,-0.026292112,0.010295871,0.0050940006,-0.0030944445,0.04900023,0.063615315,0.042600036,-0.039551586,-0.030640503,0.0062831105,-0.013571511,0.07838718,-0.010739505,-0.036688965,-0.052817922,0.016431745,0.101994574,0.020357575,0.05329513,-0.013005907,0.011549681,-0.059348706,0.031017331,0.022041025,0.020172685,0.051863063,0.06916777,0.035708535,0.004849001,-0.013655046,0.0034587374,-0.05198143,-0.031642452
50,0.04422973,0.0057474333,-0.014817928,-0.010092032,-0.009990056,0.0037995684,-0.01780131,-0.002160327,0.018431246,-0.0021390545,-0.012406389,0.006189258,-0.0068977033,0.009974769,-0.05071693,0.017920427,-0.035164703,-0.052878883,0.010583712,-0.014205102,0.03545129,0.038542088,0.016174935,0.039938625,-0.005858558,-0.013872909,0.049711194,0.0003660678,0.004138666,0.0033333213,-0.04546658,-0.00034736347,-0.011534194,-0.011211379,0.025681041,0.0015551783,-0.017760435,-0.028682629,-0.02213112,0.015252047,0.018949278,-0.028789286,-0.01880127,0.039299298,-0.0068983804,-0.0053823674,-0.01433465,-0.013309338,-0.018555932,-0.017284151,-0.013830248,-0.012326589,-0.0117412945,0.0096383635,0.004223476,0.022014769,-0.0069786445,-0.03187407,0.006825533,-0.025281623,-0.015523502,0.0011315821,-0.004168558,0.008697483
51,-0.021607049,0.020237291,0.001105027,0.007369068,0.0101017505,0.007763655,0.0005848027,0.010243143,0.0018575583,0.011421302,-0.013907345,0.009057341,0.0051354947,-0.0023488253,0.010759702,-0.0019265196,0.03381264,0.0059935185,-0.004148459,0.00446997,-0.005790755,-0.016036076,-0.0010779506,0.027222604,0.018070124,-0.008684946,-0.01329122,0.0016267365,0.00037779345,-0.008877676,0.04108265,0.0036517815,0.01374127,0.0036975653,-0.00064141036,-0.00062779844,0.004358609,0.01692251,0.0047118724,0.01689426,-3.9378385e-05,0.01386664,0.0144617725,-0.010579865,0.016639238,0.025576843,0.020118881,-0.0013838414,-0.004261184,0.010049334,-0.008918795,0.032554828,0.00044456718,-0.007898147,0.006695222,-0.02189657,-0.0013888452,-0.016319752,0.005708198,0.027146801,0.01038784,-0.016152019,0.023494665,0.031201568
52,0.016419463,-0.0922076,-0.017957177,0.019637829,0.013967524,-0.038308952,-0.031718753,-0.01237774,0.009438744,-0.00441482,-0.20713733,-0.041198026,-0.012652884,0.02245011,-0.024885671,-0.032625854,-0.048839103,0.040978074,0.01298931,-0.032645576,0.0030281437,-0.05159037,0.030265292,-0.014810657,-0.029910058,0.049818035,-0.024641199,-0.011937097,0.038605195,0.0194421,-0.04358648,-0.046832025,-0.021574967,0.03950578,-0.02980775,0.012224094,0.019811168,0.02685751,0.00926068,0.021436395,-0.05850755,-0.024500452,0.015708165,-0.0031566888,0.0097618345,0.0048700334,-0.011682751,0.021056455,0.025650453,0.035601243,-0.012741233,-0.0021251524,-0.012830072,0.012776151,0.014033874,0.0044206386,-0.00030378834,-0.01559635,-0.00067407923,0.026098758,-0.004787804,0.024453204,-0.035357192,0.011597787
53,0.036777914,-0.015196213,-0.015588261,-0.038509615,0.0597097,0.041073203,0.08669329,-0.018001815,-0.051184233,0.058472447,-0.044031378,-0.016756067,0.03407733,-0.028562436,0.07493265,-0.007490864,0.026367249,0.020674828,0.03684207,0.069595575,0.03979436,0.010507151,-0.00045214064,0.012207065,-0.010055798,0.013465633,-0.047125783,0.016594974,-0.049436238,0.0048715123,0.02727857,0.013611342,-0.021623282,-0.025488103,-0.027170705,0.064399995,0.037971742,-0.04241332,-0.13632718,0.022064757,0.011903463,0.013221075,-0.024291862,-0.03113635,-0.012482481,0.0039696484,0.10158214,0.029084982,0.07124477,-0.06550089,-0.020910155,0.04252706,0.06830119,-0.032002073,-0.034891322,-0.0119675845,-0.0047441646,0.041301284,-0.012653047,0.11464683,0.06610329,-0.023527922,-0.028641408,-0.01919645
54,0.025754625,0.0039852993,-0.036392704,-0.019171324,0.04955664,0.052235704,0.046577457,-0.070144676,0.0059385286,0.021412928,0.018694546,0.010407263,0.02844807,-0.062868774,-0.0221853,0.021617856,-0.027018286,-0.047261216,-0.005854291,-0.016108232,0.06307023,-0.0034833532,-0.028373975,-0.009679336,-0.022136623,0.053345103,0.013499365,-0.017996129,-0.0018172719,-0.08625012,0.0574025,-0.02615424,0.023778781,0.02632691,-0.021653716,0.02264272,0.027477551,0.013527586,-0.049246665,-0.040250607,0.039167244,-0.031626713,-0.032541346,-0.0003414922,-0.038900502,0.0068376046,0.017913857,0.020904286,0.05623742,-0.043125704,-0.01812346,-0.018662687,-0.052260622,0.010822907,-0.020308813,-0.035143655,0.02523328,-0.006424269,0.027076637,0.03229326,-0.03915915,-0.011455918,0.013842499,-0.046386633
55,0.015154901,-0.13040853,0.003593382,0.01674683,-0.013688356,0.036189836,0.03864214,-0.010841653,0.007235084,0.006648743,-0.10654943,-0.0074454825,-0.040318996,0.023048732,-0.017037401,-0.0061500804,-0.016824469,-0.0022055998,-0.018480543,0.0074953567,-0.019209603,-0.0024534222,-0.028092207,-0.021010812,0.047243074,-0.017901963,0.021929003,-0.015862485,-0.024994865,0.013239641,-0.000630895,-0.022410577,-0.024051065,0.0032232741,-0.01001169,-0.003016642,-0.03768997,-0.013354557,-0.025371708,0.03551138,-0.018650087,0.0017641715,0.028706463,0.007588669,0.011548912,0.009764272,0.020010259,-0.025404945,0.01739303,0.027232995,-0.0049075964,0.0021744033,0.00028136058,0.021251,-0.017486256,0.02610156,0.024652207,-0.011928185,-0.0493887,0.04833953,-0.016191985,0.022133367,0.023350643,-0.046823204
56,0.0037427086,0.011871952,0.0145323975,0.008813299,0.007594021,-0.021497378,0.00653481,-0.011789544,0.0014490474,0.012810019,-0.0039389236,-0.04044955,0.0076073995,0.016556792,0.010670661,-0.0650952,0.009870336,-0.005951316,0.01648523,-0.0018347331,-0.0042195907,-0.045701575,-0.012211259,-0.0024867898,0.0053753206,0.001151449,-0.07012427,-0.004452945,0.00043493792,-0.035023473,0.017016696,0.008752674,-0.003687982,0.007889571,0.0032036274,0.0015014787,-0.0025628058,0.014012405,-0.0009237735,-0.004945974,-0.0065444624,0.0074891713,0.008676126,-0.00016321319,0.004054155,-0.006870263,0.011942238,-0.0026475652,-0.00036182386,0.0043665436,0.0048950952,0.018439079,0.0021322735,0.0024670537,0.008108858,-0.0124667855,0.0017177714,0.0047940146,-0.03001482,0.005300536,0.004838946,-0.01686707,0.012185096,0.0014624811
57,-0.09407,0.07745561,-0.032608304,-3.3067256e-05,0.057942946,0.03671874,-0.017153503,-0.038804226,0.0060305465,-0.04047898,0.038545065,0.0445663,-0.011417047,-0.025862118,-0.011044257,-0.0064286906,-0.043841276,-0.023812989,-0.004024239,-0.011867174,0.030541169,0.004402649,-0.024707383,0.009394719,0.0013693047,-0.015907357,-0.03596512,0.0016468405,0.01797879,-0.10227892,-0.031115878,0.019437816,0.033538435,0.045447532,0.122421116,-0.07245508,0.017539907,0.039625086,-0.02059677,-0.06644852,0.029386243,-0.053953618,-0.050635677,0.02752067,0.058978792,0.0686793,-0.032648303,-0.044389307,0.007153334,0.007672173,0.0011114017,0.022147594,-0.13501322,0.02970741,-0.0042205933,-0.106509104,0.019339351,-0.045226276,0.0038378797,-0.038695954,-0.04695673,0.005983981,0.037739918,-0.022843786
58,0.021979997,-0.026025686,0.026735896,0.03210654,-0.00097568665,0.028486995,-0.0053246003,0.04454009,0.015545729,0.032298535,-0.0017838873,-0.029833091,0.029548798,-0.0044608735,0.108740605,-0.03740743,0.033144355,0.043402553,0.018072156,0.006031355,-0.05587795,-0.047967423,-0.0051642405,-0.0070380955,0.046313807,0.044230077,-0.024249945,0.0048040114,0.0016145487,-0.0038392283,0.09094441,0.012458942,-0.009326108,-0.037310787,0.01025404,0.034992363,-0.031184325,0.005808288,0.07801574,0.020899232,-0.017409805,0.024194416,0.052430365,0.016347717,-0.01363279,-0.018299736,0.036076616,-0.0010139635,-0.01855551,0.0467101,-0.0017302142,-0.018599402,0.03100598,-0.008795029,0.014561543,0.028877953,0.009511021,0.00507199,-0.026552694,0.012222976,0.022823175,-0.06005552,0.009347537,-0.0023522924
59,0.09538052,-0.00030768508,-0.020016406,-0.009827659,0.090720825,-0.0352913,0.11390501,0.0054796874,0.03424372,0.08424367,0.018791845,0.0139745455,-0.05614904,0.008813886,-0.14157642,0.040243458,0.019050505,-0.0068068565,-0.049295723,0.053481817,0.031263698,-0.017106531,0.029733263,-0.0059731756,0.009503759,0.066587456,0.055054918,-0.05238096,-0.016433092,0.022350695,-0.016404374,0.0027025775,0.019169047,0.040571034,0.012993203,0.1316935,0.09649146,-0.0019317049,-0.13390976,-0.015331857,0.0030457221,-0.047151644,-0.008251093,-0.012080136,0.028585576,-0.00076660496,0.054342866,0.10146313,0.07559749,-0.045916464,-0.045699045,0.07502624,-0.0032943687,-0.0039741066,-0.028366163,-0.045252606,0.0071052145,0.022099618,0.01444496,0.10322259,-0.009451473,-0.059172142,-0.03136121,0.0076979105
60,-0.03883657,-0.015184618,-0.026071569,0.044322953,0.0067349584,0.023255827,-0.079070576,-0.03059097,0.0393939,-0.06913946,0.054523703,-0.052247837,-0.01996612,0.022482304,0.0124307405,-0.061295763,-0.06491166,0.0022043472,0.014222081,0.013712407,0.011943182,0.009676233,0.039170645,0.052044176,0.02161623,-0.062569246,-0.03546766,0.045123376,0.018129684,-0.0014875678,-0.06752836,-0.00024751283,-0.012202606,-0.04359926,0.042779718,-0.05701057,-0.023774281,-0.036882967,-0.0329471,-0.03129061,-0.009676311,-0.0009765489,-0.017214155,0.019048315,-0.00926231,0.009030468,-0.030473553,0.0033590284,-0.027685452,-0.036400348,-0.0027633095,0.029239967,0.043020338,0.0053729536,0.018338464,-0.03574762,-0.016475625,-0.013322553,-0.07621751,-0.10388676,-0.00072298694,0.028231315,0.030097483,0.0062892633
61,0.027068881,0.004598233,0.011606949,0.07035233,0.030679405,0.074860245,0.0988019,0.027864408,-0.008702123,0.05393365,-0.0011847891,-0.031211153,0.0025090198,-0.02501398,-0.09558804,-0.010677117,0.019936005,0.089047395,-0.044751972,-0.007251254,-0.067372024,-0.06289322,-0.012160136,-0.025236292,-0.019681295,0.045591734,-0.018654592,-0.010750618,0.013859927,0.018823398,0.058472857,0.012896026,-0.007127553,-0.0300317,-0.004433957,0.044108283,0.024976654,0.019311503,-0.039852418,0.03192935,-0.053655468,-0.010885701,0.05894566,0.039602544,-0.017526314,-0.020818451,0.041105133,0.036566526,0.059475612,0.1073395,0.01674388,0.048813645,-0.015357407,-0.013470592,0.026096242,-0.02533503,-0.0075605772,0.015705213,-0.0074360208,0.079245955,0.0103202835,-0.014689111,-0.018429512,0.027174369
62,-0.008707413,-0.00038575515,0.00267512,-0.007758899,-0.015810287,0.055972163,-0.050050136,-0.043752063,0.06276957,-0.021090982,0.0052785506,-0.0013299662,-0.022805199,0.006705364,0.06143015,0.026797725,0.0054398896,-0.062991925,-0.07286133,0.004808917,-0.019307015,-0.005064166,-0.027554072,0.026550772,-0.0030904799,0.03334435,0.017076949,-0.03864388,0.010003923,0.011738035,0.00022065711,0.0014292692,0.010925502,0.023690797,-0.011226941,-0.019126296,-0.021562804,0.0040509035,0.065272324,-0.004376806,0.004838325,-0.021617727,-0.0066871652,0.011468918,0.0066708326,0.012544899,-0.013959294,-0.013252495,-0.20218337,-0.047160946,-0.030404273,0.0063928096,0.040578924,0.06179582,0.017636882,0.009886953,-0.019808168,-0.010215234,0.039592028,-0.010081915,0.011446768,-0.027384313,-0.026559077,-0.0251457
63,0.07416105,-0.022095846,-0.00086556916,-0.0034635563,0.00956009,-0.030467559,-0.035267048,0.01011711,-0.053981844,0.00028806285,-0.027468288,0.014990401,0.027410662,-0.005603697,0.114552066,0.01122765,-0.06850617,-0.029015478,-0.008880291,0.0068910415,0.023262972,0.016383972,-0.01996318,0.019699655,-0.0117432,0.012101891,-0.0347385,0.0056296866,-0.035401933,0.023147354,-0.12969783,0.031186787,-0.041518573,-0.027930219,-0.059899803,0.01709516,0.0081333965,-0.056491196,-0.03146264,0.011628852,0.022035642,-0.054965112,-0.012457315,-0.039163023,-0.003007108,-0.057213545,-0.065844886,0.05355656,-0.006245736,-0.056483094,-0.046126686,-0.00073961937,0.0154953,-0.034582388,-0.020729769,0.022761868,-0.0074119573,0.02145597,-0.00456962,-0.029981798,-0.0007789931,0.022559764,-0.040628303,-0.021578817
